1052 10
537 0.21826825 0.07216115 0.48851192 0.5477153 0.21101539 0.4761202 0.5693403 -0.114703216 -0.22941935 0.008188805
339 0.0023923442 0.13649327 0.12643148 0.74303424 0.33663088 0.2223163 0.530767 -0.14070718 0.21613295 -0.04382408
46 -0.80916935 -0.32224303 1.3545829 1.6242394 0.7041926 -0.80751723 1.3638514 2.0011542 -0.43368477 1.2511003
92 -0.63856626 -0.009539278 0.56584847 1.324552 0.14271277 0.124710836 0.8657349 1.4538625 -0.24400891 0.52579325
24 -0.50233626 0.40242302 0.5035662 0.2501804 0.017457837 0.2814413 1.074541 -1.0162708 -0.44283643 0.96397066
9 -0.2822082 -0.118275255 0.04445515 0.62076604 -0.074886985 -0.31177178 -0.010179371 -0.7862968 0.4987527 0.19769333
5 -0.8814011 0.46535328 0.07855488 0.7706825 -0.6546348 0.301476 0.45362967 -0.83420014 -0.08114024 -0.024772253
377 -0.2386407 -0.3286798 -0.2739244 0.88489354 -0.051828757 0.49814934 0.23316428 -0.43567917 0.12113037 -0.054902926
244 -0.44926468 -0.18531066 -0.19629806 0.51649874 -0.091495536 -0.47350404 0.54458964 -0.65799063 -0.09118594 0.1274676
742 -0.39663354 0.17803372 0.36277598 0.72431594 0.22375791 -0.124562144 0.3505838 0.012239385 -0.415503 -0.05058697
301 -0.030038938 -0.15474007 -0.09971353 0.631573 -0.062099118 -0.2603285 0.31356198 -0.48654285 0.4390861 0.2772576
37 -0.14606163 -0.14827542 0.13153343 0.46542546 0.16479369 0.01036475 0.406492 -0.11675357 0.0050835274 -0.010007861
504 0.34104636 -0.13790005 0.16419208 0.79952174 -0.0016077439 -0.051278163 0.12913908 -0.47150484 0.43654856 0.20903133
463 -0.090619564 -0.21428013 0.15687019 0.43019557 0.40881413 -0.1499735 0.25932845 -0.43913952 0.4901058 -0.04818275
623 -0.13902149 -0.4339482 0.2104369 0.3388212 0.18217562 0.78164315 0.019033201 -0.88965815 0.17090438 0.52103376
660 0.39691585 -0.058708347 0.7282175 0.9148316 0.1469639 0.4520153 -0.0007425576 -0.42742905 -0.52824533 0.5383249
620 -0.17207958 0.039633594 0.6756816 0.14858292 0.3280939 -0.28940272 0.24596949 -0.6166439 -0.1162006 0.18090375
13 0.663365 -0.1673012 0.8839919 0.1771195 -1.701582 0.52911246 2.2853394 0.09768129 1.3782777 0.6809856
90 -0.4766321 0.50812006 0.7421849 0.33984452 0.20451318 0.17948785 0.34474584 -0.19405042 0.48057878 -0.53012365
736 -0.51803696 0.6710149 0.94125223 0.8364327 0.2855346 0.45974192 0.015542952 -0.62932116 -0.22620027 -0.08702066
570 -0.012545704 0.018119335 0.108689494 1.2091446 0.15639062 0.27417323 0.0332083 -0.13486648 -0.20350376 0.4538082
28 -0.27046046 -0.15578918 -0.26674238 1.0378922 0.0972693 0.08705803 0.19466254 -0.42584535 0.5252805 -0.14007372
411 -0.23132706 0.0036461647 0.7493647 0.09091692 -0.19252352 0.09447382 0.611537 -1.2215992 -0.6253867 0.37888724
104 -0.15330918 -0.07106296 0.14049758 0.49150392 -0.07593286 -0.3721198 0.26466396 -0.57806164 0.3030912 -0.16835879
250 0.2301517 -0.34504208 -0.029294688 0.62356293 -0.12597515 0.014669155 0.20767865 -0.64671713 0.49385375 0.63656116
35 0.30667788 -0.55282 1.3072788 0.97131675 0.53337264 0.19217288 0.73515785 1.5408729 0.20437671 0.17635897
163 -0.184833 -0.088633105 0.19304447 0.70014185 0.33632588 -0.40798745 0.17751317 -0.35296714 0.17442386 -0.24028927
54 0.060366344 -0.23722851 0.1981755 0.62433386 -1.7123678 0.3207962 1.3441417 -0.0010191123 0.19823578 0.49390686
596 -0.48679993 0.3464945 0.011757822 1.2107769 -1.0345753 0.49277455 0.19877851 -0.08248643 0.21618281 -0.007846836
22 -0.71281075 -0.25663725 -0.38908544 0.5929789 0.17652568 -0.28148547 0.5232749 -0.45936823 0.07140547 0.47465065
39 0.26663622 -0.09625765 0.20047705 0.57547325 -0.36310267 -0.21423556 0.19780971 -0.4846042 0.73076296 0.3995988
585 -0.062045764 -0.2844698 -0.1841546 1.1286398 -0.30476412 0.17693944 0.09700756 -0.32691523 0.124084644 -0.02674793
679 -0.46808589 -0.7312734 -0.020485017 0.2841914 0.33888438 -0.292935 0.3099561 -0.6779606 -0.3759044 0.74017227
141 -0.21254352 -0.3156208 -0.18828267 0.5795897 -0.09259069 -0.14608066 0.31025943 -0.13341828 0.07777139 0.4444753
255 -0.94885296 0.07255027 -0.06845931 0.3985439 -0.097472206 -0.8761013 1.2535237 -0.7186632 -0.34113744 -0.018711658
95 0.051973328 0.028340774 0.120354146 1.3154945 -0.41056508 0.28110212 -0.16625316 -0.25162518 -0.086673155 0.45491946
152 -0.49730322 0.6277709 0.72431993 0.92637515 0.11057656 -0.5524064 0.006356967 -0.85093725 0.52352214 1.1479023
100 -0.124421336 -0.24297206 0.26416466 0.38807526 0.14255221 -0.4864421 0.049455095 -0.47902876 0.44891113 0.18159741
132 -0.068873905 -0.080215715 0.07251344 0.5730031 0.24220537 0.17357711 0.44791755 -0.49798775 -0.10987968 0.22445363
136 0.17483784 -0.23160028 -0.22887212 1.2120358 0.11929592 -0.7498061 0.7851247 -0.40166825 0.48173347 -0.19991612
251 -0.3910114 -0.26586244 0.35318652 0.24452622 0.6136695 -0.56476694 0.49605063 -0.43157256 -0.21327122 -0.15000136
513 -0.19597676 -0.11600785 0.22618139 0.31111962 0.089529395 -0.5796732 0.54832554 -0.48262078 -0.17059816 0.030237732
60 0.27748153 -0.466711 0.09591831 0.609781 0.2600095 0.12570366 0.14992116 -0.5442092 0.007473734 0.49100652
666 0.13907455 -0.28953284 0.13093497 0.5561056 -0.04449169 -0.1650097 0.03908051 -0.7417926 0.44323707 0.58554417
45 -0.80775535 -0.03222864 0.2492278 0.032984406 0.3405618 0.95310056 0.83827984 -0.5257553 -0.031252824 -0.02814384
0 -0.5249644 -0.2578327 -0.47576728 0.92869645 0.023345442 1.0968149 0.8254756 -0.013156342 0.7224458 -0.31150693
79 -0.082769126 0.28183073 0.39306206 1.4730062 -0.42574006 -0.082879625 0.78588545 0.52539206 -0.67051524 0.28797865
396 -0.61052203 0.5925864 0.7725345 0.43505692 0.13206689 0.6124645 0.31054908 -0.31281665 0.009879427 -0.24946594
712 -0.41160837 -0.0791843 -0.23658295 0.9208737 -0.3572403 -0.19909704 0.12668414 -0.71854013 0.26094398 0.07648548
322 -2.2631266 1.4111348 1.9996531 1.3124372 -1.6860925 0.09440014 -0.0041807247 -1.6907512 -0.40217748 2.6362574
263 -0.37889457 -0.14964175 0.27504838 0.79591197 0.5494495 0.8593669 0.048691493 -0.35911012 -0.17114496 -0.08778422
274 -0.07095701 -0.21660937 0.3382652 0.22344774 0.012138622 -0.40816513 0.6007529 -0.84643126 -0.45691952 0.5258689
484 0.4172505 -0.20959005 0.043005344 0.63678086 -0.229251 -0.041591834 0.49828258 -0.5487075 0.6374593 0.92315215
295 0.13901314 -0.08261628 0.116083354 0.49446586 0.06444524 0.42153138 0.3957978 -0.3282651 0.51286745 -0.014986885
7 -0.3820028 -0.97405386 0.30829975 0.8484376 0.47240758 1.2370006 -0.31031278 -1.5062245 0.67424214 0.5133179
150 0.2670398 -0.07418046 0.29253122 0.63654125 0.23419812 -0.34038296 0.3314379 -0.8208035 0.942016 0.56183684
392 0.57153183 -0.25704476 0.5356367 0.26475093 0.0077758958 0.16133513 0.7667737 -1.0548229 0.09523525 0.013910899
29 0.07335948 -0.13032608 0.1311751 0.3445933 0.152239 0.18357357 0.6953899 0.16978765 0.28540003 0.034570962
577 0.0238377 0.34514987 0.49285388 0.5597663 -0.15846337 0.42791796 0.95957273 -0.77959895 -0.21559198 -0.41260076
252 0.088266805 0.073301196 0.35175925 0.40091565 0.17565972 -0.37241298 0.4823518 -0.58109343 0.027918322 0.09878877
273 -0.10765929 -0.07820429 -0.013030133 0.92529094 -0.3084527 -0.32616815 0.04641653 -0.9119139 0.31128338 0.46225864
385 0.09290965 0.14649004 0.16999021 1.2752522 0.11624583 0.48406565 0.40279767 0.3860916 -0.13551982 0.30465072
602 0.2301367 -0.44854236 -0.080555245 0.8411159 -0.10626041 0.0040728115 -0.011413969 -0.5734489 0.4458771 0.6283924
86 -0.04726346 0.24019387 0.3027746 1.405108 0.0024255966 0.08636309 0.50717026 0.32262513 -0.6668081 0.43987897
21 -0.23819372 -0.27319592 -0.30615696 0.4373286 0.09645608 0.28197005 0.8444062 -0.23690619 0.43548083 -0.06475997
496 -0.20921625 0.31174907 -0.042029478 0.9879373 -0.4464686 0.21044438 0.29833823 -0.40142626 0.9331193 -0.23446196
260 -0.14483836 0.055556737 0.35851276 0.51181525 0.2034778 0.14381878 0.17803375 -0.3480337 -0.16706231 0.09461309
57 0.2861519 -0.6800961 -0.22465196 1.052774 0.5958278 -0.18869159 0.4142061 -0.39004272 0.16332613 0.5056495
296 0.48628354 -0.20878085 0.59701824 0.24301271 0.49993044 0.23938134 0.7309053 -0.6858333 0.28799877 -0.17549749
334 -0.33251715 0.008020636 -0.0013347109 0.68299043 0.14910494 1.1455684 0.47002107 -0.9278375 0.18791664 0.69172114
89 -0.44607094 0.5289959 0.8392095 0.42547965 -0.114012584 -0.8542156 0.3981963 -0.3261231 0.3411041 -0.40057194
751 -0.5065643 0.06533757 0.48798957 0.16732949 0.18164976 -0.8451892 1.1517947 -0.59163797 -0.5518657 -0.3161399
194 0.1750159 -0.6385411 0.7497363 0.40693837 0.18544027 0.8262486 0.14293908 -1.4793242 -0.22111133 0.08029062
399 -0.075238936 0.17122772 0.11716013 0.884755 0.5009415 -0.0236985 0.39131668 -0.20529383 0.22093754 -0.060852148
12 -2.1443038 -0.882889 3.4696295 3.1794271 -0.7939663 0.99473363 -1.3896244 2.2275338 -1.6252079 1.294686
336 -0.1221751 -0.10134936 0.12888606 0.36074123 -0.3205906 0.19701979 0.5437488 -0.8124145 0.4690055 -0.37955245
318 0.22634244 -0.44668835 0.030133117 0.77800333 -0.09553802 0.05368198 -0.035218284 -0.7208523 0.5316059 1.1705704
256 -0.3194674 -0.09683501 0.16171196 0.6365863 0.11336148 -0.3055537 0.062964045 -0.5687385 -0.28581265 0.2831781
77 -0.12313807 0.089553095 0.29056254 1.418258 -0.5510602 -0.1675235 0.9301095 0.4954648 -0.82996476 0.27926952
705 0.05108969 -0.25844288 0.43112308 0.63160425 0.45144066 0.08255039 0.05834434 -0.18469077 0.015266455 -0.06904093
172 0.09692847 0.15236145 0.10414667 0.82080185 -0.13911343 0.26592928 0.4070999 -0.3758843 0.27452698 -0.13636862
44 -0.2095523 -0.22001278 -0.47847825 0.9540377 -0.027203519 0.18847042 0.6619914 -0.28639993 0.54542905 -0.1440435
189 -0.049503803 -0.016957415 0.49781024 0.25799352 -0.08584036 -0.30954432 0.324654 -0.5956674 0.036458157 -0.17860973
81 -0.04932088 -0.36025906 -0.024168007 0.6521753 0.28156817 0.0866327 0.53552324 -0.2184809 -0.5070285 0.52081716
614 0.12673485 -0.790187 2.1486323 1.6743728 0.905265 -1.4723593 0.93707114 1.940622 -0.35712478 0.41446757
214 -1.5969535 -0.42035222 0.0009790692 0.9489852 -0.14251049 -0.35531434 0.53215617 0.8956524 0.4786611 -0.06327576
249 0.19481435 -0.5230483 0.070007406 0.3571579 0.17547995 -0.6303245 1.0292428 -0.5296265 -0.36561382 0.2439163
460 -0.0016642323 -0.4584924 0.21189834 0.34938794 0.0012461315 -0.757447 0.122618504 -0.5160252 0.30612382 0.5474492
511 0.41207224 -0.6855904 1.053448 0.40976623 -2.7484434 1.0963596 2.13726 -0.16283755 1.6202368 0.6948878
626 0.05014889 -0.014241609 0.036386583 0.77196616 -0.1300179 -0.84535676 0.74668926 -0.8256477 0.7469528 -0.20270218
16 -0.1778612 -0.12602 -0.29104048 1.333107 -1.2434174 -1.1669654 0.81599873 -0.15183996 0.40210456 0.63388354
66 0.37003312 -0.06102099 0.4652524 0.35127255 -0.65658927 0.50045377 0.92527646 -0.63725245 0.19222908 -0.3115331
102 -0.48836443 0.4052195 0.7898931 0.44535714 -0.010594951 -1.0598155 0.7028123 -0.27319276 -0.3005093 -0.35169104
389 -0.07156061 -0.30528706 0.4214716 -0.062691405 -0.2901867 -0.17111282 0.42318428 -0.7297038 -0.23616813 0.66775817
450 -0.00089570007 -0.7735637 0.49808675 0.14286621 0.16722845 2.0222573 1.9002658 0.013332125 -0.49100494 0.26208133
127 -0.34135562 0.3863947 0.25558308 0.9225026 -0.32750788 0.30440146 0.26355323 0.30376232 0.2262964 -0.29485404
15 -0.067098945 -0.43016952 0.023462856 0.54187775 0.123486094 0.508106 -0.01600511 -0.57880306 0.4978859 0.13242437
186 -0.8826846 -0.13945593 -0.30820736 0.52507704 -0.46878442 0.24410926 0.55210674 -0.8008343 0.20027748 -0.3505237
325 0.049778897 0.14220493 0.36448997 0.8693468 0.3267928 0.23994444 0.15115574 -0.20220104 -0.21484232 0.284269
264 -0.258839 -0.017869364 0.04016743 1.2397217 0.3896894 0.34444326 0.073694915 -0.13548267 -0.18362327 0.05106359
10 -0.20176321 -0.8342337 0.16702747 0.498594 0.25402784 0.7953587 -0.16297019 -1.2444934 0.56323534 0.5333902
259 -0.27465594 -0.12487513 -0.0970495 0.5012908 -0.0503655 -0.23453267 0.37199673 -0.5959045 0.2078493 0.23703441
667 -0.0538085 0.10829222 0.3312932 0.4156892 0.08027101 -0.16349013 0.42663297 -0.7612267 0.03512077 0.54819643
737 -2.8795469 -1.7238606 4.8330207 3.4267156 -0.95111823 0.32351446 -2.392208 2.0705085 -2.4926786 1.39152
573 0.08006055 -0.39186537 0.07335244 0.434162 -0.22337705 -0.16642264 0.05970753 -0.6843715 0.598406 0.651762
32 0.1791845 -0.814154 0.3465859 0.48806775 0.7006917 0.26703975 1.061107 0.037395727 -0.89106894 0.55616105
530 -1.2276554 -1.1898177 -0.9994116 1.7562609 -0.4582445 -0.19393048 1.3824431 -0.9702625 -1.4596337 0.6345295
470 -0.146781 -1.1120721 0.14195801 0.5203489 0.8035734 0.22256406 1.0461142 -0.05978279 -1.0275391 0.9351057
52 -3.0146437 -1.5084155 1.1496907 -0.838272 1.5934252 -0.08075152 3.426491 -1.7984073 -0.36016104 -0.27436355
429 -0.28241572 -0.38293132 0.0072480342 0.43624976 0.26238006 1.6598594 1.7278728 -0.15510349 -0.2838465 0.096617565
26 -0.5483734 -0.33435377 0.46134198 1.1712768 0.6585549 0.62262034 -0.6162017 -1.1002558 0.602259 0.2522824
579 -1.1385515 -0.1346193 -0.28996542 0.6217898 -0.0075160856 -0.41826683 0.7007203 -0.052647974 0.041348353 -0.08451998
522 -0.89908665 0.29528934 0.17857651 0.8609456 -0.40727448 -0.3977461 0.024079263 -0.7668723 0.124338694 -0.130983
526 -0.1424379 0.3691838 0.66314334 0.7883846 0.24264851 -0.4433624 0.056594834 -0.8657091 -0.1032401 0.6087562
360 0.24659254 -0.09999706 0.09093924 0.49963602 -0.13463645 0.40426847 0.57809854 -0.6020219 0.13763686 0.1933023
717 -0.21874744 0.09992626 0.14378397 0.7316264 0.30846533 0.059873585 0.068447486 -0.5188765 0.16191633 0.49802577
74 -0.070301116 -0.016406074 -0.062504254 0.69349146 0.24578296 0.16820237 0.7139708 -0.32538894 -0.20981784 0.34731203
306 -0.105745174 0.318754 0.007872937 0.6053275 -0.17637938 -0.19659115 0.7579969 -0.66284674 0.58051825 -0.008249123
169 0.06559134 0.06403282 0.07428136 0.9700269 0.15103744 0.46677747 0.26460522 -0.27149424 0.11265186 0.026069704
694 -0.27108523 -0.20310728 0.40602177 0.6340898 0.7014476 0.50993425 -0.058756884 -0.4458467 0.05516617 0.05542246
118 0.022585679 0.2561912 0.77246904 0.73059505 -0.3044419 0.52350056 0.112171635 -0.6837721 -0.573127 0.34503454
33 0.04195173 -0.61540776 0.4189623 0.34179604 0.2727061 0.8690312 -0.03818262 -0.9806974 0.16836572 0.2425562
533 -0.33690557 -0.3143949 -0.061354417 0.5124463 0.062015887 -0.5371381 0.19531202 -0.14419127 0.3405423 0.077612326
50 0.116884425 0.044358328 -0.060945563 1.0641884 -0.41835785 0.09180157 0.09269179 -0.20504749 0.4757426 0.5090783
383 -0.78674656 0.001147195 -0.25965792 0.58643275 -0.27407232 -0.15091904 0.41643107 -0.8542773 0.15869913 -0.07691291
805 -0.25331447 -0.04636642 0.060097784 0.27954954 0.3770152 0.86029387 0.8608831 -0.54427624 0.41673705 0.148479
270 0.0374938 -0.12251062 0.23703319 0.5903328 0.39699134 -0.050811857 0.14174704 -0.40220794 0.27932554 0.12804969
91 -1.1521245 1.088235 0.88565266 0.7566039 -0.9450676 -1.5115618 0.89023846 -0.43818617 1.422777 0.29316413
646 -0.8324321 0.8125065 0.9851421 0.6792419 -0.26048845 -0.16026466 0.19127811 -1.0709642 -0.14747952 1.3012269
494 -1.1812186 0.11356896 -0.24322931 0.5406659 0.034648586 0.058003515 1.1964896 -0.7799624 0.21335381 1.2091862
340 -1.6529766 0.3089892 0.96931356 0.20269375 0.5510754 -0.71384424 1.5855697 0.21585001 2.281428 -1.0655187
328 -0.7622099 0.38086352 0.3901809 0.59520185 0.11918264 0.9890726 0.90378165 -1.0660081 -0.4292967 1.0176028
410 -0.43440652 0.85414064 1.1063437 0.6118404 0.23250227 1.1487418 0.48680356 0.15428609 0.290363 0.060623348
115 -6.4145513 -2.37684 4.967093 -3.097509 0.61582834 -1.3103541 4.10645 1.136775 3.7342556 3.6616352
292 -4.5883064 -4.2794724 4.3781247 -3.0137885 3.3578267 -1.8068912 4.948233 2.0012891 4.424294 1.6206641
229 -4.76912 -2.5350595 5.430462 1.0229751 0.5105089 -2.572661 -2.3476725 2.7851782 7.1964793 4.167477
509 0.47042167 -0.16552055 0.2854623 0.27223453 -0.4430561 0.1783066 0.8733791 0.17587574 0.79308176 0.29906577
331 -3.0934525 -1.7623024 6.569319 -2.014514 -1.0997481 -0.6908023 1.4162682 1.5499474 7.339007 3.7453206
108 -3.4485896 -3.8170733 4.8362947 -2.5315962 2.6173263 -0.7956614 3.2723048 2.1952097 5.79056 6.7437735
124 -5.6287065 -3.8245108 6.168214 -1.2714144 1.7736372 -1.3857665 -1.6640452 1.3606954 4.4002085 4.432015
943 -3.7467284 -5.670166 5.747347 -0.9157735 2.3968801 -0.9421273 -1.5392871 2.3068917 6.706424 3.7221596
695 -3.9709742 -1.5418994 6.4555244 -1.6396265 -1.3994486 -2.7884605 1.8624215 2.1164405 5.9825964 4.622291
182 -5.5787315 -3.097864 7.0013447 -1.4016541 4.707833 3.9240077 1.3315469 1.9170312 3.6948497 2.7519693
582 -8.708341 -1.8081412 6.1003985 -0.76187843 2.4568017 1.7430491 -0.6227761 -0.19072726 3.235868 4.50231
871 -5.4562964 -3.1792443 4.2488737 0.76974094 1.8620163 1.5501539 -2.0972674 2.6845825 6.9980564 5.9278173
30 0.14353015 -0.84039044 0.32475737 0.52078664 0.7246455 0.30574077 0.9260749 0.013863554 -0.91023225 0.52384824
374 -0.29474154 0.03477553 0.6514543 0.35206303 0.9076178 0.19503094 0.33759704 -0.5134241 0.07861053 0.077940315
657 -1.1117618 0.33433396 -0.3022004 1.2230436 -0.38353297 1.2273275 1.1470433 0.272254 0.5587343 -0.78709006
786 -0.20826352 0.14411159 0.28991622 1.2625886 -0.1524084 -0.11527243 0.6479874 0.6569947 -0.6011742 0.32520276
239 0.13743365 -0.38682714 0.62416875 0.36087468 -0.093240164 0.7383243 -0.0775239 -1.2327057 0.9160191 1.0383263
76 -0.027065724 0.09732985 0.0617835 1.3955505 -1.1807142 -0.502491 0.99937576 0.4269683 -0.26924944 0.37423882
505 0.37221405 -0.47968248 0.17463368 0.87706894 -0.14526515 0.5294863 -0.095324315 -0.6484723 0.053497642 0.81365377
323 -0.22721525 0.22483623 0.43825704 1.6664718 -0.35121602 -0.15996335 0.76164716 0.8943189 -0.7140949 0.42295507
373 -0.81116015 0.47420678 -0.20548968 1.1351544 -0.5543249 0.64338166 0.6714398 0.083624825 0.30129486 -0.4102845
291 0.34345493 -0.28705084 0.28643638 0.39333296 0.15385765 0.54886055 0.33699164 -0.4848513 0.60694665 -0.015982348
261 -0.11065036 -0.4056632 0.091742866 1.1648377 0.8182854 0.38484743 -0.025162235 -0.31681666 -0.016287982 0.18369187
253 -0.7358388 -0.25212365 -0.20908913 0.47217947 0.1329303 -0.6042216 0.5348809 -0.34169677 0.18387525 -0.005036473
131 -0.2331203 0.0729784 0.08045796 0.8683478 0.20482442 0.22657143 0.65217364 -0.26213542 -0.6239436 0.53226733
518 -0.567351 0.542766 0.5883163 0.42265898 -0.10317521 0.31548622 0.19827645 -0.45643464 0.31234837 -0.3223194
684 0.03426221 -0.0344767 -0.23021771 1.2278036 0.22881839 -0.24262042 0.69544643 -0.22475709 0.5251001 -0.30917138
196 0.30581114 -0.2739128 1.0027671 0.45135283 0.24698034 0.12818195 -0.16870736 -0.91600025 -0.3772374 0.31558305
729 -0.26141545 -0.100412905 -0.013539557 0.8466133 0.4294724 -0.03170988 0.12412981 -0.5551798 0.43569744 -0.12899771
184 -0.2571538 0.011053425 0.030586626 0.6519747 0.0114795435 -0.6460364 0.48018184 -0.92094994 0.27050027 0.61312217
362 0.15061069 0.010572274 0.24553573 0.46397403 0.33695546 0.4640252 0.76836264 -0.2437756 0.0046991985 0.14743918
619 0.23166484 0.36738375 0.2725288 1.6209316 0.2085454 0.38889387 0.5738027 0.23891443 -0.26850888 0.52976924
670 -0.4241584 -0.08321324 -0.11510939 0.5794268 -0.022449968 0.06782671 0.43631023 -0.42448822 -0.18719618 0.26122776
8 0.08991779 -0.067001686 -0.0086147925 1.031021 -0.71576244 -0.49539077 0.09701429 -0.34074178 0.7227703 0.49507222
302 0.005245574 -0.33507848 -0.04854576 0.55176324 0.13378932 0.26396662 0.1654054 -0.50494266 0.70061433 0.22404793
766 0.14301553 0.18877341 0.2884838 1.4286516 -0.15404746 0.3722544 0.3317531 0.43104005 -0.30025792 0.30817008
269 -0.4103903 -0.2635394 0.68843323 1.4481238 0.28428888 0.1496924 1.2508606 1.8554665 0.12579432 0.91355866
480 -0.15810643 -2.2128315 2.7330904 0.24496804 1.4549996 -2.0129938 10.123845 1.0209652 4.8960648 6.5724487
481 -0.23402034 -2.178655 2.4754672 0.41477877 1.3482537 -1.9706638 9.933764 1.0838435 4.937665 6.743275
720 -0.3372163 -0.8352974 0.26675448 0.42481455 0.15230335 2.3848681 2.7562017 -0.077763624 -0.7939018 0.37179404
166 -1.1512088 -0.3062811 -0.7335788 1.2352698 -1.424808 -1.318991 1.2076461 -0.5288064 0.3150453 0.5837464
761 -0.32677567 -0.016124124 0.62765336 1.240488 0.29173565 0.10685041 0.9363201 1.3945692 -0.14371516 0.755968
609 -0.54714096 -0.57119226 0.1913029 0.12803023 0.4136007 1.8768255 1.5772318 -0.25487038 -0.2944106 0.07594215
507 -0.16421784 0.19558705 -0.07885661 1.4482464 -0.012798527 1.8587891 1.0698088 -1.3715856 0.09116225 0.886255
59 0.5035347 -0.2927904 -0.010602728 1.2833726 1.2278352 0.097765975 1.156391 -0.7020182 0.4389143 0.34750104
566 0.22737183 -0.071866706 0.44535547 0.07751945 -0.9981895 0.17430149 1.1084592 -0.07718641 0.26548618 0.45913377
370 0.22025916 0.16335174 0.32609054 0.3428176 -0.29070726 0.41062537 0.8753411 0.018898582 0.16307448 0.22700325
290 0.30244333 -0.6656336 3.2569137 2.1338038 1.2117853 -2.1035924 1.2921106 2.2577097 -0.43367875 0.0059419954
234 -4.878456 -2.5735383 1.7972336 -1.0928068 2.4557145 -0.3348174 5.333967 -3.289938 -0.27930334 -0.86138654
58 0.4374826 -0.7441345 -0.09531569 1.1278805 1.0655003 -0.0039237603 0.68639153 -0.72111505 0.22776127 0.51268
64 0.27954915 -0.2724802 0.20752056 0.58821976 -0.5039147 0.6587492 0.90995586 -0.7918449 0.19936989 -0.49306
749 -0.71365833 0.56869847 0.49734342 0.6150719 0.15816915 0.6240746 1.0127631 -0.7856008 -0.72476953 0.7314635
420 -0.07832464 0.17499799 0.62775856 0.27813938 0.011347193 -0.039218877 0.89126104 -0.6811239 -0.58324945 -0.20653324
376 -0.039752442 0.3754546 0.52421254 1.1455002 -0.009104407 -0.2413352 -0.11182168 -0.8355073 0.56780845 1.290117
133 -0.7218508 0.46151826 0.29346702 0.7758502 0.05220769 0.6449784 0.91401666 -0.8251088 -0.7157624 0.7504898
187 -1.5444931 0.17809986 0.1747994 0.92264897 0.031929992 1.0748508 0.29025877 -0.8923001 0.1861646 -0.91833395
308 0.03824679 -0.053176813 0.4039743 1.3279756 0.21379395 0.27676752 -0.5786342 -0.2634961 0.59852266 0.55458206
220 -3.775483 -1.6890285 3.8158188 -0.11068801 1.8105987 -0.6286142 0.48927644 -2.2502654 -0.44735342 -1.7594112
188 0.2214248 -0.1968752 0.84436774 -0.054253496 -0.20326279 0.034676082 0.8428098 -1.4696239 -0.22409222 0.26927748
946 0.18312447 0.32444343 0.47624943 0.67398214 0.18705815 0.36865923 0.8956787 -0.36156383 -0.14929876 -0.28580755
353 -0.07742294 0.31977192 0.39072913 0.75649714 0.24698992 0.4646797 0.35958236 -0.09034192 -0.02132802 -0.027057124
630 0.3620747 0.2522923 1.0541567 0.6167581 0.14483763 0.5571672 0.63887733 -0.877354 -0.87266463 1.0835689
120 -0.45847377 0.67616916 0.63376004 1.229442 -0.6270334 0.74054796 -0.16520151 -0.49727866 -0.03758347 0.078908786
945 0.18773858 0.3296881 0.497631 0.63624245 0.14957692 0.43376264 0.8843509 -0.3242846 -0.1647894 -0.3053697
865 -2.510553 -0.45642206 -0.5843109 2.0324624 -0.015676882 -0.0091413995 0.7799515 -3.2578728 3.6821828 0.20327652
367 -0.49117807 0.3166889 -0.059229583 0.9150908 0.0375065 0.6195641 0.77392447 0.15404761 0.16609694 -0.3925411
969 0.120032154 0.27971053 0.7148038 0.6359904 0.18498814 0.13168353 0.23831238 -0.63187015 -0.43229353 0.6044878
177 -1.3057997 0.12285828 0.048859645 0.592011 -0.1623713 0.7723145 0.5823257 -0.4936523 0.35032156 -0.9722222
84 -0.26731262 -0.22460994 -0.21073562 1.2913674 -0.72499585 0.6588568 0.06939868 -0.27653077 0.14187655 -0.11500476
285 -0.20107976 0.22021492 0.3525434 0.6958747 0.079739116 -0.5478365 0.17711367 -1.0129234 0.644692 0.76732635
468 0.13179834 0.14571668 0.38802862 0.6361873 0.4317023 0.26207435 0.50868607 -0.10180724 0.191765 -0.12089623
457 0.5307781 0.17498152 0.9318087 0.7838397 0.18840124 0.55706334 0.42442548 -0.539563 -0.65890956 0.77872944
85 -0.15486921 0.2956702 0.3656949 1.8078024 -0.48531112 -0.23637338 0.78667885 0.54243714 -0.8673699 0.38022923
956 0.2863915 0.16987728 0.28622043 1.1332073 0.1061006 0.42576033 0.45914552 0.19029772 -0.16679634 0.26344204
355 -0.08078982 -0.07816715 0.21225564 0.5368165 0.45205498 0.4304208 0.2393755 -0.42624828 0.11772203 0.06047057
455 0.6695305 0.14441794 1.2941117 0.8689232 0.21741442 0.5542724 0.56273746 -0.7199349 -0.9633626 0.9273455
456 0.5153456 0.13861193 0.96870494 0.73647743 0.20187967 0.5692531 0.4252989 -0.5191278 -0.7172979 0.7496371
407 -0.6142988 0.41286892 0.83895403 0.46866003 0.35183376 0.03147232 0.26622277 -0.24215806 -0.330076 -0.14445184
105 -0.32728994 0.31989023 0.5396667 0.57490367 0.33277947 -0.53783816 0.4228974 -0.111616835 -0.024248416 -0.33870688
53 -0.2802931 -0.981637 0.29681218 0.5229703 0.1694232 1.305792 -0.21877694 -1.308411 0.5437346 0.5791168
307 -0.41242796 0.44095498 0.514023 0.6541196 -0.0723609 0.49276686 0.24094442 0.041801844 0.71307325 -0.5021065
276 0.30339637 -0.13340002 0.4369511 1.100166 0.012425934 0.8499966 0.08834382 -0.34376758 -0.55183595 0.87513477
83 -0.31205568 -0.1678568 -0.27057758 1.305749 -0.6607426 0.63252425 0.05228166 -0.28394297 0.15315473 -0.056626927
992 -0.4270737 0.5132378 0.56374115 0.5977472 0.30293185 0.3635049 0.54844344 -0.37291133 -0.51702833 0.10723532
562 -0.49233928 0.16347757 0.10438485 1.5300719 0.41353938 0.41462922 0.004910036 -0.47159684 -0.040211886 -0.30254343
69 0.38721535 0.16647679 0.24779306 1.3153702 -0.34562454 0.15407148 0.15785114 -0.42718074 1.2756232 -0.13027738
218 -0.49317893 -0.23739734 0.02978615 0.47131896 0.37800983 -0.51654816 0.21927613 -0.45793918 0.48233068 -0.019441219
783 -0.17874283 -0.39303514 -0.09312573 1.2212409 0.1595954 -0.2851672 -0.00081400434 -0.28532252 0.33248287 -0.33827987
142 0.20483685 -0.984641 2.6065485 1.5172848 0.8576136 -2.016016 0.5159029 1.5586196 -0.2310445 0.48891252
500 0.48172274 -0.26676822 0.09798235 0.49928764 -0.370385 0.21146123 0.66507524 -0.8465398 0.34440792 1.0087136
241 -0.17526738 -0.8748389 0.24708071 0.5060109 0.19436742 1.0287884 -0.15698723 -1.1289889 0.53562015 0.35159397
223 0.16689758 -1.3638583 1.8159139 0.2938921 -4.0774302 1.4784948 2.7602065 -0.57098836 2.7732928 0.89283925
448 0.36499184 -1.6604822 1.4799575 -0.016842252 0.55896014 2.4956453 3.2173812 0.5898697 -0.6779087 0.21671559
832 -1.2215316 -0.71316296 1.2402495 0.07236844 0.9951069 -0.6543188 0.27544928 -0.65363336 -0.16518363 -0.6196216
759 -0.15382326 -0.2194971 0.8713549 1.2497747 0.3603502 0.15512994 0.97665274 1.6736585 0.094418705 0.48396483
215 -0.71596867 0.4685306 1.4469339 0.803336 -0.050822537 -0.84378207 -0.3363916 -0.5132703 0.87331796 1.9643688
143 0.31453657 -0.8659176 1.9258004 0.65327924 0.6761302 -1.5544711 -0.017845 0.43378374 -0.0054528103 0.6705612
174 0.89038754 -0.4859842 1.3253591 0.4436447 -2.8142052 0.91767114 2.5564363 -0.16140418 2.002735 0.98568743
418 -0.7666651 0.40302992 0.699712 0.10805829 0.48117447 0.1255841 0.77307063 0.09764687 1.1814212 -0.49856192
616 0.9160401 -6.73486 3.8620856 3.127487 -4.5197797 -2.4276292 0.8140601 -1.0971271 0.021083679 -3.1902263
615 0.8943892 -6.5888543 3.9074826 3.0994847 -4.525186 -2.4421747 0.8060363 -1.070253 -0.03309912 -3.1838822
653 1.5942613 -6.2398252 7.468706 0.8022356 -4.9850388 -1.2515564 -1.3785157 -1.7127571 5.9200535 -2.7591224
654 1.5400019 -6.2049813 7.4437957 0.78259045 -4.9818797 -1.321791 -1.3603737 -1.6872002 5.949884 -2.736512
202 0.70455074 -8.206335 3.0854595 -0.25013182 -5.1388364 -0.13600418 2.8047652 -3.3578982 3.0951245 -2.210788
203 0.45564154 -8.366243 2.913579 -0.331374 -4.991689 -0.17529339 3.0568624 -3.5282812 2.781518 -2.3102922
1033 2.5504272 -8.136598 3.8333993 1.9840549 -5.2295766 -1.8034962 0.6448647 -2.9937103 1.6488687 -1.0233723
1032 2.56441 -8.099578 3.88259 1.9072882 -5.2786226 -1.7432196 0.63855153 -3.0327563 1.7567654 -1.0146346
947 2.4059756 -8.269905 2.7658896 0.6825665 -3.6770835 -1.9021821 4.264728 -1.2715591 1.7972517 -2.930703
948 2.3819234 -8.233675 2.743769 0.6639589 -3.732949 -1.8801033 4.298203 -1.3520046 1.8127341 -2.8985517
299 2.5983455 -9.10066 2.1410046 2.39278 -4.528524 -1.4895118 2.3743057 -0.8696771 0.86029506 -1.884541
300 2.5795782 -9.122731 2.1318357 2.4374607 -4.417513 -1.741173 2.3809602 -1.1646993 0.43713123 -1.7009786
405 4.172378 -7.5857897 4.207489 2.699019 -3.2489705 -2.4194603 1.6535813 -0.19824561 0.8878092 -2.1117105
404 4.101203 -7.675615 4.280853 2.417713 -2.964083 -2.5131311 1.808613 -0.34697425 0.72412276 -2.1986282
442 2.8155656 -8.682758 4.6258855 -0.012007504 -3.3604329 -0.9161201 2.3585458 -2.0667608 1.7741346 -2.1351316
441 2.8068068 -8.622203 4.6363096 -0.057888854 -3.4131277 -0.90688884 2.3861325 -2.099448 1.8724713 -2.0920243
342 0.49536142 0.09877509 1.3576416 0.2728682 -0.25812745 0.6347204 0.41882274 0.07174269 -0.3294782 0.52984434
986 -1.1549699 -4.740868 4.666183 0.58904487 -5.9445 1.1255355 0.8351634 -1.6367555 1.5139638 -3.3339
987 -1.1464565 -4.758226 4.7147155 0.6190938 -5.919477 1.2387797 0.71762544 -1.6092038 1.4625311 -3.3103678
1000 -0.021106496 -5.144391 5.0207195 1.0651228 -4.5792613 -0.08628737 0.5093058 0.064931564 1.5386697 -4.8259616
999 0.042931937 -5.164782 5.08631 1.0472213 -4.5125675 -0.13108715 0.49669492 0.14592907 1.545251 -4.8212166
129 -0.86666185 -7.109185 4.312881 2.6071112 -3.5401158 -0.6958676 -0.6045722 4.0760593 -0.31244472 -2.6723363
130 -1.1635548 -7.287551 4.1616764 2.48951 -3.4523306 -0.6095234 -0.6670376 4.2138267 -0.28960645 -2.3536687
423 0.5611823 -3.6822834 6.4059877 1.1492614 -5.7217016 -0.055572543 -0.27998587 -0.51321375 1.7550334 -4.0645328
424 0.54666054 -3.8059118 6.3478475 1.1588573 -5.773795 -0.035794955 -0.24997747 -0.51954335 1.7247688 -4.1433167
774 -1.2380596 -3.2845418 6.2728186 1.7879218 -5.8912916 0.18736924 -1.4006608 0.39678374 2.7475657 -2.674354
773 -1.2720836 -3.2846844 6.252667 1.7773266 -5.921573 0.23328067 -1.3679839 0.36442307 2.7278948 -2.6804092
112 0.148144 -5.729111 6.234404 1.5638404 -4.6705236 0.37998515 -0.5789443 0.1812719 -2.7234051 -1.4705037
113 -0.056724302 -5.656993 6.062498 1.7144685 -5.041475 0.41659942 -0.7073467 0.013970249 -2.6660676 -1.3675632
804 -4.465037 -9.369302 0.8183856 0.97266257 -1.2658777 1.48514 -0.7879028 3.055394 1.5720075 1.9142894
803 -4.3513284 -9.481575 0.7810096 0.85633683 -1.382454 1.2253315 -0.69725835 3.1598446 1.8924909 1.6634061
798 -2.363115 -7.430606 3.8122866 0.49342883 -3.11563 -0.11925111 -1.5511237 1.7095984 -0.080861196 -2.9247382
799 -2.597106 -7.646112 3.5929554 0.5411759 -2.8997672 -0.2394098 -1.5513632 1.8923562 -0.1612617 -2.6494944
900 -2.2479327 -7.4972553 2.1397493 0.368716 -3.5167177 -0.35147762 2.4626267 1.8049896 -1.625453 -2.1486764
899 -2.5361593 -7.726397 2.0262542 0.3826763 -3.3290958 -0.6311975 2.351108 1.9363106 -1.6134993 -1.9529934
110 1.0060949 -4.9136977 6.472974 -0.56633645 -4.1495624 -0.46201473 1.4390994 -0.31179821 1.5788379 -3.6784008
111 0.9086541 -4.940186 6.2527018 -0.5904823 -4.54813 -0.44694653 1.6142143 -0.45614666 1.7055712 -3.497289
589 -3.5775514 -10.426344 1.338446 -0.40621895 -0.041933246 0.16993183 1.2482193 2.7349665 0.77120763 -1.4955415
588 -3.584423 -10.423774 1.2782748 -0.40326682 -0.025073742 0.20763752 1.317561 2.721026 0.8055251 -1.5379666
868 -1.6004306 -4.4405875 6.079822 0.7222035 -5.185436 1.5527124 1.7020918 0.03339903 -2.6092305 -2.860416
869 -1.8031961 -4.529474 5.9287767 0.9179205 -5.3941236 1.4115193 1.5037435 0.019639423 -2.6813354 -2.6456668
790 0.4993525 -5.724462 6.647153 0.09633758 -2.9283903 1.3710058 0.647105 0.5907095 -1.1028999 -3.8433151
789 0.51977086 -5.764971 6.6444645 0.11831854 -2.8905091 1.3928977 0.66828424 0.593484 -1.1782595 -3.8305118
605 0.93805313 -4.7489405 5.1133156 0.8853117 -3.9055343 -0.55624497 2.4353004 1.6390712 1.180325 -5.257185
604 0.8863529 -4.750579 5.1479173 0.8558678 -3.9012716 -0.5301674 2.4286802 1.6348866 1.2695493 -5.3420305
416 -5.581057 -9.593022 1.9858215 -0.7265894 -0.91402626 1.2975508 -0.3294431 2.4098954 1.6695399 -0.58781475
415 -5.560474 -9.569966 1.9861795 -0.69676936 -0.90933365 1.372518 -0.33680615 2.4732237 1.6922505 -0.5811282
689 -1.8483275 -5.5484037 5.556805 0.36504552 -5.927447 -1.9942738 1.0278009 -0.52944344 -1.3432077 -2.0957088
690 -1.8686756 -5.5253887 5.62221 0.31647754 -5.945596 -1.9649483 1.0150313 -0.59611666 -1.2693715 -2.1229057
281 0.8308228 -5.1509438 6.3001823 0.049620707 -3.9462028 -0.19845985 2.9565148 0.8333708 -1.76952 -3.0812547
280 0.8923535 -5.1455626 6.3011074 0.07316607 -3.8783019 -0.25767243 2.9733264 0.8040384 -1.7471807 -3.0813723
638 -6.5846243 -8.906696 0.59338665 -0.5210394 -2.871074 0.9184934 1.3256929 0.98820484 1.0988533 1.2308437
639 -6.5703278 -8.859455 0.64556664 -0.5339863 -2.9689152 0.8612614 1.3769742 0.98224515 0.98156244 1.1588064
937 -1.9770708 -7.1526623 5.334842 1.8239526 -3.8077426 1.3347787 -1.1663469 3.925927 -0.36903012 -0.36005288
936 -1.7643263 -6.823129 5.3188176 1.9354557 -4.059968 1.4999182 -1.0928504 3.7850716 -0.29547012 -0.602527
1045 -3.3059528 -6.6758265 2.6420858 1.2067168 -3.8080864 2.4667008 1.0959402 2.6759293 -1.0802723 -2.2926493
1046 -3.5829024 -6.8201575 2.5030508 1.1972494 -3.5932453 2.195303 0.94971013 2.822396 -1.1021985 -2.1015117
123 -1.7188168 -7.677445 3.0263095 0.060131297 -3.397944 0.6036042 0.05273318 2.1639478 0.9876985 -3.6006389
122 -1.479687 -7.3388906 3.1654885 0.11672634 -3.502395 0.6911102 0.11235251 2.0188122 1.0351076 -3.819456
985 -2.3711686 -6.6290374 3.8442423 1.8725009 -2.3816204 1.0327333 -0.6455953 3.2014492 -1.9036568 -2.884967
984 -2.050634 -6.4241357 4.0816913 1.8288733 -2.5824633 0.8588728 -0.55234635 3.0308912 -1.9855412 -2.952111
540 -1.144957 -3.559934 7.7146516 -0.19069608 -4.456712 0.16530983 -0.28252164 -0.80067253 0.5775351 -2.9771008
539 -1.1497407 -3.5477934 7.6447606 -0.19730318 -4.51883 0.1866109 -0.23543394 -0.8278781 0.598563 -2.9505901
971 -3.3322353 -7.792909 2.371478 -0.4816368 -3.5948606 0.32890895 0.717336 -0.3444673 -1.0617498 -2.9936597
970 -3.600742 -7.9235153 2.2170362 -0.47780982 -3.4253266 0.166484 0.5709383 -0.21554866 -1.0416129 -2.7579365
964 -1.8840065 -4.170643 4.851399 -0.23458007 -6.526998 -1.3129913 2.4346945 -1.4545014 1.3564938 -3.7217302
965 -1.8844506 -4.1983457 4.8355947 -0.25259143 -6.512347 -1.2470018 2.4865518 -1.4712206 1.3764831 -3.7282534
232 -2.1767552 -3.8943062 5.656508 1.2373575 -6.7086368 -0.92664295 -1.1303554 -1.894662 0.7222942 -2.2191257
233 -2.1477947 -3.846518 5.7271576 1.2322245 -6.678605 -0.8557285 -1.1483105 -1.9165587 0.7600326 -2.2000217
326 1.1335278 -4.448195 6.9200573 1.1627045 -4.258637 -1.311836 0.3609249 1.832308 0.75427204 -3.414877
327 1.1664163 -4.4195538 6.8898683 1.2043709 -4.29158 -1.3113858 0.3677171 1.866208 0.6924307 -3.33947
934 -1.3488195 -7.659218 2.894814 0.7729206 -3.2979445 1.460226 0.82806665 2.1138186 -1.6298519 -1.3805705
933 -1.0448225 -7.3765717 3.0568368 0.87209934 -3.353476 1.5378801 0.744415 1.9435031 -1.721638 -1.554357
709 0.8383145 -6.183761 4.836386 1.3092245 -4.8013544 -0.84379673 0.57595927 0.45397806 -0.71386254 -3.8298142
710 0.8399325 -6.1728144 4.793061 1.352963 -4.787382 -0.8902127 0.5753186 0.41713938 -0.79314166 -3.7682333
287 -1.1613758 -3.5018888 7.0035806 0.8263776 -4.7612343 2.115972 1.3791478 1.7657264 0.63080126 -4.6414504
288 -1.2252901 -3.4928925 7.0304217 0.7765733 -4.7412663 2.1308515 1.3809725 1.70778 0.70451343 -4.720696
699 1.4483607 -4.466248 6.3426065 2.252123 -4.9672604 0.42016473 -1.4547052 0.7267323 0.75543666 -2.3447413
698 1.4420556 -4.4284835 6.350798 2.2723842 -4.961611 0.40148324 -1.4239513 0.7062988 0.7162332 -2.2942626
882 -0.27018157 -5.2301373 5.699996 0.99823266 -5.475699 3.098794 -0.05992499 -0.49787474 -0.5124747 -2.2964776
881 -0.2945047 -5.1857452 5.7150965 0.9711941 -5.477935 3.0926807 -0.07057003 -0.5303305 -0.42052963 -2.3207016
887 -2.3064358 -4.3181524 4.5747957 1.8039327 -5.9289317 -0.36866525 0.65761304 0.15093064 -0.8019081 -4.712952
888 -2.2603598 -4.3362317 4.599524 1.8240108 -5.8740587 -0.32449725 0.67061853 0.17039065 -0.89184713 -4.7078323
17 -4.2629914 -10.316319 0.77545714 -0.65113026 -1.3033875 1.0214857 1.225332 2.0665057 0.814379 0.8672744
18 -4.297555 -10.279977 0.7476762 -0.69196016 -1.3431604 0.9487492 1.2791028 2.0337274 0.82222736 0.88093317
98 -1.7374803 -7.11772 2.313816 1.559195 -3.1842127 0.71758777 1.5265563 3.1423635 -0.9319257 -3.7789304
99 -2.0886085 -7.3538694 2.127366 1.6477902 -3.2239506 0.62404144 1.3258351 3.3471744 -0.8337789 -3.5954182
769 -3.08489 -7.3960657 3.0899844 1.2355031 -2.349765 0.17306872 -0.45913333 1.8862584 -2.6918445 -1.4196676
768 -2.8859801 -7.29707 3.4120667 1.2626456 -2.409542 0.36741915 -0.47626677 1.5655947 -2.9967942 -1.5385551
40 -4.037365 -6.6185665 3.6166878 -0.9934713 -3.653571 1.163864 0.9689753 0.37645885 0.27343827 -3.0264857
41 -4.3187265 -6.8915186 3.480079 -1.0574723 -3.5029664 1.0159938 0.79159534 0.4539555 0.2946364 -2.7159855
257 -2.9381466 -7.337241 3.216119 -0.26246643 -3.5028138 -1.936078 0.5686333 1.5208563 0.9901933 -4.1050277
258 -3.2351553 -7.5904517 3.024095 -0.19681305 -3.3178132 -2.0221715 0.45658118 1.6346409 0.90241766 -3.9019854
744 -3.3444655 -7.064275 1.7536567 -0.12658863 -4.325831 -0.22885484 1.9293693 0.93233854 0.6380614 -3.74198
743 -3.7290225 -7.249218 1.6253623 -0.1769893 -4.1601143 -0.33641288 1.7613217 1.0175285 0.5554965 -3.5095391
138 -3.2959461 -7.873476 2.4984815 0.8345415 -5.1721945 0.2765276 -0.21837851 2.0083945 0.5771568 -2.2518046
137 -3.55953 -8.039548 2.3854392 0.784746 -4.911759 0.18936142 -0.33081803 2.1430194 0.57614803 -2.0137093
879 -0.62930113 -0.16441226 0.7626735 1.4617139 0.4149451 -0.08996695 1.2547374 1.8325651 -0.11065901 0.9205195
813 -0.08913794 -0.34917325 0.6679333 1.0001309 0.27196363 -0.0040948326 0.5823048 1.3150321 0.1384253 0.06589877
486 0.6354215 -1.748417 -0.7918631 1.5932033 0.39898527 -0.8780017 1.5012672 -0.29760048 0.09190182 0.59018075
754 -1.622438 -0.40304503 -1.1168315 1.9006352 -1.987921 -1.4292136 1.2723222 -0.5932098 1.0738837 0.64334583
732 -2.2114303 -1.2843891 3.916623 4.292201 -1.2261263 1.3589337 -1.8357059 2.8957222 -1.485848 1.3731245
316 0.34646693 -1.5143161 -0.1699447 1.4606478 0.11104885 0.39240828 -0.021673402 -1.0348809 0.45022207 2.2984731
516 0.5685558 -1.3879658 -0.6133767 1.4155916 0.33423162 -0.9289032 1.4122394 -0.18295276 0.3109594 0.114438586
378 -0.42143515 -1.2456298 -0.74337226 1.2919677 -0.34779012 1.0743421 0.29291937 -0.2550158 0.12367231 0.33796313
275 0.47214234 -0.64914244 0.6430494 1.5722067 -0.27367455 1.7741331 0.19863196 -0.89910823 -0.97130156 1.8613379
755 -0.7933895 0.68391526 0.37161356 0.68464226 -0.7042463 0.3897567 0.6986008 -0.9993594 -0.29426602 0.7655826
361 0.40644103 0.11719043 0.30963165 0.91908216 0.57220614 0.071104854 0.51943487 -0.3444955 0.9257646 0.52156353
144 0.21487541 -0.41781896 0.93803924 0.11589739 0.26250634 -0.8351083 0.018650519 -0.3305775 0.070856 0.5832377
363 -0.43901882 0.29168248 0.49498233 0.22534207 0.44483954 0.11645884 0.675778 0.15125476 0.93953246 -0.32713902
63 -0.5477232 -1.5552974 0.033387247 0.8695722 0.7616809 -0.2768196 0.19644529 -1.103487 -0.61619884 2.0247183
140 -0.2295831 -0.34519923 -0.13517804 0.45405155 -1.1273701 0.037904017 0.8873999 -0.012176704 0.026487079 0.79864395
669 -0.47575232 -0.08541468 0.51964414 0.050570615 -0.022832327 0.6093225 0.8229021 -1.5321971 -0.36838284 1.2366718
627 0.40097204 -1.1622689 -0.36100212 0.92322105 0.37955692 -0.6635589 0.97494185 -0.38467294 -0.18523036 0.3389426
650 -0.23853596 0.16308421 0.20692766 0.40740305 0.26396862 0.27815402 1.254954 -0.85921675 -0.45801446 0.749945
558 -0.4719376 -0.6439671 0.34287873 0.8087369 0.81912816 2.0640461 0.6532131 -0.4424324 -0.36911985 0.32704866
733 -1.3254881 -0.023210403 -0.46771947 0.7126043 -0.7967258 0.45968616 0.82898253 -1.1383477 0.058405895 0.038620293
469 -0.7061451 -1.1523114 0.05157033 0.4979554 0.86650133 0.03881715 0.6754117 -0.4470387 -0.9448087 1.131751
330 -0.76872545 0.5695217 0.5336658 0.60201406 0.103900805 0.90325516 1.2535706 -1.0360471 -0.6023583 1.0537753
160 -0.22842287 0.35706612 0.9013253 0.17346425 0.41964898 0.5450977 1.0999662 -0.057756733 -0.24981438 -0.36717933
212 -6.1154838 -2.7056003 5.7758884 0.27129698 1.6303612 -0.37838575 0.504482 -2.6314595 -1.2122637 -3.1438093
800 0.10293016 -0.72287786 0.23834142 0.39418846 0.45672548 0.20281376 0.68893224 -0.0084122745 -0.6310047 0.39353755
49 -1.7648617 0.27134278 -0.09922836 1.1355542 -0.4438901 1.5192661 1.4362981 -0.000104896855 0.4688573 -1.3661522
294 0.44838467 -0.15495528 0.600174 0.48981044 0.36253923 0.90985817 0.48977777 -0.24151415 0.22581385 0.07649254
580 -1.7250279 0.37734267 -0.45404238 1.3849255 -0.14205511 -0.08864345 1.1182404 0.0658897 0.15858641 -0.54732996
716 -0.54171973 -0.38621324 0.060013343 1.1979043 -0.47463238 -0.5240892 0.98908615 -0.03601976 -1.3111612 0.2287655
204 -1.0464058 -0.28939968 0.1691166 0.7371088 0.4666768 1.3995707 0.05031051 -1.2645602 -0.06691365 0.17880219
590 -0.66719157 0.17687027 0.30918354 0.5799617 0.23416191 -0.09318359 0.5937515 -0.2337311 -0.6059384 0.5201276
388 -0.19034317 -0.17582488 0.40262794 0.0032098163 -0.06541337 -0.15320589 0.73992 -0.9369014 -0.49673942 0.8334894
419 -0.25543025 -0.298219 0.5224521 0.012592976 -0.013969113 0.6923596 0.42568094 -1.4161527 -0.37232232 0.8341222
671 -0.7516283 0.5585849 0.2817931 0.62609273 -0.25047305 0.4217164 0.78879553 -1.0085758 -0.443983 0.5337633
96 -0.9611703 0.20330042 -0.15378067 1.1715257 -0.86074936 0.058964267 0.2608791 -1.1146716 -0.0012913861 0.037595846
71 0.44905287 -0.3129593 0.15346669 0.70232165 -0.3087137 0.4832309 0.58941096 -0.798947 0.36847696 -0.1790731
237 0.10453601 0.20252272 0.30187815 0.6600841 0.35925457 0.40484184 0.85802424 -0.14557093 -0.109297544 -0.01402581
148 0.16547605 -0.2790166 0.25097942 0.46699175 0.6074897 1.0417932 0.49432504 -0.59247017 0.36624765 0.5523306
209 -0.3481139 0.15046832 0.14351597 0.86807793 0.8561595 0.26851568 0.4968254 -0.58566415 0.52371395 -0.20868649
661 -1.2214007 -0.11137692 0.18073784 0.8598801 0.36536345 1.2559016 0.06938401 -0.8470204 -0.18625604 -0.32047626
369 0.17821762 0.15844478 0.42905235 0.7938176 0.5690791 0.2540938 0.7097787 0.04408462 -0.12029853 -0.29847828
770 -0.52954465 0.09611847 0.7637408 0.78179055 0.34875003 -0.797409 -0.044289563 -0.9389844 -0.50884247 0.2959756
802 -1.1820345 0.44272286 -0.4027869 1.3925939 -0.34071746 0.4901617 1.0041564 0.24112087 0.18587737 -0.5021424
788 -0.24814299 0.605052 0.84332514 0.54241383 0.05350856 0.6965111 0.37561435 -0.14754635 0.071646675 -0.23545235
344 -0.079936214 -0.15258358 0.13723697 0.6787419 0.8327654 0.04657683 0.48862636 -0.2078373 0.47749558 -0.17684822
151 -0.63582695 0.5052488 0.54318863 0.99313545 0.34413388 -1.0437647 0.038687505 -0.6507107 0.32757533 0.34981623
896 -0.5275201 0.6450328 0.8240749 0.5816952 -0.006041597 -0.025707087 0.05235558 -0.8795732 -0.067398965 0.63197285
303 0.119813174 0.050876893 0.18731576 0.58398324 0.1555612 0.09389435 0.4372032 -0.18731588 0.15637131 0.10748157
939 0.20836891 0.5335285 0.6298151 0.7793816 0.10778973 0.41202357 1.1450837 -0.45212212 -0.18212526 -0.43328905
534 0.013427312 -0.22979482 0.041856617 1.0957054 0.39827505 -0.9992582 0.5640397 -0.3839758 0.38801605 -0.40250814
815 -0.038845826 -0.22224098 0.43288314 0.34127364 0.7015261 -0.33118987 0.5227413 -0.57299507 0.094096005 -0.38951975
78 -0.27096018 0.2818693 0.29608425 1.8862053 -0.98061204 -0.20858079 0.916476 0.81550264 -0.5844817 0.36879078
748 -0.30093697 -0.060959883 -0.101622134 1.1498132 -0.32009885 -0.45749548 0.066032276 -1.3440485 0.4026819 0.48139837
731 -0.3801774 0.0517056 0.33248296 0.9587718 0.0030408087 -0.64467674 -0.06554086 -0.9568906 -0.3072548 0.3984984
940 0.17670001 0.4203988 0.59584725 0.6667852 0.018618882 0.5052147 1.0211493 -0.46035284 -0.28101772 -0.32113993
883 0.08244641 0.038023762 0.36008605 1.0043087 0.104017206 0.41642272 0.488394 0.653486 -0.23515385 0.46906736
955 0.28229728 0.2195948 0.27019012 1.0077084 0.29803622 0.39313886 0.62268335 0.058480926 -0.081863806 0.19381075
930 0.4611767 -0.15421653 0.17055908 0.527517 -0.3959135 0.0387842 0.8913979 -0.8784878 0.15140702 1.3988243
497 -0.8998966 0.5008911 0.028899778 1.0289899 -0.50103414 0.31526983 0.24335112 -0.8888721 0.9682551 -0.48113936
358 0.23731436 -0.0790918 0.09663746 0.5516304 0.17355622 -0.017797504 0.45048848 -0.33246928 0.58459747 0.40795028
356 0.015169993 -0.06636217 0.06238463 0.7166344 0.17150924 0.47684497 0.367808 -0.18435699 0.054762807 -0.07684547
335 0.14869922 0.099495426 0.2554067 0.5151322 0.031958614 0.32728207 0.53829575 -0.23967132 0.19144872 -0.23333184
265 -0.2400072 -0.28732184 0.12784953 0.2521693 0.014595409 -0.77837133 1.1209568 -0.7672958 -0.56109905 0.26883206
246 -0.078240216 -0.12414423 -0.008818715 0.69132626 -0.038197305 -0.018529914 0.35057506 -0.30805779 -0.104822606 0.03448358
461 0.6161789 -0.6540428 0.27790684 0.4856952 -0.12423005 -0.816488 0.5726555 -0.79538596 0.5352254 1.0769161
422 -0.17351143 0.3048156 0.8287388 0.36411032 0.14506797 0.35168117 0.32211277 -0.72528857 -0.47141823 0.051563222
359 0.23378363 0.041453835 0.41800076 0.75041324 0.32787824 0.4404646 0.33032688 -0.14408718 -0.2299382 0.17221299
190 -0.42176464 -0.19856332 0.30141297 0.56515115 -0.14240421 -0.6801014 0.8164338 -0.41354406 -0.7853542 -0.24558447
564 -1.306398 0.45189852 0.08796334 0.9316456 -0.46671316 0.62870926 0.2756024 -0.9844664 0.42443678 -0.5898253
65 0.24853905 0.1412884 0.4205761 0.57630235 -0.19204393 0.6180549 0.9218608 -0.6096233 -0.16789192 -0.3200738
219 -5.2986555 -2.3188176 4.9983025 0.19574313 1.8185872 -0.30844727 0.6615284 -2.5685532 -1.1682475 -2.6292903
451 0.20138167 -0.22926086 0.032040354 0.7591678 -0.4013377 -0.2527264 0.12807658 -0.82008666 0.59285116 0.63201314
351 0.12561713 0.21207866 0.10786586 1.3625679 0.2870083 0.33586645 0.44834256 0.061130956 -0.13178585 0.40876496
224 -0.4451551 -0.0660181 0.33967334 0.34030402 0.64137346 -0.36998662 0.32780594 -0.38657716 0.755985 -0.30428237
371 0.25907186 0.16022846 0.39545238 0.6352567 0.42776608 0.31462 0.64056623 -0.0004905093 0.08804043 0.031293776
277 -4.7461257 -1.9948404 4.6430616 -0.08888912 2.1238177 -0.45845467 0.22922483 -3.40802 -0.35293442 -2.0404143
409 -0.3845516 0.5259803 0.7404546 0.48705778 0.06136487 0.6086442 0.3646511 -0.24967642 0.019510081 -0.32651263
878 -0.9531893 -0.08998082 -0.2156209 0.4962316 0.1237341 -0.7290428 0.9354301 -0.61902267 -0.034094032 -0.080882296
193 -0.03672955 -0.21577723 0.7324312 0.09080171 -0.043323994 0.18302722 0.34887686 -1.2378038 -0.30364686 0.09637583
723 -0.17436399 -0.45399052 -0.37630892 0.8577683 -0.08326432 0.729372 0.37330386 -0.2623428 1.1200643 0.14106216
346 0.10661418 0.0028544923 0.26886207 0.4913142 0.3923296 0.14925136 0.4315094 -0.21552642 0.18758792 -0.017491423
73 -0.1008985 -0.33189178 -0.3408028 0.7247056 0.22482093 0.095376976 0.801934 -0.2652384 -0.15036212 0.28208074
811 -0.17096017 -0.018160397 -0.16987449 1.4897268 0.49235988 0.06723521 0.24875243 -0.4222464 0.55070955 -0.27413943
119 -0.2204198 0.32427025 0.5864079 1.2136606 -0.5338619 0.5718834 -0.28267428 -0.630415 -0.3593744 0.41521853
975 0.20387743 -0.04621737 -0.03473148 0.9447921 0.24506454 0.022266973 0.4631062 -0.2138151 0.52272135 -0.07968661
245 -0.60960287 -0.19406702 -0.076439925 0.38281137 0.17139177 -0.5551595 0.5955068 -0.6247006 0.102535546 -0.028986048
996 -0.037034262 0.16757958 0.3478169 0.6729019 0.330011 0.13330917 0.46888354 0.009220897 -0.19992849 -0.04046395
168 0.04670139 0.048148178 0.10098332 0.8914678 0.051019676 0.20835377 0.12600945 -0.5430071 0.3859735 -0.022165887
677 -0.44036612 -0.29694283 -0.55436677 1.027252 -0.030800646 0.54183227 0.59391093 -0.20725532 0.81820005 -0.2817581
515 -0.17298885 -0.36923903 -0.24996737 0.5606478 0.11474389 -0.027163137 0.43570563 -0.6260436 0.20573905 0.5772873
837 -3.3902109 -0.8696522 -0.9161584 2.5141757 -0.06518767 0.19641832 1.0963614 -4.143467 4.4499307 -0.017635027
206 0.42633137 -0.1878449 0.69308203 0.40573093 0.056169566 0.6148692 0.79532915 -1.3750039 -0.14263785 -0.15001425
134 -0.014767524 0.08745405 0.16621771 0.7433986 0.3201062 0.33254 0.63748807 -0.18657154 -0.3341309 0.25988343
923 0.27085695 0.27962813 0.3651205 0.7401868 0.38617694 0.40357763 0.66009134 -0.028974202 0.22215313 -0.006565698
715 0.24269083 -0.31984228 -0.040119004 1.0901784 -0.24914195 0.18032263 -0.14861664 -0.6473296 0.36975962 0.9636972
894 2.0957494 -1.0620697 1.8195019 0.9430831 -0.029959748 0.16904806 3.469828 1.3449819 2.5319772 1.4688174
293 -4.3425603 -4.2991076 4.4928203 -3.023138 3.137161 -2.006004 4.487714 1.8544706 4.526399 1.5214865
114 -5.9553766 -2.4556837 5.037228 -3.0914617 0.5069742 -1.6320397 3.801903 1.0358559 3.7094622 3.680013
181 -5.453435 -3.4734967 6.7797933 -1.4655645 4.664559 3.7608902 1.0705435 1.7578541 3.7678535 2.8895245
446 0.42928028 -2.2417665 2.2814443 -0.4607597 1.0165652 2.477358 4.2111845 0.5897607 -0.58976644 -0.2798047
700 -8.465923 -2.2087586 5.797947 -0.82185817 2.554741 1.5267731 -0.8310187 -0.15193513 3.3788064 4.501167
734 -1.137747 -0.14199488 1.1845435 1.6218538 -0.37425008 0.3288291 -0.04884154 1.4518063 -0.5628416 0.53863525
905 -1.1374617 -0.18546255 1.6855009 1.9074895 1.1075932 -0.8031358 1.4183673 2.2511485 -0.31258526 1.3937507
333 -3.0366073 -1.7731614 6.1184387 -1.8487655 -1.0125532 -0.666141 1.2346272 1.4724047 7.2711535 3.680245
752 -3.968455 -1.5495341 5.9947248 -1.5084977 -1.2589988 -2.5915174 1.7139841 2.036348 5.9896774 4.5738864
107 -3.160211 -3.5725737 4.6851707 -2.3517835 2.4734154 -0.6576805 3.1630168 2.1808414 5.653222 6.477598
944 -3.5668926 -5.574687 5.5056353 -0.7513316 2.4336433 -0.79604244 -1.5985457 2.294943 6.3606606 3.6500509
230 -4.293941 -2.569931 5.199325 0.97194207 0.38303417 -2.4329913 -2.133295 2.8485148 7.244727 3.9266727
125 -5.482846 -3.856915 5.9353075 -1.181263 1.7805866 -1.2405248 -1.7709199 1.2672809 4.2204213 4.281682
179 -0.23027954 -0.028197374 1.2869391 2.515349 0.27112073 -0.41614288 -1.2091728 0.09893725 1.9681214 2.052581
312 -4.264494 -2.5984704 5.1734333 0.95627034 0.34102038 -2.4407425 -2.130904 2.8461552 7.2424073 3.799805
216 -1.0586233 0.35830852 1.9598473 0.7189686 0.0676292 -1.0886124 -0.43865442 -0.45917004 0.9671345 2.4829266
1040 -5.3015003 -3.213739 4.2229395 0.74607754 1.7897522 1.6832217 -2.1332564 2.6554298 6.822503 5.695687
870 -5.285605 -3.0859072 4.2715425 0.7157279 1.7766677 1.6064261 -2.1247463 2.582576 6.765757 5.5894957
126 -5.417834 -3.727697 5.9191346 -1.079038 1.7215362 -1.2285733 -1.896114 1.2847219 4.2603865 4.1243234
707 0.6373145 -0.017471878 2.0276418 0.14640889 -0.51904637 0.55373484 0.4607186 0.12558103 -0.29725918 0.7820575
691 0.5279221 -0.45115998 1.0294524 -0.087801695 -1.8016362 0.50448185 2.6200302 0.06848697 1.4461257 0.7289693
942 -3.6227643 -5.4371057 5.498456 -0.7467564 2.4545257 -0.7239643 -1.5359612 2.2919705 6.457107 3.4661703
185 -5.93224 -2.290915 4.9623127 -3.0873418 0.5165175 -1.5295079 3.9388824 1.0204391 3.653675 3.562872
563 -4.293057 -4.0375304 4.3258724 -2.9192426 3.1086223 -1.9636035 4.567487 1.8613768 4.3598423 1.5160363
109 -3.2134345 -3.5212088 4.7251573 -2.431296 2.4801648 -0.74163383 3.1698468 2.1115756 5.708237 6.4636903
332 -3.1952999 -2.1081755 6.1006083 -1.9447527 -0.88206077 -0.7429736 1.17912 1.5768418 7.648862 3.8078291
696 -4.149403 -1.814982 5.8957596 -1.646804 -1.0721557 -2.5931933 1.5683402 1.9670593 6.186476 4.7535887
893 1.5518365 -0.67997897 1.0839158 0.6970851 -0.40889642 0.112370625 2.5787213 0.86597556 1.9827551 1.4514878
581 -8.763848 -2.2265918 5.518349 -0.6660727 2.8819592 1.3199581 -0.63746667 0.0774143 3.428587 4.6581235
663 -2.0159297 1.5316039 1.2053201 1.0683568 -1.3933598 -2.0106497 1.2461352 -0.20767099 2.0682282 0.51924163
782 -5.7425175 -3.2870862 6.4343705 -1.3191311 4.829168 3.4021091 1.2430642 1.9696867 3.61497 3.2124488
829 -1.0917176 0.16796759 0.8295223 1.2717036 0.13047928 0.3726621 1.5720564 1.7413251 -0.42471886 0.4921587
835 -1.0307254 0.22733226 0.53988117 1.6263391 0.2438985 -0.09315839 1.4330121 1.8644812 0.08623466 0.33377284
501 -3.3054018 1.1442714 1.4106808 -0.29603142 -0.99961936 -0.567341 5.50945 -0.4401995 -0.38550878 0.27736667
228 -0.7696872 -0.13823462 0.8582647 1.3957349 0.35169527 -0.2655123 1.0714425 1.6659 -0.36332697 0.9161697
222 0.27086243 -1.6496047 1.7681987 0.4917592 -4.293066 1.7821442 2.7784557 -0.44255638 2.8305604 0.9002921
849 -0.756808 -0.13919537 0.8390375 1.3825698 0.3515669 -0.26493397 1.067346 1.6455961 -0.33992144 0.88965803
226 0.3942343 -1.3637553 1.687611 0.3804034 -3.923007 1.517749 2.791746 -0.5538805 2.4051948 0.9214148
850 -0.7047756 -0.12089094 0.8273089 1.3202842 0.38243535 -0.2576944 1.0396469 1.6093084 -0.30953828 0.852786
724 -1.3450272 0.27967465 1.0970136 0.82619196 0.6137493 0.67833644 -0.1994063 0.13219333 2.3379772 -0.24598631
703 -0.89630854 1.234719 1.5901835 1.6148814 0.44061977 2.0900557 0.21490876 0.99025863 2.2778845 1.0462738
844 -0.68518496 -0.11955062 0.8690861 1.4340638 0.37421322 -0.3137488 1.075154 1.6664017 -0.33297592 0.8496694
794 -1.169997 -0.25248674 0.17558524 1.0514445 0.008674953 -0.1145593 0.72307855 1.2301176 0.025443172 0.21964619
444 -2.2109253 -0.57604647 -1.1742356 2.2422724 -2.7474842 -1.7742088 1.2771288 -0.42851856 1.9843735 0.94478625
851 -0.77321446 -0.108026795 0.7979815 1.3185445 0.2965927 -0.2445963 1.0082972 1.5884689 -0.31789255 0.8682008
406 -0.73801035 -0.11481346 0.7847218 1.3750951 0.35614517 -0.28995365 1.0538412 1.5998262 -0.34255138 0.8260507
785 -0.12989566 0.13613951 2.5724556 -0.39239165 1.0594921 -0.6758025 0.5387167 -1.0554281 0.4177849 1.1452677
683 0.1251493 -1.4299599 0.8390524 0.024978688 0.13577156 2.3185947 2.3809438 0.2782998 -0.55846065 0.11121077
155 -2.192644 -0.94996655 0.85357153 -0.5973481 1.020233 -0.62709886 2.663619 -1.4320233 -0.5399502 -0.36015725
191 -0.991245 1.0532997 0.7175239 1.216499 -1.2181269 0.9949626 0.6038427 -1.0709425 -0.16786335 1.480546
841 -0.7079837 -0.11988675 0.81562215 1.3657193 0.36925355 -0.26720685 1.0762339 1.6370214 -0.32002792 0.8466591
528 -0.5505052 1.2208563 1.9385018 0.7689653 0.53936315 1.3853312 0.80279666 0.5074299 0.48543602 0.3704302
855 -0.7491506 -0.1904516 0.8633584 1.3736426 0.3936475 -0.30897936 1.031358 1.6485214 -0.3787404 0.8762177
173 0.96104574 -0.36157537 1.3390987 0.30844325 -2.3492117 0.8689857 2.4613678 0.0106461225 1.8999873 0.8026605
459 -0.8070534 -0.1349515 0.85535467 1.4153124 0.3574969 -0.22393328 1.0372652 1.6860944 -0.33118254 0.85582364
434 0.60113835 0.83567524 1.1473694 1.4130222 0.9807085 0.24021322 1.6949769 0.68993825 1.1938071 0.44546667
892 -0.1482921 -0.5095986 1.3271358 1.1307565 0.60062224 -0.2990561 0.8913353 1.732047 -0.06821778 0.62615544
746 0.11251042 -1.4186308 0.8185615 0.035358977 0.15757914 2.247653 2.3257468 0.276533 -0.5157334 0.121035494
159 -0.47749516 0.6189657 0.8992014 0.22779413 -0.13060078 0.43601826 1.488922 -0.9175184 -0.5317851 1.2426269
1043 -0.08552044 -0.012322689 0.98611015 1.7090459 0.16273348 -0.10887548 -1.03292 -0.036549497 1.2634974 1.251156
1004 0.9787028 -0.327711 1.3488128 0.28785047 -2.2621622 0.8369661 2.4523277 -0.0009764569 1.8405051 0.8145347
938 0.9185619 -0.3061543 0.6946278 0.3375553 -0.45487195 0.03901341 1.3324922 0.46039924 1.3196056 0.79655695
701 -0.8168542 1.1466765 1.3024677 1.2457291 0.31737772 1.8065473 0.42221075 0.6703264 1.1740576 0.4899925
935 -0.2294836 -2.0727596 2.6168435 0.34231174 1.709472 -2.1180196 9.572301 1.0825227 4.6203194 6.313887
569 -1.1068119 1.0566698 0.7733118 1.6012719 0.13450783 -0.44837445 0.017814184 -0.89004266 0.96228087 1.428147
635 -0.30989242 1.2863638 0.9555259 1.2445168 0.15150735 1.0679582 2.1661117 0.6202317 -0.03276997 0.28810307
1041 -1.4788097 -1.3017129 -0.009570974 0.7383171 1.2057875 0.35907605 0.9321415 -0.3723029 -1.0329527 1.370167
651 -0.6761485 0.57032853 0.95750093 0.22669543 -0.24794327 0.52161103 1.4869705 -1.3801204 -0.6054013 1.472884
210 -1.4972929 -0.55382556 0.25960678 -0.3183108 0.78119546 0.61320174 1.5652149 -0.67343146 -0.15966308 -0.037783515
502 -2.7132325 0.9243099 0.84686553 -0.024960794 -0.80804974 -0.5619442 4.104384 -0.60966456 -0.44513232 -0.074355274
919 0.4938644 -0.08412119 0.10347713 0.95269656 -0.4557246 -0.5422692 1.0692066 -0.48855138 0.6177169 1.4968544
665 -0.66170895 -0.66653275 0.3348569 0.30424345 1.4083316 -0.932159 1.1813937 -0.68044335 -0.12306609 -0.015234227
146 0.24148113 -0.4310611 0.5809517 0.5651331 1.0502793 1.727586 0.8482293 -0.9556347 0.53067607 0.97759646
490 -0.21173489 -2.1214848 2.7012267 0.1658188 1.8038639 -2.0719872 9.514833 0.9251653 4.723276 6.274965
599 -1.0161928 0.019132199 -0.16214687 1.0138984 -0.08119366 -0.0810224 0.14152797 -1.5315055 1.5585482 0.13771784
681 0.37521902 -0.07567325 0.69072413 0.28741047 -1.8353146 0.40928674 1.718028 0.009167917 0.75280535 0.48261318
722 -0.9034221 0.5023778 0.882726 0.6417933 0.34186894 0.4769821 0.005433641 0.108783215 1.2763498 -0.44545454
846 -0.24922308 0.1111072 0.25317827 1.2108186 0.072100446 0.36170682 0.54274076 0.9049547 -0.1962667 0.39091864
600 0.36179772 -1.2852328 -0.4803903 1.8671077 0.93379074 -0.29029068 0.48901835 -0.5001754 0.3701989 1.1326483
735 -1.3139 0.85529244 0.8340722 0.8326625 -1.077123 0.3164012 -0.046535175 -1.0904392 -0.09968534 1.0059448
592 0.4477377 -0.909186 0.032362252 1.232271 -0.592282 1.0471687 -0.026281249 -0.6636137 0.15695803 1.4118749
885 -1.1554224 -0.8306559 -0.4810824 1.5122827 -0.5439375 -0.41985658 1.3348801 -0.37834126 -1.6458933 0.33336255
674 -0.83406657 -0.3336323 -0.61174893 1.4201808 -1.6946988 -1.5884424 1.2645396 -0.38123563 0.43174583 0.74488205
925 -2.198268 -0.42884853 -1.0682524 1.1361488 -1.0425787 0.7723602 1.3104271 -1.3488871 0.08292612 0.40372887
952 -0.44857505 -0.7649752 0.3580104 0.2795216 0.694753 2.2185783 1.3118479 -0.4803051 -0.28329346 0.23765679
822 -0.13767377 0.088958256 1.471241 -0.21639475 0.69322103 -0.34699565 0.3201729 -0.7406824 0.12321511 0.57113284
156 -1.2807261 -0.3345222 0.6689709 -0.20625295 0.5473141 -0.80052435 1.7572404 -0.92323375 -0.6833359 -0.39809847
523 0.47079578 -0.25583205 0.33711082 0.08067737 -1.1242415 0.40475088 2.132789 -0.0018259216 1.2764753 0.30686304
673 0.13938305 -0.44295776 1.5345674 -0.31546974 -0.46739683 0.18809955 1.3091264 -2.5019052 -0.3309499 0.96220714
591 -0.7554621 0.31766877 0.35656717 0.5489962 0.122011036 0.09723262 0.7501382 -0.53092086 -0.75179017 0.7757387
642 -0.769077 0.24571005 0.41978437 0.009046179 0.22377777 0.7274226 1.0327151 -0.83005786 -0.24862874 0.48050752
42 -2.2689483 0.071426265 -0.16640468 1.4523107 -0.5330214 2.1063497 2.0773978 -0.05999804 0.10312848 -1.5613682
559 0.72936404 -0.11588542 0.54464614 0.76067334 0.12882066 0.79282635 0.8684797 -0.15068176 -0.29836255 0.65794647
31 0.27734962 -1.0624956 0.5187831 0.34698227 0.7694644 0.2923555 1.0840229 0.05121432 -0.92238766 0.82429385
711 -1.0438132 -0.2089596 -0.65877426 1.4814609 -1.2174853 -0.8574515 0.37899432 -0.5143133 0.68900263 0.27079126
403 -0.062321454 0.3113762 -0.1532214 1.1117624 0.2894975 0.063893735 1.141703 0.051943686 0.41556054 0.05743942
350 0.19651498 0.25515762 0.016948981 1.0274324 0.4971054 0.3324902 1.2777303 0.009109428 0.31280452 0.19025968
641 -0.9030138 0.34567532 0.2137582 0.26430905 -0.068745375 -0.34953484 1.3004786 -0.84089947 -0.59229505 0.45005813
445 0.4240546 0.3763488 0.5110926 0.894839 0.7192993 0.23219827 1.0017513 0.23272446 0.5686803 0.2255093
637 0.17186223 0.16021982 0.19010107 0.8589853 0.033893622 1.3008397 0.7784241 -0.58890873 -0.10348258 0.49188688
675 -0.32728037 0.46996653 0.17191857 0.3154787 -0.07485333 -0.013938596 1.0673822 -0.89191425 0.14344262 0.38687834
812 0.7016918 -0.38971543 0.84085447 0.19848384 0.92980254 0.624621 1.6007634 -1.4257084 0.4854544 -0.0075384416
693 -0.52705806 -0.32828844 -0.35984543 0.6995447 0.14675811 1.6147037 1.42509 0.042976752 0.35466525 -0.21245773
506 -0.7584997 0.5070119 0.51454246 0.44512665 0.10270637 0.6525942 1.2463204 -0.96270174 -0.612728 0.9847122
655 0.48017988 -0.07531312 0.4035098 0.7065515 0.5862935 -0.14694114 0.5388145 -0.62289566 1.0567588 0.66301596
801 0.24151312 -1.0973152 0.4971455 0.3992039 0.80382174 0.3423578 1.039309 0.063416526 -0.97050273 0.88087803
165 0.05510072 0.4457562 0.283043 1.1609626 0.73285013 0.3803771 0.89936477 -0.08681244 0.50307924 -0.37133908
950 0.34478956 0.14564912 0.778962 0.5139936 0.46834987 0.6164629 1.017353 -0.2939264 -0.5165515 0.10254241
713 -0.47183564 0.47375745 0.8827706 0.11981362 0.3919117 0.4159205 0.8517019 -0.11377284 0.17552921 -0.5669658
315 -0.6660045 -0.09570559 0.14446358 0.24827942 1.0410407 1.1103456 1.648515 -1.1167673 0.72938824 0.13898763
2 -0.72589564 1.3377094 1.4614257 1.4487284 0.44448027 0.6257416 0.2233266 -1.2473159 -0.26146618 0.0152331395
200 -0.8152258 0.13132663 0.19748947 1.1304791 1.42162 0.74546766 0.7389636 -1.2690362 0.80523884 -0.38887385
719 -1.7709289 0.424512 0.09494344 0.25423396 -0.49237698 -0.74224454 2.4662962 -0.6694056 -0.41728207 -0.02641718
741 -0.2372282 0.2650003 0.08177277 0.5958761 -0.47632506 0.37921247 0.56493586 -0.87201184 0.09724413 0.08616682
634 0.07434799 0.73282963 0.65864974 0.79724 0.20232241 0.68207663 1.2753682 0.26758182 -0.08210697 0.21889694
128 -0.54674166 0.1976695 0.26270655 1.1134269 -0.22626217 0.30442673 0.44145146 0.9779608 0.14034419 0.012645864
510 -1.1134603 0.34106728 -0.02409021 0.9925244 -0.88036215 0.21666211 0.36047995 -1.1636494 -0.10456538 0.0061516673
814 -0.13186401 -0.5957288 0.15005207 0.6146642 0.22607058 -0.31069043 0.29771927 0.7377003 0.35216802 -0.046542145
1014 -0.22831346 0.21168885 0.0059209745 1.2114521 0.86465544 0.4619869 0.86035424 -0.33764404 0.17075467 0.045729455
121 -0.15266097 -0.048614718 0.28269374 0.66753393 0.107118465 0.12030992 0.79038686 0.8552732 0.068615295 0.09195083
597 -0.8458016 0.5300845 0.041495927 1.3685693 -1.3215266 0.5423388 0.40546936 -0.4537939 0.08994201 -0.102210715
819 -0.12833482 0.4868442 0.6900086 0.58193374 0.2741637 -0.6854688 0.30288383 -0.8651961 0.23375458 0.61757594
309 -0.36433345 -0.24466044 0.54872864 1.3962823 0.48327136 0.3976709 -0.8557585 -0.7443919 0.58789074 0.49903065
692 -0.6307296 -0.116840445 -0.10933451 0.72311044 0.06834701 -0.08926776 0.43710437 -0.13465884 -0.2907243 0.6334555
1003 -0.5515396 0.8392963 1.093242 0.59189737 0.119925745 0.9553935 0.4671168 0.017651746 0.11983097 -0.14097333
728 -0.9925542 0.6252107 0.059346143 1.1724652 -1.1960691 0.42497414 0.5236265 -0.78768986 0.0054076994 -0.05644075
1044 0.42361492 -0.24301215 0.33487105 0.45190573 -1.2814087 0.35608542 1.1942322 -0.2821802 0.28777453 -0.065353304
320 -0.5222682 -0.30166048 0.21451503 0.8796526 0.33190453 0.09523264 -0.458103 -0.9984658 0.5381821 0.2252547
1028 0.11160586 0.33571744 0.6979304 0.66047716 0.29891706 -0.030790772 0.19543418 -0.540189 -0.2666225 0.35937062
101 -0.5284264 0.68031067 1.2393306 0.50834143 -0.18563873 -1.2175342 0.7567001 -0.47336543 0.043645184 -0.6553484
767 0.12543724 0.19031303 0.5409042 1.8312178 1.0345767 0.18261515 1.3519279 0.35485178 -0.27292702 -0.84509414
20 0.09681473 -0.2880604 -0.16039692 0.14243236 -0.5926136 0.4340051 1.7351762 -0.18510152 0.9364859 0.11436672
394 0.88811237 -0.5856837 0.5157601 0.51715636 0.39257845 0.25693312 0.7483192 -1.3455901 -0.019992283 0.391894
439 -0.5353986 0.32303074 0.73604465 0.27730572 0.6089215 -0.14756115 0.36406183 -0.3398639 0.77524894 -0.5249433
231 -0.08356875 0.23539314 0.4106104 1.8248391 -0.58498955 -0.23959848 1.0129732 0.5737198 -0.9613329 0.43092635
777 0.69901067 -0.15327331 1.1996589 1.4129099 0.475883 0.38523883 0.15374842 -0.6197031 -0.99553746 0.7468131
682 0.0024785954 0.16567102 0.35435724 0.37087643 -0.2492576 0.1762322 1.1065348 -1.0512278 -0.16790177 1.3832973
1022 -0.5350709 0.63341624 1.2632277 0.55278957 -0.2362298 -1.3322372 0.82920086 -0.29870397 -0.2010328 -0.6465325
247 -0.81023675 -0.7317103 -0.580074 0.9363117 -0.266826 -0.44538066 0.8103862 -0.7752936 -0.81957996 0.28130338
421 -0.31837657 0.20687158 0.6259141 0.365319 0.040404458 -0.15227988 0.4608915 -0.6248298 -0.6612565 0.11796777
608 -0.11298046 -0.12814087 0.09108559 0.4679417 0.43763885 1.1907108 1.4524883 -0.16706981 -0.2156996 0.121000126
756 -1.0981843 0.1357131 -0.17344384 0.6471582 -0.6401069 0.29621363 0.52202314 -0.9718805 0.010988073 -0.20824596
483 -0.26560274 0.42136365 0.47804147 0.52733266 -0.722804 -0.90141624 0.4797019 -0.54329574 1.1336063 0.37299767
372 0.18091857 0.13924792 0.3036257 0.6370076 0.27456844 0.34389466 0.60799605 -0.08894182 -0.04195228 0.04787663
750 -0.7306559 0.23299053 -0.010536579 0.9585565 -0.3540695 -0.0014012456 0.012892982 -1.0256777 0.9820752 -0.16692325
408 -0.6957212 0.83161044 0.93460315 0.75866574 0.17613803 0.6489314 0.2311057 -0.3934279 -0.10792101 -0.18806428
432 -0.1381526 0.027191328 0.87400347 0.026044372 0.09952278 -0.05561082 0.36508206 -1.0912542 -0.44422045 0.32953376
397 -0.7544915 0.8422762 0.933182 0.76404256 0.19118012 0.65478104 0.22378218 -0.45912692 -0.17317618 -0.1782979
207 -0.5248763 -0.31155288 0.19394292 0.9344234 0.30667117 0.09124144 -0.4479966 -1.042551 0.588646 0.14363001
56 -0.15131849 -0.07627581 -0.15843664 0.5643821 0.30542725 0.31525573 0.8459045 -0.1427751 0.45401317 -0.111920364
524 -0.76775587 0.37892395 0.3448878 0.844896 -0.13864805 -0.38875285 0.11255658 -0.28622454 -0.24177054 -0.19984919
382 -0.6756565 -0.9052858 -0.7582158 1.1031451 -0.23341039 0.22537696 0.6063759 -0.5591866 -0.6046512 0.18448018
82 -0.32382157 -0.21280257 -0.18290201 1.5738797 -0.8108218 0.92917186 0.045699734 -0.36840293 0.18112488 -0.19338594
97 -1.1414886 0.32866544 -0.065338776 1.0185546 -0.8997443 0.18907502 0.40963766 -1.221355 -0.08148101 0.037094705
702 -0.13031702 0.4130242 0.72865057 0.45151722 0.14071721 0.25592488 0.69233173 -0.93843836 -0.56548595 0.88308257
1006 0.056244038 -0.11430964 -0.09233686 1.0121918 0.07982918 0.25800484 0.27271646 -0.21126054 0.23698023 -0.063324615
458 0.57513094 0.25261405 1.3961313 0.8926669 0.050275803 0.599511 0.64272255 -0.9653191 -1.0666779 1.2650309
587 -1.2847563 0.3524678 0.32709518 0.5027793 -0.72173136 0.8052499 0.61975855 -1.1397948 -0.1248013 -0.33305925
834 0.07431626 0.021485457 0.6992218 0.24192208 0.2695273 0.14517753 0.2894995 -0.35892624 -0.24513276 0.13621938
824 -0.55632824 0.55543154 0.5748372 1.3781067 0.37317666 0.52371705 -0.10839835 -0.6182259 -0.07841654 -0.3322223
649 0.77953756 -0.71007425 0.4061888 0.54028094 0.45416284 0.2239874 0.44078812 -0.9710363 0.0047212704 0.47879866
552 0.3723732 0.036361057 0.6321346 0.7418271 0.21582495 0.4511626 0.30877253 -0.24582173 -0.40533665 0.2939152
560 -0.49401188 -0.3996366 -0.5516257 0.76399285 -0.068433985 0.50465184 0.59534204 0.05883038 0.549161 0.1494482
67 0.09745591 -0.40278208 -0.09248075 0.76434207 -0.36184427 0.7110671 0.6896141 -0.7690869 0.05095695 -0.34284282
170 -0.9624417 0.7788149 0.12844205 1.1129361 -0.915989 0.4278393 0.46850836 -0.9606395 0.42533308 -0.2639946
967 0.36609784 -0.24925074 0.73583937 0.90885437 0.42761192 0.3530288 -0.11064806 -0.22822975 -0.31688008 0.30265364
195 0.07602488 -0.6893514 0.5342141 0.38031963 0.29133838 0.8965742 0.045070145 -1.4213984 -0.04832664 0.4216008
116 -1.2414712 0.13894412 0.41902283 0.072256036 -0.12763374 1.2944598 0.98017484 -0.8657376 0.046213545 -0.33971614
171 -0.70008713 0.6934749 0.066661276 1.1718568 -0.8268285 0.54013616 0.47978914 -0.8073307 0.86691487 -0.40513104
779 0.34338415 0.017164133 0.67824733 0.7566868 0.18294108 0.5452631 0.22281575 -0.24774958 -0.43088013 0.31145528
117 -1.361331 0.124522306 0.4595923 0.18978576 -0.4719658 1.1078398 0.8664692 -1.215408 -0.14569856 -0.41989642
968 0.3539361 -0.17778982 0.75601596 0.89167565 0.46714756 0.43377393 -0.069784954 -0.2982608 -0.32662296 0.28306806
954 -0.36081848 0.399669 0.9303291 0.4609453 0.40381035 0.0036693052 0.10150458 -0.73551375 -0.26154682 0.047245547
624 -0.38216996 -0.80359375 0.04162473 0.2108117 0.36513793 0.28973278 0.0928332 -0.8870684 -0.22522707 0.7424095
272 0.025326429 -0.111200266 -0.02440397 0.82529384 -0.0725239 -0.071948275 0.25851476 -0.91214204 0.1459935 0.48937625
199 -0.009727887 -0.55259705 0.1714036 0.66413605 -0.029834962 0.7590576 0.15272862 -1.0192902 -0.1502277 -0.084855035
536 -0.20347099 -0.18583696 0.1945976 0.54088575 0.0038764253 -0.57920986 -0.032054976 -0.7219643 0.58991885 0.20012903
758 -0.4184237 -0.019871835 0.5231024 0.5049211 0.69512635 -0.7805771 0.5315799 -0.27432817 -0.17532407 -0.32035848
818 -0.24564168 0.4995491 0.54598784 0.7896518 0.36590797 0.37745914 0.19103837 -0.37022638 0.03244217 -0.040916104
583 0.8807665 -0.5020257 0.40619427 0.5293405 -0.0914046 0.07999651 0.41607764 -1.0595744 0.40562272 0.7171361
575 -0.28663084 -0.19474126 0.2085242 0.50724536 0.026099466 -0.46726906 -0.08350367 -0.7204357 0.63694435 0.14969584
1013 0.16810715 0.08626506 0.29612303 0.61654073 0.3758416 0.39459205 0.5806264 -0.08176726 -0.027350659 0.0032779225
365 0.118730694 0.102286756 0.29180261 0.5957828 0.33150208 0.33868855 0.5481681 -0.11644049 0.03527836 0.017880654
492 -0.65743804 -0.3441974 -0.32040665 0.6247281 0.03441787 -0.3493628 0.20287098 -0.80091304 0.3669314 0.36649737
780 -0.030895595 -0.4908203 -0.120722614 1.3070272 -0.07643197 -0.15467069 -0.12299433 -0.20717815 0.18625727 -0.10001643
572 0.27284455 -0.007746298 0.4649135 1.2723905 0.16138141 0.32840583 0.00055210956 -0.28001267 -0.48700458 0.6585817
454 0.5542187 0.10407229 0.8918731 0.7312317 0.24657944 0.55601 0.55948323 -0.35518387 -0.66021264 0.54686874
875 0.13858214 0.18759173 0.31085998 0.6059298 0.32064736 0.3602809 0.52219355 -0.037874624 0.10697241 -0.008901726
880 0.36499643 0.030870581 0.6378417 0.77710235 0.25662526 0.5302461 0.26031634 -0.22638942 -0.39805332 0.33176503
791 -0.015103416 -0.53718513 -0.24413997 0.658232 -0.16022427 0.3798119 0.19826 -0.48846966 1.0590184 0.50306964
541 -1.0689917 0.6192897 -0.10615712 1.1069474 -0.82450277 0.4806274 0.5706168 -0.37641364 0.16995908 -0.20920773
867 0.15819478 -0.19973738 0.49112123 0.33309734 0.25943658 0.75128317 0.24583797 -0.41687533 -0.15416361 0.2861276
1008 0.1367957 0.09631289 0.27309942 0.66143256 0.36455587 0.40892887 0.6010955 -0.07124431 -0.042319737 0.0062310263
873 -0.12430323 -0.018894657 0.2863796 0.515535 0.14609538 0.01729711 0.2927809 -0.21430188 -0.12998381 0.024731752
621 -0.61827797 0.34756646 -0.0056729387 0.966594 -0.7049643 0.0150716165 0.22581257 -1.0945055 0.093824394 0.30813822
375 0.047922406 0.32904688 0.31087023 0.902526 0.2551247 -0.06559562 0.14042433 -0.44602466 0.42011568 0.63842964
348 0.2488633 0.02335024 0.15363339 0.77327967 0.16583036 0.05379937 0.31649435 -0.21438244 0.37854367 0.1329864
313 0.1014498 -0.24648362 0.6071841 0.5463573 0.04913912 -0.03498497 -0.24921171 -0.9754014 0.072254255 0.24064219
633 -0.5080563 0.47211415 0.5474806 0.7603951 -0.6417334 0.3707025 0.21894175 -0.88433814 -0.43557402 0.21665524
979 -0.008367178 -0.11867605 0.52147096 0.6177148 0.6179109 0.61312336 0.08755562 -0.24731605 -0.08808618 0.072672
787 0.26346207 0.27488264 0.3800397 1.6196383 0.05801192 0.33466473 0.57215124 0.40559775 -0.40817854 0.31012067
475 0.08396605 -0.7408631 0.016251579 0.5653267 0.06635795 0.53004295 -0.021643473 -1.1433798 0.6071072 0.728969
828 0.00981348 0.055566 0.43352756 0.3376534 0.18245518 -0.18149172 0.55150867 -0.2377839 -0.16427937 0.026352886
227 -0.32551715 -0.12915634 -0.15808856 0.89609903 -0.058826398 -0.1797572 0.0083679 -0.68570286 0.65638494 0.011383628
387 -0.14301378 -0.45255432 -0.33255786 1.1268672 -0.20858094 0.39274538 0.14002231 -0.4135498 0.060999766 0.010575977
546 0.12630247 0.060391493 0.41295743 0.4228201 0.1832449 0.2201722 0.46150687 -0.43166205 -0.13118622 0.3251201
453 0.013148627 -0.012191163 0.19064225 0.48960215 0.26826426 0.26198074 0.6749182 -0.15502344 0.068444684 0.047824576
1019 0.36569732 -0.009213736 0.31411672 0.69556254 0.116225466 0.26319453 0.2822134 -0.23188639 0.16194518 0.09188724
499 -0.058810104 -0.41613558 0.3067826 0.4328484 0.12829913 0.34553424 -0.20769285 -1.0843481 0.48462406 0.22224966
395 1.0330902 -0.28743732 0.7355705 0.46176338 -0.092607275 0.071904205 0.7055661 -1.3337258 0.3032417 0.49113482
491 0.7294854 -0.35627612 0.16886747 0.68944854 -0.43064976 0.06861058 0.7442222 -0.7156796 0.54034764 1.3213186
426 -0.08801883 -0.103882864 0.07663859 0.9042938 -0.18220633 0.19058299 0.010318806 -0.14391863 -0.06605105 0.20557828
738 -2.559223 -1.4000611 3.636895 4.4009995 -1.5134771 1.511646 -1.9065207 2.8304029 -1.3657811 1.3164915
739 -2.9409647 -1.8176978 4.752908 3.2306998 -1.0394179 0.44922072 -2.530313 1.7589129 -2.4347992 1.7119999
740 -2.988604 -1.7849579 4.8236012 3.1896248 -0.9417549 0.51870704 -2.5085256 1.8243048 -2.4123266 1.6199167
211 -6.0763526 -2.5632656 5.65416 0.35080025 1.8996058 -0.2358889 0.80578464 -2.2803402 -1.4310192 -3.1201193
989 -2.8326862 -1.6988308 4.9688945 3.328093 -1.0811255 0.51813054 -2.4648416 1.9235725 -2.366536 1.699889
11 -2.2722304 -0.7355992 3.8025336 3.7271574 -0.96372145 1.0836957 -1.5715307 2.421712 -1.6815904 1.1937639
659 -2.2442482 -0.6999723 3.8342059 3.6937897 -0.95710695 1.0368744 -1.5492123 2.365258 -1.7159634 1.2236556
278 -4.836211 -1.95569 5.049312 -0.22623076 2.3546429 -0.4116494 0.20438688 -3.5858748 -0.25740796 -1.856641
838 -3.5799484 -0.8481337 -0.8324172 2.8113954 -0.098453306 0.3019499 1.1207563 -4.5428863 5.114088 0.21603404
235 -4.9613 -2.676639 1.9657841 -1.0493227 2.5830677 -0.29923835 5.6000185 -3.3861742 -0.45137054 -1.0203991
1034 0.20176922 -0.44335878 3.5935783 2.549768 1.2720803 -2.2954004 1.513322 2.5228784 -0.44103372 -0.13188669
289 0.22716363 -0.4969607 3.6622324 2.627528 1.2715409 -2.3571954 1.5370771 2.5531406 -0.44974998 -0.1148205
897 2.1750395 -0.9661906 2.018573 1.126822 -0.085761 0.26043713 4.029068 1.5512986 2.862675 1.7103618
236 -4.9770675 -2.5812395 2.0148654 -1.0382162 2.4567893 -0.33757883 5.5333204 -3.4084027 -0.47089547 -1.0474317
447 0.26106995 -2.1235251 2.444459 -0.6419951 0.99837357 2.5124102 4.674246 0.6071557 -0.5568529 -0.02887551
341 -2.0066395 0.3119919 1.1290467 0.19383678 0.61660725 -0.9768153 2.0724437 0.3075048 2.6570878 -1.1967087
866 -2.7563689 -0.4326187 -0.46052024 2.4658072 -0.3051861 0.25750884 0.7992153 -3.8909295 4.381753 0.1727683
972 -1.5080581 -0.07558712 2.1042366 2.1697466 1.2987294 -0.8501912 1.4643682 2.4620872 -0.34028074 1.5516855
493 -1.996219 0.28114238 1.166218 0.19091547 0.6095879 -0.9410693 1.9994148 0.30902612 2.6091053 -1.1749982
606 -1.9066182 0.35176292 1.1544411 0.18960604 0.6418447 -0.9381282 1.9173319 0.327812 2.5098474 -1.1411731
978 0.59435266 -0.87529886 1.1098493 -0.24897224 -1.8635811 0.5779291 2.7852957 0.06731939 1.5339049 0.8759547
479 -0.8999832 -0.35592735 1.3460132 1.6657786 0.7026456 -0.8395298 1.3912499 2.0291207 -0.49615598 1.3116839
180 -0.30291152 -0.10577435 1.6250681 2.671154 0.33898422 -0.5938702 -1.3943745 0.14054935 2.3414803 2.4133193
708 0.6910546 -0.26406658 2.5872452 0.070629574 -0.5737473 0.5370116 0.38634068 0.12362864 -0.42197296 1.1726477
662 -2.521999 1.9341357 1.5406284 1.2822508 -1.8106747 -2.2814896 1.5541192 -0.2281176 2.383769 0.658115
88 -0.8366467 -0.39231142 1.3393211 1.6355239 0.6447028 -0.8318081 1.336024 2.0156355 -0.49280372 1.315494
485 -0.7856052 -0.39057684 1.3323588 1.605984 0.6951673 -0.83082855 1.3313854 1.968292 -0.4545329 1.285152
297 -3.3950238 -1.9116015 0.9697001 -0.73662066 1.7734483 0.060288668 3.4897497 -1.8128088 -0.40685567 -0.34199253
915 -0.90505093 -0.38785994 1.3339669 1.6875043 0.67695886 -0.85641676 1.417776 2.057219 -0.49122053 1.3748703
836 -1.2221571 0.42238545 0.7128481 1.9369283 0.22214605 -0.19267721 1.8780626 2.17692 0.09650736 0.33093762
51 -3.561135 -1.9069538 1.0460917 -0.7514357 1.7571117 -0.049401753 3.6328864 -1.8883584 -0.47663456 -0.32526916
414 -0.9455765 -0.40875566 1.3578464 1.6778674 0.70973074 -0.88178355 1.3718197 2.046761 -0.44584817 1.3812593
914 -0.8705513 -0.37661535 1.310014 1.5912411 0.6723049 -0.82922864 1.3101181 1.9836692 -0.45586982 1.2839844
998 -1.3297607 0.33900717 2.1868298 0.7979874 -0.063911974 -1.349139 -0.5936237 -0.5085762 1.2339439 2.8988059
913 -0.9214969 -0.39580008 1.3398896 1.6288352 0.66104746 -0.8249363 1.3036937 2.0270483 -0.45415312 1.284443
503 -3.5851827 1.2916334 1.633971 -0.33345464 -1.1772661 -0.5581036 6.0282407 -0.37002793 -0.2680012 0.18408383
830 -1.3398602 0.22613771 1.018521 1.4324982 0.0821651 0.3199385 2.1262019 2.0903175 -0.47245535 0.55135435
911 -0.86913574 -0.3992822 1.3018929 1.6187965 0.69956625 -0.8258475 1.3863764 2.0243802 -0.45708588 1.3580164
906 -0.90942043 -0.41611618 1.3440907 1.5960497 0.6786703 -0.8071397 1.3473057 2.03137 -0.46205282 1.3040733
390 -0.8906991 -0.38039935 1.3521278 1.6250814 0.66994643 -0.83647335 1.4045819 2.0245275 -0.4914334 1.3213559
440 -2.4940758 1.5549318 2.4422185 1.4554484 -1.7410653 0.1366928 -0.045351543 -1.9401765 -0.6095472 3.0120394
904 -0.85023576 -0.38731134 1.3583782 1.6477276 0.70689857 -0.8761916 1.3642043 2.015312 -0.47354394 1.3282367
398 -0.95819217 -0.3704634 1.3320588 1.6197706 0.66142184 -0.83264154 1.3402275 1.9848657 -0.47004324 1.3562608
784 -0.16927674 0.15057807 3.6880696 -0.1851933 1.2732621 -0.7944158 0.39365524 -1.3114064 0.6070238 1.6122695
613 0.3540959 -0.88105005 2.4352455 1.9261682 0.8549136 -1.7085041 1.0687181 2.147615 -0.31772763 0.38346785
909 -0.8611357 -0.36596718 1.3081084 1.6290095 0.66984344 -0.7164798 1.3422682 1.9986378 -0.463501 1.2792912
920 -0.86421114 -0.38581637 1.388375 1.687529 0.69567996 -0.8327447 1.3555862 2.0371482 -0.47521862 1.303911
725 -1.6357958 0.29751402 1.2264683 1.2372749 0.7083913 1.0395862 -0.30182517 0.21607669 2.8565881 -0.28195548
443 -2.762976 -0.5824438 -1.2979066 2.7794175 -3.3383126 -1.849557 1.5300937 -0.40125978 2.4799845 0.95466566
75 0.814644 -0.14872156 1.009565 0.1386446 -1.8292812 0.5414865 2.4969254 0.016316067 1.5481596 0.6540508
726 -1.0704448 1.3167979 1.8233384 2.1215844 0.4650757 2.5479372 0.1348019 1.2848318 2.8246105 1.222123
917 -0.9102112 -0.41329378 1.3480031 1.677982 0.7069293 -0.86739755 1.4067965 2.0627272 -0.4680961 1.3507885
792 -1.794252 -0.7208356 0.1641407 1.1207074 -0.17502792 -0.49797192 0.42339665 1.1305882 0.65294933 -0.39481723
1017 -2.554113 1.5875 2.4936059 1.503161 -1.7864771 0.19675967 -0.073421694 -1.9019574 -0.68173516 3.0531127
916 -0.87003887 -0.3901307 1.3217566 1.6645645 0.6921073 -0.85385066 1.3745986 2.0237064 -0.51921415 1.2583613
895 0.3246612 -0.6320755 1.5102249 1.0304314 0.49166298 0.24687584 0.67776006 1.6616405 0.18852113 0.072305985
795 -1.8226058 -0.65759724 0.15714952 1.0699013 -0.23560889 -0.4681331 0.46769693 1.0641848 0.6137943 -0.3475524
476 -0.8894966 -0.37211734 1.3191592 1.6336261 0.6690582 -0.8153252 1.3181928 1.9805515 -0.48230305 1.3110472
47 -0.86499393 -0.37046033 1.3543565 1.5709292 0.68536115 -0.7965068 1.3444963 1.9807359 -0.45662016 1.2673823
145 0.3236632 -1.0649582 2.3371239 0.6520291 0.6660821 -1.613138 -0.17845151 0.44368255 0.086324565 0.63486445
435 0.7878303 1.007846 1.4141568 1.6104687 1.0742673 0.1792636 2.2267237 0.8425638 1.2084593 0.79215103
425 -0.9086786 -0.4033213 1.3525798 1.6408325 0.70991206 -0.8244937 1.3471497 2.026209 -0.43882143 1.3298008
1020 -2.472026 1.5208944 2.3277338 1.4458818 -1.7937932 0.16735801 -0.08149661 -1.864739 -0.73568565 2.965974
489 -0.84281933 -0.38005504 1.3115139 1.6511987 0.6785314 -0.8394346 1.3354058 1.9629445 -0.4512943 1.3528783
1047 0.2342541 -1.2293613 2.8561609 1.828938 1.0120146 -2.340929 0.4494871 1.6612 -0.33927727 0.41596666
242 0.35171613 -0.6434425 1.4421067 1.0063515 0.5053545 0.24729267 0.6499415 1.6068243 0.1641984 0.102832176
827 -0.5982786 1.4286263 2.3461897 0.9637299 0.77205795 1.5425574 1.1051469 0.57934976 0.35952926 0.67873865
907 -0.8617694 -0.37425756 1.3082892 1.638546 0.65576506 -0.7773978 1.2999338 2.0030832 -0.4360014 1.2925378
912 -0.85283357 -0.35751742 1.3897408 1.5992547 0.69992924 -0.87658733 1.3327532 2.01141 -0.46062523 1.2993567
213 -1.8207226 -0.6084862 0.12491133 1.1321048 -0.24437986 -0.37632772 0.4341551 1.109099 0.6515791 -0.388929
980 -1.824947 -1.1285672 2.0578945 -0.023604423 1.2964966 -0.8499563 0.34749454 -0.9742209 -0.12522599 -0.87183803
436 0.15330328 -1.7207471 1.8431777 0.28782105 -4.045092 1.7678082 2.711495 -0.42065215 2.8452227 0.72944796
474 -0.83763325 -0.37409574 1.355465 1.6715074 0.70730346 -0.75768673 1.3871813 2.0361388 -0.4641654 1.3092614
910 -0.8623793 -0.35299116 1.3247063 1.6124125 0.6660404 -0.8369905 1.3750174 1.9842662 -0.46382883 1.3299043
718 0.82789284 -0.14092748 1.0804557 0.18833968 -1.8700722 0.6010617 2.4911067 0.006050213 1.5692595 0.63682574
167 -1.4691118 -0.45084596 -0.99137396 1.4892299 -1.8304888 -1.5782242 1.7248122 -0.7391203 0.3692233 0.8346731
478 0.81192565 -0.13600586 1.1188941 0.13880274 -1.8615346 0.60355884 2.4600255 -0.005190101 1.5392966 0.609796
525 0.7670977 -0.110942796 1.0543705 0.15456153 -1.8564237 0.5445909 2.4977975 0.06043432 1.4928455 0.6232602
512 0.53705764 -0.940716 1.2088557 0.49469626 -3.3160932 0.99080217 2.3513477 -0.39382353 1.9427059 0.69885635
840 -0.67870617 -0.063371286 0.5760941 1.3458457 0.17313208 0.11588051 0.9112872 1.4797732 -0.3132831 0.52709275
781 -0.44395262 1.503426 0.9687443 1.5688422 0.2655881 1.3444189 2.6013386 0.75491226 0.18343626 0.6354793
48 0.3434963 -0.64575475 1.525851 0.998572 0.49315518 0.26186478 0.6651309 1.6362815 0.18254836 0.05223469
995 -2.4833827 1.5061196 2.3869956 1.4299173 -1.794319 0.18501481 -0.048508838 -1.8892792 -0.6634895 3.0106344
158 -0.35069016 0.7939935 1.1824204 0.43071318 -0.13283747 0.63727504 1.9920217 -0.9222234 -0.5370733 1.6674414
854 -0.6415128 0.022393547 0.5609216 1.39483 0.14020388 0.15578288 0.9359373 1.4765843 -0.29542077 0.5594742
847 -0.73629177 -0.02880824 0.5582115 1.3592148 0.1851535 0.109758236 0.89975107 1.4727783 -0.2851246 0.5291895
14 0.8380404 -0.14526352 1.0298197 0.1921102 -1.81353 0.56013966 2.5184052 0.01862699 1.587444 0.6572621
891 0.37519297 -0.6276034 1.4808358 0.9516793 0.509146 0.23724979 0.66807353 1.5904633 0.16622584 0.16164063
903 -0.8751367 -0.39235023 1.3557973 1.6491623 0.6887542 -0.83094406 1.3745736 2.0143538 -0.49727494 1.2579266
217 -0.7188212 0.3763059 1.6975107 0.7754787 -0.2339332 -1.0791203 -0.5719309 -0.5735013 1.0421438 2.0986347
192 -1.1125271 1.3837019 0.9954864 1.6250343 -1.4833293 1.1448455 0.79493463 -1.1923461 -0.34281495 1.900823
857 -0.7458175 0.03593922 0.5386467 1.3395919 0.12932797 0.21472542 0.8609374 1.4324971 -0.25811365 0.5546003
839 -0.67428774 -0.0131759485 0.5347315 1.29379 0.15864487 0.21941735 0.922842 1.4502996 -0.23564376 0.5645657
321 -2.4349928 1.5030504 2.3854477 1.3898289 -1.7673819 0.1404675 -0.0675244 -1.8935169 -0.6380088 3.0184407
449 -0.02535419 -1.073043 0.40930405 0.17930734 0.13102347 2.1370447 1.997689 0.06595284 -0.59573096 0.22628443
856 -0.7421621 -0.01598372 0.574579 1.4201319 0.09994015 0.15988055 0.883385 1.4688473 -0.33039236 0.5962767
796 -1.7790155 -0.6716699 0.13859029 1.028406 -0.20467827 -0.5158701 0.45534468 1.0487502 0.64888406 -0.27711415
1042 -1.6822119 -1.5181179 0.19119187 0.80307263 1.5910068 0.4268012 1.3371211 -0.6120714 -1.3105413 1.6956902
568 -1.2571058 1.2657912 0.80013955 1.9994036 0.17426078 -0.47661152 0.20512289 -0.9421647 1.1272699 1.7654772
268 -0.45089784 -0.12170191 0.6890594 1.6079462 0.42953333 0.2893477 1.6638075 2.1211536 0.3676099 1.1183567
286 0.355981 -0.67074275 1.5317336 1.0356798 0.49176353 0.2457855 0.6734726 1.6905149 0.21814759 0.08698618
93 -0.74711514 -0.018635908 0.60085386 1.3166877 0.1416723 0.206322 0.9189634 1.4821857 -0.29053247 0.546931
931 0.33790123 -0.83110297 2.394678 1.8969831 0.87917686 -1.6318244 1.0440844 2.081708 -0.32340547 0.3766861
464 -0.6774321 -0.051886577 0.5741991 1.3559686 0.19686744 0.18052945 0.87699294 1.4830962 -0.29553464 0.48950678
848 -0.7004843 -0.023619384 0.536568 1.3352385 0.17415576 0.19426861 0.85794514 1.4573787 -0.22114712 0.5120319
908 -0.9087715 -0.34580284 1.3534815 1.6274804 0.70715445 -0.8284335 1.3445417 1.9913372 -0.46639517 1.3141093
918 0.43332192 -0.16462274 0.08189647 0.8667845 -0.47322106 -0.859013 1.6493962 -0.8174461 0.61172974 1.8348113
983 -0.376117 -1.0814172 0.41257018 0.36582914 0.1910167 2.7000215 3.3648412 -0.2561896 -0.9910053 0.54885995
343 0.5968158 -0.0077377986 1.7101299 0.1921406 -0.38950536 0.5336974 0.43025935 0.09680012 -0.39701566 0.52021164
941 -1.0388217 0.7752654 1.3797854 0.19195732 -0.22235711 0.54515773 1.926215 -1.7832922 -0.7407301 1.8618776
514 0.78428316 -0.13804077 1.1151682 0.14674549 -1.9205128 0.6016352 2.565506 -0.02021595 1.5911752 0.655922
842 -0.71818155 0.024360482 0.57987434 1.3604707 0.11242053 0.16539782 0.92738736 1.5233657 -0.26419905 0.53888315
595 -0.5639368 -1.7246215 -0.830447 1.5721213 -0.26794505 1.1653799 0.14703985 -0.17918305 0.16451718 0.41483456
157 0.35567483 -0.6962076 1.5430546 1.0274298 0.51966405 0.26726708 0.70580775 1.689435 0.24725004 0.104112074
147 0.3358867 -0.61358684 0.6278773 0.6210211 1.285049 2.004587 1.2577322 -1.228516 0.52837676 1.2877157
279 -0.87413985 -0.41145504 1.3064009 1.60243 0.68971175 -0.81778246 1.3146026 1.999974 -0.44055247 1.2838303
845 -0.6996576 -0.014624245 0.58823395 1.3716012 0.1405094 0.13273974 0.90153 1.4935869 -0.25315222 0.541966
304 -0.73469985 -0.015786739 0.5743443 1.4220076 0.19277182 0.17107017 0.85260445 1.4554433 -0.28319624 0.51078874
329 -0.9595057 0.4965569 0.53251946 0.5622717 0.10740356 1.1281213 1.0068951 -0.9129974 -0.33924744 1.2910398
517 0.57455564 -1.9296007 -0.85972625 1.9162523 0.4061796 -1.1800939 1.630255 -0.22826289 0.4406792 0.2309132
778 -0.37228906 -0.93938965 0.38530102 0.382477 0.13474049 2.7275138 3.3332376 -0.28378475 -0.99666935 0.60418963
664 -0.7289649 -0.807205 0.35215792 0.36984766 1.8004829 -1.1143534 1.7521137 -0.76513493 -0.12100679 0.11296638
843 -0.78272945 0.005963291 0.57880294 1.3984921 0.11754669 0.1630905 0.8711954 1.4984447 -0.3168482 0.5866409
283 0.39787254 -0.79736924 0.6460479 1.7509725 -0.36707717 2.0138528 0.2578403 -1.1954182 -1.2158732 2.1568463
806 0.84688556 -0.13645516 1.084727 0.19411954 -1.9377524 0.6338848 2.5495484 0.039350163 1.6053448 0.60325646
467 -0.66663045 0.027828397 0.52954686 1.3771713 0.16632348 0.24824964 0.91765153 1.4918814 -0.253347 0.5396308
61 0.08916917 -0.2702384 0.3383938 0.6559442 -1.9009761 0.29185534 1.2973758 -0.019015953 0.165181 0.4407368
957 -2.4722316 1.5226935 2.4453003 1.4244598 -1.746265 0.14472376 -0.12281339 -1.7811245 -0.6769295 3.0282018
680 0.5203129 -0.09880389 0.34969148 1.0220288 0.75803995 0.05211722 0.5201478 -0.23366135 0.9928452 0.7947874
852 -0.787476 -0.034303028 0.56658345 1.410714 0.102689326 0.246955 0.9275949 1.4846207 -0.32298097 0.60380495
34 0.36239502 -0.6667937 1.5377644 1.0085766 0.5075484 0.31966728 0.68174356 1.7149944 0.18777984 0.08548157
417 -0.6677207 -0.052280754 0.5511389 1.3566669 0.18868136 0.17211197 0.86385363 1.4906989 -0.21533845 0.50903165
886 0.2260798 -1.6186728 -0.7304288 2.1552525 1.0625395 -0.35691738 0.7493611 -0.5015709 0.51206625 1.3100471
853 -0.77303314 -0.0324968 0.5878673 1.3905022 0.18573223 0.20550585 0.9391792 1.5183085 -0.31502762 0.5754145
487 0.70130193 -2.2268968 -0.9920301 1.7093372 0.4928169 -0.86256146 1.7596858 -0.21975085 0.15425016 0.6592905
612 1.0656596 -0.15236196 0.61152065 0.9787415 0.07710876 1.0080616 1.1160598 -0.30628362 -0.27094465 0.8770118
62 -0.6199592 -1.9445859 0.15296276 0.9959873 0.9087321 -0.300092 0.13995425 -1.2500652 -0.62806946 2.4796414
561 -0.40339386 -1.01189 0.37127563 0.9406133 1.0207229 2.5860243 0.7011165 -0.60672265 -0.3630256 0.67421114
319 0.2291787 -1.991003 -0.48278135 1.9112995 0.09671547 0.33754155 -0.08210593 -1.0678838 0.43507123 2.624823
531 -1.4759443 -1.4174061 -1.1013793 1.8338574 -0.36969122 -0.2474237 1.4697995 -1.0717287 -1.5951633 0.67135096
593 0.31735295 -1.203649 -0.099107884 1.4280767 -0.8214751 1.4201974 0.035120405 -0.97827077 0.106266804 1.8082604
266 -0.44893837 0.4216223 0.6195691 0.27841055 0.038678743 0.3414334 1.0714159 -1.0683765 -0.4960425 1.0222679
68 0.67285424 -0.44736806 0.014508357 1.6063702 1.5702964 0.11408115 1.454794 -1.017645 0.754127 0.42557028
825 -1.3338741 0.12461662 -0.23965017 0.5770338 0.13937794 0.10076458 1.3202574 -0.7051888 0.3467835 1.2957848
154 0.27818847 -1.0993891 0.5086527 0.51622355 0.8457716 0.36087018 1.0800428 0.008529531 -1.0347819 0.85101336
628 0.105985455 -0.24012089 -0.24179417 1.2981068 0.24646117 -0.89816934 0.84537333 -0.3752629 0.5550339 -0.24472395
574 -1.4420891 1.2202016 0.9184916 0.87125945 -1.1430354 -1.8041232 1.0157224 -0.4875855 1.6085718 0.4473703
508 -0.100438066 0.22438578 -0.13988636 1.9138151 -0.0233116 2.2135901 1.3320761 -1.8133729 0.17760046 1.0337368
25 -0.52274877 0.4619806 0.56136805 0.3154112 -0.037098773 0.33235446 1.1289039 -1.0460368 -0.48498094 0.9793026
243 -0.53042144 0.4223294 0.63015926 0.23460202 0.035548195 0.33902204 1.111741 -1.1900401 -0.4645243 1.0495274
1026 -0.8643388 0.930598 1.1861743 0.64197034 -0.41587472 -0.28313184 0.262934 -1.1603377 -0.13108312 1.4130319
962 -0.60150695 0.6242709 0.8529911 0.96167034 0.16361718 -0.6607931 -0.083404094 -0.9769206 0.49101013 1.2142967
267 -0.5576082 0.394006 0.5999262 0.24411273 0.09204318 0.34777907 1.1391251 -1.1536666 -0.4745049 1.0217109
631 -0.46569112 0.118789926 0.47644392 0.14840706 0.58288735 0.19801751 0.7223298 0.13938534 1.0266459 -0.22077486
317 0.2305684 -2.0688462 -0.5279293 1.9075549 0.1164383 0.36598864 -0.014857074 -0.98731905 0.45114005 2.6061063
106 -0.7251612 -0.03342534 0.55625093 1.4045109 0.13528745 0.1749651 0.901175 1.5108119 -0.26011416 0.5386852
466 -0.51963276 0.409268 0.55811167 0.28448114 0.1022579 0.29862863 1.0864644 -1.0808192 -0.5010382 0.9934308
282 0.41063666 -0.8262808 0.6245027 1.7448289 -0.2931229 1.9718978 0.120898545 -1.2429935 -1.1641601 2.0934074
973 0.27953726 -0.41525292 1.8694614 -0.3843807 -0.49383965 0.2957636 1.6465008 -2.9545481 -0.16609834 1.1386979
808 -0.45635092 0.10429846 0.73120844 0.32241893 1.1230469 0.25058803 0.4667026 -0.42794812 0.3479936 0.048856
87 -0.48630697 0.44614172 0.61642057 0.25800666 0.036297794 0.39142922 1.1807024 -1.1134654 -0.46842933 1.0208106
271 -0.5145395 0.42463523 0.5834689 0.2525681 0.03565392 0.32456905 1.1247098 -1.1140842 -0.43046987 0.99485195
762 -1.4752648 -1.4727979 -1.0934713 1.9537361 -0.4783877 -0.3117368 1.6208483 -0.9923678 -1.767487 0.81989974
647 -0.5357343 0.38896012 0.5640374 0.29065892 0.031035153 0.34574562 1.1537265 -1.1473783 -0.53143007 1.0644311
314 -0.9689554 0.03723347 0.33361024 0.3093576 1.3996588 1.3709977 2.0292602 -1.4272641 0.79571635 -0.020400595
472 -0.3008708 -1.3909316 0.06973298 0.65526617 0.94311655 0.17941469 1.2403363 -0.09876649 -1.2655622 1.1082945
730 -0.51845694 0.42343965 0.5667634 0.2700201 0.048480608 0.37567002 1.155097 -1.1021528 -0.43417984 0.99306923
1051 0.066035315 -0.32732496 0.30462754 0.60801804 -1.9305568 0.33906043 1.3615652 -0.06626926 0.22166328 0.49066556
161 -0.4703911 0.4158688 1.0246698 0.13549076 0.5084084 0.64815986 1.3667717 0.0009075991 -0.43734932 -0.4297449
672 0.24715696 0.4330157 -0.0004649083 1.4388943 0.56231546 0.19267161 1.7348224 -0.02328856 0.28084582 0.33855203
966 0.052747976 -0.30237037 0.33952975 0.62739074 -1.9142973 0.2746978 1.3186448 -0.021143531 0.14691404 0.47021496
884 0.845538 -0.5023799 0.90000254 0.26518664 1.0789517 0.7856664 2.0075867 -1.7568613 0.5473912 0.08927038
951 0.36908177 0.21905296 1.1559985 0.64830875 0.7534315 1.027964 1.453397 -0.41750652 -0.7712175 0.030347181
760 0.2887034 -0.6684337 0.10643699 0.35679507 0.14965759 -0.8905384 1.2560817 -0.56077737 -0.39850593 0.26476517
652 -0.5160878 0.42249316 0.5547362 0.26737642 0.04758662 0.37156612 1.1227492 -1.0614798 -0.4263967 0.9881768
139 -0.22473054 -0.46298507 -0.07943789 0.48637652 -1.2120616 0.07703468 0.9418993 0.023177069 -0.12216423 1.0901723
495 -1.4099885 0.17225052 -0.22809133 0.5537855 0.08730547 0.06339299 1.3863387 -0.87173694 0.34125167 1.3696563
727 -0.5034021 0.42389363 0.65503734 0.21918112 -0.013975579 0.3280149 1.1571841 -1.1614974 -0.47549185 1.0492415
676 -0.47428784 -0.37673232 0.4868989 0.029777894 -0.08638307 0.72184515 0.9291557 -1.6504279 -0.5713104 1.4843669
622 -1.4041865 1.2182281 1.0407262 0.79040706 -1.0906727 -1.7957426 1.0220574 -0.54840887 1.6071817 0.40141493
402 -0.034991164 0.203697 -0.449329 1.5576315 0.3415404 0.033247855 1.7329168 0.13288926 0.46467 0.08368321
901 0.11732109 0.12588215 0.08934616 0.7804926 0.44171333 0.15758 0.60337687 -0.15678841 0.32764754 0.04592941
55 0.069713406 -0.3010079 0.34455028 0.6083982 -1.9070914 0.27209306 1.359896 0.013609262 0.21236551 0.47372323
763 0.3100194 0.37226105 0.47018552 0.49543962 -0.40849695 0.44513577 1.0699567 0.1352257 0.30491605 0.15853587
926 -2.7004085 -0.52943116 -1.3034922 1.4856404 -1.2132808 1.0590236 1.5935031 -1.7430238 0.1119481 0.6727832
462 0.033843335 -0.72459763 0.26631653 0.328478 -0.09094535 -1.0463933 0.1749903 -0.7135623 0.35002726 0.626679
687 -0.483509 -1.5704044 -0.78931284 1.4728297 -0.27532834 1.0641396 0.19555162 -0.21698466 0.15574463 0.3846127
43 -2.5943265 0.13908729 -0.124237806 1.787145 -0.52506113 2.563885 2.6960764 -0.24483664 0.11364731 -1.9611266
961 0.079296924 -0.27794856 0.34626752 0.6231476 -1.8781604 0.28724167 1.3558987 -0.043886177 0.18133508 0.4703775
1015 -1.3807636 0.1510789 -0.2485676 0.56675285 0.068551905 0.039374005 1.4085643 -0.77859217 0.36459246 1.4013222
428 -0.4519515 -0.42221195 -0.028289782 0.5248394 0.37017152 1.8302361 2.039002 -0.083574206 -0.40086845 0.030383466
1021 -0.075850554 0.20357764 -0.052399855 1.7432661 -0.0016317783 2.1266766 1.2392544 -1.7380323 0.06768346 1.039688
648 -0.5144318 0.4567615 0.5956021 0.32093218 -0.028566752 0.36854252 1.1089318 -1.0561773 -0.4846436 1.011039
1030 -0.34771475 0.35923094 -0.02256929 1.6247784 1.0091292 0.5483397 1.0301304 -0.2857363 0.15580799 -0.08483118
706 -0.525928 0.45406172 0.581823 0.33235624 0.06791118 0.38987374 1.1207937 -1.0699706 -0.4415359 1.0696212
471 -0.26222923 -1.2988436 0.08485417 0.6766061 0.9367433 0.21044004 1.2524763 -0.04917686 -1.2766987 1.1109375
379 -0.61900157 -2.0025222 0.20991702 1.1081096 1.0030566 -0.2935408 0.08212722 -1.2091035 -0.6629396 2.5415983
412 -0.21469997 0.004698966 0.885611 0.10519582 -0.27915597 0.25027597 0.6559596 -1.407817 -0.7161244 0.40119877
298 -0.51490396 0.4490939 0.6023037 0.267526 0.029484516 0.34939912 1.120663 -1.1492903 -0.4866558 1.0597602
520 -0.31804284 -0.17967758 0.114593856 0.70343596 -0.060674537 -0.33377174 -0.120625176 -0.9341677 0.5909728 0.18521103
337 -0.118431926 -0.050425496 0.22839032 0.54537964 -0.52671933 0.23275524 0.5320391 -0.89032245 0.5000733 -0.5133675
643 -0.5329391 0.37468398 0.5590175 0.27324802 0.07727113 0.29329687 1.1068062 -1.0881805 -0.4635558 1.0274372
201 -1.1268595 0.21562706 0.34646466 1.3754538 1.8030934 1.0244668 0.97766757 -1.6500283 0.9950999 -0.5089999
431 -0.2690522 0.031563606 0.87140363 0.10748705 -0.2966848 0.18499519 0.6394679 -1.465486 -0.74596834 0.40842763
898 5.44099e-06 0.17539245 0.14494835 0.70313954 0.41157478 0.25738117 0.56428623 -0.12753315 0.24536054 -0.035742622
644 -0.5747555 0.4306937 0.56402713 0.28841215 0.037632857 0.3400381 1.1373101 -1.0725434 -0.5083226 1.0776871
953 -0.1981524 0.033589847 0.17347269 0.4983583 0.30369127 0.46859473 1.425557 -0.87515706 -0.60171795 0.95110536
902 0.32625106 -0.31970957 0.5170558 0.54978275 0.5448404 1.1635693 0.5698623 -0.11675712 0.096434526 -0.061721645
36 -0.59390897 -1.2328671 0.26752093 0.975196 0.57962143 1.5635463 -0.24755888 -1.9054455 0.8468295 0.79359734
1039 0.2114181 0.08754146 0.50144565 0.52232134 0.25884923 0.43512422 0.6169622 -0.070168145 -0.26013726 0.052585516
1007 0.082478076 0.1556052 0.100319564 0.8078547 0.35518613 0.3200846 0.53902185 -0.09914247 0.3410034 0.026214706
745 -0.52420115 0.44635305 0.58283114 0.28520384 0.026529284 0.348629 1.1580485 -1.0735582 -0.4830433 1.023453
72 0.53864527 -0.9356105 -0.07830218 1.4103001 1.3055044 -0.08267159 0.7640082 -0.90389365 0.313579 0.597989
551 0.26051527 0.079805955 0.47573125 0.5479135 0.21556263 0.52973104 0.5503443 -0.120212585 -0.19272135 0.0490845
354 0.03492212 0.17773035 0.16622056 0.76334035 0.4413831 0.20657568 0.59414345 -0.13003296 0.23638782 -0.10107888
1001 -2.0085995 0.2959858 -0.5903406 1.6867727 -0.23340431 -0.018017381 1.1643518 0.1231262 0.06521718 -0.54087406
368 0.04491349 0.1498793 0.1421895 0.7983674 0.41770577 0.22758251 0.51887584 -0.08858342 0.3024584 -0.05320995
598 -0.56209177 0.24911244 -0.05196621 1.3538663 -1.2531682 0.69814575 0.25395098 -0.084503785 0.26774198 -0.008010332
164 0.088343315 0.5454914 0.5143763 1.4897338 1.2022271 0.63321435 1.2190408 -0.06445476 0.5656388 -0.5988265
221 0.026691606 -0.2615539 -0.34315348 1.4058009 0.22727282 -0.9366323 0.9249756 -0.41805542 0.5961041 -0.28972185
391 0.66942924 -0.4795635 -0.0697138 1.6036292 1.557981 0.07075159 1.5060791 -0.9849146 0.7512909 0.43744084
427 0.28916788 -0.6739075 0.10733249 0.3830115 0.11527875 -0.8503717 1.2073053 -0.5682358 -0.42835835 0.24759142
960 0.06268811 -0.2934092 0.29395732 0.6236946 -1.8913177 0.22760178 1.309307 -0.018880686 0.15232131 0.44670418
380 -0.09799301 0.4255287 0.5455093 1.3620934 -0.11841311 -0.40977582 -0.1241811 -0.9951114 0.62994456 1.4554608
640 -0.46023855 0.42515317 0.59399414 0.25289822 0.03489331 0.32474646 1.1479424 -1.0885053 -0.46465442 0.9854297
753 -0.97511405 0.51676047 0.13647854 0.7907461 -0.80933297 0.27290845 0.46856934 -0.9464908 -0.13577263 -0.0012580921
3 -0.8835424 1.6553816 1.8423868 1.8939725 0.64554596 0.97039783 0.38722283 -1.7705148 -0.3043715 0.023699308
349 -0.008269011 0.15192616 0.14041615 0.7399841 0.45873535 0.20555991 0.53280485 -0.18252419 0.30383295 -0.09304769
135 0.11946527 -0.26008916 -0.23522447 1.3485245 0.3109819 -0.9239823 0.8921915 -0.41495922 0.624209 -0.2935989
772 -0.8450129 -0.40324622 -0.5129465 0.69341284 0.119799875 -0.27974758 0.55409175 -0.55913883 0.09833995 0.578119
175 -0.5306229 0.4730444 0.621991 0.30468342 0.085049674 0.32449147 1.1625454 -1.1142887 -0.48038483 1.0825735
809 0.10142592 0.32530308 0.7462196 2.4056313 1.1609098 0.27101898 1.6854268 0.7087075 -0.07473842 -1.2395208
550 0.15500739 0.0694971 0.49385193 0.49286664 0.17665358 0.49722558 0.5370783 -0.115748815 -0.23854405 0.020885186
601 0.37218136 -0.18493894 0.14530216 0.85079235 -0.008961341 -0.08022697 0.10213155 -0.47284272 0.54549134 0.2024985
178 -0.1586577 0.37811032 0.52189165 1.7252359 -0.5092352 -0.07192341 0.9483432 0.6498081 -0.85488755 0.3986291
861 -1.207808 0.08549716 -0.10556496 0.4439407 -0.0946066 -0.82582825 1.4925861 -0.75293255 -0.439157 -0.045370575
238 0.069038406 0.18903777 0.34739318 0.68577933 0.48438475 0.6660356 0.9729495 -0.3011386 -0.17686573 -0.09355987
1025 0.80380756 -0.7677619 0.50063115 0.48249698 -0.14508565 -1.1192183 0.75350934 -1.0900471 0.490303 1.3562753
413 -0.3061099 0.034486294 0.86951286 0.086103275 -0.265117 0.21448244 0.6769673 -1.4864309 -0.7487079 0.4317882
793 0.17043336 -0.12186258 0.090694845 0.73022485 -0.31437856 -1.082263 0.9738589 -0.76839954 0.97780573 -0.31340563
357 0.082291394 0.05117398 0.08334317 0.73531425 0.4745848 0.26085922 0.6014301 -0.09310993 0.35308933 -0.05147065
1012 -0.0024306353 0.1726891 0.13633771 0.7451924 0.3726285 0.24875385 0.50919235 -0.05995434 0.20401037 0.023153301
864 0.06168625 0.1990708 0.15588728 0.74537224 0.42382365 0.20389602 0.613454 -0.1441745 0.19154128 0.0027496377
863 -0.5613231 -0.8097957 -0.031502742 0.40111494 0.44610342 -0.36895615 0.27170557 -0.7770821 -0.47656798 0.88272285
554 0.22702426 0.062201384 0.50204283 0.48155102 0.2375648 0.44907033 0.61508834 -0.13058214 -0.23900896 -0.00646149
714 -0.9223756 -0.4458705 0.42744604 1.3616208 0.8613424 0.62997824 -0.7251816 -1.1878269 0.577354 0.27361658
23 -0.64105934 -1.2668165 0.21536273 1.0692377 0.5389629 1.6127108 -0.28852102 -1.9353503 0.85153425 0.8052285
797 -0.5707204 -0.122631796 -0.23496583 1.2957166 -0.35650432 -0.8248149 0.20147188 -1.560344 0.38853022 0.54729754
685 -0.5462282 0.57725483 0.8404779 0.32361802 0.26652163 0.3040305 0.45520493 -0.22195342 0.65004975 -0.647974
401 0.16197957 -0.30485222 -0.24438041 1.3744804 0.27269378 -0.95671415 0.92097807 -0.4181141 0.5925828 -0.26203573
544 0.24303743 0.026706496 0.48712164 0.5537621 0.28060964 0.56596583 0.561708 -0.13175212 -0.22180504 0.05512835
1029 -1.4947249 -1.5340439 -1.1361502 1.8914841 -0.41015768 -0.24330537 1.5490246 -1.0636407 -1.706032 0.71488464
