3509 50
635 -0.10283577 -0.100242995 -0.032887567 0.028855735 0.17966571 0.053975172 0.12688163 -0.014997128 -0.26482326 -0.12313416 0.12485194 -0.18323985 -0.09578935 0.17202058 0.2598645 -0.4246902 -0.18124036 -0.068597645 -0.2967827 0.15343839 -0.09008174 0.10419818 -0.037636936 0.115027346 -0.05686736 -0.048391894 0.069551945 -0.042199455 0.05931723 -0.07080749 -0.12635808 0.1697781 0.2573337 -0.18933916 0.12335953 0.05967285 -0.06995637 0.006813941 -0.029683484 -0.09094245 0.18064125 0.012337269 0.08962538 0.023876859 0.2840132 -0.1681111 0.15991741 0.22400634 -0.16182205 -0.28170463
715 0.31630072 -0.47359705 0.096793756 -0.040805124 -0.33250573 0.24168988 0.088869646 0.6037888 -0.4563838 -0.46092448 -0.16902453 0.02471577 0.21358588 0.32771933 -0.1797513 -0.06657223 -0.29940137 -0.2118844 -0.05158013 0.33046094 0.18989173 -0.030066483 0.07750973 -0.28970492 -0.2056469 0.059157934 -0.21287811 -0.19930574 -0.21631658 0.33615378 -0.029254388 0.19048205 0.42959413 0.050624315 -0.22677161 0.5239114 -0.21388668 -0.011189156 0.24973664 -0.22906886 0.14722882 -0.25927225 0.41411752 0.068281144 -0.050487325 0.1767717 0.062345 0.38864744 -0.008013766 0.020414729
2804 0.011410982 0.23273736 -0.17995901 0.6007513 -0.10073969 0.32910296 0.19364735 0.46285766 -0.19908519 0.009551862 -0.56457627 -0.059467994 -0.1542916 0.31079346 0.26228318 -0.20428778 -0.19750479 -0.40135568 -0.03162794 0.03910729 -0.35609654 -0.3474745 -0.63334703 -0.08859121 -0.19859836 0.28612664 -0.0852237 0.57592785 -0.494997 0.11281267 0.30290315 0.49867553 0.20230004 -0.3414445 -0.014525744 -0.13291842 -0.37736773 0.16140263 0.09030415 -0.109164774 0.26858035 -0.12323443 0.054490235 0.11075177 -0.25190789 0.16487744 0.036299378 0.06298722 -0.010398065 -0.29941648
1408 0.08401398 -0.6271957 -0.30097228 -0.08489504 0.10430271 0.9243867 -0.72723556 -0.81193787 0.25602105 -0.48488724 0.4278922 0.31795788 -0.22240336 -0.15855381 0.40394205 -0.71425796 -0.13784175 -0.27049422 -0.27927864 0.93620694 -0.3825319 -0.25343692 -0.2933236 -0.6012182 0.4449693 -0.0019396908 0.8411375 0.022962887 -0.90756816 0.16698088 -0.5164051 0.010780803 -0.17875905 0.087703004 -0.20716874 -0.4208516 0.14409512 0.1129043 -0.009930537 -0.5833271 0.32877895 -0.27725306 0.95187706 1.121872 0.2205912 -0.1099913 0.77793854 0.22558661 0.35325456 0.81031823
813 0.23918374 -0.07759796 0.05593909 0.14397487 -0.032335885 0.17982593 0.34702602 0.25386742 -0.5132869 -0.45116007 -0.0820956 -0.013276577 -0.43081507 0.33424258 -0.298533 -0.070032366 0.3739871 0.0085058855 -0.11350096 -0.055708773 -0.6369335 0.24957162 -0.28363696 0.12391086 0.2856963 0.64790726 0.31967962 -0.15804704 -0.22066076 -0.12027454 -0.29337367 0.23822927 0.19384101 -0.10775845 -0.09233881 -0.07306952 -0.41430894 -0.078842565 -0.0053544343 -0.4560276 0.013936563 -0.12474087 0.27570727 0.018532116 -0.011605065 -0.3008301 -0.3264631 0.12720457 0.15813595 -0.19522016
3401 -0.32826537 -0.15092784 -0.3319875 0.20123921 -0.47647762 0.2931221 0.04753346 0.21717048 -0.19765803 -0.11562859 0.26448596 0.25585023 -0.18822724 0.0690567 0.32502642 0.13712935 0.23247156 -0.18908113 -0.7028138 0.16888249 0.24646547 -0.09048281 -0.67167044 0.037703976 0.5505693 0.19854558 -0.14686562 0.11046806 -0.314401 -0.12554586 -0.1087031 0.28349584 0.13193332 -0.26049325 0.07881917 0.43675688 0.077065155 0.0134613225 0.19904175 -0.092890896 0.34643856 -0.35966757 -0.09351499 -0.46535406 0.12550393 0.065092266 0.2166945 0.34344372 0.07876911 -0.28664228
1156 0.15447406 0.22176453 -0.054092966 -0.074292906 0.056141056 -0.07900586 0.26809472 0.12603413 0.015594911 0.10960329 -0.12872785 0.25161085 -0.6873353 0.383933 -0.1990764 -0.26764032 -0.27965915 -0.068251565 -0.29085818 0.07523727 -0.19937229 0.0076816455 0.052671183 -0.2399825 0.3711839 -0.011916983 0.18555874 -0.25607184 -0.13317029 0.12501983 0.040254578 0.8541609 -0.01999434 -0.3232248 -0.29278076 0.24164787 -0.34620112 -0.13429824 0.17592117 -0.36857548 0.03224651 -0.500914 0.09034664 -0.3587706 0.16792817 0.048872873 0.048457135 -0.2541563 0.15541156 0.09409442
537 0.11379941 0.45406178 -0.7137106 0.3590217 -0.012669247 -0.04085163 0.11509648 0.3988575 0.5951625 0.41228682 -0.042664208 -0.37639865 0.093507044 -0.32055363 -0.22056514 -0.1924634 -0.6353682 -0.4508342 -0.5271478 0.14964612 -0.6168884 -0.42669165 0.17557509 0.35597116 -0.016548779 -0.16449966 -0.20925735 0.22131257 -0.15190753 -0.08281335 -0.78453493 0.83915013 0.670882 -0.0077488297 -0.8615255 0.43963417 0.28531763 0.025929682 0.29099873 -0.18160419 -0.40377384 0.07362245 0.6535266 0.28737512 0.6213304 -0.08668189 -0.27061862 0.4177113 -0.07615456 -0.24476856
291 -0.2685418 0.22987582 0.3126394 0.16863808 -0.45120758 0.33743063 0.03291074 0.18387537 0.11301774 -0.37376577 -0.14598061 -0.18194908 -0.22057159 0.104355596 -0.087831035 -0.35179383 -0.26029658 0.035672724 -0.3089149 -0.012045326 -0.4963035 0.04590824 -0.4865941 -0.22132592 0.119246036 0.19366159 -0.10218704 -0.13197903 0.027538478 -0.019890081 -0.11778459 -0.08561001 0.2047074 -0.19956997 -0.3276054 0.4096773 0.25273728 -0.12786391 -0.10566242 -0.5740953 -0.33391836 -0.37573472 -0.3748134 0.06600852 -0.18279271 0.119891375 -0.007455124 0.075291984 0.19455597 -0.03719897
1587 -0.2043585 0.04983505 0.29565746 0.17136936 -0.122308336 0.22435686 0.24956883 0.6206889 0.15344886 -0.21374518 -0.34292752 -0.025699353 -0.15920088 0.1507806 -0.13036047 -0.70825154 -0.053855523 -0.027434658 -0.08831855 -0.05640462 -0.38774863 -0.30639058 -0.3216368 -0.006076434 0.40468284 0.046915207 -0.24343474 -0.12237036 0.18016833 -0.1392183 -0.19136885 -0.2645465 0.20764987 -0.17412487 -0.53070104 0.32307974 -0.28068516 -0.0425047 -0.34584475 -0.36216694 -0.08162233 -0.40801644 0.11745814 0.015485359 -0.09772388 0.21987885 0.32610735 -0.066280626 -0.1357211 0.06608841
432 -0.15230373 0.4662379 -0.7960675 0.9009912 0.5136936 1.3611512 -0.030967245 0.40270707 -0.072159216 -0.31073865 -0.03222112 -0.55094016 0.22952954 -0.13996115 0.5302856 0.2199581 0.7138494 -0.69776934 -0.026887128 0.05386173 0.3200484 0.3587558 -0.6204724 -0.48623118 0.29886428 -0.109440096 0.73756707 -0.5289695 -1.1446881 0.6485311 0.847449 0.80242693 0.18860817 -0.38866857 -0.7245238 1.2257451 -0.038844362 -0.64337045 -0.68270326 -0.7047613 1.3259909 -0.0066308873 -0.4569973 1.3067453 0.45211565 0.32890448 -0.6242495 -0.5538201 -1.536761 -0.5585648
1293 -0.30220872 0.07525798 -0.12848875 -0.014803365 0.23731801 -0.045032226 -0.5191805 0.28020045 -0.22010756 0.021801842 0.24871944 -0.06780087 -0.49622163 0.64841855 -0.44931045 -0.5020386 -0.14101285 -0.2517818 -0.079047985 0.23895085 -0.22930501 -0.07472107 -0.19500153 -0.31727552 0.22150603 0.093215995 -0.51420975 -0.17562573 -0.26862034 0.4608806 0.22391093 -0.22368905 0.35307378 -0.2422973 -0.21120043 0.05767971 -0.65909463 0.13089952 -0.5746681 -0.034145255 -0.24774006 0.00015664782 0.4221326 -0.1272936 0.4455059 -0.024803275 -0.13153236 -0.052371107 0.19642837 -0.3056694
21 -0.52355045 0.22814958 -0.13632502 0.30404794 -0.49044782 0.1745348 0.50468165 -0.18052353 -0.30465183 -0.13619904 0.45288208 -0.5704279 -0.30790725 -0.3717047 -0.6241347 -0.39163357 0.10062178 0.28671828 -0.12995288 0.12618814 -0.29265642 -0.07858228 0.048287615 -0.3686567 0.72479445 -0.0896914 0.44344503 0.025935503 0.12938115 0.080833234 0.46626836 0.027344398 0.6436028 -0.47460714 -0.15000167 0.05937134 -0.14477661 -0.00023383314 0.26348293 0.26287308 0.109275155 -0.23365545 0.8429675 -0.31824642 0.025719177 0.44086874 0.016861333 0.4867185 0.11568238 0.1401079
293 -0.053097893 0.0027147518 0.1257138 0.43418193 -0.33629453 0.009282315 -0.03976436 -0.7250255 -0.21019822 0.0430279 -0.70149046 -0.23504052 -0.71747375 0.029668767 0.022971315 -0.05371736 -0.3357904 -0.1292291 -0.13133147 0.08854571 0.1718674 -0.049894918 -0.19270198 -0.2670056 0.11383933 0.22717564 -0.28802872 -0.7984283 -0.3428523 -0.032043185 -0.2681446 0.5680455 0.5056787 0.32926396 -0.3024667 0.14269456 0.38742685 0.067011155 -0.2656951 -0.20858148 -0.18456128 -0.22616658 -0.035797462 0.008289373 -0.15929788 0.00040841877 -0.1318478 0.25872633 -0.16491155 0.20489356
753 -1.0532843 -0.53578323 -0.7855584 -0.33860695 0.11191152 0.37328547 -0.35528535 0.053645544 -0.07034854 0.3530608 -0.38511196 -0.087864935 -0.21842451 0.51530427 -0.17850634 -0.9280401 -0.4712729 0.26813567 0.10678969 -0.12543692 -0.46942914 0.5266824 -0.13937865 -0.09880863 -0.20371097 0.23409 0.4249294 -0.13931473 0.04706627 -0.3102895 -0.08212661 0.38072756 0.114834026 -0.06337241 -0.24167126 0.5617407 -0.5167542 -0.123135276 0.84865195 -0.2482221 -0.16755171 -0.34032178 -0.5436386 0.20980161 0.429998 -0.24469295 0.093949564 0.24013299 0.31825256 0.39675462
177 0.0051985765 -0.18701112 -0.39531323 0.10024753 0.32080284 0.17837173 -0.6769427 0.055603165 -0.3626661 -0.42695794 0.29742292 -0.60750353 -0.6215845 0.30091563 0.037985492 -0.3274545 -0.12701432 -0.10633143 -0.2714512 -0.2210999 0.33625218 -1.0371892 0.765041 -0.37545112 -0.05848368 0.5845088 0.057363454 -0.20733951 -0.6376168 0.036356654 -0.094907984 -0.25544232 0.49882966 -0.6559693 0.025492132 0.44105563 -0.19041978 0.7973315 -0.15918083 -0.43690223 -0.7326984 0.37999296 -0.24817407 -0.28218067 0.22964515 -0.39721617 0.097428985 -0.0077689686 -0.75633734 -0.011741161
662 -0.3944012 -0.035968006 -0.18891808 -0.005735982 0.15422614 0.27763733 -0.53103256 0.12787056 0.0922025 -0.3246216 0.17112444 0.02877279 0.020629352 -0.035236888 -0.29136655 -0.61851764 -0.29953143 -0.68364155 0.19285974 0.3030061 -0.42392394 -0.24490097 -0.01636369 0.24177659 -0.022726154 0.2520521 -0.5350389 -0.3128011 -0.51938385 -0.32754803 0.16780293 -0.004923268 -0.104801506 -0.60229367 -0.2599093 0.0008172413 -0.7307487 0.11628814 -0.6247325 0.17801152 0.050519533 -0.44079694 0.23293929 -0.36081865 -0.110748 0.11188944 0.03897186 0.3034201 -0.15430106 -0.39588135
1541 -0.31429362 0.5043351 -0.2900662 -0.116555125 0.010126835 0.17704354 0.01792045 -0.27864078 -0.21071851 -0.4970705 0.28921747 0.050160617 0.23385896 0.86278653 -0.110371836 0.011775625 0.14697376 -0.012763467 -0.21233198 -0.24819736 0.08760784 -0.62723255 -0.10108717 0.8553563 0.32825172 0.052064102 -0.121621646 -0.048730582 -0.33725718 -0.13582027 0.19976029 0.09940689 0.15698145 0.046757855 -0.29870638 -0.18546644 0.13885634 -0.34637243 0.06996758 -0.585184 0.35972974 -0.718616 -0.017531682 -0.10403292 0.060894635 -0.24125724 0.1576196 0.35932854 -0.16480878 0.056975637
876 0.2147955 -0.32485056 -0.04486675 0.45914194 0.40076935 1.3545207 -0.35088646 0.8791111 -0.7977953 -0.10679843 0.19584054 0.42760468 -0.79320693 -0.5302665 0.2330597 -0.30309477 1.1504962 -0.040221754 -0.4870742 -0.22704436 -0.5446944 0.11548917 0.08628478 0.048452925 1.4131528 1.0850217 0.032419086 -1.2728289 -0.16108504 0.5528623 -0.020658763 0.12252619 0.2538997 -0.20970954 0.40902764 -0.63697207 -0.347529 -0.3379789 0.4556659 -1.1112738 0.68442816 -0.10807384 -0.020033378 1.5192218 -0.22316536 -0.51179904 -0.46981394 0.7266691 0.15494232 0.5198223
1341 0.05239663 0.4966997 -0.41385555 0.80419433 -0.37812436 0.3332036 -0.35144934 -0.9531503 -0.13905853 -0.024069136 -0.3452216 0.106588714 0.22072662 -0.21975653 0.7455407 -0.39867648 0.1749638 -0.013138155 -0.12587723 -0.29340044 0.16694091 -0.06502956 0.14818051 -0.35850444 0.030581018 -0.1308 -0.4303037 -0.9975486 -0.5186813 0.6607404 -0.16732353 0.2940635 0.98313695 0.41557813 0.38617763 0.5887026 -0.50958556 -0.21367265 -0.0683533 -0.5010872 0.23269825 -0.048119504 0.24422485 0.23515372 -0.5381116 -0.14957187 0.15008861 0.037590083 0.107880674 0.14850646
105 -0.44953814 0.01597034 -0.6715937 -0.021960035 0.032281592 0.16226839 0.31961182 -0.24143142 0.25066867 -0.4119896 0.25693712 -0.0058053634 0.14962387 0.6689182 0.17037837 0.16876696 -0.20491749 0.7150402 -0.58861244 -0.026302781 0.056110073 -0.7399302 0.04890683 0.7790638 0.15165628 -0.23992385 -0.21696088 -0.5835647 -0.25312802 0.008356343 0.20299192 -0.10035684 0.46293384 -0.33596134 -0.33238414 -0.3580045 0.012157204 0.081480354 0.21621819 -0.2520498 0.13323171 -0.35220197 0.3348665 0.4785673 0.13376857 0.14896089 -0.20376007 0.27334195 0.020845357 -0.20191665
499 -0.046561882 0.085920535 -0.040978782 -0.028743787 0.024122497 0.27702045 -0.64653873 0.4601038 -0.16778508 0.27227396 0.5667278 -0.43838635 0.067271635 0.15407142 -0.22730984 -0.031827737 0.0710656 -0.09905169 -0.42375812 -0.5017097 0.18607078 -0.08979187 0.06900594 -0.632574 -0.09390926 -0.19903266 -0.22633095 -0.28894842 -0.823592 -0.02782344 0.09426226 0.19960338 0.6001483 -0.6037606 -0.05503941 -0.20132457 0.23934452 0.29537573 0.2952329 -0.66982794 -0.70199186 -0.16011615 -0.325504 -0.02460477 -0.10816551 -0.22196934 0.6488995 0.26081634 -0.22371715 -0.5215657
274 -0.35001245 0.3806333 -0.7939289 -0.43702623 0.01758703 0.23587023 0.0400049 0.8968307 -0.32967395 -0.040078923 0.16669895 -0.7388687 0.0684743 -0.2871034 0.33560815 -0.5606552 -0.4051331 0.7006777 -0.3561515 0.3549951 -0.2178205 0.16417134 -0.32447535 -0.18743844 -0.12650381 0.35445613 0.20273636 -0.20233487 0.22892143 0.42756757 0.2135085 0.43395773 0.10109282 0.1606949 0.08419394 -0.18728794 0.17869538 -0.20160022 -0.39111656 -0.48676997 0.25042832 -0.3630983 0.0734264 -0.32765907 -0.2823808 0.48952058 0.3204053 0.018021403 -0.11541033 0.12995537
43 -0.13033299 -0.15542842 0.10903942 0.28164035 -0.067743205 0.442786 0.24525248 -0.08165631 -0.40740696 0.24824446 0.6492088 -1.0513675 -0.19572955 -0.32043108 0.022330029 0.13294402 0.15605706 0.05400891 0.44830507 0.11410938 -0.3105347 -0.60327107 -0.19336508 -0.3430752 -0.050497755 0.0073191095 0.1171733 -0.48998663 -0.016201574 -0.4873633 0.24923724 0.2091565 0.28683385 -0.18345962 0.30186 0.19593418 0.06310085 -0.23193423 0.37300113 -0.14674927 0.13449705 -0.21264946 0.6665809 -0.00796305 0.57552356 0.43681824 0.20210788 0.03544525 0.064721584 0.038924284
149 -0.6114811 0.25826135 -0.1542952 -0.111542165 -0.22326212 0.09682767 0.36044547 -0.17670842 0.0027299656 -0.3063524 0.32777798 -0.020998664 -0.12586911 0.53296196 -0.19714339 0.02117758 0.08798658 0.15011375 -0.41715083 -0.30525306 0.18295056 -0.8397359 -0.098023854 0.84094375 0.27330533 0.33586383 -0.11150391 -0.34168535 -0.40116352 0.057522595 0.4451387 0.13449961 0.47669354 -0.44396648 -0.16752969 -0.14091241 0.2356039 -0.056570943 0.14504635 0.083597206 0.45237285 -0.5477852 -0.05328326 0.30367926 0.21352614 0.16136205 0.23248619 0.64244044 -0.06255035 0.30277228
175 0.6733328 1.7438205 -0.737642 -1.2241415 -0.20950063 -0.5136112 0.23946139 1.2667518 1.1432728 -0.27401713 0.46008143 -0.8900102 -1.8135475 -0.88904387 -0.63254476 0.028067678 -0.7324366 0.5298769 -0.1538345 -1.4838684 -0.2442257 0.15931486 -0.6154404 -0.0028185744 0.5732939 0.9534258 -0.10405428 -1.6005245 -1.8537723 0.2880405 -1.0258919 -0.18329316 0.06689241 -0.32350236 -0.62394404 -0.101438425 0.44919306 -0.29585323 -0.43563446 -2.293474 1.8587434 -0.33134136 1.5047214 2.292754 0.98142374 0.11418913 1.4368589 0.6614367 -2.888072 1.0687913
220 0.33807603 -0.27084783 -0.009101136 0.14744562 0.008870557 0.028850289 0.067171834 -0.53137183 -0.31758258 0.30054855 0.010103824 -0.32724735 -0.6674031 0.3119164 0.294576 0.020395935 -0.54609984 -0.286381 -0.35441557 -0.07763733 -0.31517366 -0.14422812 -0.102020144 -0.3408761 0.7548927 -0.03410116 -0.13302496 -0.447554 -0.47492933 -0.116707556 -0.15108515 0.4631818 0.1648609 0.15319884 -0.08363752 0.49555084 0.6274389 -0.14248136 -0.097555146 -0.38072354 -0.3750337 -0.49744126 -0.5027117 -0.24778023 -0.119093545 0.18969622 -0.32383525 0.26830906 -0.4331557 -0.06153005
34 -0.63387436 -0.03220415 0.16028057 0.2664285 -0.1031505 -0.07613664 0.15242079 0.0068555563 0.15070848 -0.6086923 -0.2222772 0.035788387 0.03688218 0.048887767 -0.3185768 -0.22403759 -0.22105098 0.16973697 -0.08399355 -0.084594235 -0.18009049 -0.29694885 -0.22089052 0.095035404 0.68091166 -0.19967028 0.2422301 -0.26076794 0.16314478 -0.3007463 0.44203207 0.20453976 0.51563126 -0.032570153 -0.32569292 -0.08768684 -0.45114204 -0.45311305 0.2396293 -0.33053258 -0.11721879 -0.43880782 0.40415683 -0.38723627 -0.12997837 -0.18208383 -0.062087968 0.25499383 -0.31692395 0.043189626
624 -0.04841241 0.37668476 0.15017456 0.22356679 0.10128519 0.11517944 -0.174372 0.115894884 -0.27350652 0.0868396 0.04240669 0.05285372 -0.303092 0.23467736 -0.12826486 -0.028629726 -0.14259557 0.22441639 -0.10259168 -0.12775089 -0.10463477 -0.1348954 -0.05072233 0.05624138 0.18783014 0.49943167 0.64564383 -0.09245932 0.042282835 0.17377952 -0.014241589 0.4654804 0.35130715 0.060703862 -0.2526968 0.018650185 0.14089185 -0.53173006 -0.5160454 0.0077101253 -0.7526293 -0.7776671 -0.14086136 0.39459074 -0.0378621 -0.07518986 0.26425722 0.4112398 0.30059472 -0.6059295
1340 0.04457965 0.5775091 -0.3079715 0.83604956 -0.26822665 0.35895205 -0.26981333 -1.0241853 -0.16096184 0.07887248 -0.47391078 0.11269094 0.11475832 -0.26754013 0.7038782 -0.26574636 0.104877755 0.11728373 -0.13460135 -0.2838843 0.23309195 -0.095236175 0.21047348 -0.25931126 0.14530683 -0.06902517 -0.5059854 -0.82540494 -0.39028305 0.7268632 -0.26115358 0.49352193 0.9180661 0.40562865 0.3342242 0.543809 -0.4313139 0.009510411 0.051093526 -0.6026121 0.1711452 -0.046637096 0.45388567 0.34456086 -0.68191946 -0.19762401 0.42889503 0.02308664 0.1257373 0.09446595
257 -0.3177885 0.085103795 -0.41067538 -0.088356294 -0.28457808 0.055977076 0.32992107 -0.216837 0.21694557 -0.24271609 0.47183287 -0.009246286 -0.033563472 0.49619877 -0.117375486 0.17171727 -0.2519973 0.13300444 -0.3897484 -0.14910597 0.24642444 -0.59679747 -0.48006195 0.7618961 0.2932355 0.033645663 -0.3598213 -0.28951365 -0.31301776 -0.17973065 0.13367079 0.019462645 0.5280917 -0.6475423 -0.2149709 -0.18309684 -0.027853567 0.11082163 -0.12854153 -0.12543018 0.5990784 -0.53984296 0.052217063 0.20993078 0.075307295 -0.1669558 0.3170587 0.29393405 -0.15818101 0.20064485
333 0.35382584 0.29773906 -0.15012632 0.2671096 0.34832656 0.53155774 0.34904388 0.27838176 0.5419328 -0.53665966 -0.42627978 -0.08991488 -0.3560966 0.07245733 -0.31722385 -0.26390642 0.26376852 0.23031355 0.92581946 0.5510238 0.7344818 0.38514706 -0.87300473 0.37064168 0.022489203 0.25854725 0.15375534 -0.24364513 -0.1422183 -0.09244144 -0.1137885 0.29053202 0.6422255 -0.12262471 -0.27219543 0.5811684 -0.46537536 -0.030323284 0.111094266 -0.494826 -0.13621299 -0.2129989 -0.2025007 -0.027164208 0.6199707 0.24093567 0.19151331 0.4771941 -0.1621492 -0.33359346
2374 1.1341981 -0.08168554 -0.65068156 0.8311704 1.4652996 1.774661 0.21345556 -0.034358844 0.8738241 -1.3943592 1.4165798 1.4790449 0.1584659 -0.9638183 -0.28657418 -0.5857356 -0.13689531 1.1822554 0.7262145 2.423699 1.3962944 0.38645795 -1.7914423 0.3531926 1.1177806 2.1175935 -0.7114565 -0.401686 -0.286509 0.33323106 -0.029740315 -0.39208478 1.8673121 -0.33749664 -1.1375251 0.94364446 -0.27509773 -0.224771 0.59172267 -1.3527492 0.20759897 -0.3278447 -1.222033 -0.9548343 0.6614136 -0.022795172 -0.19310044 1.9256295 -0.38874498 0.038384546
1176 0.27112 -0.088914506 -0.0075505967 -0.21981066 0.47346514 0.5202132 -0.087988764 0.54985094 -0.38730693 0.5806724 0.34696022 0.40685904 -0.8311293 0.096167035 -0.26002204 -1.0216907 -0.36210766 0.16784571 0.07593628 -0.06234648 0.14008753 0.21180762 -0.45613557 -0.046859466 0.10019288 -0.29014078 -0.92681766 -0.14671971 -0.8511523 0.024741815 0.26120892 0.10523987 0.84152645 -0.25772703 -0.06835586 -0.34670708 -0.009658369 -0.21357188 0.27239445 -0.015129711 0.3480134 -0.13588157 0.32234272 0.005510479 -0.18704882 -0.14309661 -0.19210485 -0.48662078 0.12312701 -1.1954234
394 -0.23658599 0.41696462 0.07210681 -0.12256442 0.18746917 -0.09701754 0.27992424 -0.23483156 -0.66797364 -0.4637334 0.10897584 0.28040984 -0.25478646 -0.016487265 -0.09973783 -0.04503542 -0.12155185 -0.2322339 -0.26797777 -0.319455 -0.36537796 0.086349316 0.06381471 0.74070364 0.15349458 0.40068603 0.059185997 -0.15460604 -0.386312 0.20572393 0.40987107 0.21021548 0.19978201 -0.497849 -0.646901 0.056843493 0.2224981 -0.17248258 0.05207283 -0.6080363 -0.035986308 -0.7770212 -0.1600952 0.11218974 0.2104194 0.4781265 0.080763556 0.39555302 0.38762203 -0.11548539
2741 -0.47039515 0.041129045 0.31728008 0.17129351 0.47556123 -0.23198445 -0.06880075 -0.14942777 -0.45927715 -0.32005 -0.11829007 -0.03087228 -0.30230194 -0.14002576 -0.10047803 -0.13231686 0.14718956 -0.5100513 -0.4276884 -0.070384935 -0.5236747 0.16293104 -0.26784387 0.26831463 0.16661619 0.8095924 -0.03254031 -0.13828543 0.007971309 0.32246116 0.5054698 0.47412586 0.05294409 0.29866493 -0.09807444 -0.044185564 0.17545031 -0.31682217 0.035683297 -0.39103502 0.039685335 -0.9520484 -0.03952598 0.056936022 -0.24506925 0.31137103 0.41686514 0.36116475 -0.110777326 -0.5767079
750 0.043192055 -0.09713399 -0.012279162 -0.09018103 0.31384212 0.47979468 -0.1864519 -0.01562583 -0.41015536 0.7340274 0.25136334 -0.4051287 0.015917286 0.47742313 0.2557903 0.023409512 0.19945487 -0.0056171385 -0.015300148 -0.06362021 -0.02290304 -0.24487054 -0.12917244 0.38895956 -0.032235738 0.3474946 0.60253584 -0.08561908 0.09345873 -0.48884246 -0.36230096 0.26641086 0.8622336 -0.09996283 0.03361534 0.39511818 0.45533356 -0.46576905 -0.5490023 0.04840237 -0.38173467 -0.41457233 0.8057872 -0.28387648 0.09028781 0.26825792 0.42128518 -0.18241176 -0.1664625 -0.24197763
55 -0.50400215 -0.032298893 -0.2578337 -0.052008532 -0.29778686 0.09463107 -0.1161712 0.123659804 -0.30263168 0.044605732 0.32571098 -0.80009586 0.01264909 0.009966364 0.13259588 -0.5448111 0.1267659 0.5280615 0.54197544 0.1293989 -0.16413905 -0.76323867 -0.005709269 -0.53608453 0.15743001 0.36237484 -0.04681382 -0.6852223 -0.124823794 0.05075893 -0.08166801 0.21235345 -0.016439669 -0.20290302 0.4328536 0.222277 0.34196958 -0.03598457 0.543494 -0.3188599 0.21695025 0.114769205 0.18440542 -0.023776826 0.26273808 0.5786367 0.19753763 0.035956003 0.10648617 -0.36408108
5 0.28728813 0.29254505 0.18255433 0.18158944 0.13714348 0.028083256 -0.975436 -0.13145374 -0.3077884 -0.10585963 0.39562592 -0.3589147 -0.2736664 0.49967837 0.66066664 -0.38943148 -0.015488972 0.032175627 0.017043665 0.0026749924 0.1195682 -0.29897273 0.21531601 0.42464012 -0.5009842 0.632409 0.5093998 0.24689658 0.6304458 -0.4905083 -0.26818514 0.33753005 0.4045079 -0.35906515 -0.37327337 0.10812103 0.06233573 -0.5879778 -0.37422234 -0.23334263 -0.30287716 -1.0004708 0.5515186 0.3398213 -0.092221916 0.4012392 -0.43006298 -0.0036933133 0.1397702 -0.48769653
383 -0.65383774 0.15238483 -0.6183029 0.105934024 -0.3837928 -0.27975664 0.18643017 -0.3869092 0.30678403 -0.024348704 0.20788494 -0.20925273 0.09371519 0.7916249 -0.09881614 0.052757673 0.108800784 0.51242447 -0.13362835 0.15228847 -0.083134525 -0.6852718 -0.025298698 0.37967634 -0.044167202 -0.1302543 -0.39646763 -0.5175148 -0.274177 -0.18197833 -0.020242674 0.43662646 0.6556283 -0.26226804 -0.15535699 -0.18858656 0.3559809 0.04349161 0.04792843 -0.39314282 0.5698177 -0.31621647 -0.17753902 0.35296106 0.19252299 -0.26509124 0.14488904 0.3920699 0.08685029 0.09669727
132 -0.19686966 0.56149 0.3766942 0.13870625 -0.13999386 0.31102788 -0.54236084 0.16612047 -0.24159855 -0.017209508 0.4265615 -0.050965223 -0.2863911 0.558024 0.030762425 -0.005055655 -0.23225969 -0.25150785 0.095347 0.008764014 -0.32433188 -0.33842957 -0.15122241 0.097515896 -0.0353323 0.47983697 0.21277626 0.11379609 0.12185713 0.3430709 -0.0030113433 0.23950712 0.40812835 -0.36997634 -0.1898252 -0.082159795 0.08861882 -0.2848288 -0.28337723 -0.172329 -0.31880018 -0.4807894 -0.121281646 0.36219102 -0.016516857 -0.07586575 -0.14121236 -0.008867284 0.24450178 -0.42283005
209 0.09650356 0.4133099 -0.0055604535 -1.0291147 -0.6626329 0.4238805 -0.93254626 -0.29217646 0.113719456 0.28058195 -0.6368469 -0.32364908 -0.0054620192 0.20395501 0.37603173 -0.31349277 -0.8221151 0.7895348 0.5050916 0.09686586 -0.33922678 -0.95331454 -1.1175193 0.15852149 -0.26767558 -1.019568 0.98585284 -0.14021644 0.021513887 1.1558167 0.09831593 0.3861198 0.25124577 -0.79705524 0.86097413 0.8369272 0.6542408 0.309198 0.5699251 -1.1585773 0.18691221 -0.44477117 1.4524336 -0.11221622 0.19645888 0.2733762 -0.3723154 0.999209 0.30790198 -1.232262
1193 0.08754064 0.10854732 -0.32301894 -0.16524775 0.006879178 0.7721349 -0.33301908 0.10301574 0.13861793 0.3088356 0.071306996 0.29332277 -0.6819862 -0.005372117 -0.13439548 -0.414845 -0.5525748 0.034307692 0.34212562 0.20766436 -0.1974292 0.41921076 -0.15752298 0.053544745 -0.097498044 0.033834368 -0.5020731 -0.2713489 -0.41336077 -0.544544 0.60933745 -0.26915878 0.6741438 -0.41691068 -0.10394532 -0.07149952 -0.108994626 -0.12173178 0.5988454 0.075118296 -0.043153606 -0.28044808 0.06041073 0.38981926 -0.2634945 0.06651627 0.40390238 -0.30540165 -0.21470328 -0.87732255
179 0.038780008 0.053134274 -0.24578902 0.29319903 0.1506709 -0.105241835 -0.07660915 -0.27517265 -0.44733164 -0.5934702 0.0067599015 -0.4447467 -0.3262068 -0.22101188 -0.055480972 -0.64935714 -0.445835 0.2644709 0.30414423 0.045534424 0.31019014 -0.6305284 0.47540426 -0.5275746 0.46036282 0.72509325 0.17369196 -0.34445268 -0.8154628 -0.028900845 0.3295265 -0.18110083 0.2868853 -0.91095704 0.04969441 0.32528353 0.69277376 -0.38832152 -0.28526327 -0.85515505 -0.9158202 0.15178692 -0.43536445 -0.26035556 0.095499 -0.25024688 0.07656641 0.037483286 -0.7433947 -0.35145828
562 -0.11230977 0.21263294 0.56878746 0.06386613 0.24805844 -0.044072278 -0.099175155 -0.23071525 -0.35640115 0.33239672 0.011105151 -0.5048247 -0.4472961 0.028128104 -0.2750045 -0.15339133 -0.3956543 0.7085115 -0.98218566 0.084983796 0.2897892 -0.70093936 -0.14684851 0.1270783 -0.31963617 -0.10360697 0.8425761 -0.23673731 -0.75117815 -0.16269127 -0.0779231 -0.18193549 0.3310302 0.0380515 -0.18762323 0.22471754 -0.39634776 -0.4772619 0.0034775275 0.109235086 -0.36329034 0.23321769 -0.0039369958 0.4043587 -0.11953301 0.15538894 0.32011887 0.72262776 -0.1928018 -0.6669475
1820 0.33805966 0.42535716 -0.036383886 -0.26943177 -0.26731285 0.3202571 0.16515745 -0.021710433 -1.1572242 -0.49847198 0.47828326 -0.9769576 -0.010731795 -0.5516335 -0.2595058 0.2618603 -0.43604672 -0.50079 0.45389223 0.23468392 0.036997207 -0.6809844 -0.16886252 -0.22617121 0.20139025 0.38228866 -0.32344216 0.100584514 0.01565282 -0.5503302 0.7006241 1.0301548 0.3240837 0.33453912 0.41477457 0.6642147 0.12972859 -0.6425183 0.7764714 -1.1853646 -0.3379205 0.32169822 0.6011121 0.4397586 1.1578387 -0.90109015 0.6522516 -0.5092617 -0.27440137 -0.40037245
75 -0.65118074 0.2791447 -0.12459477 -0.13203107 -0.104984865 -0.036477424 0.27172524 -0.2933154 0.2433048 -0.37170276 0.3311701 -0.14723727 0.23762079 0.50273687 -0.33042407 -0.19509745 -0.22469364 -0.19918306 -0.14711288 -0.025341576 -0.059348207 -0.79613775 -0.44924918 0.8831312 0.20427406 -0.25250325 -0.084300034 -0.17774262 -0.20650473 -0.026733005 0.030801997 0.29957205 0.464201 -0.43401104 -0.1802246 0.0160246 0.029071562 -0.18235812 0.0061698915 -0.26188093 0.18033504 -0.57515615 0.004243632 0.10362864 -0.12708992 -0.3469287 0.1876143 0.10903328 -0.3101632 0.3818879
1342 -0.07948065 0.6052475 -0.31521726 0.8362498 -0.16690224 0.211579 -0.15308166 -0.93835247 0.002255051 0.082506046 -0.3451917 0.058691308 0.05565126 -0.30315349 0.7265239 -0.26036322 -0.039190974 -0.0028389161 -0.124908954 -0.11822765 0.18525651 -0.09538132 0.33064854 -0.33688748 0.22709717 -0.020950973 -0.54051685 -1.0520779 -0.39297453 0.6438694 -0.10253692 0.41193888 0.9910743 0.45066077 0.383052 0.6110028 -0.3278984 0.01594636 -0.22724253 -0.54259866 0.11664579 -0.100707576 0.12754515 0.46343336 -0.6257484 -0.23192988 0.37654012 0.3236535 0.28503793 0.15058213
382 -0.39828992 0.08578665 -0.6224715 0.19686413 -0.29391047 0.05088709 0.30805612 -0.1583187 0.07064918 -0.2938823 0.29565212 -0.018423002 0.32405567 0.8274644 0.013512493 -0.018982626 -0.07036719 0.8124491 -0.49759185 0.19115461 0.18314222 -0.51609063 -0.028512485 0.6942085 0.04052424 -0.18631573 -0.5375685 -0.44622576 -0.26416126 -0.041870825 0.049710657 0.18399489 0.5382074 -0.5114053 -0.18357308 -0.32033792 0.14035924 0.25514656 -0.032876547 -0.31204298 0.36285546 -0.24344188 0.16869393 0.5822363 0.13556154 -0.020891875 -0.001886177 0.33275333 -0.10110531 -0.10650908
1453 -0.33892238 0.54271287 -0.23544443 0.08438067 0.071301565 0.44791645 -0.19571538 -0.6983851 -0.42801872 -0.30966914 -0.01976665 -0.39831966 -0.02617831 0.7575247 0.13273498 -0.28573823 0.38310894 0.16963015 -0.10746872 -0.3665056 0.04684717 0.25395215 0.05010339 0.61489815 -0.030831475 0.40013427 -0.09368904 0.07547031 -0.52130234 -0.2020977 -0.16643828 -0.2921819 -0.3656335 -0.14544298 -0.7137559 0.13112757 -0.036506046 -0.7320957 0.076911874 -0.7200133 0.39192688 0.1009095 0.86355263 -0.29218858 -0.103882186 -0.48173136 0.08195138 0.25775144 -0.10769018 -0.25866303
193 -0.37193793 -0.3060237 -0.6321967 0.34169793 0.1813589 0.28432435 0.11197053 -0.390918 0.7637942 -0.15513988 0.24277954 -0.19945046 -0.28808066 0.6742373 0.6116378 0.48619506 0.27505258 0.5153732 -0.42476338 -0.3413969 0.005569766 0.064936005 -0.3270198 -0.050347988 -0.13202292 0.54474944 -0.021974083 -1.0838884 0.3969773 -0.48337758 0.6112679 0.16705239 0.06925074 -0.31829894 -1.0539206 -0.12887327 -0.51967645 -0.5500729 0.7610747 -0.98925245 -0.40517128 -0.24084397 0.9841565 0.18525837 0.17158698 -0.100688875 -0.61478657 -0.040328372 0.41512626 -0.65441453
166 0.22679482 0.034654383 0.522294 -0.23271948 0.6718547 0.056774326 -0.5324125 0.20397976 -0.14752139 0.06261487 0.29711154 -0.5902667 -0.14322408 0.34761778 -0.34319744 -0.00769027 -0.17296919 0.26878753 -0.88166285 -0.038611714 0.32870743 -0.55488074 0.03691182 -0.007841928 -0.095099114 0.38906705 0.371105 -0.10122484 -0.7096555 -0.49214482 -0.37313265 -0.119695745 0.808729 0.12289277 -0.206651 0.42292845 -0.1525658 -0.13494281 0.0222066 0.04846083 -0.2730217 0.3212179 0.24041417 -0.14418517 0.16964766 0.39712122 0.30984122 0.3119917 -0.27248853 -0.19751395
254 -0.008570336 0.71394855 0.16132806 0.53450274 -0.51020443 0.16757178 -0.4245991 0.21148688 0.1717038 0.033420973 0.16488928 0.506103 -0.23142545 0.07224882 -0.14654273 -0.5526792 0.09632598 -0.124194734 -0.6180136 -0.33699164 -0.17682014 -0.047089417 0.46837562 0.28175506 -0.60164195 0.35609537 0.84093 -0.3949713 -0.7289564 0.42007467 0.14136577 -0.008249973 0.42447892 -0.053007282 0.08588017 0.32538596 -0.10558573 -0.07329084 0.066452146 -0.030412978 -0.8904984 -1.0419959 -0.28109145 0.60260916 0.71127844 -0.12393466 0.19455658 0.16204585 0.19592437 -0.7269179
1234 -0.3029502 0.04632368 -0.4712895 -0.026833534 -0.33166835 0.1395515 0.3591468 -0.22923672 0.22336136 -0.31867003 0.3972748 0.047449004 0.07154943 0.6097694 -0.0035031002 0.03277302 -0.13201651 0.06443005 -0.3738489 -0.08855758 0.23081547 -0.5336732 -0.2869332 0.6812542 0.24148795 0.08223153 -0.41770566 -0.2496466 -0.28268978 -0.08055868 0.05457635 0.0013740812 0.38681257 -0.6344127 -0.108406454 -0.27689022 -0.0027233749 0.12573186 -0.07423983 -0.22807646 0.6101047 -0.5936367 -0.0055959052 0.2300818 0.09416503 -0.130901 0.2211407 0.23700923 -0.0946145 0.065102614
451 -0.14949454 -0.2259991 -0.23791856 0.54115236 -0.3904382 -0.0890988 -0.108422644 -0.50402063 -0.060514208 0.30025432 -0.47855064 -0.31238955 -0.28345147 0.004233389 0.09684311 -0.14018007 -0.4062311 -0.52868485 -0.10125948 0.107568085 0.12557632 -0.30779263 -0.43683377 0.062955074 0.28101993 0.7151747 0.24693683 -0.9469369 -0.04966448 -0.24177605 -0.13499533 0.43087637 1.1287922 0.4173409 -0.81552947 0.049471743 0.43487865 0.23571795 -0.31965536 0.21682258 -0.68310815 0.13625117 0.47035062 -0.35770506 0.3401639 -0.39961997 0.01793708 0.4692455 0.07854203 0.4219013
708 -0.13911457 0.32211533 0.18060665 0.17044427 0.20334311 0.2540827 -0.7847296 -0.38851917 -0.12957285 -0.25524235 0.29023948 -0.27369007 0.06804826 -0.02942947 -0.24694549 -0.72429967 -0.39160958 -0.4558041 0.08293938 0.47043428 -0.36990765 0.25697508 0.49602625 0.40607885 -0.10480517 0.8828116 -0.111636035 -0.1479578 -0.37728384 -0.12313997 0.009269756 0.51887727 -0.13208309 -0.40121308 -0.22646199 -0.098885685 -0.21306652 0.0076337797 0.07299058 0.22332993 -0.14146852 -1.0521746 0.23519707 -0.007277774 -0.3347451 0.5933617 -0.1343419 0.17278688 -0.19695657 -0.42825422
445 0.28633294 -0.052417822 -0.4996995 0.12044306 0.14614195 0.34213367 -0.017671319 -0.056503557 0.74540514 -0.16155024 0.07647531 -0.02306911 -0.23618984 0.18738525 0.17792872 -0.4833872 -0.11250567 0.20999229 0.75244933 0.15186012 0.27322736 0.38316613 -0.44313774 0.2340503 0.015453433 0.13749176 -0.07514065 -0.55325204 0.23723161 -0.70725274 0.44900817 0.087320514 0.7429094 -0.075172305 -0.080008626 0.3845649 -0.18152966 -0.13469182 0.8485193 -0.19159116 -0.11602195 -0.04721359 0.14552839 0.2807718 -0.103807054 0.36526284 0.40993327 0.18118173 -0.3311665 -0.72409666
370 0.5663974 0.09586778 -0.06752437 0.03179822 -0.19716966 0.40836337 -0.33988354 -0.46549094 0.0928734 -0.40354484 0.22023793 -0.29677424 -0.16867673 0.63027143 0.4229116 -0.52656734 0.611689 0.07555857 -0.17982535 -0.5850206 -0.3293954 0.0010225307 -0.0764553 0.27745616 -0.45004904 0.6438799 -0.14434764 -0.44360346 0.113082774 -0.5882931 -0.11245944 -0.039945215 -0.15708005 -0.19783345 -0.7863611 0.1571365 -0.36116037 -0.8793756 0.06629705 -0.6330682 0.27071542 -0.56445074 0.7810051 -0.16368239 0.09487511 -0.28935176 -0.7925911 0.03310181 -0.12008868 -0.32873783
100 -0.20417595 0.36265564 -0.20101514 -0.031003485 -0.2738583 0.19061102 0.45582598 0.0399946 0.11415087 -0.2783801 0.36650637 -0.13533962 -0.3745162 0.43527082 -0.3068051 -0.29526824 -0.09397483 -0.20757602 -0.2133562 -0.19075575 -0.018049508 -0.31752002 -0.10606276 0.53194964 0.23519419 0.0852108 -0.20705883 -0.12212335 -0.13309152 0.015285709 -0.0027010362 -0.0008456482 0.3315062 -0.25517204 -0.2838877 -0.0746088 -0.13083133 -0.16388826 -0.023214662 -0.17349577 0.17576464 -0.64448965 -0.09393567 0.13154763 -0.14134777 -0.25192 0.04623973 0.017618693 -0.0051612924 0.27887735
1747 -0.42019704 0.061491974 -0.32762444 -0.27536756 -0.3543177 0.42292207 0.09655481 0.37177172 -0.22335844 -0.0022955625 0.42101896 -0.08811517 0.06419898 0.16702148 0.7646148 0.12383021 -0.1794517 -0.35406744 0.13010317 0.23182103 -0.25038427 -0.46356323 -0.08018277 0.10002535 0.010622069 -0.27015638 -0.07952293 -0.6434614 -0.034648467 -0.6654111 0.11172963 0.7705595 -0.1537231 -0.18231462 0.28851467 0.15454009 -0.7271596 0.3533152 -0.15997522 -0.28183088 -0.28116482 0.31888834 0.21867715 0.22631961 0.22688125 0.8457848 0.16381176 0.44247496 -0.031696897 -0.39856815
88 -0.9341775 0.5973258 0.54613274 -0.49698776 -0.14395395 0.46468425 0.3111532 -0.4757789 0.6058747 -0.43081164 0.98504746 -0.10817781 0.53116655 1.2504296 -0.4083814 -0.5839642 -0.074557416 -1.4870914 0.32403532 0.92101884 -0.08401037 0.12815608 0.12315009 -0.08933513 -0.675286 0.6393993 0.5241901 0.5731478 -0.26028994 -1.0261291 0.6428739 0.5255839 1.7356048 0.07903295 -0.020310117 0.55125934 0.35659727 0.7603509 0.82705384 0.023136158 0.22255361 -0.3422942 0.5043143 0.47192875 -0.3322176 0.46910572 -0.47113872 0.51078445 -0.76339597 0.1312794
13 -0.48808149 0.36960202 0.31269854 -0.09434327 -0.43969417 0.28302327 -0.14479499 0.025594862 -0.168098 -0.3320392 0.60972613 -0.6108833 0.2695807 0.35943547 -0.38004655 -0.7734458 0.2505923 -0.60183024 0.10026952 0.6697855 0.08538293 0.15397531 0.58008295 -0.30645186 -0.00076732767 0.66721946 0.33230907 -0.00657791 -0.1859498 -0.11758035 0.27831516 0.54879105 0.4826963 -0.27324095 0.00065984693 0.334332 0.03750528 0.31089342 0.36119032 0.5298396 0.31203386 -0.45374307 0.54906434 -0.16348693 -0.2791155 0.29520872 -0.027898319 0.422927 -0.16717647 0.0743864
525 -0.64116234 -0.21442938 -0.47636676 -0.043941315 0.19754596 0.58185405 0.28008875 0.036478307 0.052979935 -0.4960391 -0.16066125 -0.08799071 -0.17646502 0.47116053 -0.7047216 -0.3501303 0.6137892 0.31530762 -0.35919634 0.66734225 -0.12119813 -0.35755998 -0.030733922 0.54076207 -0.4628612 -0.024501229 -0.44140235 0.2848209 -0.38648486 -0.1263867 -1.0347167 0.93863463 0.30160272 -0.5419279 0.23929454 0.6039343 0.22016819 0.17786974 -0.4599352 -0.045086592 -0.31791005 0.056204762 0.20292525 0.51172745 -0.021122912 -0.16919434 0.023312444 -0.113114536 -0.22267716 -0.3163165
810 -0.043405667 0.17385669 -0.055594314 -0.2720287 -0.0011856693 0.81367713 -0.3900133 -0.334439 -0.6731797 0.20464277 -0.14251642 -0.36407483 -0.35613647 0.5787234 0.10474976 0.0846161 0.57661927 0.38353768 0.112392835 -0.37726617 -0.3102414 0.6847881 -0.023911612 0.5746537 0.10582201 0.58614147 0.2717916 -0.08371493 -0.3289301 -0.43811682 -0.24146631 0.14113015 0.3613145 -0.48183966 -0.3193415 0.40768597 0.00043312125 -0.6330177 -0.26884288 -0.33137396 -0.09072888 -0.28806308 1.1683695 -0.13615833 -0.11624975 -0.38111988 0.36728463 -0.033778124 -0.32803816 -0.25861993
343 -0.9565825 -0.53598094 -0.06859076 -0.2490777 0.3493573 0.7349011 0.39449748 0.71882755 0.22657767 -0.4745184 1.4825165 -0.64455366 -0.7884644 0.795607 0.8740869 0.5151879 -0.066086136 -0.6574205 0.7667951 -1.2883886 -1.4618748 -0.28896457 -0.44333485 -0.734321 1.216256 0.5113986 1.0848844 -0.008852142 -1.0926863 0.90528476 -0.8253191 0.7733822 0.5624934 0.045734752 0.08043546 0.38207588 -0.16130738 -0.1297199 0.35215533 -0.75519705 -1.7398819 0.4641077 0.20172639 0.61996615 -1.501104 -1.0368767 -0.19048403 -0.035096105 -1.8988888 -0.55494606
1732 -0.4724839 -0.07804996 0.23805441 0.7425455 0.100561894 0.71048814 -0.07188853 0.00047098368 -0.30658406 -0.09860574 0.74600905 -0.55466384 -0.34247696 -0.26455885 -0.11869787 0.21564934 -0.36855346 0.37435582 0.2766292 0.15920922 -0.5453865 -0.5128678 -0.032035124 -0.21132106 -0.2945041 -0.12339771 -0.10359139 -0.39129713 0.087447 -0.32787356 0.21491235 0.611272 -0.10109233 0.29565984 0.3839239 0.15624325 0.08489403 0.1377237 0.51777154 -0.41894093 0.08016417 0.020134289 0.5052469 0.1956893 0.7606932 0.37960967 0.32582664 -0.05078661 -0.36918563 0.14539462
1210 -0.45960054 -0.19105674 0.4124101 0.0066209882 -0.58037734 0.31529966 0.14562012 -0.28996113 -0.6643149 -0.23397866 -0.26789945 0.02805664 -0.6065768 -0.0024481202 0.078409195 -0.11731213 -0.2851957 -0.06315466 -0.41047668 0.0005671774 0.3195377 0.19360206 -0.40417877 -0.42489156 0.133809 0.2690064 -0.2090611 -0.34526166 -0.4736825 0.0384162 -0.2402538 0.7195721 0.2596214 0.06631132 -0.57539505 0.2988916 -0.10235883 -0.044125 0.021526666 0.25898334 0.3019221 -0.044941854 0.19041334 -0.14045312 0.16351974 -0.08064486 -0.11180386 -0.3312917 -0.1120498 0.2200191
638 -0.058057528 0.4124774 -0.011463319 0.55615276 -0.06224166 -0.07094351 -0.07798308 0.0126299495 -0.044260416 -0.56197315 -0.10557543 0.30701062 0.1159655 -0.004789809 0.76226425 -0.35802147 -0.23536171 -0.16904168 -0.03301656 -0.09584461 0.03426167 0.25839838 0.22294582 -0.51663584 -0.22583249 -0.29414254 -0.07484446 -0.9998341 -0.72890335 0.14011213 0.25897565 0.03422519 0.7624152 0.08534818 0.19445036 0.65979815 0.11534048 -0.062029533 -0.29159904 -0.02295352 -0.11656259 -0.29678404 0.14916302 0.3851661 0.07382271 -0.14932524 0.085733645 0.48903096 0.6777384 0.26800215
621 0.19815043 -0.20916674 0.04704162 0.32555306 0.082662165 -0.11414594 0.043850906 -0.4183929 -0.21620809 -0.06989752 -0.2867936 -0.1700502 -0.72117776 -0.00015587163 0.34592828 0.12790802 -0.42135137 -0.33235753 -0.05840005 0.26784205 -0.037507094 0.0069565107 -0.3122981 -0.3639469 0.6553257 0.15746011 -0.05362554 -0.54971415 -0.48523524 -0.18841422 0.065100506 0.47379494 0.09029931 0.010749016 -0.021178719 0.29662222 0.58785653 -0.24574527 -0.24239112 -0.29460084 -0.26665872 -0.4226861 -0.29875183 -0.16118385 0.040921792 0.089349315 -0.2059582 0.2931577 -0.27454776 0.082287125
549 -0.07549865 0.23845463 -0.5159614 0.9023516 0.2506138 0.36432743 -0.2179987 -0.6417035 -0.10569151 -0.22388983 -0.3348403 0.07565043 -0.012715305 0.0515907 0.22074503 -0.7001406 -0.13308023 -0.12374881 0.17729749 0.008451762 0.50795716 0.088326976 0.33194882 -0.045001138 0.3735667 0.10088934 -0.5761666 -0.5151117 0.11396806 0.069264166 0.12340244 0.031238029 0.5334621 0.21718253 0.16591296 0.5641718 -0.13227297 -0.4845617 0.14496793 -0.36569503 -0.04024407 0.49445444 0.03702338 0.61191475 -0.45005628 -0.024516745 0.8737579 0.6318627 0.21466793 -0.022615602
214 -0.30163816 -0.15471633 -0.20911096 0.18032897 -0.15651354 0.20116608 0.3017397 0.00050792366 -0.036030658 0.34739077 0.43039343 -0.7115657 0.15366088 0.14293371 0.3492913 -0.16883206 0.2039307 -0.008491522 0.5416268 0.19681115 -0.06870108 -0.5476224 0.05475716 -0.5157051 0.17660266 -0.089150324 0.083134845 -0.51715565 0.2803898 -0.28778547 -0.20224293 0.3854682 0.10616787 -0.36198878 -0.0071374374 0.03775344 -0.07442066 -0.018861007 0.4586118 -0.45559284 0.14000095 0.2506002 0.34315386 0.13030836 0.39644533 0.9251037 0.32072642 0.49415326 0.14805906 -0.4729573
146 0.24072695 -0.07320069 0.15033755 0.00820314 0.16665408 -0.16909298 -0.34181166 -0.5777857 -0.61572754 -0.03620433 -0.2957581 -0.5589313 -0.31692192 -0.2422866 0.09256087 0.006388408 -0.0030522966 -0.48010802 -0.17194256 -0.05014749 -0.2033579 -0.062058672 -0.32299423 -0.18515797 0.5322649 -0.0016167216 -0.73365086 -0.49475712 0.09159301 -0.01487248 0.39806747 0.5675821 -0.040034227 0.40018117 0.0700372 0.47823954 0.5230626 -0.15059032 0.010377381 -0.4752327 -0.108974576 -0.58863765 0.13851747 0.45176384 -0.0035347466 -0.012772161 -0.08415268 0.67877555 -0.36551145 -0.16098553
28 -0.15233606 0.20475474 -0.34993798 -0.0069292565 0.25639457 0.49957472 0.06264103 0.35041514 -0.36523077 -0.09805038 0.6268421 -0.39205492 -0.56086856 -0.104151174 0.14366579 -0.26498124 -0.03658846 0.36008453 -0.1427545 0.27804717 0.3001865 -0.10525621 0.048151206 0.23360536 0.34789324 -0.28828344 0.15695624 0.09767291 0.13537702 0.8703516 0.3801973 -0.17323987 0.6017568 -0.0154191265 -0.50582325 0.0066078524 -0.59271586 0.17189352 -0.23411466 0.47550833 -0.4801937 -0.56118923 0.47856507 0.13467796 0.24059567 0.13936046 -0.32886973 0.62729156 0.1847503 0.08537686
781 -0.36802033 0.04972628 -0.19044377 -0.16674265 0.007021998 0.4172063 -0.69512767 -0.20840123 -0.6229174 0.29124632 0.3272281 -0.07187971 -0.21072446 -0.16314676 -0.071432084 -0.46706483 -0.89060354 -0.17691411 -0.06869264 0.023031717 -0.08522441 0.7248479 0.105278 0.65076727 -0.2613147 0.4544257 0.08920191 -0.15153214 -0.14213516 -0.19294548 -0.06503071 0.08770889 0.43585846 -0.6611523 0.05017336 -0.02947558 -0.4370454 -0.31770656 0.48682368 -0.12890263 -0.25947502 -0.49732393 0.13504852 0.38360065 -0.15589793 0.05389311 -0.0413923 -0.21991718 -0.27272847 -0.19012396
1727 -0.4628143 -0.06495133 0.2396561 0.76956844 0.06044364 0.78019154 -0.112513 -0.010413487 -0.34201145 -0.06835426 0.79985356 -0.596241 -0.35129344 -0.22729653 -0.1380711 0.2567803 -0.34978026 0.45485428 0.3752439 0.15158404 -0.54795873 -0.58300877 0.0020760323 -0.14806572 -0.29680264 -0.08204331 -0.18321942 -0.39225084 0.06560213 -0.33845466 0.20332767 0.70366395 -0.17104018 0.40911323 0.434789 0.20217001 0.07985053 0.1571319 0.51566714 -0.5083949 0.07101509 -0.04833417 0.54788584 0.21193379 0.7762652 0.49412128 0.2712144 -0.0034454844 -0.40567207 0.19728021
103 0.31166837 0.06048682 -0.28785765 0.4955336 0.25227892 0.36924762 0.00860193 -0.08614586 0.04022457 -0.37095547 0.04883612 0.055776235 0.24258432 -0.25115746 0.26254672 -0.5997752 0.113766484 0.07183695 -0.7101442 -0.12901099 -0.36606428 -0.24562106 0.2745589 0.10241943 -0.37341228 -0.5970611 -0.60007006 0.07178419 -0.6307397 0.37666076 -0.6022418 0.36976874 0.50238454 -0.18960772 -0.41880697 -0.16434935 -0.1283413 -0.20302838 0.3648686 0.3014354 -0.45739272 -0.35375524 0.46003282 0.48766357 0.51314354 0.076796725 -0.3476867 -0.15061791 0.0216694 -0.04261727
198 -0.30062303 0.4202823 -0.54075235 0.4418713 0.119668074 0.464712 -0.9248071 0.49878225 -1.1036662 0.47541323 0.9036289 -0.81567407 -0.26384562 -0.18757068 -0.5562247 -0.53589535 0.13336758 0.20883428 -0.5142863 -0.10995598 0.49534497 0.33116716 -0.15717855 -0.21066904 -0.5535428 -0.4671522 -0.053025413 -0.6892829 -0.6776293 -0.093900494 -0.09702223 0.698774 -0.45626253 -0.6394975 0.33062178 0.028960118 -0.32678196 0.8467571 0.7735231 -0.87776715 -0.7393591 -0.6614574 -0.003306846 -0.11654061 -0.279789 -0.95548594 0.24552943 0.45760572 0.040701576 -0.17284542
1545 -0.46232724 0.7787656 0.067126036 -0.100615636 -0.15865771 0.50045156 -0.00016116493 0.11508044 0.00971753 -0.23338473 0.224892 -0.21293932 -0.013195967 0.6860958 -0.375253 -0.3160226 0.32975996 -0.7639438 -0.11510778 -0.28015155 0.2334294 -0.8125263 0.028285721 0.43398324 -0.005903147 0.28783756 -0.038691666 0.23011445 -0.14044033 0.06973504 0.45832312 0.46580923 0.58566713 -0.30087715 -0.15639266 -0.54564786 -0.009079016 -0.22507405 0.18321599 -0.052981064 0.3002418 -0.5353368 -0.10489724 0.15992841 -0.09885746 -0.103347816 0.16806816 0.33938494 -0.02591982 0.16180296
2661 -0.7997612 -0.62108135 -2.0442345 2.5289135 0.34467772 -0.5038796 -0.58553535 1.2095449 -2.184639 -0.43713042 2.1497982 -0.8227804 -0.24345 -1.2712387 -0.3318466 2.0364072 -0.65195656 -2.4121542 0.60805553 -0.569906 0.8610794 1.1385969 -0.9541323 0.4581123 -0.6343171 0.35492226 0.4311876 -1.2140162 -0.64640945 0.21955912 -3.4610543 0.23496398 2.1458664 0.6043043 -3.119049 -1.2424074 -1.2001301 0.6769535 -0.5377616 -2.5171852 2.4650946 -0.40932167 0.36493546 1.6579757 -0.2874979 0.8214803 1.9096683 0.36199868 -0.82080126 -0.658842
555 0.33119902 0.5345765 -1.0540742 0.9040209 -0.7264787 0.87570786 -0.31683505 -0.22771046 0.32741088 0.08228745 -0.0715354 -0.780127 0.3547893 0.37488142 -0.14333348 -0.24390006 0.72848964 -0.08378637 0.7626887 0.4225788 -0.42532864 -0.059111036 -0.88180465 -0.40685987 -0.105986096 -0.5413501 0.81604207 -0.8131469 -0.9029339 0.69280016 0.40330935 0.24376406 1.2188405 0.058802035 0.25672653 0.6334069 -0.61873245 -1.5204319 -0.5118868 -0.33759478 0.86222476 -0.047360968 -0.5276225 0.4392578 1.0475516 0.46236396 -1.1707456 0.14862427 -1.4064455 -0.12648296
675 -0.5660675 0.13694517 -0.26510334 -0.3868336 -0.21194527 0.435733 -0.26643553 0.2955326 -0.30523244 -0.095880866 0.4535349 -0.059976332 -0.026507342 -0.08362035 0.613995 -0.16500828 -0.2729192 -0.75165266 0.021619761 0.26843524 -0.025954949 -0.51497054 -0.1454486 0.287148 0.0442797 -0.1902525 -0.18764664 -0.48727897 -0.42532557 -0.72452587 0.11931839 0.46568704 -0.21208791 -0.30077478 0.20052822 0.22216675 -0.88420033 0.35699058 -0.62967646 -0.09213941 -0.28019416 0.06448265 0.098415986 -0.1984607 0.03929559 0.4962624 -0.22133063 0.56015617 -0.020774983 -0.43392435
60 -0.17941926 0.30462667 -0.28638473 0.27425805 0.014380504 1.3236891 0.018987963 0.111180514 -0.12978165 -0.37800822 0.7549382 0.03058257 -0.32716966 -0.4854046 0.19163707 -0.063758664 -0.50901484 0.49511248 0.39490652 0.07333216 -0.9561714 -0.497074 -0.084130496 -0.120910235 -0.44883502 -0.13186915 -0.23566604 -0.6242338 0.21109317 -0.48553222 0.4305649 0.08968814 -0.04911624 -0.4005609 -0.41544285 -0.038913395 -0.19803315 0.0034176328 0.37993494 -0.09452391 -0.15006913 0.43660054 -0.06996232 -0.07434073 0.14089791 0.4718444 0.74276173 0.39970404 -0.537079 -0.13613859
3321 -0.14811602 0.5616471 0.048783083 0.25690883 0.10511316 0.11614475 0.015160272 0.6028238 -0.085259795 -0.11407841 -0.068556294 0.24647775 0.16145419 0.47291496 0.15048823 -0.3957979 -0.16774227 -0.17862691 0.24878554 0.2211036 -0.6602127 -0.97245526 -0.7193281 -0.28252333 0.38684288 -0.34478557 0.4219278 -0.9273019 0.35867292 -0.10067153 -0.05597566 0.052502744 0.20189433 -0.41136524 -0.30344197 0.29244 -0.3008939 -0.29113036 0.44195238 -0.053143427 0.23172195 0.30069897 0.24201635 0.22350925 -0.62031776 0.27164274 0.6179321 -0.10408375 -0.21019469 0.18856268
1170 0.42157954 0.59180266 -0.5363596 -0.7187404 0.5606895 0.64741296 -0.031911906 0.53118604 -0.34906667 0.01791997 0.11814331 -0.98308253 0.2792706 0.40034086 -0.32800332 -0.038751263 -0.6139146 0.8827917 -0.9429486 0.0037069547 -0.30948213 0.3097133 -0.23434298 -0.54518515 0.44610342 0.42489046 0.41863304 -0.29623693 -0.19947313 -0.7860243 -0.4552855 0.4069734 0.6408684 0.5041356 0.31241795 -0.16553597 -0.44807315 0.06572377 -0.47312257 0.10882137 0.44232732 -0.024672344 -0.038375925 0.1609272 0.04553917 0.5858836 0.035407823 0.015335069 -0.17890657 -0.14804278
3324 -0.14249516 0.53564173 0.06493567 0.26836768 0.056620624 0.1391135 -0.0089515755 0.58768886 -0.11984361 -0.15139784 -0.02388729 0.23165065 0.15214458 0.45665985 0.16051802 -0.3632645 -0.1801891 -0.19836873 0.2139067 0.19754492 -0.679812 -0.92848694 -0.7009844 -0.22942473 0.33642203 -0.31595013 0.38964257 -0.9392089 0.33898613 -0.100462705 -0.004249543 0.094932705 0.21223307 -0.3894739 -0.25703755 0.2754284 -0.19963466 -0.27932206 0.4915133 -0.079333335 0.18070558 0.26554933 0.18498893 0.23293762 -0.59146416 0.23473065 0.5795055 -0.12197156 -0.26685515 0.21905094
1863 -0.19792466 0.06336828 -0.37934196 0.10851808 -0.22788282 0.508898 0.26771256 0.40402812 -0.09069047 0.17749494 0.3079085 -0.28350022 0.09611321 0.082527116 0.42238736 -0.18572229 0.095819816 0.09222177 0.64523226 0.13711992 -0.44156387 -0.6797235 -0.32937363 -0.018778222 -0.023816932 -0.030652765 0.16849998 -0.810929 0.19085976 -0.43933713 0.10364208 0.35715348 -0.048651133 -0.3030162 -0.1699008 0.05798263 -0.15187496 -0.047871735 0.6665268 -0.07241275 -0.021383772 0.3264075 0.20623079 0.21985036 -0.03215058 0.5901849 0.615862 0.111096665 -0.31029776 -0.26958942
2770 -0.93811 0.419193 -1.2869002 0.38034678 1.5216659 1.5569221 -0.33736223 -0.05376033 0.37471932 -0.51125777 -0.15937947 0.34178132 -0.49249342 0.24752347 -1.2476557 0.60274076 0.3272158 -0.73856926 -1.002882 0.610422 -0.8584835 -0.7217611 -0.014039108 -0.36076137 -0.47424662 -0.33716622 -0.4869778 -1.0595227 -0.35962594 -0.06099332 -0.70912457 0.41617563 0.44040132 -1.1940887 0.37459823 0.29922944 0.14516224 1.4704167 -0.539775 -0.72217953 -0.7815562 0.86052275 0.49945676 1.0645387 -0.1212069 0.44182947 -0.321537 0.85725325 -0.88275826 0.42496023
1236 -0.42761162 0.16222179 -0.44443554 0.10189781 -0.45601854 0.004432589 0.2560968 -0.23615529 0.20082246 -0.22341613 0.4307988 -0.08355607 0.10754785 0.6758906 -0.0012634662 -0.0066211876 -0.10860034 0.23591265 -0.43058836 0.055787835 0.39565173 -0.5728948 -0.26431197 0.696857 0.15990984 0.15670978 -0.38686392 -0.2993357 -0.29079172 -0.16985981 -0.035670478 0.15550527 0.45437345 -0.47782958 -0.05274166 -0.134261 0.059858333 0.060405046 0.12369924 -0.15782593 0.658583 -0.49320376 -0.11609093 0.20389962 0.29869288 -0.16267559 0.2508758 0.3007013 -0.06894671 0.124827
611 0.09340022 0.27511865 -0.13382703 0.30448776 0.5464497 0.66662353 0.50486887 0.39479834 0.6580796 0.051094256 0.34922943 -0.6663229 -0.21939793 -0.33727056 -0.25416413 -0.38139024 0.050570216 0.22693813 0.1959396 0.55402195 0.49969137 0.3959216 -0.55445385 0.29797825 -0.4826792 0.070418745 0.47499534 -0.37173715 -0.30070662 -0.0051082596 0.33799136 0.70013 0.026424251 -0.19783962 0.031160243 0.77123076 -0.45368144 -0.012458284 -0.26576534 -0.46487278 -0.3657528 -0.24506557 0.1082736 -0.37767765 0.40919504 -0.08188985 0.37119323 0.41393027 0.3758632 0.32676718
588 0.36617914 0.3577094 -0.6156258 0.8528785 0.76011753 0.71367896 0.27812257 0.03591149 0.2341356 -0.4482684 -0.30928373 -0.18402535 0.22438562 0.00638663 -0.4776816 -0.27523008 0.004225132 -0.41183817 0.6925631 0.5287029 0.7076554 0.29146034 -0.82771057 0.0549659 0.7833438 0.100252375 0.7104147 -0.72075 -0.52887946 0.24742587 0.32116863 0.46854654 0.32435846 0.041219313 -0.22399 0.2651162 0.06901434 -0.21863471 -0.13681921 -0.6581651 -0.3069506 -0.06273402 -0.32821643 0.27123463 0.74605787 0.47436225 -0.75454766 0.25428596 -1.0871117 -0.42764845
153 0.093631536 0.21463148 -0.2381099 -0.60925436 -0.23582919 0.51793385 0.1306496 0.40639794 0.03711424 -0.12676822 -0.35580316 0.18659006 -0.32319698 0.18371816 0.4165903 -0.5329081 -0.41926897 0.008209655 -0.54066455 0.095406644 0.0014658712 -0.19738673 0.12267899 0.49045798 0.69481456 -0.33879632 0.32756338 -0.06751623 -0.039041843 -0.23836641 0.25656873 0.797224 0.023104036 -0.04149795 0.24543957 0.206517 -0.52067995 0.06644585 -0.29239205 -0.7784345 0.12975942 0.34470138 0.3694715 -0.3504258 0.25772578 0.54973924 0.07199686 -0.07700942 0.108997315 -0.30671573
215 -0.22110578 0.08937009 -0.010010629 -0.23341842 -0.2227574 0.65345454 -0.35760385 0.30205223 0.05837776 -0.049896896 0.81659573 -0.20967959 0.4853624 -0.32982033 -0.29700205 0.49974903 -0.44941992 -0.28830224 -0.24110784 -0.3280705 -0.40846524 -0.3801138 0.23031262 -0.6468848 0.07637612 0.3146445 0.053894192 -0.41121128 -0.7325633 0.26689312 0.40528482 0.45942757 0.5381978 -0.75747406 -0.033865623 0.06387232 0.2525259 0.0339149 -0.15585662 -1.3442546 -0.9374626 -0.1916467 -0.39806253 0.02291816 0.60618114 -0.75244707 1.1065284 -0.39883333 -0.0031732975 -1.0869551
482 0.32272208 -0.18827975 0.22382046 0.2856265 -0.45972258 -0.088111654 -0.0114527345 -0.6753207 -0.3614968 0.2211871 -0.35657993 -0.47805443 -0.735189 -0.34806338 0.09134944 -0.14951073 -0.7796531 -0.18932852 -0.30508217 0.27329093 -0.12871653 -0.14799704 -0.004514019 -0.35523495 0.53386796 0.42970043 -0.08106703 -0.7215735 -1.1188949 0.052914567 0.3251608 0.37545243 0.5571334 -0.5082533 0.11132276 0.2819895 0.89260495 -0.61057025 -0.4166818 -0.5863379 -0.56428266 -0.14981179 -0.5879361 -0.24240838 0.048179597 0.43438482 -0.45103598 0.34865358 -0.5477707 -0.07064643
210 -0.06897224 -0.06997094 0.1980341 -0.6139501 -0.3742808 -0.1598978 -0.25988352 -0.30707982 -0.4085872 0.01286213 -0.4978093 -0.49784702 0.2583764 -0.22383724 0.1432192 -0.38652083 0.18656108 0.21280804 0.4039072 0.40790543 -0.45875338 -0.5488765 -0.3661103 -0.1500018 -0.3809765 -0.042712785 -0.22862536 -0.5395152 -0.14833505 0.7613387 -0.24793285 0.26075533 0.17367001 -0.50480103 0.33960843 0.37764573 0.029012654 -0.24235432 0.47941977 -0.45950398 0.061428517 -0.20725593 0.606155 -0.05293477 0.2279616 0.050821617 0.33899996 0.55689496 -0.089956604 -0.62271374
137 0.5946775 -0.062472884 -0.27273366 -0.1899173 0.22731169 0.1491492 -0.5640596 -0.061838843 -0.5268141 0.031631816 -0.1159478 -0.49593738 -0.04412021 0.015717609 -0.19607817 -0.4271863 -0.07941776 -0.06365155 -0.34275684 -0.20887457 -0.41760203 0.08179048 -0.85253984 -0.12790951 0.17061412 -0.34281543 -0.8061364 -0.5502748 0.33608517 0.15418239 0.28924468 -0.08560113 -0.39351693 0.024583725 0.43332392 0.68647987 0.63868934 -0.1485521 0.3510969 -0.5045068 -0.094203316 -0.59021086 0.7359301 0.080300055 0.49132723 -0.38896677 0.28120705 0.99025494 -0.60568637 -0.4024104
580 -0.45087042 -0.39411882 -0.591588 -0.3229164 0.21780513 0.4680921 0.47578603 -0.087495245 0.6048196 -0.90143305 -1.352409 0.68012315 -1.2508519 0.028698029 -1.169034 0.37386706 -0.054427527 0.019266516 -0.06289912 0.26500285 0.29336846 0.086602196 0.14512962 -0.3193812 -0.66730654 -0.10703081 -0.34726667 -0.10910036 -0.07155036 0.41576824 -0.124677 1.152286 1.1379594 -0.25594425 0.5401432 0.71782875 0.015487688 1.038329 -0.5542532 -0.8151369 -0.5062076 -0.41626626 0.39404702 0.19051464 0.80259067 0.7405574 0.073022984 0.6133552 -1.1140335 -0.13107343
497 -0.3043481 0.46382353 0.4541685 0.00024428917 -0.024548972 0.0779461 -0.0022604386 0.38223886 -0.0935828 -0.24031405 0.31386766 -0.076369554 0.23452963 0.46881568 -0.036930524 -0.3755464 -0.49447796 -0.19055945 -0.13927728 0.3109305 -0.4972113 -0.68062466 -0.5784895 0.11982057 0.0362147 -0.32338732 0.14168064 -0.49333295 0.17951758 0.38128808 -0.42844576 0.1649934 0.5628018 -0.15183567 -0.37642682 0.2143836 0.13529904 -0.058878623 0.4800179 -0.17534055 0.14444926 -0.0018727035 -0.22446372 0.13399006 -0.48767444 -0.061719097 -0.15214005 -0.10267789 -0.29167068 0.16824491
618 -0.060822472 0.33779016 0.36613497 -0.012527434 0.48791295 -0.21309066 -0.22165379 -0.2521555 0.15416887 0.14688756 0.21107835 -0.4581492 -0.2681104 0.12727782 -0.5179356 -0.08392378 -0.3140941 0.36197212 -0.94054586 -0.06006318 0.32822743 -0.3455915 -0.22330296 0.072575584 -0.08600213 0.20556398 0.31105542 -0.08003784 -0.80195355 -0.49485382 -0.13510065 0.12928356 0.5305117 -0.040609553 -0.10991795 0.46194467 -0.15233088 -0.66817355 -0.1455941 0.20643702 -0.055907637 0.4102798 -0.087510124 0.28380752 -0.11891028 0.19501427 0.6346395 0.9210735 -0.022942765 -0.32338443
435 -0.63698673 -0.074422635 -0.68864304 -0.15017433 -0.35754526 -0.041256208 0.06697049 0.22477137 -0.06422924 0.2930471 0.26700887 -0.3704332 0.104209036 0.31548715 0.46730235 -0.345757 0.17639558 0.562599 0.0983665 0.07963104 -0.28188607 -0.59685856 -0.1993513 -0.30478233 -0.10793334 0.21077204 -0.009245338 -0.6488277 -0.040639922 -0.41669744 -0.07488324 0.27141887 0.13935366 -0.19034748 -0.0830852 0.119299054 0.34178314 -0.040817533 0.59794194 -0.13960856 0.38079548 -0.06713592 -0.31126475 -0.0731712 0.12442422 0.25377476 0.29782698 0.2345352 0.19498062 -0.10223964
659 -0.26679605 0.024196021 0.3721965 -0.10245344 0.21317367 0.51760656 -0.33506688 0.08787539 -0.38387737 0.70036775 0.056217507 -0.10508581 -0.45316404 0.4882653 0.44493735 -0.08188191 0.21936548 0.29748353 0.4243619 -0.17451544 -0.31004196 -0.10280017 -0.10613359 0.26270488 0.033787042 0.27950373 0.52496374 -0.014802817 -0.11175524 -0.1453366 -0.124555774 0.1741617 0.8022624 -0.28826365 -0.16892411 0.23389676 0.48451632 -0.55218387 -0.30950928 -0.09173917 -0.35817605 -0.5700967 0.4533025 0.19867805 -0.06613702 -0.09421906 0.39125097 -0.3031018 0.1210506 -0.7041193
1749 -0.38532698 -0.027037332 -0.34098735 -0.33241984 -0.5103073 0.3118158 0.081141174 0.39894328 -0.3286366 -0.043210167 0.328199 -0.0080543645 -0.011188571 0.23595168 0.85580885 0.07132575 -0.06972753 -0.46022418 -0.08669532 0.35228208 -0.15038487 -0.31915244 -0.09372689 0.25313157 0.010759485 -0.26998904 -0.07762869 -0.5409583 -0.099774994 -0.69169694 0.12473246 0.7852147 -0.14000528 -0.17327647 0.31378728 0.11687731 -0.8500093 0.35022715 -0.3987293 -0.2174664 -0.30377364 0.1803954 0.20070532 0.21687263 0.14881949 0.71286803 0.032969818 0.62164813 -0.1389741 -0.3388526
500 -0.5655408 0.04185855 -0.8477609 0.01026478 0.49068463 0.5851747 -0.069454245 -0.2013265 0.0738347 -0.62245095 -0.09365231 0.16447796 -0.3405996 0.121978514 -1.0407544 0.03991056 -0.008409499 -0.36242267 -0.3890383 0.30331126 -0.45253837 -0.59700525 0.19207935 -0.053527225 -0.5981259 0.2051292 -0.37928706 -0.42103934 -0.21918435 -0.11984816 -0.42891654 0.530835 0.1600557 -0.6865687 0.26343003 0.5276708 0.027522383 0.9945085 -0.5226809 -0.29006064 -0.67665106 0.52502847 0.19882405 0.24021985 0.33553508 0.25754085 0.030289635 0.28863105 -0.53101057 -0.17001599
1035 -0.5970212 0.26848084 -0.74868506 0.123157725 0.11538724 -0.1498686 0.26056716 0.1428972 0.17588769 -0.15076475 0.47286308 -0.1619069 0.6211672 1.3988401 -0.13632932 0.04315224 0.028442713 1.1869627 -0.085601225 0.16444401 -0.33828557 -0.5760751 0.07872925 0.45009118 0.42715392 0.24846987 -0.2818902 -0.56807584 -0.5824401 0.31597105 0.08566469 0.564373 0.30359176 0.09693139 -0.14292829 -0.5477007 0.22182864 0.22814977 -0.19325402 -0.28469652 0.20003137 -0.42188942 -0.006613479 0.4653556 -0.4068866 -0.25191152 -0.16479824 0.715018 -0.025556646 -0.23871669
1372 -0.08395179 0.37916967 0.12916903 0.25653923 -0.37159055 0.270066 -0.67490375 0.4064095 0.3107079 0.24834219 0.5589206 -0.047139402 0.15209982 -0.005967585 -0.223422 -0.015712766 -0.27724886 -0.1838167 -0.3534023 -0.15924847 -0.44547433 -0.32472607 0.15125051 -0.36483893 0.13571702 -0.029641986 0.009155062 -0.23348519 -0.64393806 0.41100377 0.14336573 0.018718965 0.5802185 -0.5420798 -0.22038902 -0.03506449 0.14865583 0.020053666 -0.3051302 -0.74057055 -0.86821145 -0.42289728 -0.21736966 0.30104244 0.44324332 -0.41594246 0.27802375 -0.1806359 0.36004728 -0.78203475
158 -0.5661623 -0.22968772 0.22425814 0.6976237 0.32265532 0.43923026 -0.33649015 0.23485483 -0.05899324 0.06539053 0.700109 -0.6697551 -0.8697019 -0.1865455 0.06694381 0.20228992 -0.6177708 0.7857678 0.16394123 0.34446698 -0.50913227 -0.3759241 0.038466148 -0.14128175 -0.90343314 -0.21534008 -0.24281281 -0.49501327 -0.18444261 -0.48273826 0.5666521 0.6017035 0.05005746 0.77112764 0.055307433 0.16701914 0.16736785 0.0039149686 0.41106775 -0.59650403 0.13764429 -0.16409177 0.418906 -0.066497885 0.23241328 0.09136755 0.17589805 0.18233436 -0.0008354166 0.2816385
3020 -0.24327865 0.23974691 -0.049339533 0.114604555 -0.0055151433 0.15156546 0.18872245 0.08578258 0.20089293 0.12056646 0.27781713 -0.43556312 0.30289727 0.026278993 0.09404013 -0.64581996 -0.9281668 -0.43729603 -0.4690057 0.19451939 -0.6351528 -0.34068942 -0.5861232 0.53590345 -0.28958914 -0.18627933 0.17690979 -0.43224978 0.14164951 0.44767135 -0.79841757 0.40827912 0.5984575 0.14785844 -0.6320488 0.03634376 -0.0034420127 0.29202485 0.60915744 -0.11576564 0.2141687 0.40210623 0.09066193 -0.16675277 -0.058760162 -0.22725536 -0.5322032 0.31460747 -0.124891095 -0.17302729
350 -0.5301625 -0.75017256 0.35499045 -0.29033932 0.20129688 0.49590477 0.85146916 0.9304437 0.3285383 -0.4085395 0.6214656 -0.2137742 -0.8695094 0.6439981 0.2514107 0.7296832 0.19237183 -0.47237393 0.651484 -0.70546764 -1.6610118 0.062506326 -0.32360443 0.04942233 0.82485205 0.5283793 0.6437803 -0.29756886 -1.0783631 0.8963843 -0.5399418 0.82132655 0.52471656 0.060932424 0.5277935 0.08403903 -0.35176715 -0.21123545 0.19237438 -0.8530386 -0.79717696 0.04378232 0.421937 0.3258833 -0.80280834 -0.72000265 -0.35068217 0.23638459 -1.3519478 -0.23648764
147 0.5519197 -0.09231575 -0.028307771 -0.15683843 0.11201076 0.016169056 -0.65891916 -0.2524838 -0.57138103 0.106263995 -0.1317338 -0.5764229 -0.12224412 -0.04432241 0.033953283 -0.061816018 0.24272849 -0.22735131 -0.13617991 -0.3086585 -0.42493358 0.007189134 -0.4165746 -0.014688753 0.39727497 0.07394565 -0.7828423 -0.34803224 0.3360389 -0.2166068 0.28516373 0.31343448 -0.18602473 0.30729297 0.3597142 0.5982983 0.3590355 -0.19542189 0.24222103 -0.61045396 -0.016862841 -0.4602388 0.6288564 0.6261379 0.25057587 -0.30994073 0.087519564 0.80315083 -0.43077588 -0.21316461
516 0.14480205 -0.09886446 -0.49658686 -0.33121336 0.5579615 0.40437344 0.29966044 -0.42039979 -0.54022014 0.29596138 0.32262796 0.27805144 0.44041023 0.57340103 -0.32290107 -0.2706203 -0.15693718 -0.3151241 -0.27109274 -0.25029138 -0.08068981 -0.6472037 -0.31181797 1.0934876 0.09787936 -0.57999426 0.049673583 0.008677968 -0.36839238 -0.18053032 -0.08695227 0.26711982 0.23893145 0.31809092 0.4003114 0.51291704 0.22776708 -0.109451525 -0.25590917 -0.67687446 0.12320525 -1.105179 0.18390405 -0.47050577 -0.08919813 -0.7076311 0.3564334 0.14491545 -0.67080826 -0.091238596
77 0.5521258 0.7378248 0.91536784 2.2621799 0.94407976 0.39416212 1.3184978 -0.16408758 -0.46796742 1.2736647 -0.21251604 1.1806037 0.88748306 -0.24973504 -0.25718853 -1.1864924 -2.6264844 0.65937644 1.1472316 1.7262536 0.36952588 -4.3117657 -0.07511978 -1.5118399 0.32691687 0.9698081 -0.466252 0.9186707 0.08858689 -2.5489192 1.0203862 -0.5140326 1.1097727 0.8106486 -0.027621586 2.0643954 0.64356035 0.2513268 -0.12716798 -1.8696003 0.4909956 -1.6599512 2.2184734 2.2367086 -1.2052572 -1.4968729 -1.4522389 0.17437577 0.56898206 -0.29049858
1517 0.037203714 0.56567407 0.2106653 0.26960823 -0.48172945 0.60619646 0.25313395 -0.8822916 0.9060222 1.5163627 -0.2342572 -0.30316314 0.9065152 -0.92956537 0.110484034 -0.1599995 -2.097737 1.5166937 0.7505975 0.84004915 -0.104409486 -3.9878476 -0.61757845 -1.7715328 0.4797829 1.1340231 -1.4919646 0.9936064 0.25937396 -1.3753709 0.62420905 1.1857204 0.91035193 1.0210786 0.750328 0.9509066 -1.1639951 1.2788088 -0.5275815 -2.0013988 2.195135 -1.6718178 1.0695839 2.0396924 0.19127513 -1.0962621 -1.6033939 0.8369628 1.0403098 -1.6813477
1733 -0.46240702 0.050810006 0.37909326 0.89201087 0.3170433 0.66953504 0.00917821 -0.03464027 -0.5718677 -0.03161777 0.7962984 -0.6117703 -0.35242623 -0.1404792 -0.21492405 0.09018556 -0.31109163 0.30785656 0.42366928 0.16412412 -0.47800094 -0.6953929 -0.028875139 -0.08531275 -0.07971035 0.17016865 -0.10163605 -0.32225716 0.2542416 -0.10045832 0.16021137 0.4741569 -0.13465357 0.45003965 0.4807268 0.3192229 0.18193229 0.10169376 0.70531523 -0.48177323 0.34393322 -0.20433925 0.8432852 0.21125004 0.8788364 0.5140006 0.30759093 -0.31152517 -0.47619754 0.21791057
616 -0.30477008 -0.62820876 -0.24822657 -0.02558293 0.60234046 0.79005325 0.3642713 -0.23157711 -0.33669773 0.4620442 0.08473221 -0.3664854 0.16937262 0.32187733 -0.5806476 -0.6949802 0.18652157 0.09565193 -0.44400054 0.3590959 -0.039849907 -0.2776903 -0.39944673 0.78016174 -0.38828278 -0.0076676016 -0.03375875 0.15455417 -0.36470693 -0.42810887 -0.6939158 0.6375475 0.32155922 0.17843357 0.33021775 0.8338328 0.05816947 -0.6201262 -0.91565615 0.28275588 -0.34885663 -0.32625955 0.3693621 0.24916765 -0.25619403 0.10860834 0.22989278 -0.17431378 -0.05439462 -0.17562366
678 0.033511624 0.1635092 0.101037204 0.14999503 0.49247885 0.08723775 0.12973267 -0.035264008 -0.12517568 -0.79504675 -0.23344876 0.20352486 0.45813894 0.45497763 0.85659057 -0.05494787 -0.61870986 -0.14539875 -0.29421863 -0.01609762 -0.11343797 0.18818426 -0.2639176 -0.7426787 -0.32031253 -0.24570408 -0.060054913 -0.38858855 -0.6119621 0.2480047 -0.5802391 0.09902536 0.6341319 -0.1939586 0.36994112 0.31358665 0.11062434 -0.387099 0.28751913 0.3403875 -0.5537994 -0.39423662 0.48433745 0.20735224 0.19290279 0.047688898 0.22652836 0.11079551 -0.021166112 0.3785211
492 0.087958455 0.5627271 -0.045464978 0.4083521 -0.25593245 0.087208495 0.046369273 0.50085074 0.34276277 -0.43264705 -0.090387374 0.26572606 0.023489885 -0.06094961 0.2416543 -0.8585179 -0.21452738 -0.10784025 -0.16511348 -0.3757222 -0.11919151 0.35879967 0.19432151 0.009349482 -0.21432303 -0.051820725 0.63253 -0.8910015 -0.9045782 -0.08260058 0.46414506 0.11883151 0.22919725 0.056412585 0.11863222 0.9326983 0.14841767 0.09924689 -0.5528546 -0.116256595 -0.370498 -0.5959294 -0.21441019 0.3983549 0.3995383 -0.28641114 0.19808841 0.40452805 0.88386834 0.13302347
3378 -0.4528295 -0.031655017 0.27908826 -0.2341807 -0.5100717 0.52414715 0.45926622 0.22701608 -0.1333793 -0.6941621 -0.18672612 0.32788202 -0.16480516 0.14289203 0.06763301 -0.3256785 -0.27260798 0.40210834 -0.68044883 -0.0028931485 -0.14849949 -0.3141249 0.053324256 0.3540687 0.7359969 0.18108945 0.216056 0.0018790818 0.093551256 -0.01144719 0.42563298 0.18923303 0.3960098 -0.13205536 -0.09397851 0.24675636 -0.2520498 -0.16216043 -0.12498399 -0.61670655 -0.19086576 0.5113112 0.4967533 -0.33124715 0.016720312 0.4759276 -0.020625075 0.27024966 -0.028269492 -0.11583714
196 0.6920367 3.1750631 -1.3637059 -1.3163381 0.05466329 -2.4983218 0.7999707 1.5035045 -1.662275 -1.5846426 1.5078622 0.82309085 -0.6702566 -1.3323604 0.3718164 -0.07908009 -1.0155987 1.3025875 1.5945001 -0.6694245 1.8122638 -0.6892004 -2.478315 -0.901363 -1.078282 -0.8462981 0.8018908 1.429524 0.2720129 -0.6245221 -0.36379787 1.5974971 1.2616758 -1.882675 -0.7359162 0.6465013 -0.8102525 0.06630032 0.3502621 -2.6249516 2.250838 -0.30805185 2.3681085 3.904068 0.26374358 -0.77270615 0.18370537 1.4931598 1.4304386 -1.6978729
1746 -0.45865464 0.24057496 -0.26723912 -0.4606662 -0.4861479 0.57075167 -0.05231327 0.48042825 -0.15181704 0.002445774 0.2528933 0.15935074 -0.21482004 0.1747635 0.8785889 -0.0070710517 -0.09137279 -0.50286925 -0.21024597 0.3119216 0.00019689075 -0.38165075 -0.12388128 0.39257705 0.38951537 -0.20623042 0.00014592643 -0.27353892 -0.34644786 -0.7630355 0.11340408 0.8460431 -0.15303694 -0.16136955 0.2848782 0.4052341 -0.783823 0.35135594 -0.30795163 -0.19319348 -0.18895522 0.28021806 0.116870895 -0.14185216 0.14119883 0.77257174 0.0076135364 0.4946367 0.06845543 -0.34253874
2253 -0.4682929 0.10257404 -0.24993372 -0.348366 -0.37262502 0.42515868 0.041709486 0.3894683 -0.3591757 0.028076366 0.415039 0.01654342 -0.19409692 0.18753906 0.96212584 0.016228626 -0.14304554 -0.7023912 -0.043587204 0.33499825 -0.1297526 -0.3846156 -0.10948607 0.32117012 0.07030069 -0.24580209 -0.022565376 -0.44857314 -0.20198041 -0.7553158 0.097112805 0.72886556 -0.09662625 -0.13692234 0.310122 0.27304593 -0.8772586 0.35258353 -0.45519072 -0.14671458 -0.18250836 0.23477735 0.07141435 0.08022606 0.17822756 0.57539535 -0.062240187 0.61303777 0.054840654 -0.30654088
9 -0.86934406 0.11029344 -0.69829607 -0.61427534 0.3219236 0.39286244 -0.24722025 0.07374068 -0.8759849 0.30310562 0.06356738 -0.38338512 0.17622088 0.22358623 -0.121869504 -0.53995204 -1.0132346 0.1446161 -0.37245607 -0.17282598 0.105274744 0.86897165 -0.41257092 0.2640348 -0.11224796 0.5637212 0.28137475 -0.4452773 -0.16036788 -0.30139306 -0.39220333 0.61339283 0.40085232 -0.2511109 0.060971938 0.2359769 -0.77910715 -0.20666568 0.4569446 0.008244468 -0.31990576 -0.53173447 -0.2151164 0.60060906 0.035377897 0.1841007 -0.17720726 -0.54930586 -0.0707396 0.53640735
524 -0.06711397 -0.10429555 -0.3799869 0.17885764 0.09756838 0.3705356 0.2346472 0.0076866928 -0.19999805 -0.63022697 0.06923161 0.13616976 0.45840254 0.4159859 -0.25475618 -0.3481738 0.32067692 0.63535917 -0.6148086 0.2957274 0.04131639 -0.35115778 0.1155938 0.38184288 -0.42775908 -0.45291933 -0.7264847 -0.030581703 -0.29806516 0.17258419 -0.5303651 0.33195645 0.52471983 -0.4957995 -0.16011652 0.05866846 -0.015930759 0.012896461 0.19733551 0.0918595 -0.17221603 -0.32192025 0.4070964 0.5189716 0.19788793 0.03926956 -0.21761103 0.09876815 -0.18597059 -0.0070160334
1421 -0.90685135 -0.14644474 -0.055752397 0.39286855 0.11008262 -0.13101698 -0.3341908 -0.07903738 -0.14049938 -0.57122344 -0.22566292 0.3118617 0.15670289 0.12560695 -0.39159524 -0.111366704 -0.32519644 -0.5341677 -0.14766094 0.06099552 -0.38740668 -0.45725703 -0.36325222 -0.28040946 0.66603327 -0.107283704 0.21477614 -0.33259612 -0.028806953 -0.12890048 0.4499878 -0.06299346 0.07917361 -0.2904057 -0.68927854 0.006096758 -0.6005839 -0.1539696 -0.13488548 0.014095108 -0.15751949 -0.5523621 0.33634228 -0.5863192 -0.34177136 0.06913052 0.12326426 0.43546748 -0.37916616 -0.54296386
1553 -0.27132675 0.104887314 -0.1851961 -0.02850933 -0.1521621 0.10779718 0.17577414 0.04391349 0.25348523 -0.42721614 0.08013718 -0.0509888 -0.015926262 0.26499712 -0.13765162 -0.29374886 -0.31567279 -0.29055732 -0.068923436 -0.07095509 -0.09664383 -0.5970002 -0.40608048 0.5900942 0.11822844 0.12308917 -0.45364866 -0.015425467 -0.36656776 -0.2136374 0.18207896 -0.15958744 0.3418286 -0.70203847 -0.29120278 -0.19525589 -0.25095618 0.058923025 -0.4170978 0.018934315 0.54715955 -0.5569805 0.026771879 0.12940045 -0.08758134 -0.1253862 0.1711156 0.06521092 -0.29811957 0.14692095
170 -2.1310644 -1.0458974 -1.3242778 -0.67653936 1.1265404 1.569174 -0.80436915 0.007771169 -0.28510353 1.4097841 -2.0179691 -0.6077587 -0.030906085 -0.22902437 0.15277854 -1.3663374 0.025753273 -0.113410935 0.5556833 -0.5128268 -0.617446 -0.27120677 0.28935456 -0.6426927 0.73148525 0.2055364 2.3204236 0.01751535 -0.23726055 -1.3132886 0.08050071 0.8818076 1.0423722 -0.6726682 -0.60753846 2.344589 -1.5931486 1.4422053 1.6794235 -1.2911121 1.0761492 -1.6418655 -1.8612239 0.16914055 0.8061647 -0.96766996 -0.1789126 0.5077741 -2.213221 0.90664196
1739 -0.538196 -0.24443737 -0.055385474 0.113551326 0.2605866 -0.10605216 -0.55715716 0.74175864 -0.26425248 0.27217555 0.26326394 -0.5427454 -0.35713646 0.117599584 0.08586222 -0.115490526 -0.5004924 0.73536706 -0.21836244 0.34884587 -0.190993 -0.27164495 -0.040726893 -0.24694285 -0.9425534 -0.22685386 0.02252639 -0.33754444 -0.39303634 -0.58367395 0.19006604 0.017608758 0.13966708 0.4670179 -0.41292366 0.3013608 0.039219704 -0.20855042 0.46449295 -0.45924374 0.0014125762 -0.1567092 -0.09830609 -0.044183243 0.07989321 -0.040646296 0.4814661 0.46441606 0.14213075 0.05951001
1540 -0.33327377 0.11740928 -0.37090427 0.15136762 -0.40698597 -0.039083418 0.31452906 -0.22947133 0.2329455 -0.13081387 0.32056254 -0.20472708 0.09680022 0.6957124 -0.01541799 -0.07341395 -0.109666035 0.3326645 -0.49287698 -0.03843836 0.38204923 -0.54569095 -0.11293852 0.6770294 0.080563456 0.1451348 -0.37840948 -0.38942608 -0.23972347 -0.17085744 0.04948854 0.1778247 0.5303989 -0.6018614 -0.011681753 -0.2967099 0.093924 0.070643015 -0.0021043706 -0.24008937 0.731478 -0.4252353 -0.08733298 0.4065832 0.31192568 -0.06080642 0.26945114 0.38553268 -0.046505082 0.1427258
1735 -0.21238756 -0.06022942 0.096944146 0.79656583 0.1604589 0.5242767 -0.2952296 0.7307275 0.038267255 0.24691758 0.93860364 -0.76713675 -0.41297224 -0.67237425 -0.1224441 -0.030070903 -0.260138 0.49667007 0.33817965 0.45995796 -0.086133264 -0.17806196 -0.19892114 -0.025540046 -0.76838696 -0.195169 0.09513998 -0.6032157 -0.34096432 -0.679723 0.47894946 0.4218551 0.0088966945 0.14922749 0.26247332 0.43495408 -0.051636975 0.1711179 0.11571006 -0.53593194 -0.12852159 -0.51761883 0.4678316 -0.37596503 0.4189322 0.18706116 0.12800515 0.34473673 0.08921353 0.5014982
190 -0.6613831 -0.4092832 -0.56955546 0.53117174 0.101034105 0.014412497 -0.341941 -0.3412014 1.059642 -0.26750046 0.20014182 0.06515286 0.066869 0.48294488 0.010484125 -0.110591464 -0.30222413 0.60636246 0.04271996 -0.10703953 -0.17285027 0.2813158 -0.46868896 -0.030412935 0.13306302 0.14503649 0.21017501 -0.7517448 0.5075005 -0.8556773 0.73353654 0.20327374 0.4094763 -0.094060935 -0.5447714 0.16414651 -0.4925677 -0.49778903 1.0953443 -0.6068779 -0.3793189 -0.37120306 0.37481254 0.23051663 0.01367716 -0.005240267 -0.18479654 0.28043145 0.011550504 -0.28212532
340 -0.026761688 -0.12692752 -0.90143806 0.14170961 -0.3483013 0.22304891 0.23895484 -0.16103002 0.3796751 0.27245316 -0.065347314 -0.27378392 0.43725166 -0.29494056 0.12388977 -0.52832675 -0.6560631 -0.178769 -0.635517 -0.26027167 -0.22538714 -0.25309357 -0.32763353 0.15023004 -0.07813994 0.5228629 0.31525335 -0.8378868 0.33519942 -0.26312193 -0.038107976 0.26785627 0.8924588 0.2952089 -0.371656 -0.3542958 0.31485194 0.19678883 0.4790491 0.030247534 -0.05934771 0.20503113 0.4613851 -0.14021064 0.33289835 -0.2298275 -0.5915697 0.39254284 0.19486187 -0.23109967
1302 -0.6017522 0.20803255 -0.83917296 -0.02436873 0.3734401 0.18100482 -0.6903412 0.13625707 -0.300998 -0.42680007 0.13859363 0.19543378 -0.462367 0.45702288 -0.7293702 -0.45590642 -0.17840928 -0.83394927 0.1424423 0.49155852 -0.65653425 -0.6341064 0.100517385 0.18388887 -0.2768639 0.27844778 -0.7886288 -0.46044677 -0.32835042 -0.058771454 0.30473548 0.07239953 0.23493852 -0.75272804 -0.18305723 0.3718051 -0.6948045 0.6449273 -0.98193157 0.14825104 -0.40614584 0.17254752 0.45901304 -0.17657454 -0.018024804 0.42943367 -0.28873292 0.35694224 -0.099096015 -0.20289561
1344 0.45902568 0.0955369 -0.14637716 0.7539333 0.001837235 0.55327314 0.076213755 -0.25661975 -0.062053677 -0.2102535 -0.49740502 0.2719051 0.35247377 -0.0076854136 0.5005929 -0.33876532 0.107874736 -0.271721 -0.34129047 -0.21856529 -0.08656848 -0.17872581 0.0051237703 -0.39683032 -0.4162166 -0.3296123 -0.53951186 -0.12472322 -0.67120034 0.59291834 -0.30033714 0.43079922 0.57414967 -0.010737316 -0.07782953 -0.14758809 -0.41103312 -0.14849584 0.31336242 0.12771532 0.079171754 -0.31243798 0.40637726 0.44728634 0.013383824 0.12352454 0.018342013 -0.13634227 0.08844637 0.09088571
1104 0.10117435 -0.008622451 -0.16753602 -0.4458783 0.06549123 -0.07150446 0.06375645 -0.6830131 -0.770745 0.03940063 -1.100998 -0.37583354 0.35683602 -0.6179475 0.27893203 -0.24933603 0.5345128 -2.51297e-05 0.23966055 0.48159415 -0.6157409 -1.1448492 -0.26296422 -0.3236789 -0.96785873 0.1344096 -0.17292814 -1.113021 -0.07047002 1.2586367 -0.25658917 0.1781856 0.82944554 -0.67192525 0.15608796 0.70748836 -0.52223414 -0.5539386 0.52286434 -0.39938405 0.15309826 -0.18762487 0.40573972 -0.022284923 -0.15102103 -0.28300735 1.362741 0.6166428 0.02883924 -0.6259061
1070 -0.059195444 0.2908101 -0.06973406 0.24587499 0.43673846 0.35934222 -0.23345405 0.3606673 -0.38696954 0.05559274 0.30868167 0.2001688 -0.7466747 -0.14758821 0.16565815 -0.066506535 0.5539464 0.5712309 0.2814918 0.2060867 0.10785 0.008860304 -0.59905523 0.42382026 0.43376827 0.44521797 0.62050146 -0.10816262 0.100052595 0.59209645 0.17233185 0.47570142 1.009689 0.21914284 -0.585391 0.19264272 -0.122319445 -0.10268275 -0.12548332 0.3546467 -0.82365686 -0.79313725 -0.16480191 -0.05264667 0.17993142 0.19404542 -0.27567652 0.77849936 0.22716999 -0.40243614
1164 0.55345917 0.27935365 0.6785573 -0.34983218 1.0798043 -0.30196694 -1.1106092 0.3521345 0.23536177 0.28829613 0.69685525 -0.41476277 -0.26799038 0.26455066 -0.54400885 -0.29763246 0.099422954 0.35397172 -0.99692863 -0.44049382 0.04116627 -0.53508526 -0.48667672 -0.09044249 0.034922026 0.5727288 -0.41899195 -0.051928267 -0.647736 -0.077713735 -0.3908293 0.5907394 1.2371005 -0.24914199 -0.5204642 -0.061496146 -0.4303194 0.2637663 0.15775678 -0.4742782 -0.27614447 0.5655914 0.070653394 -0.2950431 0.70093733 0.77572775 0.6304161 0.5564843 -0.22058931 0.04309489
41 -0.520105 0.081528954 -0.24813901 -0.074373744 -0.52739596 0.12875448 0.24383493 0.33189055 -0.22902884 -0.36652583 0.32341507 -0.4884282 -0.23967753 -0.2522875 -0.063051865 -0.4344187 -0.14231429 0.22249803 -0.4560248 0.14680505 -0.04981705 0.14016026 -0.32526305 -0.14384893 0.4696693 0.18627769 0.083584756 0.16605426 0.016482707 0.46946523 0.15625596 0.019186646 0.27549773 -0.08881252 0.1306963 0.40707022 0.17966402 -0.16039293 0.14621083 -0.2184448 0.11236526 -0.1655859 0.37532145 -0.32930213 -0.34914201 0.40253645 0.1908144 -0.011151353 0.17453952 0.09473114
390 0.5639927 0.96335787 -0.48410052 1.180871 -0.16780925 -0.2539878 -0.30123702 0.1814206 -0.047183648 -0.9696321 0.67675555 0.8708592 -0.19740912 -0.33211833 0.86549574 -0.73232555 0.2123743 0.15872206 -0.22879708 -0.49043185 -0.50491935 0.4755913 0.0069194827 0.13468735 -0.43836612 -0.14775853 0.18088521 -1.3546191 -1.4118999 0.50026524 1.1337634 0.033862602 1.0885735 0.63096666 -0.5829714 1.7344216 0.42590988 0.42381197 -0.31594023 -0.2485985 0.34406248 0.54741144 0.8345169 0.006751436 -0.2784193 -0.8630931 0.8459713 0.18291187 0.5101228 0.19831784
899 -0.019369934 0.16852489 0.19074415 0.09848584 -0.028097864 0.039113954 0.14573652 0.7337383 -0.3907512 -0.46838355 -0.16646974 0.23508967 0.17492253 0.28443912 -0.044703886 -0.43761066 0.048705813 -0.04505204 0.10871418 -0.0066417092 -0.4267632 -0.46229005 -0.4417201 -0.03733517 0.38245925 -0.23332147 0.25412154 -0.60083 0.39196736 -0.08974203 -0.12716311 0.09616298 0.33061415 -0.24687035 -0.38076594 0.16793737 -0.4074238 -0.14088617 0.19109572 -0.23738801 -0.020399956 0.14327988 0.33029512 0.20336838 -0.39716548 0.04718931 0.22962284 0.13819066 -0.20799267 0.14504516
31 -0.2852185 0.062438224 0.16296235 0.026686857 -0.26037282 -0.11191428 0.06645475 0.056333337 -0.60707456 -0.098700464 0.22355512 -0.051206283 -0.76611686 -0.016336078 -0.5321251 -0.46881223 -0.0039964556 0.13748798 -0.060531203 -0.08033072 -0.29147568 0.09414153 -0.07301634 -0.4110459 0.47298974 -0.024924163 0.10461103 -0.19280714 -0.17125863 0.24489333 0.09185677 0.34894475 0.5371392 -0.5119584 -0.2779668 0.045601524 -0.37901187 0.061603528 -0.19328491 0.2226236 0.18003666 -0.11958742 0.547092 -0.32173806 0.521089 -0.06481522 -0.20245299 -0.07520021 0.20328242 0.06311383
7 -0.31192255 0.00024810957 0.38853908 0.026233722 0.7172819 -0.019359512 -0.43795788 0.4194525 -0.22272514 0.52231985 0.30187002 -0.80049825 -0.53495 0.10335546 -0.34630066 0.017981563 -0.38583702 0.3471537 -1.3128637 0.2519417 0.2818813 -0.8677496 -0.059232943 0.018606134 -0.7001261 -0.22795747 0.6707892 -0.13693932 -0.825201 -0.5657875 -0.1793554 -0.28672376 0.7752783 0.7253222 -0.58389455 0.45749402 -0.36458394 -0.47864896 0.6126209 -0.22709367 -0.36762354 0.20391683 -0.007011465 -0.014761944 0.34563377 0.4272595 0.12567732 0.49216646 0.037567046 -0.25042486
36 -0.6169036 0.13825431 -0.40709788 -0.1636742 -0.49078545 -0.014564253 0.5876152 0.16324748 -0.10876132 -0.52446467 0.5946546 -0.6535485 -0.9676942 -0.2594229 -0.49073288 -0.92575985 0.13441806 -0.093760006 -0.50107867 -0.052629106 -0.21581064 -0.047115218 -0.21244603 0.20825937 0.68842614 0.2365629 0.07413433 0.07404439 -0.149739 0.5157075 0.27506196 -0.022520801 0.482199 -0.1876416 0.33054876 0.60696906 0.040422153 -0.29016116 0.36625102 -0.24995175 0.007547069 0.17007375 0.75886863 -0.37341234 -0.50494033 0.484038 0.26550248 -0.20181054 0.17709036 0.20368755
669 -0.007494388 -0.40513778 -0.11506729 0.2888961 0.5049532 -0.039160043 0.041721296 -0.025693944 -0.34437567 0.13812573 0.8625376 -0.5453877 -0.62793374 0.4988681 0.5116932 -0.08226747 -0.15740575 -0.21764497 -0.4573479 -0.8949126 0.21249059 -0.598613 0.4692282 -0.6526217 0.6512506 0.2641607 0.00923151 -0.16010676 -0.8109342 0.033102546 -0.22871809 -0.017612359 0.1763734 -0.56196666 -0.68579954 0.4942163 0.25345305 0.3524777 0.20895796 -0.67175794 -1.1764694 0.08306363 -0.22375777 -0.2454053 -0.29902756 -0.103557065 0.069371045 0.28263184 -0.9099342 -0.35740957
338 -0.54228 0.68830794 -0.4893621 1.0743605 -0.14466678 0.007982353 0.3565633 -0.9631373 0.2159752 0.0051653124 -0.34915313 -0.83220583 -0.4396528 -0.0940561 0.67056376 0.11204319 0.37421608 0.2680511 -0.1876756 -0.16095889 0.1343401 -0.32457998 0.46432146 -0.47735846 -0.0020543078 -0.16688532 -0.65810883 -0.6927365 -0.3426503 0.8720411 -0.6942486 0.28986505 1.5575932 0.9714949 0.03935736 0.44213805 -0.5241077 -0.05797269 -0.35278338 -1.0785903 0.45312095 -0.5090622 0.14655308 -0.37457365 -0.62075496 -0.6852705 0.7207563 0.14448386 0.18594639 0.18466453
2256 -0.321257 0.21418592 -0.25795156 -0.20899491 -0.33534446 0.51953095 0.02678444 0.47738287 -0.31399265 0.020558603 0.12211429 0.032677475 -0.119410075 0.21493627 0.89954793 -0.0637241 -0.15954293 -0.5874805 0.0933177 0.19483867 -0.1257399 -0.3901305 -0.14784198 0.2981316 0.024026453 -0.16021115 -0.06654339 -0.17679302 -0.2636076 -0.63381535 0.21318388 0.8034192 -0.2105426 -0.21440442 0.28224647 0.08578932 -0.8176856 0.3030606 -0.3400235 -0.17471705 -0.13775395 0.3034915 0.12231366 0.11331036 0.029887112 0.57607186 0.05824506 0.3996108 0.0037782846 -0.33874345
1419 -0.22974813 0.1644227 -0.011857811 0.33613944 0.15054928 -0.0758664 -0.035603 0.3824208 -0.24123693 -0.26069745 -0.29705498 0.26470143 0.17108127 0.3381951 -0.1074788 -0.15616831 -0.27681583 -0.3458276 -0.047646828 0.1036065 -0.34567165 -0.52047896 -0.29795033 -0.34953552 0.30273938 -0.34506467 0.30111426 -0.41763034 0.11944471 -0.0127542075 0.20638888 0.35571775 0.18330449 -0.427206 -0.28172165 0.12406112 -0.51728016 -0.18517256 0.33328667 0.008739549 0.13323192 -0.20728807 0.31410405 -0.17015012 -0.3975546 0.13742799 0.3394998 -0.01940047 -0.34082797 0.10101733
631 1.129743 0.9422448 -1.2761351 0.7301158 -1.6691335 0.32078183 -1.1066434 0.5316295 -0.0063490784 0.33747274 -0.09439688 0.11898326 -0.27680427 0.58147895 -0.13850474 -0.6644282 0.7116126 0.37726623 0.18888143 0.49495894 -1.2094587 0.22987738 -0.42089507 0.037259176 -0.1533768 -0.10587749 1.5615137 -0.037416756 -0.18073998 0.12946774 0.27603257 0.104454696 1.3615433 0.044037312 0.30071723 0.92478466 -0.34305498 -1.6733747 -0.41378248 0.13205461 0.34095126 0.24949037 -0.4278496 1.4484571 0.9310345 -0.10735997 -0.58932054 0.82077885 -1.5441225 -0.18605983
405 0.25218308 -0.6121974 -0.36636126 -0.017373499 -0.834727 -0.443975 -0.75689197 0.7733458 -1.0010834 -0.706972 -0.086036384 -0.12588204 0.6564447 -0.0695003 0.12768167 -0.2160519 -0.19614422 1.1856288 -0.40940937 1.0300524 -0.1027331 -0.2213162 -0.6517066 -0.99295646 0.28319862 0.09854995 0.13653341 -0.73180836 -0.2870728 0.35165402 0.44521862 0.31434268 0.53785616 0.9654805 -0.55458486 0.1291124 -0.21111515 -0.13095191 -0.2584564 -0.73639303 0.42344448 -0.4719626 0.5204757 0.4620911 -0.14679882 0.99959606 0.32367268 -0.27965507 -0.2600514 0.065468214
622 0.0009380031 0.06816739 -0.14928816 0.5710719 0.055367786 -0.16867025 -0.17601797 -0.15814705 -0.08503054 -0.19384569 -0.19112968 -0.02193128 -0.39458662 0.39261314 0.26297456 -0.0781261 -0.46111956 -0.08456357 0.114723325 0.27963495 -0.1565717 0.021988068 -0.45212334 -0.28909218 0.42465255 0.18466759 0.20822856 -0.59946465 0.048303183 -0.096108526 0.08023516 0.5213323 0.7187637 0.2965007 -0.39476937 -0.01596208 0.7005499 -0.08986153 -0.37534577 0.4998982 -0.826383 -0.5539622 0.05801608 -0.07305254 -0.21794316 -0.32620054 0.19956361 0.64536643 -0.038021583 -0.3320084
1115 -0.18640085 -0.014075824 0.060682666 -0.2756817 0.035963334 0.48585373 0.022895075 0.35884815 -0.64151675 -0.3150879 0.33558962 -0.2644088 -0.39594525 -0.056336123 0.27338403 0.13736485 -0.12530449 0.4993689 -0.3061999 0.47154623 0.17291409 -0.45291388 0.32350266 0.097255796 0.066244416 -0.53382385 -0.051788107 -0.25664887 -0.33485493 0.7440584 0.6591657 -0.11865731 0.83031887 0.6797829 -0.75796413 0.4187128 -1.0809792 0.023805236 0.26392433 0.4464625 -0.5706685 -0.63753307 0.538978 0.2991223 -0.12838621 0.15704349 -0.18565366 0.821447 -0.17373973 0.17238744
1204 -0.070182964 0.27531078 -0.40249017 0.078207724 -0.20934433 1.1641788 -0.2582289 0.15428348 0.30621767 -0.27169588 0.4074443 0.08411772 -0.9151216 -0.35184276 -0.109083794 -0.20483908 -0.89858764 0.28007925 0.42630383 -0.026287477 -0.42227185 -0.14150988 -0.32459688 -0.086024225 -0.3556655 -0.025669504 -0.46540058 -0.5382642 0.068276815 -0.40993676 0.51910394 -0.5876134 0.10590306 -0.32476804 -0.10015603 0.077547304 -0.31441784 -0.16929302 0.33385867 -0.035402708 -0.35566914 -0.29474705 0.12792279 0.15747686 -0.2536042 0.043409884 0.8437719 0.0011924849 -0.4710407 -0.5712928
404 0.13177995 -0.4614495 -0.5787377 -0.14971575 -0.7855665 -0.32802558 -0.71021116 0.93330824 -1.0303053 -0.52027833 0.054700125 -0.30704185 0.5052331 -0.07216159 0.18874775 -0.304103 -0.24519104 1.4200591 -0.46521488 1.024415 -0.13475037 -0.10596778 -0.7429981 -0.8955742 0.28289646 0.13269405 0.18799745 -0.71453345 -0.29954946 0.41616648 0.62070906 0.20517401 0.43700776 0.98231745 -0.46335125 0.002930413 -0.065196924 -0.20487909 -0.37541276 -0.77525175 0.44457954 -0.48369122 0.49983352 0.28305346 -0.05255289 1.0998253 0.357376 -0.30453926 -0.2877599 0.12619674
1426 -0.4192223 -0.306595 -0.04286793 0.47360557 0.2997003 -0.13609421 0.32662582 0.04821585 -0.3274268 -0.08370613 0.25338846 -0.97408813 -0.52082604 -0.0356516 0.2607139 0.03723461 0.037509188 0.010106306 -0.035271145 0.4657592 -0.38627723 -0.3878679 -0.13458848 -0.26682913 -0.72127646 -0.17283723 -0.05239312 -0.19884177 -0.30487314 -0.59927076 0.3265439 0.16006045 0.15145603 0.0054826736 0.37336582 0.007991315 0.2269992 -0.34382924 -0.1465122 -0.2734556 0.32370248 -0.19729185 0.5746338 -0.018137291 0.068968646 0.15905122 0.33304888 0.052435804 0.18268935 0.14391479
1129 -0.0031268478 0.6520924 -1.3556014 0.97914517 0.17885903 -1.5781357 -0.27562404 -2.0200598 -2.133075 0.07866952 1.4491454 -0.35576355 -1.7746705 0.11180999 0.39622408 -1.2597638 -0.48080593 1.4418061 -0.8845254 -0.036181387 0.07939015 -2.3590598 -2.458649 -1.783664 -1.4235901 0.1498311 0.3548293 0.8580762 -0.8968645 -0.87668777 2.6771219 0.6996944 1.4087497 0.652046 -3.4297123 -0.38165233 -1.4276654 0.41058606 0.42312488 -0.78476506 -2.0262728 -1.5257881 1.0865188 2.7688682 -0.7850446 -0.12936917 1.9950706 -1.224884 1.7815989 0.66877097
1736 -0.46152034 -0.028457055 -0.37605077 0.2425396 0.11346877 0.25537586 -0.48474845 1.0838348 -0.1924752 -0.045592904 0.60962313 -0.43911505 -0.36224148 -0.64051193 0.22284773 -0.16070722 -0.6801803 0.96748435 0.121812545 0.7226124 -0.55465734 -0.27700868 0.22268435 -0.21998258 -1.1177533 -0.008894218 -0.114799656 -0.42600626 -0.18118116 -0.3507763 0.45012236 0.06573719 0.015281777 0.2541396 -0.28845763 0.24859369 -0.009291776 -0.14236023 0.009695778 -0.8277403 0.0665049 -0.36027792 0.39262393 -0.6931959 -0.04841014 0.31572676 0.45962465 0.3168833 -0.23377596 0.3481288
1196 -0.14681813 0.28152764 0.10995228 0.47692165 0.22686514 -0.12097776 0.013690144 -0.28526905 -0.036958035 -0.7388105 -0.24968453 -0.12459581 -0.35641128 0.21900211 0.65695375 0.102796994 -0.65263426 -0.28710535 -0.05672214 0.1361809 -0.1495121 0.1925438 -0.4899036 -0.74796844 0.04749025 -0.1315358 -0.10899638 -0.78662056 -0.5917578 -0.27677485 -0.07952685 0.24837102 0.64389807 0.19890355 -0.119490966 0.2451389 0.7387289 -0.26792046 -0.4807905 0.103034794 -0.72113943 -0.56479484 -0.020486144 0.10569598 -0.12078712 -0.026114302 -0.13452445 0.39597204 0.3044607 0.28995347
311 -0.46855694 0.07647816 -0.20335668 0.29235613 -0.10458217 1.1458106 0.084266216 -0.20518786 -0.12358991 -0.4065299 0.7081405 -0.18716533 -0.19410428 -0.24233624 0.029142966 0.4507743 -0.40159035 0.004799676 0.21218391 0.1313525 -0.5346334 -0.538437 -0.06256383 -0.030522134 -0.29029223 0.043061994 -0.3166382 -0.5286418 0.08432383 -0.5348934 0.1388206 0.75080526 -0.35571763 0.16022022 0.061604973 0.16519733 -0.2073471 0.34629533 0.22147076 -0.50876284 -0.7196487 0.31023237 0.38099334 0.28330496 0.5467727 0.50399184 0.51328397 -0.1535494 -0.3933053 -0.28769127
1431 0.041125152 0.64094824 -0.9435673 -0.39783213 0.19132493 0.6050531 -0.059123833 0.8339715 0.44911215 -0.3431829 0.15798235 -0.89737713 0.38327712 -0.4788243 -0.05937553 -0.46718314 -0.7200546 0.4216774 -0.8058266 -0.09239569 -0.33312336 -0.14300512 -0.31474432 -0.83191425 0.26801935 0.96125907 0.4989939 -0.39323342 0.39068532 -0.16143237 0.37316307 0.7712163 0.53814584 0.6093039 0.22765064 -0.46869192 0.04366912 -0.18403654 -0.4931485 0.35029545 0.140925 -0.52524203 0.24959353 0.20589168 -0.018481202 0.078666836 0.049544454 -0.1142281 -0.04590241 -0.4264203
367 -0.32307225 -0.15075627 -0.0069490517 0.45800245 0.13642588 0.48774666 0.029538712 0.020258693 -0.6331675 0.030720979 0.538471 -0.85420376 -0.21762621 -0.14376116 0.08446625 -0.17699322 -0.046129797 0.3759258 0.40950924 0.18215828 -0.40065044 -0.7230405 0.02992972 -0.34440783 -0.12786697 0.058523837 -0.123269975 -0.5673493 -0.056441735 -0.13610232 0.10358936 0.27448034 -0.027013186 0.14760977 0.5761578 0.15591979 0.2574636 0.117988676 0.4144722 -0.22542356 0.36458313 -0.2476537 0.45709935 0.16865645 0.70042247 0.5854087 0.17167413 -0.2973191 -0.09639813 -0.13256145
698 0.16069958 0.36503783 -1.5712934 -0.7420935 0.6997201 1.0485969 -0.64497596 0.86367935 1.1727272 -1.0949445 -0.2964126 -1.352177 -0.68250906 -1.0365958 0.6103615 -0.47021708 -0.6229286 0.535507 -1.8141192 -0.21559729 -0.5669681 -1.2302997 -0.50767565 -2.0748389 -0.2912718 1.3916653 0.4347159 -0.9322474 0.8658155 0.098978825 0.7811191 1.5833417 0.63846946 0.9782866 0.48527363 -1.7004182 -1.2218615 -0.72999096 -0.5719769 0.7532527 1.4237995 -1.3387169 1.0215358 -0.22613102 -0.7110375 -0.66683424 -0.11421752 0.64226425 -0.32332563 -0.96588665
511 0.240961 -0.5900057 0.11177271 0.21614964 -0.2381338 -0.062200703 -0.1639818 -0.5116621 -0.3288909 0.84406626 -0.025054969 -0.015652353 0.2806415 0.5030362 0.49033472 -0.34155297 -1.0813955 -0.3421328 -0.042842977 -0.19418138 0.83704764 -0.46034652 -1.1769054 0.3646299 0.022790497 0.45329013 1.334051 -0.6883909 0.6338795 0.12252286 -0.01514558 0.35672876 1.1263201 -0.71891123 -0.17568237 0.16969083 0.020796917 0.6727844 -0.9758234 0.02548673 0.16843915 -0.15888551 1.6677326 -0.48398274 0.9555284 -0.5130284 0.37799746 0.09586202 0.18598887 0.33847016
577 -0.27574608 0.4744249 -0.15396133 0.38321298 0.04786033 0.70012224 -0.20765173 0.33923024 -0.34589836 0.23861907 -0.0355726 -0.4869408 -0.4727543 0.09182419 -0.34050974 -0.1880972 -0.6113701 0.5710327 -0.5900569 0.41524902 0.6963482 -0.106014706 -0.41833937 0.16351248 -0.50032663 -0.3174499 0.9021486 -0.29971486 0.34093595 0.95533746 0.039191928 0.35361072 -0.78256685 -0.14128263 0.069284014 0.3705736 -0.009542296 0.44213268 -0.15367095 -0.2617037 -0.46445152 -0.4442314 0.8958473 0.13285996 -0.54856694 -0.3488082 0.20180394 0.7322935 -0.38733158 -0.30006266
411 -0.42569938 0.3670894 -0.68240035 0.01966532 -0.372143 -0.14092 0.314202 -0.44320232 0.34347394 -0.44073373 0.29298663 -0.14869788 0.20185336 0.75047266 -0.059280194 0.09227845 -0.3006868 0.31303966 -0.3510727 -0.042661052 0.17945631 -1.0527986 -0.38407293 0.7745769 0.10327089 -0.025849896 -0.14329246 -0.327757 -0.23814489 -0.19732429 -0.09256388 0.10051084 0.6285665 -0.5881323 -0.059118636 -0.34883338 -0.019497486 0.14194421 0.09622182 -0.20557214 0.41821796 -0.68917763 0.037379287 0.26882184 0.28224373 -0.11902441 0.41526428 0.17042851 -0.20538947 0.29027167
785 -0.09836699 -0.27494496 0.1576524 0.5039361 -0.07159296 -0.2210513 0.45831558 -0.26927778 0.23695964 0.46945918 0.81311077 -0.93128026 -0.013420152 -0.009426684 0.25699726 -0.24293832 -0.03954634 0.04424436 0.5143136 0.1315925 -0.111245885 -0.35066408 -0.018856335 -0.5962464 0.4522306 0.04104718 0.11338863 -0.2362528 0.22894126 0.0007296832 -0.48231068 0.18820813 0.20669034 -0.75997144 0.3873295 -0.006937054 -0.4112039 0.23393011 0.51683503 -0.22153303 0.50067365 -0.3075628 0.53029275 0.40879345 0.31299427 0.702196 0.12375942 0.4561884 0.08107973 -0.7600849
601 0.33471942 0.47672528 -0.38213712 0.41294506 0.5670758 0.6608395 0.24111712 0.112692304 0.79561454 -0.31109476 -0.091598205 -0.24853867 -0.19313069 0.071743175 -0.2386977 -0.22660421 0.26992056 0.34324244 0.9213389 0.6970266 0.76736844 0.48097965 -0.839202 0.24075264 0.096260436 0.3406033 0.3197721 -0.34442747 -0.12892987 -0.14913498 0.09811715 0.26545513 0.73314995 -0.08956296 -0.39042512 0.64546835 -0.43767786 -0.25659344 0.17899148 -0.29435167 -0.20052885 -0.29473916 -0.280402 -0.046008963 0.72069794 0.08553032 0.2582261 0.49595612 -0.22268799 -0.32464802
1581 -0.394451 -0.0739872 0.67148453 -0.3553258 0.0525916 -0.5039253 -0.13252607 -0.11752251 -0.047513556 -0.65306956 -0.2024689 -0.42169052 0.31963256 -0.5825655 0.3503678 -0.505422 -0.07044454 0.13863455 -0.074069045 0.72851217 0.12622528 -0.5004667 0.072735 0.1570498 -0.2719232 -0.2360421 -0.31193045 -0.10722396 -0.55306625 -0.010014014 0.010176912 0.30399767 0.42007414 -0.10951121 -0.286184 0.090330295 -1.1059443 -0.42338344 0.28344116 -0.19345975 -0.35602748 -0.5107674 0.49164808 -0.27832666 0.57066184 -0.35553125 -0.48365194 0.6412181 -0.8460815 -0.44103634
1443 -0.37606964 -0.30729786 -0.15309581 0.19287957 0.04674238 -0.05597194 0.33133113 0.15992633 -0.123389795 -0.1945342 0.24487154 -0.101462714 -0.34123972 0.09279705 0.61663383 -0.15494202 -0.38659588 -0.4782251 -0.686991 0.7615642 0.7533747 -0.37535256 -0.5363929 0.21488596 -0.032066274 0.3424317 0.15378112 -0.13735552 -0.23365751 -0.37390864 -0.38397726 -0.50785816 0.08620889 0.5697709 0.49850142 0.27555063 -0.18369006 0.018971005 0.31378826 -0.202805 -0.11196795 -0.526595 0.26833683 0.1096734 0.23733236 -0.74916357 0.0515292 -0.3079958 -0.31654993 -0.80361044
743 -0.7038315 0.46978098 -0.24498288 -0.06527176 -0.28168532 0.38614705 -0.7064866 0.7382671 -0.73674726 -0.11260491 0.91843057 0.14325026 -0.09084193 -0.9464732 0.39509273 -0.017150972 -0.124500684 -0.40295598 -0.122188926 0.43024263 0.922775 -0.6203483 -0.90782386 0.40211403 -0.09876582 -0.23124631 0.077215634 -0.56966555 -0.8548975 -0.94717324 -0.33787814 0.48888066 -0.28667572 -0.44529423 0.32025748 0.33916894 -0.4728171 0.3933042 0.112164386 -0.4276475 -0.4062676 -0.41058218 0.11422232 -0.7426725 0.23200487 -0.2742168 -0.5731899 0.63678175 0.29399443 -0.39324924
1112 -1.7384346 2.4465947 -2.0986083 -0.14457783 -0.17878242 1.3876654 -1.1053078 -1.1892208 -0.6946137 0.06607057 0.28395423 0.8909478 -0.5878988 -1.3679044 0.89979917 0.42925724 -0.56845385 0.6901182 -0.12887175 0.55146444 1.1436282 -2.3166237 -0.23221573 -0.8482623 0.20347509 0.7262889 0.23472947 -2.0537896 -0.98183745 -1.9469664 -0.30056688 0.29904884 0.7979516 0.6595463 0.5066253 -1.2527114 -1.3878987 -1.4419097 -0.21187478 -0.73851764 1.5408031 -0.7705882 0.5224026 2.7541726 -0.2251213 -0.36160728 -0.34366962 -0.33653995 -2.568397 0.22717278
506 -0.980662 0.107618675 0.035651635 -0.4297887 0.110790744 0.39641607 0.022050403 -0.352494 -0.60830396 -0.34870303 -0.12787618 -0.18866035 0.36178786 0.51664346 0.4346799 -0.29931885 -1.1247745 0.07066662 -0.05826132 -0.28592214 0.487359 0.8830901 -0.9233819 0.0063465564 -0.18644732 0.5746312 0.07056146 -0.28036118 -0.5317661 -0.14656982 -0.85535496 0.4505616 0.31638727 0.0028104193 -0.16266078 0.301097 -0.39814505 0.009480052 0.44582543 0.40943313 -0.0046362258 -0.27907363 0.36814028 0.29693443 0.54512495 -0.20851868 0.20988485 -0.58930814 -0.48263907 0.4060814
242 0.38093975 0.11402859 0.35812393 0.83154744 -0.6330226 0.9082167 -0.17923523 0.20394543 -0.06419059 0.5292202 -0.9115262 -0.6917763 -0.88595366 -0.206331 -0.12722117 -0.052047465 -0.3046777 0.47352073 -0.13977602 0.7502862 1.4436053 -0.68743896 -0.18835048 -0.13361648 0.31514943 -0.06815009 -0.07026785 -1.2622397 -0.107490376 -0.1581346 -0.86814904 0.90319884 0.14936697 -0.34875926 -0.63999873 0.0033054177 0.34016153 0.62615365 -0.12355911 -0.4391117 -0.03857306 -0.4636173 0.39227515 0.46315154 -0.74125713 -0.4063916 -0.4335143 0.62614 -1.0255853 0.5515548
180 -0.050876386 -0.0703898 -0.20811139 0.066489846 0.5477182 -0.037458822 0.18360306 0.017074458 -0.2294669 -0.517963 0.28120467 -0.6125062 -0.41825604 0.12628317 0.5322345 -0.5854321 -0.1956225 -0.0056557353 0.067555375 0.053443186 0.44637552 -0.73131394 0.32178056 -0.34671205 0.2335495 0.5250257 0.19959213 -0.06414032 -0.58458126 0.02323466 -0.22289528 -0.18821558 0.372925 -0.91494125 0.09270024 0.075959735 -0.064308405 0.20559889 -0.116523005 -0.5957627 -0.9055776 0.3538144 -0.2933088 -0.3175674 -0.09301165 -0.66024244 0.10535016 -0.12090293 -1.0510615 -0.16825944
619 0.23087344 0.7959054 -0.0022016298 1.3856812 0.7675553 0.30920163 1.3310363 -0.95789826 -0.9737542 -0.40233 2.1570485 0.9761675 -0.20188925 -0.7392398 0.4739723 -0.07166232 -0.6755147 0.90817505 -0.27748808 3.4201255 0.30225372 -0.5314603 -1.1274765 -0.5620285 0.050469793 2.03033 -1.861327 -1.0232326 -0.31407025 -0.41648948 -0.9885532 0.8997547 1.7554178 0.36809376 0.20360406 1.0733172 -1.8992934 -1.4335058 1.5779538 -1.0465996 0.01981464 1.2782971 -0.7473687 0.62557167 -0.33634007 -0.9729005 -0.17057607 0.52180976 -0.7232215 2.3016446
2397 -0.4477121 -0.03151987 0.6233905 -0.25512642 0.030471792 -0.013319318 0.060451794 0.13367133 -0.21379164 -0.69971126 -0.16486536 -0.20450708 0.27134836 -0.33237004 0.16200967 -0.3385181 -0.07488511 0.40394577 -0.17980044 0.5252969 0.08397204 -0.43497008 0.009355785 0.11020793 0.22684808 -0.37247583 -0.19782643 -0.19581912 -0.59451014 0.08560698 0.38272056 0.26625285 0.6830322 0.3925555 -0.5349663 0.23054405 -1.152246 -0.38377866 0.5348903 0.29692456 -0.55469495 -0.6860026 0.6250347 -0.18605769 0.05969997 -0.21457338 -0.2627609 0.45499277 -0.68287516 -0.31221715
1179 0.030119628 0.09132633 -0.10538614 -0.15704195 0.18456191 0.15286818 -0.34647238 0.3136369 0.028081426 0.31294197 0.380615 0.28278968 -0.65687495 0.17516403 -0.23921813 -0.6907667 -0.4778759 0.17359497 -0.028868109 0.16534498 -0.118699744 0.29255587 -0.2790356 -0.16236438 0.16335492 -0.26192895 -0.8077258 -0.16065349 -0.552775 0.0032360037 0.45530468 -0.0134696895 0.7170485 -0.38811713 -0.097539365 -0.11831264 -0.17708868 -0.10661307 0.06357892 -0.06542954 -0.09940224 -0.07143562 0.30387437 0.10696533 0.28291467 -0.2973531 0.07756031 -0.53007287 -0.05190333 -0.8387908
2600 0.6362103 1.3074819 -1.2127059 0.23825946 0.9088687 0.7479827 0.85275894 -0.20669176 -1.07138 0.13141349 -0.39815086 0.9327879 -1.2996626 0.5110947 -0.4687139 0.56651926 -0.54618275 -0.31133223 -0.35535705 0.949448 -0.009350208 -0.06109361 0.62899274 -1.2911701 1.2701135 -0.100814775 0.2727264 -1.463095 -1.5261018 -0.5611087 -0.9384655 -0.90436566 -0.7963988 -0.92877436 -0.9557347 -0.50293356 -0.70883685 -1.4923077 0.6981464 -0.6147284 -0.12906677 -1.354265 1.1584153 0.7990327 -0.37178078 -1.393598 -1.1276436 1.5997456 -0.1495313 0.00053759175
101 -0.04109001 0.41964647 -0.14945284 0.20854269 -0.13025643 0.13249974 -0.05429094 0.034376636 0.16284645 0.10858432 0.32921574 -0.09672362 -0.79270923 0.4175602 -0.17489627 -0.3311282 -0.34233916 -0.056064226 -0.22070588 -0.13026515 0.057662245 0.13632225 -0.0055736816 -0.03928847 -0.06418793 -0.010011715 0.0030191252 -0.28682554 -0.10877028 0.5978274 0.061494872 -0.16881996 -0.07355033 -0.11226437 0.08028091 0.22924715 -0.5367677 -0.068107 -0.13169622 0.058437195 -0.45334148 -0.6187402 0.13696425 0.07789567 0.65164846 -0.14914282 0.30991104 0.10855194 0.077086836 -0.531787
