1052 80
537 -0.33856314 0.03473851 0.21623142 0.053026967 -0.21325454 0.44994307 -0.008444738 0.166397 0.0077455062 -0.042140108 -0.054846376 0.081050955 0.09215085 0.10796083 0.22801109 -0.12936553 -0.000423845 0.071425565 -0.12575771 0.07147379 0.02851756 -0.0018599615 0.10846831 0.25673646 0.07415459 -0.18005526 0.25820827 0.08219794 -0.0037080117 0.3208957 0.08709233 0.48855487 0.14785068 0.11869246 -0.028721368 0.013015356 -0.2151226 0.1591304 -0.22878622 0.071716875 -0.039985344 0.03445718 0.08229215 -0.060651597 -0.22176985 0.23035277 0.017152952 -0.13888666 0.07639931 -0.13001886 0.11960585 -0.13178802 -0.19197465 -0.17626421 0.036381893 -0.010833172 0.03397596 0.30640066 -0.07884054 0.110990435 -0.17340624 0.2880794 0.0074889767 0.19387095 0.33856702 -0.093331836 0.061483037 0.09065442 -0.018112438 0.13070041 -0.017084397 0.22300859 -0.13906816 -0.1506298 0.018274799 0.104005404 -0.077524595 -0.017509764 0.36397937 0.035493795
339 -0.13672668 0.03667745 0.031715896 -0.10860574 -0.54973316 -0.008762416 0.08378438 0.09906541 -0.13758911 0.22496189 -0.19828019 -0.15742868 -0.11972091 0.05397754 0.079192206 0.10454224 0.09327437 0.04765537 0.101736434 -0.009295927 -0.0716845 0.2227582 0.25637686 0.06740834 -0.063631505 0.02155668 0.008669989 0.23379897 0.0010822692 0.10296076 -0.13171297 0.13871609 0.20323509 -0.05247812 -0.08939004 -0.03323462 -0.19016172 0.23396996 -0.1709337 0.018566128 -0.002450464 0.21634641 -0.22830148 -0.024608029 -0.11948156 0.38451952 0.20137271 -0.07210452 -0.17580526 0.029231079 0.09066623 0.30376124 -0.050305795 -0.15291779 0.10039139 0.20199765 -0.1163374 0.02566135 -0.21484087 -0.03397177 0.089372694 0.36892706 0.13324285 0.2097964 0.15116663 -0.2382942 0.19441544 0.05121043 -0.20598271 0.16269623 -0.14033091 0.2727933 0.005178962 -0.08407643 -0.09683407 -0.023267373 0.035142373 -0.108794354 0.22685626 0.2509986
46 0.1252936 0.12508574 0.3701697 0.6813692 -0.14834917 0.6606983 -0.050956983 -0.03802598 0.013506226 0.17491443 -0.97786003 -0.043435056 0.4076689 -0.12304494 0.15083966 0.61456186 0.7347539 -0.7263446 -0.13333756 -0.27192345 -0.043119773 -0.35488096 -0.014267713 0.19222741 0.033524726 0.009314791 0.17725766 -0.46989685 -0.083845384 -0.56790763 0.15274425 0.37927058 0.10850822 0.057466313 0.2623013 0.6176844 -0.24049199 0.05917506 -0.064500555 0.678823 0.10269018 -0.4352616 -1.1045631 -0.3926521 0.0052342187 -0.3825294 -0.06855092 -0.1690386 0.18185198 -0.61194134 0.34695283 -0.13675094 0.2292116 -0.47902468 -0.16369438 0.6159462 0.02701564 -0.29267195 0.026320586 -0.3492101 -0.24640583 -0.3269899 0.41510123 0.23830938 0.19716036 -0.53456205 0.40217325 0.113378674 -0.33256876 0.38929966 -0.3527283 0.20219891 -0.2460448 0.07400323 -0.011466576 0.32971478 -0.50978416 0.25794503 0.032800138 -0.2696358
92 0.20218219 -0.032784265 0.10223142 0.29989806 0.019830402 0.25431395 -0.0011443293 0.02483302 0.14143293 -0.08573789 -0.7483713 -0.15433888 0.054870512 -0.089238286 0.15542294 0.4316777 0.2704219 -0.40366048 -0.09745945 0.10043034 -0.022146123 -0.42681032 -0.01490209 0.08310461 -0.09127823 -0.27847695 0.30357438 -0.005260378 -0.16623987 -0.10344057 -0.4029359 0.27990654 0.22922964 0.08459588 0.26935112 0.2825987 -0.46420795 0.29589856 -0.20833881 0.15546238 -0.055823516 0.012789553 -0.9725004 -0.04702163 -0.2070599 -0.15960138 0.29294252 0.09079792 0.024968252 -0.38973144 0.03805483 -0.17574926 -0.121793665 -0.459102 0.277305 0.3252191 -0.1681195 -0.2563148 0.3788606 -0.20628533 -0.1558843 -0.08644958 0.27744883 0.22809592 0.060820673 -0.30440196 0.08775549 -0.051469408 -0.4196292 0.32412046 -0.35228506 -0.023591552 -0.39888626 0.21875937 0.2721903 0.47013572 -0.5404384 0.13748592 -0.08047194 -0.07842114
24 0.12701465 -0.0036071604 -0.15837008 -0.15819275 -0.034634165 0.0034432919 0.012313006 0.3969411 0.021431323 0.08582221 -0.52011293 0.3728413 0.22448395 -0.15347786 -0.2641972 0.28338665 -0.07102434 -0.119275674 0.13607712 0.08178295 0.47077078 -0.105442286 0.114905074 0.058831517 -0.14634353 0.24079937 0.005182638 0.102035664 0.30990934 0.3781957 -0.14799818 0.47157788 -0.08376903 0.036935605 0.17817076 -0.14919423 -0.3344144 -0.032693427 0.503554 0.010548505 0.078134954 -0.25175464 -0.11506291 -0.17995043 -0.07724186 0.6548858 -0.2548009 -0.13933559 0.24295372 0.07369277 0.53281 0.26675397 -0.5899274 -0.19048254 0.09086561 0.56780213 0.57765317 0.2817716 0.16277036 -0.029664112 0.017268324 0.5211518 0.1423498 0.23055142 -0.005675371 0.104881935 -0.12779166 -0.55244595 -0.101101995 0.33943045 -0.072369024 -0.019030258 -0.1391869 0.16355845 -0.46744254 -0.037870873 0.19356063 0.10596461 0.47420964 -0.045508396
9 0.08517156 0.3966985 0.3318868 -0.034158442 -0.063786715 0.0022180264 0.27790892 -0.0049465657 0.2351973 -0.25484574 0.03557671 0.22411221 -0.05688849 -0.10676046 -0.03871545 0.17914918 -0.33896968 -0.40299407 -0.13123026 -0.07435558 0.19659755 -0.04575174 -0.044520114 0.2946067 0.19468965 -0.21608856 -0.23493604 0.3411625 0.04796652 0.05950071 0.36944777 -0.047265396 0.3422044 -0.19789666 0.02830559 0.39103198 -0.0070349528 -0.21921201 0.050667908 -0.3047201 -0.11513081 0.086636364 -0.15632124 -0.039617553 -0.084389776 0.4346736 0.19393036 0.23728836 -0.17995262 0.06808782 0.4300954 -0.12260745 0.06470953 0.025259573 0.24489726 0.25061136 -0.21583225 -0.07841224 -0.09228723 -0.27825558 0.41862947 0.15924804 -0.1883571 -0.07394016 0.033594415 -0.0055748923 -0.1578415 -0.07644605 -0.07359275 0.16364244 0.33239225 0.58456624 -0.5321985 -0.16953203 0.0039424063 0.121925026 -0.007840006 -0.11760436 -0.02482927 0.18853545
5 0.12203516 0.12459506 0.49179342 0.43646514 -0.47870448 -0.21450856 -0.16477402 -0.220208 0.09421229 -0.031586565 -0.40312302 0.36003956 0.048937332 0.5538255 -0.22264047 -0.0012687397 -0.35615233 0.11473868 0.095978856 0.40117 -0.08578772 0.23786661 0.09126066 0.42516592 -0.44931987 -0.19203767 0.13717152 0.24951705 0.32036507 0.07641098 -0.31987855 -0.022376938 0.058525 -0.12686218 0.07265241 -0.15921004 -0.41830316 -0.0035102288 0.55275893 -0.21396703 0.11640881 -0.09501231 -0.062121343 0.07086266 -0.38238195 0.114400364 -0.1825698 -0.31666794 -0.061069604 -0.07564737 0.43129444 0.01636416 0.09383005 -0.08207342 0.05738683 0.23444693 0.07831667 0.119371064 -0.17592016 -0.096386686 0.22194766 0.328172 -0.23663807 0.17082168 0.51322967 0.08034354 0.08264444 -0.07036064 -0.2505 0.03205478 0.30927655 0.07273411 -0.50205106 -0.053418882 -0.065872796 -0.35413963 -0.40939185 -0.19140783 -0.059612572 -0.035915155
377 0.019560233 0.15668449 -0.041462556 0.2612835 -0.14808837 -0.16544946 0.3663231 0.015892321 0.18271936 -0.03523005 -0.1654986 -0.11395298 0.14231472 0.012953497 -0.06443214 -0.013276474 0.14835458 -0.09614668 -0.03634471 -0.085908934 0.3523205 0.08831938 -0.25627983 0.21363257 -0.018052982 -0.11854541 0.23417649 0.43317065 0.29993805 -0.057255648 -0.2197399 -0.25661197 0.08342593 -0.12015506 0.00531903 -0.08851454 -0.08740048 0.0056486814 -0.14330824 0.29767027 0.04264727 0.061015066 -0.10564303 0.4928739 0.15691905 0.13966827 -0.10325917 0.35761842 0.074525006 -0.15596709 0.349893 0.16898623 0.030560786 0.11606253 0.21271124 0.4650305 0.02635412 0.18303092 -0.3108302 -0.34500548 -0.28939977 0.37051857 -0.068845324 0.23997092 0.025308795 -0.2597768 -0.31975973 0.45206213 0.15128171 -0.07373537 0.008715279 0.09861366 -0.15651436 0.010192506 0.27126664 -0.1966005 0.0321074 -0.190329 0.3481633 0.46942258
244 -0.28375155 0.3251114 0.30599347 0.113788955 -0.04122824 -0.3721405 0.35980812 -0.09141096 0.049215972 0.38644165 -0.09325477 -0.11710914 0.07469367 0.010167841 -0.34065583 -0.1462677 -0.13484217 -0.27878022 0.22270559 0.09548739 0.25482762 -0.23051597 -0.058604613 0.14581972 -0.27089524 -0.09458518 -0.14704856 0.066637516 0.09514414 0.22061269 0.33276483 -0.0418747 0.16952273 0.024450324 0.06762069 0.1326155 0.30424145 0.374208 -0.043696478 -0.13342145 -0.03309087 -0.069839746 -0.121474765 0.20528744 -0.05876215 -0.15637395 0.07194766 -0.2858801 -0.13139516 0.104542345 0.36652195 -0.037772253 -0.06604523 -0.022706801 0.280145 0.15447779 0.32243508 0.4194826 -0.26981995 -0.49370065 -0.049902603 0.29612133 0.22424395 -0.042362865 0.3826232 0.041190397 -0.048786353 -0.05812277 -0.055286225 -0.048855245 0.20632915 0.22914727 0.13929921 0.23840703 -0.036952704 0.227241 -0.0058278088 -0.09951118 0.198574 -0.03427429
742 -0.37571287 0.23940809 0.40155014 0.4638529 0.19906281 -0.038354654 0.0016770673 -0.1703924 -0.12259602 0.031170983 -0.41636586 -0.12375134 -0.012473643 0.41224143 -0.24175932 0.03373845 0.07956948 -0.13663444 -0.29913363 0.31111786 -0.015766736 0.1446651 -0.021165647 -0.14962731 0.33314878 0.12488314 0.26996002 0.10327015 -0.0048630307 -0.21063857 -0.15582687 0.12350773 0.13324066 0.25683236 -0.07130607 -0.058852 -0.12355636 -0.02713668 0.080647446 0.31152838 0.077086285 -0.22152705 -0.38513964 -0.2347371 0.23424605 0.074242845 0.22383831 0.13097176 -0.3160046 0.07370345 0.1666106 -0.12591021 -0.13537027 -0.31856441 0.49519843 -0.06485343 -0.14093581 0.19094579 0.2749581 0.14118458 -0.1639216 0.39656487 0.15148097 0.14744635 0.05297149 0.07567666 -0.017997159 -0.31152493 -0.4582984 0.07795859 -0.21023577 -0.07964779 -0.0054374663 0.15987812 -0.034843273 0.12434896 0.21474996 -0.06609706 0.20133768 0.49986354
301 -0.01944922 0.15890929 -0.044868384 -0.07922485 -0.29145384 -0.124107935 0.3138048 -0.035798535 -0.14158651 -0.12575781 -0.1975443 0.15841644 0.31321305 0.021101184 -0.06663473 0.18391205 -0.21632224 -0.14843449 -0.05538008 -0.032984182 0.42907983 0.00492113 0.15153593 0.43100935 -0.022499518 -0.14741012 -0.18296862 0.23483987 0.19843423 0.25265047 0.42027983 0.058113255 0.3910447 -0.19660883 -0.031020073 -0.12709828 0.28648186 0.3995692 -0.07125598 -0.009861707 -0.11545452 0.09328441 -0.3413693 -0.19785753 0.05980164 -0.0784918 -0.037459135 -0.053461246 -0.1658302 0.2121726 0.08495718 0.07749248 0.12688302 0.04298402 -0.045811307 0.35494456 -0.10573598 0.060184903 -0.29331565 -0.2043325 0.07546806 0.20868582 0.0012766921 -0.09563431 -0.11381717 0.06694267 -0.5008015 -0.068906896 -0.025879433 -0.04506273 -0.4151832 0.19670366 -0.27242178 0.096076265 0.02786124 -0.2932016 -0.15641007 -0.04918552 0.052043978 0.10019511
37 0.18567158 0.07759436 0.115347326 0.046055466 -0.034367636 -0.10995481 0.19277765 -0.18302236 0.031833574 0.07739751 -0.09244098 0.1142486 0.36512902 0.269962 -0.012448169 0.126104 -0.19612466 0.15235406 -0.13051926 -0.029175252 0.046048738 0.29114702 -0.012516345 -0.042746782 -0.0031182182 -0.008513364 0.17455348 0.007515815 -0.2726774 0.22926341 0.24998626 0.18738475 0.24244295 -0.20363773 0.06691328 0.15278615 0.044858143 0.51849395 -0.13546537 -0.033895846 0.006428027 -0.24327189 -0.39721587 0.26953915 -0.30118448 0.027747693 -0.19706738 -0.50986785 0.08321149 -0.07815795 0.16384242 -0.07598512 0.035210885 -0.07009299 0.08541827 0.2206641 -0.017782727 -0.056262676 -0.09613417 -0.2614581 0.028298892 0.45769492 0.2908798 0.24469134 0.09724894 -0.029807832 -0.30794892 -0.10080328 -0.0076460256 -0.0075257844 -0.07962682 -0.20841129 0.107522 -0.14560916 0.38846293 0.08095702 0.023589425 -0.05879796 0.06880528 0.098780036
504 0.036425784 0.089558095 0.72623426 -0.012541097 -0.38417473 0.2422959 0.19572489 0.1978013 0.26566175 -0.07502445 -0.33167398 0.366369 0.28883445 -0.22087263 -0.26290208 -0.07505925 -0.102611996 0.34607702 -0.087717116 0.009229459 0.072200835 0.15966362 0.28345785 -0.178945 -0.10447568 -0.150153 0.03910259 0.2242108 -0.12956885 0.14577246 0.2916207 0.13952869 -0.040421546 -0.31794512 -0.23832947 0.13564685 0.29055807 -0.14183302 -0.39908424 -0.027982928 -0.12894489 -0.111099176 -0.40425625 -0.20343679 -0.17121123 0.07896142 -0.117989525 -0.006890332 -0.12634905 -0.20284359 0.056671716 0.16922612 -0.043690495 0.31139657 0.053450767 0.47126365 0.007802619 -0.08216163 -0.46048358 -0.07484521 -0.017133381 0.12766808 -0.33985436 0.08061562 -0.06425963 0.36539137 -0.25492647 -0.09711357 -0.24269348 -0.009414852 -0.54479027 -0.100678764 -0.06808884 -0.18176487 0.12691693 0.09826644 0.014164772 -0.12766957 0.15895297 0.22401762
463 -0.27938607 0.123704895 0.003044381 0.012318213 -0.3330753 -0.06719901 -0.0068802987 0.08589482 0.0814332 0.07407233 -0.28140247 0.05992299 0.30114356 -0.043046616 -0.40563324 0.077963986 -0.18600419 0.16972329 -0.2410051 0.0984592 0.24199352 0.13927338 0.046957567 -0.13642046 -0.055769004 -0.10637855 -0.23024699 0.23502426 -0.32994297 0.18153898 0.29215935 -0.10733682 0.26501995 -0.09800378 0.10544259 0.13573086 0.30858442 0.30085006 -0.16327195 0.13541551 -0.30631682 0.13273698 -0.45193085 0.3183722 0.06584655 0.26981798 0.12845236 -0.026277231 0.08438007 0.09141384 0.1405902 -0.15959431 -0.30150482 -0.35184723 0.15613273 0.16700801 0.029705334 0.28510305 -0.12035364 -0.048738886 -0.08775647 0.035434723 -0.08226998 -0.01269028 0.1478324 0.15922125 -0.1592836 -0.01612625 0.0687025 0.25424802 0.0852038 0.5125912 -0.006746096 -0.22205521 0.18129373 -0.006153662 -0.017504996 -0.002880371 -0.23452567 0.45661467
623 -0.15545568 -0.0529344 -0.12899016 0.11400994 -0.10076051 0.3090209 0.46654347 -0.06091745 0.052373264 0.1073956 -0.11298326 0.1472868 -0.11859169 -0.01987193 -0.15359068 -0.015955476 -0.3404338 0.065375686 -0.08127646 0.46127197 0.33601967 0.17093243 0.29041985 0.1653241 0.004770106 -0.013313264 -0.07337763 0.20409662 -0.062042873 -0.07944389 0.30563888 0.4771092 0.079614185 -0.29391417 0.3647592 0.27696937 -0.036316648 -0.4057682 -0.004281126 -0.31989685 -0.108739346 0.060966957 -0.16126142 0.47241434 0.3162791 0.19286586 0.16606838 -0.13560249 0.085624255 0.053176124 0.58727413 -0.009145051 0.1602279 0.26440847 -0.10684598 0.13944039 -0.08644724 0.3048855 0.22199872 -0.0148584265 -0.19299261 0.025114182 -0.36865819 0.16835834 0.17688122 -0.49984303 -0.021742478 -0.21942176 -0.60217345 -0.05731711 -0.21408668 0.122009866 -0.49951717 -0.08959594 0.0028876434 0.42357677 0.15782392 -0.151982 0.040481437 0.46432912
660 -0.18360962 0.13466324 0.40462086 0.19602442 0.124167874 0.06739132 -0.1472431 0.38607776 0.23346922 0.17664713 -0.04294686 0.47392946 0.069422625 -0.14825502 0.30895048 0.19050196 -0.23455742 0.23782936 0.36777508 0.105000734 0.48957053 0.2503554 -0.2933551 0.23634654 0.17826141 -0.19571662 0.14643209 -0.313884 -0.23005866 -0.17215689 0.29797563 0.40603265 0.18163201 0.1295894 -0.05101214 0.031586908 -0.2246188 0.03760939 -0.14722367 -0.06860587 0.2937404 0.29501966 0.11391536 -0.13951178 0.07407708 0.20438316 0.031114772 -0.39915434 0.15000218 -0.29163125 0.15069076 -0.3242512 0.07186453 -0.10927158 0.29846436 -0.12124031 0.35255012 -0.21095355 0.16143104 0.13650887 -0.27078283 0.46460772 -0.3079658 0.22672552 0.21883425 -0.09944924 -0.15964752 -0.116525605 -0.4559449 0.013270138 -0.12981448 0.13401183 0.039721042 -0.029775003 0.08347728 -0.067429684 -0.041685563 -0.3089348 0.5145732 0.438519
620 0.04614748 0.10231451 0.06939446 0.043757506 -0.22987433 -0.24660042 0.27495617 -0.24397168 -0.19473773 -0.3756017 -0.14700423 0.07934309 0.6834488 -0.009412667 0.0690887 0.19303243 -0.03250143 0.073038265 -0.035167497 0.014186263 0.2261385 0.35182098 0.16537717 0.016391763 -0.03246088 0.13823724 -0.13965158 0.22911035 -0.10852445 0.43505248 0.3088561 -0.2015421 0.1219762 -0.022939002 0.028627647 0.0836889 -0.11225155 0.10826534 -0.00021356878 -0.1715549 0.3004572 -0.12995924 -0.3557824 -0.3814416 -0.02609273 0.4578124 -0.03592726 -0.11967057 0.46091354 -0.40586975 0.3725037 0.069118574 -0.06414386 0.12149539 0.32486326 0.06134076 0.027693514 0.26665717 -0.16089219 0.016053168 -0.31225073 0.17709312 0.22099002 0.08248076 -0.20162678 0.11736756 -0.058812857 -0.51880103 -0.20393696 -0.11889049 0.22566888 -0.053217452 -0.013194724 0.008809997 -0.5311758 0.22529654 -0.04102591 0.17281108 -0.080402724 0.4237327
13 0.49942818 -0.22447366 -0.23026943 0.9128583 -0.21819597 0.34517583 0.6331039 0.12824418 -0.18605627 -0.19801484 -0.18047716 0.48824003 0.52400005 0.15233202 -0.17222537 0.4305308 -0.23054177 0.14247581 -0.755326 0.1818957 -0.2561141 -0.11353096 0.10099543 -0.27384108 -0.5101009 -0.1160636 0.18868436 0.3736151 0.4177731 0.34115335 0.28045744 0.28366175 0.74008334 0.06270529 0.87794924 0.46522942 -0.36449045 0.42403913 -0.1999383 -0.31013125 -0.3698419 0.025150811 0.16592571 -0.46346074 0.579176 -0.04437378 0.13706885 -0.5312983 0.6435122 -0.096039444 0.71684206 0.8698917 0.3561242 -0.85610133 0.20207429 0.40641776 0.010082217 -0.8097865 -0.22257249 0.012745734 -0.27715257 0.583959 0.17396042 -0.45260197 -0.19634214 0.5062901 -0.43774858 0.27702528 -0.2990215 0.32065192 -0.24691997 0.12194955 0.4179765 -0.04469121 0.63751656 0.5257439 0.21128199 -0.15832585 0.07138788 -0.8036998
90 -0.10464009 0.3685613 -0.15173668 0.20161903 -0.11567988 0.17160237 0.15505408 -0.45685476 0.28023934 0.20551878 -0.412086 -0.00060809887 0.39799008 0.09257757 -0.38943452 -0.0042385207 0.20116432 0.006677658 -0.10942398 0.1441199 -0.15272672 0.0923802 0.21321993 -0.012861087 0.08013871 -0.5286032 0.07686384 0.09845699 0.0074398434 0.32894668 0.3253361 -0.036955748 0.30780348 0.2359992 -0.418061 -0.6235828 -0.15496254 0.3675719 -0.19172435 0.019086633 0.02155463 -0.16837907 -0.14873081 0.11583975 0.0285918 0.53469455 0.25759336 -0.32833758 0.36823675 -0.2652206 -0.029855328 -0.021545636 -0.0676965 -0.31367877 0.16156791 0.2565001 -0.10995321 0.075860806 -0.13365015 -0.2421115 -0.114808895 0.003909156 -0.28799084 0.3367704 -0.18278961 -0.059106875 0.24281117 -0.15667993 -0.06797717 0.106317736 0.5527455 0.06911452 -0.33475247 -0.18760304 0.020599416 0.01324042 0.21461101 0.18104674 -0.1489558 0.048648365
736 -0.014146242 0.36259302 -0.1085213 0.31227088 -0.009046613 0.46224198 0.387128 0.28722587 -0.061209828 -0.039064486 -0.14400971 0.06480186 0.3409068 0.36552107 -0.29304954 -0.033093184 0.090618394 -0.29844797 -0.30775762 0.17278323 -0.2482434 0.35505164 -0.034327205 0.11164783 -0.09535037 -0.25273016 0.18075426 0.55705255 -0.30588922 0.05691226 -0.12556031 -0.048774265 0.22788836 0.10217794 -0.44791588 -0.39994106 0.08527826 0.29631916 -0.019868396 -0.24749598 0.3659286 0.40528715 -0.059100844 -0.030007988 0.22471048 0.3264755 -0.3156769 -0.34657755 -0.17574798 -0.3925453 0.3624697 -0.094679244 -0.18119825 0.10045292 0.5415825 -0.008129427 -0.060833115 0.21761894 -0.14048834 -0.38136232 -0.80772847 0.14708458 0.11138891 0.26693407 0.03655605 -0.41641322 0.43949845 -0.8683399 0.0004800205 0.12404991 0.26599377 0.026788807 -0.24725991 -0.02245548 0.08163984 -0.28655884 0.04667533 -0.16025653 0.25447267 -0.22988199
570 -0.13013563 0.15196237 0.39588487 -0.095631376 -0.09704032 0.003077936 -0.08917256 0.4733994 0.505249 0.0470651 -0.039292835 -0.14568749 0.0072122626 -0.07494275 -0.031086877 0.2416141 0.25173008 0.10476796 0.037149332 0.22239381 0.02022101 0.13871928 0.13281944 0.07853527 0.035945717 0.060214005 -0.049496118 0.034576677 0.20822774 -0.27006745 -0.016929409 0.19023651 0.5138304 0.07068368 -0.19759333 0.42715687 -0.27089688 0.3302422 -0.067327194 -0.07472209 0.50428057 0.04936882 -0.12572637 -0.17325625 -0.087846555 0.09954284 -0.05567296 -0.15790506 -0.09891209 0.2723137 0.08871223 0.02689856 -0.04746344 -0.16891466 0.44971907 0.023147888 -0.0010895941 0.07201808 -0.15110749 -0.2294665 -0.35223928 0.3017014 -0.35092354 0.26982167 0.061653465 -0.028958213 -0.3696856 0.120575756 0.022240382 0.18098359 -0.009915185 -0.09578345 -0.27830258 0.41098547 0.07275878 -0.0029656834 0.03735922 -0.66760117 0.63681114 0.13837291
28 0.23872024 0.25473624 0.013186599 -0.1002457 -0.14901598 0.110511705 0.39815193 -0.1367024 0.11611356 -0.28988308 -0.52489555 0.15799038 -0.3294708 -0.05057907 -0.3039506 -0.24112639 -0.20001765 0.1820385 0.0837554 0.17119569 -0.14636983 0.1797931 -0.13579719 0.08490373 0.29728404 -0.06426652 0.08163261 0.3183349 -0.010560792 -0.265043 0.26234987 -0.07748969 0.04437507 -0.3225299 -0.038876005 0.120241374 0.15799248 0.33779034 0.23872994 0.37265453 -0.05337839 0.14582919 -0.28610635 0.111086465 0.25132224 0.45466402 -0.19558074 0.1130484 -0.13768542 -0.022010924 0.38139728 0.08342104 0.18892787 0.008305299 0.290412 0.46258312 -0.3735378 -0.020958407 -0.40839612 -0.22157569 0.03907978 0.20320618 -0.16625793 -0.12655182 0.2266176 0.05593412 -0.2695742 0.18666035 -0.12686068 0.11573456 -0.21168007 0.25764978 -0.04426473 -0.014974286 0.24951248 -0.33938468 -0.13138928 -0.13738526 0.15242656 0.22781333
411 -0.014561799 0.045087744 0.270933 0.41560346 -0.13410512 0.18909252 0.27556598 0.12730888 0.088179156 0.046150193 -0.0448806 0.49666446 0.28549746 -0.34218162 -0.52289724 -0.055131644 -0.30948374 0.00909614 -0.051622484 0.12056103 0.3155204 0.031686053 -0.2828259 0.29543093 -0.13369241 0.14069653 0.059112962 0.4754374 0.027369177 0.20128225 -0.36070272 0.29153827 0.102310665 -0.08971742 0.32594466 -0.34159076 -0.11264558 0.28915057 0.13882333 -0.2760721 0.18793568 -0.52032745 -0.108315796 -0.35453403 -0.0026824193 0.720659 -0.2204361 -0.08099542 0.2596947 0.13033545 0.5455014 0.0014131363 0.01916933 -0.1834165 -0.12273854 -0.4562819 0.2009802 -0.05971461 -0.16791953 0.0196857 -0.078453414 0.29634917 0.1785477 0.4764479 -0.09818623 0.20581959 0.5349091 -0.3459044 -0.58269954 0.11390139 0.11572123 -0.2952805 -0.12574168 -0.0035174144 -0.27606228 -0.3100202 0.038469102 0.049995497 0.11232154 0.21474923
104 -0.22073607 0.3310404 0.13071856 0.2654177 -0.22898121 -0.13095503 0.13623318 0.028395882 -0.0588134 0.17770423 0.07940924 -0.010555496 0.3816202 -0.015541428 0.12406495 -0.12217769 -0.17645845 0.0012645804 0.0069570984 -0.1254198 -0.14670548 0.020612983 -0.0899442 0.37663487 0.0140875755 -0.014835364 -0.12033724 0.09847441 0.08779632 0.31550136 0.4267581 -0.46998355 0.11157034 -0.14962281 0.32028002 -0.17028156 -0.026572308 0.037583537 0.055630565 0.013366271 0.047450174 -0.19644837 -0.46281007 0.20430212 -0.16659948 0.22423458 0.120064765 0.1369169 -0.068033636 0.14834212 0.12714888 0.094397806 -0.09804467 0.16676705 0.46279377 0.39374858 -0.0025116438 -0.21450716 -0.10693113 -0.37070146 -0.24595411 0.5000544 -0.10755822 -0.11187248 0.10800047 0.06941509 -0.15080938 -0.0780029 -0.09212973 0.26314646 0.05577939 0.2884779 -0.23149315 -0.15219223 0.035310596 0.032618504 0.37242043 0.25124848 -0.17899518 0.3689744
250 -0.13535744 0.17648286 -0.18898487 0.13717523 0.04760646 -0.07208066 0.2729138 0.14762884 0.06256507 0.04201621 -0.34467444 0.1298435 0.27370062 -0.116690345 -0.33884177 0.28253305 -0.026453186 -0.110855214 0.10715106 -0.26624227 0.34947166 0.01800814 0.3849302 0.31276596 -0.065461844 -0.14587252 0.02646131 0.05901184 0.2170517 0.45292184 0.3038252 0.13793327 0.14215532 -0.52128017 0.12923732 0.10429587 0.19737521 0.15269518 0.16083707 -0.25437912 0.36672887 0.26930153 -0.48141778 0.31263354 0.11337148 -0.17223385 0.037284285 -0.006144706 -0.24592288 0.15804596 0.16999009 0.06950819 -0.3675427 -0.20615762 0.23498665 0.33457887 0.040994965 0.2095042 -0.52122504 0.07487861 -0.0030064364 -0.07109336 -0.07951076 -0.41357875 -0.07895136 0.037382104 0.11924191 0.20345715 -0.101324506 -0.08417215 0.052439645 0.2902942 -0.007510959 -0.18758115 0.22011103 -0.08505192 0.19095619 -0.34500065 0.14849184 0.22360411
35 -0.2639716 0.3371358 0.44087496 -0.14612226 -0.2014534 0.9771259 -0.15588559 0.33444175 0.15419513 -0.55127174 -0.2696713 -0.29650697 0.41703644 0.30946583 0.3078699 0.70680743 0.43158516 -0.15258586 -0.30122483 0.24868278 -0.27117744 -0.08159964 -0.027227005 0.3573535 -0.092027895 -0.013497797 -0.304197 0.14088899 -0.25526556 0.012274944 0.35881537 0.3191095 0.037003174 -0.34103635 0.26505905 0.16446254 -0.4120545 0.47723085 -0.036252324 0.23808001 -0.016222134 -0.093087785 -0.52267206 0.037213925 -0.14612143 -0.43957198 0.23806627 0.22188579 0.37760028 -0.15454002 0.20221701 -0.09543814 0.24099602 -0.15175956 0.097444974 0.37581658 0.5084664 -0.031535625 0.20553464 -0.0026551373 -0.12573636 -0.17014898 -0.074358694 0.43404388 0.27477485 -0.48020318 0.25621787 0.38785347 -0.65069443 -0.023942582 -0.10676048 0.45421153 0.055876028 -0.05686978 0.006438286 0.4012799 -0.38832855 0.89924866 0.50500274 -0.5553129
163 -0.27704465 0.3142414 -0.23341146 -0.014429062 -0.10159334 -0.09186285 -0.0051478543 -0.4573879 0.16040225 0.007195695 -0.0803855 0.23092896 0.2869045 0.2355845 0.027729122 -0.23754622 -0.1157201 -0.20219544 -0.01934685 0.5807622 0.2788003 0.2809291 -0.026041763 -0.27988333 0.15047479 -0.1432135 -0.1631555 0.25643057 -0.35796168 -0.3493448 0.019748751 0.034399614 0.01041358 -0.23080038 0.16368444 0.06495516 0.20850857 -0.045201387 -0.1886051 0.24723393 0.17314477 -0.083050564 -0.3493419 -0.0389288 -0.22014095 0.63844675 -0.0051427716 0.19667038 0.007696384 0.025797512 0.17309266 0.13740516 0.11102877 -0.25350505 0.29988703 0.43932244 0.086788565 -0.18640791 0.024642646 -0.17450942 -0.014519412 0.1442758 0.10138719 0.014139129 -0.005510751 0.031599417 0.10840956 0.083580434 -0.01934527 0.27967468 0.018918578 0.2102062 0.025895828 -0.1610421 0.46481615 -0.09664755 -0.31365836 -0.28288165 0.17658186 0.42508635
54 -0.11532658 0.3786531 0.14395125 0.36461747 0.25154155 0.28203377 0.2872355 -0.18437181 0.118637584 -0.23754527 -0.056416016 0.35929713 0.16429107 0.52967656 0.011010332 0.083958544 0.3183223 0.22744028 -0.35564852 0.40604576 0.039442047 -0.13186744 0.33941606 0.8017184 -0.61316735 -0.35162598 0.1193793 -0.387106 0.17499143 0.5920366 -0.6322708 0.36030665 0.53584474 -0.02067493 0.8984409 0.18849738 -0.05827299 -0.046423163 -0.37079474 0.13896787 -0.18763399 0.26029003 -0.06312735 -0.7323346 0.5616787 -0.27438942 0.11186404 -0.08023686 0.23589821 -0.3138967 0.40288875 0.8204989 -0.17457628 -0.28009683 -0.0875169 0.3421827 -0.1815904 -0.4893462 -0.3341638 -0.33213747 -0.32606098 0.69135666 -0.012427169 0.04967872 -0.07296994 0.11495954 -0.52740824 -0.11563239 -0.14653635 0.06466843 0.109967925 0.09164347 0.13423826 0.33084077 -0.0028826522 0.039464325 0.2057877 -0.25617084 -0.36890438 -0.42558858
596 -0.5258309 -0.05735904 0.26339477 0.38197201 0.060851842 -0.27015287 0.2814652 0.12639123 0.6735891 -0.18655697 -0.6266011 0.5566578 -0.041475557 0.35729355 0.012401276 0.13871957 0.28728807 0.3884385 0.17596732 0.14543685 -0.23105754 0.32315475 0.31101322 0.1417579 -0.35298836 -0.39165634 -0.10923652 -0.21452242 0.012132598 0.18561746 -0.48189995 0.21842852 0.19343793 0.19984838 0.25730237 -0.03518755 0.12673567 0.020407245 -0.0021409644 0.18418972 0.15646139 0.38690707 0.19346522 -0.075336464 0.33713138 -0.030262493 -0.05269462 0.014580428 -0.23005722 -0.39966464 0.18044485 0.46964765 0.024467168 0.25294662 0.48609903 0.100619115 -0.26668608 0.15912172 -0.15938781 -0.4315346 0.073699355 0.82356715 -0.23826788 -0.029801238 -0.09358041 -0.13269472 -0.0493903 0.41254628 -0.31221285 0.18156426 0.2885141 -0.2744129 -0.27137345 0.003808696 -0.091235794 -0.31230977 -0.20038526 0.08982916 -0.21684228 -0.19166164
22 0.030990005 0.11174011 -0.08594958 -0.03085806 0.06214779 -0.23014118 0.27252188 0.2693298 0.054739505 0.12189199 -0.032629542 0.22350198 0.31044948 0.19323884 -0.3252798 0.29464027 0.34719828 -0.35737714 -0.15838566 0.45423624 0.27427873 -0.0035674048 0.13182105 -0.005640082 -0.4319025 0.006312602 -0.06414222 -0.01862191 -0.071574956 -0.2454724 0.36650407 0.31208456 0.31563002 -0.0371625 0.06957425 0.25695512 -0.10702703 0.4492787 0.1457521 -0.31646943 -0.124025546 -0.026597874 -0.41235185 -0.06320695 -0.2580692 0.2661229 -0.36428976 -0.55512065 -0.31354383 0.40052128 0.2957105 -0.15941073 0.22624558 -0.14594792 0.1600311 0.394386 -0.029970497 0.16194738 -0.25286454 -0.5450412 0.09442756 -0.021343425 -0.030370964 -0.110167556 0.24137934 0.4566072 -0.37138596 0.30967432 0.2339267 -0.194678 0.02764527 0.10590514 -0.27218273 0.56824046 -0.3134589 -0.046983562 0.17840557 -0.24093552 0.24798149 0.47644615
39 0.113442816 -0.005605162 0.19496186 0.14593627 -0.045923546 0.08870347 0.094686486 -0.1935385 0.09824059 -0.15281533 -0.44590464 0.4629634 0.29309013 -0.027687583 0.017690418 0.051531836 -0.15148176 0.022068042 0.056592677 -0.24737282 0.35189578 0.23066293 0.16868874 0.45022136 -0.11840263 -0.3547692 -0.09588001 0.34895676 0.01820134 0.41552764 0.29102895 -0.0058080363 0.28519917 -0.045205798 -0.12913065 0.21793059 0.07878094 0.19268253 -0.13713335 -0.22890003 -0.1763245 -0.20895338 -0.3124102 0.20814317 0.13744134 0.38846627 -0.09287962 -0.002787413 0.1327464 0.4967013 0.0022986056 -0.05693785 -0.06638301 -0.2950532 0.13124245 0.5779651 0.00716284 -0.3548578 -0.5629337 0.095943935 0.08831632 -0.008050801 -0.4521634 -0.44506082 -0.5416129 -0.053847704 -0.24821663 -0.023396974 -0.31024313 -0.030939093 -0.25168535 -0.049954 0.09369967 -0.06894889 0.28909987 -0.028570857 0.13509312 -0.31085098 0.10253172 -0.22500919
585 -0.221716 0.47889104 0.010345203 0.13826233 -0.33739537 0.09219911 0.32878467 -0.3639508 0.13181528 0.22209345 -0.009389342 0.120662965 -0.13072765 -0.042699594 0.109097585 -0.20889539 -0.05037489 0.45103148 0.10429781 -0.05476022 -0.005235102 -0.14219306 -0.30626175 0.2381365 0.08617471 -0.3358586 -0.20902596 0.2319269 -0.0014741505 -0.03572384 0.10168616 -0.012589381 -0.31693247 -0.21001378 0.36897755 0.061094865 0.027990945 0.11914539 0.09462457 0.185892 0.2361847 0.0067109303 -0.31731978 -0.24088593 0.03969751 0.29289025 -0.51489055 -0.03675658 -0.08596519 -0.22266193 0.1100598 0.23543787 0.21185112 0.060849898 0.48505983 0.16891448 0.16041294 0.08885748 -0.20600216 -0.28020296 -0.40669614 0.6596389 -0.45126402 -0.0057972027 0.062265597 -0.21690089 -0.1899199 0.60371614 -0.102554336 0.15489879 -0.24318877 0.48511192 -0.29363823 0.0691595 -0.13815984 -0.42368573 0.297153 -0.080532 -0.010747623 0.11811108
679 -0.124906085 -0.32416317 0.018904561 -0.18650629 -0.07934568 -0.1320596 0.5882489 -0.43714973 0.15902945 -0.15248984 0.32667795 0.45490688 0.14563525 0.23445545 -0.28619564 0.12762383 0.52260417 -0.17819001 0.0140533075 -0.37696603 0.13954449 -0.23158546 -0.10192275 0.1330306 -0.6180274 0.13468604 -0.02096807 0.3822812 -0.04318602 0.1397661 0.30293047 0.37780276 -0.040312417 -0.049701083 0.4662266 -0.16888455 -0.28377014 0.23064932 -0.07919903 0.03799318 -0.15944164 -0.10537175 0.032468062 -0.2729519 -0.05317497 0.07925239 -0.1692384 -0.27817097 -0.15769784 0.11164317 0.29361385 -0.19326937 0.16481408 -0.087481074 0.50648576 0.28185105 -0.22521389 0.3130143 -0.111046754 -0.18983398 -0.64408326 -0.2699615 -0.14885464 -0.028943304 0.3310334 0.08964888 0.03993501 -0.353912 -0.54144746 -0.050071195 -0.09481935 0.4530728 -0.5087802 -0.018591834 -0.47906008 0.09059992 0.26375335 -0.6098974 -0.13621381 0.43945622
141 -0.4803087 0.1563017 -0.05775006 -0.06692911 -0.28624174 -0.066379845 0.20334247 -0.33721733 -0.1413115 -0.10203655 0.2667759 0.15791315 -0.41552028 -0.0896115 0.16647525 0.45707184 0.53542924 0.06872642 -0.35352397 -0.08860715 0.19473517 -0.026788816 -0.67171687 0.2899764 -0.18851192 -0.06402656 -0.1524859 -0.08670627 0.2331783 0.36906973 -0.09076495 0.242017 0.021148972 -0.36737946 0.10063845 0.22788557 0.00043720368 0.00597398 -0.26750612 0.27578586 -0.13532254 -0.09850935 -0.20426257 -0.3505603 0.2649387 0.29665083 -0.0072876844 -0.35170025 -0.07139975 0.1240771 0.07896251 0.24180423 0.15369976 0.0915834 0.2919747 0.44259608 -0.0031688663 0.26393327 -0.16363479 -0.04172816 -0.33437458 0.35274172 0.032554284 0.2154199 0.13189542 0.024662739 -0.25710514 -0.27486494 -0.29831696 0.0045137256 -0.19082263 0.5425867 -0.24249776 -0.031280015 -0.15537468 -0.3201208 -0.1187757 0.011693197 -0.24836096 0.1448283
255 -0.13885644 -0.28380945 0.3736186 0.20751473 0.092020385 -0.20205262 0.46534172 -0.0062264623 0.066562444 -0.21883467 0.13993266 0.082886316 0.004959386 -0.19421928 -0.8886022 -0.49433395 -0.14685689 -0.33676147 0.19965102 0.43867517 0.2754833 -0.2581208 -0.2644018 -0.079493076 0.20031784 -0.20562746 -0.48333448 -0.10510062 -0.17286971 0.43484068 -0.12975582 -0.56849265 0.13717555 -0.08557665 0.13199717 0.18719932 -0.32767585 0.27529034 -0.16201457 0.016424587 0.016578121 0.019313112 -0.117185794 -0.28028294 -0.41192156 0.62167037 -0.22295073 -0.62030643 -0.6375307 0.13087977 0.3966796 0.005766586 -0.28833216 -0.34880257 0.2421766 0.727353 0.3747631 0.45302394 0.055192243 -0.43167046 0.13617969 0.2995168 0.11934469 0.03433972 0.5153453 -0.11439011 0.010529281 -0.0055442904 -0.33879426 -0.24816166 -0.0918736 -0.0804723 0.113741174 0.23971027 0.018718095 0.47854647 -0.058565214 0.21269573 0.15769075 0.15664224
95 -0.11002303 0.28981888 0.65571475 0.04130009 -0.22923926 0.10738333 0.3855824 0.24188815 0.8142566 0.0016744406 -0.23493592 0.41327932 -0.11700028 -0.06987428 -0.000429808 0.4834162 -0.31512725 0.41265932 0.36627623 -0.028368533 0.15516342 0.30100486 0.3270276 -0.38114905 -0.025974078 -0.43266955 0.03201596 -0.16616654 -0.007176483 0.15214397 0.032205295 0.09148942 0.2390371 -0.17843923 0.18367611 0.07594426 0.31261644 -0.05215329 0.17615113 0.1542908 0.2224671 0.09464106 -0.09205697 -0.26399517 -0.056526467 -0.12128842 -0.47297913 -0.36978492 -0.030516092 -0.29249427 -0.04706657 -0.016090952 0.10139796 0.082141936 0.18830478 -0.051032066 -0.034646828 -0.089863345 -0.020673612 -0.2614101 -0.43279934 0.43581113 0.021175802 0.045895353 -0.050679024 -0.15121199 0.092626385 0.59452873 -0.20201282 0.35955945 -0.19982402 -0.23639369 -0.097829185 -0.1678273 -0.14572701 -0.15940389 -0.0057643047 -0.52665174 0.21486478 0.14225957
152 0.07513913 0.19269274 0.6764838 -0.13156214 -0.6614306 0.0023346886 -0.1069282 -0.037000626 0.14439122 -0.13911611 0.33042324 0.37317845 0.84843326 -0.4692511 0.17474608 0.46560952 -0.11941998 -0.13659559 -0.09514009 0.32554284 0.3872531 -0.44866672 0.08742273 -0.36050478 0.34686518 -0.35886347 -0.07921085 0.28769162 0.43824315 -0.21231489 -0.35652947 0.45217434 0.18230888 0.14173561 0.036047913 0.1966195 0.36202785 -0.112456754 0.21610774 0.09110084 -0.46499193 0.49484894 -0.3241278 0.122244924 0.035836067 0.36149526 0.25465608 -0.2752915 -0.20009401 0.3871586 0.7259239 0.23725712 -0.33567342 0.029170442 0.32251537 0.97193366 -0.31340566 0.18388064 0.566078 -0.37345803 -0.20554757 0.33488032 0.2369019 0.1282247 -0.35166103 -0.22149375 0.43984655 -0.38303804 0.35735062 -0.62360114 0.17097123 0.26978242 0.108712286 -0.58958244 -0.018996034 -0.4618286 -0.1314629 -0.39106473 0.29807365 -0.21523081
100 0.010877271 0.36029986 0.014285147 0.011690717 -0.14277042 -0.16408865 0.24886832 -0.08719154 0.101557456 0.04129871 0.16125101 0.30434468 0.31197903 -0.23863582 0.17774667 0.20222275 0.26415798 -0.14897835 -0.36866602 0.24284378 0.25031117 0.48371574 0.009609871 0.14397494 -0.18957005 -0.23386109 -0.39073423 0.03979069 -0.20047212 0.3667587 0.47289938 -0.08127076 0.2023087 -0.1400576 -0.19018053 0.1526863 0.06670483 0.14286621 0.18608731 -0.102284186 -0.028455991 -0.16016649 -0.45024887 -0.00857424 0.05137835 0.23072524 0.086481385 0.029992111 -0.15575056 -0.09503108 0.454787 -0.22652353 -0.24254175 -0.036417983 0.26901644 0.37142536 0.08455275 -0.069726124 -0.0025377066 0.120171726 0.16800638 0.11974181 0.085319646 -0.4588272 -0.2627368 0.044597086 -0.23393518 -0.04948715 -0.29965582 -0.020973617 0.17306416 0.42916226 -0.31469354 -0.15932329 0.18258354 0.03161575 -0.04679811 0.08671412 -0.24222985 0.46249017
132 -0.18789984 0.35329017 0.1382594 0.014465773 0.2047789 -0.38217598 -0.1208061 0.12297978 -0.17229043 -0.07455518 -0.1386618 0.03679637 0.15907037 0.0061264313 -0.1654388 0.053005166 -0.10307381 -0.07523307 -0.09884499 0.33696243 0.08464942 0.07427227 0.11631843 -0.08992975 -0.12934235 -0.18689044 0.41689152 0.104412176 0.1642446 -0.07086699 0.15691085 0.34650236 0.54040116 -0.20636606 0.048433166 0.13455342 -0.1744235 0.18775319 -0.098575525 -0.0398912 0.3489371 -0.18753594 -0.32584292 0.019962925 -0.29460877 -0.37614107 -0.06972875 -0.020759795 -0.2759428 0.26661313 0.1690505 0.18278465 -0.08117534 -0.10568262 0.34246635 0.09080571 0.08911551 0.3337145 -0.50152004 0.13141589 0.075334504 0.23724534 -0.05922117 0.23582534 0.08093848 0.17596044 0.20449477 0.012893548 -0.11324067 0.32651222 0.18305755 0.16695917 0.07455355 0.17636333 -0.12437492 0.24157107 0.15935163 -0.2959129 0.44170278 0.08545046
136 -0.8890391 0.35494903 0.51152277 -0.5215017 -0.3714661 -0.18564776 0.22287133 0.10991391 0.1666195 -0.0087085 -0.54711246 0.05180027 0.06672789 -0.0421679 -0.2216285 0.40640208 -0.36607125 0.08284607 -0.054257903 0.27903754 0.01820744 -0.08508222 0.17924821 -0.25360447 -0.48735496 -0.22344592 0.42974204 0.35301456 -0.14138968 -0.2234007 0.26693878 -0.45767367 0.2162598 -0.15614443 -0.13099824 -0.15459906 0.18897837 -0.2795829 -0.44887215 -0.22329432 0.10593782 0.048224997 -0.059593186 -0.22580604 -0.24979585 0.40796113 -0.060024627 0.449657 0.18403688 0.0424071 0.21779719 0.13549021 0.31151676 0.12940554 0.3671534 0.6598751 -0.1791388 -0.6319768 -0.09155523 0.0031292408 0.36348915 0.35036454 0.44312766 -0.12163558 0.47711328 0.017562626 0.1515437 -0.2464947 0.34464273 0.23612334 -0.835716 -0.07964726 -0.24182786 -0.40239826 0.008814572 0.18831526 -0.07407477 -0.16787602 0.24280418 0.306634
251 -0.11347852 -0.0048506693 0.19803822 -0.09965863 -0.31906864 0.10212875 0.14399406 -0.18640915 0.13612184 0.0972287 -0.08952329 -0.10648159 0.17430516 0.32524714 -0.17073646 -0.13400869 0.08880654 -0.16328241 0.21672988 0.33506143 0.25777006 -0.2251987 0.28058144 -0.24296705 -0.097873725 0.31012884 -0.09989795 0.34557885 -0.18402508 0.23536724 0.027660869 -0.093508564 -0.18137607 0.13232309 0.23832554 0.095455386 -0.1419045 0.37873402 -0.32363775 0.23317778 0.074141294 -0.19991423 -0.1907845 -0.258652 0.0025749314 -0.08316064 -0.045131058 0.00900999 -0.17639688 -0.09154562 0.49881032 -0.20727351 -0.09141528 -0.34999195 0.38751927 0.21178618 -0.054484848 0.14501327 -0.22596836 -0.07300028 -0.3024321 0.29872164 -0.011687859 -0.18361893 -0.1804492 0.1090801 0.32730678 -0.5290854 -0.16144215 -0.0061425786 0.1345555 0.5013267 0.18983544 0.24931978 -0.10279467 0.096388236 0.08843139 -0.0035591545 -0.2801849 0.8589667
513 -0.13600552 -0.1448161 -0.020483522 0.44041067 0.17980708 0.025213666 0.50082296 0.003913108 0.17258444 0.004361828 0.3556198 0.07534002 0.08915875 -0.10422609 -0.026633762 -0.4759167 -0.013642129 -0.44081885 -0.13443866 0.23364314 -0.038816895 -0.10465107 -0.2043105 0.057740204 0.24588081 -0.008965127 -0.10188098 0.18221416 0.003346823 0.26213554 0.2866622 -0.112296514 -0.034737892 0.3312648 0.12752171 0.0443908 0.19606882 -0.1004179 -0.14043553 -0.034759134 0.13144095 -0.042726856 -0.24164349 -0.14117625 -0.4724604 0.48207214 0.180501 -0.026774116 -0.13417962 0.16791585 0.24172382 0.0046166717 -0.059587687 -0.091034144 0.48329514 0.4415336 0.2740066 0.08777429 -0.035114415 -0.30702394 0.028483689 0.22246578 0.19279686 -0.04720563 0.4361762 0.006537054 0.06719849 -0.118491374 -0.46512327 0.08806037 -0.12365379 0.10970736 -0.16654123 -0.120459914 0.3758131 0.3923899 0.084295794 -0.41035825 0.12531622 0.11345481
60 -0.29592562 0.09796288 0.005191281 0.10966968 -0.24751912 0.29213306 0.1865808 -0.035587937 0.13560113 0.02308329 -0.0009858974 0.23063289 -0.08727018 -0.2714516 0.14103334 -0.092428185 -0.21818781 0.40111628 0.34576127 -0.22427581 0.0060463063 -0.031253844 -0.16653673 0.1614047 -0.20738311 -0.27501768 -0.03456995 0.012360888 0.037277717 0.057549097 0.42400146 0.47906736 -0.11040473 -0.34379756 0.0008271146 0.040361688 -0.09847555 0.11386725 -0.12877576 -0.063949205 -0.05164487 -0.05497616 -0.2142496 0.0023079982 0.21807124 0.094924 -0.060754374 -0.18050563 -0.19853713 -0.036000125 0.50657386 0.11216028 0.32201225 -0.16425636 0.29229084 0.11294916 0.07774605 -0.15189108 -0.27786514 0.067123376 -0.37387335 0.06306788 -0.37264866 -0.034431502 0.04771505 -0.017226236 0.028075501 -0.031995285 -0.2479428 -0.2666361 -0.31938994 0.089276254 -0.43222383 -0.01680689 -0.20026319 0.22393857 0.1050754 -0.3249996 0.13670042 0.38064831
666 -0.088283926 0.32572857 0.19946313 0.15495627 0.03380745 0.24976799 0.08404358 -0.13554257 -0.011897814 0.122468546 0.07150415 0.2729836 0.37416193 -0.21824166 0.19781233 0.0896461 -0.08746584 0.14776273 -0.36768082 -0.07303713 0.32644165 0.14578483 0.22771834 0.32395536 -0.26913476 -0.46395874 -0.06567623 0.101538084 0.06510515 0.18360448 0.6727651 -0.25863436 0.11617132 -0.44788107 0.0636397 0.01931893 -0.1233711 -0.21852916 0.19782338 -0.07492676 -0.13463372 0.23211569 -0.578997 0.44965234 0.10648689 0.00036569516 0.20602137 -0.019634673 -0.29425505 0.34482148 0.37751335 0.035157237 0.107591845 -0.07078693 0.33655474 0.060579512 -0.22141802 0.08568033 -0.24645531 -0.15666339 0.05694593 0.13957532 -0.31197247 -0.3899458 -0.26444784 0.22103326 -0.052171245 -0.2046694 -0.39602056 0.07851774 -0.2562832 -0.05611945 -0.16853634 -0.093128085 -0.049822662 0.07797286 0.105169974 -0.18507916 0.26796186 0.11455256
45 -0.19873728 -0.07930403 -0.19024816 0.15766203 0.25074938 0.112471275 0.25271675 -0.26781535 -0.13306929 0.10617692 -0.32189396 0.603342 0.18533665 -0.078452885 -0.11439862 0.39259353 -0.36680394 0.1006573 -0.22303365 0.28335842 -0.021388598 0.14628236 0.42074147 -0.5500339 0.3028411 0.36413178 0.6466784 0.53838056 0.3245116 -0.0017304921 -0.035808027 0.16361165 0.0886485 0.2013959 -0.029151669 -0.10095642 -0.37285396 0.05710349 0.44158435 -0.085520364 0.15092207 -0.2239508 -0.3679232 0.07662777 -0.010962264 0.17209314 0.27047053 -0.0942246 0.10581836 0.085838735 0.57085687 -0.22351183 0.05861757 0.07250313 -0.07319787 0.30921298 -0.24802609 0.51911706 0.015143852 -0.062075213 -0.38983923 0.19499779 -0.0026772977 0.27909392 0.5490313 -0.37736934 -0.1813284 -0.13163821 -0.53197896 0.15781619 -0.05121524 0.16128024 -0.34462148 0.8222589 0.08836864 0.07257128 0.17021753 -0.12176667 -0.29363737 0.16878743
0 0.28831172 -0.28458512 0.2743685 -0.17044954 0.11030187 0.075391024 0.18622763 0.051133193 0.34391916 0.0697772 -0.5109325 0.014496308 -0.29309526 -0.39805022 -0.23576084 0.0050315037 0.30889192 -0.25387004 -0.17954043 0.39026365 0.4734931 0.63811004 -0.38633212 0.2025983 -0.08542752 0.16538404 0.12307261 0.0050063827 0.19744562 0.25218382 0.05452771 0.23552914 0.07908166 -0.5515843 0.08287112 -0.28895706 -0.32773152 0.114043124 -0.3077187 0.13577554 -0.21398811 0.08942258 -0.29211923 0.24089952 0.20582946 0.3396253 0.53630924 0.17450444 0.2180164 -0.054939363 -0.012979336 0.8037241 0.30138725 0.083452195 0.3041682 0.28260046 -0.46059066 0.5827038 -0.35198095 0.21545835 -0.63695323 0.8613858 0.18079959 0.12936015 0.36808285 -0.3122756 0.0022247974 0.40403527 0.08457331 -0.19437845 -0.36046833 0.5056628 -0.25983638 0.06431642 0.26071894 -0.4732574 -0.2340853 0.13811524 -0.0977094 0.070127085
79 0.03123028 0.45468286 0.33744645 0.10937716 -0.03597887 0.6010165 0.20888773 0.019479984 -0.065440945 0.057953242 -0.6779425 0.24981637 -0.015837584 0.5552965 -0.17586006 -0.09713259 -0.18130895 -0.07420707 -0.33046395 -0.54060656 0.2856711 0.18248056 0.31470245 0.055096216 0.4458024 -0.26746473 0.23752564 -0.2988458 -0.035874814 0.18954918 -0.7159568 0.29895994 0.4716471 0.05415216 0.20722613 -0.06832599 -0.28116992 -0.18154436 -0.39342907 0.30170488 -0.15106557 -0.13326699 -0.28907326 -0.2704922 -0.09611862 -0.013059756 0.21321371 -0.0052078757 -0.029609513 0.02121033 -0.007095229 -0.5179026 0.07986763 -0.21596734 0.51287645 0.03514867 -0.107021935 -0.09783544 0.2607217 0.039074194 -0.34536734 0.4653826 0.54803044 0.28178176 0.051776163 0.061354928 -0.3438562 0.042199902 -0.16295412 0.0891699 -0.229608 -0.0639422 -0.13830873 0.35023594 -0.24525021 0.34298402 -0.30278084 -0.32661232 0.34636328 0.058326833
396 -0.1124733 0.28224432 0.02072667 0.0073797624 0.044349246 0.4720651 0.17124656 -0.21252553 0.067495525 0.22138682 -0.3604371 0.19464047 0.3860945 0.592739 -0.16890068 0.40633297 -0.27934963 -0.05802089 -0.2928341 -0.020912362 -0.20862822 -0.00079500035 0.039601367 -0.4582804 -0.062796146 -0.12674147 0.109432295 0.21641509 0.42092288 0.18205242 0.017205918 0.0664341 0.13626766 0.1528563 -0.4547925 -0.23366892 -0.062194332 0.3834466 0.0017525567 -0.213413 0.63684404 -0.13406414 -0.38804725 0.079535894 0.03426685 0.5674802 0.06922453 -0.35367996 0.12649573 -0.2080832 0.43193254 -0.123169824 -0.11721438 0.0826174 0.08371103 0.01944881 -0.25337481 0.21960934 -0.10258416 -0.027641524 -0.23999381 0.21052721 -0.067076586 0.24617234 0.43227652 -0.16031654 -0.065208405 -0.2458695 -0.23536436 0.03333498 0.592754 -0.2351234 -0.21177964 0.029596627 0.075906344 0.011245781 -0.10136842 -0.22273596 -0.16558704 -0.08864111
712 -0.1258905 0.37775925 0.35445428 -0.07393674 -0.6411335 -0.24269746 0.3694749 -0.36178833 0.4439668 -0.29616103 -0.3109641 0.50351685 -0.10710379 0.261921 -0.29423383 0.115517564 -0.40258208 -0.14532694 0.10207002 0.2789345 0.21063493 0.029295692 0.21214436 -0.1172684 -0.115299985 -0.28464654 -0.063299015 0.2399043 -0.012876756 -0.09513307 0.21448284 -0.2895793 0.1621378 -0.3660238 0.2153237 0.1940278 0.17467849 -0.19169071 0.26279822 0.30779842 0.023834582 0.21107838 -0.07322636 0.009604209 -0.14960206 0.26001748 -0.05485171 -0.026885998 0.10505928 -0.16030768 0.16505806 -0.21038452 0.15762015 -0.029672027 0.20699719 0.17492363 0.021608597 -0.27446532 -0.15119956 0.10605869 0.3467497 0.40678558 -0.0046472684 -0.14010511 0.32413045 0.10411556 0.25061736 0.006644655 0.05801365 0.26952958 -0.19270563 -0.097119845 -0.4261094 0.1517929 0.15499789 -0.16205382 -0.18634553 -0.37209883 0.3662821 0.0037435028
322 0.5208507 0.07206918 0.36058924 0.47768876 -0.1866312 -0.09966965 0.036746997 0.49259394 -0.29345614 0.44259498 -1.3173923 0.6947652 1.048756 0.08485941 -0.15287966 0.57492775 -0.259814 -0.37017566 -0.120051235 0.16699995 -0.44629818 -0.5475175 0.22588168 -0.2424169 -0.6072107 -0.5206765 -0.54039806 0.09357116 0.25260857 0.86522144 -0.32033116 0.4229167 0.32478672 -0.46934006 -0.09742304 0.18350843 -0.14423381 -0.7431004 1.3910838 0.20344186 0.13391232 -0.5443718 0.48009127 -0.118204094 0.15073483 0.2860495 -0.07575692 -0.09398921 0.0011564408 0.4994979 1.1104754 0.30204308 0.025051046 0.043728575 0.5080909 0.37707245 0.27426624 -0.30273193 0.64637583 -0.21950641 -0.33492962 0.32752144 -0.6227451 0.621318 0.46158198 -0.5411474 0.4496021 -0.83567375 0.17303757 -0.6614584 -0.053430352 0.5872649 0.023746002 -0.09578998 0.38699064 -0.75629145 -1.378789 -0.25065437 0.20478968 -0.005223425
263 0.14009611 -0.025478391 -0.1002873 0.08139022 0.32100418 -0.17681006 0.5571903 0.005648186 0.19202417 0.040537063 -0.21387215 -0.09617896 0.22344069 0.24216484 0.22690491 -0.030096008 0.20325069 0.108078666 -0.08065362 -0.23696053 -0.19221371 0.56008166 -0.089138545 -0.06613523 0.10867378 -0.6884579 0.119044326 0.4069018 -0.40826538 -0.09220536 -0.19376217 0.24378422 0.6845447 0.23903464 -0.13727504 -0.20041981 0.0073015955 -0.07243586 -0.08685036 0.13130648 0.21641156 -0.1978568 -0.31696412 0.24632885 -0.039247848 0.07802359 -0.21528745 -0.17334014 0.06099652 -0.10853856 0.6279793 0.41788438 -0.1652888 0.25235075 -0.2168826 0.035323218 0.38807064 0.26615372 -0.17297329 0.21037085 -0.2145253 0.24093835 0.04175873 0.17241333 0.06956418 -0.27138317 0.2369242 -0.31206223 0.04036813 0.23750077 -0.14504252 0.3502877 -0.24916911 0.011915527 0.36168495 -0.08123084 -0.06485859 -0.117708944 0.35795674 0.31084308
274 -0.0010888868 -0.41218948 0.35864526 0.21032792 -0.23510176 0.24950126 0.5615822 0.27033642 0.06730132 0.11715535 0.18347591 0.62231666 0.0060681384 -0.09856141 -0.5100126 -0.48535198 0.104303524 -0.15943988 -0.3081243 0.0025699409 0.113209076 -0.30640537 -0.145164 0.08357183 -0.1133627 0.2353339 -0.019688461 -0.016478572 0.008665575 0.45312855 0.1311445 0.2393409 -0.13864413 -0.19132093 0.0336801 -0.1434804 0.32011688 0.12853935 -0.09607152 -0.09139663 0.046252646 -0.19084519 -0.025213007 -0.39551204 -0.5349521 0.23871534 -0.1817339 -0.012012024 0.12548575 0.00991877 0.3931757 -0.022919333 -0.070371315 -0.13618056 0.19934823 0.18595743 0.36257523 0.045042645 -0.26884758 -0.2328768 -0.19009338 -0.11986303 0.23581606 0.28675663 0.12351409 0.049717832 0.08237405 -0.25399342 -0.68605095 0.14184274 -0.03939126 -0.09878866 -0.3688406 -0.59771883 -0.010251857 -0.10507312 0.025474187 -0.40167317 0.23744428 0.3126005
484 -0.19162475 0.17219666 0.29869303 0.0035616944 0.2306022 0.21718195 0.034355868 0.3393287 -0.13748881 0.089011684 -0.3044419 -0.01916001 0.0730461 -0.12001787 -0.19734834 0.4252464 -0.12472186 0.30445176 -0.05087123 -0.4435582 0.32385466 0.28798306 0.37272272 0.4894192 -0.12788175 -0.17969319 0.2996768 0.3037128 -0.10020949 0.42755947 -0.049848683 -0.026031153 0.02985066 -0.21371864 0.06402402 0.78272647 0.07858227 0.03601902 0.20082463 0.18979977 0.048883174 0.24381912 -0.10025913 0.12579487 0.29719916 0.3435667 0.04996609 -0.10543402 0.28562355 0.51069725 0.075293005 -0.11519913 -0.47604913 -0.42201334 0.33679655 0.80520654 0.3738056 0.15433219 -0.5954269 -0.11101066 0.065388404 -0.14519306 -0.043392595 -0.3216725 -0.43614164 -0.17955472 0.47418776 0.22719057 -0.29126465 -0.016873581 0.08979554 0.06522651 -0.24999864 -0.0126648825 0.13453145 -0.22284243 0.19962779 -0.30827558 -0.33158982 0.07606236
295 -0.31563914 0.025997166 0.20760356 0.096714064 -0.30854967 -0.03711081 0.059470583 0.22286735 -0.03497211 -0.0231748 -0.41258278 0.076637976 0.22493352 -0.08666859 -0.1747879 -0.12372779 -0.13234358 0.06429103 -0.28414276 -0.03439559 -0.011263091 0.018680193 0.14806286 0.08940346 -0.09760955 -0.039297245 0.3847996 0.4894577 -0.017160676 0.1714709 0.14453961 0.29923365 0.21888596 -0.08364244 -0.22743395 0.20026219 0.12522614 -0.21519318 -0.17656456 0.3206984 0.0069653206 0.2881785 -0.18838653 0.19748828 -0.128737 0.19715312 0.18105577 -0.0093647055 0.32852182 0.21383676 -0.1995024 0.068335116 -0.26249245 -0.05939277 0.13451363 0.52220803 0.36108097 0.19115257 -0.37353706 -0.018706074 -0.25181457 0.14132254 -0.38116834 0.017081471 -0.15788542 -0.0323394 -0.016992588 0.31499326 -0.09059503 0.20314279 0.17538612 -0.071413554 -0.14714491 0.089291684 0.1718123 0.2748883 -0.11190279 0.012947796 -0.35531142 0.32505712
7 -0.06498 -0.6033787 -0.30516955 -0.41389653 -0.4938018 0.36184278 0.90171254 -0.16744457 0.16353379 -0.17065084 -0.32595667 0.11569401 0.06818568 0.39613852 -0.09184045 0.2571461 0.086423986 -0.123122 0.011550054 0.32361484 0.6433389 0.22560716 0.028927911 0.6423362 0.032922417 -0.21385022 0.30333468 0.5776645 0.0044425596 -0.092759825 0.6252768 -0.03422128 1.0627438 -0.2106912 0.46899062 0.30338943 0.73694587 -0.7761853 0.024230469 -0.55047774 0.1595445 -0.32128137 -0.21911302 0.3927578 0.24104838 0.21183488 0.26236847 -0.15884767 -0.15940869 -0.4694392 0.48271233 -0.40955094 -0.24281222 -0.28119844 -0.0001827726 0.10042177 0.3432186 0.39776677 0.22681518 -0.1348966 0.2808745 0.32683954 -0.57666445 0.8047564 -0.15511093 0.031377897 0.564543 0.28360933 -0.13280047 0.38941038 -0.40005645 0.11925441 0.20796178 0.5064024 0.23968105 -0.26054692 0.3516979 -0.10250227 0.031852994 0.33712083
150 0.03517576 0.11886674 0.22960998 0.295631 -0.30201086 0.012504405 -0.08926924 0.0824262 0.48646444 0.12281864 0.07815016 0.090163685 0.33164206 -0.1985233 -0.44033867 0.4674054 -0.5704353 0.17703675 -0.2610389 -0.14598487 0.073897436 -0.018781634 0.30725467 0.10174218 -0.5318046 -0.5084798 -0.05925578 0.4105865 0.085900344 0.3144082 0.74164873 -0.17230314 0.14640543 -0.31975752 -0.33606663 -0.32097915 0.34969804 -0.072127104 0.031499326 0.0632061 -0.74398106 0.5210468 -0.690536 -0.37205663 -0.06350595 0.14763516 0.038418327 0.16090994 -0.65660256 -0.017535722 0.51646715 0.29487824 -0.084969155 -0.5048862 -0.053774986 0.44195318 -0.18757436 0.35064715 0.2673891 -0.12284758 -0.08142592 -0.073885426 -0.15110327 0.0062276283 -0.3413176 0.11307251 -0.47090867 -0.01527494 -0.14593767 0.19000173 -0.20284791 0.2010736 -0.036059164 -0.14089902 0.072044 -0.048853688 0.07206163 -0.20344326 0.20820546 0.23336488
392 -0.2881815 0.28007084 0.01895704 0.23006412 -0.47527733 -0.12125137 -0.0020204042 -0.07063725 0.040145162 -0.1822609 -0.19519079 0.501913 0.8341361 0.017404135 -0.39439923 -0.10567681 -0.22368175 0.45717257 0.2835873 0.33799484 -0.12184354 -0.0007768207 -0.23835711 0.31261784 0.082785845 0.0051129195 0.44106075 0.4420088 0.45469105 0.31731912 0.4216126 0.39406952 0.09121501 -0.14460845 0.08595928 0.005956169 -0.518898 -0.044903114 -0.42111075 -0.118272744 -0.22297236 -0.250419 -0.3014833 -0.042531736 0.36012632 -0.12675354 0.047215667 0.29877597 -0.39983636 0.2701086 0.10496413 0.37798735 -0.21631192 -0.010087454 0.49913746 -0.1971196 0.27175874 0.31065968 -0.47894552 0.01871894 0.15317026 -0.022175942 0.29735747 0.39905018 -0.24679674 -0.101988606 0.18794252 0.17505325 0.25800526 0.17977978 0.1842175 0.3131298 0.30039066 -0.057323243 -0.21938677 0.23473392 -0.055751562 -0.27084967 0.19972537 0.18117969
29 0.08682861 -0.10169648 -0.40324265 0.4890658 -0.15781449 -0.0516042 0.10748334 -0.02835704 -0.10455892 -0.17774533 -0.08339239 0.25787565 0.039746914 -0.28485927 0.30978253 -0.08344727 0.13967775 -0.010362753 -0.21605408 0.017365592 0.12945172 0.20507173 0.045573793 -0.23344898 -0.01349614 0.004571141 0.41754815 0.27881226 -0.23395704 0.00091152574 -0.052110493 0.24958214 0.3412566 0.250384 -0.17355499 -0.08332926 0.044873927 0.14085801 -0.09049225 0.13243876 -0.18207365 0.121437594 -0.19532609 -0.23746136 -0.6174877 0.17623712 0.17522795 -0.19261102 -0.004279678 0.16556504 0.4293175 -0.15182827 0.44415244 -0.121591754 0.22368689 0.4863713 0.22229637 0.020877345 -0.21568896 0.09541507 0.11578082 0.3686157 0.090625815 -0.020108707 0.13515282 -0.13499475 0.118682325 0.34323052 -0.47493953 0.20058773 -0.08139134 0.006689625 -0.04410628 0.13953732 0.67071104 0.7379312 0.13001464 -0.20380983 0.0029785663 -0.07514437
577 -0.012946692 0.13428536 0.052570403 0.45091566 -0.68993944 0.196345 -0.45363662 -0.03390095 -0.29414505 0.17882521 -0.11454031 0.066057384 0.24720278 0.15875459 -0.13459882 0.13450514 -0.6372615 0.05808817 0.046777755 0.22458442 -0.08792537 0.06982109 -0.33912975 0.4636685 0.20503433 -0.20103978 -0.024153696 0.09062741 0.36178318 0.29522434 -0.098080374 0.30605888 0.21619673 0.2894539 0.24288648 -0.11870634 -0.48871708 0.09834826 -0.3958826 -0.05584559 -0.10158849 -0.17194961 0.2171937 -0.21377844 -0.39131838 0.35982203 -0.36171988 0.138659 -0.17851472 -0.21224587 0.4281098 -0.108761154 0.19508184 0.20043576 -0.029376304 0.029692167 -0.043181658 0.7930181 -0.5582123 -0.26271406 0.25202554 0.29800954 -0.27292508 -0.008685123 0.19272608 0.002111233 0.705819 -0.0204645 0.027392063 0.3674918 -0.30303574 0.015794575 -0.017655773 0.18686536 -0.025425777 -0.19561686 -0.13634329 -0.29457396 0.21002993 0.04720368
252 -0.041427325 0.4043868 0.20424984 0.020742489 -0.5073853 -0.31768137 0.16283675 -0.0030694995 -0.039205913 -0.20652436 0.03584315 0.059839606 0.4114064 -0.08379218 -0.259663 -0.14889657 -0.3736476 0.21506214 0.31551215 0.26213 0.0017148374 -0.23570184 0.120333605 0.031013101 -0.07554721 -0.1597954 0.06458431 0.31156397 0.19333775 0.22644627 0.19582546 0.45326573 0.07300831 -0.016301528 -0.1720904 0.09628581 -0.028453179 0.23814389 -0.37912995 -0.052309006 -0.07303535 -0.32685775 -0.38138813 -0.3204045 -0.13824812 0.15485746 0.16905749 -0.112399414 -0.2434602 -0.17865103 0.10849206 0.15812579 -0.11470087 0.13278145 0.24336052 0.38305712 0.06169336 0.30429026 -0.20094576 -0.08188421 -0.28393525 -0.017286405 0.07780652 -0.029435152 -0.18719023 0.06251029 0.029660815 -0.23790212 0.041574597 -0.2969777 -0.0010751922 0.2472205 0.19547056 0.020362994 -0.08099428 0.02523351 -0.1888586 0.03306053 0.31247154 0.10144275
273 0.07075146 0.4129912 0.3313593 0.35854757 -0.13803822 -0.062932186 0.19890207 0.2705022 0.0031562462 -0.46251595 -0.40211993 0.4895991 0.052329164 0.027296001 0.060949113 0.076366834 -0.23049496 -0.00078344357 -0.3107708 0.005410695 0.28202918 -0.02262561 0.39718103 0.15312994 -0.23248474 -0.5056806 -0.39106134 0.29702473 0.37571198 0.19519046 0.6173963 -0.44118246 0.082013555 -0.72675425 -0.050846826 0.09708706 0.109990954 0.028644098 -0.26208183 0.07364382 0.08108724 -0.10148691 -0.4020871 0.21248558 -0.33444303 -0.03646485 0.009319867 -0.08734963 -0.09661701 0.07310251 0.2790103 0.053885207 -0.19131988 0.17502674 0.05895384 0.33543238 0.03436324 -0.23726158 -0.25447834 0.22319736 0.17389812 0.30688232 -0.23262754 -0.09310248 0.20568514 0.3083683 0.29981577 -0.30184105 0.03209773 0.10517339 -0.2988995 -0.24090964 0.048040953 0.069416195 -0.11705786 -0.21488006 -0.06267131 -0.8613337 0.124558926 0.07844934
385 -0.3583182 0.22157377 0.006607519 0.10938566 -0.41878724 0.019579895 -0.071442455 0.66199315 0.6096363 0.15809113 -0.1221348 -0.63315964 -0.13169292 -0.02427576 0.22457567 0.15493038 0.5117883 0.12492029 0.14222915 0.1657123 -0.0642411 -0.10470739 0.14242174 0.08564848 0.10143995 -0.23507316 0.3495579 0.21654497 0.025608733 0.28631905 -0.30960974 0.032843042 0.30002898 -0.3025325 0.12045492 0.21619435 -0.5543828 0.025945155 0.12977935 0.2692554 0.060772415 -0.15549882 -0.37432772 0.18606217 -0.08479517 0.28416276 -0.042780537 -0.22460224 0.15136978 -0.28303868 -0.021585224 -0.13925028 0.24146762 -0.39951697 0.06689909 0.11027371 -0.02707456 0.13766591 -0.15816243 -0.2942208 -0.3127642 0.1535769 0.067131504 0.37863064 0.0873098 -0.09843111 -0.31482244 0.0026179354 -0.044529207 0.2664568 -0.12731376 -0.122844405 -0.27192077 0.06955377 0.11401977 0.075319886 -0.11162948 -0.5257804 0.57283914 0.008710669
602 -0.051556364 0.07234144 0.033549387 0.07360714 0.059234582 0.100645676 0.43004823 0.08923493 0.2138994 0.09211528 -0.4290018 0.24673091 0.0030726432 -0.3874178 0.12376969 -0.05121532 -0.22926238 0.3412124 0.14312893 -0.30634934 0.24582292 0.023053406 0.31553027 0.53170305 0.25744683 -0.3254108 -0.14692023 0.17125177 0.09816169 -0.018823568 0.24656297 0.17567468 0.14814177 -0.1422783 0.10588421 0.4307122 0.07000335 0.03800726 0.22229214 -0.3183115 -0.07722515 0.32289004 -0.37391487 0.044652566 0.4188582 0.061455324 -0.03147943 -0.052261963 -0.055813327 0.26553896 0.26114452 -0.08561722 0.2674828 -0.08972996 0.35319757 0.3274569 -0.12510122 -0.18795075 -0.55938506 0.0608294 0.013014202 0.02827682 -0.45745173 -0.24279404 0.045596696 0.008972711 -0.078590035 -0.06445214 -0.20923819 -0.42363882 -0.050690938 0.17596895 -0.3636432 -0.054753758 0.17983964 0.017049981 -0.04583184 -0.2824552 0.16079192 0.13978437
86 -0.12066829 0.4123886 0.5144703 0.044083998 0.114120014 0.06701438 -0.17749883 0.3542538 -0.109840006 0.2135944 -0.16823918 -0.0060486263 -0.15345186 0.22910696 -0.057137325 -0.03659485 0.0628406 -0.13818158 0.072339565 -0.050521687 0.1760114 0.2772754 0.07119089 -0.0009850479 0.21125649 -0.17293228 0.21034211 -0.3172733 0.040077236 -0.30869514 -0.2943245 0.29323143 0.74134755 -0.1626223 0.07737208 -0.005326291 -0.587267 0.107886076 -0.2667614 0.14359075 0.15819708 -0.0036069248 -0.27900183 0.05855839 0.028176893 -0.2189224 0.01892053 -0.012843311 0.0143848555 -0.09494527 0.03166942 -0.28525272 0.009191085 -0.54617184 0.71148974 0.19459912 -0.13217185 0.08385103 0.30660036 0.14414291 -0.18602535 0.28706154 0.07923514 0.27704254 -0.130064 -0.0780912 -0.3930787 -0.21086277 -0.46360716 0.29643643 -0.08195879 -0.19549584 0.0022288617 0.17888317 -0.31106797 0.20781115 -0.3208731 -0.49537963 0.6077941 0.1903721
21 0.4057442 0.070367694 -0.33815306 0.10743607 0.0257616 -0.01679278 0.4009115 -0.20844297 -0.039040335 -0.34466472 -0.53703785 0.38356766 0.11666925 -0.029591683 -0.067649946 0.18469782 -0.15354608 0.12839995 -0.16222097 0.14252263 0.03129986 0.22395568 0.062021177 -0.30347335 -0.06729728 0.28455466 0.36575335 0.39441898 -0.16048214 -0.281281 0.07797196 0.4133834 0.18661204 -0.06416253 -0.31976694 -0.13841069 0.003563223 0.20360726 0.14846532 -0.067929454 -0.052328117 0.07625967 -0.3403508 0.029021993 -0.2280885 0.3728205 0.14035068 -0.28342614 -0.16827625 0.26414233 0.5237565 -0.08414665 0.6149614 -0.25962582 0.1909893 0.37830645 -0.21907565 0.004341474 -0.4898564 -0.46709555 -0.061839633 0.29212272 0.32363972 -0.03490043 0.36195454 0.116319835 -0.47088555 0.47711918 -0.112572245 -0.22575934 -0.08962384 0.08811793 0.118443206 0.45183092 0.16216202 0.16478147 0.3827871 0.03606746 0.18178049 -0.04713272
496 0.13829407 -0.0544237 0.33527595 0.08554037 0.08105339 -0.20583104 -0.19871953 -0.2587241 -0.21253769 -0.40896744 -0.72821695 0.2646673 -0.16702549 0.36363894 0.046382044 -0.0958261 -0.11358686 0.26400316 0.422827 0.109537594 -0.087071896 -0.080157876 0.12708959 0.23794138 -0.02936548 -0.2536236 -0.13409941 0.49147484 0.014311482 -0.04032685 0.32016823 0.20302951 0.09991333 -0.18518771 -0.36901495 0.011650734 -0.16324946 0.4021639 -0.01782855 0.017132238 0.027121559 -0.097190544 -0.043315526 -0.02147663 0.28760344 0.44652078 0.093921065 0.22607882 0.2239471 0.2520162 0.3972599 -0.31561875 -0.011524803 0.24225762 -0.1937232 0.5182461 -0.31324604 0.08075726 -0.4436613 -0.53949547 0.1884492 0.4845599 -0.14721292 -0.0572207 -0.25921246 0.18779969 -0.3619605 0.17148295 -0.3418314 0.26867488 -0.5265569 -0.012854479 -0.22476643 -0.40943557 0.35771355 -0.43522045 0.09946066 -0.056364838 -0.01978816 -0.21738052
260 -0.2773566 0.1507115 0.12757717 0.31394067 0.079925895 0.11999875 0.51070195 0.20932093 -0.033696365 0.030468138 -0.08837693 -0.060248513 0.04969561 0.11605824 -0.028975375 -0.1693059 -0.2349815 -0.21591748 0.04289147 0.07870174 0.10128702 0.26040992 -0.012176366 -0.0075936895 -0.03728361 0.1359826 0.046013143 0.0028307233 0.014638337 0.0067718434 0.12369085 0.055550367 -0.11913443 0.2989392 -0.06616544 0.116242364 0.06467474 0.2781149 -0.24755126 -0.24125487 0.02080465 0.21492231 -0.048367683 0.21070294 0.041011773 0.083929084 0.28634396 -0.35804284 -0.0857976 -0.034983076 0.20143586 -0.15841335 0.11160152 0.048901327 0.28034964 0.024959832 0.15380225 0.15089898 0.23741303 -0.21482414 -0.13720101 0.31577533 -0.06632621 0.2890918 0.32189053 -0.22494489 0.12835674 -0.4147909 -0.36774525 0.29052445 -0.12296913 0.19153036 -0.064038806 -0.14808805 0.14732063 0.15238933 0.10061143 -0.13794124 0.34174106 0.12605996
57 -0.1822829 -0.1582773 -0.36455062 0.060037874 -0.48189574 -0.048557796 0.7063349 -0.07081794 0.2577779 0.33723885 -0.568629 -0.08173049 0.021042928 -0.24168077 0.31961614 -0.089604035 -0.26377118 0.17086092 0.2720287 -0.3736703 0.12450506 0.11696905 0.03317407 0.35935423 0.32858828 -0.7353413 -0.08738537 0.40369958 -0.14386517 0.07736079 0.07676184 0.27818528 0.6190344 0.19877523 -0.24772666 0.23235089 0.080146 0.5318374 0.4118546 -0.38991928 -0.3769814 0.08720847 -0.37972838 -0.28876737 0.31669426 -0.045380995 -0.028777305 0.36333567 -0.2933114 0.022473043 0.14639437 0.23857485 0.16219695 -0.098536484 0.073461354 0.45448282 0.44080612 -0.28657418 -0.55442053 0.2228476 -0.10576285 0.048508797 0.15776445 0.15192036 0.3231302 0.12097474 -0.13806479 -0.2846715 0.025005125 -0.5559627 -0.39905822 0.0848558 -0.5071094 0.036659926 -0.32299447 -0.021841336 -0.08704145 -0.09530051 0.11806366 0.14621507
296 -0.25813606 -0.06283513 -0.16086867 -0.16821173 -0.4087273 0.06829017 -0.48887733 0.0028473518 0.2934769 -0.24743183 -0.31407604 0.35782275 0.4294307 0.11511797 -0.059843756 -0.326323 -0.32499656 0.17551307 -0.25544882 0.5930135 0.20988661 -0.034398157 -0.029844467 0.051200908 -0.24357057 0.19123705 0.10345149 0.5819195 -0.060032208 0.79446554 0.5337212 0.06788063 0.04639337 0.22837086 0.07518586 0.1348342 0.024353085 -0.18080187 -0.48559955 0.4505311 -0.39678654 -0.24861157 -0.40440673 0.01581882 0.67948127 0.24788679 -0.17566416 -0.03688765 -0.06414596 0.16943331 -0.015092682 -0.32775855 -0.107620664 -0.37089765 0.27993354 -0.14345571 0.4698556 -0.015169553 -0.27166137 -0.09772101 -0.22140037 0.23188499 0.2177071 0.04418531 0.0027686162 -0.5047558 0.3517625 0.14416961 0.3285683 0.24748786 0.0695377 0.317827 -0.028565008 -0.11117703 0.090548456 0.25998122 -0.4219845 -0.30567035 0.27357113 0.51469433
334 -0.19876583 -0.07515617 0.12128101 0.26032817 -0.2578202 0.06521733 -0.35777286 -0.05363924 -0.03307366 -0.31398538 0.062485434 0.28486732 -0.30943957 -0.5105132 -0.41882262 0.02234224 0.19361353 -0.46022823 -0.24472022 0.33836922 0.38605687 -0.017577857 0.34121725 -0.024554666 0.018459767 -0.39652222 0.93250644 0.10407097 0.51878417 0.08382515 0.12125163 0.27511835 0.14187348 -0.24621916 0.27880138 0.10022344 0.08515886 -0.025264155 0.18671495 0.26560238 0.07167037 0.31727275 -0.32282034 0.40142488 0.49200118 0.4638272 -0.25598451 0.43218356 0.14186363 0.16359803 0.5988873 0.3137963 0.3392807 0.5252572 0.006958137 0.39393613 0.4876658 0.4690009 0.19683345 -0.18090609 -0.21585631 0.22418989 -0.35013604 0.42252037 0.11625825 -0.46546596 -0.35666782 -0.21380633 -0.036613524 0.0039433776 0.09775512 0.2098117 -0.22563602 0.03376427 0.13372141 0.37465897 0.32943982 -0.2908592 0.16632938 0.5380197
89 -0.33311522 0.26864606 0.076219544 0.3079104 -0.24753204 0.028076494 0.15578757 -0.08984935 0.2338734 0.5000949 -0.21491285 0.20018409 0.18472274 0.11798388 -0.05146461 -0.12978522 0.24081966 -0.47034383 -0.041221675 0.4075168 0.016621197 0.5457969 -0.15869221 0.14086275 0.12707533 -0.4191002 -0.34466738 -0.087905765 0.3262928 0.55432284 0.42550072 -0.22059524 0.15087141 0.64825743 -0.4089665 -0.12849465 -0.076703094 -0.03811568 0.13927686 0.07356733 0.22647898 -0.40370154 -0.5894494 0.050390884 -0.22624259 0.22744498 0.34989294 -0.078222975 -0.13230401 -0.13368776 0.2652051 -0.10787059 0.0023215883 -0.24641868 0.5782982 0.4333169 -0.24985646 -0.20564364 -0.048846196 0.055698674 -0.26320568 0.32113206 -0.14916746 -0.2611028 -0.5072858 0.22511135 0.012209273 -0.2975121 -0.110601276 -0.011469998 -0.011128849 0.45940912 0.14680575 -0.2124579 0.17130254 -0.016995823 0.6963197 0.45345485 -0.30718505 0.20727156
751 -0.3893703 -0.08599838 0.2619665 0.19451244 -0.41362977 0.1166684 0.19159514 -0.28013894 0.12585863 0.04354029 0.23572594 0.23068886 0.18450266 0.057965044 -0.68270105 -0.38923532 -0.48158354 -0.094834484 0.18842301 0.15059796 0.18199432 -0.014775364 0.11159259 -0.015361926 0.16500753 -0.31527784 -0.11993993 0.14592132 0.037316762 0.19432755 -0.06878639 -0.024680084 0.0671584 0.36934415 -0.063189685 0.05229137 -0.6092836 0.34205213 -0.73113126 0.10766677 0.238225 -0.706313 -0.21372385 -0.45637056 -0.3672631 0.31886765 0.103438996 -0.102021724 -0.40027604 -0.0030105445 0.22564392 0.19733503 0.12406101 -0.19854823 0.37867826 0.329274 0.16414139 0.37473407 0.06522461 -0.6337194 0.08219963 -0.06351381 0.1300356 -0.2702286 -0.10814736 0.17548342 0.17417209 -0.52903134 -0.3902623 -0.2609517 -0.047897328 0.3112586 0.47378334 0.31478307 0.03170565 -0.027868742 -0.043088734 0.4561765 0.366424 0.3362074
194 -0.3647852 0.059736103 0.006453021 0.63218164 -0.3365167 0.11329936 0.16904129 0.01641184 0.38903376 -0.2113218 -0.042261545 0.42093226 0.525343 -0.2426861 -0.2182287 0.22698267 -0.45841676 0.13001257 0.31978258 0.3044953 -0.10456137 -0.31981876 -0.38542506 0.4653148 0.16561818 0.13323018 0.2167724 -0.19419654 0.106071755 -0.103261106 0.3864062 -0.0076733152 0.43444833 -0.109533966 0.36006215 0.0037312135 -0.45118415 -0.110231936 -0.36399353 -0.939521 -0.26988226 -0.38041934 -0.08899519 0.50960606 0.12658522 0.30042228 -0.145229 -0.0154513195 0.5917308 -0.24148639 0.58623195 -0.2425278 -0.07378985 0.73216134 -0.04700603 0.1525123 -0.091732815 0.50520945 -0.07105902 0.4165732 -0.09204101 0.2543782 0.02541739 0.5718517 -0.22160834 -0.66564554 0.10766968 0.13438702 -0.39072144 0.44999713 0.2306088 0.12833886 0.43556604 0.10274131 0.037259523 -0.38484582 -0.08691507 -0.20330465 0.15322055 1.0495532
399 -0.31109127 0.22740819 0.32533935 0.09861822 -0.48772082 -0.24831899 -0.033226203 0.013551174 -0.0956943 -0.27764422 -0.56089145 -0.1384013 -0.24668862 -0.07877851 -0.25337595 0.07995652 -0.019587327 0.17487334 -0.535716 0.31184295 0.060644835 -0.17505999 -0.037548818 -0.10646323 0.07410098 -0.47335282 0.41211638 -0.03743089 -0.063234955 -0.11267279 0.115012 0.104130216 -0.1354118 0.17899513 -0.20985956 -0.008789778 0.084517404 -0.16030812 -0.22112453 0.09385204 -0.040283356 0.15608253 -0.2287885 -0.03098273 0.19415806 0.19011365 0.09130793 0.0107834935 0.117699884 0.38577694 0.24200743 -0.15118259 0.012383758 -0.33300042 0.27893987 0.16912103 -0.31425366 0.2438089 0.1314758 0.14481024 0.15732443 -0.027207935 0.17295638 0.43730536 0.5520202 -0.034680054 -0.14356342 -0.25798506 -0.24820341 0.15519278 -0.085201286 0.64123434 0.20358294 -0.36056715 0.09839015 -0.27785262 0.2390809 0.08146686 0.0683215 0.45958498
12 0.83293575 1.5021734 -0.24200556 -0.31446046 0.078563415 0.022539143 0.46974048 -0.43642735 0.7413472 -0.08929867 -1.6569159 -0.1626414 -0.6591851 -0.20042193 0.13803211 -0.2439632 0.6728876 -0.38211986 -0.20165847 -0.38242838 -0.64105076 -0.56621623 -0.24700765 0.5797238 -0.5133469 -0.11983064 0.6751914 -0.08923388 0.4077008 0.22732049 0.5594509 0.92103416 0.51854664 0.8858839 0.6448345 1.0198836 -0.9347782 0.2965829 -0.6815079 0.3806871 0.7747356 1.1501944 -1.261682 0.14380062 -0.94601375 0.18886971 -0.09673116 0.022725342 -0.7920277 -0.11262035 0.2114445 -0.25341097 -0.14023942 -0.24572429 -0.43699005 0.097598776 0.31746152 -0.22753713 1.4504447 -0.55481297 -0.82464033 0.3431927 0.0010738855 0.086947404 -0.4868167 -0.38798928 0.06869873 -0.37223294 -0.92941195 0.15207632 -0.07928738 -0.49898866 0.615172 -0.361607 0.39655977 0.009289139 -0.941432 0.070089266 -0.9677674 0.22491553
336 -0.2936553 0.31906122 0.6489075 -0.061153717 -0.21691293 -0.09388489 0.32011577 0.26228684 -0.2667764 0.09336607 -0.012702517 0.16453905 0.28593254 0.058220286 -0.01253506 -0.35167873 -0.38623545 -0.10784465 -0.13585415 -0.37468487 -0.12277516 0.05757154 -0.40982327 0.46145636 -0.1317241 0.19014187 0.1496044 0.37258598 0.46860895 0.036773503 0.32187495 -0.077811025 0.36678195 0.060772832 -0.019961294 -0.26632884 -0.22005346 -0.45177737 -0.04011558 0.15052892 -0.07279901 0.31016698 -0.4925951 0.1604118 -0.038112734 0.4910694 0.2934236 0.22477639 0.18033244 0.30932254 0.1492758 0.20354244 -0.0887227 -0.003840771 0.064771324 0.36571285 0.18680641 -0.0529181 -0.29278687 -0.6617385 -0.05855886 0.33398926 -0.45061445 0.25165555 -0.08036125 0.27943704 -0.036949866 0.30786178 0.11938895 0.19627701 0.41459784 0.48453546 -0.008222368 0.09985609 -0.07900162 0.65447855 -0.09924792 0.009277251 -0.4027315 0.080494575
318 -0.1562303 0.28943998 0.49124458 0.09738523 0.15261497 -0.028662281 0.5453331 -0.19063102 0.00017262905 0.06011098 0.079496175 0.16983566 0.2292214 -0.54035383 -0.17401715 0.5695185 -0.26258612 0.14722118 -0.3045463 -0.25514227 0.39228064 0.21423817 0.47406563 0.2423281 -0.11307717 -0.35523227 -0.06426416 0.09042402 -0.040515296 0.093901366 -0.09737585 0.3556155 -0.07376006 -0.1128075 0.16091548 0.43751594 -0.2117837 -0.102259845 0.4489311 -0.47601706 0.05242415 0.32099462 -0.45298523 0.48367193 0.27593797 0.2922977 0.35407534 -0.054617435 -0.08641226 0.23338257 0.03147706 0.009744838 0.09383115 -0.32728416 -0.11449086 0.5946176 0.09271535 0.10944921 -0.26507258 -0.07482947 -0.07812756 0.024570059 -0.5305661 -0.47955632 -0.25682718 -0.2927526 0.23077972 -0.02887031 -0.24148725 -0.21008341 -0.25354943 -0.069836974 -0.16091388 -0.21474114 -0.029135523 0.033072185 0.08117836 -0.49785146 0.30516547 0.3953827
256 -0.05740619 0.12012747 0.13408889 0.43693393 -0.07081228 -0.106375374 0.36168036 0.18169013 0.4106848 -0.3381082 0.22433338 -0.1501467 0.3346465 -0.03866181 0.07157836 -0.09025034 0.37277752 -0.4107198 -0.044363335 0.017253844 0.1711413 -0.024064498 -0.08626382 -0.041331265 0.0034954231 -0.07613297 -0.27193424 0.41707307 0.27059057 0.038489252 0.31756654 -0.12866378 -0.01918042 0.018964604 0.11880661 -0.010351364 -0.018598318 0.09562876 -0.26655796 -0.11620154 0.18822737 0.21363646 0.30195022 0.23401216 -0.1837903 0.13702737 0.092378035 -0.12655665 -0.112124674 -0.056746304 0.3851975 0.10035271 -0.09545184 0.15115319 0.7033891 0.24571894 0.15941219 0.14327754 -0.14194344 -0.47859046 -0.5914677 0.102042824 0.12441415 0.096473366 0.34842214 -0.08366803 -0.00545129 -0.35982034 0.009475275 0.13267328 0.12476404 0.004998825 -0.09085472 0.15204719 -0.009945454 -0.03718688 0.0461673 -0.77683777 0.06082655 -0.01087029
77 0.051100515 0.37035683 0.032122742 0.09440596 0.047385022 0.57223684 -0.07453113 -0.035875916 -0.010383673 0.35642427 -0.5515609 0.30689296 -0.15893853 0.40201727 0.041766573 -0.4135842 -0.09641983 0.0818786 -0.25113666 -0.4947207 0.1824943 0.20073712 0.45665056 0.6785923 0.20845394 -0.7537359 0.13862365 -0.28479278 0.022072306 -0.09682241 -0.4208223 0.42810363 0.44001576 -0.07661181 0.35866255 -0.101592176 -0.051867884 0.013631759 -0.8440777 0.09928535 -0.26933303 -0.31011957 -0.12688045 -0.20122023 -0.33187556 0.08333543 0.18889724 -0.15008038 0.31002268 0.065259285 0.22961095 -0.5137418 0.00037660415 -0.37332752 0.6539797 0.19749591 -0.10421223 -0.0032614362 0.39836064 -0.056581326 -0.34397328 0.41067243 0.58365256 0.28900817 -0.0031629002 -0.21125367 -0.33302498 0.05273145 -0.14918183 -0.25617442 -0.025673045 -0.08000716 0.15161581 0.4874244 -0.10489192 0.30511084 -0.46785825 -0.098642886 0.19897172 -0.05646149
705 0.11491982 0.22014564 -0.21229608 0.22064795 0.20251986 -0.3890586 0.058736518 -0.062149145 -0.0052818474 0.13045298 0.29135153 0.37565035 0.32324663 -0.025285954 0.53458506 0.23825972 -0.02819247 -0.07420072 0.12455559 0.24157934 0.21180314 0.7990927 -0.49407917 -0.25416756 -0.12437758 -0.3692108 0.12598936 0.023398353 -0.60986656 -0.09920436 0.18347998 0.2316984 0.37887248 0.071133204 -0.1050209 -0.055573758 0.097035214 0.10374565 -0.11845474 0.039814994 0.26669565 -0.020344501 -0.48324177 -0.16277595 -0.10431758 0.2446698 -0.11945549 -0.3082969 0.10241552 -0.0945512 0.5503548 -0.1601409 0.0034938462 -0.01595881 0.09962588 0.321309 0.28436875 0.023106087 -0.13415691 0.23560882 0.0072402083 0.2802355 0.14089721 -0.2459703 0.034812335 -0.015537812 -0.109472245 -0.12780623 -0.35650715 0.32276088 -0.06307235 0.24325249 -0.13789518 -0.032142177 0.8723032 0.21468069 -0.29392713 -0.23213726 0.17357767 0.39278495
172 0.15733415 0.1588301 0.025409875 -0.036476053 -0.41416132 0.05579818 -0.0783569 -0.21244627 -0.1543313 0.18687287 -0.30897987 -0.13162719 0.032294523 -0.039773047 0.1085001 0.042492554 -0.3458603 0.0684944 0.16248423 0.14931569 -0.2639444 -0.10424485 -0.1416694 0.50237983 0.03672102 -0.2463244 -0.20080891 0.21068871 0.097947024 0.28414878 0.27064583 0.40857634 0.14980926 0.025903951 -0.055731136 0.03914885 -0.044751402 0.306042 -0.18702751 0.0824002 0.009283338 -0.087763995 0.04026149 -0.37769485 -0.019154942 0.40304968 -0.32199502 0.08332732 -0.14717394 -0.20951352 0.21941362 0.016772414 0.27568775 0.17918317 0.046462327 0.1429025 -0.22958098 0.61182946 -0.245764 -0.29418007 0.037545346 0.46239012 -0.24283694 -0.30587307 -0.093535274 -0.09072262 -0.095858715 0.3434977 -0.041827507 0.3616618 -0.42517337 0.1707598 -0.25488588 0.019700548 -0.08671701 -0.22737291 0.20664084 -0.23495777 0.21655081 -0.06732053
44 0.27821788 0.16152245 0.21209373 0.07576607 -0.0936614 0.06458335 0.22147538 -0.36711332 -0.10378781 -0.3415254 -0.6795105 0.0056549856 0.033936705 -0.2796879 -0.10051406 -0.003559717 0.24361199 -0.13302512 0.17911394 0.24077936 0.052634895 0.055118833 -0.06186029 0.11804502 -0.34922305 -0.021228885 0.2998584 0.34329143 -0.2188986 -0.09932198 0.33448917 0.12640278 0.24162634 -0.24127148 -0.34771055 -0.24785689 0.0009275208 -0.056936447 -0.14431627 0.07500622 0.16448027 -0.065271944 -0.060854353 0.16264719 0.14376259 0.1349902 0.2409094 0.0877462 0.12069999 0.47465712 0.5501566 -0.030147271 0.22809839 0.13829869 0.1957284 0.5416649 -0.46861595 0.3249627 -0.5895071 -0.31650302 0.07296127 0.29646796 0.42092532 -0.06968955 0.3383331 0.24059223 -0.6780963 0.36503807 0.06608366 0.042362023 -0.3868893 -0.060407646 -0.0745825 0.0696299 0.17770118 -0.5656635 0.15259524 0.14289363 0.22469018 0.2283335
189 -0.19753975 0.15010385 -0.09703937 0.373708 -0.12908512 0.11328396 0.09246962 -0.603934 0.16239208 0.48059303 -0.10613385 0.22263284 0.62551194 -0.10015965 -0.23610632 -0.20424698 -0.16443886 0.26733366 -0.011578685 0.281089 -0.032320417 0.17312928 -0.12454307 0.27087802 0.2146204 -0.24320567 0.13280305 0.31001893 0.011507335 0.018366314 0.13207 -0.11312526 0.1403549 -0.21530877 0.23951015 -0.0977331 -0.14636482 0.32214934 -0.28611842 -0.2653342 -0.11598936 -0.59361666 -0.55810976 -0.07599586 -0.25626972 0.6412636 -0.059842594 -0.31288177 0.29422414 0.349952 -0.033606283 -0.028668815 -0.23491661 -0.0922928 0.30806887 0.012120618 0.11919543 -0.3775766 -0.12530957 -0.24425 0.07342399 0.18687342 -0.061443754 0.014530743 -0.43809992 -0.06271952 -0.23918433 -0.089776404 -0.11964176 0.0010563998 0.21636532 -0.13010319 0.084304646 -0.21069916 0.36129838 -0.2974308 0.0044534975 0.005080659 0.20800558 0.09265524
81 -0.4470395 0.3295602 0.36698538 0.13589834 0.13684346 0.48209462 0.070188515 -0.26602295 -0.10763016 -0.061205134 0.01265842 -0.1828737 0.16546915 -0.04291883 0.23387288 -0.22504371 -0.07003256 -0.44755256 -0.35160065 0.089836955 0.13173921 0.14511736 -0.01933233 -0.08778446 -0.5804889 -0.15027428 0.043017995 0.036133766 -0.02932184 -0.15705457 0.26571494 0.32581905 0.3255644 -0.15566343 0.15572132 0.014108556 -0.5206585 -0.068463445 0.24405284 0.105751626 0.052206896 0.038632732 -0.116525695 0.16650021 0.038098216 -0.54431623 -0.1574235 -0.11029414 -0.10983746 0.38169315 0.46497312 -0.26826912 -0.3626089 -0.57926124 0.33906135 0.120807625 -0.33387494 0.22257356 -0.40640858 0.07324865 0.12689354 0.36221868 -0.014300682 0.08142286 0.11652302 0.17241657 -0.10157923 -0.10274142 -0.37529197 0.08247171 -0.31604242 -0.19854128 0.031565323 0.055992696 -0.14888494 -0.28735778 0.18362421 0.17489873 0.34233418 0.34379244
614 0.13576576 0.8174298 0.45501313 0.76845384 -0.17499965 1.5108051 -0.22338334 -0.030005286 0.39077395 -0.55299956 -0.3051943 -0.16693768 0.15585944 0.92754316 0.44275615 0.57382303 0.9226907 -0.02660057 -0.0064820903 0.06032106 -0.006268614 -0.1397574 -0.25899452 0.6692885 -0.03032556 0.6761216 -0.26103622 -0.3243884 -0.16856895 -0.64593184 0.6169297 -0.090260714 0.42159918 -0.032303095 0.0682387 0.35463005 -0.19551511 0.40531906 0.33587727 0.33350554 0.10679243 -0.46497172 -0.7714015 -0.5604341 -0.33104202 0.023490485 0.41554478 -0.020490078 0.32713678 -0.31861794 0.6823377 -0.0028148266 0.33798033 -0.24313647 -0.028677827 0.5787354 0.54476273 0.7527441 -0.23899455 0.059230663 -0.1760197 -0.32315138 0.45751923 0.4828669 -0.04827445 -0.31494367 0.345587 0.26506242 -0.019078527 -0.17666146 -0.68855494 0.6589408 0.116878964 -0.4877524 -0.35837105 0.18634 -0.61891854 0.5870827 -0.2057441 -0.5474078
214 0.26804277 -0.015699692 -0.25518557 -0.32296094 0.4287109 0.25907964 0.340387 0.3136197 -0.097428545 0.06275216 -0.39084676 0.6196915 0.5037117 0.13632357 -0.15346262 0.6078778 0.120852225 -0.9221131 0.15729725 0.55059963 -0.15670283 -0.021165192 -0.3255861 -0.24137658 0.06201591 -0.57404256 -0.7092355 0.0874576 -0.6058439 0.07042684 -0.23168717 -0.77569956 0.1569761 -0.4553914 0.41443616 0.6071569 -0.783519 0.85133016 -0.6746318 -0.1408041 -0.45880315 0.37587032 -0.69517994 -0.16304864 -0.39249283 -0.81365794 -0.57098657 -0.48602298 -0.019102369 0.013272238 0.81869936 -0.40505967 0.05213871 -0.6413558 0.31621763 0.5425083 -0.25965437 0.14751096 0.16024345 -0.54513836 0.08504282 0.16231889 0.083351865 1.0380847 0.09231565 -0.11067419 0.40770677 0.7020371 -0.27995622 -0.7536596 -0.40559745 -0.43071398 -0.008107292 -0.2975074 0.01007291 0.5384275 -0.03516024 0.3920235 -0.24697106 0.25363228
249 -0.46488494 -0.12589231 0.19242686 0.20284437 0.051748145 0.23937435 0.973268 -0.219913 0.05587151 0.07989051 0.28291598 -0.19950698 0.17665409 -0.18734628 0.13052328 -0.7103087 0.010606921 -0.19372924 0.041525688 0.41941935 0.14172338 -0.25585577 0.080201626 0.21420772 0.17168395 -0.07948919 0.1497845 -0.19567513 -0.2860502 0.46688497 0.18573552 0.057405982 0.1832451 0.31923184 0.14702436 0.19027616 0.055728793 0.3307073 0.012981657 -0.15469255 -0.22835131 0.10152788 -0.1295557 -0.26992297 -0.3267035 0.23089555 -0.012970542 0.31020802 -0.06791002 0.25603142 0.19287103 -0.020406764 -0.16292086 -0.09699185 0.002974181 0.4112042 0.8388184 0.2788026 -0.30630004 -0.23125732 0.039761256 0.2645392 0.26686817 0.044493686 0.7959874 0.100012876 -0.019756148 -0.35548225 -0.15771635 0.0118897725 -0.08950612 0.081298284 -0.28070945 -0.23064426 0.06320332 0.24371432 -0.05636055 -0.4457647 0.16545467 -0.2505626
460 -0.10308052 0.6624865 0.28112867 0.18955518 -0.3162606 -0.15572272 0.5439452 -0.059251014 -0.21447332 0.2728906 0.17877942 -0.02038233 -0.053607527 -0.28939557 0.16631392 0.39957747 0.4844484 -0.006300311 -0.3042673 0.013183058 0.43956175 0.049250532 -0.4143123 0.27722657 -0.08582255 0.055699117 0.0025758944 0.3519849 -0.015399485 0.4917342 0.32252342 -0.213357 0.35656562 -0.51256704 0.061353326 0.64561844 0.18746532 0.11088972 0.16978447 0.22698607 0.07079343 -0.06602807 0.11894016 -0.25679976 0.05075065 0.44530332 -0.077920794 -0.073044024 0.042753115 -0.18504183 0.46077105 0.04340002 -0.37497672 -0.08995078 0.18465416 0.30698738 0.08992297 0.3821201 -0.18045856 -0.1756791 0.4550324 -0.14902218 0.23250642 -0.23126766 -0.33368802 -0.22197711 -0.261193 -0.095297135 -0.3814929 -0.444281 0.18807128 0.46944353 -0.4090345 0.032179683 -0.11777567 -0.15785323 -0.11960222 0.009950331 -0.5291657 0.04385306
511 0.23566006 -0.009843651 0.042060334 0.89278334 0.004818704 0.9995693 0.56511045 -0.114549264 -0.163437 -0.25590822 -0.18051974 0.5432834 0.4775981 0.48451632 -0.1331909 0.5804402 0.0042243907 0.1713645 -0.6472113 0.6061769 -0.35013798 -0.11434355 0.39993054 0.22627428 -0.5242235 -0.24421634 0.20227617 -0.047304362 -0.08433003 0.564956 -0.16537549 0.14437781 0.68751615 0.005750972 1.2536789 0.388955 -0.42580998 -0.2783729 -0.5918446 -0.058778275 -0.16423777 0.77099943 -0.08664061 -0.7409158 0.5861318 -0.38342705 0.040061347 -0.16190264 0.701343 -0.1424137 0.5895478 1.075297 0.25431 -0.49226364 0.07050145 0.4717073 -0.026354533 -0.56758124 -0.3574299 -0.4993275 -0.3802403 0.77858996 -0.08478225 -0.2630774 -0.15301253 0.4537313 -0.75639886 -0.17473786 -0.30981597 -0.27024692 -0.09839042 0.24717037 0.3668552 0.14171657 0.5668123 0.25051984 0.20905164 -0.098061696 -0.44850338 -0.72085303
626 -0.3663556 0.3504329 0.39015347 -0.02295293 -0.060220618 -0.2171873 -0.2791178 0.0049563493 0.13978963 0.50921947 0.11770346 0.10079202 0.03162911 -0.14586294 -0.087114856 0.28660944 -0.38072413 -0.0052633826 -0.23221691 0.08885567 -0.07642329 -0.3588601 0.16921347 0.42145833 -0.21948127 0.15081641 0.23989183 0.71525747 -0.19166361 0.24558361 0.55840844 -0.75219464 0.54285794 -0.2316282 0.26617196 -0.23329091 -0.038294956 0.15136199 0.010344937 -0.32412836 0.24696748 -0.2144758 0.17842509 -0.041244905 0.12984787 0.63107127 0.16641979 0.30878815 -0.019158928 0.079834595 0.3986163 -0.20946403 -0.03207765 0.33232927 0.36468378 0.7984082 -0.20188412 -0.5531957 0.01773042 -0.30810434 0.24549705 0.46949658 0.44944915 -0.020125946 0.13634509 -0.072804436 -0.29241836 -0.0996979 0.25121754 0.34481484 -0.7680801 0.28852743 -0.57087964 -0.42101842 -0.049984068 0.17678377 0.2500591 0.08012385 -0.079017535 0.21216305
16 -0.08054509 0.360224 0.11270242 0.05230438 0.24303465 0.2554836 0.14911775 -0.08794532 0.006698025 -0.09496063 -0.26875475 0.29143888 0.34221822 0.29291922 -0.21566348 0.11429169 0.019158304 -0.032613322 0.17801414 -0.3196843 0.39197105 0.36896613 0.33360988 0.6134185 -0.1847644 -0.7728497 -0.45951694 0.00034283628 0.7601419 0.53592855 -0.08977218 0.02515443 0.46322143 0.13973705 0.57092184 0.38337606 0.8029725 -0.0025079234 -0.20107837 -0.10368744 -0.3939294 0.01631349 0.18970443 -0.32587272 -0.007741047 0.017167682 0.30610272 -0.0026802681 -0.35906103 0.3941956 0.17298855 -0.33092943 0.9373636 -0.40289012 0.024096984 0.63407767 -0.3296409 -0.17789188 -0.31256694 -0.12689994 -0.0003902531 0.4470156 0.4192118 0.5468927 -0.38459867 0.08146673 -0.7283911 -0.1672263 0.05497965 0.05905292 -0.49985418 0.41762614 -0.36505887 0.38738334 0.2617216 -0.13191886 -0.63185686 0.23269747 0.020424923 -0.12601066
66 -0.09759479 0.31613925 0.42078957 0.11559531 -0.0919184 0.003639177 0.24595402 0.18690635 0.03884055 0.23116308 0.14004786 0.4739577 0.48015657 0.35920805 -0.111713074 -0.39018807 -0.15169486 0.33085895 -0.10053755 0.29494682 -0.07965369 -0.0066008326 -0.41881394 0.960579 -0.17740776 -0.020579591 0.2723832 0.11668158 0.35172558 0.38025203 0.058862254 0.41502875 0.30533943 0.24914567 -0.07837898 -0.26006767 -0.48471114 -0.60225177 -0.32924673 0.021661129 -0.1345071 0.14663292 -0.24694219 -0.13269502 0.18547094 0.29736742 0.17450732 0.11718532 -0.092563875 0.07628194 0.2693185 0.43355623 -0.36895743 0.071155354 0.20976116 0.06425341 -0.08856619 0.098845 -0.5944436 -0.30885515 -0.10790259 0.18800636 0.014812135 0.5782087 0.02298061 0.1789536 0.14726683 0.33296353 0.34069017 0.2455484 -0.13833307 0.4086058 0.38834423 0.06130146 0.094744466 0.88479435 -0.2254676 -0.06492851 -0.14098124 -0.2107521
102 -0.40928376 0.10062258 0.2596144 0.7982309 -0.06199673 -0.03771994 0.26502493 -0.19918425 0.51648235 0.11271919 0.18683262 0.11514461 0.18980588 0.26386252 -0.32829037 -0.50509226 -0.027285833 -0.5615209 -0.21696043 0.33832523 0.20841852 0.3125249 -0.008204387 -0.0147593515 0.25677368 -0.24187246 -0.16180277 0.22068854 0.22012782 0.31341904 -0.02097529 -0.2663069 -0.020354273 0.88797146 -0.4601921 0.09358234 -0.34671456 -0.059664693 -0.0732088 0.06116988 0.28789097 -0.4432572 -0.5844752 -0.3789294 -0.3435256 0.12286289 0.21365204 -0.0030778097 -0.30548126 0.1243042 0.061618745 -0.061480764 0.23115659 -0.3574407 0.7044657 0.53309727 -0.038299784 0.14363374 0.25393647 -0.04984341 0.05400122 0.1106048 -0.057175964 -0.051312607 -0.12633705 0.108819544 0.0914861 -0.22499757 -0.5967236 -0.1709707 -0.27673674 0.29655895 0.14398563 0.0009560668 0.12850997 0.078111745 0.5800312 0.35601637 0.22664675 0.20554419
389 0.19016242 -0.4445416 0.27671722 0.18484625 -0.15988818 -0.08825833 0.26876187 -0.3385095 0.18859833 -0.027608717 0.119037904 0.42396867 0.2528167 -0.1532271 -0.23097348 -0.0113756005 0.17956437 0.22829069 -0.5897324 0.029125769 0.48613095 -0.055174164 -0.015486508 0.27933684 -0.56423986 0.20996946 -0.2352197 0.13850814 0.18578027 0.327903 -0.06500267 0.22296523 0.27135485 -0.13928212 0.6126862 -0.17314845 -0.14072415 0.4317069 0.29511648 -0.5168816 0.24682592 -0.1805521 -0.016326318 -0.36894912 0.2688945 0.52101976 -0.02375032 -0.21799007 0.22591482 -0.323017 0.5112421 0.15473643 -0.21838823 -0.016443312 0.20720884 0.012533787 -0.14067432 -0.10108351 -0.33202538 0.04829499 -0.5656933 -0.28463903 0.20917441 -0.09702313 -0.18745543 0.22254921 0.17150344 -0.29708678 -0.41929653 0.12677419 0.07635603 0.026817944 -0.16404442 -0.18507421 -0.2861893 0.17441624 0.055080585 -0.12022782 0.113593295 0.40583494
450 -0.2727446 -0.013853885 0.44994012 -0.50211257 0.405992 0.562108 0.12955883 0.32061043 -0.18293609 -0.16516812 -0.064073935 0.39237186 0.6671474 0.27827278 0.29178384 -0.092498675 0.12047018 0.018714825 -0.035894055 0.15999267 -0.32601628 -0.41964495 0.32419747 -0.09792582 0.35477346 0.06432878 0.78882235 0.09013877 0.40044114 0.3795338 0.0905378 0.53829896 0.7320349 -0.14997897 -0.28097847 0.055468544 -0.51836604 -0.45371267 -0.22672197 -0.19546548 -0.6601963 0.38195443 -0.37984714 0.07587025 0.19945006 0.09804931 -0.16677922 -0.088489085 0.68546075 -0.379605 0.5883834 0.22709912 0.25269175 -0.8913501 -0.014250917 0.098860145 0.48447126 0.43005455 -0.111485526 0.008965843 -0.33548933 0.09276726 0.08532909 -0.21634175 0.7351214 -0.40516478 0.1928811 -0.20923553 -0.28552786 0.30401382 -0.08112587 -0.25926027 -0.2642005 0.73441136 0.37319043 -0.6400294 0.1505604 0.6805576 0.06835318 0.29390636
127 -0.52530444 -0.29590443 0.44004172 0.6257011 0.31382567 -0.21347852 0.025098607 -0.18549499 -0.1431803 -0.305918 -0.7806008 -0.06694155 -0.18748365 0.41727394 0.011301426 0.047045376 0.30551118 0.1693529 -0.07517337 0.2363131 -0.017125046 -0.3078833 0.122798264 0.074338965 -0.20386039 -0.36044055 0.07715696 0.4206242 -0.19809537 0.126211 0.015281099 0.48036784 0.08662803 0.071257755 -0.3866126 -0.30024534 -0.059822585 0.06040166 -0.10784911 0.27133206 0.17084068 -0.022565333 -0.13944694 -0.16581883 0.2028075 0.20265773 0.04006655 0.29322442 0.049806047 -0.17655608 0.08859802 -0.26535338 -0.092916355 -0.19149935 0.24508658 0.058156893 -0.40062445 0.07674242 0.17362584 -0.24391373 0.009255193 0.5614618 -0.36607784 0.2082917 -0.25392035 0.15756525 0.13047588 0.33566657 -0.38589987 0.17212419 -0.13242115 -0.18584913 -0.29675645 -0.059026763 0.08582897 0.08886668 -0.0071686725 0.18347383 -0.13573341 -0.0025826858
15 -0.01872462 -0.2647546 -0.23245403 -0.2414342 -0.6844242 0.28561005 0.468235 -0.14508334 0.26488206 -0.28862762 -0.2714852 0.09573951 -0.024810053 0.35954678 -0.14557378 0.21758257 -0.21106951 -0.37894312 0.13920175 0.09477646 0.21954782 0.09684126 0.08149091 0.3419638 -0.18739681 -0.14876416 0.368503 0.42133743 0.027179882 0.079012394 0.366855 -0.23919384 0.7300736 -0.17272279 0.1952168 0.24652047 0.39628983 -0.16168116 -0.030574821 0.24166422 -0.07253093 -0.113237716 -0.036272354 0.30408317 0.0804469 0.11976263 0.052409384 0.03424404 0.121548854 -0.09984523 0.015449669 -0.07305492 -0.2950495 -0.009851289 0.06936946 0.36199847 0.21274303 -0.015548706 -0.034360662 0.07793813 -0.1176354 0.44426852 -0.08100614 0.103380054 -0.102417715 -0.073418304 0.2533778 0.2560179 0.009743992 0.016708558 -0.2301125 -0.041680813 -0.2455904 0.38132474 0.30059657 -0.40963146 -0.1143414 -0.20028229 0.19341344 0.3199018
186 -0.25962007 0.25930572 0.46161315 0.061092675 -0.30040383 -0.40368763 0.4111541 -0.02121633 0.08440379 0.09243488 -0.29332674 0.0502364 0.04209081 -0.07790817 -0.22279239 -0.49342358 -0.06248464 -0.24932319 0.03442946 -0.046099506 -0.18556973 0.23344404 -0.27716258 0.37169546 -0.38197535 -0.009876103 0.10963705 0.3115607 0.7758777 -0.15974078 -0.050529763 -0.3652208 0.1561715 -0.1085549 0.12785637 -0.15886533 -0.1576985 -0.10375262 0.22492084 0.08303722 0.0034600573 -0.024864135 -0.006120478 0.3679745 -0.07048067 0.06521618 -0.0051278225 -0.21021263 0.0082523925 -0.18307768 0.3367177 -0.017656615 0.18981712 -0.11099035 -0.08531072 0.5327445 0.30360067 0.44264197 -0.32830042 -0.5819576 0.09004218 0.39681143 -0.37448847 0.14200912 0.20579642 -0.15606762 -0.25290263 0.06739162 0.05958111 -0.10599217 0.716879 0.39419097 -0.15314704 -0.024779186 -0.001631049 0.20451312 -0.29437876 -0.045100022 -0.13342303 0.16808006
325 -0.41409463 0.17912738 0.40378407 0.06145187 -0.07562884 -0.28731045 -0.19464564 0.103299804 0.11614766 -0.06751289 -0.07560112 -0.056978285 -0.09498875 0.03191024 0.19059487 0.40970472 -0.040102046 -0.027545301 -0.021038167 0.15049496 0.27051687 0.06989268 -0.20648336 0.067461126 0.19258314 0.001475493 0.37589568 -0.05599598 0.10573387 -0.068714105 -0.04323595 0.32451525 0.22601496 0.2479157 -0.30082896 0.19650519 -0.13754128 0.13935389 -0.2898374 0.21091816 0.24082173 0.27585816 0.0032706193 -0.4010048 0.29907158 0.17901394 0.2138951 -0.14468415 -0.027132733 0.19658896 0.06755084 0.0765569 0.039813627 -0.14266329 0.28313062 0.06670778 -0.015266864 0.17033671 0.26609874 0.011215255 -0.2224869 0.15833905 -0.22961183 0.39116716 0.27993223 -0.10756455 -0.053858753 -0.19001646 -0.3290687 0.061989035 0.012980342 0.36521602 0.039887264 0.03151163 0.0018834603 0.040572226 0.25968468 -0.329678 0.4358652 0.3459379
264 -0.09773349 0.024499163 0.07737871 0.15301254 -0.048781328 -0.28524154 0.10358049 0.11057579 0.32367468 -0.11698066 -0.52832735 -0.428853 0.009646329 0.11032333 -0.22251235 -0.14006981 0.0408291 0.06864886 -0.32455066 0.040545464 -0.41635945 0.26698348 0.0036427532 0.2707849 0.40798464 -0.17786263 0.09168166 0.2517648 0.08914932 -0.36430037 -0.25223023 0.1403036 0.46695712 0.24967715 -0.22431754 0.16541952 0.13329808 0.51909983 0.15467295 0.4172478 0.32171595 -0.0023329272 -0.2653058 -0.025354201 0.18364672 -0.030394945 0.080844104 0.12467296 0.009092337 0.050676003 0.32117885 0.34455252 0.0040170965 -0.04235803 0.3959637 0.2503694 -0.060339395 0.11791887 -0.1224976 0.003118095 -0.40518492 0.2092005 -0.16318792 0.28098515 0.066300966 -0.062879995 -0.17218421 -0.19510894 0.06112519 0.052051313 -0.31729358 -0.10577395 -0.25604498 0.15780699 0.109923564 -0.16045848 0.03898915 -0.26360092 0.6639971 0.6504393
10 -0.15395544 -0.2236843 -0.7239521 -0.32410583 -0.40518817 0.40858778 0.60557765 -0.07836964 0.011996542 -0.08107244 -0.40277398 0.014018765 0.26818505 0.45016837 -0.6005534 0.18099694 -0.12261225 0.048748847 0.027777275 0.031068576 0.5066992 0.035049904 0.07295498 0.17754751 0.012313026 -0.18735464 0.042552486 0.33954704 0.09072896 -0.04452118 0.38557327 -0.024515998 0.3712174 -0.27313256 0.56064403 0.3563983 0.7188712 -0.48541734 -0.06617284 -0.3844727 0.13445795 0.2729782 -0.38094625 0.6250513 0.35376987 0.21071678 0.19411303 0.035958055 -0.117680386 -0.23554425 0.44450262 -0.45901698 -0.3766325 -0.43188512 -0.092844196 -0.056788526 0.25372136 0.5654022 0.08691765 -0.14870997 -0.0018775098 0.108652174 -0.6890115 0.15831876 0.15644878 -0.010450375 0.1316611 0.10176074 -0.53670335 -0.064247295 -0.35765398 0.37413892 -0.19677743 -0.08460285 0.10730019 -0.1626827 0.1885433 -0.0930036 -0.064101 0.46791226
259 -0.0906473 0.15624236 0.10067463 0.2161972 -0.17342725 -0.22735897 0.51563936 0.0518425 -0.1785465 0.15777756 -0.0956627 -0.11555959 -0.007493409 -0.09905963 -0.24331024 -0.020686356 0.10035536 -0.17718737 0.078564994 -0.055024315 0.17706499 0.044599865 -0.17998843 0.3199312 0.022459831 0.25231847 0.03786086 0.1217574 0.3679914 0.45827147 0.07200921 -0.09071343 0.21439499 -0.53235435 -0.2593121 0.22388604 0.3160386 0.35389435 0.054302085 0.09794417 0.1080103 0.13482958 0.096747406 0.05841015 -0.15158774 0.014537851 -0.1699348 0.018896505 -0.15273485 -0.23919939 0.38955235 0.26655135 0.02436945 -0.118884854 0.23329486 0.5381166 0.15894115 0.24287373 -0.13720576 -0.2380357 0.20329699 0.17584005 0.12963893 -0.09045926 -0.007294315 -0.178963 -0.20585571 -0.05774143 -0.004100521 -0.07426664 0.058693018 0.30812916 -0.23306274 -0.13581358 0.06850832 -0.15258768 -0.32299832 -0.02146592 0.044330515 0.24048562
667 -0.119513035 0.027370807 0.05862922 0.22927074 0.12348566 0.20890388 0.32371286 0.36173663 -0.15998521 0.27724972 -0.3365408 0.33771706 0.36914608 0.013570348 -0.13020204 -0.14620344 0.13373673 -0.3913043 -0.09158842 -0.17028803 0.4833036 -0.32669055 -0.088779226 0.07237882 0.05379066 0.26645333 -0.09212428 0.12580158 0.12952007 0.8184568 0.023748763 0.40509415 0.09929966 -0.5754885 -0.38293877 -0.09508933 0.8393884 0.2087967 0.00056878064 -0.44309422 0.13987884 0.118179895 0.041540876 0.10690668 -0.2285422 -0.20507407 -0.1321319 -0.18854553 -0.12526292 -0.22813608 0.38448516 0.27664596 -0.07407594 -0.15058395 0.054214668 0.44657344 0.118056 0.18343502 -0.26420677 -0.57583016 -0.11792731 -0.21407108 0.15253876 0.03917674 -0.083336785 -0.20244333 0.1341135 -0.19054541 -0.18544185 0.1540919 -0.109882265 0.31502077 -0.020779101 -0.45980147 0.06880216 -0.3359692 -0.31078687 -0.2245951 0.30235794 0.2199788
737 1.0045191 1.6869818 -0.37464106 -0.406557 0.24797313 0.16443394 0.7314166 -0.5974463 0.95436984 0.07105576 -1.658611 0.25625354 -0.7556786 -0.023038631 0.18340397 -0.33395892 0.97569376 -0.29584363 -0.49202883 -0.22622757 -0.6811976 -0.3288042 -0.58981 0.76156783 -0.4026352 0.047988605 0.7812761 -0.3128555 0.8183992 0.24708772 0.44171095 0.8337877 0.8517056 1.0334202 0.6030541 1.1594533 -0.83708686 0.003109747 -0.5154227 0.5673439 0.9520421 1.2515879 -1.2972279 0.097354494 -0.9810164 0.3066159 0.033891022 0.06761637 -1.1446106 -0.13174686 0.34713104 -0.4127984 0.025924215 -0.48925558 -0.7194146 0.30720136 0.6347426 -0.28464615 1.6910874 -0.6518366 -0.883619 0.11646925 -0.27524638 -0.12093428 -0.7614338 -0.3279729 0.24512617 -0.20780486 -1.1552894 -0.17047985 -0.28714457 -0.38015676 0.8442279 -0.6339169 0.19282219 -0.03955472 -0.84861803 0.05225009 -0.71166146 0.6111581
573 0.27601892 0.07775726 0.4867891 0.05579321 -0.049531817 -0.12708654 0.32051393 -0.09639362 0.08763856 0.06255881 -0.12786637 0.24196593 0.2036207 -0.33298135 -0.06394683 0.11591512 0.1897408 0.101080894 -0.45462447 -0.09666015 0.5854278 0.387319 0.21252437 0.27914926 -0.1598375 -0.17846677 -0.29367417 0.121622294 0.1523434 0.40566173 0.34009352 0.11768658 0.029470624 -0.17347834 0.3552227 0.08745286 -0.111612074 0.15403165 0.1807941 -0.8260914 0.080256395 0.009661175 -0.31819382 0.30180106 0.41527298 0.40607858 0.18333313 0.033974975 0.052979838 0.105882674 0.17417437 -0.077763386 -0.26300624 -0.056504235 0.30946824 0.4996184 -0.17548229 -0.045700885 -0.27198175 0.20209523 -0.055397436 -0.3033278 -0.11483259 -0.8211724 -0.163539 0.038956728 0.05919668 0.17205562 -0.34635425 -0.06824564 0.105120726 0.26327807 -0.22747393 -0.15904322 0.15584496 -0.13081916 -0.16340825 -0.21820867 0.12286163 0.28985766
32 -0.7367488 0.01823034 0.04022708 0.026854688 -0.0727491 0.5657769 -0.0009773514 -0.56613344 0.4207482 -0.2569223 -0.04280552 -0.118544966 0.310734 0.021444913 0.041050386 -0.41617715 -0.1025948 -0.0441126 -0.56370574 -0.7275977 0.21889514 -0.0074385097 -0.23919961 -0.15888776 -0.56879187 -0.004363437 0.13551162 -0.22197258 -0.3435178 0.60385865 0.51064587 0.8194414 0.26009983 -0.27403572 0.36027145 0.049594402 -0.88826996 0.17057043 0.057647593 0.276938 -0.1262877 0.16561463 0.1650021 -0.043605007 -0.46734774 0.24256387 -0.5449443 -0.41138315 -0.2432355 -0.3377341 0.47708213 -0.3732494 -0.63424295 -0.26885423 -0.28391418 0.47932443 -0.37119788 -0.16287944 -0.2641512 0.20052017 0.00919094 0.36634672 -0.2515639 0.44316915 0.4293917 -0.59880126 -0.16673863 -0.1297307 0.37883702 -0.096103355 -0.45805842 -0.017896736 0.014349822 0.06243973 0.27371946 0.05236173 0.22507913 0.061712172 0.24994268 -0.030087195
530 -0.18479376 -0.5681942 0.39301413 0.51550555 0.36552182 0.08391289 0.7826545 -0.36810893 0.30562896 0.52498084 -0.6169988 -0.85679555 0.27652603 0.3937946 -0.060983047 -0.5768519 0.1295159 0.058849253 0.4753698 -0.5411937 1.0963055 0.07241305 -0.27290803 0.6374319 -1.0848666 -0.55584866 -0.042261355 0.5939273 0.9184899 -0.72886026 -0.44027227 0.24694683 0.5265513 -0.7562679 0.3916396 0.24806139 0.11701676 -0.031272072 -0.0520379 0.26868817 -0.5773806 -0.3396136 -0.6228438 -0.539373 -0.17674601 0.15478899 -0.24647458 -0.0046602036 0.13934425 -0.028307615 0.10160308 -0.64554614 0.20483725 0.3095897 1.0141194 0.17206569 0.28488764 0.66021824 0.3819643 -0.80492777 -0.08906036 0.8703346 0.3082748 -0.40034148 0.50029576 -0.67554677 -0.11197113 -0.35274175 0.59621465 -0.21518938 0.26749563 0.13404499 0.8327087 0.19942313 0.26579985 0.14044933 0.45569137 0.036677547 -0.09728879 0.23556948
470 -0.5385788 0.21613345 0.0020465623 -0.3080824 0.14629802 0.6068884 0.14906622 -0.75934654 0.34138358 -0.34057716 0.08068311 0.07609163 0.5800527 -0.10922195 0.11844418 -0.4285073 0.2661411 -0.3089088 -0.56083584 -0.58677953 0.33152854 -0.023051735 -0.25159794 -0.17361915 -0.8128395 0.0008182938 -0.031104794 -0.291842 -0.10634711 0.22876821 0.5764704 0.69855964 0.318148 -0.29276818 0.60059035 -0.098422095 -0.89567006 -0.037040636 0.18058401 0.37647438 -0.22023587 -0.06210041 0.23884398 -0.26909378 -0.079110116 -0.28530937 -0.40870067 -0.4564076 -0.2991198 -0.06517196 0.44558752 -0.3557616 -0.7912688 -0.6455149 -0.10268759 0.4927809 -0.5649679 0.0320993 -0.5759327 0.008598348 0.14293164 0.37170708 -0.27214804 0.6630452 0.48247442 -0.40117 -0.071312025 -0.2544249 -0.25694144 -0.16510972 -0.5453489 -0.081550844 0.004666733 0.047499496 -0.008470715 -0.26034892 0.40976524 -0.0888977 0.2564667 0.20708367
