3509 20
635 0.021534733 -0.26798734 0.15826195 0.0085815955 -0.32225004 -0.2753081 -0.040508576 0.24482048 -0.18087472 0.124872185 -0.09693794 0.10983264 0.27288643 -0.15569612 0.18730126 -0.34867513 0.22448896 0.41555506 -0.08796083 0.103462204
715 -0.5065254 -0.29511616 -0.020905374 -0.6510489 -0.34402293 0.347326 0.109216176 0.40317556 -0.42306936 -1.0098081 0.3080541 -0.014907895 0.19109297 -0.03323979 0.22267953 -0.2775937 0.2988431 0.27247116 0.035220224 0.12926131
2804 -0.4560129 -0.20775723 -0.37706834 0.23809847 0.30882826 -0.7641074 -0.3715794 0.5090066 0.18951313 -0.77423435 -0.42509446 0.45433778 0.138619 -0.0463646 -0.014286485 -0.07387707 0.6275956 0.24645372 0.2908075 0.22290257
1408 1.4384328 -0.8501313 -0.69897455 -0.26772904 -0.15967499 -0.028325101 -0.6244577 0.88133234 0.060357206 -0.64822805 0.9273037 -1.3761305 0.4149508 0.27512836 0.7519649 1.1534466 -0.92435384 1.7174668 0.56614625 0.5667383
813 -0.18423846 0.09166931 -0.017538162 -0.2148803 -0.30323538 -0.3793953 0.10856013 0.6320715 0.30809376 -0.6181588 -0.38217652 0.47809863 -0.0019867052 -0.13283531 0.49992737 -0.50749326 -0.5856063 0.28039643 0.38332263 0.12821734
3401 0.22709422 -0.06801623 -0.38350785 -0.014509786 0.057193376 -0.2897782 0.057704777 1.0180391 0.033403117 -0.060946573 0.3336726 0.1279161 0.16506456 0.49392825 0.086722374 -0.77545387 0.52816236 0.09806235 0.08648024 0.26609144
1156 0.2240447 0.1627841 0.097615294 0.018034695 -0.38975683 -0.27351993 -0.18953963 0.6551204 0.15508275 -0.8016606 -0.26776364 -0.21551526 0.47964746 0.036463365 0.23837775 -0.5189696 0.029110866 -0.2102569 0.11734045 0.06717928
537 -0.09522224 -0.6536607 0.73809314 0.47044438 -0.49681276 0.94296587 -0.6809627 0.36514643 0.03720762 -0.53344804 -1.1217703 0.38703638 0.71849304 0.2521617 -0.10007678 -0.42951113 0.34644505 0.20288621 -0.02372439 0.54793996
291 0.20684274 0.45211482 0.1410944 0.07838531 0.06828648 -0.14372683 0.20830177 0.21487075 0.056430597 -0.5677092 -0.40682894 -0.15924855 0.35560936 -0.1287628 0.5595142 -0.3693681 0.2449349 0.03376018 0.42231324 0.5066428
1587 0.15372321 0.21881242 -0.032997474 -0.03412831 0.07323061 -0.2353286 0.4001227 0.24385431 0.011374069 -0.7217429 -0.76598096 -0.27456623 0.42216986 -0.2647884 0.5574699 -0.34605813 0.3670921 0.05324401 0.19880526 0.16386284
432 0.34226602 0.7878646 -2.083409 -0.5292701 -0.7631252 -0.732816 0.0528512 -0.19330037 0.9197498 -0.86704147 -0.30416843 1.458823 0.9559274 1.6056619 -1.6483592 -0.9004963 -0.066017255 2.0822427 -0.5557606 1.4587544
1293 -0.60727197 0.042586748 0.29387808 -0.0155548835 -0.3494419 -0.44581372 0.05096199 0.3542257 0.10087095 -0.5682189 -0.5828183 -0.38444522 0.37349814 0.42294902 0.7505597 0.030519541 0.16598465 0.36925313 -0.023338769 -0.17244391
21 0.82308424 -0.34958896 0.066369876 -0.2827549 -0.26232842 -0.053888865 0.43476644 0.23410636 0.06536491 -0.7808879 -0.31016693 0.1579868 -0.2438607 0.4140521 0.8467821 -0.38816684 0.20454225 -0.2904425 -0.38697433 -0.21015483
293 0.38912356 0.5806401 0.2169305 -0.40188813 0.11085768 0.45051605 -0.5579202 0.54374224 0.2952348 -0.3188802 -0.16793796 -0.19313873 -0.21023285 0.03623305 0.462448 -0.06769635 0.3967064 0.23450151 -0.13739046 0.828484
753 0.38298798 -0.7293104 0.44964722 0.87309873 -0.52813077 -0.2981342 0.5365821 0.7088155 -0.036689773 -0.7644068 0.07337663 0.020580024 0.45295173 -0.3881592 0.081912965 -0.15903153 -0.11037724 -0.056875467 -0.13154136 1.2805883
177 -0.3333103 -0.05138496 1.3084748 -0.44989496 0.2404883 -0.17983857 0.5709347 0.004623411 0.12134995 -0.15915596 0.10838963 -0.18912213 0.11278315 0.99321574 0.39590237 -0.03613372 0.38764912 1.359323 0.20709358 0.51391834
662 -0.44907108 -0.15046568 0.25092262 0.82180876 0.15591739 -0.3754766 0.11629477 0.55756944 0.42681512 -0.6119312 -0.08517134 -0.21366757 0.13762125 0.071241364 0.6595919 0.070116766 0.5840917 0.5621213 -0.06539129 -0.18957706
1541 0.09677735 -0.5809671 -0.25027314 0.09979256 0.08201941 0.11747641 -0.012631303 0.25994942 0.85371494 0.07118932 -0.18630289 -0.34210375 -0.1786437 0.27185076 0.64178926 -1.0246153 0.17087264 0.25853458 0.43579063 -0.073736235
876 0.42582655 1.2979596 -2.1203864 0.22099783 -0.29856414 0.14044343 0.6331491 0.4825458 0.38168722 -1.3116537 0.12547305 0.5856205 -0.4830171 1.1793412 0.62234545 -0.6223906 -1.0040674 2.0848646 1.6506258 1.1779579
1341 -0.0944412 0.41476834 -0.9555124 -0.5328691 0.3346009 0.5827414 -0.705552 0.030429374 0.16092454 -0.30487382 -0.59196234 -0.79679966 0.05506063 -0.01289981 0.32191873 0.16034092 0.6847444 1.0705857 -0.7092236 1.1778641
105 0.29793987 -0.74684155 -0.36846223 0.42992842 -0.30373615 0.9172399 0.44755298 0.19835153 0.38342005 0.12474586 -0.32324716 -0.40026525 0.27319485 0.36186263 0.52950186 -0.5491779 0.43294942 0.23002882 0.445395 -0.178655
499 -0.34755903 -0.17522494 0.5175567 0.15854193 -0.14890979 -0.25826645 0.31866243 -0.5575726 -0.049009994 -0.12898897 0.23735501 -0.2865896 0.3642308 1.1338688 0.21986586 -0.3847518 0.38845938 0.56255996 0.5634275 0.9140102
274 0.55678684 -0.23150109 -0.22305009 -0.03666856 0.095960625 -0.42300484 0.013148285 0.08556411 -0.77551866 -0.43086246 -0.23032649 0.54846346 1.0095178 0.6353754 0.7505973 -0.07457169 0.124171734 -0.41545835 0.074732386 0.46286628
43 0.6374289 -0.3248881 0.10492881 0.33244923 -0.2533854 0.020192523 -0.037088007 -0.33356693 -0.6488097 -0.5817604 -0.14550379 0.53879106 -0.35863027 0.5600416 0.800853 -0.18497469 -0.10704812 0.4593085 -0.7384716 0.0895142
149 0.30358016 -0.82362676 -0.17328955 0.111454345 0.1775623 0.37782392 0.35820848 0.33749884 0.8243564 0.011480142 -0.13892151 -0.2658973 -9.948859e-06 0.6409162 0.6141482 -0.8310385 0.50112814 0.038345978 0.45609006 -0.1760008
175 3.4058747 -2.4018838 -0.93280256 -1.8808706 1.913399 2.550453 -1.037621 -2.7863655 3.87209 -2.8839393 -1.4642606 2.9895957 2.8848073 0.89492846 1.4338329 -2.8373427 -2.433098 2.665402 1.1081117 -0.1935983
220 0.5882453 0.71539056 0.59325576 -0.4014367 0.05223518 -0.09826446 -0.5612292 0.45462427 -0.092413165 -0.21035823 -0.09089655 -0.16451696 -0.24329956 0.43619233 0.27281854 -0.5160509 0.4638688 0.39817527 0.43379384 0.7111941
34 0.4845581 0.023811163 -0.080668956 0.1514722 -0.25281337 0.20715564 0.5831269 0.4602959 0.25705025 -0.5779055 -0.3852489 0.055684008 -0.3336094 -0.1972853 0.6682741 -0.5398664 0.47022322 -0.07183894 0.04053884 0.032327283
624 -0.030624973 0.12124279 0.41107902 -0.04730185 -0.30393893 -0.28549755 -0.40992498 -0.10167242 0.6091947 -0.24852823 -0.27433538 0.17540577 0.03776222 0.05347327 0.92316383 -0.13739666 0.16801134 -0.25974354 0.565948 0.73865163
1340 0.047502495 0.29226878 -0.9412997 -0.5025758 0.37735227 0.56573975 -0.79401904 0.04908312 0.14643997 -0.28749958 -0.49625346 -0.8027063 0.09564053 -0.04545898 0.26808664 0.04265627 0.66411716 0.9685607 -0.7634807 1.2390752
257 0.31987754 -0.80080354 -0.45179972 0.32262203 0.1763605 0.29012498 0.2885605 0.28065303 0.73251194 0.15313232 -0.2133943 -0.40547615 0.30135307 0.3699481 0.4062702 -0.76699275 0.65812945 0.16830236 0.27189332 -0.110789776
333 -0.3214117 0.2637894 -0.16084012 -0.011794881 -0.84043026 -0.0048246197 0.6636203 0.28302792 0.9472018 -0.9235112 -0.013973824 0.3858652 0.303361 0.114207074 0.07441481 -0.28759873 0.31464848 0.2175746 -1.0399686 0.49873266
2374 -1.5553285 0.8085847 -0.7993433 -0.9313488 -3.8486273 0.331791 2.3343937 2.8370016 3.3311186 -1.5268432 2.5489218 0.11741171 -0.58248824 2.8867862 0.78147113 -0.3063263 2.736517 2.3235915 -2.5110104 0.45996895
1176 -0.9145045 -0.17007475 -0.37915385 0.39374623 -0.91873467 -1.247395 0.18888424 -0.15036368 -0.008955252 -0.3577899 -0.36789066 -0.38024443 0.42194352 0.302921 0.42433575 -0.18181193 0.6925864 0.30345908 0.16263278 0.5480628
394 -0.23169947 0.033145048 0.30250627 0.17373459 -0.05341616 -0.017965734 -0.25314435 0.47874525 0.9585918 -0.2883606 -0.112554766 -0.095514275 0.27105802 0.21841006 0.8877679 -1.062339 0.10831411 0.047146123 0.37459108 -0.02348599
2741 0.025569076 0.07967996 0.25336143 0.20670885 0.20229456 -0.60714763 -0.63519615 0.4969897 0.28993177 -0.34174752 -0.015445081 0.36179194 -0.2466403 0.13379045 1.1209764 -0.6151022 0.212639 0.058413565 0.32381412 0.16084428
750 0.30027944 -0.62271464 0.45170236 -0.23364764 -0.4630227 -0.49174193 -0.28779203 -0.11402302 0.045006324 0.030580748 -0.5558467 0.07598446 -0.5242295 0.16764158 0.58380026 -0.2830352 -0.15899016 0.15521085 -0.24206318 1.0214916
55 0.73989534 -0.219481 0.19053556 0.31026608 -0.07720189 -0.027823003 0.2509525 -0.24439749 -0.910551 -0.52985954 -0.080269 0.022511547 -0.19145793 0.7850226 0.54398626 -0.14311163 0.109096676 0.51853764 -0.25687286 0.17147532
5 -0.09698862 -0.574316 0.44858328 0.4447011 -0.7190473 -0.29220834 -0.730373 -0.17812468 0.100707695 -0.2979242 -0.53750575 -0.013472441 -0.48493737 -0.41926384 1.1541594 -0.23020852 -0.2919105 0.23873302 0.42144948 0.64903635
383 0.44259658 -0.7349476 -0.26260763 0.42418396 0.0679022 0.6820362 0.08262941 0.28980917 0.2784324 0.26307738 -0.60806537 -0.48902804 -0.011480996 0.5832349 0.49838585 -0.59596074 0.48649752 0.25367302 0.21827054 0.12042079
132 -0.19478235 -0.041436173 0.38393635 0.26016703 -0.12945896 -0.42660752 -0.2900009 -0.13685577 0.4059471 -0.40317273 -0.4438875 -0.003115789 -0.059433583 0.06730496 0.62749577 -0.16691431 0.167453 0.13538781 0.67643106 0.22999376
209 0.55361587 0.029986758 0.28852728 0.3767355 -1.602745 -0.06473509 -1.1667945 -1.4366592 -1.23232 -2.0161302 -0.04102447 -0.8515233 0.8885623 0.37726378 0.36589673 -0.58677197 1.9897074 0.39973146 -0.14625357 -0.0765889
1193 -0.31343064 -0.060346153 -0.18951684 1.0312597 -0.62135583 -0.64958084 0.39339817 -0.45350266 0.2934485 -0.5652018 0.12878613 -0.23177627 0.049659614 -0.12371176 0.29162768 -0.032871097 0.5669481 0.44911447 0.14896008 0.52015847
179 0.21813019 0.8796581 1.2699891 -0.104292534 -0.14414842 -0.22657597 0.3037626 -0.36897564 0.4650007 -0.47648045 0.23943235 -0.24192452 -0.14811504 0.67045367 0.6823099 -0.44989845 0.3040178 1.1694313 0.08427932 0.6915557
562 0.063041076 -0.30993864 0.76306194 -0.6991207 -0.23040175 -0.05695582 0.21789615 -0.72771096 0.19689792 0.2003058 0.042144973 0.48700798 0.41115466 0.28672254 1.1146005 0.0660695 0.7514385 0.12531026 0.25625896 0.7702022
1820 0.40613383 0.061717805 0.67978525 0.027685747 0.091608115 -0.1992701 -0.50765836 -0.5909893 -0.11866593 -0.9248534 0.64456314 1.1440595 0.16957444 0.46170732 0.91352606 -1.216244 -0.02825148 1.0962008 -1.325068 -0.1549728
75 0.47613123 -0.74630207 -0.10991405 0.2856245 0.28373298 0.17025772 0.34566644 0.2343512 0.7034333 -0.08286679 -0.4518333 -0.51415753 0.13636017 0.06355839 0.4100593 -0.73636085 0.6134017 0.14415891 0.1894407 -0.01773778
1342 0.11192864 0.52160734 -0.79011524 -0.5295504 0.38311636 0.71710396 -0.7165114 0.14852135 0.08319179 -0.14828879 -0.5332267 -0.8302532 0.11455031 0.14510353 0.3460431 0.11449236 0.79380774 1.0717882 -0.63589466 1.2326708
382 0.18510371 -0.8818917 -0.41088465 0.3386069 -0.0841775 0.7791023 0.2713881 0.29039016 0.3269589 0.27755812 -0.3950229 -0.4485968 0.36796343 0.44945583 0.44247603 -0.6951871 0.5166842 0.3865115 0.3193421 -0.14613771
1453 -0.20891178 -0.2748041 -0.47764513 0.005781319 -0.33346862 -0.122219 -0.1519678 -0.13229908 0.8031002 0.104147725 -0.2793346 -0.09172434 -0.022256192 -0.21260709 0.7940709 -0.9675476 -0.6572387 0.5437047 -0.09338504 0.53485274
193 0.3885802 0.017019484 -0.6111996 1.2209712 -1.4985436 0.84390724 0.22292492 0.19534451 0.16839504 -0.67035264 -0.4807355 0.101446 -0.35816234 0.0038972637 0.87351936 -0.6646004 -0.40158772 0.08376801 0.17575385 0.5054083
166 -0.30766782 -0.61917293 0.877424 -0.7675513 -0.4683004 0.07635754 0.4411994 -0.20935832 0.052131608 0.1101177 -0.0580284 0.41403806 -0.005388733 0.72894186 0.7059435 0.059051793 0.3130354 0.21306382 0.15124097 0.8658517
254 -0.69374037 0.14648537 0.6573894 0.11305308 -0.44194087 0.09849982 -0.82559246 -0.19404386 0.9983419 -0.11039413 -0.24904461 0.0038980297 0.98692214 0.16236827 0.7235538 0.043976933 0.08037583 0.34813967 0.6861626 0.68852675
1234 0.2701923 -0.742683 -0.44190323 0.3489413 0.12397897 0.27313864 0.20765765 0.37733305 0.64601517 0.11493063 -0.17629813 -0.45350465 0.2677751 0.34137842 0.35478866 -0.7892184 0.5126702 0.25612548 0.37097108 -0.23958074
451 0.42353266 0.21193035 0.7095241 -0.2714044 -0.49774656 0.80595845 -0.4018541 1.04759 0.46935484 -0.19800007 -0.58518463 0.03997601 -0.4738516 0.09260266 0.6722056 0.087490074 0.5178647 0.0028139772 -0.19128475 0.9939311
708 -0.25129098 -0.50615215 0.7066645 0.8534398 -0.0034004615 -0.33152422 -0.4011343 0.30309024 0.6699451 -0.7116472 0.34199625 -0.060194913 -0.31389093 -0.058417536 0.801759 -0.07008181 0.08177196 0.35685322 0.17737316 0.3105376
445 0.06711972 -0.10020533 -0.1705492 0.82890683 -1.0830921 0.09001323 0.6205695 -0.17923248 0.25349864 -0.57410306 -0.038607128 0.09214489 -0.29062998 -0.12993133 0.07718963 0.020637544 0.47538647 0.37750402 -0.40697274 0.54146564
370 -0.12881638 -0.011552142 -0.4578828 0.44795325 -1.0876361 0.121668085 -0.50980014 0.08943507 0.56711984 -0.32289952 -0.67653817 0.03881411 -0.3564555 -0.49424008 0.85413843 -0.630655 -0.770929 0.44598827 0.26954916 0.42576277
100 0.20422024 -0.29926893 -0.1181223 0.10293255 0.12037015 -0.046738118 0.3035198 0.23732959 0.6787112 -0.25121018 -0.3845781 -0.3371768 0.26974794 0.06763727 0.5049485 -0.6653836 0.19687404 0.04239897 0.37272504 -0.10810465
1747 0.4314288 -0.14476138 0.16767752 0.83356583 -0.19392249 0.06470722 0.28760332 0.5280716 -0.3841642 -0.36072403 0.10736184 0.63866633 0.28301647 0.5381554 0.12784691 0.046565797 0.6789313 0.758794 -0.1658833 -0.6153666
88 0.663403 -1.9535403 1.1458871 0.18889865 -0.9481396 -0.06557903 0.7143865 0.0578498 1.3357592 -1.2235055 -0.4417249 0.15731485 -1.3219584 -0.85751104 -0.47418875 0.20245042 1.0238011 1.4885498 0.47705126 -0.42146078
13 0.19042173 -1.0059004 0.61023486 -0.067955285 -0.30004853 -0.18759665 0.39926907 0.3728638 0.21232341 -0.816076 0.5053951 0.09848285 -0.5360967 0.18608592 0.41131434 -0.09655707 0.17282206 0.27664113 0.057993755 -0.06320787
525 -0.30753326 -1.2102904 0.55576706 -0.15214878 0.45739558 -0.03543927 0.41076797 0.6923229 0.58947194 -0.077847145 -0.5265167 -0.12786967 0.79207003 0.38174346 -0.16581869 -0.29675338 -0.12369728 0.6866758 -0.27479953 0.25596985
810 -0.038115688 -0.40042055 -0.22150144 -0.112924874 -0.548834 -0.6284075 -0.20011124 -0.2835731 0.5805911 -0.30415243 -0.21084034 0.107204735 -0.35747108 -0.113324605 0.76276785 -0.9969178 -0.9456218 0.3536865 -0.1482752 1.1011224
343 1.0217382 -0.27910194 1.277286 -1.3087758 1.2149079 -1.5851421 0.7537041 -0.92799443 0.8195317 -1.4342657 -0.91610575 0.6305312 -0.23771289 0.42690468 -0.036515 -0.32263145 -0.7536492 2.5215175 2.410833 1.1275877
1732 0.6007681 -0.28363276 0.1945158 0.65529174 0.12198885 0.25959373 -0.09394559 -0.22164956 -0.59457415 -0.5578781 -0.114511676 0.8998188 0.0063158865 0.47109225 0.72033083 0.10336002 -0.2241549 0.852864 -0.75782055 0.046683248
1210 0.2584766 0.14137492 -0.22516352 -0.47285402 -0.016201159 -0.026489608 -0.3610307 0.94464535 0.18323262 -0.53617686 0.2418462 0.08037858 0.08548736 -0.3535552 0.41099808 -0.32452646 0.048517052 -0.074214645 -0.32186952 0.57657367
638 -0.34314194 0.54095876 -0.16707945 -0.3951496 -0.0659054 0.82955724 -0.20505308 0.3690078 -0.098805636 -0.19757032 -0.24683875 -0.60593706 0.7219161 -0.17040224 0.43364882 0.36107713 0.48232117 0.7840998 -0.14653201 0.8874823
621 0.4823418 0.9105281 0.30757782 -0.17857164 -0.07268337 0.0086214235 -0.47018927 0.54217154 0.071554564 -0.3638409 0.14316505 -0.09745441 -0.21112408 0.2871349 0.3246934 -0.31322488 0.34750918 0.3584783 0.13317186 0.61276174
549 -0.08326437 0.33129472 -0.408478 -0.2737435 -0.00031352736 0.32216138 0.123656616 -0.11054089 0.066218026 0.00861109 -0.059399795 -0.6201588 -0.2754501 -0.04170303 0.4071004 0.0012278486 0.5448206 1.1866307 -0.70176935 0.85289097
214 0.7745787 -0.24945708 0.15282315 0.47549912 -0.59352714 0.16587687 0.18915573 -0.0954938 -0.8151284 -0.5046947 -0.2602078 0.33173174 -0.29380137 0.6318831 0.16224976 -0.11838125 0.3317798 0.6097923 -0.36667356 -0.13384649
146 0.2897665 0.6010678 0.1509182 -0.1026292 0.056605224 0.11712255 -1.0545268 0.15759936 -0.26612037 -0.35240737 0.32483947 0.07833174 -0.3201736 0.45763126 0.7657773 -0.69125956 0.21140893 0.43599978 -0.20419699 0.38472736
28 -0.23794264 -0.2598968 -0.030309012 -0.29303673 -0.41874787 0.09379165 0.23104887 0.056066804 0.42782664 -0.48431543 -0.025046086 0.07866157 0.51091766 0.37308577 1.0500065 0.040544067 0.36229044 -0.2922678 -0.42438602 -0.09299233
781 -0.18381128 -0.6012993 0.3208682 0.89121735 -0.23034084 -0.5710317 0.05227192 -0.23275438 0.4974851 -0.30187708 0.4162252 0.0051564802 0.18328828 -0.31550938 0.39955482 -0.48190182 -0.10488328 0.39556167 -0.0036224953 0.8186941
1727 0.5875295 -0.33231452 0.20417967 0.65711814 0.15518765 0.32154515 -0.10664397 -0.22778705 -0.6231345 -0.6301473 -0.12764302 0.95712894 -0.04340326 0.60196656 0.7879847 0.1462331 -0.24021924 0.9036891 -0.80020386 0.028452523
103 -0.71868575 -0.7182385 -0.13606478 0.28414866 -0.21927899 0.6643294 -0.52200925 0.16677497 0.15075128 -0.18818766 -0.52334577 -0.47066772 0.789681 -0.0995547 0.18043946 0.090242825 0.11674337 0.3409692 0.114884004 0.4512612
198 -0.3604471 -0.34439227 0.19598459 0.68972284 0.07956273 -0.6006793 -0.10921458 -0.164714 -0.39476255 0.12968785 1.1297107 0.39787355 1.382366 1.3581427 0.6485585 -0.33022565 -0.05062581 0.78181237 -0.038018864 1.1492052
1545 -0.08097379 -0.8278374 -0.100986995 0.23651125 0.18357643 -0.36570182 0.18716559 0.04553657 0.96189386 -0.41052687 -0.24561107 -0.075466275 -0.23588923 0.38903877 0.4324964 -0.5480535 0.4940119 0.03963068 0.57061553 -0.19624852
2661 0.19650078 -4.892781 -5.514806 -2.3595054 -0.10257343 2.8158846 2.3990707 1.0800983 -2.151395 0.44355062 -1.770598 4.033731 -0.04461132 -1.0759978 1.4476559 -0.43694103 -1.8882395 5.5215416 1.7155948 1.5806468
555 0.07392095 1.0458285 -1.1898984 -0.7001377 -1.1066549 -0.4237862 -0.47226936 -0.6056758 0.93557185 -1.1802688 -1.1421124 0.95821446 0.16498187 1.5223281 -0.33096364 0.051159818 0.25926143 1.4491087 -0.481221 0.6917499
675 0.0688551 -0.09528535 0.3055176 0.86104804 0.06782278 -0.18319757 0.15703079 0.7137683 0.06844283 -0.26282904 0.28019863 0.41849175 0.45407996 0.47514775 0.29125398 0.070108235 0.93495953 0.72749794 -0.1995823 -0.54434305
60 0.255766 0.09323315 -0.04913601 1.1584016 -0.0368035 -0.06002099 0.88308847 -0.40670824 -0.20562884 -0.44846624 -0.19194147 0.6601478 0.23557189 0.44105098 0.8178609 0.34319907 0.4141812 0.9821934 -0.32262585 -0.052559774
3321 0.5656333 0.10524022 -0.6158794 0.09175477 0.12640578 -0.17079984 0.99752164 -0.07623444 -0.36646017 -0.91420686 -0.85484844 -0.2631717 0.089661874 -0.2711139 0.37947896 0.2662055 0.7543814 0.39160118 0.3138812 0.1183483
1170 0.48599574 -0.6843881 -0.13622901 -0.4788471 -0.47708943 -0.2402946 0.68665755 -0.039940733 -0.25578037 0.06841329 -0.35442314 1.0163095 0.63462174 0.47133774 0.42885137 0.018836515 -0.04164002 -0.31901178 0.57253045 0.96646655
3324 0.5578478 0.115437046 -0.5720264 0.09912258 0.14804631 -0.16033201 1.005527 -0.07705548 -0.370126 -0.86483335 -0.7703232 -0.20806502 0.04162241 -0.23654649 0.37882823 0.26300824 0.77255464 0.4391825 0.2856078 0.1448482
1863 0.6450898 -0.18087174 -0.18035728 0.7137748 -0.18361919 0.0073975814 0.67923653 -0.18128511 -0.54386353 -0.5749231 -0.34606293 0.32719514 -0.12742 0.3275673 0.2654413 0.13124143 0.39473245 0.5606434 -0.14391069 -0.04162877
2770 -0.09157081 -0.8963428 0.45608804 0.7051358 0.65983933 0.8341029 1.3372298 0.7694585 0.6031484 -1.0390527 -1.515596 -0.7096938 2.1592305 2.0497289 -1.1749514 0.41553128 -0.079164304 2.7541256 0.043702155 -0.16139384
1236 0.34446818 -0.8320169 -0.38818112 0.3207463 0.07968972 0.4161571 0.14730121 0.47022873 0.56628066 0.30176365 -0.16441996 -0.32598007 0.18381405 0.38308436 0.34208128 -0.80598515 0.575998 0.24398033 0.2838281 -0.036807302
611 -0.054362454 0.0003473626 0.09218248 0.13363817 -0.4628009 -0.10591426 0.3015869 0.162088 0.40504095 -0.65009457 0.022177748 0.42438963 1.1288854 0.38348293 0.42289746 0.04662144 0.075932436 -0.1037854 -1.3988467 0.79059875
588 0.12872833 0.68950796 -0.16994554 -0.18350862 -1.0559766 -0.08222703 0.36307275 -0.07511166 1.1058699 -1.0619278 -0.20534265 0.5760275 0.21580571 0.8898254 -0.4488231 -0.1612324 -0.013425412 0.7698576 -0.5763035 0.8076958
153 0.4429717 0.07145393 0.02368121 0.06799276 -0.39448255 -0.35237026 0.14531061 0.50728726 -0.1755462 -0.4931535 -0.20268723 0.20594192 1.000244 0.22979419 0.028681826 -0.608679 0.6331 0.043803103 -0.1922157 -0.48929092
215 -0.18166482 0.13691625 0.7713558 0.56426185 0.024708567 -0.18001127 -0.1992291 -0.8282348 0.19818152 -0.55995274 0.030961715 -0.2588803 0.73605174 1.184934 0.3516763 -0.7726032 0.20716597 0.80178607 0.17035218 0.6541383
482 0.42290333 1.1282512 0.841184 -0.30550438 -0.13383518 -0.016367758 -0.567087 0.1387466 0.3221313 -0.6205156 0.17139193 -0.31201115 -0.36195377 0.74940795 0.49049687 -0.54534715 0.69399214 0.5462445 0.28518322 0.9350494
210 0.07620642 -0.12701923 -0.04490046 -0.08234007 -0.3320913 -0.045350052 -0.39231056 -0.53482527 -0.86680734 -0.87830776 0.23869412 -0.4717984 0.038528863 0.10341166 0.5036593 -0.5116525 0.5710079 0.47600713 -0.38290694 0.16533591
137 -0.081031345 0.25996011 -0.14836393 0.18608081 -0.6405753 -0.08230454 -0.99186116 -0.26969966 -0.7110129 -0.3198638 0.6128168 -0.020434111 0.404617 0.4476683 0.8181449 -1.0361419 0.08032493 0.44063777 -0.21389623 0.40914488
580 0.022287693 -0.07893105 1.0791425 -1.3470443 0.189994 0.4158491 0.19970803 0.69341224 1.080917 -1.5534457 -0.56030905 -0.38721487 0.7582459 0.549227 -0.8077474 -0.34989434 1.1248138 1.0404134 -0.82641184 -0.35151443
497 0.30502748 -0.2667571 0.003001809 -0.05654289 -0.022667514 0.11785168 0.6339933 0.03814026 -0.27375925 -0.46153876 -0.6686645 -0.28832474 0.065825045 -0.28077742 0.17493834 -0.110135496 0.7523723 0.22166583 0.60535634 0.19978434
618 -0.12575312 -0.546484 0.58999026 -0.58000803 -0.23921789 0.15263233 0.3383651 -0.37340108 0.44984913 0.42993516 -0.03554955 0.2776026 0.2963269 0.58004004 0.7216359 -0.08250958 0.65156657 0.04267527 0.11890296 1.0213368
435 0.6864446 -0.48337445 -0.13082571 0.619212 -0.16984913 0.049046297 0.33615398 0.26775903 -0.6087804 -0.043106373 -0.22590645 -0.028611707 -0.09568651 0.6625312 0.36864597 -0.24964945 0.23433176 0.1496308 0.116116546 0.33253726
659 0.14409101 -0.17604552 0.26222846 0.051802315 -0.5044699 -0.7792791 -0.2637255 -0.50455874 0.14758529 -0.25134155 -0.6341633 -0.09200871 -0.41683465 -0.05340646 0.68056464 -0.261243 -0.12535295 0.1885485 0.12944022 1.0160114
1749 0.30581546 -0.11271174 0.17000167 0.74168277 -0.18501557 0.0060153846 0.1973212 0.7799595 -0.20310147 -0.2684046 0.23031631 0.6561048 0.40307143 0.42173654 0.14119051 -0.046655416 0.6912714 0.7335529 -0.081768006 -0.69334036
500 -0.18665567 -0.62086946 1.0363843 0.16271406 0.33127564 0.28473833 0.46140078 0.5608816 0.47211328 -0.49496692 -0.6180713 -0.11949391 0.86822844 0.7935319 -0.26058823 0.16320913 0.072234504 1.1766864 -0.3415634 -0.24069022
1035 0.15739843 -0.8358822 -0.37310356 0.47363147 -0.081862465 0.73669213 0.12643579 0.4253545 0.35059428 0.040984176 -0.6352559 -0.2717569 -0.08593687 0.7894167 0.68956 -0.5464484 0.32132664 0.07696201 1.1700044 0.088104494
1372 -0.38970622 0.22898632 0.5715847 0.4473702 -0.18917234 -0.08351748 -0.36925668 -0.52524334 0.3041483 -0.43359837 -0.43968618 -0.47453687 0.6242317 0.80739456 0.495438 -0.19606033 0.35643077 0.37141362 0.5959643 0.58053046
158 0.20314582 -0.3455521 0.26526403 0.884021 -0.0765728 0.41018912 -0.048245635 -0.15604089 -0.84116966 -0.4664679 -0.22690317 0.8261286 0.1100307 0.44473827 1.1715539 0.4502906 -0.0051828413 0.5807834 -0.67500764 0.56468636
3020 0.18612069 -0.7603694 0.33805254 0.2525751 -0.44617057 0.5144262 0.11084473 0.4289006 -0.40913755 -0.106055275 -1.0216352 0.2563596 0.22074065 -0.45438555 0.062033415 -0.06118558 0.8147129 0.26623756 0.25185236 0.42190507
350 0.621927 -0.31901297 0.69598496 -0.91242653 0.6751822 -0.8516673 0.4389893 -0.33712754 0.3692726 -1.7561392 -0.8097864 0.6274413 -0.52512133 0.44499007 -0.0868163 -0.8229673 -0.7885237 1.7496389 2.1322432 0.09510976
147 0.045416057 0.2571601 -0.124158554 0.08644834 -0.28651354 0.1092923 -1.1434875 -0.18616724 -0.4957869 -0.31884584 0.39653292 0.21995454 -0.12447975 0.5247456 0.694675 -0.8961713 -0.20259058 0.57962203 -0.21598789 0.30921766
516 0.25441304 -1.0209615 0.27396148 -0.28065896 0.25752088 -0.4423662 -0.7838435 0.33592692 0.5806464 0.28179315 -0.18326838 -0.5488001 -0.06709238 0.32221615 0.23575641 -1.1324533 0.32800353 0.41745153 -0.19990723 0.539624
77 2.7758272 -1.3642431 -0.45415485 -1.471452 3.5368898 0.7031207 -3.8851948 -1.571306 0.8374625 -2.959633 0.00433108 2.386252 -2.3198874 -3.9469972 4.038116 1.1323987 7.1134033 4.245762 -0.44180062 -0.850404
1517 3.0663888 -1.6386765 -3.3177671 0.13050605 1.2708619 1.3628721 -4.8598895 -2.4393947 -0.44528648 -1.5416142 -1.5131413 2.2813795 -0.7400283 0.6320795 1.9094454 -0.9852347 6.9277096 1.5405627 -0.6569815 -1.0971001
1733 0.79478943 -0.42060092 0.2018025 0.47784704 0.20628373 0.25220555 -0.29787537 -0.13944831 -0.63847893 -0.7857943 -0.17470399 1.0108873 -0.17598633 0.38622865 0.7923996 -0.009914398 -0.3623458 0.9381975 -0.95202917 -0.05298848
616 0.0200064 -1.2041868 0.5343472 -0.5553427 0.39263064 -0.69742036 -0.04351162 0.40085065 0.5019497 0.14183503 -0.55079323 0.060283657 0.33798343 0.094567165 0.41129017 0.050672174 0.01752524 0.20310867 -0.6732702 1.0685748
678 -0.1941008 -0.182646 -0.106957905 -0.44311404 -0.078861564 0.4184561 -0.047128078 0.28079304 -0.17283952 -0.33382913 0.32171762 -0.57381827 0.6100921 -0.86352026 0.12655179 0.12084686 0.38905096 0.6663294 0.3741897 0.8814783
492 -0.47226915 0.5101984 0.2025573 -0.1907397 -0.20966913 0.52556753 -0.18363187 0.32380387 0.4468736 -0.3011659 -0.31153432 -0.2874336 1.4136494 -0.13079107 0.53184307 0.19555302 0.12199846 0.3075625 -0.043598972 1.054402
3378 0.46383548 0.12248574 0.12902291 -0.34282842 -0.31841296 -0.015302258 0.722217 0.5330386 0.038257547 -0.4834271 -0.3515676 0.27310947 0.44510356 0.16207677 0.5213186 -0.72300214 0.5436034 0.026220568 0.08510641 -0.46100318
196 -0.022728853 -4.174139 -4.8409615 -0.97454554 -1.0371106 -0.5096977 -0.9628118 -5.916896 0.5649747 -4.54982 1.3495505 3.1349273 3.0348456 -2.6464033 3.067966 -1.9988604 3.83025 3.1850374 1.3762132 -3.7056417
1746 0.34548163 -0.0649245 0.13497448 0.6424619 -0.055564754 -0.19768438 0.26656318 0.9012331 -0.047246557 -0.28144106 0.26127648 0.605283 0.56302774 0.5945467 0.0019873788 -0.20351574 0.873677 0.5418351 -0.13821426 -0.59934485
2253 0.2593439 -0.0833109 0.17955671 0.7274102 -0.08595924 -0.15215726 0.15107304 0.85862064 -0.09655809 -0.1905843 0.20593914 0.63770103 0.43310884 0.40657997 0.10939378 0.0015606179 0.813323 0.7757978 -0.15053949 -0.6169246
9 0.43933427 -0.900883 0.07609677 0.5330357 0.07646354 -0.41136202 0.5485385 0.27147493 0.38758564 -0.46345308 0.32447794 0.32813537 0.69707096 -0.4298016 0.30808225 -0.34334844 -0.27032855 -0.18216239 0.018529968 1.3556297
524 -0.5220128 -1.0736187 -0.21990897 -0.049022112 -0.052521307 0.6273681 0.2216541 0.3532115 0.17148715 -0.046888486 -0.2879753 -0.46545357 0.6258686 0.1379953 0.18435048 -0.33863282 0.17570703 0.40563577 -0.0015638506 0.07623736
1421 0.21431562 0.28180405 0.1139687 0.2901769 0.08955633 -0.21138097 0.5157522 0.8574219 0.22187164 -0.7709044 -0.4473973 0.023375697 -0.504131 -0.10320115 0.80487853 -0.12931786 0.78444487 0.26826695 0.3164456 -0.09492451
1553 -0.026751896 -0.5367347 -0.3230166 0.4334042 0.37859023 -0.14767745 0.2698832 0.24999386 0.6534007 -0.2637216 -0.3657958 -0.39101484 0.33221906 -0.013155837 0.37538007 -0.44121748 0.66446126 0.2604483 0.26980036 -0.22240958
170 3.447621 -1.074864 1.6732707 2.4355962 0.53758377 -2.4458332 0.18731546 2.7584164 0.41672045 -3.4395437 1.389196 2.188006 -0.49354652 -0.85984206 -2.603554 -0.87636954 1.4049759 2.2755952 -1.4090649 5.205455
1739 -0.09943177 -0.51065516 0.41524008 0.46836108 -0.4249787 0.18694606 0.3809604 -0.10069655 -0.92491794 -0.21509878 0.15557976 0.40711814 0.45776388 0.4269878 0.89462334 0.2538185 0.33902344 0.19463646 -0.114902504 0.9038606
1540 0.3493589 -0.8696025 -0.36929494 0.31292984 0.050400786 0.4842672 0.12453741 0.34036928 0.5202723 0.3478261 -0.24664345 -0.3533943 0.27640113 0.45668212 0.38181826 -0.80990756 0.567016 0.27566606 0.3119888 -0.0844165
1735 0.121429436 -0.23366645 0.31314197 0.8020086 -0.193065 0.25868067 -0.12810804 -0.12809697 -0.6598905 -0.6888233 0.17758359 0.7996298 0.4536161 0.7567475 0.8525135 0.32222342 0.044534974 0.4159323 -1.0685078 0.6711915
190 0.518553 -0.26518396 -0.31060094 1.3407317 -1.3340148 0.7091933 0.6814812 0.29892713 0.1628962 -0.6559245 -0.2888758 0.06275522 -0.35442737 -0.09426168 0.58012235 -0.2991425 0.10845426 -0.0058993245 -0.03688863 0.6441653
340 0.3376395 -0.4943885 0.09912386 0.47601834 -0.96888983 0.7561361 -0.29354584 0.7167608 0.11600734 -0.0017099251 -0.7398737 0.42233744 -0.09951827 0.025321692 0.14858294 0.057518177 0.4862938 -0.2465561 0.17803825 0.6396299
1302 -0.7576768 -0.2626949 0.58098376 0.6310317 0.32906014 -0.3118117 0.28741074 0.86288583 0.54079366 -0.9003702 -0.6711894 -0.36859533 0.3604382 0.60638744 0.5973814 0.3260505 0.5695955 0.94575226 -0.23733781 -0.46379486
1344 -0.6438622 -0.2846061 -0.7307399 -0.17920808 0.046632543 0.33140606 -0.6951819 0.23746848 0.11574178 -0.5286623 -0.30184215 -0.50886786 0.39721394 -0.30728564 -0.0095251715 0.26720837 0.32830203 0.52975804 0.007601324 0.6522615
1104 -0.16996373 -0.16623007 -0.93209296 -0.68382174 0.087033324 -0.8008065 -0.20611897 -0.93745375 -0.99396396 -1.1156865 0.0943944 -0.92955554 -0.089954585 -0.33950636 0.8781278 -0.20655733 1.1812767 0.73374915 -0.61095554 0.9300151
1070 -0.27843162 0.37525812 0.068805434 -0.19717307 -0.7039132 -0.29292557 0.0852558 0.34757826 0.9872082 -0.41108668 -0.15658577 0.6319344 -0.017824827 0.46506125 1.2008133 -0.19545645 0.33206636 -0.52250314 -0.32282725 0.82100385
1164 -0.6448155 -0.89460725 0.88751775 -0.5792851 -0.99353296 1.282689e-05 0.45740137 -0.09733633 0.37887588 0.003555315 -0.5576492 0.18555012 0.13667576 1.9146076 0.742249 -0.1909702 0.46750394 0.096599214 0.26390284 0.745192
41 0.4873611 -0.15526642 -0.06865801 -0.3836412 0.19479671 -0.3526309 0.34070012 0.3352164 -0.31198978 -0.5730255 -0.045749344 0.0154612865 0.4038568 0.37119892 0.5930454 -0.5231871 0.15745555 -0.20630378 -0.17678134 0.09901734
390 -1.4626659 0.72532594 -0.69557214 -0.77836865 -0.26399413 1.3301295 -0.01717872 0.63109064 0.30975944 -0.11717385 -1.4809235 -0.13240087 1.2793738 0.23168184 1.3435842 0.78973895 0.30859017 1.3672025 -0.7065971 1.3763331
899 0.1376095 0.076067045 -0.32437855 -0.21185197 -0.09655942 -0.04461771 0.77175945 0.15978706 -0.23072425 -0.76284397 -0.58069915 -0.015448473 0.054849826 -0.35462636 0.4031311 -0.1332543 0.32867646 0.31067732 0.23222126 -0.023963284
31 0.057012834 0.0020799716 0.101120874 -0.310047 -0.38259274 -0.4695743 -0.029092807 0.59409666 0.0774295 -0.694739 -0.4360329 -0.075128056 0.17783004 0.21320777 0.765238 -0.3291228 -0.09990803 -0.1306652 -0.3428254 -0.17620435
7 -0.25011963 -0.7202535 1.0865252 -0.489408 -0.6130677 0.25001556 0.7260219 -0.359777 -0.38560328 0.05861445 -0.14438193 0.9227175 0.42419112 0.8074784 1.2540215 0.32207227 0.7794847 0.14343894 0.10314433 1.0903388
36 0.7143074 -0.34613818 0.18518221 -0.68012726 0.20754004 -0.69823146 0.7532011 0.28939208 0.02996172 -0.85012865 -0.31127387 -0.22704338 0.5204885 0.5672654 0.9970909 -0.8126401 -0.020249039 -0.091520645 -0.4282443 -0.17254257
669 0.26865909 0.33078977 1.412965 -0.65565413 0.04325672 -0.106080174 0.24066018 -0.06913389 -0.023637557 -0.04610575 -0.19894208 -0.059113435 -0.081088 1.0917819 0.4611682 -0.6382728 0.14474048 1.1389664 0.96996623 0.7567379
338 0.24865896 0.24808437 -0.7573427 -0.8292682 0.8752795 0.70475215 -0.79263943 0.30141175 -0.067423 0.13638932 -1.2618618 -0.60408586 0.34154683 0.1215287 0.73792213 -0.22356936 0.73000216 0.9632707 -0.86135167 1.4568449
2256 0.08352851 -0.06089767 0.04253836 0.7549613 -0.043269265 -0.3397575 0.03562263 0.6090807 -0.062269382 -0.33996 0.14864907 0.64179075 0.41942617 0.35507476 0.00844793 -0.010655747 0.726922 0.63856536 -0.07322218 -0.5617431
1419 0.18526328 0.020297185 -0.29183826 0.038183637 0.08050618 -0.18553661 0.525733 0.39192027 -0.13363156 -0.8575845 -0.4095598 -0.098037064 -0.074790634 -0.21648358 0.25736842 -0.019027483 0.5834632 0.1666402 0.22958213 0.028557155
631 -0.5259122 1.3411201 -0.796284 -0.33814192 -1.6111767 -0.41756043 -1.3042914 -0.24109595 1.3069576 -1.4315717 -1.5303702 1.5413643 0.39663756 2.1163933 0.5094169 0.53364676 0.17697932 1.1682184 0.63447404 0.3962689
405 0.3771435 0.007315354 -0.60275275 -1.190258 -0.7087491 0.93388325 -0.20553279 0.5999637 -1.6811603 -1.1153482 -0.1574602 0.2403946 0.6852812 1.0848763 1.386388 0.55432224 0.042275026 -0.024733836 0.40511596 0.4413071
622 0.22673047 0.57689124 0.43345648 0.051439397 -0.49116135 0.20447887 -0.23532814 0.6792902 0.19176573 -0.13150994 -0.21350057 0.04606763 -0.35197482 -0.08879599 0.8382478 0.18769209 0.60061884 0.010350075 0.33872887 0.9122401
1115 -0.41665217 -0.27604988 0.0023866298 -0.67158705 -0.36919498 0.8150821 0.5295009 -0.036255255 0.13593027 -0.90809816 0.21674436 0.12876302 0.24427034 0.21844327 1.4114385 0.17872725 0.7926961 -0.038170133 -0.22084628 0.09384687
1204 0.030814195 0.31329015 -0.07622381 1.2759507 -0.30227214 -0.25697652 0.6315784 -0.6790538 0.14299536 -0.6783141 0.076595224 0.20678373 0.39199215 -0.04291294 0.8652372 0.3022894 0.57109964 0.6408296 -0.033388283 0.3487237
404 0.53255945 0.09684746 -0.48398077 -1.0332619 -0.628709 0.67291963 -0.2551019 0.52752197 -1.8350557 -1.0886561 -0.17879471 0.36203617 0.9985029 1.3502051 1.5136937 0.5644292 0.106088445 -0.17325324 0.46426567 0.43717778
1426 0.18813214 -0.42743483 -0.046673335 0.31869823 0.036566645 -0.15537496 -0.25280064 0.06091327 -0.77239496 -0.14084363 -0.2497809 0.3518218 -0.017416198 0.22750679 0.9508641 0.088137425 0.005908235 0.45196152 -0.6020091 0.23608172
1129 2.6122077 -4.1802573 0.18973064 1.977488 -2.1933985 0.22128911 -1.5479559 1.0592606 -0.22132836 -0.473906 0.24685761 -0.69584197 2.9162855 4.3763795 7.394759 7.588834 3.4657114 0.5004466 1.4318167 0.86377925
1736 -0.030384215 -0.37357584 0.30525008 0.8801971 -0.08721666 0.23414418 0.16929837 -0.12780572 -1.1562613 -0.737403 0.039902445 0.59415686 0.8771319 0.64877224 1.1434804 0.41337618 0.4215943 0.34232238 -0.5581467 0.53118336
1196 0.27827704 0.8003855 0.23186402 -0.18525636 -0.07940293 0.53064877 -0.21281947 0.6190656 -0.030778775 -0.19366068 -0.0321986 -0.35840383 0.21949644 -0.36470863 0.68080175 0.3105088 0.56105155 0.47976643 0.34245828 1.0403366
311 0.5343797 -0.05261454 0.4159297 1.025048 0.13047236 0.34087944 0.29621983 -0.0979068 -0.059957836 -0.5155187 -0.09277567 0.84310037 0.2836854 0.54014206 0.6082546 0.18348268 -0.079839624 0.974517 -0.56734216 -0.2888195
1431 0.65335166 -0.4697314 -0.5315977 0.16690001 -0.31073925 -0.016627993 0.011823862 0.021666277 -0.21931995 -0.37494642 -0.41779685 1.0777162 0.7756204 0.6029897 0.7047238 0.25612715 0.2547409 -0.7578974 0.8390639 0.89612
367 0.6140134 -0.34024164 0.0878397 0.38978577 0.01972161 -0.0020935598 -0.07456718 -0.24876009 -0.8745436 -0.5322747 -0.15734085 0.49923834 -0.13190229 0.5622785 0.7294563 -0.018791385 -0.20771173 0.7749921 -0.63305354 0.048413895
698 1.2457778 -1.0568049 -2.9629707 -0.48740515 -0.11581849 -0.6810443 -0.26048893 0.5787105 -1.0143325 -1.252088 0.70621675 2.5468462 2.5010936 1.8069198 2.1555207 0.85981077 1.5414771 -0.9511051 3.2788148 0.9506248
511 0.95211846 -1.084275 0.29265708 -0.5883003 -1.5523303 0.43893513 -1.7315054 0.9985696 0.04290977 -0.09614502 -0.38798782 -0.33026436 0.16024211 -0.44666776 0.7448775 -0.39338636 0.82441896 -0.19180301 -1.3150452 0.6208489
577 0.39843768 -0.12617208 0.18643565 -0.28169057 -0.2239484 -0.01890676 -0.41817328 -0.34890878 -0.23776214 -0.54020375 0.72636294 0.44534394 1.434356 0.31692475 0.57637435 0.17108187 0.34590444 -0.0969777 -0.39253807 0.49407348
411 0.5417808 -1.0026312 -0.32550195 0.4415166 0.15135872 0.55187625 0.24844918 0.26140884 0.7511971 0.18201147 -0.3704124 -0.53921676 0.3263139 0.34153593 0.5188374 -0.69365335 0.6765704 0.25437257 0.38735127 -0.15224124
785 1.0365796 -0.5839817 0.06314598 0.42789093 -0.73875964 0.087945856 -0.20868272 -0.3670585 -0.774566 -0.56643575 -0.04818018 0.29011568 -0.53576046 0.39483756 -0.019130748 -0.39269453 0.39992386 0.5327862 0.03472166 -0.07931951
601 -0.19474044 0.2846832 -0.23779674 0.16093396 -1.070645 0.060382795 0.62896764 0.16461246 1.0613031 -0.78245085 -0.024566082 0.42405725 0.30377066 0.38382927 0.16353884 -0.13778383 0.34565502 0.13897945 -1.131288 0.7753705
1581 -0.26277578 -0.12391778 0.32001463 -0.095946625 -0.49476027 0.5685594 0.27049908 0.011975676 0.13179466 -0.54917836 0.4407457 0.029059324 0.034308273 -0.46539873 0.7581144 -0.47319493 1.0855224 0.51758355 -0.53841776 8.478626e-05
1443 0.51657903 -0.02025849 0.07009934 0.2257423 -0.12342065 -0.30107024 -0.13353541 0.48873764 0.023494234 0.3559679 0.96598476 0.7484652 0.3047952 -0.3547438 0.38477278 -0.37526447 0.58555824 0.57751566 0.095939256 0.374916
743 -0.1262509 0.020666847 0.2715535 0.96597314 0.09861751 -0.0063743093 -0.13287035 0.7908784 0.07902749 0.010659946 1.2028067 0.7131363 0.884301 1.0643761 0.47451735 -0.38137642 1.0558788 0.51664895 -0.51216793 0.31551832
1112 3.1311283 0.9209249 -4.231971 1.2704835 1.7429464 1.2697922 -0.653231 -1.4537755 3.990559 0.14840664 1.1680968 2.0710456 -0.06576472 0.9031362 2.6826386 1.54866 3.7629852 3.2674904 1.4315934 1.5491788
506 0.58748966 -0.79254293 -0.2431501 0.0043406207 0.0599062 0.10272676 0.12975653 0.4678008 0.45675883 -0.25879028 0.6584215 0.22097203 0.6103591 -1.3042772 0.2953664 -0.6084565 -0.12911282 0.19706899 -0.2707467 1.1711581
242 1.4164493 0.54715127 0.2307674 -0.4034799 0.29238927 1.5582569 -0.07960767 0.54713583 0.2557975 -0.8958242 0.8636767 0.2826407 0.77902293 0.8830922 -0.16228023 0.06781113 1.3351399 0.20115219 -0.09069011 1.2493247
180 0.27374187 0.42217502 1.1651284 -0.44617918 0.11841697 -0.4687559 0.6331667 -0.101319425 0.37020248 -0.053498678 0.19978729 -0.075674534 0.15693463 0.3837721 0.31080094 -0.36223352 0.32971078 1.3010025 0.27811277 0.4396953
619 0.09249096 -0.64505816 -4.1588297 -0.8321153 -1.2222197 1.9508767 3.2587225 1.6860315 2.0557208 1.4153694 1.1842779 2.6040776 -1.988424 -0.6460446 3.6987238 0.4870168 1.7192189 4.2053933 -2.1369832 1.826341
2397 -0.20925279 -0.14977795 0.08625866 -0.39112982 -0.43804848 0.54833907 0.6063862 0.103153646 0.25534394 -0.8610148 0.32400167 0.15342358 -0.10993092 -0.48868972 1.0548 -0.35363007 0.8843695 0.120709315 -0.3042058 0.14293921
1179 -0.5997318 0.00253989 0.0142592415 0.6320827 -0.756538 -0.6775923 0.13771805 -0.16735977 0.08074114 -0.34935805 -0.32137436 -0.4851579 0.5134673 0.2573305 0.4497644 -0.16708662 0.54470074 0.3338112 0.10528263 0.27631792
2600 0.27117988 3.0017426 -1.8181629 -0.39698803 -1.3121207 1.3602583 -0.18447115 0.82459927 2.6007113 -2.350971 0.9320609 -0.41321105 2.185031 -0.51015407 1.5151854 -2.0636175 -0.75395733 2.879357 2.2503333 -0.6154551
101 -0.23146778 0.23641074 0.27748495 0.1673595 -0.3782614 -0.1848264 -0.29992855 -0.06016376 0.3816911 -0.21662262 -0.050078914 -0.084917866 0.8247002 0.050143782 0.75782084 -0.1275178 0.12434995 0.13843754 0.012632327 0.10002706
687 0.059383653 0.06079493 0.5606763 -0.63015294 -0.23385604 0.108799286 -0.11564071 -0.4309407 0.29754764 0.1543156 -0.037513256 0.22909847 0.164481 0.1588346 0.7336047 -0.049127653 0.61232173 0.034616113 0.33754194 0.9363842
437 -0.2046485 -0.11658654 0.10708213 0.54181814 -0.1477921 -0.27695152 -0.31401363 -0.23948725 -0.5713099 0.14403039 0.77338094 0.31503788 0.98391277 1.5648272 1.0082357 -0.37722299 -0.049510624 0.4273523 0.12716597 1.0139637
1488 0.031742465 0.572775 -0.9873293 0.076014064 0.76288277 -0.3618796 -1.8434225 0.5693486 1.0425265 0.45790932 2.5338974 0.06215645 1.6723205 0.7198288 0.9015553 -2.3519907 -0.10978179 2.1383743 0.9958506 0.31271264
592 0.18747531 0.55967975 -0.088577785 0.5854996 -0.4132432 -0.01726839 -0.03285306 -0.6358181 -0.008750892 -0.5951053 0.17825598 0.20583192 0.81128687 -0.14827037 0.9668636 -0.015904076 0.24841252 0.18935227 0.09344323 0.24471264
45 1.0189826 -0.45300454 0.17614472 0.15251353 -0.62368816 0.2299095 0.054351702 -0.42714813 -0.7015205 -0.71382445 -0.07077716 0.36528194 -0.6279027 0.7444953 0.40902144 -0.30928627 0.17316087 0.3170721 -0.1329147 0.018209502
617 -0.14059319 -0.28619754 0.840114 -0.94983274 -0.3325268 -0.10910165 0.06957261 -0.9745437 0.30145374 0.19877909 0.113052696 0.2591961 0.75975734 0.4104625 0.53289443 -0.3195923 0.6408681 0.32201475 0.5439521 1.1982117
290 -0.15435767 0.09908431 0.6202827 0.4882187 -0.09297867 0.25689253 -0.25486857 -0.14172076 0.111073755 -0.36397576 -0.5979997 -0.14923826 0.6011464 0.29507995 0.33515185 -0.29994565 0.39477792 0.21102211 0.33703473 0.46250036
711 0.094783545 0.39690918 0.9187309 0.30597004 0.022773491 -0.20095263 0.2001058 -0.53449607 0.39041683 -0.29926103 0.1099326 -0.11929562 0.22142962 0.6688313 0.38604608 -0.46907717 0.36208066 0.7307519 0.29458863 0.70706826
466 -0.18082613 -0.75723106 0.48156428 1.4952613 -0.3285224 0.19070354 -0.17836003 -0.68684804 0.5402647 -0.3351686 0.19827604 -0.35715756 0.5121433 -0.5237924 -0.20916459 -1.4244132 0.5182055 1.3702638 -0.16140226 0.5803401
1554 -0.4302676 -0.20854759 0.285753 0.27422115 -0.19328018 0.46408412 -0.012122238 0.0046017673 -0.42241657 -0.9655037 0.18245226 -0.18995541 0.25922433 0.060592823 0.5347011 -0.20583488 0.740513 0.41391242 -0.42262936 0.019034592
1371 -0.512094 -0.17346926 0.18124676 0.5778257 -0.13503341 0.4074015 -0.29300147 -0.10423677 0.02637151 -0.39664364 -0.57977825 -0.23187421 0.9160044 0.16145726 0.32466784 -0.2084132 0.32512686 0.23371702 0.26938742 0.299965
143 -0.026579183 0.28129315 -0.14228699 -0.23496945 -0.24319218 0.13130705 -0.79432946 -0.25157672 -0.7210367 -0.8842859 0.44519857 -0.15218224 -0.043507636 0.47795328 0.68670374 -0.8812521 0.16653195 0.4585938 -0.36217225 0.15981151
747 -0.097269446 0.3444572 -0.057353232 -0.45674714 -0.11844847 0.6396033 -0.037661724 0.43908456 -0.2725765 -0.19957127 0.09680537 -0.73243797 0.6261533 -0.7811657 0.30849633 0.33281842 0.71964926 0.84543884 0.49253267 1.1271011
295 -0.028603751 0.6496537 0.74332815 0.4059351 -0.11522622 -0.039273325 -0.4429717 -0.30967 0.5458927 -0.58016926 -0.07511258 -0.54666847 0.017211372 0.6788806 0.60351855 -0.62596387 0.36592463 0.4907272 0.5481642 0.8349157
104 -0.013618389 -0.21736889 0.07244898 0.34655234 -0.077941984 0.1415698 -0.24010356 0.160484 -0.11759997 -0.40052712 -0.4960609 -0.21312997 0.99994063 -0.1235243 0.622597 -0.41448197 0.12266514 -0.17695138 0.29751462 0.26391906
1361 0.09666629 0.11463597 -0.16585733 0.2600324 -0.32596445 -0.08209299 -0.89330155 -0.30215147 -0.5660624 0.043747686 0.6829691 -0.022232866 0.53723234 0.62227 0.71630895 -0.8074826 0.053165697 0.38054284 -0.08708427 0.53748727
641 0.60317034 -0.22429284 0.24840611 -0.6754269 0.06721557 0.9560346 -0.40793622 0.19805253 -0.2987338 -0.9522442 0.92507 0.44639203 0.889571 0.29853544 0.14681761 0.07297302 0.85661906 -0.102938 -0.06463593 0.64668554
288 0.6237546 -0.30604365 0.18564652 0.5915598 -0.054248396 0.48315457 0.60127395 -0.03585707 -0.24543162 -0.16263598 -0.5900154 0.6650481 0.16523176 0.43626451 0.5435462 -0.11978352 0.09038129 0.87674505 -0.39605114 -0.3952047
207 -0.24176405 -0.3369523 0.5406563 0.7638728 -0.53731126 0.77985483 -0.13929003 0.03942698 -1.2158881 -0.6318824 0.25100094 0.6970407 0.61361027 0.5880007 1.3713864 0.5502826 0.49873954 0.543853 -0.80589074 0.7425916
56 0.56429523 -0.23546436 0.3432743 0.39140773 0.3148346 -0.110333756 -0.13769476 -0.2888358 -0.5100216 -0.4929093 0.12440985 0.9354465 0.09589237 0.3631006 0.7908319 -0.27502862 -0.29165328 1.0294824 -0.9576279 0.022646915
620 0.4102389 0.7035063 0.34741127 -0.16332419 -0.080446154 0.019018011 -0.20601138 0.4278718 0.008508601 -0.25543818 -0.2092087 -0.17177568 -0.046813417 -0.07451916 0.5245093 -0.27354738 0.50724125 0.18686569 0.22607386 0.6682418
305 -0.75069416 0.40762585 0.44781622 0.2591183 -1.056056 0.34180728 -0.2828886 0.11145885 -0.7769928 -1.2057506 -0.054135684 0.109976865 0.40447608 0.23257923 -0.18328899 -0.2096414 0.34161407 1.0995994 0.9679805 -0.24343683
1730 0.15670595 -0.3299853 0.1458188 0.36990136 -0.028560309 0.30582297 0.00623949 0.05788536 -0.63032365 -0.70929164 0.08594146 0.72496533 0.10107763 0.31792176 0.6246078 0.11244519 -0.16556925 0.66241825 -0.81333286 0.071685806
192 0.649701 0.20445235 -0.099071234 1.2629706 -0.35056376 0.5375757 0.010691979 -0.35658655 -0.15797518 -0.5948542 0.091835044 0.6205138 0.16239439 -0.0364029 1.0213451 0.25493547 0.0062398114 0.5210316 -0.28483945 0.15001537
329 0.3631762 -0.88549477 -0.20705912 0.22146994 0.034431554 0.3123703 0.090718746 0.31033865 0.6184107 0.30586484 -0.17173414 -0.39363092 0.13278356 0.3691984 0.4048261 -0.85770863 0.47254393 0.29474562 0.39624524 -0.14305636
430 -0.5044387 0.66922975 -0.12977354 -0.033278305 -0.9716707 -0.23249404 -1.2270234 -0.21881689 0.8869728 -0.0838651 -0.9814177 1.0979804 0.42907056 1.396555 0.5184702 0.44483706 0.15360649 1.116256 0.66838986 0.058342792
1287 -0.7036068 0.446263 -1.3644701 0.7457061 -2.539544 2.2866912 1.3243 2.5307078 1.5858617 1.6748372 -0.2255585 7.281231 4.696689 0.54278594 0.6283559 3.2985055 1.501619 5.414457 4.5334086 2.9546714
749 -0.37297535 -0.55436975 -0.5296859 -0.17694716 -0.14359297 0.4281807 -0.5388352 0.28967303 0.05126386 -0.5035006 -0.110003315 -0.6813071 0.6959329 -0.5038164 -0.044888183 0.4978659 0.07446611 0.56952035 0.26802582 0.7008521
84 -0.78270745 -0.6451316 0.48280802 0.060474865 -0.58935875 -0.12399167 -0.5561622 -1.2136955 1.2043482 -1.5589112 -0.41597524 1.5960405 1.0059241 -1.4353855 1.4884683 0.5973566 0.22559299 0.25276676 0.79419756 0.34708288
3054 -0.8864992 -0.43126637 0.20904846 -0.3789068 -0.5935713 0.034052145 -0.1190969 0.3590245 0.265129 -0.6222982 0.5323058 0.39280933 0.32591966 -0.33587667 0.44755462 -0.63485235 -0.26635882 0.6793901 0.31268215 -0.402112
694 1.0417582 -0.78087455 -0.48598486 0.43537593 -1.024558 0.16422454 0.12888804 0.20311679 0.16967236 -0.32209393 -0.55578923 1.092979 0.32829198 0.28027695 0.5237347 0.027989682 0.91723055 -1.1003251 0.40448445 0.753458
442 -0.22168592 -0.63168585 0.11998389 0.3908352 -1.0715257 0.16749133 0.6313457 -0.14453255 0.15348524 -0.792369 0.23691766 -0.0950918 -0.08293893 -0.4450586 -0.21729115 0.015290272 0.506574 0.50837713 0.16098829 0.13717324
756 0.69503325 -0.8812181 0.1430313 -0.4412271 -0.9193183 -0.47372448 -0.6986045 0.29446962 -0.020827562 0.032528915 -0.4909959 -0.008788698 -0.18700932 -0.39639732 0.43875974 -0.2939094 0.18337199 -0.12748441 -0.7121104 0.9759277
595 1.0294054 0.21276082 0.056688454 -0.58419615 -1.5491883 -0.53700423 -0.084612265 -0.67022955 0.8799615 -1.2120321 -0.7232238 0.9077058 0.21591665 1.7361438 -1.5256989 -0.22868976 -0.13435419 1.6014479 -1.1090516 1.5168209
1368 -1.0052285 -0.26472527 -0.31716424 -0.42865616 -0.60894513 -1.0407449 -0.0665357 0.4262612 -0.014302918 -0.8767065 -0.9513094 -0.3383591 0.39628887 0.22336416 0.5494384 0.5939091 0.09906759 0.3020639 0.19162808 0.28876004
2674 -0.41616988 -0.617481 1.4975711 -1.6778758 -0.78863144 -0.5551168 -0.42641583 -1.4847134 0.7684806 -0.23526666 -0.096852526 0.3999221 1.8506073 -0.2035223 0.53079677 -0.6673976 0.27895007 0.41368753 0.9544173 1.3829522
1721 1.1365085 0.93912053 -0.33615905 0.01758682 -0.80127305 0.091614366 0.47436506 0.24590485 0.70421135 -0.5381663 -1.0654906 0.04469809 0.99612755 -0.7997389 0.35144725 -0.9046428 0.20928772 0.06460055 0.5001367 0.54507685
108 0.3616208 -0.105948314 -0.1278628 -0.3068076 -0.29409266 -0.287313 0.046262324 -0.038457304 -0.00888472 -0.6757105 0.19712101 0.7386621 1.4686416 0.5696002 0.75092113 0.16074972 0.21568552 -0.36830068 -1.0830777 0.36028057
321 3.1529016 -0.6940156 -4.295459 -4.576465 -7.304758 -3.5998788 -0.9880798 -3.505688 6.016952 -1.5970302 5.0521913 -2.1075015 -1.4401401 0.7343099 1.7223163 -0.38072878 0.7556577 2.4312887 0.401241 -0.673134
3385 1.2545834 -2.81039 -2.3392336 -2.831656 -6.7583613 -3.239796 -3.1726704 -2.4106748 5.698194 1.5310775 1.8061072 -3.878933 1.6525357 2.6433887 1.1403441 1.4863954 0.49957123 4.978074 -1.04282 -1.6505562
3364 7.9762335 -0.83304507 0.82677114 -1.5850699 -4.210769 -4.295917 1.3412503 3.911679 2.277751 4.232484 -1.6583974 -0.5359721 4.4303937 3.061639 -0.40445042 5.357352 3.7060401 0.8559841 0.993339 4.5294724
539 2.521856 -4.4191236 -0.85291773 1.3516101 -6.125418 -5.28055 -4.4440513 -0.64598644 2.4158719 1.3359892 -2.6926796 0.49777007 -0.24290247 3.1800692 2.268893 0.9041137 2.1450179 1.3550391 0.465103 -2.7075458
1411 6.448093 -1.6508138 -2.3060796 -0.1845465 -7.4400973 -2.6430473 -1.6648259 -1.0248954 3.0702112 1.4873365 -1.2638503 -0.3310092 5.4091277 2.9059358 1.5339283 6.5482197 -3.2401655 5.331291 -0.5072183 -1.6867944
225 3.6367593 -0.48937047 -0.7521688 -8.12443 -3.8069575 -5.314297 -2.26052 2.4941514 2.3776474 1.2297269 -1.9362189 -0.6237723 0.2637032 1.2225933 1.6303828 1.8504577 1.4464046 2.0733483 3.025413 -2.0324593
243 -0.22254427 -1.1029477 0.7411457 -1.0218368 -0.69889694 0.06315657 0.3973837 -0.20658687 0.60545176 0.16183935 0.007128173 0.63428056 -0.10719111 1.2329167 0.70102435 0.13709517 0.47379905 -0.036876064 0.6080456 1.1988671
1776 0.2434992 -0.913974 0.059102178 0.1585766 0.11418419 -0.07893472 0.49699065 0.12501176 1.0396094 -0.11749413 -0.18338111 -0.32187518 -0.2816562 0.06849114 0.2587627 -0.5798238 0.5564621 0.38435507 0.32567748 -0.14995061
1480 0.4126104 -0.1367592 0.58356744 -0.49687645 0.09110971 -0.63797605 0.6227635 0.015917199 -0.19248286 -0.42710158 -0.17390561 -0.11504431 0.4912306 0.40573338 0.8091678 -0.44000685 0.035365287 0.42689097 -0.33481178 -0.13737673
1785 -0.16365846 0.2253291 0.14934435 -0.04878266 -0.5114653 0.15547132 -0.11344796 0.49205938 0.52861154 -0.55372506 -0.26208776 -0.1881069 1.5495691 0.13927038 0.07751535 -0.11936431 0.030171933 -0.10783117 -0.7092509 0.8136237
707 0.1707464 -0.30615807 0.40875173 -0.5383493 0.4763605 -0.5773385 0.7638003 0.40852043 0.67347836 -0.36579826 -0.079405665 0.35837254 1.0335963 0.49793956 0.8855719 0.5241159 0.5840774 -0.019157143 -1.6947955 1.6685356
235 0.12324092 -0.7752608 0.17488977 0.9953877 0.020566145 -0.5914082 0.25354454 0.20995553 0.41620985 -0.48177764 0.5728707 0.15485209 0.5960228 -0.083422534 0.26407993 -0.4662753 -0.4099643 0.14153259 0.04695614 1.2596524
1386 -0.14162861 -0.040900253 -0.35721856 0.17961614 0.06922463 -0.7063514 0.25564635 0.4765682 -0.14304723 -0.19921122 -0.3873096 0.10652662 0.1461 0.004395557 0.07722756 -0.56133527 0.6022463 0.20757769 0.3124121 0.48388335
1160 0.16987394 -0.102518745 0.5283094 -0.37334248 -0.26186123 -0.32045117 -0.25021818 -0.52129745 0.2541711 -0.075064264 0.2643908 0.28145257 0.67626137 0.042738363 0.7795694 -0.04382294 0.3989127 -0.14855613 0.19217873 0.7241346
544 -0.111539684 -0.19740605 -0.83838665 -0.71812886 0.2514502 0.3399724 -0.26772946 -0.029974956 0.6090205 -0.116349295 -0.58131516 -0.42514542 0.18075882 -0.82203823 0.033022057 -0.353541 -0.22737531 1.2618903 -0.54916734 1.8384745
1834 -0.42521667 -0.40505418 -0.7264093 0.9861554 1.0166136 -0.80813026 0.41687712 -0.606831 0.29473117 -3.0052376 0.13297097 0.89166695 0.84736514 0.1685714 1.2874501 -0.9581393 -0.21679386 0.58297634 -0.6737493 0.087199494
64 0.5370873 -0.26339334 0.13435547 -0.9474387 0.3894635 -0.75789326 0.6900671 0.30535445 0.099303454 -0.8275704 -0.23760132 -0.18265365 0.63028675 0.56525105 0.97452086 -0.8243789 -0.12948298 -0.018407466 -0.473873 -0.019068556
51 0.8364285 -1.0429825 0.52238554 0.5550244 0.387319 -0.28655365 0.18095173 -0.054189093 -1.035315 -0.50548875 -0.012952205 0.76879907 0.025145132 0.44343922 0.80558443 -0.32942328 -0.3715467 1.4150411 -0.9227648 0.28628185
507 0.18461087 -0.55231166 -0.11111587 -0.36504242 0.13401577 0.17374435 0.2455113 0.16575311 0.13345566 -0.16332485 0.5897783 -0.24537516 0.7726802 -1.3916394 0.05783274 -0.3503436 0.2829865 0.6951001 0.08456132 1.2643518
972 0.06334378 0.1988366 0.3407775 0.27700454 -0.05155973 -0.38919228 -0.2847828 0.51920617 0.39686653 -0.5720588 -0.13015799 0.26552287 0.047763303 -0.13151805 0.60364586 -0.34784484 -0.07613883 -0.0018107323 0.19159806 0.22967303
513 -0.71473384 -0.42069158 -0.465503 0.24245992 -0.5674261 0.18722437 -0.71720153 0.40933284 0.27817428 -0.3681516 -0.84964323 -0.36049637 0.5812955 -0.27655905 0.40868127 0.28887507 -0.4424065 0.35990342 0.04060947 0.40704286
1214 -0.0019283672 0.091315605 0.67888993 -0.52201355 -0.27936956 0.48445785 -0.12458453 0.6476142 0.037058614 -0.1594954 0.048313506 0.012766307 -0.308373 -0.05728077 0.27906927 -0.057338066 0.28959545 0.531431 -0.10995741 0.5773624
1114 -0.42190835 -0.25169438 0.07209712 -0.75056535 -0.3742543 0.6847925 0.48135436 -0.26538387 0.21066527 -0.8156193 0.16398858 0.2966435 0.24885951 0.26795357 1.5248293 0.3999003 0.87400794 -0.032693323 -0.0372409 0.18997836
407 0.29109427 -0.0015191002 -0.468169 -1.1495533 -0.52473366 0.7779714 -0.15086837 0.5660765 -1.562805 -1.161696 -0.072406724 0.15712981 0.6064075 0.9646155 1.281958 0.4848343 0.06393095 -0.011012849 0.34658182 0.40546802
172 0.4910246 0.25965726 0.4404238 -0.06415417 -0.43065313 0.3778369 0.124860264 0.72800076 0.20526674 -0.2959909 -0.47832063 0.20358332 -0.5483423 -0.2221599 0.7884036 -0.14655429 0.52431256 0.006467974 0.025922447 0.45884055
1670 0.2686179 0.5472037 -0.28376025 0.29410228 -0.35337386 -0.11042087 -0.40371197 -0.50536364 -0.49531043 -0.39211214 0.56371975 0.08915967 0.84216404 0.16181636 0.87803745 -0.5366962 0.18567711 0.22687975 0.032801203 0.47690985
1093 0.6553183 -0.30647746 -0.06335934 0.476764 -0.058509525 -0.04600889 0.13152967 0.13757953 -0.81239384 -0.25794542 -0.085505985 0.17060918 0.31278268 1.1177118 0.68277526 -0.327657 -0.1564905 -0.007933073 0.29050294 0.4333761
12 -0.67179084 0.61942357 -0.14309222 -0.50537014 -0.21757847 0.8730524 -0.095451005 0.51544833 0.11198634 -0.28685114 -0.7154275 -0.6413277 1.4067302 -0.06309276 0.84778494 0.47918427 0.3166667 0.66692454 -0.35969594 1.0748551
3333 1.6289704 1.706639 -1.9724063 -0.35700142 -0.49990776 0.7458245 1.1005399 0.75353456 1.182761 -2.7144394 2.075948 1.0657253 -1.6327224 2.0601356 2.1492116 -0.6078055 -1.8223026 3.388649 3.43228 2.7975905
144 0.051325258 0.25496855 0.08706276 -0.25329584 -0.11254777 0.15156147 -0.7497557 -0.2232324 -0.47474965 -0.9156839 0.5689807 0.24154542 -0.25194743 0.5371482 0.7114694 -0.8744375 0.12900706 0.52613443 -0.5775648 0.059610102
1538 0.42169657 -0.056825317 1.0571754 -0.22749522 0.024753572 -0.38037172 0.6315504 -0.19978425 -0.27316478 -0.44666064 0.07658184 -0.25626388 -0.008723442 0.87396836 0.80230856 -0.24656546 0.079899274 0.8569398 -0.25593582 0.19751301
508 -0.39439902 0.49283054 1.4674357 0.69737643 0.35827878 1.3820513 -0.11431574 -0.021777697 0.87863207 -0.29359776 0.88872236 1.0227915 2.3203018 -1.0157036 0.32945827 -0.24403717 0.8178851 1.7808287 0.21488516 2.0005953
1202 -0.104738526 0.37222278 -0.030004708 0.9571569 -0.15262668 -0.43334854 0.52707285 -0.13654658 0.2603004 -0.7405456 -0.13339606 -0.13397503 0.30129474 -0.3141474 0.74451125 0.0027644443 0.62956554 0.36695197 0.15848817 0.26316547
1775 0.29401797 -0.7645142 -0.22837602 0.19858049 0.23825966 0.020212563 0.3712497 0.3041677 0.94774073 -0.14938779 -0.22569448 -0.41223282 0.059478927 0.26352438 0.45032164 -0.8781346 0.4217091 0.20608903 0.44961995 -0.2616765
102 -0.21746278 -0.5522464 -0.24303323 0.2704097 -0.18810457 0.5239263 0.08650998 0.09470893 0.21764007 -0.15095001 -0.31707644 -0.23618858 0.8482966 0.11225669 0.61591905 -0.18511893 0.1702172 0.010454927 0.016386963 -0.0044059996
782 -0.32069865 -0.07431991 0.62563324 0.63554645 -0.12855375 -0.15666015 -0.52562666 -0.15793566 0.94083256 -0.35131013 0.07978583 -0.22458039 0.15493904 0.14716493 0.7778877 -0.4191028 -0.038617186 0.28110188 0.3865369 0.48607355
3345 -0.7034164 -0.84518033 -0.92371786 0.9196165 0.023558881 0.9356912 -0.13774432 -0.08460941 -0.22946966 -4.287724 -0.033583585 -0.06987356 -0.5314007 0.44460553 4.586198 5.0154357 -0.51693517 6.691316 3.1336842 -2.869778
296 0.14474982 0.82140535 0.81535745 0.2392482 0.10521432 -0.050732754 0.34418407 -0.49326566 0.56598055 -0.5084477 -0.11328999 -0.1965556 -0.08979354 0.23173411 0.6959399 -0.2549057 0.45291597 0.74675894 0.30720615 0.8007695
1989 0.87680656 -0.55233395 -0.50192934 0.1875269 0.120526366 -0.080107704 -0.5042546 0.4813459 -0.9536052 0.0709825 -0.5968762 -0.5365912 -0.58865964 0.049515817 -0.46508995 -0.92281896 0.8262002 1.2527578 0.67333776 0.16704421
342 0.3755215 -0.4917715 -0.43332526 1.2035284 -1.4861724 1.047091 0.49098188 0.23581928 0.1825937 -0.3467911 -0.62744164 -0.078539245 -0.25508276 0.13849935 0.5764235 -0.35069194 0.2837813 -0.1421629 0.339152 0.5625118
1076 -0.34330076 -0.044732284 0.07022138 0.7226336 -0.59601146 -0.8246197 0.42875537 -0.5522566 0.05001665 -0.22858036 0.08089111 -0.32757196 0.024625057 0.4053007 0.24510717 -0.13538782 0.7130824 0.52137727 0.42321444 0.7467315
1767 -0.13589872 -0.15263025 -0.26002765 -0.714588 -0.78510076 0.38111243 -0.27309093 0.26897398 -0.64879096 -0.1471178 -0.0010013503 -0.14811079 -0.2041801 0.10665034 -0.3050669 -0.5581017 0.66359633 0.6835749 0.34814522 0.18907695
133 0.6384004 0.014726755 -0.5488051 -0.19844256 -0.7136965 -0.09540226 -0.24374697 -0.26935315 -0.54782236 -1.1124452 -0.8961166 0.4743905 -0.81071275 1.6766587 -0.8157287 -0.32273057 0.11214418 1.1446567 -0.5446214 0.5997913
2672 0.20368011 -4.981756 -5.8642135 -2.3814795 0.6091996 2.8150284 2.7821052 1.2891207 -2.1247904 0.018755237 -1.639835 3.6127834 -0.06575623 -0.99070877 1.483373 -0.54353213 -1.5920545 5.5042844 1.3113471 1.7878364
1137 -0.3419408 0.027366944 -0.48230466 -0.45292327 0.10986144 0.33294708 0.4554557 -0.024991065 -0.16741201 -0.08860502 0.1507799 -0.02946538 -0.12730734 0.0047349953 0.15314195 -0.021374753 0.54308087 1.1940339 -0.31218708 0.21865101
1223 -0.63581705 0.78219455 -0.48982146 -0.17017597 -1.1710287 -0.3630896 -1.2984282 -0.030652428 1.2226602 -0.8428618 -1.0019884 1.4170451 0.21702416 1.6927959 0.811172 0.25194332 -0.30238688 0.91996306 0.8282212 0.14974588
186 3.0116465 0.92488444 -4.489656 1.2000586 1.8488455 1.2689499 -0.7933264 -1.2427795 3.4146485 0.12515205 1.0023048 2.184704 -0.06654815 1.0469979 2.7657964 1.6271774 3.5504441 3.1360528 1.0746608 1.1801084
227 2.3415751 0.8282878 -0.13287294 -0.600881 0.26361638 2.1388054 -0.16215636 1.3158401 0.5341915 -1.3143657 1.4634837 0.65868926 1.0629033 1.9233677 -0.51482755 0.19433679 2.2673218 0.599518 -0.18020748 1.7727638
502 0.0067178947 0.24173811 -0.2296001 0.10267912 -0.068850845 -0.30027133 0.82469237 0.26780933 -0.10136097 0.123498306 -0.020253068 0.79776716 0.41441077 -0.1782487 0.13745685 -0.511664 0.9507213 0.84134036 -0.2871707 0.33705097
1288 -0.67429566 0.500055 -1.3135368 0.5525345 -2.74978 2.3187995 1.1460469 2.451241 1.8105209 1.7852585 0.056746785 7.3999124 4.7275906 0.2930235 0.74449825 3.1483612 1.5016687 5.3473253 4.4381104 2.8408458
1403 -0.27899224 -0.16025242 0.84317833 -0.27939543 0.26877755 -0.3793922 0.5242369 0.055135634 -0.2651515 0.17450164 0.22059523 0.32274896 0.1594668 0.5331102 -0.12575816 -0.008204042 0.4016088 1.7918253 0.2513002 0.34061137
535 -0.06844255 0.034733173 -1.5700521 -1.1552532 0.11236988 0.6422222 1.2459875 0.21932672 0.3742978 -0.14075829 0.41768262 0.5561835 -0.80371 0.21031886 0.58033067 0.0033556633 0.7032139 2.496988 -1.0761529 0.3107004
721 -0.49381885 -0.6443949 0.06663785 -0.051158343 -0.029753601 -0.17624575 0.44420505 -0.52015805 -0.058374893 -0.6825019 0.2145435 0.0023554005 0.09957071 0.8472065 -0.054934498 -0.50774455 0.3888487 0.36983982 0.77791184 0.58051413
273 1.0268313 -0.7158858 -0.2682218 -0.18585922 0.12436325 -0.32268703 0.8074962 -0.08222893 -0.23073998 -0.31711337 0.017405232 0.90263534 1.174801 0.23408961 0.30570066 -0.31522408 -0.12554385 -0.4178639 0.2033216 1.4488662
1589 0.8036009 0.7952743 -0.14472216 -0.10482656 -0.47638908 0.07316066 0.5820992 0.11382892 0.52691036 -0.60144705 -1.028477 -0.01864575 1.0382142 -0.7597059 0.3348914 -0.7279126 0.36342716 0.121295094 0.4798956 0.47591197
973 -0.2606753 0.1607166 -0.1206039 0.16551605 0.12479376 -0.583369 0.16177545 0.41160807 0.092001885 -0.5291917 -0.54708916 0.13291873 0.13054128 -0.13884361 0.14526439 -0.42837825 -0.003577545 0.35949296 0.7691642 0.68659246
121 0.2450148 -0.9886601 0.81826407 -0.013421476 -0.80240214 -0.3087201 0.24336694 0.08979535 0.015638772 0.0015201649 -0.6907129 -0.20839392 -0.57468003 0.14302775 -0.12917136 -0.280873 -0.03691953 0.9352716 -0.039239783 0.5215596
594 0.024056755 -0.27308333 -0.08275063 -0.23714253 0.2345249 0.24382564 0.12904367 -0.19790357 0.11804552 -0.0034856517 0.107255735 -0.10968978 0.73991257 -1.0276865 -0.01150916 -0.32843083 -0.014291663 1.1550816 -0.21286204 1.2230687
1205 -0.22528063 -0.6133161 -0.020553915 0.5659397 -1.1018624 -0.69505066 0.9133728 -0.11183752 -0.19674467 -0.34897658 0.43378145 -0.27354074 0.6021989 -0.47556496 -0.21190117 -0.3113683 0.5959236 0.8838828 0.3415216 0.25990406
748 -0.4756484 -0.24821465 -0.34968564 -0.4900378 -0.19079207 0.63002986 -0.14709613 0.33770478 -0.114598 -0.663978 0.3472392 -0.49954098 0.82040286 -0.6891314 -0.045529913 0.30812037 0.4597154 0.6447923 0.5556714 0.65476215
1688 0.472948 1.7969038 -1.0073724 -0.0030657977 -0.5416762 0.9017422 -0.013687186 0.46876544 1.059316 -1.3201562 0.26059586 -0.06840427 1.2319117 0.019143887 0.3835738 -1.1615981 -0.7045854 1.8709315 1.0388559 -0.5526794
419 0.20299387 0.9585045 -0.898801 -0.1309272 -2.4435823 -0.16622636 0.85293585 -0.10778679 1.5030959 -2.123727 0.22005585 0.5724247 0.47336897 1.2591562 -0.88831985 -0.71111786 -0.57690394 1.4036683 -0.43324846 1.3609422
1479 0.08856471 -0.6817023 -0.08336885 -0.2975289 -0.3600251 -0.049692634 0.102602944 -0.015708677 -1.0373464 -0.6736701 -0.030646967 0.2409898 0.15599816 -0.010556615 0.47231284 -0.09573098 -0.09996782 0.5351534 -0.5289891 -0.03514259
576 0.3426769 0.2195953 -0.23011957 0.25315285 -0.57052475 -0.03748352 -0.4445197 -0.9179 -0.4102446 -0.8455238 0.61829454 -0.0028907612 1.3039869 -0.062392145 0.76968384 -0.19351283 0.39868274 0.087666914 -0.22315544 0.5100777
798 0.17135766 -0.27451116 -1.4918716 1.0475854 -2.2735806 0.34287187 0.27630255 -0.12937132 0.13427493 -1.6166078 -0.27478978 0.22228774 -0.15495911 -0.48742244 0.8425902 -1.9080142 -1.1888758 0.19095011 -0.34771863 1.178003
1744 0.3488498 -0.17439398 -0.12844503 -0.042957712 -0.58367354 0.15425923 0.06795277 -0.16233231 -0.6560765 -0.55340785 -0.09810695 0.21680517 -0.3710877 0.5836433 -0.018036174 -0.13758637 0.25056085 0.510066 -0.2759452 0.0037908151
316 0.3111346 0.38791665 0.9564009 -0.4169323 0.024805589 -0.63065195 0.63540447 0.08454686 0.2913415 0.05857549 0.12110843 -0.097175784 0.39285588 0.2519921 0.15754233 -0.32401007 0.49318817 1.1545279 0.032276224 0.42174208
902 -0.060566753 0.1294938 -0.07804259 0.01681252 0.071855135 -0.4472543 0.1381561 0.36065722 0.07623701 -0.51678187 -0.515906 0.19594605 0.22260156 -0.27006224 0.3524298 -0.293477 0.10869262 0.168286 0.35401797 0.18268049
1165 0.45842662 0.2856647 0.1886156 0.016125515 -0.23298952 -0.644895 0.08245939 0.13813415 -0.20585959 -0.7855692 -0.7026765 -0.376878 0.13128848 -0.16216584 0.37933308 -0.64905995 0.15419272 -0.007191616 0.20914848 0.5414677
1092 0.46383095 -0.09300095 -0.17831172 0.4584036 -0.38678566 0.07072092 0.19663124 0.74828196 -0.35969043 -0.6170009 0.088247776 0.30471104 0.28781542 0.6841457 0.43607947 -0.45737615 -0.37260884 -0.055713527 0.38857716 -0.03403834
873 0.10466826 0.4688251 0.052726183 0.35102895 -0.13608907 -0.13670082 0.62399834 0.83120084 0.037233144 -0.77200514 -0.79432136 0.3377004 0.30932957 0.26522478 0.61478275 -0.8380821 -0.5724734 0.3707661 0.561744 0.5546153
930 -0.1776121 -0.45147353 -0.031186132 -0.04016889 0.29156482 -0.38453713 0.097347535 0.7632014 0.374004 -0.14471158 -0.25052762 0.24766764 0.21113023 0.15859598 0.011745625 -0.38876942 -0.033581696 0.3025465 0.053305376 0.14380889
676 0.01399652 -0.09343785 0.26286766 0.19542632 -0.39496785 0.14290051 -0.16547349 0.36683935 0.16765843 -0.43164697 -0.40515375 0.056281842 0.93974763 0.21570793 0.030158304 -0.19874576 0.09782666 -0.10645311 -0.6191096 0.45148692
1507 -0.19032027 -0.66102564 -0.28300768 0.49659094 -0.3292344 -0.60214525 0.20991483 0.7764824 0.059272293 0.06552897 -0.077233724 -0.50027084 0.8576389 0.20727302 0.009973264 -0.88932186 -0.0025812583 0.62461674 -0.92242277 0.35437307
2409 -0.060409863 -0.31558138 -0.8314805 0.22022867 -1.0037087 -0.4479183 0.054628197 -0.21653743 0.5391182 -0.83835155 -0.12576666 -0.023412963 -0.28794083 -0.14980613 0.8854688 -1.4690739 -1.2149717 0.32896063 -0.13292506 1.112451
2301 -0.23807968 -0.676046 -0.02813358 0.051392563 -0.10772321 -0.24046727 0.090065576 -0.03892599 0.7314083 -0.038415246 0.18798953 0.18577562 -0.098559216 0.19927081 0.31654772 -0.962344 0.2431254 0.6121935 0.13025232 -0.41590303
1497 0.2213044 -0.31701964 0.028224459 -0.52444804 -2.099444 -0.4913108 -0.13268064 0.3553476 0.11613704 -0.123058826 -0.22520933 -0.44304946 -0.2897174 0.89616436 -0.20489104 -1.3481238 0.5360314 -0.09511498 0.5990073 0.20916672
1385 0.24128024 0.105647564 -0.28527153 0.13069177 -0.13615027 -0.34967664 0.5702303 0.5272745 -0.08645181 -0.0143222725 -0.13640971 0.4827286 -0.02232232 0.0048955567 0.29885805 -0.62216765 0.71852577 0.23720339 -0.07561136 0.32811755
167 -0.33191183 -0.78888124 1.0363216 -0.38073716 -0.57651395 0.4870349 0.2018103 -0.050155833 0.09427211 0.14187393 -0.55348134 0.46466827 0.40245283 1.1287924 0.66008955 0.008301411 0.6494859 -0.020634258 0.011282406 0.9456101
605 -0.2669083 0.26634207 -0.19998278 0.022458129 -0.06837849 -0.23405705 0.35993463 0.24993888 0.2108872 -0.9883701 -0.31246153 0.053045563 0.22369583 -0.19397329 0.12680995 -0.15757887 0.4253527 0.052629236 -0.0910357 0.37169084
181 1.507939 0.4442347 -1.504322 -2.1331694 2.691511 0.9735383 -0.565217 0.34136492 -0.57669675 -0.39957875 -3.024964 -1.0425745 2.6727693 1.5267911 1.3103727 -1.3240156 0.60247916 1.8125373 -2.0727167 3.101289
459 0.15871888 -0.14156304 -0.2557949 0.0009534719 0.0030931598 -0.36255264 -0.58637476 0.36777002 -0.25495774 0.30065137 0.43755573 -0.10856095 0.5694719 0.3609144 0.25625563 -0.783155 0.41996053 0.23995115 -0.19095828 0.4465169
218 0.46487564 -0.3866788 0.49548832 -0.48943242 0.053181686 -0.57775426 -0.76961446 0.23322499 0.08251188 0.22795245 -0.30283737 -0.19770272 -0.42035207 0.2532897 0.33092532 -0.6646149 0.31843275 0.36036584 -0.056267414 0.7266507
3008 0.88499784 0.39405042 -0.82759696 -0.4819166 -1.2515047 -0.85068905 -0.2855573 -0.6249959 0.44445142 -0.97725147 -1.0682209 1.2951647 0.2650624 1.9462931 -1.6525502 -0.3580404 -0.17306158 1.9802098 -1.04545 1.1378334
252 0.75053114 0.889403 0.0785082 0.060029574 -0.02205216 -0.9485517 -0.4606038 0.7571293 -0.25562483 -1.430266 -0.9200895 -0.9791909 0.6546296 0.9386086 -0.18948722 -0.6949592 0.023354651 1.1784105 1.0346204 -0.3994798
927 0.14984882 0.25598678 -0.102036536 -0.0071391864 0.020234304 -0.29880127 0.23335472 0.5344835 0.018492805 -0.30050102 -0.23580591 0.046085726 0.2309836 -0.067076206 0.34927803 -0.49032676 0.13207208 0.14303577 0.27542588 0.22141497
1133 -0.4621632 -0.2383186 0.4398301 0.2354796 -0.17193612 -0.42190313 0.26676688 -0.14129236 -0.28736907 0.20614429 0.044401973 -0.07883954 0.22874194 0.53601676 0.07469015 -0.53443563 0.26989904 0.91220987 0.6450889 0.7478909
1096 0.3929973 -0.16122557 0.21244657 -0.05194915 -0.3030432 -0.7759574 -0.06398287 0.009730277 -0.08374469 -0.12054459 -0.48983505 -0.19417274 -0.22940235 0.009108897 0.35318664 -0.46886367 0.059662044 0.1112974 0.06507233 0.824408
1001 -0.08047726 -0.06501341 -0.50463635 0.071502544 -0.69609535 -0.73665357 -0.016651865 -0.17673852 0.5104485 -0.7133367 -0.06611757 0.26698536 -0.29149073 -0.08644708 0.94546133 -1.0789741 -1.0332261 0.23932949 -0.1366661 1.0493585
1094 0.23692288 -0.1167303 0.092318684 0.37514263 -0.32299927 0.1817391 0.23551396 0.6646348 -0.44980064 -0.44951382 0.14458543 0.4180747 0.41017434 0.36018005 0.08656013 -0.19343287 0.19581237 0.4503132 0.09777743 -0.43059704
237 0.15688454 -0.36348426 0.16629729 0.31743523 -0.16417086 -0.44549203 0.16281664 0.40699664 0.2627109 -0.53434986 0.09164551 0.19316143 0.45600113 -0.27480537 0.27786732 -0.47922578 -0.4983726 -0.011572045 0.049774155 0.5645588
1588 0.23835622 0.34583437 0.1373114 0.3709418 0.2142922 -0.25440863 -0.06524586 0.43525854 0.1281316 -1.1047698 -0.5708207 -0.117557965 0.6246145 -0.27740666 0.32802004 -0.31021476 0.34336805 -0.0070137894 0.46887812 0.23438455
1145 -0.43574882 -0.30014804 0.31559405 0.2421779 -0.3673824 0.59241796 -0.24532913 0.07502226 -0.23292612 -0.502868 -0.22260503 -0.13917764 0.5082567 0.02064679 0.18942782 -0.31495988 0.45352265 0.25764418 -0.09693181 0.1571782
1693 -0.6890114 -0.8473927 0.7536192 -0.19047038 -0.695872 -0.3533732 0.6653246 -0.49814954 0.39952675 -0.2752411 -0.29035813 -0.1998371 0.034578126 2.2117827 0.62451905 -0.50463873 0.5293876 0.29931763 0.8669378 1.0777808
1634 0.14156273 -0.101480655 0.18161322 0.08829303 0.0643288 -0.28673542 0.093918435 0.27991813 0.2687808 -0.39201635 -0.3675129 0.09362422 -0.14442323 -0.20863864 0.8311634 -0.57433116 0.54551893 0.032364264 0.18183237 -0.01282883
536 0.25825602 -0.6904174 0.31467775 0.32853943 0.31160888 0.5499472 0.1304384 0.38771337 0.48875448 -0.13741551 -0.8428546 -0.24167855 0.4375497 0.23056345 0.21833703 -0.5055714 0.23825656 0.07358555 0.095364265 0.33196205
465 -0.078371234 -0.94484043 0.30893132 2.7308383 0.14564903 0.4892559 -0.040898297 -1.2142737 0.9691675 -0.44082755 0.4171983 -0.6304823 1.3342266 -0.02158673 -0.8607138 -2.161045 1.5761052 2.4291108 -0.41028008 1.1078428
397 0.4477672 0.034287468 -0.06221039 0.018570907 -0.13906501 -0.42801178 0.038284518 0.31295037 -0.34286654 -0.4530902 -0.39006838 0.123150356 0.89670724 0.15846214 0.3439933 -0.46075496 0.30737257 -0.22965442 -0.059742935 -0.026529187
871 -0.07050438 0.15847336 0.12842292 -0.056628432 -0.26172155 -0.35955593 0.10352028 0.45407343 0.047115646 -0.5107354 -0.54715455 -0.087988466 0.37541002 -0.043099817 0.43004268 -0.33231497 -0.09832988 0.19143946 0.12095327 -0.05989229
3043 -0.069834 -1.1791519 -1.0127938 0.4455774 0.46802112 -0.31286585 0.21003534 0.04720126 0.7588751 -0.072763115 -0.2453726 -0.57622397 0.50115263 0.41418856 0.453532 -1.0315224 0.8762445 0.5568149 0.15852576 -0.5496504
128 0.8478039 -0.25091657 0.19744402 -0.45837495 0.37003225 -0.6641822 0.72859526 0.38039258 0.42687416 -0.6949449 -0.8858012 -0.5152304 0.45295298 0.22124133 0.9016219 -0.7907244 0.12497603 -0.050086617 0.20970209 -0.08722427
1182 -0.27717632 0.118623175 -0.09956095 0.4701951 -0.7573057 -0.68511397 0.06840946 -0.048596334 0.12611327 -0.3646344 -0.16173758 -0.40208218 0.45054147 -0.010569185 0.23900077 -0.23751678 0.46212205 0.1665776 0.07629612 0.35964888
1200 -0.088919535 0.037379723 -0.052260473 0.9744661 -0.71982557 -0.22971904 0.5751397 -0.45032066 0.15356824 -0.38706395 0.086351946 0.10729675 0.123060584 -0.23660474 0.4781618 0.11587661 0.56855816 0.5504029 -0.14976206 0.36598834
900 -0.20113479 0.24652003 0.16615508 -0.034056958 -0.13867252 -0.3599586 0.22678745 0.31899184 0.050509594 -0.45082074 -0.60095346 -0.06248277 0.30543557 -0.063690275 0.52075005 -0.2575313 0.008218681 0.31538928 0.2418512 0.07498532
811 -0.24001637 0.13936783 -0.23968881 0.13353482 -0.65124094 -0.25707427 -0.7969036 -0.05581667 0.3512098 -0.50180644 -0.1104469 0.40415257 -0.31161582 0.17485546 0.7763844 -0.7274425 -0.916952 0.3876341 0.050382666 0.4678326
65 0.46511286 0.0035835505 -0.058657262 -0.46659565 0.2256304 -0.56016594 0.24317636 0.65273577 0.1888471 -0.7111003 -0.122907124 -0.07093664 0.4070456 0.43784916 0.56688666 -0.7993245 -0.23976943 -0.14344957 -0.05071803 -0.0071740123
1577 0.23481736 -0.56014633 0.22321053 -0.33756918 -0.23619153 0.62921435 0.63005155 -0.2904234 0.30557457 0.20131794 -0.074111745 0.21857283 0.33399287 0.3692241 0.8670059 -0.16262345 0.81841993 0.14717142 0.38453883 -0.07453594
2257 0.23550408 -0.09665736 0.19582865 0.7225858 -0.104397126 -0.15919913 0.1084086 0.70655656 -0.04914602 -0.15529439 0.22701603 0.63595057 0.41727996 0.39004526 0.112454124 -0.023265949 0.7543739 0.78871125 -0.20036612 -0.62484616
1172 -0.08175125 0.47467914 0.010972694 -0.46313095 -0.13094014 0.79398745 -0.12674007 0.54303044 -0.25760418 -0.29070348 -0.038441457 -0.6931578 0.5253209 -0.74033034 0.42236894 0.3729237 0.67586875 0.8491721 0.42949697 1.1368871
6 0.027752036 -0.5614098 0.5819178 -0.79336756 -0.6202423 0.37564856 0.626859 -0.52921814 -0.2536828 -0.03220796 -0.13688022 0.801389 -0.010443283 0.5168819 1.1314464 0.4549164 0.58204174 0.15602319 0.26888967 0.48685443
1527 0.38549837 -2.4900558 0.5663136 0.7777819 -1.9508412 0.10040897 0.61807394 -1.0982579 -0.22875294 -3.7149696 0.8097878 0.55197984 -1.557842 1.1087717 -0.93265635 1.1008029 2.1033225 1.1271805 -0.5109755 2.650764
874 0.30628216 0.44698322 0.17017327 -0.15549405 -0.13603929 0.06449484 0.056286935 0.62255114 0.21392627 -0.6928549 -0.59674776 -0.016120013 0.09009092 -0.23228315 0.51744086 -0.33991963 -0.08733904 -0.036279697 0.32541555 0.3476117
35 0.5060506 0.211687 0.13308556 -0.10911094 -0.16847943 -0.040557288 0.41893917 0.74734145 0.25235343 -0.82099813 -0.36928046 0.19723344 -0.624912 -0.15137583 0.8798377 -0.24948889 0.24334292 -0.013115123 0.10055063 0.0205484
358 3.3920164 -1.2160351 1.9072362 2.0388358 0.5587535 -2.271173 -0.030178789 2.2954924 0.27384 -3.326329 1.2922394 1.99624 -0.5686845 -0.36422062 -2.0622826 -1.2572012 1.1005133 1.4794383 -0.7330441 4.3151155
211 0.73829246 -0.1860051 0.18268842 0.5025216 -0.44929785 0.39875144 0.51850694 -0.08851547 -0.49745107 -0.2550943 -0.5105704 0.65329 -0.15956151 0.55524814 0.32157707 -0.18848468 0.16131479 0.91274714 -0.56439507 -0.17811897
710 -0.016539369 0.43521172 0.7830097 0.57058966 -0.0034884585 -0.1566981 -0.17736857 -0.36385074 0.59195894 -0.45699552 -0.31956255 0.13904338 0.02419533 0.39785108 0.59682554 -0.12716526 0.4412582 0.22170754 0.60831684 0.8316523
1574 0.35072458 -0.6511081 0.32365835 0.85235375 -0.54669 -0.003976785 0.50636333 0.3291737 -0.81818885 -0.46561062 0.08877047 0.067977294 0.34582475 0.31064102 0.49051616 -0.008015876 0.20650113 -0.024270257 -0.16321711 1.151034
802 0.4587114 -0.24025543 -0.5713322 1.4329399 -1.8060083 0.8301122 0.54602474 0.04213464 0.1793246 -0.5709202 -0.38061148 0.04703424 -0.59321296 0.049287193 0.6439118 -0.20181909 0.28561655 0.07877876 0.11792022 0.69641596
1198 -0.25020492 -0.03537093 -0.053212173 0.98454124 -0.70513386 -0.9913019 0.24043097 -0.61278063 0.22859585 -0.4136976 0.027071634 -0.4280841 -0.33723626 0.21501632 0.3976568 0.0040684766 0.73732847 0.6261727 0.21557306 0.90605295
1796 -0.31869158 0.26056433 0.66608566 0.49555278 -0.15577273 0.039458632 -0.22028823 -0.6707401 0.2655925 -0.5100302 -0.07660359 -0.62384146 0.53908944 1.1934353 0.41381118 -0.5984625 0.37113646 0.64575803 0.5542494 0.80518025
122 0.5427523 -1.6645138 1.6160864 0.39389235 -1.5589647 -0.33845004 0.3500255 -0.116126195 -0.2603669 -0.33445257 -2.1826785 -1.3173338 -0.7358443 0.7291314 -1.1029767 -0.94493073 0.049759693 2.8967206 0.025598178 0.8109333
1737 -0.43930086 -0.41676837 0.27696857 0.3685774 -0.41359302 0.71798754 0.082046084 0.02112245 -0.9512002 -0.98512053 0.30941555 0.17284493 0.5149579 0.16008775 0.8861061 0.1228393 0.42484045 0.37527254 -0.49352783 0.32102695
287 0.4754693 -0.61579764 -0.086976096 0.31283337 -0.13009945 0.877878 0.63550323 0.13951875 0.11242544 0.10263608 -0.47302482 0.15947291 0.40687597 0.50850713 0.5671201 -0.4933833 0.38676253 0.48060748 0.04043991 -0.5329564
636 -0.38903245 0.6539387 -0.76489246 -0.66718054 0.20533085 1.0114831 -0.6334221 0.35846984 0.11024829 -0.18365395 -0.9313187 -0.80698085 0.5567697 0.16027638 0.5552701 0.35282254 0.723886 1.2047074 -0.89187515 1.1650543
427 0.8307629 0.54834425 -0.77614737 -0.40147427 -1.1447654 -0.5495457 -0.4050911 -0.40436295 0.28672552 -1.273175 -1.4057751 0.985023 -0.40870026 2.0114915 -1.1326118 -0.3248729 -0.017329963 1.6227894 -0.7861063 0.7581302
310 0.68477345 -0.12777387 0.0887434 0.8385809 0.0020933957 0.42918843 0.5254766 -0.14727591 -0.3666592 -0.40042382 -0.33106378 0.9251562 0.12521644 0.4924247 0.7116934 0.08550841 -0.07433037 1.02487 -0.70702726 -0.08751601
47 0.6705997 -0.47139612 0.1314814 -0.24459764 -0.05818997 0.5842758 0.59771764 0.2916391 0.27396703 -0.17731947 -0.21405624 0.09442052 0.3310663 0.47224796 0.64334846 -0.5163729 0.64231247 -0.002815973 0.18947175 -0.5303534
1117 -0.0827052 -0.3365157 0.30914116 -0.74645805 -0.44034585 0.88651776 0.8267017 -0.20036837 0.07057338 -0.47302896 0.12188432 0.3251142 0.1949202 0.36030367 1.3445877 0.32464886 0.9640272 0.029161312 0.23098066 0.2347685
52 0.55643153 -0.49545586 0.16811474 0.4924155 0.26939625 -0.03599426 -0.096317865 -0.04181165 -0.6528923 -0.42573342 -0.04671944 0.78131604 0.015746951 0.251352 0.59747326 -0.05127604 -0.30582726 0.95344716 -0.79569703 0.06922284
2785 0.91660905 -2.2648103 0.7277369 0.5328271 -1.8315659 0.65189904 0.2604586 -1.0801471 -0.6602277 -3.0290606 0.51402 0.80092585 -1.4881824 1.1569289 -0.48382095 0.26598778 1.5281463 0.63945025 0.36772898 1.4959906
538 0.5669049 0.023266193 -0.21933942 -0.004355971 0.39371267 0.7492045 -0.35784414 0.25799695 0.09384054 0.0764284 -0.6381762 -0.19991904 -0.36432883 0.17264678 0.8704237 -0.23639691 0.5105517 0.29468325 -0.46488371 0.57705677
440 -0.51374906 -1.3719492 -0.44833595 -0.30137083 0.12710619 -0.018321883 1.0432782 -1.7716819 -0.62756485 -1.2959398 -0.0439298 0.6729669 0.07682844 1.3961787 0.19733971 -1.1072397 0.39855278 0.9191857 1.3626853 1.1151888
1082 0.5241559 -3.2739537 -1.0452305 -2.2959397 1.4545572 2.5501583 2.6989787 0.71631217 1.0072931 -2.4008164 -3.8795707 6.5818725 0.26715004 2.442471 -2.3249545 -3.2355356 3.5115557 2.8969553 1.1276624 0.5608889
313 0.4943674 -2.837021 0.027406272 0.6233454 -1.3205985 0.8370357 -4.201075 -1.7111783 -2.5670207 -1.3095893 -2.5158992 1.8724318 -1.1859666 0.68962765 -2.667587 -5.1995068 4.9916444 3.1501408 0.051697314 7.0668197
2589 0.7066086 -4.9509706 0.6370182 -0.3130646 2.9885764 0.17757028 -3.9326117 1.518112 -0.8381908 -3.5986133 -2.2377527 1.0580666 -1.4168853 0.7949721 -2.4531236 -1.4810487 4.0056586 2.4577768 -1.8300104 5.3530297
1851 -0.43431553 -6.517909 -2.0940337 -1.7614955 3.0099404 0.23677279 -3.0785887 -0.6064057 -0.003985221 -3.3312593 -2.7136629 3.5513055 -3.0843694 1.6254026 0.90058 -1.6582373 3.0220528 2.1982844 -1.474834 3.4782481
1376 1.0297606 -2.467185 -0.812532 -1.035444 1.5944258 2.5394602 -3.112731 -1.7257998 0.20306668 -5.05992 -3.1956675 4.0758023 -0.26103503 -1.70789 -1.9289463 -3.5314689 4.0583105 3.1941152 -2.9403765 1.1916308
2681 -1.9847689 -1.3146671 -0.96366197 -2.1636992 -1.2561575 2.6544046 -5.2499967 1.6613352 2.0886564 -0.8566947 -0.19779244 3.0742264 -1.7070552 1.4340092 -0.4233641 -1.5854467 7.851362 3.6203158 3.6150439 -2.3126817
297 -0.3982717 -2.145757 0.05962826 -5.0244946 0.5522398 1.5199296 -4.2121677 -1.3577958 -0.75206846 -2.2565057 -2.7523003 4.865509 -2.6064222 1.5312191 0.6057769 -1.0082953 4.416901 2.8940442 3.1488407 0.18587798
2636 3.5256002 -3.7952921 0.42623612 0.69444066 2.4613752 1.5729406 0.2674891 1.6523819 -2.1925955 -8.260539 -5.6553693 -0.20652494 1.7002194 -1.3280084 -3.6867418 -4.01338 2.2557747 3.884064 -2.8062525 2.970444
1390 -2.8590443 -3.5564866 -2.8518517 -1.9636075 1.8013977 2.92072 -1.7555939 -1.8589813 0.11818534 -0.76010907 -2.1576884 5.8100815 -2.402436 -0.8327851 1.7948877 -2.0163944 3.2381606 4.2369795 2.3404396 2.7941022
2598 1.3842726 -2.311301 -1.1049951 -2.6334288 2.5525835 2.889568 -3.7071257 2.2412488 -0.9724831 -2.2559512 -3.736924 4.7079296 -1.2522893 0.9021396 -2.2439377 -3.546545 2.1424904 3.899796 -2.0598977 1.1445082
1742 1.9430118 -4.167265 1.8122332 0.3763076 2.0306778 1.8765193 -3.2984865 2.1184022 -1.0678843 -5.4781666 -0.7822509 2.363763 -1.5044566 -1.131319 -4.2330875 -3.2987452 4.303771 3.342156 -0.51576185 2.139643
17 1.0929184 -2.3989596 -2.0666344 -2.7213442 1.8996881 2.652978 -3.7096965 1.105009 -0.5815347 -3.0486164 -5.135773 3.2366505 -1.2533197 0.48180208 -1.2772377 -4.5423985 1.5238757 3.2459743 -1.9370672 0.23122145
3037 1.2248796 -4.67645 0.35934284 -2.439103 3.8294861 3.2493253 -2.9717793 0.6569597 -0.022449251 -4.746696 -2.0403783 1.3371291 -0.026512777 0.7914344 -1.1767957 -3.1454966 5.1124735 2.1649275 -1.6770213 0.18727906
461 -0.14293891 -5.1713514 0.102159105 0.1737851 0.37433085 1.9987335 -4.5046377 2.7853386 0.23736358 -2.4285312 -0.5574993 2.835991 -4.043062 -0.8659131 -1.9628634 -1.7394552 4.7260604 2.6814547 0.5260983 2.7542026
408 0.08873327 -6.8935585 -2.9356692 -2.077845 2.487839 2.6643665 -0.65994316 0.34276053 0.6715595 -5.138568 -1.4422834 2.8369439 -2.4999006 -0.2618641 1.313559 -1.4977033 4.302506 -0.38536608 -0.47424388 4.098016
765 1.0806997 -2.8926382 1.1264933 -3.5789528 3.3110416 1.1631736 1.553738 0.21368441 0.19788037 -4.696701 -2.2534719 2.5902798 -2.2666473 0.56273186 -3.8276536 -3.8665943 2.144296 5.3912544 -1.1820652 4.0720134
1802 0.4333321 -0.95696574 -0.5911817 0.5047938 0.08624946 0.7301727 0.0567181 0.43493962 0.5942189 0.3004996 -0.3440351 -0.39789873 0.24389169 0.44101763 0.39964238 -0.8818107 0.64348364 0.28627726 0.24606211 -0.05547334
1097 0.29269284 0.4219289 -0.41838336 0.23445696 0.01662958 0.21681719 -1.8245456 -0.007550953 -0.5804958 -0.5376057 0.3096087 0.31206527 -0.36052302 0.99235314 0.84065396 -1.0071039 0.042564433 0.68802977 -0.3063105 0.47375742
424 1.8119873 -0.76160544 1.4143616 1.5105017 0.18436499 -1.1181607 0.10234972 1.6722659 0.04425851 -2.11148 0.5275057 0.9715765 -0.29316118 -0.6070755 -1.0565947 -0.49920252 0.7063791 0.8199696 -0.7402428 2.977773
2415 0.59144676 0.4099242 -0.55191857 0.030221468 0.42888844 0.38776064 -0.16923702 0.9721642 0.43078637 -0.27176797 -0.16782746 1.2263947 0.08060598 0.81098396 -0.04727743 -1.2500417 1.3428264 -0.014255437 0.48503014 0.5260262
1379 1.4240522 -1.6733687 -5.5138407 0.9591848 -1.4256495 2.6452634 -3.0185275 -4.790442 -0.032641698 -0.8753714 -2.8616107 4.289878 0.93113726 -0.0042754016 0.25541034 -3.5699925 4.364963 1.0067177 0.46389553 1.8083974
1696 0.042848945 -0.17925562 0.8516817 0.18168168 -0.78568465 -0.26098284 0.08928656 0.56604177 -0.39442268 -0.25169694 0.20741491 0.931596 -0.2741037 -0.92911655 -0.14532435 -0.9221361 1.2636323 0.8380943 0.82342345 0.39687255
1568 -0.64609414 0.34438634 0.37357372 0.25802198 -0.41179943 0.42905936 -0.69589835 0.24417338 0.7429101 0.25472155 -0.079398595 0.52597976 0.8782815 -0.46689028 0.41183227 -1.280512 0.79840225 0.79568475 -0.06192413 0.2195843
1365 -0.0636151 -0.5564649 0.75328887 -0.40817237 -0.22581603 0.2704499 -0.010951928 0.76633203 -0.111341335 0.20379497 0.06865174 0.65168774 0.07867586 -0.6333569 0.13941717 -0.2474286 0.1511602 0.85396665 0.18091063 0.44352773
1770 -1.0551533 -1.2200032 0.31833452 -0.24872053 -0.81985384 0.8326839 -0.37023103 0.5074137 -0.16009003 -1.3705221 -0.1883513 -0.072151355 0.3388034 0.12496984 -0.16296801 -0.69479066 0.44950587 0.14700691 -0.30666634 0.3028617
791 -0.44105998 -0.85772836 0.19234522 0.5220125 -0.61085975 0.14331284 -0.35265514 0.4703339 -0.39803502 0.27421185 -0.27597362 0.6702964 0.029173441 -0.5990544 -0.06576443 -0.20708777 0.0077420874 1.3589647 -0.06596637 0.12364843
695 -0.14039993 -1.7872931 -1.0439421 0.37486038 0.59915817 -0.81491864 0.19447266 -0.8577279 0.050598755 0.115003675 0.14003699 -0.42215708 0.68778646 0.735569 0.773768 -0.9916929 1.26835 1.3104504 -0.009707681 -0.69625103
2577 1.0145158 -1.4489528 -5.1599393 -2.730818 0.24566884 -2.029138 -0.5156495 2.618976 -2.4838467 -1.8292336 3.2800329 3.0994387 4.197393 -0.104799904 2.3355253 1.1259279 2.518717 -0.40594843 6.4105062 2.0640423
529 -0.09925476 -0.70729643 0.08270036 -0.14327313 -0.37550977 -0.47278088 0.04398993 -0.37191087 0.5782385 -0.18019813 0.60618544 0.8281955 -0.033257138 0.23488487 0.15413222 -1.5186728 0.2831247 0.92184174 -0.3396038 -0.402308
554 -0.47398835 0.46323746 -0.60984564 -0.10840787 -1.415921 0.18415517 0.32416221 -0.041058253 1.033486 -0.8545494 -0.2908004 0.5644305 0.33209714 0.42620426 0.026885517 -0.09587347 0.7290987 0.39115357 -1.0395108 0.71922743
1722 1.4124725 1.1843793 -0.40323198 -0.1008985 -0.93064904 0.14121594 0.7926069 0.25538552 0.929202 -0.5659559 -1.319048 0.14363877 1.5109513 -1.1927749 0.29154757 -1.0448337 0.4925461 0.31708568 0.63161874 0.69885707
2675 -0.4094167 -0.6626951 1.6115582 -2.0550077 -0.50606865 -0.33571458 -0.53552806 -1.827166 0.6526203 -0.4304293 -0.536104 0.72203666 1.839229 -0.18055783 0.25003624 -0.9829105 0.28944853 0.6055185 0.95067424 1.5772661
740 0.13775854 -1.1228496 1.8120676 0.3582914 -0.19652979 -0.052374963 -0.30158052 1.2293956 0.15786335 -0.6675737 -1.1312124 0.42509848 1.2401892 0.67116153 -0.7060666 0.38568482 -0.4412431 1.452672 -0.57902807 -0.11637516
541 -0.6364879 -0.869625 -0.6468341 -1.5603745 -0.19175448 0.5189662 0.2819179 0.16970319 1.1253833 -0.77119887 -1.140656 -0.3178399 -0.058201365 -1.3916032 -0.052047443 -0.82903075 -0.90456176 1.8127247 -0.40357837 3.6039567
1162 -0.25016403 -0.39381942 0.299733 -0.45471057 0.053111915 -0.65885925 -0.4471674 0.36952507 -0.22986293 -0.033891812 -0.12409252 0.4761503 0.9511865 -0.707311 0.035627086 -0.71897954 0.107647955 1.2894888 -0.3737464 -0.3451882
610 -0.2170251 0.042088743 0.41335556 -0.7792212 -0.35243988 0.40687495 0.45001385 0.5944106 0.6407935 -1.2901609 0.007382602 -0.03353576 0.30009827 0.2559979 -0.25219554 -0.20535839 0.58664036 0.36708215 -0.91433746 0.16127196
2386 1.0388737 -0.9649665 -4.5858493 -2.4467058 0.13815995 -1.7105298 -0.5888345 2.1719027 -2.3215659 -1.6923624 2.8803992 2.9072583 3.8973062 0.5624245 2.497071 1.1748809 3.0380785 -0.75309306 6.0892525 1.7907727
1151 0.044150803 -0.6716209 0.2923283 0.22226994 -0.4859825 -0.009600539 0.01159173 0.3904421 -0.42054126 0.19379619 -0.73993397 0.23958038 0.11641458 -0.5375773 0.1529855 -0.37261298 0.53183883 0.48831475 0.016772447 0.4277763
1384 -0.038596697 -0.14302519 -0.62306386 -0.007944161 -0.27353463 -0.9323146 0.6207716 0.5337734 -0.3783898 -0.2187472 -0.31002793 0.4449226 0.16506979 0.008296841 0.2504964 -0.8513824 0.87473977 0.060936555 0.0796555 0.8884575
1147 -0.36277333 -0.29724056 0.1644553 0.48988035 -0.026220236 0.1324931 -0.4686986 0.18234317 0.014470612 -0.33994585 -0.6215419 0.128976 0.553695 0.05614326 -0.05612529 -0.18979006 0.5085646 0.18173902 0.17110875 0.2753457
3337 0.6823206 -0.9577072 0.61793786 0.71958697 -1.0408564 0.4119494 -0.36311677 0.8556065 -0.90747327 -0.687442 -0.84480006 0.4424783 0.11106204 0.97489387 -0.21056138 0.14309932 0.3429762 0.4853968 -0.7744742 -0.12923647
326 0.042002644 -0.45509136 0.07389151 -1.3857721 -1.1414654 -1.3575392 -0.12644239 0.16708864 -0.17333263 -1.5679342 0.521818 2.7761214 2.8041744 0.58509696 1.2971233 0.7385513 0.12893265 0.22922055 -2.6271892 -0.2774155
510 0.11868116 0.47651005 0.08126282 0.4420497 -0.44404602 -0.65463185 -0.6119086 1.4984232 -0.08571985 -0.83941644 -0.21268837 0.52297753 0.69678384 0.20408124 0.052312806 -0.402246 -0.027230917 0.06717315 -0.07093768 0.06734857
704 0.27605933 -0.31359184 0.007638631 0.11881911 -0.5095896 -0.05500199 -0.5532529 1.0057646 -0.21630543 0.20379126 0.37897176 0.051872373 0.3590284 0.20972824 -0.17580423 -0.8553491 0.22256453 0.22868583 0.44873327 0.16777194
1667 -0.2299367 -0.77928257 0.5125858 -0.74975216 -1.9321399 -0.45241043 0.30142698 0.27742043 0.24393605 0.19988967 -0.47567555 -0.038794566 -0.14499642 1.3752333 0.16908099 -1.212496 0.39266312 0.20922972 0.07662756 0.09791298
398 1.4016811 -0.99069226 0.60990393 -0.22292922 0.3988746 0.2370212 0.17223155 1.4477762 -0.7318444 -0.6758378 -1.2665075 2.3968906 -0.4747332 0.4018714 2.1874475 -1.0483875 -0.820825 2.6373496 -1.229089 -1.8364335
976 -0.08671495 -0.080311 -0.32253453 0.09721582 0.056673083 -0.5166262 -0.05152163 0.66468585 0.10079119 -0.28082374 -0.05865749 0.38511437 0.03187594 0.048089758 0.113839395 -0.43317324 0.13392411 0.20854491 0.24814816 0.12994617
534 0.48193803 -0.41837186 -2.7026532 -1.3258483 -0.54801595 1.2464325 2.574336 1.1114842 1.5684706 0.7771357 0.77228814 1.9685885 -1.786669 -0.38726524 2.3859134 0.43497485 1.3620723 3.6727061 -2.1572893 1.2881575
736 -0.54923934 -0.2463461 0.40191826 0.53406584 0.15233698 -0.5141453 0.24235235 0.40979546 0.24899112 -0.27640435 0.031385772 0.055490736 0.016307944 -0.32604808 0.5252823 -0.09324593 0.43353838 1.1878853 -0.13734387 -0.14356825
1095 0.09739423 1.13729 0.4968719 -0.30942613 -0.5320636 -0.24416795 0.15067784 0.13857763 0.59386224 -0.64525265 0.06353074 0.23719192 -0.2203014 0.6209271 0.27938446 -0.2480768 -0.0023580387 0.6631763 -0.20096351 0.6650715
2274 -0.17003274 -0.21295945 0.17900136 0.2830675 0.20017894 -0.93312585 -0.50364256 0.40720412 -0.025090922 -0.35287434 -0.19175377 0.5468123 0.07196487 -0.03354223 0.53090197 -0.24867028 0.38674453 0.10390171 0.19044101 0.13795413
131 0.22638239 -0.29571486 0.34502217 0.1588283 -0.11040578 -0.20561376 0.05383404 -0.12933913 -0.10816835 -0.27769783 -0.48543403 -0.043935835 0.0054766126 -0.115018085 0.33062077 -0.14492822 0.49865884 0.31923994 0.8697151 -0.01349296
251 0.8283304 1.6579982 0.81104803 -0.041741796 -0.24501151 -1.9228233 -0.9517452 1.7371867 -0.77041113 -2.7052975 -1.1264346 -2.0131085 0.84922236 1.548057 0.049293265 -0.9512145 0.45479167 2.8365335 2.1788938 -0.92172897
308 -0.60631514 0.081673875 0.15718092 0.20583299 -0.21753347 -0.38207328 -0.33987156 0.29455936 -0.33035937 -0.54613644 -0.31917801 0.14369884 0.26403892 0.16116391 0.112821676 0.0029970533 0.36641377 0.6175322 0.43064925 -0.2047998
509 0.015079167 0.022506963 -0.2783654 0.36089292 -0.01579499 -0.5955466 -0.39100933 0.9035916 -0.058485273 -0.2875195 -0.0567665 0.37452364 0.25298685 0.19560398 -0.031892754 -0.32956007 0.2716148 0.15359919 0.0052866195 0.1331489
2016 -0.23219079 -0.15645875 -0.06608396 0.65655106 -0.797931 -0.70525837 0.47495076 -0.11538272 0.0033817769 -0.19653344 0.2679837 -0.1847358 0.19567204 -0.48764193 0.078913376 -0.22910951 0.680387 0.76338243 0.18054432 0.34569538
98 0.49577397 -1.4294578 1.0279537 -0.04250174 -0.83122987 -0.30724108 0.6899132 0.3285489 0.34584418 -0.5772913 -0.1975516 -0.0021258001 -0.96432626 -0.036509275 -0.1563278 -0.10391504 0.24546109 0.8849937 0.24441174 0.17084207
1422 0.1017341 0.035536863 0.3643495 0.20630519 0.009826349 -0.5990464 -0.1639692 0.7823139 -0.07231426 -0.3384726 -0.26572862 0.2772555 -0.27363586 -0.32935742 1.0029733 -0.3400179 0.51898205 0.27786016 0.22364809 -0.011071142
72 0.2789901 -0.7950175 0.88258916 0.78592944 -0.53515095 -0.37107667 0.17795438 0.81907326 -0.12022704 -0.27381408 -0.33310893 0.31598252 0.670542 -0.104332015 -0.14633095 0.13125648 -0.098680966 0.35616708 -0.14547735 0.5549329
623 -0.28074604 -0.22335687 0.6193035 0.14362572 -0.3784406 -0.37839422 -0.70762956 -0.5482605 0.79192096 -0.8339568 -0.43448648 0.4727738 0.2538048 -0.43757674 1.027636 0.21826275 0.33465275 -0.17053548 0.82265335 0.54764843
919 -0.38147122 -0.1332214 -0.16378248 -0.19355452 -0.0557493 -0.28193867 -0.06435724 0.39177802 -0.060699794 -0.5243174 -0.12006196 0.27557313 0.06351421 -0.20788959 0.120546624 -0.23021711 0.07009081 0.28217718 0.1851257 0.11833064
734 -1.0002155 -0.2726541 -0.16218044 -0.28233638 -0.7015821 -0.56886554 0.15774497 0.17680615 -0.19143352 -0.8009352 -0.3388668 -0.47949374 0.33609712 0.3128346 0.44681823 0.19019324 0.35582468 0.24952331 0.034744546 0.15823947
712 -0.12328071 0.08353374 0.42859924 0.6875783 0.16746685 -0.550432 -0.3990632 0.13780466 0.7484778 -0.83220345 -0.2571482 0.6284982 -0.10205532 0.4028533 0.6020268 0.12486907 0.4337608 -0.15487188 0.54661626 0.6279983
1483 -0.41335252 -0.2325696 -0.10737294 0.29839495 -0.057623602 -0.77517265 0.31679273 0.16200031 -0.2354686 -0.28857318 -0.3699296 -0.1043529 -0.017671686 0.12268143 -0.029183794 -0.70825225 0.15391542 0.6325679 0.8812032 0.9412482
1177 -0.9251345 -0.20706266 -0.30815408 0.12663025 -0.35540694 -1.0574607 -0.06511416 0.2082994 0.11751364 -0.65427256 -0.71576154 -0.26488644 0.34152043 0.2772357 0.346197 0.2978871 0.48764834 0.21900174 0.16742182 0.26897344
1074 0.06803813 0.36903998 0.06052151 -0.11607556 -0.4753363 -0.20011395 -0.113187395 1.0084586 0.68593305 -0.025565706 -0.043435182 0.3190482 -0.4902266 0.54669225 0.8608475 -0.23760794 0.61234057 -0.35957503 -0.12432172 0.82887137
1711 -0.0514527 0.08110595 0.6521786 0.8944087 0.008700741 -0.36268312 -0.591093 0.5546679 0.9038255 -0.9867839 0.06878092 0.71464574 -0.26782575 0.121681035 0.7245893 0.09154022 0.03361233 -0.0012235994 0.080688536 0.5607332
918 -0.056125544 0.11044682 -0.017690578 -0.2963496 -0.24739331 -0.10666858 0.18336008 0.4931945 -0.03356117 -0.8914789 -0.27578762 -0.035823137 0.2617514 -0.17799307 0.35730684 -0.39067364 -0.12907688 0.029472504 0.23240884 0.02785909
868 -0.78524137 -0.16073278 -0.2434415 -0.08266475 -0.51347977 -0.43527985 -0.2673477 0.5584049 0.19394064 -0.6254197 -0.8053147 -0.21166946 0.35573068 0.036681477 0.6130677 0.25888544 -0.49501935 0.3032607 0.07627517 0.13024186
2388 1.2654366 -1.0887007 -4.0769134 -1.4743252 -0.1872466 -1.2742741 -0.40887776 1.6904616 -1.8860868 -1.4781435 2.0912852 2.9871104 3.4819427 1.2516766 2.487304 1.1586559 2.8643878 -1.1224158 4.9805202 1.3944291
1 -0.003174315 -1.4173422 0.21735786 0.124862954 0.05531216 -0.5833244 0.5365507 0.41945305 1.0515497 -0.79490376 0.28674448 0.25392723 -0.7591795 0.6020241 0.5275364 -0.06562296 0.45874718 0.24093506 0.504986 -0.19238275
2788 -2.6338537 -4.4492483 -6.0287604 0.033085536 -3.28944 -0.6800245 -2.258342 8.488185 -0.14308648 0.10524728 -0.9928651 -1.160428 -3.9109094 1.7339556 3.426554 2.5585423 1.8674778 2.0240026 -1.5514697 3.4150488
221 -0.54633826 0.106341556 -1.2865812 -0.57554 -0.36122757 0.21954864 -0.73330516 0.38721132 1.1955363 -0.13884766 -1.530319 -0.18764775 -0.54413295 0.054555286 0.2338391 0.6696843 0.20035124 1.4283049 -0.73018914 0.9493545
1178 -0.37323585 -0.037333786 -0.11512171 0.65296257 -0.6949073 -0.89498955 0.26815313 -0.3661917 0.04486263 -0.22706641 -0.0039116107 -0.22257796 0.10179184 -0.029892378 0.30077997 -0.06234452 0.68417346 0.47301343 0.10998696 0.6025795
2745 -0.3273071 -0.5339857 0.55775326 0.3474301 0.048490457 -0.40682602 -0.5956077 0.4109377 0.48340276 -0.62450063 0.46977887 0.052482963 -0.34112835 -0.13816477 1.0204542 -0.46948764 -0.02381129 0.24424173 0.044835877 0.27269226
255 -0.10825349 -0.19039805 -0.07804834 -0.01621317 -0.5785124 -0.32012123 -0.53343636 0.49789613 0.28736526 -0.055768296 -0.12608254 -0.30583537 0.009138159 -0.4368318 0.20093103 -0.85600144 -0.16588147 0.6372418 0.06910793 -0.030680863
285 -0.39848703 -0.052256342 0.14474326 -1.1098921 -0.70279944 0.2629233 0.37079898 -0.6854747 -0.05468626 -0.8415443 0.40195537 0.67455137 0.33809173 -0.19071887 1.4346389 0.4112902 0.7569878 0.116722636 0.39758146 0.26798087
768 -0.10004951 -0.20552999 0.081067294 -0.20379102 -0.37741223 -0.06402858 -0.14777626 0.34921503 -0.17625105 -0.5661099 0.05757914 -0.11712154 0.43147585 -0.20832764 0.17750466 -0.36152732 0.08475537 0.052931443 -0.061053876 0.058111936
932 -0.2721188 -0.13941081 -0.3871719 0.12429709 -0.6197909 0.10726644 -0.32782292 0.4705614 0.7367201 -0.1993097 -0.37238228 -0.17536852 -0.41011527 -0.18356453 0.6510488 -0.97054625 -0.51524204 0.51443887 0.55115587 0.03202175
2791 -2.5349958 -4.4620805 -5.8224134 0.09368474 -3.2575152 -0.7839332 -2.4545815 8.586079 0.039376672 0.02660361 -1.1509635 -1.0027423 -3.8605313 1.5064428 3.309025 2.7622597 2.0166883 1.880767 -1.4099401 3.4178636
1229 0.27472308 -0.6967948 0.018010048 -0.31140542 0.05734275 0.51131105 0.47337958 -0.09568243 0.94432425 0.33686852 -0.14924853 -0.05597225 0.1098376 0.82583255 0.69031787 -0.73575264 1.1847101 -0.15525566 0.46786255 0.5526974
2679 0.28309938 0.07161073 0.5186135 -0.22596416 -0.4059297 0.07632879 -0.5253167 0.78781754 0.56961036 -0.04988819 -0.4308752 0.09632135 -0.7199555 0.39105287 0.8191913 -0.020353867 0.31574827 -0.11200763 -0.36285996 1.1388748
1146 -0.14466336 -0.19118492 0.32030755 0.340198 -0.21538776 0.31321463 -0.18578747 0.11597184 -0.08575485 -0.37269345 -0.7503525 -0.13931683 0.6717117 -0.09611691 0.22410762 -0.3438126 0.32064304 0.13918728 0.07967427 0.26517805
1303 -0.78254104 -0.11801887 0.35782272 0.5803281 0.1300409 -0.41944495 0.22244461 0.7624249 0.44735518 -0.8939001 -0.5107736 -0.36007738 0.22776784 0.52079546 0.8041817 0.21453619 0.6089059 0.8014588 -0.22332 -0.51977843
3487 0.49213946 -0.70615506 -0.2703974 0.051705338 -0.29408184 0.071808465 0.100845866 -0.368275 -1.082469 -0.73482114 -0.1799907 0.55603415 0.09305459 0.42559877 0.82237196 -0.10748502 -0.20550235 0.6127764 -0.7031009 -0.11111287
729 -0.44974926 -0.18505847 -0.08658 -0.7298966 -0.4234352 0.7419275 0.5557667 0.1540775 0.15920159 -1.0079155 0.33346397 0.030400017 0.10755119 -0.25526673 1.2129793 -0.17222564 0.8582781 0.06871472 -0.2757841 0.13953607
1565 -0.033308066 0.099831894 -0.19860801 0.11081056 0.16652946 -0.5923402 -0.10684222 0.45636 0.18561953 -0.9718312 -0.7469457 -0.12735108 0.53282285 -0.22719426 0.24999782 -0.28253466 0.3297312 -0.0921839 0.3457306 0.13414106
1006 -0.003966862 0.37669736 -0.226146 -0.30156726 0.2511477 -0.23092687 -0.48464525 0.76974195 0.40215832 -0.661494 -0.18148585 0.27938485 -0.1279408 -0.19900104 0.34424126 -0.1803887 0.076586515 0.048352752 0.057044372 0.5518956
1140 -0.5148805 -0.06137072 0.3705911 0.74396193 0.14542976 -0.37148932 0.13719821 0.7294803 0.2937547 -0.5935809 -0.22918989 -0.1285258 0.36066583 0.5923016 0.6278022 0.30835977 0.683637 0.79136264 -0.16733699 -0.55371153
3389 0.2379288 -1.3281862 0.6064766 -0.51924014 0.5655865 -0.75123197 0.30766502 0.35257608 0.5270201 -0.15474047 -0.74124223 0.33021504 0.45658055 -0.63637984 1.1966075 0.36149156 0.09312588 -0.15881667 -0.5046919 1.616901
1596 -0.1450604 -0.46844947 0.42331594 0.16170466 0.1920925 0.101366505 -0.46567455 0.17186467 -0.5312189 -0.605706 -0.65339136 -0.3398642 1.3006403 -0.15733294 1.5399442 -0.6856616 -0.03344654 -0.1157143 0.47987202 0.7370026
2362 -0.040782016 -0.19439355 0.22200969 -0.50164354 0.30512527 -0.24821681 0.5331258 -0.11355061 0.33739376 0.2152319 0.23804097 -0.029545326 0.54133224 0.4488491 0.84011036 0.20818599 0.76130116 0.16684014 -0.76596826 1.5009236
1312 -0.012072193 -0.107610956 0.6153718 -0.31015718 -0.10628551 -0.5601581 0.3534211 0.033909187 -0.24008624 -0.36955705 -0.21164334 -0.39807448 0.30966657 0.48273164 0.7267045 -0.2048143 0.085955374 0.5808115 -0.26758245 -0.057436876
2289 0.071696505 -0.19260143 -0.04823669 0.18966293 0.3180373 -0.7448857 -0.37901223 0.32507247 -0.1735109 -0.3356327 -0.18501127 0.55705875 0.3935958 0.20106484 0.57297677 -0.24588522 0.22802472 -0.13288976 0.09988858 0.1942021
1757 0.37391376 -0.9011175 0.594426 -0.98161876 1.2932886 -0.90136236 0.22480921 1.0820324 1.0028257 -0.1089833 -0.98884845 0.5503404 0.7716579 0.11130067 1.1777242 0.8950881 0.0085506 0.38216025 -1.6475796 2.1770358
666 0.06167548 -0.33870107 0.49341634 -0.21408659 -0.0046280534 -0.6210195 -0.108326174 -0.11961927 0.26460034 0.15146533 -0.3803059 0.20944044 0.28086135 -0.26394042 0.98913026 0.048855968 0.32023847 -0.0062618293 0.18062833 0.79719514
99 -0.09188871 -0.16921863 -0.020614268 -0.012763767 -0.18047462 -0.08999708 0.063243575 0.034292836 0.48389107 -0.14509222 -0.025343943 -0.1562227 0.6327831 0.11240752 0.71996725 -0.33607215 0.1601884 0.0105336625 -0.054291915 -0.08175559
