1052 128
537 0.12395203 0.13307115 0.056178793 0.060938545 0.009239358 0.17324616 0.1183351 -0.030021947 -0.007924061 0.25386524 0.08978088 -0.0036011394 0.09437573 0.10094845 0.04927777 -0.09673487 0.05588034 -0.11002159 -0.23741119 -0.09209107 0.2304835 -0.13627155 0.21445137 0.26521927 -0.011068697 0.20235774 -0.0940141 -0.062896214 0.008928649 -0.26065987 0.22051397 0.063776985 0.39365682 0.04846548 -0.068159014 -0.011770369 -0.20178491 -0.19411284 0.16866177 -0.11977397 0.063502684 -0.046216458 -0.03814449 0.1362728 -0.018657338 -0.034722928 -0.18697491 0.5662596 -0.060376704 0.13264257 -0.028165564 -0.20698091 -0.10361885 0.2518326 0.08053345 -0.11861567 -0.06953323 0.058474824 0.15309371 0.06207034 -0.041947518 0.052624658 0.16648202 0.024159847 -0.1410162 0.11461879 -0.02503735 0.091842234 -0.045456816 -0.015155736 0.14714251 0.043760773 0.101750374 0.1306608 -0.020765528 0.061634634 -0.03498293 0.050883874 0.06463103 -0.0129827075 -0.13968223 0.017506262 -0.052897677 -0.24079329 0.061490167 0.12672837 0.09317822 -0.14524674 -0.02028346 0.18575771 0.043579787 -0.025663214 -0.19989054 -0.020037195 -0.10519322 -0.122691184 0.12629506 0.0019230476 -0.01987717 0.111120656 -0.029218443 -0.08065423 -0.2599297 -0.14734152 -0.18992546 -0.041084163 0.14733614 0.14425607 -0.12406268 0.21082999 0.07699927 0.06872646 0.18002963 -0.36045054 -0.102331325 -0.14991586 0.012825507 -0.11353509 -0.016633946 -0.0034443112 -0.13835214 -0.12600201 -0.22251357 0.042662356 -0.07719106 0.017322894 0.19603644 0.3159666
339 -0.17061956 0.044364356 0.07584387 0.025486901 -0.09358475 0.078922085 -0.1725431 0.047988933 0.076883 0.21755825 -0.14075121 -0.141553 -0.11610402 -0.08798961 0.16913106 -0.32319716 0.07753574 0.2005137 -0.082032844 -0.045162946 -0.021929141 -0.12037822 0.3168013 0.22887245 -0.02104616 0.031175192 0.12625898 -0.035721835 0.086347654 0.036538526 -0.07019435 -0.019968232 0.33743736 0.011748017 -0.16775507 0.08925025 0.098249435 0.036733694 0.0022142085 0.015905248 0.27597627 -0.09836442 -0.09062241 0.28787154 -0.08979385 -0.071138404 0.026765808 0.42892426 0.111810975 -0.023743851 -0.031373907 -0.20170164 -0.08036975 0.31846428 -0.028871208 0.022371136 0.10190589 -0.061857026 0.10257557 -0.17175588 0.06648858 -0.15517852 0.024005681 -0.15732633 -0.060195465 -0.07246799 -0.115869336 0.05429874 -0.06499697 -0.02512118 0.08775553 0.12909912 -0.036896914 -0.031441543 0.07273593 -0.07674846 -0.10072832 -0.106051914 0.20011073 0.11791897 -0.085504875 -0.01455069 -0.13098939 -0.11023546 0.14084165 -0.24813485 0.1546528 -0.008068086 -0.0060292 0.008642862 -0.065136485 0.15910253 -0.29974142 -0.072871074 -0.02428137 -0.16832098 0.20066832 -0.053765025 0.204325 0.0031995068 -0.10839254 0.12946 -0.022995874 -0.28645152 0.06381572 -0.010698914 0.13005492 0.054034155 0.07293244 0.11741956 0.28795376 0.07896753 0.20394318 -0.14048724 0.18096092 0.215362 -0.08043565 -0.13091859 -0.28489602 -0.15337479 0.1513588 -0.03173558 0.08875506 0.020062977 -0.27844703 -0.13476412 0.09670649 0.13305497
46 -0.29316083 0.11563024 -0.36931822 0.17841598 -0.19170591 -0.14980647 -0.1520451 -0.019916551 -0.053219546 -0.2561454 -0.0047209985 0.22204588 0.04626518 -0.14639941 0.28752497 -0.19391848 -0.24013585 -0.037984084 -0.23875813 -0.06066332 -0.17826316 0.16821781 0.08280971 -0.021445682 -0.057947043 0.6492326 -0.19685444 -0.22389404 -0.11808302 -0.12961079 0.11417823 0.06880226 -0.20517635 0.35819703 -0.52038753 -0.39568627 -0.11883964 -0.17442746 -0.026945967 0.20984104 0.032086816 0.045301333 -0.2892751 -0.7940729 -0.65985465 0.19786102 0.6568524 0.4626445 -0.1456339 -0.30150032 0.11220177 0.18068779 -0.2237952 -0.3661161 0.055510763 0.14350583 -0.10862638 0.20821297 0.6253851 -0.3234983 0.4368957 -0.38216105 0.26070726 0.091214485 -0.06642591 -0.18692088 0.361659 -0.102748014 -0.5074267 -0.37226045 -0.026215654 -0.05547439 -0.018639341 0.15092881 0.029656658 0.10910002 -0.25569448 -0.07898032 0.11067405 0.13247305 -0.24987042 -0.27099782 0.1913805 0.024547605 0.7057711 0.14106278 0.00041191466 -0.21801269 -0.061397806 0.055780187 -0.38021252 -0.02846461 -0.48526943 0.31443945 0.52206147 -0.7107249 0.48149467 0.4098335 0.010682799 0.3070878 -0.3378532 -0.10330711 -0.51089305 -0.2177341 0.22991352 0.058989696 -0.20449805 0.3544598 -0.005180965 0.1236444 0.31295127 0.26313725 0.009243068 -0.03546034 -0.35186335 -0.03719183 -0.03348677 -0.063846774 0.1937593 -0.24062689 -0.19130579 -0.07708931 0.48273107 0.83514094 0.094380446 0.2808272 0.35255027 0.27424863
92 -0.15263309 0.21063519 -0.35024467 0.21892835 0.086161934 -0.16591905 -0.19155294 -0.027555095 -0.05368731 -0.026451683 -0.36796427 0.18541116 0.06245672 0.06438717 0.078994185 -0.40456736 -0.040654685 -0.22693288 0.104440495 -0.1071321 -0.33059394 -0.07332423 0.32976314 0.1494854 0.09040448 0.29524466 -0.015756873 -0.081952155 -0.10152717 -0.15487516 -0.14891215 0.045226082 -0.20645551 -0.010716779 -0.32412338 -0.22388294 -0.012176309 -0.34144175 0.19713289 0.07200152 -0.115826756 -0.014712803 -0.18117048 -0.31699413 -0.27614018 0.22969644 0.29634953 0.50528675 -0.13259004 -0.28079268 0.18394151 0.015329901 -0.29960322 -0.09500556 -0.07772958 0.21427971 -0.018415924 0.06553268 0.14898536 -0.06211002 0.35704088 -0.28237876 0.37572458 0.23647569 0.3400849 -0.22762552 0.3672572 0.056338202 -0.35794783 -0.07219393 0.005326596 0.13494007 -0.057680573 0.014193662 0.14176601 0.13631205 -0.10247965 -0.32482058 0.2259406 0.23743802 -0.21413067 0.18334596 -0.1314527 -0.10096767 0.5524257 0.18889001 -0.0024790338 -0.2018914 0.008062986 0.15888858 -0.34690648 -0.10409451 -0.5232237 0.024135595 0.37701005 -0.42990515 0.5244149 0.1286206 -0.08467687 0.069303 0.023348222 -0.19251202 -0.44677013 -0.24778071 0.10895729 -0.10176676 -0.21811885 0.24792556 0.40972072 0.10246444 0.2485983 0.111213446 0.108369924 0.14023694 -0.34222615 -0.018556919 0.00756098 -0.025973225 0.2909632 -0.21952467 0.08429923 0.05779286 0.25816366 0.30941933 -0.040004175 0.044199146 -0.21878105 0.055608243
24 0.24200742 0.009642505 0.0010760815 0.03206118 0.04745516 0.04187685 0.10166247 -0.10135651 0.29562682 0.18503304 -0.5990598 -0.2945012 0.2389271 -0.08640878 -0.2875003 0.3686658 0.33472252 0.15660946 -0.3470275 -0.17990726 0.13262287 -0.334843 0.20120618 -0.04390088 0.44158098 0.25026324 -0.0886802 0.12826274 0.08571039 0.3480519 0.31876048 -0.32446516 0.10087966 0.14955227 -0.09308099 0.075608425 0.109805666 -0.04883599 0.34418434 0.15763679 0.5111309 -0.08369937 0.054038297 -0.36962724 0.14955999 0.01836205 -0.070839934 0.44191158 -0.22780114 -0.033737097 -0.004437329 -0.13863826 0.3285675 -0.35950345 -0.2679335 0.12035095 -0.026140213 -0.04484004 0.1265735 -0.3254591 0.3704917 0.11512702 0.2856226 0.2475361 -0.2029201 -0.14155711 -0.44785333 0.27371287 0.24043304 0.26546553 0.09783265 0.009446284 -0.12289199 0.0099645145 -0.2791952 0.10000455 0.09413896 -0.14337079 -0.32988316 0.06378606 0.18124728 0.020501297 -0.117520824 -0.25069267 0.043559805 0.07920127 0.2516583 -0.18182793 0.35834157 -0.00914645 -0.004910565 0.18233119 -0.24894832 -0.33985066 0.17391253 -0.023550628 -0.09767911 0.2754034 0.16500355 0.038470153 -0.013809024 -0.10887388 -0.08223712 -0.13905472 -0.015497057 0.40715614 0.067543596 0.31016994 -0.18887947 0.051824536 0.37185228 0.2552071 0.16039318 -0.23351197 0.24411078 -0.11582257 -0.17980732 -0.0238026 0.1662093 -0.1627736 0.022242062 -0.31949592 0.13727795 0.25182524 -0.11761906 -0.015956027 -0.20871256 0.37434885
9 0.2517349 -0.38881034 0.03007929 -0.053563584 -0.4529184 -0.13387734 0.09344356 -0.09593644 0.16058634 0.084918134 0.07411198 0.14568354 0.0227163 -0.3327001 0.1530762 -0.18159132 -0.13290916 -0.005128296 -0.020907689 -0.03182664 0.33199817 -0.056482464 0.09355953 0.11078106 0.1597599 0.13571568 -0.13451675 0.066937886 -0.1678499 -0.06758852 0.12122911 -0.13424782 0.30984756 0.04553496 0.11169747 -0.19213429 -0.14026913 0.097573295 0.19470757 -0.017312625 -0.24793616 -0.29728803 0.5217835 -0.10844555 -0.054400902 0.054998916 0.0003021782 0.13843173 -0.037965335 -0.19324666 -0.038473252 0.053193916 0.025184771 0.09526746 -0.09818957 0.11816834 -0.04102629 -0.07455169 -0.0940855 -0.14159963 0.07376874 -0.00093211344 -0.10928187 -0.12370055 -0.19091028 0.0701425 0.09267121 -0.013763667 0.08336337 -0.26345122 0.020709313 0.34507054 0.04025893 0.1632377 0.0413593 0.0576828 0.3366642 0.1720945 -0.027729545 -0.26670069 -0.028338123 0.29868004 -0.21573316 -0.112147264 0.17240222 -0.008048953 -0.01713384 -0.14300552 -0.05632988 -0.12860803 -0.2513465 -0.107999735 -0.109257534 -0.19659871 0.1807756 0.20375335 0.14211093 -0.20484558 -0.0005859435 0.011517039 -0.41326725 -0.49314886 -0.014096201 -0.12837376 0.11651307 0.12482552 0.15799117 0.38125256 0.24866825 0.0067697796 -0.19809064 0.042808704 0.28044254 -0.13694689 0.39889446 -0.028813185 -0.062205084 -0.034597326 0.09425486 0.10038608 -0.23558895 0.33996403 0.09494159 -0.023775922 -0.2569347 -0.15118228 -0.11402111 -0.095087186
5 0.0020435913 -0.35189426 0.13515367 -0.15074664 0.03495406 0.0939342 0.3871906 -0.27605242 0.06937788 0.21531664 -0.15012228 -0.11589899 0.2616183 -0.060210533 -0.20412767 0.12603852 0.21791708 0.16440018 -0.08690844 -0.17397113 -0.19299378 -0.2439943 -0.30330938 0.16100353 0.1404107 -0.14947703 0.35186994 0.322079 0.21815224 0.05873883 0.027623354 -0.07013111 0.29636902 -0.30640313 -0.08243283 -0.095306784 0.31778282 -0.12891087 0.47646716 0.16264246 -0.05801648 0.059381653 0.13842091 0.01246385 -0.2921726 0.116586834 0.08296098 0.4288598 -0.2462475 -0.07069864 -0.18000634 0.22080226 0.09658057 0.008057131 0.08751745 -0.06898373 0.060479328 0.19502874 -0.0027855858 -0.39394042 -0.075483985 -0.1912718 -0.23084484 -0.248121 -0.2917602 -0.20225342 0.10873288 0.1928568 0.020350533 -0.001880943 -0.20836018 0.12281069 0.3294871 0.42559212 -0.086663984 0.16267014 0.13206065 -0.10814837 0.018616404 0.10773495 0.19406767 0.34997627 -0.17575647 -0.17168067 0.2079729 -0.006207454 -0.12854835 -0.54357654 0.16684933 0.02883868 0.002286196 -0.12023159 0.09282257 0.19273818 -0.007506426 0.10698177 0.07144453 0.13550621 -0.049577136 0.23788352 -0.0022077225 -0.045042586 -0.24140893 0.018678475 0.3349735 0.2377215 0.09957075 0.03282389 0.14408343 0.35065982 0.41361192 0.16223317 -0.016229251 -0.005401104 0.39297986 0.2256478 -0.36623338 -0.038375538 -0.36274529 0.087703206 0.15037622 -0.049224887 0.089368775 0.051260855 -0.5029579 0.25253364 0.1909101 0.07211385
377 -0.279079 -0.0804255 -0.15289569 -0.13816403 -0.11468819 0.18029381 -0.2789858 0.09542232 0.3941324 0.17012072 -0.0028756608 0.015395627 0.0011013057 0.27545762 -0.08907368 -0.09156513 0.061763465 0.2689591 0.17853433 0.1123429 0.19853474 0.12464079 0.06273364 -0.07694347 0.02966243 0.064219296 0.15351768 0.086708695 -0.139554 0.05754932 -0.10486166 -0.0029525913 0.37481347 0.0917903 0.27464598 -0.09300314 0.17530107 0.06539979 0.49286005 -0.11163196 -0.18715113 -0.044768985 0.18214469 0.18321013 -0.087953515 -0.32003573 0.08603651 0.49765158 -0.08626855 0.33502227 -0.05632247 -0.054419417 -0.2051398 0.0922022 0.09535492 -0.10268454 0.100419186 -0.022393199 0.09388252 -0.038355302 -0.2113438 -0.022088597 -0.1322393 -0.2790571 -0.29661787 0.08634569 0.042848986 -0.24963933 0.19863875 -0.17485566 -0.2958969 0.19675414 -0.27518132 -0.050090976 0.16999575 0.47971615 -0.16972308 -0.47327134 -0.0072590304 -0.32641286 -0.1678761 -0.031852826 0.07118183 -0.18594575 0.27895805 0.09086427 0.03359438 -0.37179694 -0.19237618 0.012166684 0.12883867 0.048330687 -0.1271413 -0.05307275 0.12539312 0.05904809 0.2569903 0.1726072 0.31490135 -0.065221325 0.12829699 0.04121423 0.023933573 -0.080157556 0.1987984 0.23378427 0.107370704 0.04786526 0.08974216 -0.0704365 0.1386809 0.07047825 -0.15263548 0.11941271 0.2771964 -0.1452825 -0.009082714 -0.37077442 0.042723812 -0.10637681 -0.056175813 0.09671919 0.018421302 0.23697749 0.22715983 -0.28149122 -0.17103148 -0.07686952
244 -0.042548154 -0.15189773 -0.067260824 -0.050408 -0.2537368 -0.12684333 0.21456675 0.25482592 0.093051456 0.012680188 -0.098381765 -0.13084412 0.32861325 -0.35041824 -0.12753646 0.22792147 -0.13413464 0.18405339 -0.2208813 -0.20898086 0.03352993 0.19465487 0.3305762 0.051615413 0.033016026 -0.0822631 0.25262028 0.06919549 -0.06584165 -0.13171615 -0.17746231 0.14214735 0.0257001 0.014238949 0.14355665 -0.07237267 0.41980988 -0.08662551 0.15853511 -0.090260155 0.12104487 0.16355285 0.17949407 0.10334559 0.21955004 -0.066140264 -0.035193827 0.3532205 0.025076104 0.19132082 -0.19730742 0.03867767 0.1271373 0.12037262 -0.031940687 0.042688176 0.068594664 0.05559122 0.1019346 -0.15083016 -0.18947858 0.2999822 -0.0035740086 -0.3067948 -0.37646282 0.09308349 0.058134347 0.08695075 -0.13035782 -0.30276653 -0.104206145 0.28627405 0.16270559 0.13111222 -0.2344048 -0.105549864 0.2592613 -0.38384613 0.026103156 0.023399753 0.0072812107 -0.09151086 -0.13477321 -0.16795993 0.16638418 -0.2540773 0.036659256 -0.35339674 -0.122253515 -0.13993314 0.07800046 0.09083305 0.06335147 -0.10804751 0.10142058 -0.2801934 0.43074903 0.014624074 -0.07028292 0.1313951 -0.02454253 -0.08918458 0.12515034 -0.24700949 -0.112180114 0.065554306 0.1453634 0.109532185 0.022137703 -0.07475703 -0.07532392 0.18611346 0.018039456 -0.0682068 0.23359041 -0.39689434 0.14113113 0.36723545 0.093973085 0.0376909 0.085982144 0.04385192 0.30687654 -0.11785081 0.015216524 -0.1695311 -0.013475929 -0.10523912
742 -0.10566897 0.2927966 -0.18771413 0.030280912 -0.044796437 0.22448562 -0.040350422 -0.15504874 -0.14666294 0.41643867 -0.22862345 -0.25321135 0.30075252 -0.17979084 -0.059425414 -0.16518603 -0.12188518 0.18110296 -0.007099581 -0.049357586 -0.21975476 -0.43847466 0.16279112 -0.11437206 0.04513441 0.16880547 0.045157995 0.043854993 0.018214004 -0.26687118 -0.32795286 -0.19432019 0.24046549 0.2628124 -0.15485531 -0.055543434 -0.13624673 0.0364329 0.4902411 0.14622864 0.03023835 -0.24782158 -0.014296517 -0.056536373 0.08900169 0.3307568 0.1508993 0.45278603 -0.20051381 -0.03930442 0.25377208 0.09083958 0.31875336 -0.04012437 0.44876024 0.2384545 -0.16689941 -0.15525281 0.14323212 0.21115799 -0.032124616 -0.20175572 0.19439617 0.11842762 0.19592193 -0.08482679 0.10158591 -0.055199448 -0.056240954 0.024596548 0.06077338 0.03408155 -0.11997786 0.15813135 0.13596109 -0.31030518 -0.4032997 -0.19258045 -0.16105115 -0.24651699 -0.086662635 0.09500904 0.0109652355 -0.16916297 -0.123407006 -0.010917358 0.19736417 0.050320983 -0.117561795 -0.08837592 -0.4497477 -0.34736565 -0.29013905 -0.05996965 -0.07733947 -0.07870101 0.4073229 0.3529126 -0.42956144 0.1931131 0.038395796 -0.19086826 0.07705757 -0.1932568 0.1250088 0.05816225 0.17542756 -0.24889898 0.116384596 0.06679486 0.2046472 0.07978569 -0.0457465 -0.0729707 -0.03482511 -0.2531785 -0.22790627 0.1179207 0.039735835 0.040571205 0.100737855 0.17129079 0.03627792 -0.106417105 0.034691647 -0.013247847 -0.07880657 -0.12453519
301 -0.08498066 -0.1824225 -0.06408407 0.01881036 -0.42120665 0.120830506 0.17494537 0.19121006 0.15071245 -0.12977648 0.17452346 -0.2899676 -0.26801237 -0.36141244 0.048974093 -0.25356764 -0.07561988 0.053959228 -0.36169705 0.01649145 0.17170225 -0.0014156346 -0.03589574 0.014073371 0.06466599 0.09078674 0.103933215 0.037037913 -0.23734328 0.26397935 -0.14654295 -0.43615803 0.21116605 0.15846378 0.022742778 0.26513553 0.3570174 -0.14078166 0.12863292 -0.10367813 -0.15998302 0.047453042 0.10989941 -0.04162835 0.16757876 -0.0046290183 -0.031143991 0.2976266 -0.050215732 -0.16176221 -0.20648845 -0.103108555 -0.14043432 0.049185187 -0.16034247 -0.02496893 0.16652335 -0.09531798 -0.07284373 -0.010140996 -0.013853728 0.18857948 -0.0040651336 -0.13479954 -0.31453043 0.15332322 0.23852716 -0.03413046 -0.13843997 0.062462073 0.151457 0.19585752 -0.010187769 0.25362048 -0.14552924 -0.06619246 0.11795438 -0.35521394 -0.08603429 -0.060933113 0.084437326 -0.04906276 0.022111349 0.07913686 0.10126951 -0.105968446 -0.26652798 -0.038897492 -0.06770672 0.19771966 -0.069381654 0.12879449 -0.25078145 -0.18747184 0.57492 0.2710702 -0.027005345 -0.02620307 0.25026438 0.29319423 -0.038382106 0.1406458 -0.1364227 -0.28688508 0.05560059 0.093402036 0.03532036 0.13379695 0.09878061 0.06355546 0.17067073 0.17122968 0.17957692 0.037095867 0.1472873 -0.25061256 0.036455646 -0.06773451 0.020927412 0.03783574 0.16580838 0.2616156 -0.040182047 -0.27076396 -0.09218168 -0.058349457 -0.10921989 0.04568736
37 0.099419914 -0.03447156 -0.13880126 0.16984142 -0.26514748 -0.030505063 0.17244142 -0.22726682 -0.032102667 0.036035553 -0.096133254 -0.19014306 0.09344328 -0.23464459 0.1179803 -0.1539629 0.066294424 0.063785896 -0.110714875 0.039320815 -0.05235964 0.36904243 0.1666168 -0.028230194 -0.089432485 0.11095318 -0.1404107 0.25703546 0.108897164 0.043770336 0.024320288 -0.050334368 0.00077027315 0.2801929 0.12426653 0.25970927 0.13595733 -0.11893158 -0.04590761 -0.14203113 0.20821834 0.34115985 -0.04440289 0.08658114 0.010415874 0.100715205 0.07785786 0.07192209 -0.2719316 0.3705096 -0.3137087 0.13188365 -0.047452565 0.33251315 -0.12540261 -0.12027283 0.13690443 0.26259053 0.0024385303 -0.112699635 -0.036942005 0.042371426 0.2717855 0.017631792 -0.13438356 -0.14952825 0.10004402 -0.2982041 -0.029387794 0.12856594 -0.16193952 0.20456237 0.06300131 0.19013146 -0.022140907 0.09063022 -0.20250429 -0.36015892 0.13927414 0.114579074 0.25273937 -0.27221036 -0.27013585 -0.33726606 0.042071994 0.14280055 -0.16515583 -0.22695988 -0.06547094 0.14369304 -0.308066 -0.20216978 0.04820842 0.21322984 0.07295385 -0.0653693 0.27222046 0.06438491 0.026717875 0.048426542 -0.06780696 -0.09737974 -0.17026667 -0.34031734 -0.1279485 0.085299015 0.049375262 -0.029523721 0.061457243 0.011017033 0.22119871 -0.09951151 -0.05974146 0.022041848 0.20474356 0.039580323 0.026432736 0.000602021 0.09592112 -0.23716405 -0.28156188 -0.02994236 0.008854856 -0.22660781 -0.18616584 -0.020521408 -0.23923986 0.048263155
504 -0.28212622 0.109201096 -0.007875063 0.18193808 -0.47947696 0.02313646 0.18073706 0.042867165 0.0013480481 0.22341333 -0.23287514 -0.11222377 -0.03168976 0.05513955 0.36156058 -0.14761667 0.18652385 -0.28487167 -0.26214477 -0.27447385 0.19834982 0.0940252 -0.247606 0.29964864 0.36902833 0.051232565 0.34805933 0.28235435 0.024149738 -0.12985855 0.12596336 -0.28392592 -0.17137061 0.51096 0.07145945 0.39424914 -0.035261773 0.011709182 0.107341535 -0.17637284 -0.08474678 -0.033866275 0.33821398 -0.14448577 0.014529252 0.09934617 -0.13733748 -0.06842105 0.10186431 -0.09460149 0.11197304 -0.090368494 -0.09048873 0.03409966 0.1670161 0.29061204 -0.18126944 -0.042210814 0.08734234 -0.032023016 -0.12281436 -0.059724126 0.18859999 0.04134329 -0.6185645 0.2064983 0.037636522 -0.16445002 -0.19689272 0.014562412 -0.062983 0.16943485 -0.021612544 -0.23989789 0.31296888 0.06716583 0.07501287 0.011954741 0.16057403 -0.105670474 0.05289815 -0.17400642 -0.2589677 -0.2963687 -0.054636206 0.031047313 0.13454531 -0.092438154 -0.027943473 0.20267181 0.06920354 0.047516428 -0.017869202 0.13504185 0.34561807 0.14306268 0.0030880952 0.07966014 0.13525683 0.4234017 -0.3514775 0.11426327 -0.20614165 -0.15655059 0.17660813 0.09591497 0.052203503 0.07141393 0.25335115 -0.19313948 0.3383211 0.029980985 0.08038147 -0.080079384 0.4095845 0.013451395 0.25828695 -0.058803808 0.024026968 -0.27725768 0.19815847 0.029972598 -0.011971118 -0.19946377 -0.05142789 0.10217746 -0.054316282 0.17993419
463 0.050418124 -0.18168065 -0.08273711 -0.06515683 -0.27990136 0.115703985 0.061839145 0.29193488 -0.075631924 0.084280886 -0.07463789 -0.15683043 0.056423325 0.30016935 0.2252675 -0.10495283 0.015970854 -0.05722476 -0.36088428 0.09806076 0.025127657 0.17329593 0.129675 0.16758879 0.14705434 -0.09544304 -0.12261391 0.14471206 -0.19564603 -0.011233126 -0.18947662 -0.058116272 0.10937978 0.13855076 -0.05793683 0.16360737 0.040697213 -0.05158853 0.015549397 -0.06377262 -0.07479157 0.07382707 -0.118622944 0.2804244 -0.030812947 0.36748388 -0.057261396 0.08850866 -0.03336669 -0.10674484 -0.3010499 0.041778594 -0.2964232 0.023166966 -0.062154893 0.20847274 -0.4234785 -0.0064271847 -0.16592768 -0.060601518 -0.08833937 0.056472067 0.11940061 -0.13694075 -0.11683467 0.112084255 -0.10891396 -0.21755189 -0.09338822 -0.1020231 0.0017941851 0.3855727 0.096958645 0.11813375 -0.024499279 -0.061640486 0.044130575 -0.12456324 -0.21072018 -0.114657685 -0.07597826 -0.08589552 -0.31017613 0.0747489 -0.049284752 0.09966866 0.2937776 -0.010844961 0.09192945 0.14813797 -0.15738651 -0.010157317 -0.4644285 -0.22414441 -0.019859415 -0.25334734 0.27935186 -0.025738182 0.31526086 0.4097068 0.091360874 -0.18555872 -0.07067558 -0.10926124 0.23689583 0.08934148 0.27394164 0.22412302 -0.025570799 0.18846926 0.072765835 0.19903651 -0.11545966 0.09300847 0.5615458 -0.15752368 -0.011529084 -0.08031873 -0.00838032 0.0017721254 -0.0062380573 0.05783564 -0.18458815 -0.1929206 0.011217677 -0.29565778 -0.030540131 -0.27331197
623 0.26289737 0.23679064 -0.28880283 0.17529649 -0.4172771 -0.16848306 0.0160997 -0.16555686 0.023795431 0.026356198 -0.20455806 0.10583652 0.016911184 -0.20051609 0.032578137 -0.44154146 -0.055850033 -0.1773286 0.042251684 0.234679 -0.09338617 -0.27553645 0.023761667 -0.048972443 -0.042275574 0.08039168 0.110323206 -0.22051413 0.04283738 -0.04573786 0.068557985 -0.030367067 0.36804983 0.39866373 0.1090239 -0.054537915 -0.10926751 0.1225313 0.36721504 0.13218012 0.030477922 -0.05233937 0.0688644 -0.15932629 -0.26374736 0.051051605 -0.39089265 0.027854918 -0.19005564 0.11975794 -0.21713455 -0.18825524 -0.012290517 0.15293588 -0.097135626 -0.03827278 -0.3547211 0.03845344 -0.057196278 0.00033514336 -0.09456832 -0.10829356 -0.0052884337 -0.3783232 -0.33609593 0.074756026 0.07029514 0.47363216 0.017476315 -0.41142103 0.20761396 0.030759906 0.15764599 0.056195565 0.15859485 -0.12031951 -0.018760514 -0.040466253 -0.31249923 -0.21971871 0.106208585 0.13408498 -0.5814366 0.29604617 0.13149856 -0.048765548 0.15314302 -0.28935152 0.038051885 0.08776635 -0.10612747 -0.4170154 -0.1881293 -0.15222079 -0.030944092 0.039756104 0.19665803 0.110343404 -0.10821506 -0.21375635 0.030179236 -0.3191486 -0.23006748 0.13070999 -0.033644423 0.38809147 -0.09748734 0.5017486 -0.085376546 0.0063617914 0.1646528 -0.15058002 -0.07759427 0.12048965 0.57310253 0.030520698 0.16683628 0.22151487 0.16506504 -0.063269325 0.35294604 0.07506234 -0.15960567 -0.03420881 0.011527365 -0.23590873 -0.21203572 0.5721742
660 0.33279613 0.47909853 -0.36440822 -0.1511123 -0.056867484 0.1756919 0.18560207 0.06027234 0.11128747 0.16950786 -0.23820697 -0.22833693 0.017314235 0.06689975 -0.1926535 -0.021575194 -0.22076854 -0.25849184 0.34129325 -0.13005835 0.27214384 0.015082556 0.072282866 -0.11166861 0.017915562 0.15995252 0.074481554 -0.02254057 0.26984224 -0.10499234 0.08652727 -0.3822558 0.07393356 0.26073822 0.113487095 0.16676022 -0.034379024 -0.09731286 0.27641642 -0.08942026 0.43822867 0.13308376 0.1466028 0.15702112 0.015550891 0.094031215 -0.2041118 0.37872294 -0.0269251 0.08136985 0.195743 -0.04176854 -0.20826006 0.28507555 0.38123277 0.04227919 -0.06717622 0.41933653 0.2079963 -0.14517955 -0.37222567 -0.38227084 0.20508169 0.0697791 -0.035870433 -0.073860444 -0.24803351 0.041708685 -0.17353672 -0.38533646 -0.020819291 -0.15803301 0.12668364 0.15961415 0.1875714 0.15664569 0.29699546 0.13513833 -0.23175548 -0.26384792 0.19245662 0.11919261 -0.12875271 -0.11311968 0.26390865 0.16647135 -0.045073994 0.07977916 -0.09122531 0.15955842 -0.27045193 0.15018205 -0.32896826 0.3379385 -0.025593983 0.15123935 0.3527371 0.019313565 0.029472103 -0.11210654 0.0066549866 0.10930778 0.094538584 0.12885046 -0.20957617 -0.0357218 -0.05914116 0.38670778 -0.079703435 0.011661615 -0.10469716 0.47212517 0.06510818 -0.2616482 0.14073585 -0.18703169 -0.19694677 0.023662798 0.26996145 -0.118442595 -0.15881959 -0.23526205 -0.1342779 -0.22963823 -0.39003882 0.012533497 0.0701109 0.4125432
620 0.29505864 0.020460874 -0.014276968 -0.14056128 -0.2871766 0.22587182 0.23540264 -0.26488328 0.07857095 0.06995278 -0.12224074 -0.39458632 0.14260173 0.18733287 0.41715428 0.14177985 -0.19024889 -0.11767508 -0.39653292 -0.051865812 0.1794663 0.14639038 0.23855433 -0.16535582 0.17328733 0.10450632 -0.016680501 0.40958455 0.010210117 -0.00044867996 0.2730079 -0.0068533435 -0.2480737 -0.0327114 -0.029903121 0.14259443 0.106848925 0.22083458 0.47765166 0.39215392 0.23147668 -0.14122899 -0.1684975 -0.023997832 -0.11394893 -0.10568369 0.17428944 0.30249855 0.04625718 0.18637913 -0.074124284 -0.12449541 0.09579387 0.041213647 -0.023298636 0.32502648 0.0021815272 -0.10391354 -0.0519542 -0.06807019 0.31214467 0.075389415 -0.26374912 0.002432273 -0.26688638 -0.050623927 -0.22806066 0.061033096 -0.026652122 -0.10741557 0.025111325 0.18244989 -0.015956055 0.16856186 0.20797808 -0.040455066 -0.2605233 -0.31652436 0.14819646 0.104626484 0.25777107 0.022034094 -0.088658735 -0.036368523 -0.025179427 -0.106987424 -0.031942967 0.3067689 0.27213135 -0.15274231 -0.031961374 0.11125327 -0.21696438 -0.039523516 0.15955338 0.1346539 0.22942333 0.19724543 0.31640273 0.17228456 -0.027463343 -0.37636125 -0.21345872 -0.2549623 -0.12711515 -0.24753745 0.20012337 0.20061083 -0.07558555 0.3445061 0.1665344 -0.24199407 -0.3024212 -0.11588493 0.3458746 -0.3760509 -0.19678457 0.033167515 -0.103173144 0.039297212 0.10355839 0.096488655 0.08326724 -0.10005516 -0.28273788 -0.10423206 -0.23168756 0.019456942
13 -0.054919757 -0.26399973 -0.38993874 -0.10782119 -0.55137163 -0.19956492 0.21616957 0.56693894 0.14617461 0.28437743 -0.0141529925 2.239339e-05 -0.46181265 0.25182343 -0.12839036 0.06857713 -0.24941552 -0.39881748 -0.7391244 0.13857 0.07288176 -0.28303984 0.46654758 -0.0056212717 -0.35566786 0.17347692 -0.14933269 0.27766836 0.083186485 -0.4268671 0.30945817 0.13554148 0.32161355 -0.028881362 -0.73525715 0.030202392 -0.08539413 -0.073693655 0.40896454 -0.12421555 0.12185453 0.2960531 -0.25729647 0.31869507 -0.15316208 0.040886164 -0.09485619 0.121934034 -0.31212303 0.059471954 0.083877765 -0.49665642 0.1361113 -0.031594604 -0.621686 0.446533 -0.19211161 0.48983783 0.2499708 -0.2607688 0.1932 -0.49611992 -0.24702749 0.09633753 -0.365056 -0.37397158 -0.094730765 -0.07604101 0.20229185 -0.20372629 -0.06608514 0.4095873 -0.8429037 0.64643353 -0.29965535 0.33893493 0.11523618 -0.7466761 0.32484388 0.44226888 0.30030686 -0.47215804 -0.33162537 -0.5354127 -0.019003967 -0.18718113 -0.72990084 0.08324115 -0.3359448 -0.16728233 -0.69948745 -0.761054 -0.14991504 0.057085622 0.56884027 -0.24514125 -0.44664967 -0.22549404 -0.34013703 0.19034207 -0.28321478 0.073308475 -0.28359863 0.07603764 0.10465513 -0.057597306 -0.3617782 -0.29803517 -0.061236165 -0.1907406 0.23100802 0.15810966 0.5684529 0.11871414 0.43435448 0.3249311 -0.23771328 0.03790427 0.623985 -0.30458653 0.083541885 -0.11049049 0.06487718 0.17896023 0.57371944 0.26944727 -0.4959737 0.044719573
90 -0.07060609 0.17915452 0.1978858 -0.105739355 -0.03557853 0.103465185 -0.07579178 -0.10067007 0.06980087 0.1524769 0.12281555 -0.28126702 0.20543084 0.29755932 -0.015352556 -0.13000688 0.31213623 0.026923563 -0.053375155 0.27493882 -0.1484798 -0.11075886 0.16387019 0.046836477 0.004903418 0.10390116 -0.21533035 0.18206033 -0.14516371 -0.19510323 -0.13069284 0.0018775382 -0.03794079 0.26563606 -0.069788426 0.002106099 -0.1476101 -0.02897324 0.186193 -0.16654226 -0.020290691 0.033826508 -0.30551738 0.3160204 -0.20721433 -0.17026006 0.04744387 0.5452358 0.065866776 -0.3014029 -0.42283955 0.23835377 -0.2040887 0.053455357 -0.22573592 0.27588713 -0.046033576 -0.22142419 0.083975 -0.05425915 -0.10579233 0.2995118 -0.022882301 0.017956091 -0.14582527 -0.2952372 -0.29814374 0.055558298 -0.04683497 -0.06296279 0.38125008 0.287494 0.13971232 -0.09496937 -0.14978744 0.24872358 -0.38021204 -0.07332061 0.27370295 0.02285786 0.32826126 0.12566487 -0.005083299 -0.10749373 0.17353156 -0.017253065 -0.07667797 -0.2934239 -0.0136752175 -0.1715743 -0.10976834 -0.34749132 -0.07099255 -0.048269656 -0.013402195 0.033610504 -0.041818805 0.13849589 -0.076566204 0.60422164 0.10542497 -0.0396754 -0.14908342 -0.20612097 0.39586562 -0.061179344 0.21313894 0.50339085 -0.3025808 0.19550379 -0.16989872 -0.0505909 -0.23448505 -0.15840213 0.21438839 -0.107789375 0.06081177 -0.039443363 0.17089435 -0.15750523 -0.1359188 0.10657002 0.26395306 -0.46489593 -0.31134894 0.17352106 -0.27954507 0.052887235
736 -0.3586543 -0.07698267 0.12923844 -0.19200568 -0.104635365 0.013541269 0.0775703 -0.28300405 -0.12518483 0.08494343 -0.14960863 -0.1357141 0.05770044 0.30978635 -0.19149777 -0.30522692 -0.3146571 -0.2599116 0.17763732 0.114137225 -0.09286581 -0.29590926 -0.08049297 0.17351392 -0.12245099 0.13725878 0.3851359 0.18266582 0.15826768 -0.11208071 0.18272322 0.11241472 0.27558777 0.21797518 0.07203443 -0.20335646 0.20004554 0.090378605 -0.026531795 0.09641753 0.12408962 -0.14572157 0.10384689 -0.22502443 -0.19898167 -0.25398496 0.08390449 0.62516665 0.21420558 -0.029991923 -0.39470112 -0.12046927 -0.027020795 -0.2774911 -0.08772015 0.39219388 0.14256753 0.0017395928 0.58094573 0.19064602 -0.07873266 0.43877527 -0.09769523 -0.083972864 0.074795306 0.11978178 -0.48099062 0.24021335 0.0024732952 0.053829584 -0.027843693 0.33693963 0.011300953 0.033406347 -0.29421344 0.25282758 -0.14713685 -0.6046115 0.17106418 -0.28709558 0.26408005 0.14589256 0.23357686 -0.35208604 -0.29761758 -0.025003236 0.049122676 -0.13119404 0.16524996 0.10039543 -0.4849943 -0.2660482 0.0249877 0.17505008 0.3474605 0.012114779 0.41092724 0.08103259 0.22145858 -0.03666091 0.1957394 -0.06048948 0.034305803 -0.2675253 0.013438313 0.08140792 0.23901713 0.25911048 -0.1192526 0.40356642 -0.06867167 -0.08063245 -0.38757965 -0.59234244 0.21776503 0.03872144 -0.064809844 0.054695103 0.07243362 -0.018018493 0.0055602365 -0.31856626 -0.12142665 -0.40151638 -0.2674038 -0.13387398 -0.26058102 0.30769366
570 -0.06305219 0.14104398 -0.23809174 -0.18402189 0.04412304 0.037353072 0.36117083 -0.26071352 0.22008827 0.4753754 -0.28151146 0.14884974 -0.060217813 0.042729333 -0.20340043 0.161607 0.07161458 0.017506875 0.24768566 -0.18256678 0.06675902 0.0778472 0.39157507 0.30830032 -0.032629553 0.19905311 0.010576023 -0.002616214 0.34720746 0.32637683 -0.051170565 -0.09025372 0.26401046 0.30994666 0.123348266 0.06377946 -0.035497252 -0.094555736 -0.023185369 -0.0039057208 -0.037463795 -0.05605055 0.047120932 -0.013192246 -0.12073976 -0.27820045 -0.007916362 0.49363384 -0.3909878 -0.055028744 0.14731088 -0.50666124 0.10094879 0.11738411 0.19620314 0.059671797 0.09925672 -0.053852454 0.39115503 -0.019002665 -0.1540154 -0.31475377 0.08453871 0.014275184 -0.009562033 0.01374651 -0.03527578 -0.24905959 0.039696977 -0.19453935 0.11001404 0.07734503 -0.078291506 -0.04384806 0.14688718 -0.0687136 0.2642644 -0.15681393 -0.18605286 -0.39572906 0.28313965 0.0665559 -0.23489875 -0.05054385 0.15962204 -0.33938113 0.14182633 -0.15223755 -0.07831651 0.4866149 -0.15503892 0.26721177 -0.31744882 0.22409669 0.46772063 -0.18371098 0.32802972 -0.11308398 0.039779175 0.081987344 0.25727317 -0.07990257 -0.15498067 0.031409457 0.23043112 -0.06467123 0.30786046 -0.27288026 -0.007844336 -0.002011502 -0.21590403 0.09954277 0.17245701 -0.107927434 0.0005893362 -0.13514718 -0.19332865 0.12621194 0.034259543 0.036783844 -0.14541315 0.056094125 0.35822496 -0.15734595 -0.17213179 0.05116439 0.084975995 0.020398324
28 -0.24860771 -0.13543843 -0.032296993 -0.3178168 -0.18874176 -0.011463867 0.06311383 0.06877885 0.30854952 0.22586885 0.11314884 0.038669124 0.15487759 -0.21942967 0.052326687 -0.24017052 0.029690126 -0.023878695 -0.03659225 0.073358074 0.07529729 -0.03366137 -0.07281984 0.12139366 -0.0349177 0.1891121 0.15582226 -0.074810855 0.15068558 0.32935297 -0.08611365 -0.36837032 0.46081346 0.19176885 0.12281752 0.13748154 -0.1563383 -0.11713196 0.26883644 0.12040517 -0.34773153 -0.062601216 -0.099978805 0.2843532 -0.01667282 0.30971745 0.0718235 0.0030655419 -0.27335846 -0.20725067 0.021933837 -0.091037214 -0.110480204 -0.07260954 0.08086161 0.23656695 0.04619137 0.18791312 0.09372957 -0.14208977 -0.19613308 0.276306 0.17715515 -0.21133874 -0.13729592 0.15133573 0.16661546 -0.2502583 0.08128108 -0.023109652 -0.1427185 0.26158413 -0.14441612 -0.13320763 0.15312071 0.055686127 -0.29304326 -0.17909113 0.0065204576 -0.10123228 -0.060475107 0.10710137 -0.33419672 -0.08635021 0.1620064 -0.09549384 0.08286957 0.018026289 -0.20752199 -0.19954768 -0.039230503 -0.15678503 -0.056886517 0.21224576 0.1544391 0.29202902 0.31022745 -0.012244701 0.24754469 0.22845109 -0.5015784 -0.15726264 -0.22868173 -0.14834748 -0.04519818 0.3600777 0.02588707 0.1280061 -0.008832553 -0.17652193 0.08177274 0.12259839 0.22004527 0.093505934 0.3602935 -0.10634795 0.21501863 -0.22547665 -0.22612065 -0.090194926 0.04992573 -0.2370011 0.11327107 0.01882002 -0.19657658 -0.2576941 -0.25232884 -0.3446767
411 0.28751588 0.087495595 0.18126754 -0.27205122 -0.09575468 0.031046635 0.34924504 -0.006470156 -0.056283362 0.37702852 -0.2222415 -0.27154347 0.119899064 0.33491424 -0.16469851 0.14770932 0.10382639 -0.03310289 -0.28699446 -0.052872263 0.23886806 -0.20918132 -0.14803573 0.2087108 -0.03491246 0.053583026 0.056262303 0.41479307 -0.097194605 0.3269999 0.4473268 -0.29923207 -0.17851101 0.27906486 -0.22108385 -0.2707462 -0.022471465 0.3949502 0.2569242 0.11195448 0.5240533 -0.07935393 0.111298956 -0.2486409 -0.014708367 0.24445815 0.14498988 0.69346356 -0.051508907 -0.045848716 -0.16223615 -0.21879494 0.10590095 -0.007961424 -0.25887352 -0.1504156 -0.27328518 -0.024606423 -0.020477232 -0.1546866 -0.1349976 0.067344844 -0.21382244 -0.16149226 -0.5019582 0.31670558 -0.522171 0.26529825 0.21651949 0.15461802 -0.28784883 0.09599214 -0.14979135 0.07301582 -0.21170905 -0.16486827 -0.1095629 -0.03579187 0.25646958 -0.18460986 0.24002182 0.24181996 -0.01499756 -0.09547757 0.122786395 0.21199091 0.13358405 -0.22714439 0.22732475 0.07455045 -0.45834628 -0.08444705 -0.17601977 0.2445882 -0.398424 0.105528645 -0.015033725 0.27923694 -0.40242523 -0.1435211 -0.2035883 0.04922402 -0.16470177 -0.09982017 -0.2708418 -0.010447251 0.11650802 0.052592933 0.23549326 0.043829896 0.3262341 0.13792689 -0.042276308 -0.0013400854 0.03903728 -0.21011765 -0.08259506 0.1106505 0.2940188 -0.09065292 0.31850386 -0.15173699 0.235653 0.16111597 -0.3589886 0.07453144 -0.12187341 0.19305801
104 0.096487716 -0.0023531232 -0.007912251 -0.026009122 -0.33311063 0.12374581 -0.047397815 0.08345553 0.08241219 0.16664556 0.22212227 -0.2310926 -0.11728854 -0.054343928 0.06681923 -0.35747164 0.07798403 0.17396304 0.1647713 -0.019045742 0.27884546 0.23626488 0.39239788 0.17457406 -0.017800715 0.071048975 0.12425024 0.2885162 -0.19287705 0.094056316 -0.20503038 0.22651322 0.17262939 0.078362994 0.15367572 -0.08357552 0.26470146 -0.0105450675 0.3014343 -0.0019267899 0.17505904 0.0062419777 0.23056683 0.16856523 0.1898711 -0.10718499 0.24911319 0.12173471 0.11006189 -0.25238988 -0.1935622 0.34480938 -0.012833237 -0.013768991 -0.46047315 0.337771 -0.15664633 -0.22568285 0.037505522 -0.26452857 -0.04917823 0.22273259 -0.06721738 -0.3006716 -0.20228 0.14485334 0.013569312 -0.34446016 -0.051377326 0.06528371 -0.12980756 0.013442029 -0.09886788 0.13977106 0.0138808405 0.07113393 0.098698504 -0.04470639 -0.13040806 -0.19508938 -0.16113825 -0.067053 -0.13671985 -0.44087052 0.32774192 -0.26123378 -0.08392985 -0.07077039 0.32216355 0.027969958 -0.04655173 -0.0019991272 -0.19530843 -0.0649573 0.15828604 0.29285926 0.078913465 0.19670406 -0.32537225 0.16718714 -0.2147778 -0.36361027 0.04285688 -0.18112154 0.008032605 -0.12648861 0.058946595 0.12831749 -0.102734074 0.12830977 0.29568154 -0.09566571 0.050532296 0.06844375 0.25126657 -0.19034603 -0.020786574 0.08642815 0.028367866 -0.12481803 -0.038977496 0.17716672 -0.20430955 0.020206457 -0.14437369 0.026022185 -0.02895338 0.038160663
250 0.05625104 -0.75994045 -0.3128089 0.2715727 -0.14932157 -0.023837507 -0.040022098 -0.00080174825 0.10547707 -0.0035961755 0.014436389 0.03150861 -0.1884376 -0.057177495 -0.00077093305 -0.1485688 -0.043431424 -0.014244834 0.08105664 -0.09411273 0.25298908 0.29161605 0.18508393 0.06477541 0.18280339 0.23433068 0.14638738 0.17333376 -0.19013047 0.14748 -0.06541237 -0.119992994 0.036607485 0.21861432 -0.15796417 0.2717386 0.07483544 -0.05734542 0.21771556 -0.28728372 0.12076826 0.05626799 0.173904 -0.12522374 0.05388901 0.1301125 -0.12215403 0.2952652 -0.13102888 -0.1202841 -0.50786555 -0.098724954 0.015799742 0.078438 -0.10587257 0.057267167 0.1262747 -0.21069068 -0.098940894 0.20225266 -0.06085214 0.012931433 0.12463899 -0.5388092 -0.3100266 -0.07958702 -0.10568754 -0.07292356 -0.24251127 -0.4668657 -0.055560738 0.17108828 -0.08572715 0.14709114 0.075973146 -0.17042765 0.17349383 -0.14971562 -0.29485807 -0.2481107 0.13524914 -0.10201661 -0.035085183 0.09381087 0.3093865 -0.14540349 0.17272137 -0.012549119 -0.038766462 0.030909657 0.17244746 -0.065914825 -0.13677464 0.08743664 -0.070781805 0.10981319 0.13225645 -0.19797666 0.23578918 0.2529773 -0.10280452 0.0071710036 -0.07003719 -0.107190914 0.2755899 0.051062647 -0.109436676 0.023155596 -0.2968856 0.012069557 0.2929564 0.15318607 0.024951058 -0.29925448 0.23887843 -0.06305138 -0.0153960725 -0.13893765 0.01060289 -0.021235859 0.19058321 -0.13869694 0.23268536 -0.060314875 0.19542281 0.06866257 -0.45944917 -0.07180615
35 0.19818538 0.24531104 -0.09506296 -0.06581821 0.051254123 0.07825 -0.039974928 -0.04004202 0.1619276 -0.22810538 0.07593806 0.1673582 -0.07626534 -0.04365498 0.37185186 0.12219678 -0.31159583 -0.2239278 -0.20782995 -0.41367573 0.38149723 -0.5660478 -0.21645178 0.18575166 0.30018505 0.52151334 -0.54447645 -0.3819097 -0.03030518 0.080389574 -0.0981182 0.24049525 0.2015749 0.40402007 -0.22103031 0.33461878 -0.20527864 -0.22607137 0.03773496 0.008712357 -0.33952096 0.24249151 0.18881518 -0.22149463 -0.65394026 -0.079800576 -0.04629491 0.12752546 0.05079799 0.18263188 -0.14583878 -0.12252473 -0.34730348 0.010312366 0.030497259 0.3600676 -0.041817557 0.15746616 0.121351734 -0.34985748 0.04376874 -0.040730115 0.05115856 -0.227601 0.2045821 0.03429968 0.020769801 0.07132624 -0.6900533 -0.35869858 0.2143433 0.08211974 0.11201937 0.35457063 -0.15493694 0.66977274 -0.0104903 -0.3089231 0.17701957 0.15478086 -0.25484324 -0.11002638 0.048671637 0.020634493 0.3412222 0.14809921 0.18803254 -0.25991508 -0.08700039 0.28670338 -0.23159395 -0.25370666 -0.22102131 -0.41550583 0.22021393 -0.5022144 0.4524984 0.40198553 -0.15063766 -0.02907921 -0.08508326 -0.3157497 -0.5570043 -0.31735396 -0.008588257 -0.48232523 -0.31104022 -0.20661755 -0.20115143 0.5499956 0.31279406 0.34521064 -0.04322886 -0.28563234 -0.37658384 0.014540969 0.1702885 0.17906155 0.24841636 -0.13018928 -0.15699938 0.07248395 0.4363624 0.8151035 0.029966066 0.4365435 0.21325949 0.17691043
163 -0.29732114 0.24386989 -0.004867317 -0.32001758 0.022795731 0.14672074 -0.012468492 -0.16466363 0.04025792 0.35668203 -0.19413504 0.31871065 0.3252917 0.0136855235 0.3028084 -0.026553564 -0.23059964 0.19998378 -0.07598548 0.37520292 -0.07432448 -0.0064816354 -0.092725486 -0.23859215 0.19306089 0.101526596 0.25849926 -0.04928266 -0.14971296 0.08394138 0.1818202 -0.20237169 0.14975391 0.16792357 0.068302885 -0.009678568 0.050058857 0.00539419 0.17813429 -0.30965814 -0.072215416 -0.11004436 0.24341425 0.3319026 0.07922699 0.52055866 0.40598097 0.08336964 0.057441313 0.21811906 -0.27662072 0.07381354 -0.18749219 0.11549465 -0.30416265 0.18300843 -0.1891001 -0.043741062 -0.11777308 -0.045967806 -0.096310765 0.14831133 0.31509927 -0.10639711 -0.018988518 0.035885863 0.0039811465 -0.31713772 0.2886852 -0.21285202 -0.20334157 0.14629103 -0.021713914 -0.1883222 0.11258163 0.2554417 -0.029656488 -0.0018207923 0.079488344 0.06948555 0.2856454 -0.3326816 0.09000395 -0.036560334 0.054808855 -0.14083365 0.082994446 -0.01289259 0.18133253 0.12971699 -0.49167064 -0.12410682 -0.28620446 -0.13007179 -0.06168783 0.08278344 0.31479254 -0.18567768 -0.008637346 0.14706312 -0.41032434 -0.1970092 -0.14786077 -0.2828322 0.13452524 0.1475878 0.2987225 0.22290257 -0.1670473 -0.00032321957 0.11199918 0.042039085 0.09147318 0.108897336 0.053937748 -0.054227855 -0.09737868 -0.040063273 -0.08630678 0.038076315 -0.2111111 0.18813345 0.068390235 -0.021867046 -0.10774805 -0.23829955 0.008681526 0.10329025
54 -0.17925948 -0.17826244 -0.24620907 -0.28876615 -0.069119215 -0.12725033 0.5598989 0.15385514 0.3430369 0.02268664 -0.2784897 -0.024015201 -0.14197618 0.15625623 0.08288134 -0.15085533 -0.03919974 0.16654797 -0.29402366 0.27227452 0.16457559 0.052212033 0.30675703 0.49924594 -0.45668048 0.14421508 0.29904124 0.22619805 -0.31552252 -0.2223259 -0.35157084 0.23864958 0.3671368 0.0458092 -0.8014475 0.018657425 -0.058785327 -0.06312722 0.5386877 -0.07060334 0.4524116 -0.23321357 0.057255268 0.15954004 -0.27767843 -0.26406437 0.02078234 0.27500746 0.016050728 -0.09268791 0.07627489 -0.5868189 0.16602024 -0.19846182 -0.07330463 0.15529953 -0.040067285 0.54576814 0.052728467 -0.33311972 0.038346034 -0.3885408 0.49493155 0.43260166 0.09608541 -0.0072879996 0.06441916 0.061853476 0.5609744 -0.2397692 0.19751205 0.25943115 -0.15639068 0.70368963 0.07255026 0.14694911 0.04603769 -0.045998562 0.27592275 0.34309357 0.07863397 -0.44384548 0.257635 0.11516963 -0.12876724 -0.09878347 -0.731275 -0.5846876 0.43098292 0.022490578 -0.15432347 -0.32414567 -0.06818535 0.018426595 0.6393454 0.1044031 -0.061745528 -0.17897794 -0.12343794 0.04129347 -0.26798478 0.024170948 -0.12721701 0.014890563 0.090007894 -0.3581776 -0.21202303 -0.029299552 0.30512965 -0.31739616 0.28136274 -0.1692598 0.078222185 -0.35141942 0.33830887 -0.29233062 -0.2510757 -0.15877484 0.38271502 0.17758258 0.17758824 -0.13414203 0.0551157 0.44848 0.24485438 0.63281864 -0.39496672 0.17986083
596 -0.07668046 -0.06562293 -0.03495252 -0.38274604 -0.20252559 0.11202834 0.059805565 -0.08844767 -0.06833494 0.06741603 -0.10386746 -0.1711312 0.3240554 0.19099191 0.20283201 0.12002792 0.279732 0.080368325 0.1450828 0.1037386 -0.05625922 -0.10832961 -0.095623076 0.5163881 0.030438878 0.16114795 0.35289156 0.3356428 -0.2862953 0.06978714 -0.38499072 -0.011064937 0.17581236 -0.2438108 -0.04164746 -0.31372035 -0.0014757032 0.019061895 0.38831878 -0.2536604 0.2522677 -0.27837768 0.03939769 0.52430075 -0.019058157 0.046196774 0.15120924 0.13738152 -0.19209132 -0.09511934 0.024568101 -0.45038456 0.14555697 -0.17977947 0.39405638 0.03518794 0.2035731 0.028437711 0.3875873 -0.113697916 -0.33586243 -0.11513202 0.38434982 0.008564036 0.113287345 -0.21122183 0.22343543 0.078149505 0.40265653 -0.3443599 0.07931619 0.28649318 -0.035472274 0.23504192 0.24598658 0.13938105 0.04387217 -0.010375307 -0.17828052 0.26560128 -0.3516468 -0.078279644 0.12060865 -0.01598679 0.11333287 0.17042454 -0.3570211 -0.37477568 -0.12354879 -0.04767178 -0.06297762 0.2964212 0.13062246 0.38448143 0.5012448 0.16650572 0.29611567 -0.21978942 -0.21417661 0.0090539595 0.21598989 0.18472572 -0.12619393 -0.12923801 0.07842649 -0.19451508 -0.012136174 0.03397559 -0.123267554 0.20007731 0.27509826 0.12418894 -0.1699452 -0.13039821 0.7513627 0.3337769 -0.08298885 0.031422783 -0.02882956 -0.07603269 0.4245435 -0.21993826 0.2162575 0.10033878 -0.34401447 0.500598 -0.33499599 0.35699025
22 0.20150104 -0.15810372 -0.19315685 0.016308635 -0.33532932 -0.048992738 0.53538173 0.02521719 0.4624884 0.37623996 -0.1540528 0.003559222 0.026215833 -0.23578036 0.093709745 0.107540816 0.17945963 0.40594968 -0.02409168 -0.17482762 -0.12755178 0.039830178 -0.09015183 0.21069214 -0.11238966 -0.09165122 -0.01741914 -0.19720966 -0.052252166 0.30099463 -0.0374561 -0.14554106 -0.044160757 -0.1503602 -0.21382457 -0.050535988 0.3269787 -0.06607533 0.06173291 -0.0805615 0.016692441 0.05216879 0.107289776 -0.3029511 0.48085907 0.19922398 -0.18310559 0.21437082 -0.11774188 -0.013455862 -0.31633067 -0.11220915 0.13109936 0.18005401 -0.22785378 -0.11100384 -0.22606693 0.12704045 0.6180506 0.17154339 -0.037079997 -0.20962799 -0.13406874 -0.2296295 -0.20894472 -0.19635199 0.1428151 -0.5735815 -0.07372703 -0.05719321 -0.05606956 0.15060672 0.23999938 -0.05502497 0.2432413 -0.17983674 -0.074433655 -0.4176492 -0.030339396 -0.13907777 0.3578798 0.119683616 -0.49413073 -0.15569912 0.1253899 -0.13335517 -0.10596502 -0.54232335 0.08430365 -0.13221532 -0.30821636 0.061229955 -0.30455446 -0.3229088 0.28348774 -0.13381703 0.26809227 -0.19081657 0.5141597 0.32388556 0.101657055 -0.042906713 0.098125145 -0.071021415 -0.3003149 0.06164401 -0.06255722 0.020522507 -0.19767162 0.07970777 0.06107664 0.0821469 0.23539455 0.060722467 0.16324396 -0.09394708 -0.030078523 0.2227256 0.25417197 0.15960263 -0.2940423 0.15303142 0.46584922 -0.12198072 0.12651725 -0.1735754 -0.14390235 -0.01778646
39 -0.19905402 -0.5267317 -0.1567706 0.002633832 -0.3433291 0.19698884 0.06150487 0.043982632 0.27505124 0.29207173 -0.028556203 -0.075554825 0.1564534 -0.07041551 0.08580398 -0.5023794 0.1064836 0.11423773 -0.2142431 -0.16782863 0.4637706 -0.07056902 0.24296956 -0.08629343 -0.2587866 0.29354927 -0.094265126 0.29321995 -0.19155468 0.18120538 0.08614465 -0.16232124 -0.084175825 0.19784817 -0.28196606 -0.01914595 0.039037924 -0.23451278 0.11550597 -0.124408565 -0.24212834 0.26092225 0.17878056 -0.07188174 -0.0086018415 0.2651653 -0.179015 0.035613682 -0.29928902 -0.1096986 -0.21887295 0.15299904 0.017497094 0.21738736 -0.066990554 0.05587359 0.18294705 -0.20985839 0.0936462 0.04256183 -0.09880039 0.20827769 0.22323984 -0.33271766 -0.22841676 -0.18052594 -0.17900474 -0.034084503 -0.069908835 -0.0960125 0.04929931 0.1726404 -0.30396816 0.16256942 0.08046387 0.2648528 0.13143978 0.03848932 -0.19524416 0.27484393 0.31531054 -0.029839776 -0.18885964 -0.024590194 0.011953521 -0.08465531 -0.15051837 0.060506456 -0.14529672 0.25377244 0.22634195 -0.16276962 -0.46153632 0.22815825 0.23207198 0.31714538 -0.26016653 0.034055114 0.056490704 0.2176574 -0.17812893 -0.055177655 0.0065020355 -0.1621883 0.2041832 -0.25501153 -0.056164574 0.23875687 0.16227745 -0.2549205 0.29794398 0.2987433 0.26498973 0.03565946 0.27773273 0.05584626 0.1533114 -0.052622244 0.30997404 -0.085107446 0.27608836 0.2680836 0.04950242 -0.45724884 -0.016300768 0.34188044 -0.08636372 -0.118853845
585 -0.066635124 0.0140665 -0.15562017 -0.06840695 -0.3505517 0.06604966 -0.081707835 0.26994634 -0.021698454 0.0681236 0.20121346 -0.18110323 0.2538437 0.06446448 -0.265814 -0.26982746 -0.16642877 0.21703292 0.3775933 -0.0066306456 0.07540295 0.19800292 -0.49857813 0.30933124 -0.11442728 -0.06633933 0.17429295 -0.0020570308 -0.031245751 0.05124927 -0.359677 -0.27208903 0.26616406 0.2022163 0.1120213 0.0023837686 0.109873146 0.30465713 0.39147794 -0.060236663 -0.06687964 -0.32285562 -0.09344557 0.32759252 -0.026826076 -0.20318244 0.104289636 0.1061927 -0.034575783 0.27283552 -0.025095087 -0.09640735 -0.03831701 0.0004933338 -0.08643722 0.12953837 -0.05106799 0.101339854 -0.08139293 -0.25694346 -0.05079126 0.14627217 0.146643 -0.19558592 -0.12285778 0.3374707 0.06300874 -0.20440017 0.16187492 0.13820645 0.08833048 0.13188738 -0.17228568 0.16012003 0.23244469 0.39802793 0.18232068 -0.081592016 -0.03975583 -0.062696286 0.059807662 0.23807526 0.09380061 -0.22464573 0.29189852 -0.3485494 -0.090199135 -0.29119182 -0.1223462 0.033165846 0.12596904 0.117813274 -0.5063666 0.33881208 0.30297342 0.34362462 0.21736778 -0.121931404 -0.18656673 0.043313973 -0.2928473 -0.26154906 -0.43150705 -0.18437202 -0.18079282 0.097142294 -0.0010333908 0.080800936 -0.47615743 0.071997836 0.40139896 -0.10052378 0.38894007 0.11289173 0.34545973 -0.1544525 -0.05556295 -0.052186634 0.15476988 -0.044183772 -0.044430893 -0.57807666 0.13654737 -0.1296871 -0.15485623 0.006823324 0.24778521 -0.037077542
679 -0.20246048 -0.008240288 -0.32724082 0.019243443 -0.51211894 0.11163778 0.22334626 0.03244498 0.03101127 0.47243983 -0.16816486 -0.07835589 0.18066481 0.06287517 -0.20479052 -0.22175495 0.44153014 -0.13186713 -0.27769312 -0.04368431 0.27756 0.15244423 -0.15303592 0.3154994 -0.31168467 0.24390444 0.0124689955 -0.21972045 -0.13151182 -0.2911205 0.07947997 -0.23313823 -0.31699565 -0.05770984 -0.26448146 -0.10589757 0.19878894 -0.17385826 0.3370999 -0.11796941 0.14013487 -0.11821048 0.17469402 -0.1943286 0.17779662 -0.44386083 0.05611513 0.3261471 -0.08847653 0.37744546 -0.042141117 -0.017497234 -0.07587109 0.22208217 -0.26199588 0.14332871 -0.25759187 -0.15081999 0.27162907 -0.025652433 0.23503388 0.031817444 -0.1207382 -0.39185026 -0.21326832 -0.3620636 -0.06692678 0.30277774 -0.36948916 0.16794518 -0.1824605 0.52364737 0.21610712 -0.040619742 0.29178864 -0.30946338 -0.077564515 0.12070097 -0.34941593 -0.17726637 0.29559782 0.3451017 -0.14689538 0.3567624 -0.30170435 -0.44666767 -0.22843221 -0.23100153 0.095888525 -0.07875002 -0.18162224 -0.024060925 0.012879802 -0.33817005 0.26429778 -0.00406781 0.6956303 -0.017530128 -0.052511137 -0.4287565 -0.3272754 -0.110586844 0.008787024 0.058998894 -0.080906846 -0.038636446 -0.16995159 0.10783114 -0.23281756 0.30423054 0.19020943 -0.05732287 0.104875684 0.19197051 0.19248627 -0.3861138 0.1571849 -0.33446497 0.10203894 0.3235615 -0.04509669 -0.14913766 0.23631454 0.031309307 -0.03720146 -0.028296802 -0.15466967 0.072513826
141 -0.060564738 0.0963508 -0.29232076 -0.07071056 -0.080353126 0.14631696 -0.007968828 -0.1263889 0.41053206 0.00027793422 0.27604398 -0.050623644 0.013283974 -0.03457559 -0.05715809 -0.1533941 -0.06334372 0.047337472 -0.22459994 -0.3458701 0.20095979 0.30746207 -0.24990301 0.4005615 -0.06471277 0.16925624 -0.05136111 0.13367431 0.18125695 0.034076337 -0.1430353 0.078053445 0.14802803 0.015572033 -0.08926956 0.099063404 0.1695703 0.055081565 0.21108118 -0.036208127 0.050248764 -0.5374264 -0.24497354 0.17384799 0.11143771 -0.40407735 0.1915142 0.2087181 0.12605101 0.12498757 0.22469708 -0.22203052 0.00966789 -0.050850246 -0.18070823 -0.04836557 -0.120540775 -0.16131143 0.14583895 -0.31753942 0.21050797 0.012926651 0.07699611 -0.19659337 -0.04370271 0.21433003 0.18164364 0.31750295 0.06760622 0.22902751 0.061778933 0.51738083 0.3212327 0.35239345 0.10765941 0.07520859 0.01578373 0.14250447 -0.11488143 -0.099310696 0.1637767 -0.3175309 0.08450031 0.42660582 -0.07438711 -0.25121394 -0.11218286 -0.50020105 0.02581444 -0.25093496 -0.3432145 -0.19966489 -0.5197786 -0.14086373 0.13939008 0.12545398 0.28309867 0.28848508 0.02547504 -0.105181016 0.015223673 -0.060876336 0.039328124 -0.08730491 -0.18613277 0.05920224 -0.45788234 0.197867 -0.114973314 -0.2602657 0.16280702 0.34635577 0.28268415 -0.115149766 0.23066182 -0.32454106 -0.09829938 -0.26852745 0.02530509 -0.12736328 0.18182081 0.18107326 -0.19760197 -0.09746681 -0.18937543 -0.27750817 0.09112523 0.04472928
255 0.17350937 0.002188575 0.37402022 -0.048414253 0.056932833 0.12556404 0.5194412 0.14199921 0.21733522 0.049062874 -0.41951153 0.1306859 0.307171 0.013271171 0.051509414 -0.2351053 0.07037554 0.004917508 -0.2533324 -0.5372948 -0.48704687 0.17986262 0.42529193 0.12294248 0.02573169 -0.3060946 0.01987849 0.12306205 0.3968584 0.14373943 -0.020647187 -0.17834052 -0.07845727 -0.11376764 -0.16029514 -0.09995145 0.45334613 0.18944821 0.009362687 -0.25524673 -0.039657146 0.022433568 0.03352306 -0.040710747 0.49985048 0.1828086 -0.26457226 0.26628038 -0.30744314 0.3280378 -0.35908383 0.1679129 0.21781136 -0.14017124 0.07109013 0.18217874 -0.5700053 0.11166289 -0.038927168 -0.62558293 -0.14413528 0.5845089 0.16760463 0.07915216 -0.16250527 0.04607695 -0.06721676 0.5156087 -0.111547835 -0.38054845 -0.24820927 0.26781535 0.14501333 -0.3258578 0.37382987 0.01040358 -0.09679095 -0.15754017 0.056626827 -0.21365581 0.13464275 -0.076709494 0.093827836 -0.39208543 0.44610265 0.0010676244 -0.12338577 -0.4911987 -0.25200456 -0.059489544 -0.22980607 0.24337812 0.15967749 -0.29108256 0.23787099 -0.15170112 0.26355165 -0.08461473 -0.3549644 0.03522044 -0.14723335 -0.52970004 0.17742471 -0.2698997 -0.049508736 0.30686817 0.3258881 -0.060421452 0.04535647 0.048741966 0.24003324 0.18913063 0.34541592 -0.3387036 0.15952735 -0.3747719 0.041348062 -0.0945891 0.1871472 -0.027186446 0.11658205 0.18795797 0.06833142 -0.07350848 0.078433625 -0.029406128 -0.2882551 -0.110458545
95 0.28295186 0.23185706 -0.1357144 0.16645707 -0.4997732 0.15510574 0.08046824 -0.09103088 0.12686731 0.38253805 -0.17450522 0.28697902 0.14224227 0.22128053 -0.05973921 -0.04485443 0.14110179 -0.34254333 0.21042916 -0.13506651 0.13068113 0.17610458 -0.42302698 0.31487697 0.27985933 -0.023275806 0.48331043 0.09883814 0.036647018 -0.03448966 -0.20618947 -0.29130432 0.009756893 0.06346173 -0.015463032 -0.03981659 0.12981439 -0.21485358 0.303553 -0.10075708 0.11788615 0.20521691 0.11657902 0.078087576 -0.08101849 -0.10738296 0.08834553 0.18027122 0.15471962 0.2533738 -0.13612148 -0.3046687 -0.17721532 0.041150253 0.53215045 0.27386063 0.03208002 -0.03442096 0.3572615 -0.14665443 -0.23781359 -0.2622977 0.31051606 0.17474295 -0.37098345 0.0015346804 0.003410744 -0.3272445 0.17540461 -0.06883868 0.17983678 0.25127056 -0.20375551 0.28671706 0.10660742 0.16406618 0.3103954 -0.09285386 -0.043305643 0.15290298 -0.12402667 0.01703998 -0.14928484 0.14281254 0.34266847 0.19790815 -0.15420644 0.100439616 -0.04732437 0.33051673 0.1006013 0.3326825 -0.11205383 0.64844847 0.19350807 -0.34300902 0.23568656 -0.2157743 -0.04109376 0.06621641 -0.12856272 -0.052471362 0.010626547 -0.22596917 -0.0044370387 0.38111869 0.2259075 -0.20428559 -0.28613624 -0.27202252 -0.05471631 0.15451917 -0.08933626 0.1478822 0.30737484 0.05444787 -0.34230623 0.1678466 0.0012450679 -0.111362934 0.29896265 -0.13873492 0.22617353 -0.20137104 -0.33462083 0.22913656 0.015552534 0.23164673
152 0.30833417 -0.36597103 -0.41562033 -0.32661748 0.15242784 0.31580296 -0.20996082 -0.06026082 0.37623072 -0.0038411967 -0.110504225 0.5730717 -0.20944594 0.14872484 -0.3909122 0.0044473517 0.3885519 -0.020501608 -0.43224636 0.09446063 0.13324802 0.080187805 -0.095501 -0.08440978 0.21104884 -0.10436932 -0.35491073 0.35496068 0.24882953 0.050189804 0.21719481 0.054486215 0.49279058 0.43745455 -0.0005663532 -0.5652455 0.29501447 0.47100037 -0.11806041 0.3247305 0.32558313 -0.11301902 0.3017633 0.057549134 -0.013771332 0.46085548 -0.013501174 0.22425248 0.35137033 0.22858928 -0.16685441 0.15313797 0.14581314 -0.33929715 0.059636608 0.26561138 0.068455264 -0.1711308 0.2804558 0.21080773 -0.028887533 0.029785546 0.49943817 0.18915905 -0.5463216 -0.2050844 -0.21627863 -0.3531051 0.11416733 -0.43325776 0.4385062 0.60214764 0.5697711 0.06495473 0.46909082 0.37024015 0.68439853 -0.4881286 0.2980712 -0.08339765 -0.13247438 -0.015909057 -0.24392869 0.16177762 -0.33915666 -0.14627437 0.21355619 -0.06701053 -0.061391387 -0.05255368 0.052818436 -0.19257613 -0.19506629 0.004158306 0.6790256 0.04768568 0.014854213 0.074235685 0.026223855 -0.057265636 -0.22760123 0.03724835 0.21628426 -0.7667578 0.49866894 0.41952065 -0.13114746 0.16737454 0.351078 0.39352936 0.45840842 0.29082686 0.16058926 -0.07661204 -0.13461745 -0.34264326 -0.033027474 0.028844241 -0.1753471 -0.019078169 -0.34169424 -0.043240596 -0.15023561 -0.12388099 -0.12101422 -0.3214676 -0.20120002 0.40772322
100 -0.102761924 -0.29972732 -0.07265275 -0.03380169 -0.1886319 0.22104655 0.15687193 -0.30248976 -0.08762801 0.25258228 0.061092135 -0.14323828 0.041286044 -0.22596751 0.38453048 -0.2189439 -0.15641004 -0.09332855 -0.026854005 0.108521275 0.552701 0.25255328 0.15150565 0.11845906 0.060250584 0.27293575 -0.26463616 0.011409201 -0.34343645 0.08210496 -0.08432712 -0.06311744 0.030253006 -0.01493189 0.040528845 0.02855682 0.34177285 -0.047573067 0.037778612 -0.17042162 -0.221096 -0.15082349 -0.06504548 0.08545041 0.27266926 0.13172464 -0.058400646 0.23636042 0.28980047 0.14714816 -0.37743816 0.26965973 0.14918181 -0.17992115 -0.32818228 0.30554274 -0.16783139 0.06992387 -0.07478176 -0.076212645 0.09686042 -0.23072362 -0.03846667 -0.2821534 -0.0065043126 -0.102720186 -0.10431752 -0.09170454 -0.026353348 -0.201347 0.024156664 0.31058875 0.06997394 0.33979407 0.087263145 -0.06397416 0.14567101 -0.025989655 0.06253502 0.016368527 0.122694544 0.05257735 -0.08335557 -0.07517051 0.29244226 0.22219142 0.038106482 0.1252856 0.031094298 -0.17419985 -0.02469061 0.053853687 -0.38616306 -0.19769667 0.036204614 0.1937165 0.11042522 0.03915452 -0.012295587 0.30028924 -0.2189751 -0.20395629 -0.20236932 -0.24786279 0.0037128672 -0.068566926 -0.13510977 0.005158428 -0.02517081 -0.026221659 0.050298993 0.059551865 0.014795043 -0.062335745 0.5727623 -0.16673759 -0.06820093 0.10357976 0.23795784 0.22621644 -0.2010301 0.50811535 0.0750045 -0.26319528 -0.15557837 -0.26292187 -0.25194636 0.140725
132 0.08531627 -0.0036762003 0.038394306 0.22778212 -0.17331478 -0.1966462 -0.06252613 -0.19430654 0.18220069 0.5128903 -0.14234777 0.13780151 0.19280918 -0.13579527 -0.27575803 0.22319669 0.03343861 0.14505218 -0.12190356 -0.36875826 -0.018718729 0.22393508 0.33552143 0.09996087 -0.009195999 -0.28195477 0.09253456 0.2508769 -0.17296755 0.011753898 -0.26237628 -0.03480227 0.110026084 0.14384629 0.061039846 0.12772553 -0.1109195 -0.26021615 0.2971724 0.025887758 -0.04430762 0.046687983 0.22427404 -0.25543806 0.16462073 0.11687596 0.073420815 0.3040038 -0.2959701 -0.2054322 -0.06260998 -0.3169858 -0.039893016 0.3665016 -0.07931539 -0.045164205 0.13640532 0.1108407 0.1338573 0.18238819 -0.17541414 -0.2765065 -0.07189092 0.23599324 -0.19404514 -0.059155755 -0.10289813 -0.15193938 -0.032793567 -0.270821 -0.23510768 0.06190458 0.2457082 0.15431055 -0.068686664 0.016490761 0.1943382 -0.035113823 -0.059406392 -0.096708596 0.1568826 -0.1379323 0.06939943 -0.26049224 0.15601997 -0.25181776 0.25291136 -0.081746146 -0.087181635 -0.007935862 -0.25323385 -0.1707922 -0.29242435 -0.110752754 0.011415404 -0.09733233 0.34781778 -0.06954416 0.13994344 0.11721512 0.0019633542 0.024552744 -0.18126191 -0.098251805 0.22488876 -0.18009646 0.09219753 -0.18969528 -0.23939785 0.065735966 0.17810845 0.042757217 -0.017996497 -0.44089547 0.030780694 0.051882878 -0.13906392 0.1857656 -0.14272618 0.006565511 0.28560933 0.029143313 0.10729515 0.008000721 0.12618226 -0.32530463 0.034210537 -0.06652946
136 0.026845898 0.014878212 -0.2094428 0.030047307 -0.40981978 0.01004184 0.04055024 0.084460124 0.28970438 0.32661644 -0.57024986 0.025168648 -0.29193333 -0.31275383 0.024101583 -0.14738952 -0.008546766 0.19918062 -0.16059926 0.18040961 -0.24865562 -0.28950274 -0.442779 -0.008020208 0.652058 0.26773354 0.2754394 0.03623831 -0.45663443 -0.03340265 0.0030311034 0.17924425 0.19499636 0.15560925 0.63007706 -0.1863297 -0.06581272 -0.121858425 0.10166589 0.021158047 -0.21628043 0.18453681 0.2128125 0.3475787 0.049510296 0.2970982 0.15030415 0.16998117 0.24272257 -0.13528025 0.309137 0.010483843 -0.11747832 0.22062849 0.1861219 0.14061946 0.35776225 0.15298337 0.47764784 -0.28005898 0.09198309 -0.24227503 0.4470424 -0.117220856 -0.55287766 0.22218806 -0.4020795 0.019437272 -0.08800742 0.19843172 0.04140526 0.38492173 0.1696033 -0.26555237 0.12042965 0.01674559 0.10708652 -0.19466306 0.28316805 0.052748438 0.035032284 -0.3476046 -0.19422773 -0.24058095 0.1971789 -0.31923777 0.0852946 0.09580845 -0.09496693 0.14652176 -0.7560103 0.512766 -0.03973292 0.013527285 -0.07985539 -0.18755391 0.21635863 0.21916953 0.30718216 0.62901664 -0.538839 -0.31179896 0.107140206 0.092677854 0.21976809 -0.07414922 0.15803696 0.20617092 -0.05168707 -0.13332418 0.24910349 -0.44385928 0.36988872 -0.00048286194 0.2223957 0.035198644 0.06567436 -0.29388067 -0.39100853 -0.0470707 0.5072 0.32543904 -0.2362245 -0.011812101 -0.06591495 0.1511644 0.07770424 0.013196724
251 -0.37038687 0.051067416 -0.4161901 -0.15787707 -0.2383464 0.06398628 0.06321893 0.2667826 -0.26595962 0.23500074 -0.3005715 -0.14384241 0.30478293 0.453229 0.29359084 -0.1744764 0.0052219764 0.47660857 -0.3019849 0.08481762 0.15146232 0.23847565 0.16780142 -0.090638205 0.19621904 -0.12337648 0.09162547 0.13812998 0.32946074 -0.13883466 -0.09822526 -0.14987051 0.024913777 -0.042762317 -0.038499553 -0.12530738 0.31987998 0.11356258 0.42224494 0.30171272 -0.010966412 0.05284669 -0.015522662 -0.20789136 -0.09580914 -0.10986436 -0.14467475 0.13230667 0.10168245 0.20479183 0.06836051 0.044394486 -0.060327534 0.16159983 -0.09799559 0.049767014 -0.38642013 -0.057668652 0.1338646 0.007540117 -0.07859312 -0.0043860287 0.0060695503 -0.076028965 0.12058612 0.012610652 -0.08210665 -0.060132295 -0.40742546 0.03380301 -0.058684155 0.3483128 -0.056138817 -0.14226173 -0.112687744 -0.24663177 -0.12380408 0.20050284 -0.19930917 0.123687096 0.0725577 -0.08182155 -0.19289955 -0.13276978 -0.06452243 -0.023559686 0.2555161 -0.12489503 0.19641955 -0.02858368 -0.3149121 -0.13541125 -0.22106254 -0.43610007 -0.015598902 0.049931124 0.17674728 -0.1863345 -0.010040467 0.19881114 -0.20930631 -0.32399237 0.11197094 -0.50503653 -0.090461224 0.046201352 0.029842157 0.12381983 -0.13646196 0.25925097 0.156312 -0.124899395 0.0075028264 -0.23638363 0.0050448747 -0.58108133 -0.114134125 -0.06504753 -0.16141087 0.19390154 0.078441575 0.029189724 0.29268268 -0.057747748 -0.14576633 -0.11356658 -0.16071936 0.1850976
513 0.18272129 -0.24305473 -0.0016630123 0.17700672 0.099769816 0.11310064 0.16664374 -0.19654368 -0.021584472 0.17927413 -0.021303648 0.081765875 0.28518283 0.12926573 0.044241123 -0.6488891 -0.3123217 -0.09456147 -0.11542303 -0.067883715 0.10176791 0.10294821 0.43205345 0.22814105 -0.011379004 0.13908677 0.16064863 -0.10490833 -0.074405536 -0.33401927 0.39730754 0.02754172 0.18810251 0.2055431 0.1397786 -0.24855433 0.36204386 0.009307889 0.19771028 -0.027181098 0.014364021 -0.11152187 0.2946262 0.2906973 0.29284388 0.33428305 0.29774165 0.2612006 -0.20604368 0.0046962937 -0.12644742 0.109246776 -0.13884373 -0.11076864 -0.22696884 0.017150434 -0.26906005 0.14831461 0.18466884 -0.385433 0.009156297 0.20288365 -0.019782204 0.008527769 -0.11882134 0.09124952 -0.20282523 0.055918463 -0.13687448 -0.15313247 -0.19453862 0.05204243 0.19764411 -0.45899785 0.046270926 0.21358627 0.0026274328 0.0043831244 0.0020826727 -0.17871505 0.23337638 -0.27251232 -0.29614875 -0.090310425 0.056601904 -0.37058893 -0.15265878 -0.17304178 -0.21570651 0.08932194 -0.28402144 0.065773346 0.2264651 -0.05079108 0.046238028 -0.019194983 0.16635978 0.127539 -0.48300534 -0.05708612 -0.05475436 -0.15321189 -0.00054797996 -0.28908753 -0.27292442 0.14535375 0.2692052 0.02007609 -0.18009594 -0.029657137 0.08081759 -0.043100573 0.09912295 -0.07788977 0.25056535 -0.38049704 -0.14689468 0.05790817 0.2449342 0.06076719 -0.016622804 0.18853146 0.07629369 0.06558853 0.15847653 -0.3091276 0.048739493 -0.08990449
60 -0.16062728 0.17981786 -0.26322752 0.050678518 -0.340883 0.29270595 0.13564208 0.15826648 0.21551727 -0.005253564 -0.10127809 -0.06827284 -0.14994355 -0.06642689 -0.06247554 -0.38625723 -0.0052384 -0.22657105 0.19751501 0.091530986 0.26990032 -0.015924448 0.058462836 0.05692621 -0.017646937 -0.090265684 0.018115079 0.1792581 -0.022813726 0.13608432 0.10194402 -0.19245762 0.17743945 0.2428712 -0.077804 0.23897623 0.0018619143 -0.08974145 0.15186888 0.040678572 0.028818207 -0.061155606 0.15046884 -0.14896913 0.089449264 -0.31426597 -0.16054353 0.21047805 0.15124977 0.08777702 0.0007662405 -0.0054496853 -0.09823013 0.05179595 -0.04400328 0.024120146 -0.15774663 0.24971412 0.23231503 -0.16508524 0.08074767 -0.14712352 0.07349395 -0.04641711 -0.5563696 0.1346715 0.14804263 0.08989863 -0.042874563 -0.21682802 0.14674646 0.17584962 0.12275768 -0.15253368 0.3122296 0.08175253 0.28555164 0.13114883 -0.24631955 -0.06662086 0.29366022 0.2956069 -0.16058134 0.069978856 0.04306908 -0.09520413 0.20870508 0.098874226 -0.14483342 -0.06493215 0.0030267779 -0.2083114 -0.38280046 0.05419435 0.045243584 0.008680781 0.44826004 -0.039941084 -0.26743352 -0.11664601 -0.20361774 -0.0046620676 -0.39383683 0.1736936 -0.17718264 -0.12855218 0.06631013 0.13188906 -0.19078358 0.11015641 0.11963874 0.20989962 0.16813551 0.16261348 0.26986766 -0.098166175 0.03363305 -0.10456175 -0.056341663 0.11043945 0.37655798 -0.27343237 0.15013744 -0.31474423 -0.084793486 0.348246 -0.0341191 -0.13959464
666 0.34621924 0.04845192 -0.21685077 -0.021996474 -0.48179135 -0.02361635 0.09025681 -0.05463459 0.06257782 0.48949766 0.025086258 -0.15472111 0.20533961 -0.08435314 0.2902988 -0.23347062 -0.281897 -0.15997809 0.079899065 -0.1329793 -0.007910019 0.21054393 0.16154566 0.28326565 0.029494852 0.29502672 -0.024263473 0.16900782 -0.32194313 0.3489225 -0.05825543 0.23721543 0.44494313 0.16137207 0.13161029 0.19030905 0.16342343 -0.093373284 0.24843082 -0.2582522 0.050817836 0.13235527 0.4334478 -0.34627333 -0.20442703 0.03849181 0.05744143 -0.03720674 -0.011872422 -0.116696335 -0.0784045 0.029206425 -0.15549213 0.0071736025 -0.28222904 0.07735003 -0.047344502 -0.094020456 -0.08978235 0.08643867 0.004453318 0.10094001 0.055128407 -0.3987767 -0.40584952 -0.122726075 -0.02783429 -0.007137893 -0.2717499 -0.29235893 0.21482293 0.20084594 0.08733095 0.06950736 0.045282703 0.0020789572 0.39439985 -0.016225593 -0.16326964 0.049352314 0.122475535 0.3123853 -0.025511453 -0.10923245 -0.008784653 -0.13064986 -0.03291544 0.101486795 -0.17642836 -0.2016691 0.09505292 -0.26319894 -0.43352315 0.0075960923 0.2166972 0.3881487 0.16213724 0.19472203 -0.024282707 0.18680544 -0.28835073 0.114745945 0.10826487 -0.06833918 0.22146256 0.14188287 -0.057866402 -0.10369094 -0.12480369 -0.05834041 0.19442606 0.07480029 0.08477047 0.057438124 0.36860508 0.020060424 0.08710762 -0.030519776 0.16624913 0.15675607 -0.124431685 0.090426736 -0.2943872 -0.23477924 0.22428551 0.20882925 -0.40058672 -0.04341914
45 0.32327357 0.060869567 -0.06910525 0.19709337 0.12411584 -0.084764145 -0.16193879 -0.4960883 -0.1919963 0.3104081 -0.45041215 -0.081285894 -0.042581316 -0.21373521 -0.011545198 0.049458336 0.5842174 0.20107323 -0.29393718 0.28461072 -0.60580516 -0.2186077 0.12623864 0.2012218 0.09601676 -0.06877747 -0.090959616 -0.06500693 -0.043717023 -0.15608871 0.01640353 0.016808487 0.39392126 0.3079346 0.12747423 -0.080170415 0.0798479 -0.073544376 0.47731104 0.48750055 -0.16599664 0.09697697 0.086249426 0.2242618 -0.15857369 0.26762244 -0.3819365 0.2969035 -0.47394085 0.12380733 -0.036567543 -0.22769293 -0.1003618 0.071621805 0.26041466 0.10989774 -0.26262298 0.10905112 0.31180334 -0.04257113 0.121245086 0.29617137 -0.22682014 -0.13178414 -0.18803793 0.13970865 0.020372506 -0.10136195 -0.19954696 0.25250593 -0.13642061 0.070075385 -0.2519132 0.07649099 -0.07076677 -0.40714306 -0.19855662 -0.18458763 -0.12150419 -0.025456293 0.2686878 0.11998643 -0.27269176 -0.009793211 0.10054111 0.123962484 -0.1999761 0.084387206 0.28570276 -0.45502114 -0.041321076 -0.43964374 -0.35105497 0.26563725 0.29182607 0.17882103 0.5267311 0.28234896 -0.34279695 -0.038075455 -0.1581859 0.04088908 -0.42304504 0.05872667 -0.06545547 0.15357856 -0.10456792 0.36304763 -0.15053222 0.214778 0.1454531 0.1364644 -0.18042924 -0.019906875 0.012535973 -0.0673897 -0.2965208 -0.3006546 0.26436883 -0.105673395 0.16539755 0.21026945 0.3908845 -0.22132206 0.2683092 -0.49750918 -0.21808863 0.48754337
0 -0.25764424 0.13293882 -0.26215604 -0.2629468 -0.0054944595 -0.17104718 -0.40015265 -0.009339531 0.4897886 0.16178639 0.28361365 -0.23584147 -0.11690611 0.024752544 -0.19142608 -0.10490238 -0.05311306 0.14376976 0.3295975 0.12873963 0.14605246 -0.38394368 -0.075076856 0.65684795 0.083143905 0.11459179 -0.034099873 0.05354251 -0.18410087 0.4680737 0.028620921 -0.3116361 0.26180607 -0.1968925 -0.06870154 -0.0079219695 0.07713992 0.0016249426 0.04649851 0.102077074 0.11969108 -0.36408767 -0.25594187 0.62216866 -0.019595316 0.06449277 0.11194758 0.5553509 -0.026549753 0.44990408 0.1267329 -0.40369755 -0.21803355 0.22207266 -0.0557882 -0.018028501 -0.34691298 0.021811994 -0.5038032 -0.16611074 0.19958897 -0.052444484 -0.030878704 0.081905015 -0.1516929 0.28907216 0.07296659 0.33096313 -0.09128061 -0.4848334 -0.5025816 0.33750018 0.36776066 0.2511989 0.018738555 0.113810085 -0.4680974 0.08121004 -0.20350099 -0.06570896 -0.31570023 -0.04964334 -0.37916845 -0.12712486 0.0889508 -0.14769253 -0.016211767 -0.17891684 -0.2948221 0.20902927 0.15079597 -0.22680219 0.02822393 0.3356753 0.41962582 0.16778904 0.50553596 0.3819141 0.5328189 0.12114788 -0.117893174 -0.010599381 -0.17754486 -0.21334438 -0.004475755 0.25687274 -0.16527775 0.02267894 0.05759454 -0.21632272 0.3416651 0.058103945 0.07747074 -0.22064343 0.066875845 0.12880936 -0.19361721 -0.38614276 -0.10813574 -0.58042705 0.17047496 0.3275599 0.3753839 -0.13814647 0.5625588 -0.020022362 -0.43547007 0.23693134
79 0.19489086 0.37552282 -0.24344756 0.038964 0.073112935 0.08938643 -0.078695506 0.15454075 0.14082627 0.4148777 -0.17768426 -0.22094995 0.07187898 -0.24611822 0.32835814 -0.20884031 -0.11625916 0.2018217 -0.3297337 -0.26591697 -0.05826727 -0.18797068 -0.057511516 -0.049429525 0.44727305 0.41000798 0.27106535 0.08137967 -0.095091775 -0.3573421 0.23233813 0.20878755 -0.07157736 0.09870539 -0.3262722 -0.092214935 -0.20677252 -0.12639725 0.05704224 0.12941262 0.31516433 0.03112608 0.08039661 -0.25449902 0.05929884 -0.31090683 0.2782707 0.50046194 -0.36501873 -0.3940258 -0.18809089 -0.11521488 -0.11857458 0.26505685 0.3335621 0.12028539 -0.2470763 0.13960753 0.033804704 0.14155638 -0.16994262 -0.40252015 0.5921293 0.33022276 0.432049 -0.019008297 0.041399475 -0.05759916 0.16281874 -0.026396306 0.07408186 0.27236742 -0.05651385 0.03174272 -0.123881035 -0.23899305 -0.011997211 -0.28487965 0.13177642 0.22555801 -0.22247988 0.17380796 0.19758722 -0.122343294 0.27082515 0.11131112 -0.23394533 -0.18897752 -0.1266039 0.5643201 0.012569836 -0.3057741 -0.25622308 0.28989318 0.19886965 0.21017775 0.7719596 0.34369078 -0.23277904 -0.1775248 0.14880894 0.015256934 -0.2445499 -0.103206836 0.19455415 0.036147695 0.22237875 -0.14824447 0.34638196 -0.35197517 -0.049662445 -0.13714565 0.35280576 -0.29476494 0.095383175 -0.25099516 -0.4284467 -0.19668183 0.1837986 -0.11482973 -0.10900761 -0.20414247 0.0460701 -0.024923733 0.2238132 -0.10790207 0.109562226 -0.03520289
396 0.074908294 -0.20030768 -0.11664005 0.058276094 0.23926151 0.1339634 0.33838633 -0.16863002 -0.23695797 0.09272055 -0.13367192 0.016201308 0.28030673 -0.319236 -0.12494498 -0.03825916 0.060643658 0.035591427 -0.14397341 -0.0046272925 -0.35413355 -0.18350418 -0.019681694 0.19570982 0.007209807 0.047436144 -0.21124539 0.19979212 0.1956767 -0.3366351 0.1835448 0.08944361 0.026929421 0.213437 -0.17971137 0.09898144 -0.13151512 0.13462685 0.061267577 0.30637327 0.0073463726 0.06498307 0.22440918 0.08159601 -0.45803404 -0.1903471 0.113639966 0.6812817 0.15825716 -0.24773872 -0.3057034 0.02013979 0.12528704 0.1949528 0.041530713 0.029049011 -0.037779585 0.010573891 0.13083237 -0.07472753 -0.24830474 0.31819063 -0.11916068 0.09494717 -0.3561289 -0.15207374 -0.1494872 -0.088928424 0.10804059 0.195676 0.05440669 0.36045343 -0.1629275 0.118834265 -0.24472138 0.051686537 -0.4504077 -0.2727464 0.11602818 0.17430201 0.2622402 -0.27520686 -0.14661185 -0.30828333 0.20281246 -0.20047607 0.006026299 -0.041514978 0.11424245 -0.06221196 -0.09401264 -0.23279548 -0.21929704 0.3255509 0.19268765 0.18542124 0.45354283 0.24602774 -0.021013988 0.14168666 0.16814527 -0.11195415 -0.29243505 0.13552548 0.00710684 0.07814189 0.08957673 0.05726259 -0.24719845 0.31125733 -0.17584555 0.11055868 -0.53749025 0.08199098 0.13302541 0.29846904 -0.17226349 -0.18161857 0.0062231994 0.025722723 -0.08594599 0.16379756 0.14001489 -0.40697682 -0.4089595 -0.28239676 -0.30546418 0.34891015
712 -0.036058813 -0.16894759 -0.045513507 0.076055236 -0.34513897 0.21088348 0.08912449 -0.2151586 0.14322262 0.2146516 -0.29961196 0.32891047 0.33845767 -0.2883911 0.19323924 -0.19534823 -0.057740975 0.07869609 -0.15513827 -0.08450881 -0.013713536 -0.010684308 -0.38016894 -0.23591517 0.16057673 -0.049255922 0.49406618 -0.22826286 -0.14238419 0.102717236 0.15168397 0.024334071 0.086906634 -0.12313949 0.33426824 -0.36757416 0.187246 0.03398888 0.25396386 0.07785213 -0.17319034 0.07503229 0.23013388 0.3043598 -0.11587585 0.30059382 0.083856985 0.20719114 -0.15969849 -0.006977632 -0.0013033325 -0.21738313 -0.14450888 0.19789179 -0.12904647 0.20376407 0.14916274 0.35384414 -0.023411382 -0.15251367 -0.24722947 0.078406885 0.28965497 -0.0022751668 -0.29787496 -0.14716135 -0.106659666 -0.21563217 -0.12345459 0.12920153 -0.0810205 0.31641507 -0.10701724 0.29339552 0.33646205 0.00072469923 0.078073815 -0.09437841 0.05729658 0.08355396 -0.017219076 0.24553329 -0.101263136 0.16294537 0.16795321 0.051808253 -0.009195902 -0.23623395 0.049650796 0.1277978 -0.2594703 0.08092957 -0.055568326 0.13543275 0.11924025 0.2042045 0.05995084 -0.049511924 0.15057346 0.42438012 -0.4113626 -0.18283585 0.046050258 0.1422666 0.5129651 0.41226193 0.20991774 -0.21624593 -0.15603338 0.096599445 0.009302505 0.12504801 0.36840427 0.028273547 0.4666991 -0.07180081 0.0062683625 -0.042074606 -0.16152722 -0.2453437 0.3462904 0.12338484 0.004179352 0.12456128 -0.4244053 0.096820466 0.07959961 0.13508809
322 -0.28430516 -0.41895398 -0.1087729 -0.33102375 0.15468122 0.5630989 0.6522318 0.17124861 0.5010305 -0.46343 -0.07572697 -0.32197344 0.03178343 -0.24102221 -0.8835868 -0.14786252 0.5178936 -0.56443095 -0.57419205 0.058945708 -0.23372276 0.115005225 -0.21204016 -0.076638 0.5279558 0.14107932 0.13171944 0.293151 -0.18245406 0.402099 0.7054105 0.16579081 -0.2915729 -0.11016818 0.429446 -0.26567683 0.20045957 0.09069837 0.4587713 0.1356972 0.3947417 -0.08118247 0.3681046 -0.19176589 -0.6379637 0.5312457 -0.4433864 0.64183354 0.03324824 -0.7944646 -0.41906014 0.03285696 0.15148607 -0.6052358 0.21055196 0.07418346 -0.2284725 0.55499697 -0.025487773 -0.018771976 -0.44053248 -0.4614729 0.15665954 -0.5234277 -0.17285846 -0.6405737 -0.15277456 0.32353073 0.122716986 0.06522993 0.046863697 0.17444557 -0.044182785 0.74738604 0.027510965 0.832344 0.20250306 -0.36038774 0.11818612 0.24270827 -0.43324482 0.24708468 -0.29014438 -0.717347 -0.45138675 -0.4133004 0.1365736 0.26721793 0.623012 0.35240525 -0.19879732 -0.27472794 -0.08684402 -0.28899756 0.6112423 0.17922935 0.40441942 0.540292 -0.5162321 -0.24317245 -0.40011576 0.16869874 -0.4810575 -0.37853608 0.6614918 1.2100224 -0.36663902 0.4020728 -0.13214543 -0.2618023 0.676139 0.5747938 -0.055523433 -0.49069214 -0.07024182 0.52579355 -0.4253659 0.13171995 -0.29092383 0.67106885 -0.21511793 0.1998466 0.61329085 0.28438908 -0.23697047 -0.2162856 0.10909198 0.6023043
263 -0.5239856 0.14344184 -0.1453327 0.09777193 -0.21079385 0.07918912 0.028954068 -0.36178488 -0.013771137 0.040281676 -0.03534754 0.015381619 -0.070304565 -0.1399136 -0.0785454 -0.27639616 0.044008136 -0.06787419 0.04806565 0.072990015 0.191094 0.2613076 0.2836844 0.17944345 -0.03781294 0.11154385 0.06178872 -0.096227735 0.0071276054 0.017248916 -0.031715896 -0.31245986 0.07917122 0.27441263 0.18265267 0.05080286 0.025633493 0.12032269 0.2636319 0.07914356 0.08273327 -0.052249424 -0.017145766 0.13636908 -0.19007629 0.30857 -0.27555317 0.37230164 0.033937898 0.4296827 0.09364791 -0.14084549 -0.18778178 0.1919333 -0.14753087 0.028624387 0.10916348 -0.14671253 0.256489 0.007877357 0.006831149 -0.011276347 0.16222067 0.08265425 -0.18334977 -0.15785481 -0.18846273 0.22157827 0.42859784 0.06455741 -0.2837677 0.26896584 0.10766796 0.00678597 -0.10478234 0.019354923 -0.2897368 -0.6275971 0.40483207 -0.1339437 0.11452962 -0.021069253 0.07174359 -0.2719019 0.29718217 0.29212373 0.027049234 0.08517784 0.068846695 0.2104907 -0.08916073 -0.043999225 -0.16424637 -0.021625178 0.004744671 0.3013026 0.23477413 0.22847937 -0.059685063 -0.33813915 0.2536762 -0.07625024 -0.10188013 -0.24153091 0.20051911 -0.027378697 0.26816803 0.56709427 -0.26962912 0.28754777 -0.18941575 0.28183833 -0.14154193 -0.27106977 0.3373082 0.39877865 -0.37370184 0.3087716 -0.10163193 0.25980896 0.06522705 -0.12108237 0.09172559 0.038638536 0.2389259 0.088224076 0.006352581 -0.15701504
274 0.103437185 -0.1992001 -0.009374913 0.28172472 -0.2995062 0.14673325 0.19713092 0.062107634 0.07742394 0.31685522 -0.31715545 -0.1736989 0.2064932 0.14347516 -0.23850812 -0.3775767 0.07827836 -0.35485706 -0.39928833 -0.1690856 0.27741334 -0.058631647 -0.05433698 0.21128373 0.20339842 0.25378713 0.05209146 0.104491785 0.1942103 0.023986945 0.23219828 -0.23626994 0.0015249711 0.12549056 -0.4361713 -0.20487061 0.11372994 -0.17079274 0.12874573 -0.1735593 0.13860975 -0.01078906 0.2872971 -0.10046766 0.18063249 -0.17362946 0.29200372 0.7811614 -0.20008661 0.24246737 -0.07103759 0.09029709 -0.23079996 -0.32079124 -0.0741253 0.19829503 -0.21407029 0.09525002 0.04345672 -0.15744309 -0.06425089 0.01647388 -0.041840393 0.077483 -0.46376544 0.13724013 -0.17804003 0.18031895 -0.1912586 0.0726691 -0.42455083 0.24042024 0.131199 -0.45375797 0.097098954 -0.10936556 0.09796718 0.1880858 0.2956128 -0.37537807 0.04920087 -0.08994791 -0.19792032 0.10550677 -0.25861412 -0.11405889 0.007478192 -0.23203209 -0.17351305 0.13781938 -0.19321938 0.036656428 0.22932397 -0.08789003 -0.248634 0.060054317 -0.18780349 0.06450417 -0.18688408 -0.045936774 -0.29775548 -0.06493078 -0.32430294 -0.1972884 -0.48200223 0.27289912 0.16906303 0.15700959 -0.101328276 -0.11292265 0.30584976 0.06793479 -0.27365434 -0.05633304 0.23883414 -0.068069674 -0.001195872 0.044160932 0.34090903 0.14791697 0.17134292 -0.117576465 -0.13480268 0.08743898 -0.21972509 -0.12443684 0.12813605 0.023592105
484 -0.13663684 -0.54907614 -0.18890493 0.18055975 0.21295875 -0.038699992 -0.21897377 -0.14061593 0.38401014 0.17103332 0.0062310193 -0.14166258 -0.27403474 0.2035744 0.37844002 0.035639133 0.2814087 -0.14193682 -0.0054043303 -0.052909482 0.08666688 -0.055156 0.33022666 0.152594 -0.0063372585 0.39656818 0.16726713 0.51985806 -0.1578257 0.12779231 0.075191945 0.054267522 0.060842633 0.28834298 -0.5287982 0.076561496 -0.04147248 -0.12240547 0.25374633 0.048753887 0.04424074 -0.06112404 0.5051413 -0.13125001 -0.06460803 0.24223924 -0.37789986 0.13300535 -0.09839186 0.25160292 -0.6361501 0.09384112 0.008077836 -0.017311335 0.024763418 -0.13410766 0.10979355 -0.29178977 0.24033235 -0.11740558 -0.13892728 0.023110833 0.01642051 -0.33689436 0.20638223 -0.008063241 -0.33684176 0.28661206 -0.26917464 -0.16923743 0.06769748 0.56153816 -0.33074376 0.036199592 -0.18140103 0.023146769 0.3897961 -0.0077025695 -0.2737573 -0.04997522 -0.246966 -0.20284182 0.042374037 0.21855329 0.08254962 -0.19376934 0.121185035 0.054875035 0.19240804 -0.023986252 0.15611891 0.022229066 -0.74545366 0.5452133 -0.14673683 0.06873006 0.11610987 -0.28091693 0.26365456 0.40009156 -0.103673376 -0.13449414 0.22669768 -0.1215477 0.16545509 0.16697921 -0.1149757 0.023998532 -0.032424364 -0.18709473 0.5203891 0.080133505 0.16854098 -0.06488022 0.4621165 -0.06125919 0.25333175 -0.063639484 0.17428046 0.09228667 -0.005887311 -0.060030233 0.196026 -0.05637638 0.12400299 0.109953955 0.10829546 -0.18090409
295 -0.1734041 0.024221838 0.1972884 0.09698083 -0.2808968 -0.16825007 -0.28341964 0.003493133 0.3089052 -0.019916186 0.11075913 0.014450412 -0.0498401 0.0069622877 0.39264414 -0.111030184 0.13595632 -0.11709908 -0.08305329 -0.17680906 0.013052858 -0.11735679 0.37291315 -0.20456403 0.06388264 0.13502777 -0.00020637647 0.34266347 0.014119228 -0.20644644 0.04125246 0.0004815735 0.019613273 -0.05755919 0.055640053 0.100242525 -0.14668255 -0.24542691 0.10618998 0.029500011 -0.09888485 -0.03811523 0.29561612 0.26310688 -0.112363294 0.3287775 -0.18476371 0.35481063 -0.1774923 0.22453684 -0.07169554 -0.065931685 0.028921358 -0.049965713 0.16931827 0.16827296 -0.1731614 -0.04579068 0.015698332 0.024383644 -0.22309092 -0.07299696 0.13650264 -0.24616922 -0.14592871 0.32433504 -0.22045682 -0.10661597 0.0043317536 0.11085416 0.28491184 0.33570158 -0.10254683 -0.27576914 0.15704148 0.11755527 0.14202547 -0.0053012855 -0.07253112 0.080642074 -0.17511754 -0.12835412 -0.30386192 -0.06689295 0.15198866 -0.32571167 0.076167434 -0.4111579 0.006019236 0.24847174 -0.064302824 -0.13731141 -0.5144223 -0.01647423 0.057221778 0.13273808 -0.022209445 -0.117602624 0.18342456 0.36438292 0.09467591 0.06314604 -0.15385285 -0.01100062 0.25953564 -0.069520496 -0.11869897 0.15228452 -0.103545725 0.28357515 0.21425845 0.058677323 -0.42968318 0.13051651 0.34804142 -0.03584199 -0.0869734 -0.11295427 0.087690085 -0.07970947 0.10695388 -0.13156967 0.13491118 -0.01961852 0.23851629 -0.10148248 0.110174105 0.020715859
7 -0.20009488 -0.260232 0.016402932 0.2109379 -0.41694662 -0.19461602 0.33048066 -0.3320513 0.16743383 0.19284573 -0.015027832 -0.32012 -0.09981942 -0.06233881 -0.2725013 -0.3198775 -0.09084448 -0.6420603 -0.3184629 0.45993596 0.6607328 -0.37352815 0.39129353 -0.33396342 0.50703 -0.17623192 0.34039137 0.27467403 -0.006700868 -0.20362444 -0.4004609 0.033664342 0.36971182 0.49913782 0.085945144 -0.05144661 -0.18721475 0.413376 0.20279731 -0.05745595 -0.04563661 0.26265162 0.123917826 -0.09710928 -0.6729853 0.42521617 -0.0013562023 -0.10213817 -0.57228464 0.28814647 -0.07799769 -0.42365947 -0.3963122 0.5173394 -0.3832125 -0.21763018 -0.0347843 0.06799297 0.20011657 0.073711924 0.03925722 0.33083248 0.14442652 -0.4205907 -0.23770438 -0.012712352 0.1603754 0.071839795 0.47893015 -0.3969251 0.2956566 0.063981034 -0.05912742 0.6144738 0.3406688 -0.6775748 -0.08268209 0.11060458 0.16427289 0.29029012 -0.047164984 0.5202153 0.09056654 0.19835578 0.5427122 -0.024230305 0.13321966 -0.5739068 0.110059544 0.48329657 -0.416556 0.41644436 -0.21481563 -0.23866956 0.044859532 0.06713833 0.16677174 0.4644409 0.16245803 0.026331479 0.012483071 -0.13805282 0.4800983 0.020678595 -0.37892422 0.6025826 0.12971906 0.43422493 -0.23227711 0.35002103 0.063248836 0.31304356 0.13060245 -0.23637408 0.41307664 0.12263332 0.34390864 -0.039443646 0.44916344 -0.06577447 0.062218033 0.23842223 0.38349512 -0.10734154 0.34223348 -0.57317835 0.06570448 0.24200621
150 0.15252037 -0.10350239 -0.3222935 0.24440558 -0.5782107 -0.007257571 0.4943223 0.49050775 -0.11483821 0.07097648 -0.21000896 0.13669062 -0.09561435 0.13639168 0.4122112 -0.3689489 0.17603245 -0.094243415 -0.4577574 -0.018775465 0.2866538 0.056690544 -0.114692315 0.113719076 0.1754551 0.24420904 -0.022392374 0.2549007 -0.24970059 -0.033110853 -0.20478983 0.12652364 0.30417103 0.043452173 0.21962395 0.65774935 0.2607483 -0.14591944 0.15765265 -0.26897222 0.120994374 -0.26017046 0.404412 -0.014546488 0.1648705 -0.0070069307 -0.19259599 0.15301621 0.026803164 -0.26753116 0.09169285 0.18030086 -0.15579462 -0.57827353 -0.20972921 0.03713285 -0.1646466 0.042060763 -0.03865246 -0.18601237 0.18441837 0.28880417 -0.24334098 -0.2728634 -0.25081292 -0.2444146 -0.18597116 -0.39184186 0.22524731 -0.20824537 0.29846653 0.33874327 0.39484942 0.16433609 -0.13760069 0.0028707937 0.1511623 -0.09617399 0.07599978 -0.3670981 -0.029399076 0.3173905 -0.3180845 0.06594284 0.16196203 -0.056925196 0.21767052 0.033967912 -0.2584629 0.114036635 -0.085795924 -0.07222439 -0.33148822 0.28009745 0.4789222 0.0036558532 0.06792423 -0.20815143 0.16393313 0.47434863 -0.42181528 0.33865848 0.12543981 -0.6219467 0.4625987 0.10682075 0.29691195 0.14860111 -0.057277605 0.030515492 0.17425925 0.27750587 0.06509743 0.18307304 -0.057830088 0.18257578 0.14867352 -0.011090127 0.1565019 0.08663446 0.10856311 0.10527149 -0.17161787 -0.27156484 0.10485374 -0.18240178 -0.556636 0.23644613
392 -0.08599091 0.14651288 -0.2715683 -0.021193799 -0.35938364 -0.41465068 0.0120410845 0.062488023 0.49126747 -0.024235064 0.13450451 0.18306078 0.010383585 0.18329349 0.076055795 0.06648048 0.38675228 -0.2660495 -0.3004271 -0.08695752 0.30071697 -0.19276345 0.30496672 -0.10806248 0.102500975 -0.3441233 0.13075893 0.18621002 -0.4568008 -0.15270796 -0.3014295 0.18691024 0.31513628 0.14740989 -0.118421465 0.1944164 -0.086641654 0.7298184 0.38728234 -0.19209543 0.31861556 0.16703714 0.055140436 -0.13541651 0.26558596 -0.024403717 0.108560406 0.5859172 -0.5137558 -0.045220733 0.05419456 -0.14214063 0.3985515 -0.038988024 0.1805434 -0.15147263 -0.020846032 0.13638915 -0.31706128 0.29182556 -0.15560402 0.012706594 -0.20984334 -0.05313835 -0.5231524 0.086567745 -0.074937366 -0.38465545 -0.17572993 -0.16006422 -0.09393371 0.26750952 0.13026188 -0.059069563 -0.3265938 0.20803785 0.08646119 0.08739133 -0.048001863 0.19768861 0.49804428 0.053583845 0.22956958 -0.35751697 0.09070413 -0.07920911 0.27538624 0.012852207 0.12310049 0.18603268 -0.13062015 -0.32283857 -0.25836736 -0.04834593 -0.0958881 -0.011321894 0.24485728 -0.0030091254 0.021352334 0.09119643 -0.287335 0.34160715 -0.13011993 -0.42619434 0.077025525 -0.32771602 0.034403678 -0.009383636 -0.44629198 0.22195496 0.2973385 0.012015816 0.121846125 -0.24671292 0.39227527 -0.24818423 0.10433739 -0.15627488 -0.4101993 -0.121590294 0.120055966 0.043228704 -0.20575778 0.1813027 -0.046529572 -0.056644063 0.07598815 0.10992667
29 0.08967498 0.101241834 -0.01023036 0.18643242 -0.24542911 0.29258996 -0.081060365 -0.30604413 -0.21160457 0.09705412 0.0017118264 -0.05402081 -0.16498183 0.06398676 -0.040104527 -0.3462615 -0.112285264 -0.23720875 -0.20057093 -0.10067271 0.036714137 -0.06509065 0.3131166 0.028125197 -0.08253204 0.27426818 0.09008877 0.19634373 0.2798564 -0.25285965 0.077551164 0.040323466 0.38179702 0.23218858 0.23480074 -0.13337478 0.34923276 -0.33394533 0.16902566 0.13406779 -0.13661434 -0.098875515 0.29041514 0.31962314 0.38313797 0.57721275 0.073008485 0.34584516 -0.31468365 0.099639654 -0.09402839 0.035038296 -0.1433405 0.36996287 -0.18875861 -0.12404609 -0.37319523 0.22315389 0.0959807 -0.112738036 0.06548494 -0.3321634 -0.03854049 -0.08335397 0.050212633 -0.13200223 -0.24348362 0.0057291095 0.105700515 -0.04249327 -0.012441817 0.041121833 -0.07261169 -0.39549476 -0.13987869 0.16831738 -0.15768757 -0.2542997 0.13931975 0.2839714 0.43997648 -0.28938276 0.15397146 0.029162174 0.3630776 -0.069619134 -0.025662623 -0.13555254 -0.24672975 -0.34495243 -0.025747972 -0.054063138 -0.09000873 -0.100491196 0.17907877 -0.084841125 0.22086576 -0.38733664 -0.10024696 -0.027793523 -0.20547079 0.20128128 -0.3743555 -0.17247745 0.07509229 -0.1536002 -0.050359357 0.06262512 -0.09251306 -0.13383439 -0.017736342 -0.029152932 0.14524457 0.19012387 -0.019503875 0.17508605 -0.16363509 0.094517566 0.36777955 -0.31652975 -0.0029849464 0.029647794 0.14549683 0.2220936 0.14111756 -0.24145778 -0.115532584 0.055724617
577 -0.28271672 0.085165896 0.29237297 0.049680263 -0.25264907 0.05878113 0.4704625 0.065538794 -0.028083542 0.25527436 0.32674572 0.0939078 0.20630163 0.187342 -0.086248346 -0.1266631 0.71134293 0.053611234 0.05404636 -0.37972638 -0.11772542 -0.25483987 0.023754165 0.11930914 0.17518017 -0.13457076 0.018302063 -0.009353056 0.042691387 0.10393031 0.15314132 0.28662953 0.46570918 0.2899724 -0.09238726 0.016700925 0.14945585 0.11013101 0.47191432 0.35553873 0.16440867 -0.2361835 -0.23601069 -0.12334051 0.10379666 0.5251739 0.14316286 0.39426327 -0.043247238 -0.14473683 -0.10095259 -0.005113891 0.06062849 0.3323938 -0.121342175 -0.29081792 0.100780316 0.3186612 -0.39601648 0.14594793 -0.12295226 0.075600214 -0.35550687 -0.14258094 -0.4064382 -0.08073351 0.02402128 0.2534407 0.25656062 0.26396394 0.093474485 0.005319611 -0.1627259 0.29386133 -0.07198712 0.15084636 0.446785 0.14400226 0.20282634 -0.10929376 0.30410656 -0.13972038 0.09592065 -0.33146048 0.15677492 0.033364773 0.036177155 -0.28973392 -0.5282188 0.22103243 -0.06835352 0.049914777 -0.44352087 0.039531115 -0.01698609 -0.06118657 0.3347663 -0.004284824 0.043472577 -0.13745351 -0.2891849 -0.11934785 0.026445473 -0.07743057 -0.3113035 -0.10876746 0.40138316 0.06872734 0.17062321 0.32679597 0.041061576 0.014056154 -0.023163352 -0.49886745 0.044695955 0.00217251 -0.21219884 -0.32469776 -0.2603739 -0.13848686 -0.0024879638 -0.18532571 -0.070924476 0.34777543 -0.23168172 0.28281817 0.15875997 0.35314286
252 -0.12804583 -0.07596462 0.0278283 -0.25262588 -0.13902235 0.013288708 0.3333644 0.08732132 -0.12762731 -0.113992475 -0.039032593 0.17925984 0.17735761 0.0033277855 0.2710017 -0.1596451 0.15806307 -0.012477729 -0.34110624 -0.21069603 0.15850651 -0.18768558 0.008501361 0.07509936 0.3613957 -0.13362373 0.09812062 0.38699737 0.07733488 -0.16114369 0.16681977 -0.08913458 0.010996467 0.3148608 0.06328596 0.3236954 0.37633747 0.07869356 0.2005572 -0.08410034 0.39267588 0.010104485 -0.41002 -0.060298298 0.24516475 -0.1634234 -0.025922963 0.22109352 -0.048579324 -0.0051493663 0.13180982 -0.079632826 0.18711464 -0.033002537 -0.18939817 -0.06728991 0.11481937 0.04140166 0.10577117 0.19273375 -0.31295916 -0.09262035 -0.08071118 0.2176628 -0.33912605 0.2807626 -0.07149003 -0.15308988 -0.10205055 -0.2451473 -0.14048636 0.28067702 0.21192138 0.061648477 -0.10227335 0.20249385 0.24336988 -0.18036273 -0.025209168 0.15592429 0.011361822 0.028896421 -0.15138017 -0.0022766849 0.27145484 -0.20523255 0.2886452 0.049350925 -0.053976506 -0.080051735 -0.13125123 -0.14447196 -0.17661463 -0.27385303 0.20745547 0.1342452 0.05870724 -0.15597495 0.07168792 -0.021786472 -0.35761565 0.021789847 -0.2949735 -0.3816888 0.27368942 -0.12119252 0.1735104 0.15567492 -0.083191946 0.24262859 0.22724366 -0.10021815 0.037355755 -0.33418506 0.11203314 -0.37484083 0.2560642 -0.09350051 -0.22571886 -0.13253988 -0.11363976 0.0366919 0.028184757 -0.2348859 0.014952806 -0.1708488 0.06514644 -0.011515314
273 -0.08684751 -0.45186982 -0.33203912 0.1104741 -0.4264767 0.1788901 0.20113093 -0.22730792 0.4036747 0.46195468 -0.020665409 0.14681868 0.12299891 -0.09558393 0.30257758 -0.29901412 -0.16789305 -0.007850268 -0.10354585 -0.2827034 -0.109630235 0.15675665 0.11677286 0.32953763 0.51385987 0.1300414 0.3128983 0.04700188 0.021993112 0.08519157 0.13226321 -0.07226369 -0.097355396 0.28634885 0.41475368 0.12612818 0.25641966 0.13473664 0.04242978 -0.046726525 0.123868495 0.072062366 0.4160971 -0.0326241 -0.11822098 0.07988356 0.02052079 0.26188645 -0.27434263 -0.24508229 -0.23385766 -0.108316906 -0.17727827 0.07400123 -0.29736358 0.21577804 0.42489067 0.3186416 0.09277101 0.12891118 -0.22855435 -0.051461134 -0.0064628734 -0.2608495 -0.55101144 -0.082146436 -0.28865388 -0.0024416968 -0.29548773 0.009928192 -0.0013302122 0.15380493 0.014484923 0.48333216 0.37354067 -0.00013648515 0.10509312 0.34615356 -0.019075377 0.07359533 -0.0015390053 0.03709353 0.027804159 -0.2629101 0.07610167 0.0034158807 -0.22974971 -0.09070816 -0.051734567 0.00756096 0.15499634 -0.059488066 -0.27453008 -0.04475725 0.3818255 0.081918135 0.17029437 0.18236047 0.006386575 0.42098442 -0.42696807 0.063136004 0.0470739 0.17531742 0.32173288 0.20888145 0.25974488 -0.06854044 0.0637241 -0.11844487 0.27546 -0.07710885 0.13215908 0.116580956 0.08978039 0.024339447 0.20214193 0.21447015 -0.08026745 0.027991978 0.3195571 0.055589907 -0.27043623 -0.2742501 -0.13888241 0.012769017 -0.3297217 -0.33030677
385 -0.1546772 0.44337943 -0.17924471 -0.16770267 -0.054612596 0.12434242 0.13039115 -0.20684117 0.25020048 0.07030054 -0.64801013 0.25472873 -0.22833581 0.23919174 0.27822524 -0.3300591 0.3980823 -0.21948199 0.20697108 -0.35473314 -0.09187647 -0.0124014625 0.14161338 0.06162188 -0.1305012 0.44290444 -0.07940477 -0.22948901 0.057885792 -0.014670702 -0.33199993 0.09661559 0.2753672 0.1340378 0.12191244 -0.14804621 0.046097577 -0.2849395 -0.013464173 -0.022164868 0.30482203 -0.14452614 0.12518765 0.045757074 -0.32418302 -0.26557854 0.32900918 0.5163638 -0.25977033 0.05169397 0.10713787 -0.41301772 -0.2881723 -0.002192219 -0.22069776 -0.26135516 0.06900544 -0.3553918 0.17011301 -0.004900048 -0.13774753 -0.39146885 0.087667726 0.011621791 0.00057539804 -0.003098461 0.055161823 0.0020685478 -0.00096707843 0.009002604 -0.024678905 -0.14421241 -0.09800075 0.22037765 0.17521596 0.142459 0.1583383 -0.40314573 0.03238033 0.07477557 0.029043289 0.17043386 -0.02281565 -0.48800746 0.35281327 -0.23557816 0.20772947 -0.26725844 0.076652154 0.32233098 0.16456227 -0.04837574 -0.21365581 0.18390226 -0.0072725033 -0.33591992 0.12799853 -0.05901506 0.15455982 0.27611953 0.2870292 -0.13208053 -0.1642428 -0.031595107 0.10937531 0.03852231 0.1679241 -0.09297368 -0.09059728 -0.07608865 -0.10521696 0.118502565 0.27865335 0.033003904 0.012394092 -0.25036007 -0.16891149 -0.10478843 -0.081280924 -0.21897715 -0.1712291 -0.32659554 0.36835918 -0.12194418 -0.12951563 -0.10203693 0.02848867 -0.11375774
602 -0.15210445 -0.27413234 -0.5001261 0.1381281 -0.16740617 0.101125754 -0.011024879 0.112745024 0.3864841 0.018305779 0.4138206 0.067009136 0.17258576 -0.1776016 0.20045637 -0.24702264 -0.100852855 -0.2037796 -0.17155848 0.012969189 0.14657189 -0.050599147 -0.1359318 0.17047109 -0.3542799 0.095778205 0.18556859 0.16300946 -0.08569789 0.18401635 -0.062859334 0.017797653 0.11788807 0.47281772 0.09899822 0.10851038 0.0015050744 -0.3043549 0.123052076 -0.04551266 -0.018762903 0.07239751 0.35493913 -0.041955344 -0.18768269 0.0832587 -0.3781911 0.1444206 -0.12208312 -0.14172858 -0.34299237 0.049282316 0.087628 0.066810526 0.046083122 -0.010978965 0.038522866 -0.11319539 0.069993064 -0.056648646 -0.039651636 -0.21449314 0.0014457249 -0.18426117 -0.24731542 -0.0026069486 0.06758119 -0.12092437 -0.1710062 -0.53666735 0.081958756 0.15810221 -0.17107321 -0.18550092 0.19452496 0.054472625 0.27500978 -0.30454403 -0.24049571 -0.053800974 0.17182624 0.25500378 -0.2773557 -0.0028140282 0.16518608 0.015170128 0.032415017 0.18336257 0.1171461 -0.155659 -0.01659423 0.15530296 -0.2742321 0.12129438 -0.014289297 0.4862895 0.14643387 0.004519513 -0.039666813 -0.019384498 -0.19879945 -0.043292996 0.004521864 0.05797623 -0.04991646 0.21102458 -0.09118499 0.20165539 0.18001248 -0.106047526 0.093156524 0.3142599 0.42730048 0.042027507 0.6284581 -0.112340145 0.051803384 -0.17627145 0.05582173 0.053399503 0.16456792 -0.08241034 0.13286094 -0.16497636 -0.061526075 0.41371173 -0.24775974 -0.010029997
86 -0.00452404 0.62735665 -0.466395 -0.12969409 -0.17556486 0.05742897 0.21913964 0.10866299 0.08876467 0.54040897 -0.321826 0.11421316 0.15444577 -0.22466846 -0.089943476 0.04608572 0.10421509 0.2819132 -0.0881871 -0.30610576 -0.34304616 -0.22742233 0.24240287 -0.29889643 -0.04712093 0.47992772 0.13722426 0.07244126 -0.07988605 -0.07586795 0.050043494 -0.21460962 0.21733345 0.074429035 -0.2172758 0.09042241 -0.10545088 -0.23001453 -0.0488255 -0.17916656 -0.048564058 0.12691659 0.2956805 -0.204556 0.03185545 -0.23699732 0.26495966 0.45747766 -0.257889 -0.14059357 0.0030835534 -0.20778534 -0.041033056 0.17502724 0.11773859 0.10654163 -0.10069758 0.13891897 0.26766518 0.16656426 0.011891772 -0.5976032 0.27688235 0.24415039 0.5407889 0.14914219 -0.19327629 0.095692515 -0.19569309 -0.39589375 0.13967775 -0.19915365 0.046097886 0.24723858 0.10831059 -0.08445277 0.17375903 -0.23348798 0.072984904 -0.15641464 0.0073309047 0.00039273576 -0.110580415 -0.13798872 0.3015138 0.11702875 -0.144427 -0.08335775 -0.12278417 0.18784033 -0.11623133 0.073317856 -0.4564941 0.25318226 -0.04668732 0.074348636 0.50352377 0.30619743 -0.06925712 -0.15295517 0.37254152 0.015617666 -0.03043231 -0.1666647 0.3058601 0.055690877 0.112213776 -0.24913798 0.19646244 0.0063038003 0.034703232 0.07251806 -0.019584375 -0.22419351 0.2059833 -0.28472203 -0.42020583 0.060025122 -0.105065815 -0.10949166 -0.014466219 -0.10406126 0.003147752 -0.13757308 -0.076263234 -0.06616712 0.02378887 -0.06280448
21 -0.016515072 -0.02941215 0.22161444 0.07691486 -0.44961277 0.12641382 0.014791685 -0.24600169 0.15767196 -0.049812645 -0.20708185 -0.18317987 -0.08128097 -0.23593901 0.09082706 0.065851085 -0.00030664983 0.22021204 -0.037496462 0.13109644 -0.071049735 -0.25561106 -0.010977849 0.07907069 -0.0471694 0.02331527 0.014748904 0.08712266 0.35266623 -0.015536282 0.111510746 -0.24891032 0.38405803 0.17729764 0.025929987 -0.10035823 0.08407124 -0.30360395 0.06300028 0.33171928 0.04560948 0.22707069 -0.08567795 0.24268079 0.3860386 0.34362638 -0.004965085 0.21407859 -0.4189769 -0.075030446 -0.035270758 -0.023547359 -0.20202404 0.28302076 -0.025630793 0.039259076 -0.49047643 -0.042330388 0.47736278 0.22515501 0.19393194 0.13270186 0.04285903 -0.18494649 -0.14815417 -0.03069709 0.1441093 -0.646025 -0.08689572 0.018038915 -0.055988774 0.2514486 0.07422951 -0.06910584 -0.24829632 0.17515047 -0.40514287 -0.5304905 0.18962346 0.13093011 0.40764433 0.06461796 -0.28453344 -0.039188422 0.12346101 -0.09793445 -0.14639448 -0.068154186 -0.09074008 -0.38937056 -0.17733127 -0.24838963 -0.198762 0.03795905 0.38411367 0.29125765 0.29603356 -0.24565326 0.10663365 -0.05401056 -0.17350975 0.0037919038 -0.33699533 0.0036768063 -0.19530533 -0.032954432 0.055300474 -0.213567 -0.14429887 -0.22633596 0.11121832 0.23538592 0.32612106 0.17177719 0.30122718 0.28137976 -0.021168536 -0.31055132 0.21506599 -0.19159223 0.082061775 0.17693518 0.4329345 0.027899496 0.18350443 -0.17827487 -0.48450863 -0.09155363
496 -0.22189431 -0.35403225 0.2112073 -0.21154627 -0.15514493 0.113320984 -0.044221234 -0.20221314 0.25025386 0.3511113 -0.037828654 -0.061757322 0.005261941 -0.15111114 -0.22386214 -0.32236385 0.26385066 0.20942424 -0.24272624 -0.26017192 0.14296252 -0.26943985 -0.19267337 0.04732635 -0.036538474 0.17550042 0.09426654 -0.09361587 0.023415541 0.29938757 0.048013803 -0.48549584 0.32782084 0.30524874 -0.066390246 -0.20123345 -0.01200501 -0.24854247 0.28198943 0.014069477 0.14716905 0.13327545 0.06934212 0.02654184 -0.08692634 0.13379845 -0.46533966 -0.24305984 -0.18495701 -0.18037137 0.098827 0.14612295 -0.15970117 0.012717698 -0.0106968945 0.14188583 0.13894327 0.1417405 -0.075973734 0.17353922 -0.10246286 -0.011447288 0.20291959 -0.14859113 0.06550321 0.39296222 0.25629923 0.116684325 0.11030954 0.024558134 -0.043458927 0.062019013 -0.42908263 0.1362624 -0.14608575 0.34575978 -0.08136145 0.02710891 0.1203665 0.17665337 0.18577051 -0.12823868 -0.08467886 -0.1691169 -0.072844505 -0.51507485 -0.017619736 -0.24116486 -0.33588567 0.10296269 0.042241637 0.10479951 -0.24531262 0.512919 0.14961694 0.28233683 0.2561658 0.09561417 0.0984044 0.6842991 -0.08776017 0.046307832 -0.26031005 -0.443632 -0.10639621 -0.078265525 -0.035283685 0.2276312 0.14759594 0.20092162 -0.027058296 0.16295628 0.1655418 0.44914192 0.6051654 0.16327965 0.38949797 -0.061886165 -0.14007881 -0.06746416 -0.009591092 0.29202092 -0.10584723 0.176531 -0.38271016 0.14540753 -0.5683999 -0.12519239
260 0.08622945 -0.08149986 -0.19890472 -0.08435211 -0.13365626 0.034374148 0.002515575 -0.09660218 -0.13624965 0.1028885 -0.08830943 -0.08075881 -0.017300576 -0.16905114 0.0061725923 -0.24101469 -0.3861705 -0.11748516 0.12976292 0.16646788 -0.2377997 -0.27575603 0.29879236 -0.005193578 -0.0732681 -0.052636165 0.27643514 0.2829949 -0.031810958 -0.04510914 0.05226943 -0.039655067 0.035020318 0.13201903 -0.2316771 -0.061115645 -0.1423676 -0.14490694 0.4002742 -0.20437823 0.24563047 -0.03820609 -0.057777785 0.016925808 -0.028628059 0.07482978 -0.05705703 0.26775783 -0.015194963 0.1310095 0.17120479 0.08063661 -0.20823261 0.3374634 -0.060666326 0.047798775 -0.22377954 0.18970056 0.37478483 -0.045358237 -0.16535227 0.13720001 0.012693419 -0.09593392 -0.091538906 -0.071156316 -0.24209727 0.1631169 -0.26139587 0.08619522 -0.097564995 -0.06574325 0.29281816 -0.100628145 -0.08223577 -0.0059654517 0.19557063 -0.23316596 -0.13751152 -0.24843597 0.034899496 -0.0011685962 0.06439217 -0.18764313 0.121349886 -0.1334648 0.23577653 -0.22490887 -0.09224726 0.12356163 -0.04607725 0.05413706 0.09837985 -0.0118309995 0.09849689 -0.000336809 0.2591308 0.0012005799 -0.23393321 -0.1522535 -0.00014759434 -0.22575359 -0.0879346 -0.24420655 -0.14029703 0.01396631 0.31601465 0.036054544 0.012896211 0.026557753 -0.09111692 0.2474039 -0.13352229 -0.15747496 0.1624649 -0.11946104 -0.16459481 0.30729967 0.021841614 -0.17867927 -0.06461756 -0.0056668003 -0.124153495 -0.19300702 -0.123413205 -0.2671261 -0.16065527 0.3741869
