3509 100
635 0.17014746 0.07037293 -0.00072588876 -0.11464819 -0.045274764 0.12071757 -0.034370337 0.008062474 0.14322405 -0.012235358 -0.13891065 0.22373351 -0.032823402 0.04581434 -0.117800385 -0.029505976 -0.02355521 -0.2895216 0.057055496 -0.00015813868 0.041175142 -0.010982693 -0.06079856 0.02475321 -0.19425696 0.11847696 0.061313123 -0.05175249 -0.10602139 0.13316905 -0.047225233 -0.084994785 -0.19825643 0.034220632 0.09823421 -0.0011094842 0.13867876 0.16705652 -0.17664996 -0.04097128 0.11230409 0.006305796 0.12822007 0.041042186 -0.07443182 0.1819157 -0.0024343866 -0.0647374 -0.20569025 -0.0029191189 -0.13781336 0.038766585 -0.24356689 -0.003913945 0.086541936 -0.14695817 -0.053375598 0.20628007 -0.022070035 0.013926298 0.040279698 -0.12552632 -0.17185323 -0.075837016 -0.046168223 -0.0626294 -0.039307036 -0.13576761 -0.14034292 0.059233338 -0.04296103 -0.09300931 -0.11722719 -0.16187891 0.25313762 0.055072743 0.010193233 0.13839224 0.10888828 -0.2512794 -0.15424855 -0.05682342 -0.04782808 0.07347984 -0.2507527 0.04296338 0.007789053 -0.054177575 0.04630672 0.1108559 -0.005417944 -0.078202605 -0.28447115 0.16520855 0.04909157 0.12641507 0.16134769 0.038281698 0.0387442 -0.01275926
715 0.074354 0.004705518 -0.2734399 0.17426978 0.27032176 0.185383 -0.071865655 0.04591202 0.027595311 0.027399737 0.08676197 0.276424 -0.48155946 -0.21929973 0.11495977 -0.01169707 -0.15351398 -0.1443335 0.18402587 0.22632228 0.07237278 -0.10355479 0.29873314 0.2132303 -0.30460763 0.118754 0.50682694 -0.008317318 0.20302168 -0.18412583 0.10223577 -0.0699335 -0.30624357 0.18081135 -0.30994403 0.02264751 0.17977908 0.025669688 0.06799838 0.16699636 -0.0061024735 0.4608061 -0.12932484 0.067384884 -0.09123892 -0.04979318 0.14366554 -0.4802727 -0.046149474 0.26606846 0.14960998 0.111523576 -0.009816442 -0.47723436 0.23946983 0.0937199 0.065399684 -0.0046522045 0.09224196 -0.18112385 0.08274543 0.011436264 0.10243438 -0.14709201 -0.17267004 -0.2197568 -0.022759434 -0.02850854 -0.24467246 0.35187903 0.20750737 0.2476899 -0.085914336 -0.10327155 0.15919797 0.0004024389 0.009438135 -0.1190783 0.08785023 -0.037113264 0.22724813 -0.29297015 -0.3171094 -0.19905905 -0.05815495 0.14448087 -0.021179741 -0.09866594 0.23443158 -0.19794625 -0.00682038 -0.08983367 -0.0035087748 0.28131136 -0.095794 -0.071883075 0.18123749 0.100166574 -0.048393503 -0.08652694
2804 0.0746506 0.1474697 0.0886129 -0.03447866 -0.023930332 0.018375272 0.11627615 -0.053839963 0.22252753 -0.20142816 -0.10060602 0.34436768 -0.3933278 -0.12776019 0.1501584 0.21110648 0.01124561 0.13697867 -0.106050484 0.09941348 0.20907961 0.0717055 -0.006114629 0.13049509 -0.21568298 -0.31086642 0.35522893 -0.23053166 0.21616325 -0.23654959 0.316453 -0.19630274 -0.19243762 0.38904148 0.21224934 0.3076519 0.31604505 -0.20589699 -0.46741953 0.026325824 -0.04704711 -0.016893595 -0.15881145 -0.24620374 -0.43470228 0.21067253 0.26432362 0.20503215 0.04400789 0.37441367 -0.23756425 -0.027946591 -0.05196065 -0.5237823 -0.278673 -0.2607424 0.16792993 0.057253756 -0.1410113 -0.109722935 0.046934184 -0.32387862 -0.4005777 0.09705485 0.1423467 -0.023769222 -0.19575383 0.30452588 0.07100456 0.24137372 -0.17210871 0.2487224 -0.45583987 -0.15035196 0.19358228 0.015515081 0.019064605 0.12758282 -0.02417886 0.036669116 -0.024004785 0.2184886 -0.0222398 -0.00459256 0.07785021 0.37225407 0.26616618 0.24914573 0.38989803 0.16454081 0.146531 -0.08109471 -0.06825919 0.27519494 -0.12739107 0.08751667 0.15886486 -0.16473888 0.08371613 -0.06838814
1408 0.2968417 0.4447668 -0.39504415 -0.2591584 0.08135036 0.07282757 -0.0752396 -0.3554586 -0.07660353 -0.10982331 -0.41680682 -0.62445253 -0.19374242 0.36297747 -0.11529619 0.06457325 -0.2918755 0.44184875 -0.7862627 -0.2483158 0.14980438 -0.21119954 0.39287248 -0.06958404 -0.60035443 -0.42940655 0.104630746 -0.15305229 0.23494942 0.044602696 -0.22422206 -0.2255673 -0.4718526 -0.044628594 -0.5291032 0.20990147 0.77777684 0.4283359 -0.46768296 -0.00845358 -0.25973484 -0.73880255 -0.31169826 0.6556548 0.64507586 0.18774113 0.15058242 -0.5792126 -0.4829634 0.19585781 0.5863744 -0.23866789 -0.009858363 0.026588978 -0.3823989 -0.4943698 -0.21059377 0.26787734 -0.601183 0.33196074 -0.25193638 -0.3590353 0.0822746 -0.22435057 -0.40326625 0.25523204 0.44724312 -0.10229235 -0.27199727 0.3035341 0.27289295 0.40023276 -0.34370568 -0.16747627 -0.26712862 0.645057 -0.09737064 0.044282977 0.91336703 -0.3274543 0.33544585 -0.2791996 0.26297295 0.014154195 -0.4555548 0.14575188 0.06409549 0.33058342 -0.17085895 -0.40485618 -0.27749297 0.48312172 -0.020439608 0.2993543 0.27015516 -0.1378334 -0.28330696 0.56137776 0.3215239 -0.15620773
813 0.14138864 0.29033256 0.053164605 -0.52228403 -0.009572181 0.09955673 0.108578004 0.03405911 0.2924381 0.123712674 -0.01609661 -0.09209803 -0.26973978 -0.13004102 0.37920538 0.36442965 -0.09291475 0.31889296 0.27141485 0.093134075 -0.09517107 -0.010749482 0.007397148 0.23604274 -0.17540352 -0.025523549 -0.1432583 -0.0152885355 0.11972597 -0.030035058 0.111718014 -0.16453551 0.13251695 0.46521696 0.012159986 0.0012320895 0.20701365 -0.1923958 -0.08544395 0.09838984 -0.17191218 0.18802468 -0.18151462 0.20823027 -0.15576066 0.2592812 0.066806 -0.26520264 -0.09784809 -0.19975866 -0.037977785 -0.1680746 -0.48085484 -0.07235408 0.10593543 -0.030066006 0.05602037 0.09134024 -0.06448917 -0.14333068 -0.18697844 0.1325 -0.345449 -0.284313 -0.18544997 -0.14289057 -0.33367115 -0.013170161 -0.27558833 0.3083578 -0.054716125 0.08293677 0.03994118 -0.21093255 0.044003714 0.15846746 0.11980776 0.048963524 0.1799789 0.1551027 -0.09147375 -0.1682285 0.0966754 0.26682797 0.08260837 0.054967575 -0.44736323 0.0052913935 0.14079402 0.19949825 0.1784165 -0.05049037 0.10171894 0.5114426 -0.08243671 0.22731873 -0.004160488 -0.058707803 0.12605259 0.36070994
3401 0.2818251 0.013496039 -0.22664914 -0.011910284 -0.14731914 0.20549347 0.029220631 -0.16536584 -0.037045494 -0.14603254 -0.32799414 -0.048777442 -0.06756077 0.058531824 -0.043740127 -0.1413669 0.06652734 0.05593958 -0.21205808 -0.03454937 0.2566824 -0.05069483 0.17961915 0.41904104 -0.37583667 -0.1549563 0.14421459 -0.047501132 -0.000599575 0.032934673 0.15654685 -0.36652875 -0.5429193 0.38925406 0.095071375 0.28856707 0.1955467 0.060333386 -0.35258895 -0.051416084 0.08263655 0.21504644 -0.11542116 0.11661085 -0.0705075 -0.13927442 -0.045233984 -0.0677265 0.3529061 -0.30021948 -0.06502144 0.12007207 -0.29184672 -0.5150458 0.054915156 -0.015345254 -0.12698431 0.43094832 0.28276688 0.0056337067 -0.20558737 -0.2132348 0.11218371 0.06931983 -0.0687517 0.21832718 0.024784725 -0.59177643 -0.22115217 -0.12785295 0.23694307 -0.011165292 -0.0130100595 -0.0657705 0.36752382 0.07617118 0.22228952 -0.103131734 -0.13625018 0.31291723 0.082973756 0.22162369 0.18835756 0.13387047 0.06759822 0.1916307 0.076305635 -0.16089621 -0.036468174 0.1497499 0.08318072 -0.24714945 -0.037128333 0.18420534 -0.20611623 0.42675248 0.26367456 -0.2184651 0.046249427 0.08817684
1156 0.1649967 -0.15862283 -0.041530535 -0.09693234 0.07923996 -0.03184215 -0.3061797 -0.119222105 0.10130702 0.22824748 -0.3041246 -0.058056314 0.036801826 0.040325917 0.107622996 -0.08871584 -0.03509985 0.17906436 0.2624355 0.11857682 0.12293334 -0.0024770533 0.3237833 0.5012505 -0.3741775 -0.15342721 0.069090255 -0.0023752418 -0.10692914 0.12183397 0.32321712 0.068466045 -0.038717706 0.044593167 0.22831088 -0.07005516 0.21454862 0.19366789 -0.31746125 0.004630618 0.31197917 0.1372612 -0.0723356 0.0044147205 0.0358353 -0.17640536 -0.09836332 -0.034854252 -0.042986523 0.048424534 -0.020484846 0.10522298 -0.18587688 -0.45947084 -0.06236747 -0.2552865 0.35023615 -0.068772644 -0.20734128 -0.032702286 -0.14904043 -0.15053947 -0.17144147 0.16182812 -0.18190269 -0.47755417 0.17609575 -0.057283647 0.13192405 0.11765906 -0.2773247 0.46263084 0.28513828 -0.120646 0.1044556 -0.20371485 -0.08346092 0.3733163 0.018554585 -0.02359293 -0.030269485 -0.3182914 -0.008504224 0.19646187 0.17367803 0.004510868 -0.2444898 0.32443988 0.04764265 0.014659926 -0.03951708 -0.05818458 0.1412303 0.3484584 0.05859343 0.18246938 0.20443602 -0.18210031 0.4355691 0.26707995
537 0.2557926 -0.044146817 -0.534824 0.4396207 -0.36015013 0.21518528 0.14129907 0.21729149 0.6609693 0.36374277 -0.020651298 0.4396018 0.16456965 -0.3981185 -0.21906221 0.32565972 0.10618826 -0.3121727 0.14563769 0.25119781 0.05426972 0.0037925972 0.19747263 -0.17130558 0.010669526 0.123866186 0.41197592 -0.06113409 0.064521946 -0.6392559 0.36672392 0.0076364665 -0.13082463 0.44153666 0.39931348 -0.049402654 0.61844957 0.6674549 -0.12449546 -0.3410524 0.02466786 -0.2822632 -0.08748912 -0.3380345 -0.023309529 0.09580922 -0.1754703 0.12692118 -0.24654184 0.13565575 0.3297185 0.6785991 0.14878555 -0.22222413 0.31196907 -0.66488343 0.14208335 -0.5053836 0.21901388 0.4189101 -0.24330452 -0.5414028 -0.024680778 -0.0123211 -0.09660366 -0.16463901 -0.16679358 0.0695 0.07420207 0.19777018 -0.2534395 -0.17296372 -0.24280375 0.1882135 0.10963803 0.22515388 -0.060253177 -0.2191747 0.24288066 -0.1351665 0.27166894 -0.5938649 0.2504667 0.43373138 -0.017992359 -0.14001979 0.09728779 0.32500583 -0.47876406 -0.24458143 0.54806155 -0.16669707 0.050288178 0.34491435 -0.22668391 0.46886498 0.048172425 -0.10229006 -0.26574987 0.3070021
291 -0.14929646 0.009142739 0.04271966 -0.17638272 -0.008697045 0.03661625 -0.33309478 -0.06340863 0.16405837 0.02165738 -0.11321795 -0.23536341 -0.02386184 -0.30866098 0.015686247 0.33176067 0.028440682 0.14773104 -0.35611674 0.11896527 -0.15662691 0.031799514 0.045570757 -0.05456738 -0.023176715 0.18727066 -0.03113322 -0.33082962 0.21182963 -0.35291412 0.032258112 -0.3341918 -0.20696828 0.21237348 0.12072693 0.061899796 0.124370664 0.21262076 0.025997529 -0.0737574 0.010073052 0.3608985 -0.12919319 0.11664868 -0.1575134 -0.11904269 0.22593217 -0.12542981 -0.3965106 -0.19238475 -0.07366439 0.30985054 -0.12774381 -0.47703376 -0.049111333 0.022854885 -0.07780232 -0.15919447 0.045351565 -0.4224838 -0.049709458 -0.043451708 -0.27781537 0.29950568 -0.11333391 -0.046255868 0.085228056 -0.12345933 -0.018044151 0.0334575 -0.122844644 0.10094566 0.015013633 -0.46721256 -0.16226839 0.04825165 -0.1439362 -0.15210012 -0.06557921 -0.1427066 -0.047405083 0.04248849 0.1655954 0.012364544 0.28021374 0.13630363 0.02514346 0.04263698 -0.047122993 0.0652567 -0.027064513 -0.06959189 0.008945306 -0.07482659 0.10488258 0.4349387 0.18841238 0.25395328 0.43131056 0.4702274
1587 -0.35083818 0.0446459 0.12150073 -0.14497615 0.12806328 0.250513 -0.3397413 0.060610853 0.11258671 0.1829913 -0.039204292 0.0017307225 0.10479077 -0.21200669 0.1715606 0.2820241 0.057619806 0.18377438 -0.53914243 0.17596832 -0.18743572 -0.055081736 0.00904334 0.3888975 -0.11015066 -0.05443944 0.17259096 -0.17518061 0.32327893 -0.12809992 0.28444222 -0.13948569 -0.2413033 -0.077544644 -0.0913948 0.1453382 0.04394967 0.27071387 0.04068862 -0.42239994 -0.1540982 0.42680323 -0.10656345 0.26609483 -0.03484126 -0.13894394 0.22029147 -0.005868102 -0.6084333 -0.20727803 -0.220836 0.041668795 -0.21076167 -0.32032013 -0.42446443 -0.24054544 -0.031944368 -0.07741522 -0.3401289 -0.05578472 0.06927167 0.042414326 -0.14985514 0.035680097 -0.13127081 -0.39486697 -0.21056217 0.029445974 0.025963176 0.0681766 -0.03748481 -0.055692773 -0.14851728 -0.112081684 0.2249388 -0.11041885 0.08315568 -0.10739015 -0.077745095 0.11057712 0.010622586 -0.10404284 0.03963465 0.13678065 -0.077764615 -0.06323643 -0.062218446 -0.22944671 0.1631348 -0.11337316 0.19698642 -0.22932383 -0.06148788 0.059709128 0.25316936 0.19924459 0.337251 -0.14727657 -0.04625423 0.23564033
432 0.10138373 0.17100754 -0.7527936 -0.42386374 -0.08730929 1.0284383 0.06779413 -0.12345577 -0.13661548 -1.0590602 0.22925279 -0.26845375 -0.54292 -0.5166393 0.037843104 -0.05129075 0.3977092 -0.57704884 -0.23510496 0.33202255 1.1526778 -0.091434434 0.00545413 0.83279794 0.14853653 0.0034240375 -0.11777392 -0.23248735 0.13104646 -0.30077106 0.06315132 0.15324377 -0.26036775 0.08765116 0.7332907 0.44687086 0.10009627 -0.009911968 -0.5528272 0.35392165 -0.41960657 0.29961836 -0.093990296 0.39554688 -0.053929705 -0.34038404 0.55262125 0.9898971 -1.0304312 0.23644581 0.45070332 0.0458427 -0.2209135 -0.80125314 -0.6059665 0.41347244 0.09437939 -0.18346322 -0.38525814 -0.47903892 -0.36880854 -0.2147993 0.4480116 -0.09483316 0.097508885 0.87620115 0.5263866 0.69951886 0.2709629 0.4049004 0.3747578 0.1626627 -0.33557945 -0.62487406 0.34668583 0.43803596 0.21029535 0.54120624 0.12410804 -0.39807513 0.2611463 0.32516202 0.34937993 0.097380675 -0.6043605 -0.25774848 -0.42182603 0.5043412 -0.05126929 0.18243268 -0.33416024 0.22529458 0.08495361 1.3208481 -0.9377039 0.65223247 -0.5940449 -0.53038925 -0.23100284 -0.16882896
1293 -0.09351733 0.012958653 -0.18877302 -0.23162363 -0.15322122 0.29071516 -0.09505293 -0.30821037 -0.0064770686 -0.09119252 0.065635525 0.49493286 -0.018893773 -0.2733861 0.37419796 -0.16021028 -0.43141586 -0.030965375 -0.29354262 0.009509911 -0.41711113 -0.07426915 0.22445913 0.2733683 -0.29070425 0.06594412 0.23004498 0.13957563 0.13584603 0.048986815 0.072821 -0.31124967 -0.630121 0.2594257 -0.10176573 -0.13878499 -0.12149679 -0.27377325 0.05434389 -0.2902484 0.22281592 0.035871707 0.019889256 -0.10789979 -0.14817634 -0.19502482 -0.07313472 0.23388684 0.11498196 -0.26257306 0.012223076 0.07922761 0.025500175 0.11059603 -0.21480836 -0.18468437 0.31995842 -0.21931683 -0.14323467 -0.014529059 -0.17015247 -0.045586288 -0.15140875 -0.04752713 -0.17197454 -0.18823716 -0.0101171145 0.29184613 -0.39730173 0.28606567 -0.45696014 0.2538118 -0.27129254 -0.23747681 0.26009127 0.1520603 -0.0262939 0.15590197 0.3471276 -0.4022753 -0.25969028 -0.11187872 0.034716465 0.4181638 -0.19987239 0.027670266 -0.33126077 -0.04023935 0.05887652 0.01155958 -0.042348467 -0.2199273 0.1416845 0.0048096753 0.28479207 -0.24639384 0.17157516 0.026407996 0.21504039 0.42529842
21 -0.16161135 -0.3444031 -0.6070039 -0.067629196 -0.07750815 0.068949066 -0.58340687 0.159173 -0.4047395 -0.023689622 -0.123842575 0.13694859 0.22839996 0.35951975 -0.23111357 0.17950648 0.016788611 -0.24190632 0.07483972 0.59881026 0.0793875 -0.38340607 -0.05619965 -0.18640402 -0.24246521 0.2253637 -0.24679147 -0.17554222 -0.32545254 -0.37374452 0.07550029 -0.3702527 -0.17758536 0.35466117 -0.15616827 0.1252039 0.24916446 0.1823104 0.02267426 -0.24698976 0.17938359 0.25799847 -0.09156486 -0.0850293 0.47490886 -0.17504148 0.034336053 -0.5725008 0.14183128 0.02738354 -0.16849454 -0.06871876 -0.47806245 -0.32489842 -0.36059296 0.1494566 0.0677623 0.1929808 0.050522987 0.097817495 -0.2930441 0.33489743 -0.093665145 0.04083437 0.02792841 -0.102434725 0.08150513 0.2992235 -0.011513921 -0.19784103 -0.4154174 0.11772125 -0.7016828 0.39773107 -0.08704185 0.3493282 0.4533196 0.23305544 0.2552223 0.36218667 -0.32890573 0.0012588516 0.10427673 0.26416627 0.07278982 0.24137577 -0.35418263 -0.19593368 0.28905386 -0.120065115 0.23937497 0.046323348 -0.033871677 0.473434 0.17837265 0.14040612 0.005222894 0.21610342 0.204931 0.24716628
293 0.09950758 0.14632897 0.034322962 -0.058243755 -0.12287026 0.01793539 -0.028523296 -0.019811317 -0.27032846 -0.20386235 -0.079159014 -0.26676786 0.12320194 -0.23933823 0.048189256 -0.009755488 -0.023487834 -0.3034492 -0.013203415 -0.06715996 0.114254355 -0.22974607 0.07346838 -0.19397262 -0.41081026 -0.11444727 0.17976157 0.19215937 -0.13424349 -0.06142981 0.41958964 0.080651194 -0.111757636 0.40798056 0.12404656 0.345081 -0.0065140887 0.34076315 -0.08690883 -0.18319587 -0.035449155 -0.039350472 -0.25992775 0.30741632 -0.3112839 0.40518594 0.04384046 0.14447398 -0.13207187 0.0037449333 0.5705513 0.585384 -0.010672734 -0.19585417 -0.14099003 0.1822308 -0.5227575 -0.027381657 0.35296673 -0.30068782 -0.30475163 0.34682295 0.18525381 0.3198583 -0.1571792 -0.460206 -0.04724326 0.14132167 -0.21677546 0.38204843 0.022783155 0.6227435 -0.026175886 -0.10380918 -0.032577597 0.03277659 -0.21222188 -0.40811175 -0.18743862 -0.05040232 -0.392611 -0.26514092 0.21081726 0.027824564 0.32804254 -0.26992506 0.042817663 0.23096523 0.04746724 -0.0017300864 -0.016806949 0.197533 -0.0288317 0.2614751 0.15164517 0.040003154 0.18943575 -0.1010607 0.4111652 0.107498765
753 0.030162243 0.1786624 0.08213646 0.015323676 -0.09556461 0.12739277 -0.59334546 0.27540255 0.18394347 0.025883105 -0.46022442 0.18202932 -0.35394114 0.0973466 0.036905855 0.29412672 0.2439303 0.115104325 0.07659837 0.067146845 -0.71756965 0.4042399 0.07111863 -0.28121623 0.2512952 0.2131269 0.13617863 0.024366904 0.08291383 0.26249185 0.34214675 -0.17668815 -0.3261695 -0.2264194 0.11354852 -0.2645945 0.037510544 0.44729015 -0.68786293 -0.4075229 0.086572915 0.5775498 0.42374292 0.35419655 -0.22342597 0.28309965 -0.6205935 -0.42727232 -0.21051943 0.5618315 0.47894558 0.05298826 -0.0002926445 -0.278086 0.07165419 -0.19468223 -0.6535618 0.07954327 -0.077546544 -0.007877183 -0.2144068 -0.5918126 -0.24113436 0.3302699 -0.054209538 0.0027519518 0.5244898 -0.245359 0.059541166 0.06095328 0.13104968 0.35526666 -0.1139566 -0.18693627 0.02284216 -0.0049357666 0.12408689 0.65236795 -0.002805477 0.07476807 -0.08928789 0.37028083 -0.11744348 0.33081374 -0.2642375 -0.03435515 -0.206031 0.2562701 -0.100182824 0.15357645 -0.15788871 -0.6429531 0.28023955 0.6273715 -0.11141269 -0.3075205 -0.06649747 0.36189085 0.58837926 0.65277994
177 0.24946874 0.10009282 0.4367503 0.38313514 0.425774 0.36239475 0.30437148 0.22751816 -0.28456047 -0.24823889 0.047080617 -0.27648318 0.20421451 -0.3914793 0.05479698 -0.15462002 -0.5882939 -0.5287102 0.10271439 0.17528056 -0.3136876 -0.44118977 -0.13763604 0.18033218 -0.1893123 0.009068391 0.14107046 0.068227 0.47223392 0.07075092 0.10606103 -0.4024165 -0.25443587 0.114114575 1.0255965 -0.14417541 0.025841143 -0.56894666 -0.6023521 0.06445126 -0.11640605 0.12251647 0.2616201 0.3818202 0.7537252 -0.20846784 -0.5643441 -0.11176071 -0.11206112 0.0043095504 -0.31125858 0.77752376 0.11160986 -0.31578216 -0.26180783 -0.6307911 -0.024840157 -0.2175346 0.06535462 0.2721768 -0.34486791 -0.06606438 -0.17944665 -0.55330557 -0.24572255 -0.018066803 -0.26623216 0.19010009 -0.80457574 0.07051399 -0.2839857 0.005185479 -0.44485268 -0.22691846 0.36221543 -0.02613967 0.03240339 -0.4376018 0.4604515 -0.5996213 -0.17854325 0.031117357 0.04865587 -0.22670156 0.19738425 -0.35448772 0.10553126 -0.23875487 0.21396002 0.10315739 -0.15283018 -0.35876632 0.5671419 0.16270778 0.108415276 -0.024322849 -0.29840747 0.37767184 0.6633822 -0.15310496
662 -0.108143024 0.26755005 -0.25359166 -0.051373858 -0.14670229 0.090499885 0.23721482 -0.37125412 0.012361018 0.089601636 0.26733005 0.38590768 0.15172762 -0.15722144 0.5535525 0.13661738 -0.1641446 0.07818361 -0.44565976 0.073163316 0.060108244 -0.09413788 -0.20267174 0.07707636 -0.39341253 0.06714379 0.29489455 0.14093657 0.14052838 -0.034725558 0.6958036 -0.14442158 -0.589663 -0.38584152 -0.014681671 0.009201557 0.047980208 0.021822875 -0.27532557 0.01852519 0.36122167 0.049872983 0.0601332 0.24621165 0.30974874 0.25692466 0.4579545 0.00936709 -0.121080935 -0.20194155 0.0041245944 -0.04926928 0.11367316 -0.09018303 -0.22786978 0.30801222 0.22638686 0.06630258 -0.09007131 0.059392635 -0.17692384 -0.034999892 -0.24791689 -0.06535494 -0.030121515 -0.06927241 0.12586807 -0.03315199 -0.2923323 0.5895504 -0.7169834 -0.29942113 -0.47014374 -0.09524082 0.21500406 -0.2330776 0.24606584 -0.07562972 0.2600923 -0.19325618 -0.15396978 0.24376081 -0.11523595 0.44933656 0.028298968 -0.04100904 0.23067488 0.30476952 0.40684903 -0.18646853 -0.26763955 -0.51971966 -0.096283086 -0.11385614 0.07006652 -0.07343717 -0.12173677 -0.22443406 0.04008931 0.5238737
1541 0.41420954 -0.37385452 0.0696035 0.1484503 -0.19524144 0.36275676 -0.27860594 -0.0045530647 0.27737933 -0.2844048 -0.29277718 -0.4318798 -0.17649443 0.071649455 -0.008261609 -0.16349219 0.32212588 -0.15405306 -0.06678713 -0.24596836 0.11481449 -0.09316288 -0.3694414 0.20780848 0.10253488 0.41827363 0.15712656 0.07155735 0.37687033 0.27100492 0.036647525 0.22850946 -0.8063376 0.27970183 -0.089578755 0.2505755 0.37836233 0.11946029 -0.23041426 -0.14451927 0.27297184 -0.20032844 -0.044617422 0.61738205 -0.21469998 -0.0377476 0.09325952 -0.2578615 -0.026798422 -0.2659287 -0.2242385 -0.17970058 -0.33440882 -0.09473608 0.10723307 -0.11123053 0.29164702 -0.15531681 -0.029018855 0.14510438 0.38159388 0.10579013 0.0013383428 -0.00430114 -0.33363295 0.20838495 -0.14615165 0.118216984 -0.104018845 0.2253469 -0.16371737 0.108704224 -0.1753844 -0.015858902 0.02073276 -0.061451875 0.36037964 -0.08817812 0.115656674 0.21596774 0.004326661 -0.055054076 -0.2028474 -0.0030020052 0.44091213 -0.19130255 -0.142609 0.22099973 -0.01666371 0.31317842 0.69880635 -0.21918882 0.14790729 -0.03794979 0.09267145 0.36087438 -0.22617872 0.07536298 0.050533034 0.21141374
876 0.8509502 -0.15173683 -0.766172 -0.91582805 0.75670457 0.46531337 -0.06846442 -0.11243535 0.2064226 -0.531225 -0.07198433 -0.6929039 0.27281058 -0.98686713 0.7727905 0.08553499 -0.5111725 0.51203465 0.06853347 -0.31453463 -0.28130558 0.49040034 -0.28908923 0.7345334 -0.14280273 -0.5379455 -0.17628406 -0.35106784 -0.7975206 -0.04539694 -0.023181105 -0.44366682 -0.06864398 -0.23827714 -0.52465457 0.45399472 0.6104338 -0.5029966 -0.21648191 0.22163762 -0.48244673 -0.1936966 -0.34244245 0.3841707 0.2753737 0.53795457 -0.011255125 -0.08964953 -1.4830186 0.21766262 -0.30862573 -0.23350073 -0.2725491 0.24575998 -0.21640663 -0.26402682 0.13043228 0.20071803 0.4303056 -0.36676806 -0.2915914 -0.5247869 0.12474943 -0.5001302 -0.155695 -0.06386334 -0.32086328 -0.08995105 -0.32652134 0.45933923 0.57242453 0.24050498 -0.11725063 -0.2670781 -0.40333226 0.5722388 0.32912692 -0.09433869 0.6727957 0.61658525 -0.35660803 0.010166281 0.31138366 0.0408653 0.5511159 0.17627059 -0.70405596 0.1618447 -0.09418683 -0.19990267 -0.00027974692 -0.26432306 0.4911615 1.2951634 -0.51708883 0.5056402 -0.40954953 -0.19846006 0.12606758 0.15350947
1341 0.27496934 -0.12111468 -0.22130068 -0.15561037 0.102253646 -0.3624157 -0.28650936 0.1897577 -0.30518848 -0.42549658 0.3299148 -0.36492723 0.011909642 0.19645664 0.29186526 -0.27544096 -0.38089836 -0.30228484 -0.14182088 -0.34617826 0.14152204 0.14787123 0.11177742 0.014739093 0.058071014 0.34434974 0.68020004 0.3339308 0.09466584 -0.0677978 0.11871175 -0.07906463 -0.2419606 0.7750332 0.05203502 0.39662388 -0.24782926 -0.07786763 0.115533546 -0.1460741 -0.37390924 -0.32280242 -0.099914454 0.46815157 0.083119236 0.4588659 0.099375725 0.13999668 -0.6415623 0.33245635 0.16997291 0.49714017 0.058022585 -0.3964185 -0.7928964 0.21733071 -0.22674601 -0.14252526 0.172122 0.014845698 -0.35976982 -0.130712 0.4192137 0.2519916 -0.2794178 -0.30069622 0.08117277 -0.27865797 -0.01723364 0.30048233 -0.05441856 0.474275 0.49005163 0.018871093 0.4366957 0.5221432 0.23490244 0.080711305 0.17135961 -0.22170104 -0.60064757 0.0023925756 -0.20372345 -0.27256507 0.34567252 -0.11672556 0.26621115 0.5963226 -0.01963499 -0.34430504 0.32849455 0.1300118 -0.3907641 0.6060255 -0.5600682 0.097654745 0.19433543 0.5283322 -0.32373005 -0.24967207
105 -0.07478386 -0.28744194 -0.30177608 0.21040878 -0.112220906 0.19615337 -0.4541037 0.2757346 0.41794664 -0.2851493 -0.39230075 -0.43515193 0.06402141 -0.19080712 0.24846551 -0.028381204 0.06413145 -0.5096357 -0.07902526 -0.3982214 0.24255699 -0.16591078 0.29605633 -0.15888025 -0.005514212 0.51226705 0.15628725 0.11180885 0.12453492 0.21916556 0.2654155 -0.20000911 -0.23784065 0.11334551 0.18720457 -0.09761838 0.20176148 0.37634853 -0.2852394 -0.055972155 0.45506898 -0.56201667 0.13529254 0.5152806 -0.13795817 0.062102288 0.06767905 -0.25580093 -0.4136334 -0.21592209 0.11962535 0.0061011035 -0.12521201 -0.29712364 0.09457381 -0.035441004 0.04506277 0.3109883 -0.2330989 0.24998108 0.39775348 -0.068736695 0.07287007 -0.29884672 0.07549021 0.49096474 -0.18839064 0.18987116 -0.038780652 -0.22548425 -0.08755143 0.387837 -0.24781403 0.30381733 0.115586974 0.38988882 0.10511984 -0.0748697 0.2130209 -0.09205639 -0.20202568 -0.16789658 -0.23150897 0.021144373 0.29297972 0.047533475 -0.26761153 -0.2807837 0.39245704 0.27137777 0.4813266 -0.008845572 0.20648736 -0.2383643 -0.10992923 0.11459223 -0.15909295 -0.21586119 -0.22926676 0.34398022
499 0.26608208 -0.06208029 0.08801545 0.42700532 -0.043039747 0.29106557 -0.040652268 0.23954329 -0.028131554 -0.13043195 -0.4055358 0.14319018 0.13847992 -0.37205154 0.038664326 0.058012284 -0.33019477 -0.44142026 -0.41637117 0.29368544 -0.30834857 0.2056167 -0.060296383 -0.2183816 -0.27397138 -0.045526378 0.32879785 -0.022937775 0.4630831 0.050709262 0.08939777 -0.025859594 -0.40862486 0.12370103 0.7581028 0.12590802 -0.046708625 -0.5135405 0.050735753 0.25424585 -0.14788091 -0.033955786 0.08837981 0.065746434 0.6063787 -0.44408497 -0.5706808 -0.5516371 -0.49719155 -0.43799204 -0.36749452 -0.27690583 -0.15824717 -0.3481663 -0.034829307 0.33174497 -0.14163762 0.018070847 0.28304803 0.15456675 -0.11973791 -0.6670637 0.041361652 0.07086796 0.2168723 -0.06041594 0.48543823 0.0709125 -0.38258302 0.3476819 -0.27774248 0.29189664 -0.05791468 -0.15844077 0.29309192 -0.052970365 -0.37571225 -0.4361162 0.16359012 -0.19339335 -0.24112515 -0.07115348 0.31533113 0.035278633 0.10911391 0.091425724 -0.13340999 0.028928833 -0.20190091 0.55233765 0.014576089 -0.028234225 -0.027037391 0.15948693 -0.13490668 -0.20016152 -0.08702524 -0.165771 0.1528434 -0.12058273
274 0.29705626 -0.76245785 -0.002925633 -0.14512675 0.15612198 -0.21702783 -0.17569137 0.07694159 0.07672969 -0.61497474 -0.053097017 0.05978813 0.026381848 -0.14001942 -0.09814294 0.39504883 0.39257264 0.14667736 -0.091074966 0.33569047 0.107588865 -0.19979568 0.01727379 0.19699143 -0.27859932 -0.10519298 0.57815564 0.28355235 0.050001867 -0.36174124 0.09673072 -0.44734687 -0.46485266 0.15639247 0.15741754 -0.6443669 0.2648569 -0.014716161 -0.008432016 -0.36414158 0.46519223 0.2522862 0.2671987 -0.012040986 0.007168703 0.67921996 -0.52879906 0.03497932 -0.53186744 0.10245358 -0.21917461 -0.19463922 -0.5061617 -0.17442632 -0.30454388 -0.12575157 -0.29435375 0.30008346 -0.03846247 -0.21758515 -0.081321046 0.18270296 -0.043862995 -0.05731721 -0.31207603 -0.17520344 0.23784924 -0.01733291 0.23875846 0.26351133 -0.22179075 -0.12526459 -0.4069709 0.0915344 -0.42934588 0.09144914 -0.061869234 0.41387838 0.11801481 -0.3409343 0.38314852 0.07344681 0.025006974 0.3402996 0.15477212 0.6312148 0.03277649 -0.3602988 -0.3150204 0.20163159 -0.24014643 0.0050201197 -0.25549957 -0.019348294 -0.090072095 0.36024883 0.15545033 -0.3617346 0.004652204 -0.32232344
43 0.31030816 -0.14280687 -0.37829062 0.102095276 -0.30276394 -0.19740516 -0.38249058 0.18114416 -0.2575795 -0.32754618 -0.29401213 0.1385858 -0.10860684 -0.069555044 -0.513515 0.28309694 -0.36804307 0.2525022 0.004730941 -0.3920309 0.21849771 0.031280376 -0.30025992 -0.31350392 -0.12214407 0.17059039 0.08539667 -0.14150141 -0.27566296 -0.22674792 0.15687875 -0.5611598 0.2835795 0.5949089 0.098743126 -0.028205704 0.037383337 0.23386797 -0.054884095 -0.24362221 0.22858925 0.28808454 0.20680586 0.27337265 0.5204452 -0.31341088 -0.095357195 0.035629064 -0.30839834 -0.049939115 0.08171795 0.14951888 -0.27952838 0.09163829 -0.235037 0.09377892 0.24991441 0.19549571 0.1568704 0.18660927 0.19315724 0.05520178 -0.14017917 -0.13521801 -0.012275409 -0.27355215 0.29931173 0.0993718 -0.26143453 0.336166 -0.31639335 -0.024930986 -0.7613353 -0.009512631 -0.059076216 0.021737691 0.0312989 0.046727933 -0.2320971 0.19651802 0.17268834 -0.036999926 -0.16706648 -0.14421462 -0.25690696 -0.041417535 0.008948757 -0.31619063 0.41427797 -0.21034606 -0.0880904 0.33707994 -0.055733304 0.59302 -0.146303 0.23847972 -0.3686902 -0.13096566 0.3379761 -0.25678423
149 0.22250888 -0.5399408 -0.21586913 0.34487092 -0.22425821 0.33420423 -0.49249977 0.10437202 0.3624808 -0.035607908 -0.24600574 -0.5642285 0.099571265 -0.51857877 -0.036929384 -0.06746407 -0.08813024 -0.4186196 -0.05766338 -0.35220653 0.4757493 -0.15250921 -0.36736488 0.03401949 -0.09767697 0.3316069 -0.0068620243 0.0052919067 0.09062597 0.086586535 0.2220347 0.0106816515 -0.54476845 0.1401498 -0.08722915 0.29765412 0.4991421 0.30611336 -0.39382294 -0.048854038 0.08029514 -0.061778232 0.2003183 0.4066887 -0.1916852 -0.16861458 0.101923436 -0.0053392258 0.004927727 -0.22045408 -0.10847501 -0.1820606 -0.36156413 0.0066620894 -0.07102312 -0.23673654 0.08727757 0.17107475 -0.12945755 0.39075902 0.23467426 0.14664988 0.16357027 0.11540265 -0.03705896 0.28570756 -0.07973728 0.045377333 -0.39993414 0.028685404 0.15351135 0.27228063 -0.14048854 0.36885852 -0.05680268 0.19894265 0.2096142 0.009654972 0.2719094 0.19808583 -0.3916516 0.08863864 -0.4521424 0.26815373 0.56942844 0.5178382 -0.006860948 -0.18449938 0.38142714 0.15598543 0.4177475 -0.34114367 0.15052631 -0.036788058 -0.05066423 0.13481191 -0.18341798 -0.06741511 0.1851911 0.22045913
175 1.058575 -0.26299867 -0.28791586 0.13169101 -0.40854535 -0.36727145 0.42941275 0.7293574 -0.9670693 -0.49864408 -0.18517897 -0.19835843 -0.50066197 -1.5639309 -0.65295964 0.92164916 0.38452116 -0.5020296 -0.59288985 0.20872799 0.27228057 0.8193647 0.2309657 1.5202022 -0.81543547 0.28127712 0.33195487 -1.2829256 1.1614138 -0.4934893 -1.6131876 0.5749514 -0.45346993 0.08262144 0.7511735 0.2195528 0.6666981 1.2281784 0.55586076 -0.039133217 0.39676154 -0.3482091 -0.030754622 1.0720942 0.5198813 -0.14058772 -1.0635543 0.65261275 -1.6237638 -0.41837952 1.2994758 -0.25648388 -0.32610172 0.020523725 -0.6094381 -0.1307541 -0.23894495 0.08694784 -1.3431065 0.8410697 0.603205 0.384625 0.3976737 -0.8244507 0.49798012 -0.8595368 0.39772403 0.87734956 -0.20959695 0.8464419 0.1731319 0.8598648 0.16326708 -0.28370658 -0.51517385 0.5524395 0.6952381 0.014219446 0.9796544 -0.40565407 -0.42459327 -1.0263982 1.1816282 1.0422201 1.2380172 0.514876 -0.39521843 -0.8587574 -0.4883297 -1.0225594 0.055454314 -0.81452405 -0.20331404 0.44312978 -1.1197264 0.85987276 -0.9637156 -0.29424223 0.9084464 0.4248375
220 0.32701975 0.20537934 0.3105631 0.14705597 -0.23434378 0.5025194 0.023117779 0.2614973 -0.31559628 -0.23133516 -0.14477631 -0.22407584 0.16656701 -0.3082842 0.27138546 0.16991195 0.1094751 -0.08607353 0.0055559613 0.10934877 0.16458157 0.039443117 0.08185133 0.029348306 -0.3250638 -0.22694796 -0.0684087 -0.2533192 -0.35336888 -0.031324808 0.2805172 -0.0705406 -0.58712244 0.54783493 0.2042456 0.16351327 -0.04588741 0.28656906 0.20100808 -0.08334242 0.36815345 0.21077119 -0.105026774 0.21036324 -0.23181859 -0.21660894 0.16406238 -0.26409948 -0.438734 -0.07736444 -0.043739688 0.41494185 -0.10097875 -0.06316807 -0.044091098 -0.10645448 -0.29647493 0.30616394 0.23749243 -0.30340588 -0.667871 0.4895509 0.007425204 0.2853418 -0.012169854 -0.3583016 0.0651569 -0.23099148 -0.09182404 0.005537085 0.031937655 0.37343964 0.02092128 0.21529332 0.3870345 0.039393004 -0.66666466 -0.1435426 -0.19205488 -0.27682254 0.13789736 -0.16504931 0.23957968 -0.08867197 0.16475064 -0.28777266 -0.019753546 0.64883035 -0.28782856 0.19235504 -0.11170324 0.15439782 0.14402436 0.106211096 0.25593233 0.4365775 -0.35903224 -0.14981967 0.57700294 -0.12597935
34 -0.0014247615 0.18858588 -0.1738505 -0.12884694 -0.1733601 -0.082066484 -0.39619088 0.01540466 0.24956979 0.16647938 0.09567847 -0.23961839 -0.002392069 -0.06382722 -0.0016123976 0.15693162 0.20559567 -0.23527491 0.094459645 0.32487518 -0.2580743 -0.39285758 -0.18785723 0.21995746 -0.27697682 -0.10507786 0.29550803 0.08106816 -0.1199513 0.02638626 0.4437695 0.18452756 -0.43828374 0.29657853 -0.39056516 -0.038002536 0.16953413 0.008903661 -0.20977756 -0.113599986 0.019860353 0.23425004 -0.099249795 0.23840907 0.022670597 -0.3021944 0.020665733 -0.3787421 -0.25802 -0.19874628 0.047608543 0.03379469 -0.2742229 -0.22671847 -0.06392093 -0.32578725 -0.08955715 0.40155062 0.18457404 -0.29779342 0.32972428 -0.07552203 0.0035057703 0.21696785 0.02335508 0.1345835 0.049807016 0.44139642 0.14677425 -0.059430014 -0.37112367 -0.069318905 -0.22614624 0.38582563 0.028130794 -0.30773303 0.4230925 0.15273282 -0.010225566 0.04988308 -0.26838833 -0.12712494 0.21840814 -0.04916495 0.061242905 -0.20968674 -0.19596295 -0.08657788 0.48341614 -0.27798483 0.31873584 0.17177087 -0.10877223 0.020694342 -0.1178804 0.41519943 -0.1077033 0.2346583 0.32713148 0.53521407
624 0.2750641 -0.21522135 -0.09009564 -0.16755767 -0.49295744 0.23683174 -0.26432884 -0.3270029 0.3637253 -0.13202658 -0.32774362 -0.12884915 0.15934135 -0.28517324 -0.10710158 0.29671142 -0.32606167 0.013670758 -0.057317916 0.44782278 -0.27328536 -0.013282988 0.014400855 -0.36944678 0.07746763 -0.27973482 0.12434716 0.0022368033 -0.14158566 -0.053883728 0.05158739 0.39598 -0.18052922 0.074566066 -0.0013051347 -0.060069527 -0.11360595 0.10982124 -0.2081916 -0.42419252 0.012937156 0.19484104 0.23371896 -0.11693171 -0.04475067 0.40636823 -0.047484197 -0.111728765 -0.021207333 -0.24472626 -0.03566115 -0.025587765 -0.3683014 -0.58101964 -0.03460817 0.13119668 0.26098496 -0.14759299 -0.069987684 -0.2886929 0.15107177 0.08412074 -0.09878922 -0.10726051 -0.6330082 -0.080686934 -0.19795552 0.26572996 -0.55592686 -0.13543327 -0.18516794 0.24716502 0.4722262 -0.33639893 0.060981926 -0.057146586 -0.4627456 -0.10169969 0.11291965 0.10976684 -0.13979608 0.08605419 0.16010757 0.3305296 0.10192783 0.19738743 0.09222355 0.13692836 -0.00011608422 -0.047588363 0.04489836 0.18817835 0.061723724 0.24815136 -0.080740206 0.15524755 -0.2476077 -0.019513708 0.18608059 0.13344574
1340 0.27750096 -0.17039151 -0.21347547 -0.1940255 0.023839047 -0.46040055 -0.24762133 0.24796976 -0.36652383 -0.4740867 0.29198584 -0.57704395 0.14510113 0.26941955 0.24256575 -0.17413323 -0.3957967 -0.18357944 -0.1163595 -0.21749057 0.08195682 0.31000033 0.07364662 0.15501255 0.2264143 0.19438945 0.80279404 0.26649132 0.14606132 -0.13642423 0.2704875 -0.08189308 -0.17271364 0.76354665 0.17388792 0.46781623 -0.103189215 0.06723535 0.12966144 -0.2684844 -0.26211315 -0.43344414 -0.17638458 0.3427856 0.022579111 0.46618113 0.22731572 0.18172477 -0.4774016 0.48348042 0.070940234 0.32871953 0.10021921 -0.4094143 -0.6519711 0.39502358 -0.40764475 0.043340847 0.15004645 -0.020858929 -0.40963444 -0.09463619 0.3714935 0.20857058 -0.40486026 -0.21990111 0.057679307 -0.14420412 -0.055754147 0.29804322 -0.22518438 0.4884795 0.43095008 0.086671725 0.66412765 0.5334618 0.18856457 -0.0024232094 0.26478836 -0.13807464 -0.5249932 -0.18833657 -0.22983769 -0.15082616 0.32128242 -0.13459502 0.32373568 0.3503089 -0.14276734 -0.37090656 0.3305531 0.17602879 -0.2845118 0.67531633 -0.49874875 -0.05377399 0.28080776 0.53186804 -0.2740271 -0.32460576
257 0.1636784 -0.15361801 -0.20726478 -0.09456563 -0.11936508 0.14946249 -0.22129123 0.058141306 0.27327928 -0.105313875 -0.3994616 -0.38404134 0.16736132 -0.19463053 -0.042753797 0.076171614 0.20068751 -0.30344635 -0.26358074 -0.22488374 0.41338572 -0.18086194 -0.4121252 0.14706478 -0.35927165 0.5720681 0.13050172 -0.13996777 0.16069974 0.38071772 0.32541457 -0.0706596 -0.563192 0.031187892 0.09301758 0.25560147 0.18375283 0.15226945 -0.14900377 0.1907346 0.38591704 -0.16536807 0.009751843 0.17555189 -0.09438647 -0.06410067 0.22787331 0.12229472 -0.24795327 -0.25990453 0.06160127 -0.06443602 -0.1697764 -0.30465785 0.040903118 -0.13340083 -0.07324964 0.39376676 0.047092773 0.6369418 0.33715922 -0.0049291477 -0.06496129 -0.11327246 -0.19879608 0.29545432 -0.17905939 -0.032831356 -0.15784442 0.1071787 0.071943104 0.26769766 0.07536543 0.26038226 0.3480573 0.34064835 0.2044826 -0.25032955 0.07801349 0.058731396 0.022771554 -0.1458291 -0.19068609 0.45952094 0.44674996 0.23687078 -0.15607479 -0.25513574 0.12890683 0.024182556 0.5043012 -0.42433003 0.3108274 -0.21910103 -0.36275557 -0.085270405 -0.12558246 -0.17408615 0.18468314 0.25268328
333 0.09602502 -0.13744311 0.12503882 -0.22658981 -0.13266702 0.43939474 0.062673256 -0.2091646 0.05403014 0.3567764 -0.54627883 -0.4515895 -0.060414072 -0.5363413 -0.18341057 0.15166989 0.36394227 -0.30026227 -0.17520311 0.50608075 0.4955893 -0.2541535 -0.13932917 0.4471752 -0.28394052 -0.12055004 0.696245 -0.24934226 0.11638849 0.17085104 -0.22804447 -0.086327314 0.15695044 0.6337704 0.40813473 -0.10768333 0.10508369 0.20783395 -0.6635782 -0.071399726 -0.08794 0.42752498 -0.019172551 -0.12841702 -0.32754257 -0.049353722 0.27902988 -0.29464108 -0.42108998 -0.24879941 0.28737924 -0.015711574 -0.120861344 0.18420212 -0.15274625 0.32419994 -0.22417447 -0.4936339 -0.017967334 -0.13384043 0.18492804 -0.07708649 0.17429177 -0.27615583 0.34588814 -0.009984264 -0.35418895 0.11786852 -0.4321984 0.0773336 -0.37061238 0.023208154 -0.07296792 -0.17257768 -0.14375272 0.0043720044 0.4207344 0.0330187 0.0025513403 0.06095965 0.2876594 0.52410275 -0.51904154 0.02329812 -0.22555788 -0.39701104 -0.42599863 0.114884235 -0.20522454 -0.29241574 -0.5805529 -0.06285604 -0.04774296 0.6408022 -0.47501603 -0.34271184 0.71898866 0.09094092 -0.013579773 0.3548883
2374 0.38508123 -0.1326445 0.1652929 -0.84190565 -1.5561844 1.0736163 -0.8022248 -0.6635842 -0.07884518 -0.01627754 -0.5764438 -0.97019625 -0.43329337 -1.1738585 -0.3748302 -0.5175741 0.2546715 -0.14423825 -0.83462054 0.60348135 0.41353565 0.06851648 0.09683597 1.4265434 -0.84311384 -0.22307123 1.322136 -0.13359495 -0.16352028 1.3378092 -0.3574696 -0.1963255 -0.018574068 0.38485137 -0.07499794 -0.40165874 1.2143217 0.5262789 -0.24309751 0.5603193 0.11712385 0.11983923 0.07030381 0.5990579 -0.41770318 0.07711618 0.5000437 -1.1695348 -0.5060192 0.64355266 -0.28012893 0.86388904 0.15138464 -0.47735164 -0.3599294 0.35700083 -0.08810313 -0.63854325 1.1739095 -0.62997574 -0.13317087 -0.38544795 0.7199508 -1.2727145 1.0579628 0.38205793 -0.62442106 -0.77282727 -0.6946571 -0.13266036 -1.0252898 -0.52449757 -0.6363942 0.24740845 -0.35084146 0.22388203 0.47774854 -0.9606048 0.095279545 -0.5216868 -0.11157126 0.6544234 -0.32894582 0.27643108 -0.10123885 0.38664913 -1.4100662 0.60772043 -0.50411224 -1.0625547 -1.2227408 0.25218576 -0.20511633 0.6803403 -0.87219703 -0.2918087 -0.51127297 0.4220512 -0.38417217 0.73778397
1176 0.03313896 0.50272197 0.14893125 -0.3645366 0.0098799905 0.2971061 -0.2712042 0.004654473 0.15247566 0.17946817 -0.47039622 0.5259988 -0.33268136 -0.28742608 0.48922473 -0.3332056 -0.6644785 -0.53502744 -0.15606022 0.2604449 -0.17385049 0.44802606 0.034110613 0.49075228 -0.5519068 0.14940523 0.12215591 -0.24974196 -0.07155992 0.3741672 0.012935246 -0.20470764 -0.62402517 0.31837574 0.22263546 0.5450855 -0.21282177 -0.25216863 -0.19532885 -0.42389348 0.057841275 -0.40498564 -0.17445955 -0.4336319 0.13411303 -0.2650673 -0.4933592 0.1640266 -0.21463661 -0.26754707 0.08682921 -0.27391225 -0.5262489 -0.40783787 -0.15384245 -0.06310412 -0.23398778 -0.17628665 0.4022621 -0.54705316 0.029630413 -0.19881913 -0.067210056 -0.06815236 0.4369092 -0.22896901 -0.34260708 -0.32425374 0.29987428 0.08347038 -0.53015584 0.22926454 -0.58853424 -0.53874075 -0.24958976 0.27929088 -0.09201939 0.43379438 0.56344736 0.012773318 0.095705725 -0.42047974 -0.49015087 0.7615795 -0.05303641 -0.20342386 0.04137161 0.030671172 0.31912035 0.06847878 0.03098452 -0.028780729 0.15482575 -0.3667195 -0.40503037 0.011316014 -0.06565042 0.018663162 -0.093444146 -0.39783138
394 0.034054924 -0.54902816 -0.11936441 -0.4233635 -0.09734162 0.37409636 0.20827733 -0.000879315 0.26291192 0.24601156 -0.032557234 -0.09814623 -0.2233431 -0.41803056 -0.1271136 -0.37658817 -0.18906829 0.024035878 0.16693144 -0.17064832 -0.0066178553 -0.070605315 0.09186576 -0.12123177 0.24730664 0.08618223 -0.0012115279 -0.14464948 -0.013666207 -0.2623007 0.2162886 0.30926663 -0.72900236 0.1527978 -0.027730817 -0.086025804 0.816932 0.43105292 -0.3070742 0.17458226 -0.1993835 -0.10400343 -0.088172704 0.22973868 -0.18227378 -0.027213154 -0.0071117985 0.22214235 -0.36217055 -0.017093116 -0.046287883 -0.31460693 -0.8151239 -0.48304275 0.08079424 0.27671996 0.2316837 -0.119692355 0.3728752 0.34052452 0.22581992 0.32514018 -0.16018926 0.15301868 -0.13980149 -0.03698164 -0.17125133 -0.13705672 -0.682145 -0.0292639 -0.15731603 0.14895898 0.3738587 0.11352681 -0.27562067 -0.28336102 0.079031326 0.06624365 0.25112796 -0.11922998 -0.15248153 0.045856915 -0.23635505 0.3320996 0.18435535 0.28370348 0.03513065 0.30751342 0.2613435 0.34010604 -0.08782071 -0.07239878 0.12266897 -0.17631094 0.109792255 0.39697644 -0.039880235 0.1618879 0.60733384 0.46120408
2741 0.006142 -0.25301763 0.0055223433 -0.2587435 0.09612069 0.4807101 -0.06191033 -0.12777619 -0.062462606 0.041880082 -0.018213822 -0.18962374 0.24048673 -0.17671046 0.3504726 -0.06496087 -0.026409402 -0.0551017 -0.1869649 0.06386486 -0.27564138 0.063571 -0.18550651 -0.020968875 -0.40780675 -0.536125 0.33200416 -0.3776636 -0.042511992 -0.035645135 0.38494563 0.4049745 -0.5919841 0.40482917 -0.19672559 -0.1196814 0.681256 0.21554954 0.09570194 -0.29535055 0.055998784 0.0006996437 0.19130385 0.37575668 -0.0986951 0.41225246 0.06794232 0.39717245 0.0013852394 -0.3026145 -0.19283329 -0.22746584 -0.54515326 -0.36097962 -0.12081641 0.038931504 0.24981372 0.093281895 0.55251086 -0.15720183 0.2907701 0.47767973 -0.762499 -0.0062531037 -0.22187632 0.2716024 0.06322278 -0.102004625 -0.2733823 -0.13566516 -0.09030865 0.051086675 0.03364224 -0.23670067 -0.30159837 -0.3876901 -0.23278357 0.16923891 -0.03034914 0.12556835 -0.11196463 -0.10893851 -0.005169665 0.007132636 -0.09398977 0.26918647 0.34647214 0.19774494 -0.12256441 0.30621606 0.10626834 0.16910069 0.0232238 0.45728502 -0.34292725 0.2668555 -0.20648892 0.27967876 0.09827223 0.16782662
750 0.36712718 0.077020444 0.16329482 0.071241274 -0.22483857 0.11329489 0.0044377004 -0.06135546 0.030621998 -0.21062212 -0.08637736 -0.085999005 -0.02610039 -0.27105096 -0.08856447 0.39048296 -0.21754675 0.045052335 -0.05706941 -0.03373375 -0.058211237 0.07798453 -0.3882181 -0.07414799 0.665058 -0.010046074 0.2604691 0.12000842 -0.5380325 0.15799071 -0.05459847 -0.115140885 -0.06678021 0.64330995 0.044265028 0.035366297 -0.24145901 0.82287 0.010674917 -0.10880302 0.32727313 0.009915046 0.05708107 -0.23691817 0.21383792 -0.35707435 -0.15103608 -0.65105 -0.12148145 0.016241247 0.18039747 0.12260111 -0.5776995 -0.07323142 -0.009576214 -0.15712348 0.15141657 0.021578439 0.029914036 0.3762626 0.2673154 0.22873549 0.08037052 -0.015200871 -0.88239205 0.09635044 -0.32554442 0.0953174 -0.3030696 0.34810215 -0.3452215 0.20487376 -0.3164582 -0.3248477 0.3099029 -0.05815978 -0.26986197 0.058764927 0.06555976 -0.0679421 -0.17293218 0.031593826 0.35432026 0.068247154 -0.42697394 0.2762139 0.13581316 0.1672771 0.14132582 0.026241476 -0.34101698 -0.32784122 -0.025839841 0.26366842 0.058255374 0.34704053 -0.06993854 -0.558269 -0.12933405 -0.41165712
55 -0.021964787 -0.54863703 -0.5996438 -0.02146707 -0.08066613 -0.022152897 -0.09616077 0.2042531 -0.074890904 -0.50837016 -0.38200563 -0.0457624 -0.07425539 0.16987465 -0.25984165 0.32490835 -0.5762445 0.1218601 0.17149511 -0.3883965 -0.15446997 -0.19279222 -0.026440231 0.10792859 -0.04832269 -0.0088609615 0.5212611 0.10709842 -0.25224832 -0.4487668 0.31942612 -0.5698985 0.088214844 0.12559927 0.25781205 0.13749744 -0.20631102 -0.004318278 -0.033189297 -0.1481787 -0.024191476 0.29350775 0.39975128 0.61301774 -0.13597412 -0.19191736 -0.1751523 0.115020044 -0.4063524 -0.12819305 -0.017593393 0.08369108 -0.50499463 0.12558134 0.13567798 0.15737367 0.09053345 0.22483101 0.013670814 0.23873001 -0.0031012644 -0.12174359 -0.09252739 -0.10566908 0.029366568 -0.22835335 0.3310217 -0.16141686 -0.041249678 -0.085659824 -0.14900556 -0.0072944085 -0.79475325 -0.27780482 -0.22263548 0.1960177 -0.25836894 -0.017869325 -0.08917608 -0.18482804 0.06856266 -0.04866683 0.21814765 -0.07010986 0.13191785 -0.13960746 -0.043144006 0.060132075 0.26886234 -0.38993585 -0.17567712 -0.2945876 -0.119919404 0.026720278 -0.39676157 0.03738774 -0.04148753 0.098966494 0.2781473 -0.4331134
5 0.4276422 -0.034528635 -0.33423898 0.22952645 -0.28361323 0.2737066 0.021380905 -0.277148 -0.08506251 -0.25977966 0.21456352 0.29433715 -0.0515955 0.21453783 0.015840057 0.45670524 -0.6713993 -0.29499078 -0.3297351 0.055678245 -0.2911574 0.44972685 -0.46516657 -0.094045796 0.44364387 -0.19773664 -0.32411167 0.0591342 -0.42439693 0.13511004 0.5024937 0.2408109 0.12493496 0.28144068 -0.13468532 -0.20902807 0.092116095 0.5089151 -0.5625788 -0.19212091 0.54677653 0.39115608 0.00072093395 0.04901592 -0.1590195 0.17760871 -0.013923288 -0.52866536 -0.4627861 -0.6437996 0.27326378 0.12652187 -0.27078408 -0.43676004 0.054224882 -0.30974615 0.104608126 -0.050872434 -0.06878854 -0.07721491 0.28861192 0.2638564 -0.022590531 -0.66064733 -0.74991083 0.35127303 -0.5907808 0.26894754 -0.16898848 0.18427716 -0.781106 0.104351446 0.5334298 -0.44036087 -0.36652324 0.42911127 -0.25548515 0.00072496606 0.13876626 -0.22602518 -0.06314733 0.07207037 -0.07374023 0.12839521 -0.04262829 0.24567503 0.49344644 0.10458268 -0.15614076 0.48709512 0.12495158 -0.21707705 -0.18091424 0.19896892 0.015692057 0.0058655897 0.08649762 0.19293512 0.030956993 -0.43542597
383 -0.0657243 -0.29483864 -0.15224026 0.1902191 -0.5829727 -0.026656795 -0.50840867 -0.015260762 0.2781444 -0.023319526 -0.4551283 -0.5150176 -0.003505023 0.018851146 0.18024902 0.05522722 -0.02367699 -0.20902899 0.11476009 -0.42498797 0.1346032 -0.4556775 -0.20807464 0.14089087 -0.18116602 0.54404616 0.47562826 -0.034741007 -0.10425332 -0.13462582 0.14986058 -0.08659286 -0.559731 0.28299704 0.08722292 0.4121601 0.38605818 0.15188365 -0.36074606 -0.0010386029 0.39473307 -0.4051457 0.30344003 0.16731554 -0.3417206 -0.015880857 0.15513867 0.17210986 -0.4844892 -0.018424926 -0.10991298 0.15412946 -0.14458407 0.13400955 0.28606617 -0.26693344 -0.20104441 0.28591052 -0.0074275746 0.34103101 0.25893947 0.18255647 0.22066052 0.072681844 0.016868595 0.37639615 0.48648015 0.049062554 -0.2865106 0.13401908 -0.03352717 0.22940643 -0.06416335 -0.13340788 -0.1339109 0.1456203 0.119322896 -0.2809274 -0.29525027 -0.124974646 -0.2368483 -0.34088317 0.05319696 0.03601761 0.30753565 -0.15401986 -0.20472136 -0.05953746 0.09793136 0.05996096 0.52342033 -0.33585596 0.2403666 -0.07595495 -0.20521507 -0.15894309 -0.1810916 -0.07170955 -0.050871406 -0.07382855
132 0.25822887 -0.28796488 -0.07829121 -0.14069575 -0.5423943 0.20873517 -0.22623165 -0.02978591 0.21868354 -0.13045824 -0.101957604 0.23558357 -0.0073202257 -0.2912946 -0.06628402 0.5510503 -0.42332518 0.04516522 -0.27493826 0.2389497 -0.06915373 0.26096883 0.055154752 -0.10931956 0.32009068 -0.041793752 -0.110650234 -0.011230926 -0.14565735 -0.16338788 0.30583632 0.1099634 -0.15742555 0.16389139 0.07537659 0.095196106 0.017590404 -0.1453338 -0.26594967 0.016769126 -0.07181846 0.1559809 -0.014436626 0.017093493 -0.1836653 0.24147366 0.018728413 -0.09255791 0.0023860144 -0.52489686 -0.39868146 -0.05722418 0.12338452 -0.35916984 -0.121363275 -0.16971235 0.38266698 -0.020820621 -0.08290274 -0.4093349 0.10669818 0.072558 0.21255602 -0.20479487 -0.34507683 0.25522834 -0.22151206 0.14779635 -0.29565972 0.19694705 -0.29257515 0.38467395 -0.028325168 -0.34791362 -0.111904986 0.17938787 -0.2280466 -0.29052156 0.023750417 -0.10930058 -0.3576799 -0.14991976 -0.22360061 0.31019974 -0.2725591 0.2216265 0.2308904 0.19338553 -0.009474733 0.19032928 0.1070371 -0.22476329 0.040781725 0.055805113 0.19152452 0.19926038 -0.16844778 0.2559917 0.28872406 0.21398224
209 -0.30387038 -0.39746076 -1.0087115 -0.49013576 0.5811858 0.4319329 -0.22666381 0.69656557 0.53304034 0.17399475 -0.07293506 -0.11767465 -1.1131963 -0.07488798 -0.74586123 -0.012353427 0.6000302 0.36088523 0.22841428 0.4893564 -0.0052349223 0.24857947 0.6712682 0.7792705 0.23147966 0.21916555 0.22795422 0.12910937 -0.58101743 -0.73362094 0.8094607 0.6319018 -0.6036708 0.9147849 -0.1968673 0.18441586 -0.5903386 0.6058437 -0.20732321 -0.35885283 0.46871668 -0.29558825 0.5220613 0.44326568 0.6629891 -0.079102285 0.48998845 -0.30119893 -0.10872165 -0.7352416 -0.20451926 -0.19016223 0.13207477 -0.022761365 0.4259258 0.30572447 -0.053679146 0.75935847 -0.6307548 0.26654825 0.4678016 -0.48378235 -0.1990695 0.0016062931 0.1314058 -0.31537837 0.19844827 0.24566266 -0.027919486 0.09386764 -0.7014245 -0.1389529 -0.74104774 -0.34179452 0.32331163 1.3206701 -1.24436 0.031005187 -0.07811979 -0.8575631 -0.13993737 -0.10596672 0.10618708 -0.295481 0.5456241 0.13380799 0.5024018 -0.030596249 -0.514949 -0.3847248 0.38001278 -0.058675315 0.04954167 0.49335 -0.45013312 -0.4774529 0.32975093 0.48235956 0.8522781 -0.6652827
1193 -0.147655 0.44495305 0.41516978 0.16874151 0.4145541 0.3173505 0.012880151 -0.19541696 0.09554198 -0.009622753 -0.41837248 0.38793314 -0.31493455 -0.25380802 0.013947742 0.1404669 -0.7039781 -0.21131523 -0.12060739 0.42834994 -0.1306826 0.17120172 -0.33160192 -0.045450322 -0.11179824 0.079497404 0.4915311 -0.30821416 0.19559039 0.3816169 0.16044608 -0.31503388 -0.20928968 0.28936663 0.021124644 0.25562042 -0.055203043 0.18226619 -0.27617928 -0.063251615 0.22643921 -0.31890982 0.259628 -0.04825355 -0.03701551 -0.03148633 -0.12758666 0.16015944 -0.4124709 -0.021474838 -0.27461714 -0.26107016 -0.11283775 -0.45531082 -0.3635972 0.43775034 -0.13454375 0.06325804 0.043618195 -0.39227405 0.37928933 -0.25759545 0.5247699 -0.17741744 0.34308377 0.08905554 0.0017354091 -0.37682292 0.24201058 0.014026261 -0.32642192 -0.09092211 -0.3274474 0.05448679 -0.35017228 0.14779872 -0.13043834 0.5036351 0.12757376 -0.07356513 -0.19966015 -0.46575373 -0.026097206 0.75270915 0.20866126 -0.2503148 0.16595146 0.21963884 0.043408673 -0.20811488 -0.034442954 -0.094833344 0.22444843 0.21184243 -0.007840598 -0.027758142 -0.02313339 0.048843645 0.16373722 0.1706063
179 0.4155236 -0.2245807 0.2880984 0.039272875 0.0096472185 0.18682787 0.2411321 -0.14947957 -0.24002112 -0.26713765 0.37027383 -0.35421523 -0.15286833 -0.46153957 -0.3584433 0.1551516 -0.02698505 -0.44943044 -0.070051275 0.48682287 -0.37593648 -0.41362894 -0.15483885 -0.20767719 -0.3021786 0.082098454 0.25897464 -0.0016698967 0.007827837 0.27591723 0.075350374 -0.38140082 -0.1612198 0.22824748 0.7433165 0.43055248 -0.14772879 -0.035725903 -0.13663833 0.16168523 -0.1932494 0.58964366 0.204006 0.8734467 0.36929768 -0.10331012 -0.287931 0.061555535 -0.4999691 0.01315547 -0.53796726 0.27439532 -0.9693783 -0.3895774 0.3132429 -0.16770922 0.18661687 -0.46693844 -0.4140045 0.109091185 -0.812835 0.12734282 0.106380716 -0.30502343 0.20801419 -0.14403154 -0.18380196 0.08213276 -0.37901747 -0.6458671 -0.33112505 0.3161774 -0.36130273 -0.17645796 0.29534498 -0.37070692 -0.09462965 -0.61747825 0.1296089 -0.745736 -0.16695584 0.00802003 0.19541328 0.122820206 0.28975955 -0.2992539 0.19136554 0.40824437 0.15055996 -0.11904098 -0.16304755 0.10244308 0.5716474 0.015439579 0.050654814 -0.030063348 -0.29286596 0.37219366 0.4527034 -0.061103266
562 0.25817147 -0.5700701 -0.20494677 0.5835668 0.16428953 0.058191907 -0.20755894 0.07198918 0.3772301 0.37142062 -0.21253242 -0.3176386 0.008883304 -0.24770746 -0.23926464 -0.07712133 -0.43438467 -0.44127586 -0.27177572 0.1092071 0.19713125 -0.49006432 -0.019928308 -0.1225781 -0.044016115 0.03592031 -0.26220283 -0.1672314 0.08189479 0.15657145 0.13612391 -0.14781225 -0.36029038 0.38981608 0.0705115 -0.32632613 0.04344821 0.05824063 0.12380112 -0.48174307 0.043296605 -0.045021787 0.89843 -0.08510984 0.057003003 0.16245417 0.076185636 -0.42678934 -0.1241091 -0.009150296 0.4316754 0.4400037 -0.25831646 -0.09447335 -0.17961453 0.48349673 -0.20300801 0.36144626 -0.45614254 -0.021139532 0.034101486 -0.55295545 -0.24343447 -0.021777235 -0.109883524 -0.14832118 -0.6572913 0.41028053 -0.34054342 0.021379773 -0.09403583 0.3085039 0.16157928 -0.47748932 0.37838563 -0.27891007 -0.27551356 -0.055824183 0.3745992 0.1695851 -0.55556643 0.11732435 0.47569138 0.46632412 0.11668975 -0.12050426 0.3507987 -0.29499337 0.12062254 0.2253373 -0.2088963 0.23014149 -0.22988455 0.24815367 -0.052338798 0.044837005 -0.49343902 -0.19225055 0.070015326 -0.06809327
1820 0.15768304 -0.13261332 0.29544532 0.46516225 0.3563632 -0.047272906 -0.39850664 -0.0879433 -0.2616745 -0.6855786 -0.09973034 0.36395568 -0.24661283 -0.075637564 -0.9210623 -0.14352858 -0.60073763 -0.43431115 -0.4415603 -0.3856675 0.2740695 0.8157086 -0.012813416 0.86721677 0.274254 0.56497276 0.11324373 0.20923966 -0.3808945 -0.53725135 0.2171232 -0.20087907 0.5328167 0.5005793 0.4934052 -0.5173915 0.41688374 -0.21304283 -0.17539169 -0.18315342 0.012378501 0.6310332 -0.2926511 0.26014704 -0.054608893 0.044573247 -0.29254124 -0.33117905 -0.20293541 -0.41427654 0.54739547 0.1211857 -0.9835975 0.22376901 -0.056478184 0.11674307 0.5164391 0.46518555 0.23318298 0.44553348 0.17012714 -0.080488175 -0.5041291 -0.43186304 0.62141407 -0.019699274 0.43067205 -0.022809166 -0.5727762 0.82422096 0.126616 0.09305453 -0.86056006 -0.15102813 0.423914 -0.3121185 0.22129819 -0.09631997 -0.39259842 0.021298172 0.24569425 -0.308116 -0.2767813 0.5535419 -0.16874032 -0.04923125 0.23319027 0.40594906 -0.106153965 -0.3899428 0.31411424 1.1747363 0.35459715 0.91095805 0.062073812 0.17758422 -0.6028576 0.5072297 0.2281625 0.24014214
75 0.116568215 0.09277356 -0.24281093 -0.062658116 -0.16119882 0.0095518185 -0.55835456 0.030680915 0.12476053 -0.19869012 -0.261756 -0.46849865 0.09687415 -0.055027988 -0.2582908 0.38552287 0.33365542 -0.3210365 -0.2126845 -0.050355922 0.13206606 -0.20237578 -0.44193003 0.15499085 -0.19642937 0.54060817 0.34890297 -0.014069387 0.33178228 0.06782322 0.24757548 0.17897569 -0.64452577 0.045349136 -0.010608598 0.20666799 0.26850906 0.11960657 -0.3717665 0.25750485 -0.08322276 -0.13681045 0.12935911 0.13406192 -0.21761218 -0.171662 0.3149704 0.035624456 -0.25504997 -0.31629243 -0.12629543 0.034192797 -0.02905218 0.12745018 0.16935839 -0.27273703 0.15567884 0.19052666 0.116154715 0.45789748 0.25869516 0.18171039 -0.13422263 0.20005469 -0.4757796 0.26239222 -0.19231133 0.18192104 0.17624766 -0.0044766692 -0.09726479 0.09774755 -0.1098527 0.24859428 0.38370806 -0.11530998 0.0798326 -0.13803884 0.3571208 0.04661266 0.042120714 -0.23483656 -0.29584762 0.30367112 0.30120933 -0.03247662 -0.013471222 0.117892474 0.19244213 -0.016589362 0.4008477 -0.38505524 0.04351706 -0.12978768 -0.15535699 0.20288548 -0.18040128 -0.022381445 0.4346424 0.2697923
1342 0.12182049 -0.1782087 -0.20070486 -0.18163018 -0.027383678 -0.5850228 -0.20936546 0.32862425 -0.22442153 -0.44513556 0.060226485 -0.5489092 0.017900245 -0.015706943 0.2851342 -0.25092742 -0.25265706 -0.43833712 -0.020378295 -0.36578307 0.07702989 0.203893 0.25107348 -0.06608176 0.14394571 0.25022143 0.56022054 0.29906765 -0.0017466736 -0.12241006 0.22726364 -0.13157764 -0.22435102 0.72569567 -0.025490142 0.39493042 -0.089036144 -0.09615016 0.013026176 -0.2632067 -0.28855455 -0.45644414 -0.13901174 0.3122008 -0.060182553 0.51269007 0.25810054 0.30793864 -0.6381248 0.25240362 -0.030544264 0.34404963 0.025050381 -0.3752872 -0.76162016 0.042846896 -0.47855297 -0.034853145 0.3072755 -0.19059125 -0.4549668 0.12426025 0.57098985 0.2467468 -0.36188355 -0.2615113 0.12593414 -0.1410071 -0.3600726 0.4638819 -0.07993439 0.45710114 0.42131832 0.2796187 0.6117193 0.32681495 0.1922444 -0.11537542 0.2096835 -0.37380743 -0.61887294 -0.05560904 -0.17368814 -0.0057476484 0.22375146 -0.1090626 0.415788 0.3545298 -0.15150174 -0.59775555 0.0434228 0.23289023 -0.18101674 0.56554615 -0.43337777 0.08203683 0.20877552 0.53984904 -0.116039716 -0.17514375
382 0.051822174 -0.21271984 -0.30639297 0.21579103 -0.2272975 0.26477587 -0.44944516 0.11326454 0.14787608 -0.18184537 -0.28445017 -0.36498702 0.1651128 -0.014053314 0.19904777 0.21285176 0.12090819 -0.42390916 -0.14922827 -0.41467154 0.20973016 -0.37077716 0.12547939 -0.00441998 -0.25676 0.6889021 0.21554157 -0.046634886 -0.19367011 0.20941402 0.16701803 -0.20330402 -0.19895776 0.12273028 0.43590933 0.081975885 0.13174465 0.06861952 -0.22772406 -0.0445192 0.52654815 -0.516437 0.07264392 0.2124923 -0.41637462 0.29285157 0.19121014 -0.12230565 -0.5444595 -0.12543175 0.05571184 -0.109176464 -0.23584604 -0.36220044 0.20082656 0.002334752 -0.088515274 0.3272879 -0.117484346 0.41236442 0.41092727 -0.0025083777 0.035590526 -0.039208967 0.025764797 0.43934056 0.075614624 0.06832902 -0.25664535 -0.0783361 0.015238447 0.31386364 -0.03246244 -0.06824143 0.13275778 0.35524753 0.12925515 -0.22102904 0.2570854 -0.12964615 -0.0040658917 -0.2419018 -0.13514937 0.0755241 0.40554023 0.028990025 -0.3010649 -0.36316675 0.19160031 0.07587164 0.7112933 -0.29455796 0.2822824 -0.15754874 -0.20355728 -0.28401273 0.016392352 -0.24192418 -0.3264885 0.21107845
1453 0.47006017 -0.2993631 0.20332 -0.4975194 -0.3907705 0.41619644 0.26855138 -0.08083595 0.010251211 -0.20690653 -0.39923388 -0.028809251 -0.4683583 0.34166062 0.1781333 -0.26319852 0.25656605 -0.03179681 -0.49057436 -0.28193024 0.057675976 -0.25306752 -0.30829805 0.06663391 0.5213999 0.016829686 -0.13303967 0.14388064 0.39531633 0.073188454 -0.47283888 -0.06220836 -0.14871317 0.39535347 -0.15725964 0.22528777 0.26509202 0.1132269 -0.19921918 -0.17119542 0.22044815 0.35728732 0.2522311 0.4124337 0.023854904 0.18128075 0.17108166 -0.11976814 0.19886482 -0.021834664 -0.20181148 0.039226305 -0.21222682 -0.10085908 0.41061476 0.2469807 -0.32429105 0.015873512 -0.015724786 0.19663207 0.4593715 -0.06439229 -0.06493992 -0.30940342 -0.37867633 -0.1207439 -0.049484972 0.41510195 -0.11677965 0.45556226 -0.6383523 0.5569691 -0.24529569 -0.057370305 0.08414053 0.17771684 0.74439096 0.08125243 0.47660154 -0.1452632 -0.3638464 -0.6259377 0.15347236 -0.08672169 0.44924167 -0.60072315 -0.19670364 0.46322978 -0.11357657 0.44704944 0.20189431 -0.09676066 -0.30546573 0.16851544 -0.113175586 0.46240267 -0.03453553 0.037656646 -0.29997182 0.27201098
193 0.22787148 -0.47950983 -0.28989348 -0.14140718 -0.028536381 0.58730835 -0.53528976 -0.5760219 0.007108122 0.20935279 -0.9038334 0.0038103617 -0.6978657 -0.23859671 0.6652845 0.30647945 -0.03910965 -0.063519225 -0.13542502 -0.3430946 -0.4508515 0.1531192 0.34066918 -0.09558996 0.940611 0.026512032 0.3402937 0.5514359 0.2135178 -0.05910459 0.58043236 -0.37809223 0.4620498 0.60721797 -0.24455276 -0.17655414 0.09003668 0.42552522 -0.31535894 0.6510568 0.841134 -0.2362137 -0.104596496 0.7390877 0.34527183 0.08300771 -0.3337465 0.38608095 -0.527655 -0.18198635 0.4152934 0.16269769 -0.2585353 -0.02922067 0.04423553 -0.1961828 -0.13981256 0.5680284 0.0948657 0.03535717 0.08812552 -0.13587664 -0.041375354 -0.6326596 0.4815121 0.47635457 -0.2603645 0.30308577 0.11091938 -0.3452816 -0.37374806 0.5545588 0.09004209 0.7090572 -0.0025692908 -0.12355746 -0.102870196 0.0061423774 0.04208845 -0.081361204 -0.10709994 -0.25621217 0.28810012 0.05807908 0.07979938 -0.22702247 -0.6246895 -0.037992287 0.5419054 0.21329719 0.16188519 0.15406239 -0.41960007 0.47698152 -0.3780903 0.61582094 0.3565256 -0.049749725 0.08057473 0.568459
166 0.14661913 -0.1952623 0.13161165 0.53332907 0.090287365 0.40338457 0.0063605886 0.08185533 0.33665925 0.2588579 0.07120696 -0.21960832 -0.27749255 0.043241598 0.055396557 0.1594647 -0.3598001 -0.4007383 -0.29034242 0.27022403 0.24549644 -0.42204985 0.21415217 -0.18163928 0.18433155 -0.022896815 -0.21864305 -0.42978466 0.12085526 0.42073706 0.14260569 -0.17554298 -0.3349305 0.4092379 0.39078632 -0.42675984 0.055925168 0.16458066 0.2847725 -0.06640441 0.1111926 0.1945282 0.3605692 0.12129553 0.2476571 -0.31555042 -0.296774 -0.33686265 0.04341878 0.25496456 0.46199676 0.38032633 -0.30712432 0.24731413 -0.32536724 -0.24987689 0.18701738 -0.06509156 0.35180187 -0.08045439 0.15205687 -0.42522305 -0.25766632 -0.33411676 -0.42649448 -0.29560584 -0.2872249 0.2999513 -0.38709322 0.2868061 -0.19838828 0.17396213 -0.17463957 -0.49210572 0.30780885 -0.23373874 -0.02619009 -0.5236491 0.61959493 -0.024687741 -0.3231854 -0.12797812 0.26917514 0.26660976 0.12456768 0.023263622 0.33012626 -0.44129163 0.13686323 0.0833258 -0.32440603 -0.047195252 0.1615515 0.15501158 -0.3115022 0.20781715 -0.08148404 -0.18419541 0.067917086 -0.43030232
254 0.3454281 -0.12378657 0.04537315 0.12130759 -0.46516767 0.19463101 0.07799954 -0.35215715 -0.03733741 0.35824528 -0.56115925 -0.19497414 -0.450986 0.08560799 0.13819021 0.4880966 -0.5705466 -0.2778947 -0.1988749 0.4652394 -0.4736624 -0.036360152 0.40166622 -0.10720884 -0.14564647 0.61084807 -0.034975197 -0.10392211 -0.07954279 -0.23873022 0.076747224 0.87321776 -0.20583999 0.1835637 0.20222709 -0.37933186 0.25943375 0.113552146 -0.0639436 -0.15228873 -0.31406626 0.2626707 0.9037987 0.21951932 0.2360714 0.8255765 0.14950451 0.25158042 -0.37297156 -0.4412086 -0.26075527 -0.22713304 0.15084647 -0.76853347 -0.0584563 -0.16571423 0.6166258 -0.5034624 0.28905234 -0.27057981 0.041156534 -0.587445 0.2533295 -0.06209608 -0.00013789964 0.10835884 0.08133301 0.11191973 -0.7023593 0.19892693 -0.13946776 0.6879309 0.29362598 0.16454065 0.12025245 0.5105005 -0.49052677 0.19811983 0.34004125 0.35726655 -0.41781732 0.3435267 0.3090078 0.24608168 0.13024576 0.07320471 0.17955975 0.12741455 -0.05455807 -0.2375819 -0.23891017 -0.23339441 0.07936463 0.3015732 0.6058102 0.26894182 -0.2114592 -0.3138771 -0.033845562 -0.06398642
1234 0.14128037 -0.19422698 -0.17378712 0.0075839595 -0.15142052 0.13209778 -0.2830412 0.06778384 0.20190986 -0.18609573 -0.36240137 -0.30925393 0.12321141 -0.100671984 0.054706242 0.026630882 0.11791672 -0.29357696 -0.24044423 -0.20002149 0.3577125 -0.23451833 -0.22660886 0.16864884 -0.25859633 0.53551114 0.1532574 -0.19127186 0.14307535 0.49075487 0.2601705 -0.138636 -0.5365858 0.059340898 0.13501672 0.36460772 0.21099892 0.11843363 -0.30931515 0.15031265 0.37064064 -0.13718836 -0.07468871 0.33972427 -0.13797283 0.1404066 0.2678889 0.0814325 -0.23377311 -0.286933 -0.04742168 -0.15502834 -0.039314125 -0.29942942 0.099238634 -0.1052446 0.026568003 0.2726349 0.0017717027 0.51497275 0.25597337 0.063648395 -0.090794794 -0.075410075 -0.07623974 0.33384308 -0.06775367 -0.034293693 -0.15564586 0.1846734 0.07018476 0.22435547 0.008318042 0.14039741 0.23396094 0.31451347 0.28163397 -0.16413492 0.06699624 0.07162226 0.07226791 -0.045861565 -0.12447753 0.29357886 0.36898538 0.20120099 -0.22018118 -0.17743266 0.11427034 -0.024797374 0.57208073 -0.36272562 0.18409006 -0.2776727 -0.21604916 -0.06378958 -0.053721264 -0.19501454 0.057275914 0.20287867
451 0.36399865 0.5222191 0.13620497 -0.05337126 -0.31434953 0.4246407 0.15983914 -0.25850078 0.082411036 -0.19038151 -0.5158225 -0.21651934 0.07201185 -0.20826507 -0.26303864 -0.15605971 -0.11977583 -0.016345507 -0.04920997 0.30866575 -0.18839104 -0.5836793 -0.025037965 -0.17348906 -0.45466393 0.12957945 0.3623612 0.1028591 -0.12244645 -0.43033436 0.6332429 0.04817985 0.042545844 0.16458462 0.15707007 -0.016960159 -0.16101906 0.9961618 0.040944386 -0.14603479 0.02480308 -0.09218445 -0.34079114 0.13543977 0.009128482 0.35198188 -0.0782627 0.17246132 0.008503545 -0.15999588 0.9156059 0.83433515 -0.30173343 -0.067671664 -0.14541754 -0.43410984 -0.6213457 -0.3141624 0.4770271 -0.11844561 -0.31165186 0.3304469 0.37447822 0.40204284 -0.6215566 -0.057469476 -0.0435733 0.21957259 -0.1310426 0.66167945 -0.13267726 0.099224545 -0.41850677 0.3324327 0.10927948 -0.22100712 -0.35200667 -0.39823878 -0.25879964 0.16542779 -0.99128485 -0.21229202 0.29085976 0.0122154895 0.1999384 0.3189377 -0.38080606 0.070416935 0.16360202 -0.015208497 0.12722637 0.10051838 0.02676452 0.40345004 -0.00397262 -0.08903779 0.062130302 0.13845815 -0.02854096 -0.027462969
708 -0.11760704 -0.026063023 -0.28967223 0.33321846 -0.27123564 0.38395175 0.52834994 -0.19969662 -0.08378777 0.092405014 0.22065082 0.4858796 -0.028666452 0.106329255 0.23569426 0.4493284 -0.63251776 0.03232135 -0.3968759 -0.041313518 0.18925488 0.11389492 0.08968122 -0.17016114 -0.22964013 -0.36488718 0.15670294 0.4697801 -0.012968791 0.4478896 0.55146116 0.086333446 -0.48786503 0.040192213 0.12797417 0.12881826 0.3642294 0.44195354 -0.022044588 0.16631986 0.2989391 0.2507955 0.19895686 0.34284735 0.26345998 0.49107805 0.34279588 -0.23151991 -0.55404234 -0.3898142 -0.11137219 -0.08434599 -0.101055674 -0.4226398 0.12619661 0.1692127 0.18217386 -0.09040422 0.2560419 -0.112136 -0.30046687 0.10391607 -0.37140974 -0.11769944 -0.46261528 0.086639404 0.1324105 0.31704345 0.01015594 0.15714659 -0.40997547 -0.2192034 -0.15867303 -0.18360636 -0.5053193 -0.33690393 0.16994026 0.31073087 0.42073795 0.16101524 -0.37259918 0.37461457 -0.37509394 0.461495 0.21401854 -0.35313594 0.46128467 0.44708133 0.081223674 -0.052187182 -0.10074831 -0.30631465 0.13556507 0.30348727 0.26762658 -0.12561016 0.0152939195 0.11329252 0.2559139 0.20185977
445 -0.075896084 0.089041 -0.12244585 0.15007682 0.2657816 0.32073218 0.24021529 -0.31956768 0.042997647 0.07079211 -0.5601923 -0.08660083 -0.14755416 -0.14109237 -0.1960113 0.19678743 -0.1721579 -0.4853628 0.44587517 0.29448885 0.04597425 0.3075566 -0.34428218 -0.0060606184 -0.008088683 0.22574349 0.6728228 -0.15761018 0.24858035 0.24535705 -0.05942057 -0.49938154 0.034564756 0.44226226 0.052435294 0.033767372 -0.08536393 0.49856287 -0.3486903 0.03936348 0.2684142 -0.11900094 0.2709393 0.13599065 -0.3669769 -0.116188884 -0.09576786 -0.091794595 -0.37127563 -0.16917014 0.058617987 -0.09359488 -0.1957187 0.018066002 -0.45988753 0.04049139 -0.4377768 0.005208093 -0.056997407 -0.41655764 0.87082607 -0.050324038 0.4666937 -0.29696062 0.32243285 0.2136199 0.15160786 -0.30574447 0.20071498 -0.32785156 -0.74561185 -0.14954413 -0.02412753 0.08314166 -0.08543209 0.14448844 0.06551947 -0.1425138 0.074772075 -0.14624414 0.222395 0.18370296 0.07458702 0.23206426 0.038260657 -0.31852034 -0.11022469 0.3558156 0.3049622 -0.30842212 -0.3232189 0.090078786 -0.07885091 0.62987393 -0.23614055 -0.2541734 0.37041438 0.14298318 0.120788895 0.32038218
370 0.66434515 -0.23211324 0.09913178 -0.2684534 -0.0338521 0.4556977 0.21627478 -0.39630494 0.026217857 0.10116868 0.08904369 0.22542644 -0.5942761 0.10031489 0.5703874 0.29111177 -0.49059013 -0.13686274 -0.41173333 -0.48910302 -0.2320148 0.13956346 -0.61521626 -0.038701702 0.09221262 0.28794768 -0.31853652 0.43531147 0.42290142 -0.19801675 0.22167484 0.14112651 0.26430324 0.64085114 -0.21798097 0.15133815 0.09356422 0.3622163 -0.43626907 -0.19151631 0.5800623 0.5158756 -0.007549458 0.53968966 0.24614084 0.13592051 0.1029773 -0.0641428 -0.099633016 -0.5215358 0.2968396 0.20674609 -0.28238475 -0.14971256 0.19683535 -0.36633343 -0.3466978 0.03544981 -0.20101339 -0.05328454 0.20606685 0.30463842 0.08085155 -0.76397467 0.17138593 0.27054662 -0.19537917 0.12352857 0.5564076 0.4191616 -0.4890192 0.25076663 0.47524303 -0.13199311 -0.122369014 0.146896 0.20092219 0.0242784 0.56693 0.10153653 0.0033404834 -0.14978097 -0.019992784 -0.026281377 0.114817664 0.021993587 -0.55275345 0.24486142 0.13627274 0.3974145 0.11162162 -0.1082488 -0.24941355 0.33256757 -0.06998191 0.6670071 0.12669307 0.09270583 -0.028686741 0.06582332
100 0.122153856 -0.17482387 0.04567776 -0.027928662 -0.07399971 0.1313115 -0.37514973 -0.084198356 0.053546265 -0.10258752 -0.43893507 -0.23904368 -0.023592187 -0.21167223 -0.08480182 0.2120479 -0.1345321 -0.2528184 -0.2342745 0.076930754 0.20595221 -0.32423586 -0.06634541 0.054901823 0.054648224 0.33356035 -0.017012903 -0.14817086 0.26412198 0.24427328 0.13843441 -0.0012580162 -0.4834027 -0.021872861 -0.075651646 0.13247153 0.11045723 0.0040369774 -0.16624081 0.07883608 -0.20218323 0.055553086 -0.2605165 0.1730252 -0.18411458 0.1730052 0.19258009 0.06117524 -0.27764657 -0.09165574 -0.08305632 -0.10361153 -0.23396058 -0.19818594 -0.056138493 -0.25390223 0.2748336 0.03995521 0.07216666 0.1941554 0.0030935642 0.22310503 -0.19849065 -0.021839049 -0.058883466 0.042826857 -0.22179836 0.024673382 0.2009008 0.37960353 -0.20483597 -0.06834735 0.057259962 0.059987992 0.18976302 0.108181074 0.1671476 0.0078563895 -0.032085765 0.16999298 0.039312918 -0.22087234 -0.105998635 0.31082663 0.50182545 0.15062776 -0.27141643 0.13203022 -0.0075886385 -0.099019274 0.42178917 -0.35375586 0.024754653 -0.008571528 0.1116474 0.12470386 0.06567283 -0.20064338 0.40770644 0.3685804
1747 0.39898583 0.24320638 -0.69519573 0.32221302 -0.12896635 0.47860914 0.32446668 0.1255425 0.44410253 -0.67387414 -0.13818848 -0.016348949 -0.18583614 0.29037365 0.12899469 0.029778128 -0.21259089 0.1559964 -0.10589302 0.16039504 0.1999867 0.25281703 -0.10701761 -0.17109439 -0.15433685 0.37379375 0.4369316 -0.00882872 -0.45565426 -0.20239918 0.19753915 -0.27846888 0.061167113 0.052909013 0.08339004 -0.07666846 -0.16316073 -0.026560094 -0.45625076 0.2461642 0.060202517 -0.6021741 0.6998877 0.19791432 0.03174865 -0.26431692 0.02647558 -0.033055272 -0.33599517 -0.18716456 0.21891598 0.04451321 -0.13878329 0.08908468 -0.38506326 0.09385403 0.36154863 0.17397918 -0.38806394 -0.04140958 0.06149881 0.16216972 -0.16305676 0.1919289 0.2666786 -0.36290014 0.25817153 -0.07805561 -0.23331323 0.009186391 -0.074486785 0.08891559 -0.441324 -0.008746704 0.23309715 -0.2590546 0.2485336 0.04330613 -0.2682312 -0.10932077 0.47424868 -0.16847406 -0.08523563 -0.008447217 -0.14653155 0.31583422 0.16432856 -0.32023108 0.1588886 0.19310854 -0.13856357 -0.37811387 -0.40750262 0.26364294 0.08366982 0.33058766 0.22195065 0.23590182 -0.018024161 0.43569553
88 0.43736708 0.5677518 -0.6509924 0.58005476 0.40630013 0.86181015 -0.4894047 0.33749765 0.5616917 -0.49623692 0.31088915 -0.31700954 -0.4146536 0.069712654 -0.2807799 0.6269618 -0.6135651 -0.72715473 0.000589502 0.05591856 0.5001564 -0.9851819 -0.24495453 0.3317843 -0.045600794 -0.14927018 0.1786941 -0.06591895 0.75424343 -0.3091301 -0.5982647 -0.6935728 0.24128088 0.34047258 -0.3087411 0.30374736 -0.0053081736 0.65608805 0.005969127 0.7845529 0.0485651 0.2412594 0.3774656 -0.112172894 -0.5073375 0.26086766 0.5585078 -0.8392513 0.3852828 -0.39898303 -0.347191 -0.24488741 0.3084264 -0.04425593 -0.7708955 -0.4670384 0.09124485 -0.0067069824 1.2513385 0.63458127 0.7894813 -0.121164285 -0.451987 0.44299096 -0.8874148 0.35912275 0.70913976 0.25568983 -0.3364464 -0.26966974 -0.22648713 -0.21225697 0.037289217 -0.0070402925 -0.4353228 -0.5018345 -0.08988194 0.650261 0.45264408 -0.90942746 0.3760594 0.2532972 0.1054581 1.1797392 0.0113345105 -0.16504474 0.16661021 0.44351986 0.55671126 -0.27307177 0.7012747 -0.40856647 0.26163986 1.0645632 0.23116998 -0.6477336 0.16578348 -0.098053984 0.70619416 -0.15281591
13 0.2721404 0.06424759 -0.64793384 0.5331914 0.19051269 0.4978056 -0.28116357 0.20291108 0.08901478 -0.13320218 -0.019627072 0.17147093 0.13932061 0.3120436 0.19304913 0.4346078 -0.78035504 -0.28474483 0.11859835 -0.032972388 0.3639386 -0.5517073 -0.13547057 0.08226193 -0.29158053 -0.053066988 0.08498221 0.5039124 0.16006806 -0.2959202 -0.13731343 -0.1547077 -0.007921568 0.04354336 0.18228583 0.34045404 0.22275189 0.3657802 0.37782785 0.44375628 -0.093358465 0.50698096 -0.051649492 0.43473145 0.20295948 0.111572035 0.20981073 -0.6681356 0.022517765 -0.19221002 0.022783844 0.03499857 -0.090010904 -0.21616966 -0.22035722 0.07504689 0.17212994 0.20691808 0.3171544 0.12316274 -0.31127682 0.14220902 -0.25965303 -0.02434081 -0.34744787 0.13176885 0.2908159 0.23976815 -0.019498749 -0.016477114 -0.07993983 -0.19882655 -0.60123 -0.23948038 -0.5020052 -0.045304928 0.21658513 0.5468147 0.24154274 -0.059647586 -0.5112094 0.24153598 -0.2242679 0.44681466 -0.062136848 0.09792129 0.26039553 0.28939793 0.27698922 -0.09142957 -0.0907306 -0.4964056 0.12732646 0.21589544 -0.0049272003 -0.36736247 0.4909297 0.09487327 0.18263519 0.09901405
525 -0.3735798 0.42708048 -0.025837723 0.5592215 -0.12036271 0.04940933 -0.4410333 0.19207765 0.08474044 -0.18070155 0.059264895 -0.48956496 0.22091232 0.01780567 0.094069205 0.53632927 0.28654644 -0.1397604 -0.446353 -0.30561602 0.24699022 -0.18338557 0.415376 -0.12392722 -0.15571232 0.5396038 0.54164815 -0.3984245 -0.29741678 -0.13007165 0.246621 0.12572962 -0.08784224 0.42355588 0.27017638 -0.11225337 0.62225825 -0.2466841 -0.7060164 0.25241807 0.05985732 -0.09162213 -0.073154286 -0.1962264 -0.073453695 0.08667694 -0.13426709 -0.033663344 -0.078731 0.16753654 0.04485684 -0.21424992 -0.14309283 -0.12303508 0.7497429 -0.35126534 -0.29665837 -0.12777609 -0.06915608 -0.024221692 0.14148235 0.32725433 0.052259777 0.16704619 -0.18475471 0.3337505 -0.112433515 0.20633523 -0.6218924 -0.25307772 -0.036966268 -0.46683857 -0.27871943 -0.9938478 0.4382631 0.22390808 0.06925956 0.1433131 0.563315 -0.22242306 -0.11833331 -0.54769135 0.005776412 0.26680693 0.03546726 -0.2037329 -0.1848748 0.3413645 0.036909577 0.23338869 -0.34093693 -0.8743653 0.04283403 0.6123951 0.14290117 0.31528127 0.3197413 -0.17201005 -0.43627858 0.028340928
810 0.19186741 0.05149217 0.54119223 -0.42069724 -0.13177358 0.46133316 0.39808515 -0.3094375 -0.08118618 0.09971846 -0.2703073 0.03228799 -0.57079655 0.023034222 0.1997511 0.5514355 -0.106582835 0.107943915 -0.30098596 -0.09685786 -0.019778673 -0.085186414 -0.6481335 0.042633764 0.6306746 -0.4177593 0.07962229 0.22170274 -0.55660635 0.029112414 -0.29244134 -0.055533405 -0.10197568 0.68403345 -0.15112472 0.14435726 -0.08799095 0.13504602 -0.2082837 -0.22339258 0.087499745 0.43965468 0.11578628 -0.0081651 0.49508864 0.24279957 -0.034560304 -0.4310438 -0.10324398 -0.06660481 -0.21971522 -0.2621859 -0.34747368 -0.16866837 0.09330015 0.11333718 -0.027795598 0.19790363 -0.16756047 0.63704455 0.4135737 0.32196826 0.11056426 0.096211284 -0.6704524 0.011503106 -0.06951795 0.12224825 -0.0032216485 0.330193 -0.2864589 0.51876336 -0.12020594 -0.41452488 0.3475645 0.23817295 0.23820096 -0.07374765 0.30191886 -0.15509917 -0.46914133 -0.7205785 -0.06732338 0.29029018 0.06356115 -0.52359045 -0.2783098 0.2016236 -0.19935666 0.21789062 -0.13611926 -0.18157831 0.12441387 0.5447045 -0.4561 0.50567865 -0.017011283 -0.35287637 0.034856334 0.3840686
343 -0.25519514 0.579776 0.59203714 -0.4087539 0.50775737 0.4695498 0.12939282 1.0855411 -0.042882428 -0.38165227 -0.9119261 -0.7402684 0.59384626 -0.5300747 0.9225188 0.50241923 -0.4323855 0.5251489 0.8498688 1.379253 0.7024408 0.97719294 -0.3877576 -0.060316324 -0.17607844 -0.8381491 0.6685786 0.71352047 0.50266784 -0.42939183 -0.57269675 -0.44224206 -0.27312633 -0.11456771 0.104404606 -0.42769593 -0.70348465 -0.55354553 -0.16095741 -0.036135834 -0.6308815 0.52470577 0.076621786 1.3949171 0.46116722 -0.031700876 0.17423393 -0.024743281 -0.21440187 0.2037001 0.6918518 0.13265233 -0.6946291 -0.32723904 0.18414937 -0.6872037 0.54441994 0.59934044 0.5489206 -0.15158884 -0.1336695 -0.20664039 -0.10241952 0.4017351 0.27856997 0.23633453 0.068249054 1.1856111 -0.9066269 -0.24942017 -0.7593148 0.41610408 -0.114447065 -0.6192673 0.82093644 0.01391647 -0.084622 -0.27698866 0.6903958 -0.6698829 0.5541695 -0.33002293 0.56575197 0.52129114 0.09610254 0.41533184 0.28076455 0.40353113 -0.95879656 0.5556063 0.80806774 -0.8696807 -0.2775332 0.97863185 -0.17437829 0.72199357 -1.3085493 0.182522 0.36914667 0.042609494
1732 0.15673353 0.14484929 -0.34678426 0.11120125 -0.20572723 0.07752616 -0.047672838 0.39477056 -0.32876667 -0.36496976 -0.058311917 -0.20309167 0.011788825 0.14734219 -0.7283524 0.34065342 -0.18159683 0.17576821 0.005617378 -0.8060577 0.054293368 0.18582958 0.04404787 -0.24861522 -0.15749829 -0.0005336117 0.28547773 -0.01752983 -0.47390875 -0.13781525 0.34110287 -0.554034 -0.2112118 0.06930584 0.40052843 0.015221704 0.04222632 0.020618094 0.053004965 0.013312872 0.24488588 0.112376615 0.2972109 0.1830227 0.4075258 -0.2668002 0.06979227 0.07001467 -0.10937067 0.24967836 0.19265269 0.27705953 -0.56768537 0.015545129 -0.11825911 -0.061591506 0.1608321 -0.058443397 0.2551496 -0.049244158 0.41096297 -0.3591816 -0.0715134 -0.3845106 0.42222998 -0.19252312 0.15533862 0.31525093 -0.27344614 0.38918814 -0.16882256 0.0014351397 -0.39035508 -0.049820065 -0.2959152 0.03644072 -0.17985706 0.32373708 -0.012078939 0.12673302 0.26393414 -0.4158715 -0.009456852 -0.03739619 -0.30303296 -0.19532454 0.1870629 -0.36810666 0.032076493 -0.23937815 0.37726256 0.14162952 -0.31138664 0.78980577 0.035789832 0.14895588 -0.07073818 0.015942087 0.45096073 0.14537436
1210 -0.2000211 -0.0915932 -0.19933444 0.039770395 -0.0539475 0.30622956 -0.24690491 -0.35543504 -0.16515514 0.34525016 0.050580584 -0.3411515 -0.41934744 -0.02254863 0.042166658 -0.30052263 0.03927896 -0.2081727 0.1992743 0.1557696 0.48823917 -0.08893873 -0.13613793 0.11779198 -0.7553166 -0.1670254 6.421231e-05 0.0735669 -0.43327522 -0.022635661 0.25002494 -0.26915377 0.040190563 0.22152133 0.18732628 0.43956923 0.07767068 -0.11566324 0.19802277 -0.13082018 -0.0028666721 0.34834176 -0.5262348 0.49059227 0.01088028 0.3864395 -0.32200745 0.24138735 0.44928402 -0.06810955 0.32923195 0.10822884 -0.010624549 -0.43294683 -0.06591933 -0.13348623 -0.30178106 0.12482873 -0.17348385 0.088382095 -0.15137924 -0.18599746 0.055605114 0.30815852 -0.47205615 -0.15382276 -0.16561435 -0.318401 -0.043913547 0.3746722 -0.05985827 0.72341084 -0.095012665 -0.3528896 -0.14549065 -0.10419302 -0.06379001 -0.06076008 -0.06928638 -0.08112462 -0.12177112 -0.37117642 -0.014951303 -0.20901366 -0.04628596 -0.13462967 0.30956304 -0.13246582 0.046312205 0.232581 -0.0059568645 -0.12807567 -0.03240129 0.4789867 0.035112932 0.27522385 0.2674501 -0.16344471 0.27261487 0.44865754
638 -0.041621294 -0.045710977 -0.18920004 -0.1047032 0.28923237 -0.32104588 -0.033623658 -0.057578683 0.00066932454 -0.39955497 -0.428649 -0.08449792 -0.28247616 0.18590373 0.4723154 -0.0075408733 -0.1713253 -0.60031915 -0.28596476 -0.27903533 -0.035361428 -0.14236104 0.13481624 -0.3187401 -0.091398425 0.4132258 -0.00043276747 0.17489481 -0.057191513 -0.1907307 0.04725821 0.039090138 -0.4581208 0.19226815 -0.10055766 -0.018869407 0.096323684 0.1830205 0.1203494 0.035819147 -0.27211562 0.06237612 -0.1551798 0.026879534 0.21399207 0.47942278 0.4978822 -0.10327797 -0.31309804 -0.19739288 -0.0076239696 0.2934257 -0.09334952 -0.17186941 -0.3137401 -0.11896353 0.19652767 -0.21618 0.1771735 -0.46968758 -0.12747943 -0.3793852 0.69936377 0.3111418 -0.12616128 -0.6438279 0.045321133 -0.15344843 -0.5380506 0.34438342 0.18258952 0.50059974 0.16487937 0.30005804 0.24445328 0.29324627 -0.15877646 0.13614608 -0.028761523 -0.7911663 -0.021047425 0.26679996 -0.065985925 -0.05799524 0.2289032 -0.021733247 0.053496882 0.097563624 0.3417866 -0.20194834 -0.26806048 0.0067727924 0.07115839 0.34638202 -0.5020647 0.062020883 0.13959138 0.52660125 -0.22508335 -0.013177014
621 0.34136993 0.16860454 0.10824619 0.07017476 -0.168863 0.097805 0.050974853 -0.01972476 -0.20863234 -0.34785968 -0.08879233 -0.08740492 0.096297994 -0.1442381 -0.05255144 -0.06707551 0.23679182 -0.045633413 -0.09416268 0.21962385 0.10313012 -0.06891218 0.0138836 -0.056662705 -0.40838736 -0.52060944 -0.07995196 -0.06472429 -0.35851452 0.33863553 0.48711804 -0.1034604 -0.50576407 0.23307721 0.17835647 0.22640543 0.11584306 0.4424729 0.042188406 0.13368893 -0.024125108 0.24707626 0.023614313 0.36306712 -0.25626144 0.058001667 0.23607112 -0.053247042 -0.111180305 -0.13599543 0.0805119 0.403635 -0.21437205 -0.19797026 -0.01514711 0.13908727 -0.1949606 -0.0017054792 0.026006771 -0.18886223 -0.45563206 0.43161398 0.12971412 0.06337739 0.13440372 -0.64147353 -0.001456179 -0.15948565 -0.17315015 -0.01467995 0.05022724 0.5111961 -0.05100059 0.036523607 0.13652472 0.09660994 -0.26807752 -0.2920303 -0.23833227 -0.43416455 0.037820727 -0.061579965 0.2773261 0.007326537 0.07553818 -0.29891413 -0.11407571 0.49232712 -0.053125683 0.062713005 -0.0109638525 0.39645287 0.34285188 0.30010936 0.021254161 0.3232202 -0.15927407 -0.14372738 0.30384547 0.17271361
549 0.26008275 -0.09255576 0.11900873 -0.3857888 0.025604516 -0.1864676 0.1498609 0.0827217 0.2011918 -0.5496436 0.052534517 -0.38591114 0.050557155 0.037747994 -0.037175696 -0.35194233 -0.27906284 -0.3838723 -0.011786715 -0.1473936 -0.12785438 0.17852798 0.1657434 -0.46339694 -0.040035184 0.4946887 0.6661355 -0.09609284 0.29534206 0.22855198 -0.3163995 -0.18741685 0.12752335 0.014492811 -0.23723486 0.1691908 0.36260653 -0.059403 0.25513923 -0.26085225 0.13844787 0.01921297 0.19533227 0.29904905 -0.16855112 -0.011021464 0.11815847 0.27115846 -0.47833753 0.2563972 -0.23268344 0.3658572 -0.6497071 -0.22569811 -0.48179144 0.25661716 -0.3367792 0.34724602 0.044506434 -0.28794563 -0.29276237 0.022449046 0.35798147 0.16055208 -0.48642206 0.28095293 0.13731222 -0.21111307 -0.057350785 0.05731337 -0.332381 0.52834743 0.08316222 0.33812058 0.5559057 0.40625802 0.11050846 -0.23406811 0.36685792 -0.2747588 -0.08713961 -0.007668831 0.104681365 0.07921091 -0.05219291 -0.30640337 0.4728168 0.5010077 0.072953016 -0.69852394 0.04372032 -0.112658955 -0.013753467 0.6622199 -0.4269909 -0.46939564 0.64065677 0.35619906 -0.29352152 0.13538659
214 0.16543567 -0.15395704 -0.88535285 0.17204934 -0.31608257 -0.02384149 0.14963338 0.45879558 0.053294674 -0.207838 -0.6092062 0.15267764 -0.15507656 0.15931089 -0.49728918 0.31050074 -0.3574456 0.03055574 0.084551476 -0.22010745 0.05087283 0.021911552 -0.26706147 -0.15444516 -0.009891918 0.07333434 0.21182004 -0.20309266 -0.22999956 -0.08135022 0.23580375 -0.41297755 0.38858494 0.32839754 0.08119596 0.097890064 0.02466452 0.08343704 -0.09904741 0.11054295 0.33458367 0.017488133 0.7827949 0.4517236 0.04468404 -0.24750583 -0.12821391 0.18392858 -0.34251073 -0.08012914 -0.16656582 0.016296271 -0.15386896 0.04120765 -0.25735563 0.00026966064 0.03770839 0.015712768 -0.14493264 -0.121186025 -0.05776963 0.18519329 -0.09652713 0.09902347 -0.19884661 -0.3475974 0.38885263 -0.1394784 -0.016988669 0.1024313 -0.24052213 0.18363202 -0.59885687 -0.045454264 0.050914485 0.073383726 0.10248053 -0.37934127 0.062087063 -0.17972367 0.5557345 0.00930412 0.24467513 -0.019977277 -0.37937707 0.2127005 -0.3879874 -0.1966343 0.37255812 -0.33149475 0.056038212 -0.17029677 -0.33973545 0.27656654 -0.31729984 0.06710154 0.12849249 0.21587928 0.0021408424 -0.14213999
146 0.3629767 -0.07461317 0.28125533 0.061240006 0.33072135 0.43855724 -0.43000266 0.29550496 -0.34088647 -0.39420325 0.12994707 -0.013646259 -0.12979883 -0.31456318 0.14367063 -0.21529308 -0.114937834 -0.16211578 -0.08861805 -0.18840833 -0.019387843 0.16663642 -0.12890622 -0.12935613 -0.4425588 -0.34618452 0.0594499 -0.4161516 -0.34140027 -0.26060876 0.42777154 0.11136865 -0.43616167 0.20939443 0.090113774 0.084560126 0.16569988 0.22959192 0.14165422 -0.36872363 0.24575113 -0.19925821 0.00065737776 0.1891335 -0.1426819 0.38534242 0.27290782 0.06445924 -0.2416562 -0.2998559 -0.051092815 0.19383253 -0.06666397 0.04085541 0.42136562 0.23342462 0.014966084 0.19844359 0.39650857 -0.0029595662 0.011886005 0.7130219 -0.07913128 -0.14291097 0.11840549 -0.39859757 0.37336415 0.049494673 -0.11993443 0.24645679 0.05416771 0.46804804 -0.12603554 0.026818106 0.17228122 -0.18788172 -0.21809568 -0.3064003 -0.046965733 -0.10843694 0.051576056 0.09298508 0.41634625 -0.19756593 -0.11440037 -0.28925663 0.21778673 0.42310366 -0.098864436 -0.27981505 -0.03649076 0.49829027 0.22783642 0.5782174 -0.43574247 0.3184704 0.16939846 0.22202578 0.28455597 0.15514319
28 -0.17226888 -0.04139317 -0.50900686 -0.12791367 0.046085667 0.49354798 -0.47340465 0.053062107 -0.325035 -0.48813048 -0.1002507 -0.046839263 -0.04404389 -0.38628533 -0.081233166 -0.35259774 -0.42814088 -0.46674204 0.09785409 0.30102116 0.04607887 -0.45273373 0.47188914 -0.2518242 -0.3950535 0.03156292 0.412576 0.0019185728 -0.26619717 -0.24775419 -0.0035865784 -0.28355858 -0.44858035 0.07142433 -0.34016353 -0.5605305 0.012972 0.2846638 0.13474055 -0.14088199 0.2892673 -0.067553416 0.110143825 -0.22152092 0.29441667 0.31835356 0.038877886 -0.21088508 -0.09594821 0.17359054 -0.4738552 -0.19820754 -0.35579592 -0.021951897 -0.20946977 -0.18409118 0.3532024 0.0025389993 -0.21452552 0.08591235 -0.2331348 -0.23190978 0.14257239 -0.18267404 -0.32330728 -0.14285818 -0.49551034 0.5862444 0.19177766 0.22405936 -0.498479 -0.060365688 0.02591781 0.015238857 0.15545739 0.67138314 0.4033956 -0.10337899 -0.09220806 0.35833177 0.095264316 0.40887535 -0.2475495 0.4857838 -0.1368716 0.048314508 -0.35648143 -0.063274786 -0.07505937 0.3824157 0.07017947 0.05154945 0.019018656 0.00052900525 0.022087365 0.034501873 0.20250386 0.110246785 0.31561974 0.017598497
781 -0.31519702 0.28319758 0.12599847 0.02670696 0.14716217 0.566997 0.14764996 0.1095028 -0.12208318 -0.015038159 -0.028376808 0.39939702 -0.74923617 -0.07360172 -0.23331061 0.33727857 -0.6136356 0.14828388 -0.054073542 0.33739015 0.09046016 0.32423505 -0.0993731 -0.37256166 0.34024134 0.26726434 0.37392014 0.058035277 -0.23017116 0.7302716 -0.12476928 -0.3115292 -0.4456232 -0.10644574 0.19434385 -0.02764126 0.39711314 0.33297738 -0.5306516 -0.287615 0.07888755 0.08210227 0.41233167 0.019813158 -0.042411312 0.498777 -0.16919228 -0.19704235 -0.57389647 -0.46473262 -0.30904874 0.027557043 -0.0780126 -0.42664158 -0.0180296 0.08040514 -0.011728612 0.36606237 0.4163906 0.19558012 -0.13047838 -0.33517385 -0.15590118 0.11331058 -0.1572015 -0.15095164 -0.022337394 0.088101916 0.19348453 0.29183403 -0.071572445 0.0108161345 0.25553015 -0.10535201 -0.31995627 0.026127858 0.45572236 0.31119367 0.11684795 -0.07319451 -0.51397824 -0.20832801 -0.014250613 0.44531837 -0.026861535 -0.27949032 0.20614304 0.3474695 0.044006333 0.018410454 -0.16241194 -0.0052576954 0.30039716 0.13113174 0.03559282 -0.03148761 -0.23215751 0.09926884 0.11331138 0.16093719
1727 0.20017684 0.18546997 -0.3722537 0.118074484 -0.2775727 0.13754147 -0.015219243 0.465112 -0.35426316 -0.39748582 -0.11784759 -0.31364536 0.004404578 0.18415092 -0.7645815 0.37942356 -0.21379484 0.24819165 -0.017874755 -0.9085543 0.122934096 0.23148648 0.08517708 -0.26655647 -0.14034027 0.033451807 0.35301822 0.083572224 -0.4370198 -0.18194683 0.34050786 -0.5456225 -0.21075837 0.08647963 0.3914311 0.029695235 0.020372594 0.028499912 0.06812628 -0.020766435 0.22305425 0.08674843 0.37723672 0.1925626 0.41617328 -0.29824886 0.05181181 0.05767298 -0.17198595 0.22833885 0.21160156 0.33929422 -0.5784388 0.002008008 -0.120968714 -0.04078055 0.2021517 -0.097633585 0.29211822 -0.03751785 0.47878143 -0.32227314 -0.13151017 -0.4539709 0.444389 -0.25713828 0.14800653 0.3689809 -0.26651698 0.44288164 -0.1842419 0.010660991 -0.385497 -0.0551982 -0.36162904 0.012193606 -0.22558862 0.27164233 -0.0065412535 0.14871776 0.33601263 -0.38648158 -0.12786123 -0.05412638 -0.3278171 -0.25842553 0.2163788 -0.44756737 0.0065879263 -0.2918752 0.3636114 0.16445316 -0.2934894 0.83032197 -0.037269622 0.15605526 -0.10520684 -0.0052205487 0.46097863 0.1554018
103 0.25906846 -0.13798471 -0.19414997 0.057832528 -0.21268268 0.13190624 0.015643915 0.02092856 -0.093280375 0.2795224 0.54141235 0.23910785 -0.35843256 0.17749149 0.2226473 -0.010237251 -0.41755047 -0.3310249 -0.3014191 -0.25727436 0.09717289 0.13902569 0.30456254 -0.5767592 -0.5316114 0.42402783 0.65936506 -0.28640345 0.04732224 -0.35729757 0.35431764 -0.09427803 0.18020433 0.118903026 0.33623698 -0.22754315 0.39897412 0.57515645 -0.05891216 -0.4485333 -0.41287386 -0.39477104 -0.3242272 0.14934152 0.38343117 0.22934842 -0.018875772 -0.07014996 -0.30357376 0.4345079 -0.2778859 0.116894126 0.36172453 -0.16180746 0.27027258 -0.23094799 0.12988985 0.096011505 -0.004641682 -0.16849537 0.11818031 -0.31110552 0.22089186 0.08601006 -0.19265887 -0.07995158 -0.105459966 0.04774531 -0.23070441 -0.038159292 -0.20805784 0.13216934 0.07692696 -0.10603955 0.40131 0.4334226 -0.17898758 0.3257232 0.7100471 -0.095565595 0.21701214 0.14071447 -0.1818054 0.19499043 0.11633436 -0.31051508 -0.3796225 0.11892473 -0.06138409 0.20362963 0.4299113 0.10268672 0.164871 -0.029537318 0.039436072 0.24884072 -0.011139642 -0.327381 -0.35699368 0.16011928
198 0.13566838 0.5311322 -0.5317043 0.1473001 -0.02447369 0.0719214 -0.59610695 0.06645915 -0.1265116 -0.078676835 -0.21527891 0.17842174 -0.068313286 -0.5578754 0.24403712 0.21192102 -0.18350191 0.47591782 -0.38760045 -0.105919495 -0.06221526 0.07482311 0.069549166 -0.3734193 0.24544089 0.15682003 0.531956 0.07351036 0.16869628 0.38002527 0.2011111 0.23047704 -0.31808192 -0.3881439 0.5878544 0.5392618 0.63737434 -0.51183575 -0.20847593 -0.34725857 -0.25862435 0.2484796 1.0067048 -0.43358445 0.434026 -0.018363787 -0.9994357 -0.47725704 -0.28236362 -0.5928898 -0.60638213 0.13721426 -0.6313066 -0.52987397 0.11848757 0.22474389 -0.006529421 0.4788235 0.100515455 0.6289765 -0.12031837 -0.39631933 0.13103142 0.24156742 0.4537208 -0.19602674 0.45824423 -0.15799491 -0.241658 0.78485316 -0.41510057 0.073828 -0.118394814 0.023106841 0.3746483 -0.16888648 -0.013148882 -0.154846 0.5843669 -0.49146268 -0.23265181 0.13163167 -0.1072455 -0.05246894 0.4453541 -0.55077606 -0.4421204 -0.5004563 -0.8668806 0.73987794 -0.43725878 0.3685571 -0.16730997 1.0431039 -0.33950958 -0.27102727 -0.1763709 0.13668858 0.4582387 -0.26331654
1545 0.63711226 -0.43596098 -0.30388954 0.32954186 -0.14806962 0.45921645 -0.45744792 0.12205355 0.54243517 -0.11047908 -0.3717561 -0.19060011 -0.07859261 -0.1805954 -0.11404085 0.3005731 -0.07545786 -0.42893285 -0.14272672 -0.10662436 0.30439937 -0.19325273 -0.24490058 -0.087777965 0.33009124 0.024288384 0.10185181 -0.09287194 0.18837607 0.107239716 0.30187762 0.3222153 -0.51259416 0.08862642 0.039122507 0.24845845 0.42726323 -0.3695122 0.006931526 0.03471005 -0.35331818 0.097920075 -0.39082628 0.4348763 -0.18904667 0.024526127 0.08193131 0.027966471 0.081321254 -0.12362489 -0.38839942 -0.45161802 0.20048049 -0.10361513 -0.34175918 -0.37937495 0.34972534 0.19714987 -0.015391106 -0.011919398 0.25579968 0.25783086 0.12182774 0.19533207 0.027975244 0.45496586 -0.15888475 0.21214621 -0.040004667 0.52932703 -0.4014992 -0.030014168 -0.43720984 -0.22932418 -0.04016207 -0.0649373 0.20470001 -0.025751507 -0.059845917 0.072027445 -0.5489194 0.044937845 -0.30648318 0.2691013 0.32916102 0.58683527 0.1285427 0.6058997 0.12896107 -0.022649797 0.38712427 -0.46143308 -0.09924574 0.20184119 0.35675424 0.032616794 0.091031566 -0.09919607 0.2707117 0.15411067
2661 0.04045332 -0.65898526 -0.70928735 0.06324182 1.0191889 1.5648359 1.0922021 -0.44964367 -1.2251235 0.18266566 0.9560256 -0.07427829 -0.80298024 -0.50235516 1.4854145 0.4248386 0.59785235 0.4570577 -0.28317645 -0.79895836 1.1978079 0.33806816 -1.0564746 1.0545956 -0.22527558 0.055755544 1.3310758 -1.7859268 0.22369725 0.18800084 -1.3057446 -0.8156315 -0.3908525 -1.0796599 1.3637964 2.0568595 2.010397 0.59874356 0.12904255 0.4598191 0.030079365 -0.98152 0.9422695 -0.7481542 0.22810309 0.7276465 -1.3592082 -0.31986916 -1.9907119 -0.08056407 1.4009384 0.32063887 -0.7187089 -1.1082879 0.12935174 0.11759615 0.38716 -0.027653566 0.29624358 -0.60116094 0.009786231 -0.52275866 0.6386873 -0.36222968 -1.2331684 0.47760364 -0.3609822 0.8957501 -0.43895134 1.2096195 0.32548025 0.024287118 -1.0378982 0.692416 0.63720536 1.6823968 0.30049354 -0.92135066 -1.0672731 -0.8980281 -0.10580004 0.005964221 -0.54580754 0.49373206 -0.6299134 1.0238415 -1.3541915 -0.061789747 0.37571034 -0.926712 1.5403788 0.2473998 -2.0778682 1.5968716 0.044961125 0.24514244 -0.35541147 0.01640647 0.32529688 0.9203908
555 0.35064042 -0.29028878 -0.6320855 -0.9331423 -0.011499284 0.52034444 -0.16474599 -0.10731757 -0.4609969 -0.04801809 0.67247194 0.16237827 -0.28922716 -0.5002025 -0.25855368 0.10997264 0.26782364 -0.6306483 -0.46707386 0.5871689 1.1740667 -0.54433703 -0.009592158 -0.102476895 -0.5257884 0.32313606 0.15853584 0.2608169 0.32551235 -0.22678573 -0.29128823 0.6567194 -0.029108746 1.3084798 0.35138527 0.00945833 -0.58529 -0.504263 -0.8133217 0.18707044 -0.31618744 0.2686902 0.67681974 0.10971459 -0.18635729 -0.23771662 -0.0984787 0.26026133 -0.9339856 0.1953164 0.5926522 0.6472888 -0.4131269 -0.22114845 -1.3556664 0.06499248 0.4593398 0.0035204822 -0.47405547 0.08666877 0.08440226 0.13748999 0.7657579 -0.21902347 0.22490668 0.67729765 0.608486 0.2135698 -0.012970735 0.4681235 -0.036638286 0.009053738 -0.14562283 -0.78273696 0.030141853 0.75990117 -0.1499896 0.92739445 -0.2648839 -0.23302934 0.1335743 0.3857679 0.6057296 -0.53497005 -0.073958814 -0.48846385 -0.6381853 0.7317696 0.042324804 -0.53488487 0.30857655 -0.48796862 0.0873391 1.011632 -1.0885998 0.34011447 -0.6603362 -0.15720217 -0.23884632 0.011539938
675 0.40720627 0.39632985 -0.4783602 0.3793113 -0.12018153 0.35239774 0.26237342 -0.27209815 0.25310647 -0.6517194 0.18716668 0.02964653 -0.1585764 -0.021366186 0.50630313 -0.25267905 -0.07508605 0.14038931 -0.223167 0.35581523 0.22349763 0.041514274 -0.12506884 -0.19871345 -0.23106425 0.33638674 0.2266946 0.14360942 -0.26783562 0.049400307 0.40123314 -0.080292635 -0.22227132 -0.099810176 0.006896489 0.111142114 -0.11240536 -0.13335457 -0.5641754 -0.012407903 0.0073475502 -0.3982339 0.61818355 0.19336388 0.19945447 -0.09758992 0.1269539 0.07401657 -0.19624242 -0.36604738 0.25911614 -0.0041533643 0.10851887 -0.0012119048 -0.33450666 0.2596564 0.42432916 0.27510804 -0.20045199 0.18758056 -0.24612746 0.0048986417 -0.30043915 0.14168207 0.03824977 -0.38058412 -0.1007244 -0.3928208 -0.28994295 0.30891973 -0.5266103 -0.16806212 -0.64965284 -0.041840527 0.30852422 -0.30615312 0.31013656 -0.008319104 -0.14661953 -0.3181024 0.35008618 0.18839742 -0.08095354 0.108509235 0.020635344 0.22280774 0.42708188 -0.26906103 0.11507743 0.104068264 -0.14010099 -0.49533415 -0.35194454 0.13032897 0.13491182 0.39110553 0.09540439 0.18864441 0.11884523 0.5712188
60 -0.19595596 0.22363922 -0.26933366 -0.5650882 -0.21042204 0.47594696 0.042424846 0.3546325 0.1641933 -0.35798636 -0.18869649 0.15691648 -0.04100925 -0.3385158 -0.7080826 -0.04870286 -0.3870462 0.1023066 -0.41817036 -0.08295423 0.22469456 0.023030706 -0.57253 -0.2546005 -0.13541229 0.27295095 0.4618925 0.11845473 -0.3427443 -0.11701282 0.21600677 -0.9135664 0.09487057 -0.016571548 0.4157484 -0.27813092 0.11214191 0.15729316 0.334949 -0.505711 0.3095977 -0.28665453 0.71833205 0.43321505 0.26945382 -0.085506976 0.24188259 -0.11017179 -0.01668852 0.6632239 -0.1085318 -0.18976587 -0.3912713 -0.37953606 -0.20925899 0.17189828 -0.039460286 -0.3552295 -0.31317303 -0.39306232 0.23590738 -0.4447367 0.4866007 -0.44469017 0.45215848 0.15159874 0.37977216 -0.21440603 -0.1923868 0.17030169 -0.18914117 -0.24465035 -0.08055292 0.093201995 -0.33055788 -0.30475378 -0.15310068 0.099114075 0.004750248 -0.07834984 0.29371777 -0.4979694 0.08331353 -0.066064164 0.4231894 0.13854522 0.33753094 -0.08669561 0.3189789 0.15295875 0.013882295 -0.29762694 -0.4175618 0.6634543 0.11534247 0.17866012 -0.19050105 -0.11823274 0.44302332 0.55299103
3321 -0.08146021 -0.44708458 -0.47942027 -0.080770314 0.22621441 -0.26672328 -0.34877318 0.25058427 0.2474894 -0.1291408 -0.31730333 0.660606 0.27318305 -0.19875766 -0.25907075 0.17173684 -0.123090476 0.74162066 -0.103194535 0.20187093 0.0972402 -0.15123051 -0.48063067 0.4385277 -0.13918373 0.0044449847 0.48678404 0.12169031 -0.0965705 -0.40306836 0.14788803 -0.13331096 -0.22332361 -0.18225549 0.23373094 -0.21945032 0.09907303 -0.3306885 -0.17560214 -0.20369561 -0.36694333 -0.121924 0.07779608 0.30503148 -0.1055119 -0.20493473 0.7045558 -0.31142998 -0.69944733 -0.14787729 0.22799921 0.33623663 -0.3380945 0.11582328 -0.7536182 -0.055491716 -0.14423393 0.14236261 -0.30473727 -0.43410805 0.5269925 -0.24507219 0.1440295 -0.056168534 -0.41364497 0.28977945 0.17943193 -0.099382654 0.16504982 -0.31948233 -0.26178825 0.50777704 -0.056123868 0.22553955 0.36498335 -0.22107457 -0.008528041 -0.2800206 0.19976574 0.071489654 0.2033465 -0.31708127 0.026875848 0.08208309 -0.13647252 -0.1950396 0.08910908 0.08543937 0.66577685 0.20278615 0.103512816 -0.47873366 0.04673624 0.40924054 0.20683403 0.3624124 0.24030556 -0.051048335 0.1268283 -0.086088814
1170 -0.15717177 -0.18237375 -0.06517322 -0.5035893 0.096782304 0.36793518 -0.24179022 -0.11097459 1.0280153 0.18338665 0.21373156 -0.1488522 -0.41180235 0.43398324 0.024482155 0.5472682 0.37940648 -0.2671373 0.08679164 0.19502436 0.84316504 0.1941784 0.3224862 -0.47971043 0.07725961 -0.28578067 0.19851163 0.20476256 0.0038990786 0.13240969 -0.1483158 -0.4534834 -0.6734209 0.38625863 0.88783246 -0.1950257 -0.0046109855 -0.3158734 0.04781374 -0.0837407 0.36555323 0.21699785 0.06096873 -0.22609699 -0.17503613 0.27765033 -0.80852664 -0.32655162 -0.6085986 0.24149759 0.5284245 -0.0157742 -0.24316783 0.33433348 -0.3883674 -0.11691631 0.08262396 0.23690017 -0.008400325 -0.23649128 0.08697908 0.4121115 -0.1379123 -0.8367087 -0.3076689 -0.528482 0.4351066 0.008385471 -0.007874385 0.21395929 -0.03578932 -0.121162005 -0.23842654 -0.0018613867 0.12932025 -0.039386675 -0.17833193 -0.05102235 0.40655518 0.18357098 -0.10564542 -0.241077 0.37121463 0.67559344 0.073114425 0.37093943 -0.23334026 -0.5495514 0.2415 0.29910433 -0.57944787 -0.14235584 0.38749245 0.19068788 0.0484986 0.7926889 -0.07096887 0.14201367 0.13356493 -0.5987496
3324 -0.04063506 -0.41451705 -0.43990684 -0.053144127 0.23423836 -0.24165633 -0.33050063 0.2510483 0.22548573 -0.119954266 -0.25279853 0.59469897 0.29578224 -0.21091294 -0.24882387 0.17181759 -0.12109102 0.7282631 -0.11622791 0.24658883 0.10191963 -0.09293908 -0.4637184 0.40422848 -0.13841614 -0.0140572805 0.50718784 0.07298017 -0.05998151 -0.40768883 0.1609944 -0.16699055 -0.18877341 -0.16374744 0.24830925 -0.21256979 0.10806359 -0.33293048 -0.1260978 -0.14131892 -0.36621025 -0.14153534 0.099493496 0.27163965 -0.060831144 -0.18543555 0.6647234 -0.38619325 -0.7112991 -0.1270358 0.19811389 0.35420546 -0.44299203 0.15285502 -0.69433933 -0.07167078 -0.12553272 0.13498396 -0.22662829 -0.3989278 0.5093975 -0.24885188 0.18536381 -0.043831553 -0.37085322 0.35739106 0.19615115 -0.09870847 0.14833191 -0.32462257 -0.19106768 0.5650404 -0.076409504 0.24455015 0.34897256 -0.21168944 -0.02019933 -0.17685977 0.15997864 -0.007732455 0.21907513 -0.34981042 0.0039246585 0.029647628 -0.11040748 -0.21177465 0.112395495 0.096144386 0.67772776 0.20248047 0.09411736 -0.46864057 0.015489524 0.37257665 0.14742912 0.34153947 0.26861534 -0.06828433 0.18128975 -0.09885588
1863 -0.031328652 -0.19790089 -0.6334788 0.1206881 -0.11737322 0.111731745 0.05935391 0.30734494 0.10653369 -0.38171723 -0.5082519 0.26310527 0.01473222 -0.05385964 -0.28500322 0.08433772 -0.37050095 0.41536888 0.22278094 0.035420854 0.15313461 -0.020266637 -0.65297025 -0.033531018 -0.03354113 0.059725314 0.56311184 0.028419627 -0.2552998 -0.31504884 0.13588479 -0.48873195 0.20104058 0.04256859 0.30809915 -0.1002924 -0.09155719 0.14375745 -0.23677656 0.0454413 -0.07608414 -0.05070558 0.53431886 0.4431196 -0.12536302 -0.008067167 0.08995073 -0.08236714 -0.42258412 -0.053975243 0.11534672 -0.0298864 -0.28653997 0.07427466 -0.52394295 0.015746564 -0.14515457 0.030125156 -0.3742575 -0.114692114 0.4904935 -0.21615963 0.12764186 -0.035361324 0.23979615 0.0974201 0.30574375 -0.1557507 -0.1639591 -0.08115347 -0.38511002 0.2612008 -0.5222142 0.12922978 0.048697233 -0.0055450676 0.033620417 -0.1553576 -0.0019893718 0.24885303 0.5819257 -0.26691484 0.09175702 -0.10615542 -0.045247205 -0.12118449 0.11579389 0.020377321 0.34932706 -0.086050935 -0.15436766 -0.28288192 -0.23427586 0.2867434 -0.083569795 0.2790104 0.11142328 -0.304026 0.10237118 0.10919365
2770 -0.63259006 0.15488707 -0.23600253 0.3713025 -0.17154808 0.4839778 0.22444576 0.5680693 0.53523964 -0.86233765 0.91227436 -0.59156185 0.17184654 -1.1857036 0.010420434 0.6256391 0.84101343 -0.29945216 -0.47596106 -0.3655667 -0.1110297 0.12107747 0.26434815 -0.15636568 0.111464396 -0.11492674 0.90844727 -0.18769658 -0.043728616 0.10585847 -0.07567929 -0.50439477 -0.21938995 -0.4652771 0.30705824 -0.48683983 0.7933594 0.05803858 -0.6145176 -0.17232047 0.09270384 -0.98865145 0.15770122 0.054150075 1.4466347 0.17666009 0.45533413 0.40025994 -0.37476802 -0.061299358 0.10971924 0.24118136 0.71966255 -0.100515164 -0.49546546 -0.21032901 0.39387643 -0.23487607 0.04875487 0.27357244 -0.78952557 -0.32642436 0.280703 -0.27682728 0.5824931 0.33358353 0.32045156 0.13008483 -1.331017 -0.070401296 0.18348612 0.103092894 -1.0512038 -1.1347058 0.65740037 0.015638364 0.30506492 -0.12113804 0.66149944 0.1423101 0.13573667 -1.1423421 0.35677108 -0.052091036 0.53283876 -0.21053335 -0.60556656 0.22033167 0.28407624 0.6107594 0.16391617 -1.1378229 0.6313124 1.6606379 0.33891565 0.26846442 0.47995922 0.29087386 0.43136203 -0.40278766
