1052 300
537 0.044436783 0.035186883 -0.020690236 -0.023139127 0.04276922 -0.10455624 -0.09600599 0.10578461 0.042924475 -0.028087629 -0.03127086 0.048032593 0.058948614 0.13296239 -0.04763842 0.09407534 0.08144013 -0.055933163 -0.06925547 0.04177004 -0.02091726 0.10476847 0.18029742 0.031962506 -0.17443024 -0.056177657 -0.00828307 0.14529362 0.05813756 -0.00019665074 -0.15940519 -0.07615281 -0.08719053 0.020823639 0.020499049 0.12958953 0.11348193 0.029450146 0.1457348 0.18790261 0.057472706 0.0024594034 -0.16441771 -0.012945425 0.0031387862 -0.1065304 -0.09486969 -0.04499661 0.07811264 -0.22192752 0.22543757 -0.05161008 -0.1473752 0.028929146 0.04559671 0.2399854 -0.046908535 -0.02680092 0.096105725 0.08067735 -0.05337882 -0.057007838 -0.059870753 -0.10815014 -0.01999077 -0.098948285 0.009324037 -0.027843643 -0.0051901317 -0.16157265 -0.13089387 0.13779975 -0.070373505 -0.03459705 0.008031631 -0.095275134 -0.01257973 0.06751902 -0.0007506065 -0.058137175 0.0797997 0.16549489 -0.10270735 -0.012665211 0.22511289 -0.01535089 -0.057696808 -0.11292663 -0.20897235 -0.17863335 0.08786028 0.02202419 -0.17956558 -0.16390403 -0.0076563233 0.053279486 0.13473214 0.03249502 -0.055246245 -0.0067542824 0.10673052 -0.013304108 0.06083319 -0.014940843 0.0021948188 -0.01550435 -0.07218171 0.188555 0.012035993 0.080767706 0.012267406 0.06453026 0.013774695 0.13248768 0.033337425 0.07181959 0.024023207 0.057941932 0.030744383 -0.09815718 -0.029959625 0.13111767 0.18178415 -0.04847096 0.08281747 -0.086692244 0.12522474 -0.07567748 -0.08103186 0.15031685 -0.16789564 -0.17164753 -0.14740957 -0.02730614 -0.03687292 0.0043594097 0.059540775 0.08604268 -0.0331845 0.051846087 -0.17099471 -0.13712113 -0.24393103 -0.09665756 0.12133904 0.15854377 0.12321055 -0.019388508 0.14874409 -0.24078986 -0.12762712 0.12348961 -0.050728254 -0.103410594 0.13811636 0.07855182 0.13989486 0.041212004 -0.18571778 0.13223892 -0.043818593 -0.008848524 -0.07310784 0.027838133 -0.13871014 -0.3623581 -0.1079881 -0.0034377964 -0.012187813 0.17726609 -0.11079076 0.12182733 -0.066740744 0.12468415 0.027883092 -0.102076426 0.055782642 0.06540437 0.05380772 0.07943977 0.08783877 -0.005020625 -0.07963366 -0.17514329 -0.31598714 0.034324553 -0.043473914 0.033019125 -0.00825715 -0.016248973 0.16550004 0.014227973 0.24401774 0.05776447 -0.06688991 0.027538087 -0.092377 -0.067942925 0.0676012 -0.124536075 0.17989372 -0.026664544 0.07707974 -0.061411943 -0.036423538 0.07883216 0.012448577 -0.1564531 0.04256453 0.02224715 0.0073015387 0.07973982 0.027900495 -0.097198874 0.079049304 -0.049327582 -0.057963375 -0.036128744 0.04327151 0.05670304 -0.018594546 -0.060705006 -0.016202474 -0.117091686 0.26704964 0.034595132 -0.0703857 -0.111251816 0.07216913 -0.038904708 0.025107833 -0.033324752 -0.1510958 0.10206625 -0.04595388 -0.01648724 0.031265028 0.053184677 -0.06597947 0.07613525 -0.06024948 -0.0666124 0.0014285436 0.06530486 0.007560385 0.110610425 -0.09940813 0.13637032 0.02929132 -0.21862409 0.027890798 0.007487291 -0.13861778 0.040189337 0.11295068 -0.052243825 -0.043073714 -0.16255023 0.008444125 -0.061477516 0.059691362 0.12494231 0.056994565 0.028808776 -0.04814989 0.06792573 0.023884665 0.025467295 -0.019009141 0.11292818 -0.09166015 0.034026977 -0.021864353 0.12282372 0.06897979 -0.17966397 -0.004048888 0.047948554 0.14397307 -0.09674843 -0.03343938 -0.24111648 0.060605086 0.039456002 -0.06146161 -0.07286905 0.00519906 -0.17156652 0.0028636379 0.18130541 -0.12870449 0.020320099 -0.018129641 -0.1853095 -0.1348182 -0.1623573 0.1612319 0.19926353 0.10546977 0.023018984
339 -0.04710492 0.08503713 -0.22684151 -0.17156333 -0.11281482 -0.19128366 -0.1263278 0.072030485 -0.063647 -0.09286758 0.03995351 0.12524775 -0.04278292 0.1576453 -0.06705581 0.2550312 0.12522106 0.07962373 -0.14913264 -0.043222334 0.021475492 -0.012673919 0.09068097 -0.0755909 0.048829507 -0.12009865 -0.079799056 0.19421522 -0.1672075 0.010049971 -0.091982454 -0.07793331 -0.11834477 -0.08464073 -0.004617438 -0.06018983 0.049669713 -0.027686505 0.021591436 0.15034921 0.031755954 -0.027135704 0.009878611 -0.010071204 -0.02086369 -0.054960836 -0.012301794 -0.001510672 -0.058143076 0.08567084 0.087253325 0.0026099735 -0.027506853 -0.10748931 0.000630649 0.10260363 -0.11750569 -0.023600698 0.06620748 0.024897482 -0.19610202 0.10456828 0.00467375 -0.18519972 -0.070238546 0.1422273 0.19012225 -0.02086961 -0.1633831 -0.16291022 -0.06929088 -0.096325204 -0.1838151 0.021672562 0.12538214 0.020093355 -0.17612311 0.05470347 -0.07421055 0.14223151 0.117975675 -0.015189053 -0.09333534 0.12159815 0.23601095 0.04906355 0.1057931 -0.0852665 -0.11870618 -0.110380374 -0.064503945 0.035331104 -0.11319298 0.074348405 0.01572546 0.14678341 0.14609423 0.06910861 -0.06688328 0.14070384 0.047134902 0.02696101 0.09715647 0.02663811 0.1336071 -0.045249254 0.06677899 0.10804653 -0.13509361 -0.2679184 -0.03004362 -0.059063584 -0.043683566 0.18239594 0.07430495 -0.018023802 -0.0096006235 -0.029055681 0.067644455 -0.09229372 0.049922172 -0.0017377278 -0.027959153 -0.122670434 -0.08487424 -0.038541935 -0.019816946 0.24486853 0.027694872 0.07757628 -0.20142145 0.011053472 -0.027133655 -0.09149427 0.04981286 0.0922505 -0.0782132 -0.001598954 -0.14619353 0.08313068 0.03784848 -0.025025588 -0.018559914 0.021985693 0.09806781 -0.0035063762 0.12918952 -0.17868118 0.04113527 -0.12548006 -0.15188462 0.10291426 -0.11524283 0.06525479 0.13492703 0.20253564 0.14288062 0.0042594504 0.022177787 -0.061337575 -0.091343515 0.09362705 0.01426962 -0.06891385 -0.06364626 -0.05720215 0.02225106 0.16276695 -0.085192986 -0.07561864 -0.19078436 -0.09789156 0.0057547805 0.019037744 0.072877355 -0.013504158 0.032582182 0.07937556 0.17517191 -0.14965636 -0.021196729 -0.046465654 -0.015979748 -0.034439627 -0.100282334 -0.007816825 0.16164193 -0.08192464 -0.046442084 0.0816683 0.12204645 -0.06103082 0.065388545 0.02727035 0.12926185 0.14050893 0.036601048 0.015193003 -0.016659744 -0.03665721 0.0663709 -0.039809596 -0.0319612 0.08238103 -0.12724137 -0.1075438 0.06378538 -0.057311404 -0.06659217 0.09879111 0.013357067 -0.05191894 -0.0931409 -0.1201755 0.049055617 0.09110704 -0.123754606 0.024322536 -0.101566575 -0.058088697 0.18153669 -0.016525917 -0.10809013 -0.05252006 -0.10977767 -0.039501537 0.094040506 -0.058156837 0.02510676 -0.0060395445 0.051931307 0.070487976 -0.044188518 -0.075751655 -0.03530174 -0.07420204 0.057868693 0.052934606 -0.03517399 -0.16272122 -0.08571102 -0.04882193 0.043256946 0.031509798 0.027175918 0.12599516 -0.07120309 0.14432515 0.10950027 -0.010110424 0.16980958 0.0013292991 -0.11373778 0.018588 -0.09344527 0.07285146 0.071809895 0.016447145 -0.079337746 -0.030688137 -0.018278139 0.13433999 0.073602065 -0.036829304 0.072109535 -0.04476585 -0.19859716 -0.08713657 -0.06054879 0.016088733 -0.094100006 0.15197684 -0.045882676 0.10405619 0.13315505 -0.012101302 -0.16561612 0.012366621 -0.0074805035 0.062806085 0.20287387 -0.07879523 0.1844037 0.08034327 0.034019295 -0.0034804558 -0.20898904 -0.23209745 0.10900957 0.07489448 -0.1539007 -0.09629227 0.0770197 0.025774652 -0.17464295 0.017388066 0.23428938 0.17387347 0.119207695 0.08544181
46 0.3332079 -0.035572734 0.14779389 0.057807535 0.027664786 -0.071507946 -0.10132024 0.08102555 0.11273846 -0.36167243 -0.03743342 0.18730675 0.18415645 0.2240905 -0.11940934 -0.22617185 0.22020075 -0.06636421 -0.16562094 0.34161663 -0.17421117 0.10061563 -0.23535928 0.02174236 0.41866198 -0.2193292 0.16515803 0.23785926 0.068161696 0.07601136 -0.042142395 0.3338293 0.22921096 -0.34997967 0.31659776 -0.010084215 -0.10938761 -0.32681206 -0.25105843 -0.24734177 -0.2266395 -0.11282518 0.009861165 -0.011825793 -0.411874 0.23806791 -0.10631465 0.22048473 -0.15305965 0.037035916 -0.17098343 -0.32387757 -0.17759448 0.018945163 0.060785573 0.028105142 -0.2338589 -0.2499136 -0.09156247 0.21374623 -0.14540286 -0.13232392 -0.18053134 0.056110844 -0.10342353 0.1226337 0.116874054 -0.24276532 -0.21200745 -0.20598671 -0.29768854 0.36528537 -0.025802802 -0.11209069 0.1847446 0.11711062 -0.23942037 -0.046858296 0.14532898 -0.27339578 -0.1690646 0.012544253 -0.0704718 0.21907288 -0.3087744 -0.13458492 -0.09737288 0.19657224 0.2611198 0.031084465 0.36578253 0.14730962 -0.08711993 -0.0881769 0.08968887 0.37250775 0.0418395 -0.23385248 -0.07967788 -0.21530585 -0.15664004 0.12542662 0.072732136 -0.32469916 -0.058167238 0.09329828 -0.074771844 0.13193528 -0.059276313 -0.1346659 -0.06121939 -0.02694837 -0.23074271 -0.03296692 -0.018139077 0.4580606 0.51680017 0.06774908 -0.041947957 0.049405012 -0.07357248 0.060442038 0.3146268 0.23976402 0.016409744 -0.21122824 0.10696322 0.23959795 -0.15177518 0.035963986 -0.21588251 -0.10744364 0.005217908 0.06167529 -0.057195574 0.21113642 0.34558895 0.36755165 0.19487244 0.1060585 -0.2282877 -0.09816324 0.19379883 -0.1411382 0.3777643 0.38793218 0.0027738104 -0.020438217 -0.116337754 -0.30870715 0.1716362 0.27053353 0.27643323 -0.13674742 -0.32363558 0.17508243 0.26678 0.06711775 -0.021460371 0.2236114 -0.2226989 -0.20191966 0.26939875 -0.017532755 -0.044439662 0.054581165 -0.05689313 -0.06029699 -0.35105377 0.0010366422 0.07457076 -0.19978167 -0.040924318 0.028560387 -0.2264207 -0.16021869 0.3146874 0.386155 0.1688415 -0.03991335 0.27931613 0.022498135 0.025200251 -0.0012902836 0.113829434 -0.23114707 -0.06363809 -0.17513275 -0.29249 0.15689592 -0.028666263 0.18034731 -0.04611674 -0.44344717 0.23088922 -0.29198524 -0.00017908783 0.42609763 0.28834316 -0.009536394 0.038772613 -0.23500754 -0.14455518 0.045470685 -0.04913588 0.19612768 0.35893875 -0.016307056 0.10092952 0.3714344 0.09524024 0.07647191 0.115838975 0.25858402 0.10747316 0.13988326 -0.41674826 -0.025626287 0.15301077 -0.080134444 0.053896595 -0.00403184 0.095949136 -0.18123329 -0.26461685 0.118858404 0.03311373 0.03858193 -0.18505684 0.28567654 0.018322442 0.19285351 -0.16781813 0.0662361 -0.01993235 0.11517287 0.033018466 0.35607964 0.024859095 0.15678474 0.06318629 -0.10945411 0.13645594 0.22871271 0.1635265 0.25356078 -0.0030541185 0.11621672 0.16203143 0.09785958 0.14862776 -0.09913773 -0.06496773 0.10818623 0.1184106 0.05904823 -0.2563649 -0.10822652 0.22496 0.4254568 -0.31938398 0.24170123 0.1522085 -0.22858754 -0.1859526 -0.19498686 -0.09575449 0.15189105 0.1526846 0.046315376 0.026982576 0.26984122 -0.2550019 0.24845935 -0.02214616 0.2910555 -0.41458538 0.013140913 0.34494925 0.18190752 -0.116573766 -0.08624841 -0.102049656 -0.029322773 -0.25409347 -0.047510136 -0.15060177 -0.0038468179 -0.20568675 -0.057344526 0.03448889 -0.048842344 -0.09022836 -0.20561509 -0.09331175 0.014930816 0.007057135 0.32024518 0.13123034 0.21585311
92 0.13630252 -0.022200085 -0.051907133 -0.02440982 0.076700754 -0.00035695144 -0.017589506 0.043746598 -0.0037368813 -0.38951084 -0.040154163 -0.09131017 0.00600309 0.1487774 -0.007688607 -0.016309282 0.25758752 0.20980689 0.030521408 0.2759176 -0.109776594 -0.07425354 -0.26165986 0.037481062 -0.0033949104 -0.044986904 0.15807468 -0.024073051 0.0619238 0.2277054 -0.049066104 0.11058616 -0.06395126 -0.27254397 0.19114493 0.012842457 -0.060118597 -0.22522984 -0.26235557 -0.06056005 0.06941388 -0.035780545 0.012469277 0.06163012 -0.18322703 0.22798061 -0.02732628 0.024745615 -0.15698713 0.037765924 -0.25599998 -0.13349707 -0.22155954 -0.0321711 0.05662308 -0.060507435 0.05623033 -0.037512984 0.101383895 0.22601658 -0.2658407 -0.30934355 -0.21216889 0.1457767 -0.10281814 -0.20570336 0.25936896 -0.056321938 -0.08980052 -0.1228977 -0.18985352 0.20732437 0.06267808 0.07923822 0.32842538 0.107465744 -0.2785357 0.0063979323 -0.019746639 0.053844567 -0.114932194 -0.04735651 -0.13477683 0.2232119 -0.18615066 -0.2728328 -0.012895364 0.20361994 0.08594306 0.092882656 0.3013662 0.20484632 -0.11789975 0.0015420461 0.1772339 0.17454755 0.1666679 -0.11174737 -0.13992898 -0.14877595 -0.021487873 0.057765454 0.19335626 -0.059707563 0.057485502 -0.1027227 -0.04942998 0.090121225 0.13741994 -0.1977167 -0.041085534 -0.011005235 -0.006754049 -0.055080473 -0.007907451 0.52045655 0.1749584 0.027807007 -0.07274986 -0.0077815573 -0.093914695 0.096369125 0.28356853 0.03625424 0.37120768 -0.22901188 0.13909908 0.09339545 -0.031675506 -0.118803985 -0.30505317 -0.01868649 -0.22731681 0.09680364 -0.05327718 0.032429982 0.28201163 0.10333176 -0.113497354 0.08401171 -0.13235238 0.15119754 0.20462415 -0.045730386 0.25031868 0.2759756 0.15195103 -0.051570836 -0.19483869 -0.13022916 -0.0879628 0.14771491 -0.021437686 -0.27323347 -0.22977938 -0.010470459 0.15035318 0.027309489 0.007295796 0.30126566 -0.057147093 0.19290821 0.21747147 -0.008943 -0.07401167 -0.00438452 -0.11774357 -0.06348384 -0.1332878 -0.081538275 0.012889016 -0.033150528 -0.08968443 0.033486098 0.09119657 -0.10767318 0.17791167 0.09359684 0.18158582 0.011297229 0.2978144 -0.09736412 0.034097552 0.19127825 -0.0065237433 -0.14532232 -0.07827362 -0.0630601 -0.1851526 0.08726415 0.021464225 0.18582477 -0.04991641 -0.2920248 0.24363177 -0.12713575 0.038698103 0.1182042 0.13416675 0.11333904 -0.05044387 -0.23800974 -0.06545824 0.017851692 -0.30005556 0.049259707 0.3345321 0.012442292 -0.069674216 0.13689774 0.0039420156 0.06482741 0.086356044 0.034112927 -0.08262014 0.1825741 -0.29967877 0.011314121 0.28440228 -0.31148553 -0.027015898 0.12775761 -0.024842326 -0.39257285 -0.2996737 0.1391157 -0.010779489 0.19070107 -0.04642935 0.15399525 -0.05247461 0.13396037 -0.17903155 0.10016797 0.07576845 0.18167375 0.027946655 0.2674484 0.0019988026 0.056373354 -0.055592943 -0.028441397 0.05435144 0.114307895 0.19612785 0.01157224 0.040779907 0.1005088 0.10944438 -0.026538575 0.09889235 0.06584066 -0.050788842 -0.11923247 0.049475238 0.06352565 -0.06759327 -0.2551262 0.0707857 0.16559987 -0.13849586 0.21093965 0.1259296 -0.14400263 -0.012027452 -0.090387 0.013546904 0.012057897 0.070255265 0.10821425 -0.14748836 0.31173688 -0.33446813 0.104769915 -0.03304528 0.09059529 -0.18721028 0.018152718 0.17604773 0.09862111 0.05018494 -0.04333895 0.1470772 0.16842747 -0.14381959 -0.13180241 -0.21664132 0.060723297 -0.2496592 0.079232566 0.07068546 -0.021620162 0.25727525 -0.22724216 -0.029695434 -0.2045696 0.13217248 0.19255815 0.055149656 0.023690827
24 -0.09779027 -0.006763565 -0.11852456 -0.14167036 -0.088952504 -0.13083754 0.10070823 0.15036708 0.062180884 -0.23257926 0.17384468 -0.06484556 0.1548975 0.29719135 0.15678293 0.08848316 0.3074947 -0.16137308 -0.07740955 0.11781449 0.093968004 -0.22809839 -0.03137029 -0.12283049 0.27940816 0.06989369 0.026009502 -0.023467736 0.05376044 -0.057044197 -0.16097863 -0.07911172 -0.18098745 -0.14132738 -0.40692344 -0.17391661 0.09498577 0.034443315 0.10327366 -0.16678442 -0.028123548 0.21004839 -0.04024017 0.12529023 0.06139145 -0.020018868 -0.21350203 0.13004401 -0.24739897 0.004984042 0.2228013 -0.11604197 0.058382537 -0.14607473 -0.138323 -0.18000732 -0.16468264 -0.030843435 0.079354756 -0.032170616 -0.19471197 -0.05922382 -0.17676468 -0.0069435467 -0.033519693 -0.008279194 0.009093519 0.14592312 0.27488625 -0.07585343 -0.112129614 0.03784693 -0.14513995 -0.05481408 -0.15135813 -0.018964289 -0.040143523 -0.13344155 0.066743776 0.061265282 -0.21341267 0.07742322 -0.11205868 0.09959022 0.07974315 -0.09562609 -0.047720797 0.027256394 -0.037736095 -0.12319775 -0.05136987 -0.09615447 0.0017652105 -0.22454222 0.29597384 -0.2577664 -0.031859092 0.07428318 0.0736068 0.029948091 0.11319279 0.03142634 -0.118966214 0.15426037 -0.09716727 0.013628871 0.11185256 0.08799329 -0.09167448 -0.14813744 -0.012928769 0.012187508 0.06993427 0.04580094 0.15051518 -0.072818495 0.04779325 0.11629485 0.026956154 -0.026316088 -0.12475013 -0.0059741805 -0.21127716 -0.005856329 -0.21374376 0.04846609 -0.11765724 0.104115404 -0.1324184 0.11319309 -0.099386826 -0.09128627 -0.1907581 0.043980345 -0.060968313 -0.049364474 0.14119808 0.062044363 0.14344001 0.04622785 0.16945864 -0.0013064703 -0.10282713 -0.07090115 -0.07613038 0.13363396 0.1416782 0.0818903 -0.09583 -0.26331306 0.29515317 0.12385673 0.033956908 0.20425291 -0.13862482 -0.0019530623 0.237697 0.07530125 -0.0331871 0.12385796 -0.0995384 0.11382977 -0.1913843 -0.053263456 -0.3244868 -0.051672097 0.27925265 0.083675995 -0.05105808 0.1427742 -0.090072244 -0.0570705 -0.10433307 0.2057671 0.021040563 -0.0012688409 -0.13920252 -0.09652965 0.055806603 0.29880542 0.15227959 -0.24728598 -0.26961237 -0.22313102 -0.05886524 -0.14472245 -0.20608857 0.19511437 0.19764537 0.495284 -0.32152584 -0.25239274 0.06075 0.11492651 0.16443889 0.14392713 -0.08124348 0.11418342 0.17502259 -0.08792314 0.047503985 -0.15097652 -0.036545243 -0.20753647 0.05891873 0.16125381 0.004375124 -0.12364415 0.038601995 -0.0031337156 0.042231545 -0.10527229 -0.19451031 -0.20134225 -0.07175261 -0.18849698 0.040342674 -0.120722696 0.43677276 0.2052963 0.063968785 -0.11145643 -0.051687848 -0.2305469 0.040743727 0.065467015 0.028308675 -0.1046983 0.14830881 0.1719792 0.038237616 0.13888893 -0.12695907 0.042054303 0.2687422 -0.27885044 0.30563903 0.09652418 -0.050006405 -0.09077667 0.036638953 0.031171924 0.08585545 0.054151878 0.09041459 0.09772419 0.11806559 0.06533061 0.021266904 0.047854424 0.27063084 -0.038275547 0.020720286 -0.07447906 0.09564903 0.01936198 -0.120572075 0.048704624 0.19477369 -0.042716738 -0.17161931 0.090176664 -0.061534777 0.10149461 0.0418334 -0.09742548 0.036899112 -0.23689839 -0.07266151 0.25491732 0.011792306 -0.028832512 0.19090748 0.037805106 0.13854247 -0.04961823 -0.22249846 -0.08533673 0.3227586 0.0648376 0.11072399 -0.048946857 0.1423721 -0.00040416126 -0.44450372 0.07687665 0.020237252 -0.13360938 -0.0880131 -0.044136703 -0.14034808 0.3869018 0.41024873 -0.3597827 -0.014932964 0.19632974 0.1183034 0.14339247 0.2575579 0.04508356
9 -0.11090923 0.01840488 -0.010344826 -0.12832533 -0.35177323 0.014295801 0.002398032 0.090988584 0.14210436 0.08237546 0.06765474 0.012019141 0.13334809 -0.018480156 -0.20234583 0.24447161 0.00050932413 -0.2039406 0.17909543 0.02899576 -0.059251245 -0.060929153 0.19059621 -0.20003612 -0.18884645 -0.08029847 0.017952632 -0.031736575 -0.07813099 -0.06358556 0.1083887 -0.108283445 0.024451818 -0.063409775 -0.10979447 0.17358151 -0.09460474 -0.18884511 -0.054796506 -0.102955736 -0.023290016 0.082938924 0.165363 -0.07212309 0.19152993 0.053792465 -0.07659157 0.029959314 0.07499281 -0.095717534 0.015651455 0.16861741 -0.23603702 -0.037114862 0.15019357 0.12902819 0.040489323 0.025579207 -0.074632816 0.029194396 -0.28110975 -0.031062555 -0.16715229 -0.10078961 -0.13066325 0.090385556 0.17527138 -0.11320082 -0.112838656 -0.04732226 0.1369466 0.023065247 -0.17187715 0.053061306 0.01843663 0.11546105 -0.014779203 -0.1826778 0.07368239 0.07550701 0.035925757 0.13919728 -0.121856265 0.05200895 0.041004445 -0.20107202 0.23842435 0.014314008 -0.2250492 0.115087256 0.012889073 -0.058218364 -0.059099406 0.22414738 0.25326225 0.1376035 -0.15559746 0.10557554 0.008726374 -0.08907149 -0.16412315 0.071171984 0.12695263 0.2012805 -0.21414356 0.22765315 0.21227469 0.041541707 -0.04811565 0.012883835 0.19090506 0.24188276 0.08846635 0.0035417296 0.08020123 0.21255246 0.030664917 -0.120792486 0.082471944 -0.060261793 0.20052582 0.02025122 -0.2701218 -0.15328537 -0.01111473 0.025711134 -0.007503668 -0.21058597 0.08787287 -0.056961723 -0.034562413 -0.120456144 -0.1398597 -0.22796226 -0.07617268 -0.050844103 0.014465548 0.15273201 0.06734193 0.009355249 -0.02685745 -0.016154096 -0.04146854 0.050067034 0.07250042 -0.00906887 -0.15728761 -0.16080846 -0.07562267 -0.12773594 0.032028493 0.1263679 -0.13474467 0.082108356 -0.12830615 -0.08249627 0.10181798 0.1924611 -0.058656417 0.12647533 0.11061204 0.004659854 -0.021673275 -0.2213715 0.04019673 -0.28159717 0.21097939 0.09185125 0.014127394 0.059571944 -0.032893915 0.016362067 0.18692738 0.035266854 -0.075449064 0.07917948 0.0322239 -0.14836717 0.2318868 -0.037038088 0.081628434 0.1283342 -0.066484705 0.111235954 -0.08900694 -0.110361114 0.053762652 0.12079736 -0.13962792 0.05641237 -0.101914115 -0.10813297 0.18148406 -0.09798728 0.06944074 0.0047574 -0.08940199 0.16505677 0.10902852 0.0840132 0.11004426 0.10340769 0.05000506 0.19697404 -0.07195399 0.07900043 -0.2051823 -0.1152654 -0.15022345 -0.12441007 0.008444034 -0.06134488 -0.07590499 0.22575194 0.061728626 0.22160453 -0.12151845 -0.2831577 0.038353145 0.05071883 -0.21843378 -0.06656269 -0.105795056 -0.0145927565 0.0068101534 -0.24115746 0.19494651 0.08991163 -0.12900984 0.15629487 -0.099702686 -0.02904145 -0.05568429 -0.10539452 -0.10713154 -0.02590751 -0.09567054 -0.08387265 0.024796331 -0.18069904 0.003003963 -0.14180866 -0.06941184 -0.1478597 -0.016220253 0.06392678 -0.04608028 0.10748455 -0.1110825 -0.23090197 0.06321697 -0.0038777567 0.034400284 0.246568 -0.15577446 0.004450064 -0.010338707 -0.1704901 -0.18402421 0.24020171 -0.23317151 -0.14445153 -0.091812916 0.11205697 -0.13514115 -0.01553116 0.03703778 -0.022302343 -0.024611354 0.031780466 0.090208955 -0.027921636 0.016614035 -0.0622735 0.07760733 0.06011228 -0.08544663 0.05810321 -0.011958303 -0.08742664 0.1148828 -0.23945381 0.028997563 -0.09346669 -0.024717577 0.16249752 0.21131214 0.06197813 -0.1650729 0.20184895 0.30897152 0.11816644 0.12779462 -0.013783575 0.0106938705 -0.06125089 0.18237737 -0.021920774 -0.15939666 -0.14763062
5 -0.12905186 -0.27991727 -0.0091839405 -0.21021412 -0.118416525 -0.28638446 -0.20297772 -0.071011245 0.27674207 -0.0713933 0.025712615 -0.03685444 -0.084284805 0.23382197 -0.07714918 -0.017888607 0.17207342 -0.17973247 0.0880641 0.23178661 -0.17859094 -0.1912305 0.36153454 -0.22529681 -0.24087472 -0.21418375 -0.014567558 -0.0998624 -0.0986654 0.05038576 -0.2524665 -0.2100985 0.0010953948 -0.13737023 -0.24797855 -0.022484016 0.06627772 0.17991343 0.040561482 -0.07147863 -0.01982094 0.3100282 -0.03022189 -0.011576167 0.16198154 0.049310308 -0.009408325 0.29531476 -0.05496224 0.019327423 0.09732845 0.0117851775 -0.10058758 -0.01474629 -0.17232646 0.19561267 0.009618429 0.1384524 -0.1365014 0.042520877 -0.35756552 -0.34469932 -0.19286194 -0.07853441 0.022363668 -0.02260527 0.14233215 0.04023792 0.08914988 -0.06932838 -0.15276381 -0.11445029 -0.15005955 0.0950854 0.17169134 -0.13228807 0.059281018 -0.020059241 -0.076351635 -0.013614345 -0.18482709 0.01984774 -0.08538272 0.4713728 0.08396167 -0.2114839 0.0019120981 -0.13354336 -0.22038342 0.009611108 0.27679712 0.11175694 0.044799034 -0.03220162 0.1863536 0.071543 -0.13994364 0.102825195 0.074906245 -0.053360596 -0.20453398 0.029014818 -0.15769564 -0.024472062 0.10482445 -0.08962457 0.07580165 0.14380525 -0.21470661 -0.04805443 -0.00041207072 0.04569776 0.043004945 -0.1893297 0.07087203 -0.09319716 -0.09270232 -0.04592307 0.005869935 -0.40174025 -0.07968652 0.17983772 0.10520561 -0.09672714 -0.07920875 0.087154284 0.1401795 0.12708996 -0.24981578 0.11593638 -0.16037172 -0.18891884 0.010244267 0.020781087 -0.023493314 0.021864519 0.16982904 0.0384466 0.17344217 -0.03784441 0.045248028 -0.08507012 -0.18517634 -0.17220676 -0.14952607 -0.05768864 0.04438961 0.11651643 -0.0075143115 -0.2545763 0.09328131 0.04861321 -0.06832683 0.08224517 -0.004933999 -0.0035007738 0.18936148 0.06689244 0.1963392 -0.22833058 -0.0029959665 -0.12882452 -0.0015359817 -0.32275057 0.1701303 0.1885285 -0.12898518 -0.026517488 0.17185222 -0.073195785 -0.16560414 0.10675329 0.296484 0.17714676 0.024770629 0.19634363 0.22323486 -0.22839475 -0.05134406 0.17747435 -0.10453772 -0.04009684 0.03760775 0.012658365 0.028965706 -0.049601763 0.14342724 -0.018079977 0.006271502 -0.01165834 -0.002422715 0.26065588 -0.0041015367 -0.05568797 0.026340902 0.13182934 0.107071675 0.16777319 0.13089389 0.0424213 0.06076229 -0.13585047 -0.029400304 0.05176261 -0.07853094 -0.017056031 0.0005173424 0.052779876 0.21527117 -0.02869636 0.26184237 -0.3633866 -0.007120508 -0.0991339 0.04685483 0.16008013 0.07709314 -0.008363374 -0.13900709 0.004576423 0.031226119 0.03619515 -0.014616725 -0.26241207 -0.22497466 0.035736464 0.05922067 -0.20974596 0.07877561 -0.020873742 -0.078803934 0.09317271 -0.033876795 -0.13533446 -0.051890153 -0.0974127 0.15630202 -0.09872345 -0.101429455 0.0380092 -0.1027213 -0.021664334 0.03563777 -0.105996706 -0.06469989 0.027257545 0.1242893 0.20294504 0.07831125 0.04319553 0.07620803 0.00016311435 0.005497397 0.04197388 0.105668254 0.06616931 -0.22423825 0.026499886 0.014343969 -0.15195806 -0.25447926 -0.0007884463 -0.4112238 0.22563973 0.013769845 -0.048709143 -0.23672979 -0.08113861 0.085608855 0.119010575 -0.016014496 0.25386027 0.26852328 -0.07098262 0.11002665 -0.179694 -0.09076334 0.00015777048 0.014585719 0.16511132 -0.00991494 0.15977682 -0.11730806 -0.27068445 -0.21931027 0.17048328 0.13648148 -0.08222327 -0.02142977 0.02832886 -0.38864118 -0.12611906 0.133309 -0.062605016 0.15480216 -0.14818463 0.116862044 0.20519353 -0.020887105 0.06535208
377 -0.026272578 0.05953198 -0.1813298 0.1098442 0.24936196 -0.14612618 -0.12915713 0.21558864 0.005990427 0.02277381 -0.053153217 -0.13333268 -0.026618565 0.055109367 -0.15272053 0.19512416 0.11049846 -0.008567493 0.067484275 -0.07954838 0.113297224 -0.0423742 -0.0018096541 -0.045509983 0.022366544 0.07912306 0.052056924 0.0062374054 0.062378317 0.23349233 0.033489075 -0.020163845 -0.084853634 -0.021723162 -0.21150973 0.2710095 0.14324756 0.04167702 -0.03119652 0.0047093392 0.055590816 0.06788646 -0.052048597 0.13947967 -0.07388865 -0.16194254 -0.05989788 -0.024600191 -0.046660267 0.13826108 0.22474857 0.021712128 0.067538135 0.017199019 -0.19137552 -0.02744522 -0.059451886 -0.057001993 0.062016826 0.20593625 -0.08349334 -0.08487191 -0.009971989 -0.2409891 0.14279877 0.30162582 0.09659466 0.046769146 -0.03509604 -0.1513658 -0.10728769 0.012315023 0.11197343 0.12268309 0.028360572 -0.117912315 -0.25470722 -0.112525016 -0.21085857 -0.012056235 -0.07530936 0.02613907 -0.21956478 0.16098447 -0.026678994 -0.32885206 -0.029353566 -0.249025 -0.08182046 0.099790566 0.0005460741 0.056399114 -0.048040304 -0.060516812 -0.04271281 -0.07102069 -0.030624425 -0.016976159 0.008926864 -0.13804603 -0.14247353 0.09103766 -0.12718733 -0.05198661 -0.09269688 0.19520754 0.2854413 0.15918393 0.1835616 0.021169124 0.005875845 -0.090635024 0.052244358 -0.09036645 -0.17512412 0.11999009 0.12462496 0.011284503 -0.0428778 0.042015247 -0.0719303 0.11827361 -0.32564235 0.06367845 -0.038267583 0.1409699 0.1838212 0.14179093 -0.08332586 0.011395167 -0.08858238 -0.13606726 -0.10709994 -0.02627744 0.14947782 0.051219888 0.048442684 -0.049535938 0.16372539 -0.08861511 -0.12531663 -0.033715293 -0.034803174 0.12594657 0.26980457 -0.088009045 0.12857907 -0.18929373 -0.043360002 -0.19039494 -0.17495652 0.07339876 -0.16940878 -0.23123394 0.05945513 -0.19955517 0.1427953 0.17487414 0.15565485 -0.16506924 0.074505225 0.058182586 -0.06985408 -0.04760088 0.10977038 0.094033904 -0.04192398 -0.013052748 0.14144853 -0.06709733 -0.10470063 -0.05298714 0.037482027 -0.24886192 -0.1774601 0.14108175 -0.1144676 -0.020065522 0.23366277 0.11865703 -0.19094321 -0.07833181 -0.061771795 -0.16148777 0.1643835 0.037603453 0.16516688 -0.22213951 -0.11520962 0.019732494 0.08907255 -0.100064434 -0.2126145 -0.0064579314 0.06665967 -0.005743679 -0.032232754 0.17049116 -0.01562083 -0.07596764 0.0357313 0.08804454 0.032464225 0.10054284 -0.03760809 -0.15809415 -0.09627855 -0.23549949 0.2849042 -0.07875291 -0.1351222 -0.011931597 0.16498852 0.04923379 0.09201007 0.08845448 -0.0077193608 -0.08799905 -0.0042126286 0.21592285 -0.07500946 -0.053036444 0.02643224 -0.10712418 -0.094036125 -0.14835253 0.049701784 0.0075174035 -0.11717904 0.09388274 -0.06388805 -0.04009513 -0.1792842 0.08778923 0.067372896 -0.12202766 0.18529586 0.0017382468 0.07486814 0.08924193 -0.28456014 -0.059749115 -0.192045 0.009695065 -0.05274977 0.17736374 0.12528913 0.13667628 0.06812901 -0.16683172 0.0052081873 0.0010701871 0.120376416 -0.13086085 -0.02999535 -0.30699584 0.2516895 -0.24459592 -0.16857488 0.10618071 -0.20748587 0.11304787 0.00030861373 0.07576647 -0.090865634 -0.15551288 -0.16394792 -0.108024694 -0.009034524 0.020300472 0.060173005 -0.19537832 0.013501585 0.0891374 -0.07972673 -0.18066937 0.06714202 0.1565338 -0.0073773055 0.12071136 0.059188373 -0.036315743 0.15423952 -0.117009915 0.06719564 -0.03152472 -0.053953145 -0.32530856 -0.007825013 0.037772864 0.09840912 -0.2032986 0.1460349 0.1910512 -0.0653835 0.14620614 0.19108744 0.047896966 0.015815912 -0.07245722
244 -0.023036044 0.034385707 -0.06876188 -0.036899406 -0.044876207 -0.06464616 -0.021949701 -0.0064901398 0.15375175 0.07797474 -0.15330282 -0.011157967 -0.023508033 -0.022122735 -0.13819122 0.20005317 0.1776762 -0.31675607 0.09392347 0.045427177 0.2870263 -0.18722302 0.14525321 0.00089390663 -0.12122397 0.001998298 0.09221153 -0.071224354 -0.16359106 0.16042839 -0.09869876 -0.047623727 -0.2364143 0.1743601 -0.20711753 0.20963791 -0.07546593 -0.006352664 -0.033926394 -0.052181426 -0.1829219 0.054938003 -0.09709256 0.01576041 0.19532126 -0.031746253 -0.22428133 0.025192663 -0.02805185 0.032480385 0.10047457 0.009094591 0.05303384 -0.020720713 0.26559925 -0.00999222 -0.026468731 0.04027394 0.24779049 0.012081091 0.06164453 -0.03598974 -0.23618789 0.030855102 -0.024712615 0.029258575 -0.047636874 0.05662747 0.17561139 -0.3622116 -0.2780893 0.014913753 -0.005745731 0.052597247 0.055538435 0.0326673 -0.04248305 -0.21226142 0.068845764 0.02380879 0.053367108 0.2027793 -0.1853061 0.076691665 -0.2320992 -0.23320214 -0.03580374 -0.22721261 -0.015399628 0.053991854 0.11631132 -0.08551801 -0.011530082 -0.036695145 0.10916978 0.09096273 -0.17180853 0.24320659 -0.0016269077 0.09028286 0.017476749 -0.084013134 -0.00273372 0.00312451 0.17053878 0.119515195 0.021463275 0.27276435 -0.18803369 -0.24180155 0.07147393 0.11627488 -0.042858675 -0.19425954 -0.044156276 0.17380425 0.1860378 0.062692605 -0.13136105 -0.11652541 0.15213425 -0.010253376 -0.04174341 -0.08974769 0.1542776 0.11011144 0.048332877 0.043274425 -0.11665302 -0.03821157 0.023291862 -0.26021445 0.26343846 -0.04120617 -0.02250051 0.010823433 0.07758991 -0.18410292 -0.09147402 0.0038736535 0.27577385 -0.1494885 0.01690872 0.123969294 0.16313519 -0.13854861 0.009953393 -0.0709825 -0.016721271 0.059249103 -0.03268009 0.14970684 0.09182721 0.3132014 0.08414994 0.012918172 0.0816899 0.02583013 -0.12751883 0.07805822 0.038712814 0.030897794 0.04288752 -0.17874236 0.17660135 0.0090254955 0.072914205 0.3218544 0.10863779 0.032998726 -0.14113045 0.059642754 0.22602995 0.12291374 -0.045093596 -0.07593218 0.06379334 -0.019534055 0.17608356 0.18823214 0.09513797 0.004227814 -0.16541351 -0.12391057 0.02368872 -0.115404226 -0.12407334 0.19744526 0.027411671 -0.030499816 -0.050507568 -0.0920995 -0.09180845 -0.18476218 -0.018643802 0.10291326 0.11640435 -0.096573636 0.047071937 0.028439509 -0.02928972 0.05623574 -0.25563043 -0.012503552 -0.05003585 -0.17433478 -0.28160608 0.057519633 -0.086339645 -0.27420634 -0.06531006 -0.13815443 -0.11996212 0.03417387 0.22780737 -0.13778995 -0.22494967 0.1758192 0.13063584 0.010732698 0.091839135 0.027488958 -0.05478853 -0.05062038 0.02796818 0.03455389 0.23494337 0.12326606 0.1627464 0.16901049 -0.035887893 -0.20323712 -0.09319883 -0.083553836 0.040959116 -0.02643081 -0.030194523 -0.06244587 -0.032522194 -0.12519519 -0.35059062 -0.17362696 0.18232991 0.001442935 0.16862483 0.2856664 -0.04867267 0.073894575 -0.063263886 0.023317745 0.049500532 0.0734431 0.03275543 -0.12357312 0.09369792 -0.32117176 0.07183917 -0.08242147 0.020438427 -0.008256013 -0.12470071 0.060454335 0.025300387 -0.047797643 -0.14650923 0.16948049 -0.19834524 -0.06578869 0.007065654 0.08744051 0.17447445 -0.05849457 -0.25036603 0.18114719 0.003744323 -0.09144488 -0.13885683 -0.10670552 0.044633023 -0.09667855 -0.102925405 -0.066812746 -0.03816804 -0.063861564 -0.016409727 -0.122364074 0.03825014 -0.029647432 0.11020963 0.02150463 0.11082968 -0.06765129 -0.08759214 0.08719402 0.076537564 0.017949104 0.15322825 0.082465746 -0.057530027 0.096950404
742 0.106298134 0.10715526 -0.07055326 0.0061107883 0.108288266 0.2515144 -0.17861947 -0.002418234 -0.08578906 -0.1865315 0.0928744 0.027481716 -0.033443503 -0.04889446 0.04042262 0.004811131 0.09574806 0.11779657 0.042307515 0.30567464 -0.041867454 0.0949788 0.26375166 0.14607677 -0.18085113 -0.056879807 -0.14554825 0.07644415 0.108711675 0.07807165 -0.17671037 -0.09334049 0.11402366 0.043365672 0.035606127 0.09965417 0.1422908 -0.20487589 -0.0006653381 -0.13866648 -0.010143467 -0.09503778 0.04805713 0.1260385 0.00012287864 -0.1992245 -0.11327437 -0.24197711 -0.18568529 -0.14832288 -0.0174664 -0.0033145596 -0.15696187 -0.07664163 -0.029754633 0.052580755 0.013529628 -0.053337228 0.072324775 -0.07901825 0.118685566 -0.01172651 -0.09952072 0.016786283 -0.115161985 -0.34572533 0.1310228 -0.03228293 0.09615463 0.026698932 0.015763924 -0.15050694 -0.023776103 0.023983458 -0.15239228 -0.12680143 -0.1935305 -0.16812867 0.030816074 0.27816656 -0.06078877 0.22283581 -0.17555384 0.2941178 -0.12592249 -0.096789904 0.05375435 -0.16133294 -0.3029403 0.08879414 -0.01948235 0.048228577 -0.021771083 0.20366828 -0.20335877 0.17967893 0.0439367 -0.2185286 0.0039018546 0.24000274 -0.018337982 0.017709905 -0.07626682 0.010923797 0.044094138 -0.058417663 0.17467842 -0.20575374 0.06013534 -0.17558296 0.052781906 -0.17562135 0.15797246 0.028738325 0.118674055 0.29320523 0.016977463 0.20091303 0.045290217 0.012615438 0.14482325 -0.25932777 -0.057909593 0.13837828 -0.008034213 -0.20080161 -0.08510043 -0.058959942 0.2605661 -0.0037134108 -0.059308387 -0.07110475 -0.1756236 -0.040898625 0.12364289 -0.058475338 -0.025230465 0.17929193 -0.055753186 0.18300399 0.2558978 -0.25667787 0.0033887078 -0.19638805 -0.0056939404 0.18119247 0.19071205 -0.0066148154 0.012955836 -0.03612623 -0.28651932 0.123496756 -0.086463645 -0.072245635 0.026737059 -0.0062516565 0.095559895 0.059068106 0.0034640643 0.21707205 -0.19250341 -0.0153646115 0.12706728 -0.16711627 0.033203136 -0.04583386 -0.07084758 0.083480775 -0.12442982 -0.21134552 -0.10456056 -0.08823292 -0.028827224 0.021579476 0.11415142 -0.028723063 -0.1530748 -0.028221449 0.26516294 0.2618895 -0.027503513 -0.26400697 0.048567045 0.09388979 0.05590347 -0.092383124 0.1332494 -0.22453171 -0.086209096 -0.015272801 0.06258298 -0.016314277 -0.14156154 -0.0077486737 0.3079104 -0.026030142 -0.040824726 -0.20842497 0.32544893 -0.09040971 -0.10682946 -0.34489682 -0.08428712 0.058025077 0.011385776 -0.04918679 0.21342778 0.102223024 0.22162592 0.14115913 -0.08242376 0.09869027 0.047808535 -0.11153988 0.040170163 0.006231305 0.007980191 0.13598746 0.24433297 -0.02667565 -0.058113992 0.1994514 0.015959661 -0.08759992 0.10563376 0.041234106 0.23466645 -0.07216237 -0.086912036 0.042957775 0.12570041 -0.17800939 -0.32068154 0.039414473 -0.026503932 -0.0017828406 0.14630291 0.2105955 -0.034170922 -0.07559399 -0.10524663 0.11669802 0.041386433 -0.014444088 0.07484881 0.03880092 0.038084846 0.225741 0.0042777993 0.07159634 -0.11192145 0.0525621 0.062450517 0.054599915 -0.04348061 -0.01802741 -0.12872744 -0.06955864 0.15616676 -0.03501403 -0.2515392 0.21182346 -0.19096926 -0.17644142 -0.21773624 -0.12696764 -0.15898201 0.098490275 -0.082112394 0.29365018 0.042303666 0.050653413 0.14002153 0.106969066 -0.01160442 0.00834152 -0.09090702 0.048348203 0.013022278 0.29192594 -0.047068562 -0.041252505 0.1310488 -0.07462856 -0.26563632 -0.16965944 0.045737173 0.09322382 -0.12971845 0.13513681 -0.019956209 0.08859487 0.099873975 -0.15477763 -0.03712191 -0.2564684 -0.07973016 0.104810864 0.05324417 -0.005788412
301 -0.2326273 0.037561625 -0.13090527 -0.051097278 -0.21277723 0.015511373 0.16545676 0.03693522 0.21347238 0.012691967 0.12542318 -0.008880701 0.060150117 -0.079970784 -0.1890095 0.1808903 0.08984511 0.044708215 -0.091775574 -0.17186946 0.112043 0.07687797 0.21533601 0.031026553 -0.059683703 -0.0007059195 -0.031568788 0.14657183 -0.1596029 -0.05201616 -0.013127502 0.19541237 -0.0017131394 -0.10185781 -0.1748472 0.051020853 0.11380226 0.11212528 0.31724468 -0.045383554 -0.14784089 0.08914319 0.055485684 -0.010386899 0.29071203 -0.01578163 -0.24897495 0.23038581 -0.01873456 -0.0012346312 0.05144138 0.12493282 -0.07403521 -0.07991764 0.12118051 -0.013068248 -0.096155666 0.08579535 0.1633252 -0.010765825 -0.18666755 -0.12931487 -0.07824631 -0.15508097 0.063199766 0.1672093 -0.15188278 -0.009102896 -0.03365415 -0.0507988 -0.09554799 0.18313889 -0.09420454 0.013954453 0.05582588 0.23750146 -0.028661426 -0.13140935 -0.043578524 -0.06400237 -0.0583952 -0.059148476 -0.1930998 -0.0029202811 -0.10436129 -0.08512856 0.15887655 -0.06123826 -0.022367192 -0.07247469 -0.066438965 0.024904164 -0.054554015 0.16048515 0.14214967 0.15692997 0.015266448 0.15331237 -0.101812825 0.08592832 -0.081703894 -0.14311576 0.058878582 -0.025963098 0.18431595 -0.0539417 0.21953104 0.006246198 0.0072524617 -0.13602939 0.09750749 -0.06745067 0.15296136 0.008906453 0.19064398 0.018053634 0.034410074 0.15209417 0.023564458 -0.068649404 -0.09255225 -0.032769125 -0.11002921 -0.100299016 -0.032932065 0.10784156 -0.018167993 0.12611541 -0.14302097 -0.08391723 -0.40512693 -0.12286255 -0.06666319 -0.0997848 -0.11711873 -0.16676712 0.20369487 -0.102009594 0.027164161 0.07491798 -0.008799196 -0.21530962 -0.11345996 0.0031365007 0.18484673 -0.21565463 0.14458343 0.08589797 -0.085971706 -0.06557105 0.040010955 0.1660948 0.053298324 -0.13871169 0.03459571 0.16195412 0.19908366 -0.15084806 -0.007280244 -0.024058226 0.047380757 0.08864754 0.07771491 -0.13161908 0.034558266 0.14088883 -0.10505453 0.07340862 -0.23441228 0.13362554 -0.073519394 -0.17977136 0.035486307 -0.044055022 -0.13959005 -0.29122764 0.13418199 0.0147925345 0.10900394 -0.21806996 0.013688198 -0.022063414 0.030286375 0.060837712 0.026848467 -0.021656035 -0.07989767 0.17219736 0.20511338 0.10721746 0.06610369 -0.2625942 0.10073729 -0.17984809 -0.12369508 -0.019194296 -0.115867995 0.15456183 0.06394973 0.04626795 -0.12934896 0.19705762 -0.19199158 0.036747575 0.044946834 0.031868476 -0.07126048 -0.03622974 -0.0059079397 -0.23651503 -0.006762359 0.28628045 0.12326859 0.13064507 0.050320853 0.026058994 -0.044475358 0.18278493 0.0829178 -0.090924114 -0.07758856 -0.20873873 -0.060673524 -0.1260472 0.12302168 -0.10575767 0.19425377 -0.114123695 -0.05916824 0.0018951605 0.05256076 -0.15663259 0.060088035 -0.09985055 -0.053672206 -0.078004636 -0.015841331 -0.07107999 0.10123983 -0.20586753 -0.029632298 0.14364895 0.04080621 -0.07757776 -0.11773317 0.12599722 -0.038132332 0.20301494 -0.003446616 -0.2519571 -0.12853584 -0.0819964 0.12149865 0.039971497 -0.028391443 -0.03192229 0.055042487 -0.27296856 -0.02751402 0.018135345 -0.19916123 0.091139615 -0.1726485 -0.08110137 -0.11480916 -0.18559933 -0.12935187 -0.30261755 0.01352536 -0.051232364 -0.040450353 -0.10307116 -0.04317619 -0.09127726 0.2429108 0.2313811 0.01575389 0.02078488 -0.0054482627 -0.040506307 0.16910754 0.16862738 -0.07574503 -0.100319214 -0.10245528 0.03371822 0.028417483 0.024112077 0.21337654 0.05784906 0.22183354 0.016029656 0.15713786 0.116502084 -0.04040683 0.1707552 0.14525254 -0.04049782 -0.010480305 -0.025761755
37 0.029418163 -0.027817061 -0.1756349 0.02043118 -0.016110962 -0.1943048 -0.17741475 0.03303347 0.11660177 -0.1562772 -0.029794032 0.06960873 0.16806684 -0.1761018 -0.19634143 0.29825577 0.088535786 -0.057869196 0.1401765 0.023301277 -0.10020969 0.14603877 0.027457722 0.13683654 0.1802938 -0.027055485 -0.0053443452 0.11622194 0.12741244 -0.010071902 -0.0641278 -0.43219808 0.038911514 0.12521425 -0.063340224 0.13635823 0.11155197 -0.04268837 0.23264876 0.092993 -0.12915191 0.006967576 0.00025721797 -0.1465448 0.17713036 -0.16172978 -0.13439198 0.076251574 -0.08393428 -0.013918158 -0.26706737 0.15949762 -0.19193111 0.059892036 0.06854567 0.010020724 -0.15337762 0.1553152 -0.10666198 0.089977406 0.018725654 -0.24211377 -0.2159946 -0.098538235 -0.06560729 0.13639776 0.06104803 0.041426647 -0.12100769 -0.1643224 -0.15311664 0.06913349 0.1713531 0.015201835 -0.016874237 -0.030935323 0.2004056 0.02656308 -0.11181812 0.07932211 0.07191675 0.2013539 -0.08959757 0.12474174 -0.061902527 -0.10402591 -0.083933085 0.23181976 0.062443692 0.012375132 -0.03429881 0.11877592 -0.19906926 -0.11588433 0.16043371 0.03724486 0.027475094 0.06584652 0.08768767 0.0009879015 -0.08404614 -0.05581365 0.10651624 0.08731168 -0.06377292 -0.020383332 -0.01084002 0.23509794 -0.042181663 -0.12258525 0.15574405 0.107056096 -0.056444615 -0.025232254 0.18490653 0.057364553 0.24219908 0.059604436 -0.03546625 -0.25484088 -0.015869765 -0.002890453 -0.03039172 0.117222115 0.0099604605 0.019706365 -0.092947714 0.016755687 0.013319274 -0.013919153 -0.08263776 -0.17405629 -0.014525272 -0.12250251 0.06254207 0.032004878 0.114474334 -0.1666896 -0.208034 0.007024071 0.013950933 -0.028374605 -0.04621355 0.029850535 -0.16344091 0.062176466 -0.1433261 0.21769485 0.046493176 0.0046916995 -0.17243586 0.20045817 -0.042643722 -0.13842593 0.03545514 -0.08748217 0.117731005 -0.084168494 0.1632178 0.18426651 -0.067945935 0.16061579 -0.0019000781 -0.23879744 -0.044409245 0.19925854 0.0734609 0.1517574 0.0077104457 0.14412293 -0.12100712 0.10434942 -0.0937089 0.08187599 0.17943206 -0.13100171 0.027612079 -0.0810601 0.27323142 0.2120601 -0.04533231 -0.1999566 -0.094854236 -0.2270257 0.23724093 0.029509459 0.14212842 0.100401506 0.10110425 -0.062424127 0.14785732 0.18536435 0.021366596 -0.13031647 -0.1512479 -0.0021685 -0.075984836 0.20961559 0.07864933 -0.07020469 0.08379538 -0.004216352 -0.24771152 0.036985334 -0.09834017 -0.03972041 0.086654186 0.06600736 -0.16223182 -0.051929068 -0.17673872 -0.06991172 -0.040649336 0.089896984 -0.04861203 -0.012150119 -0.23791811 0.0072782105 -0.0994501 -0.1592623 0.006445098 -0.09547958 -0.01648851 -0.029858654 0.08246902 0.09519362 0.046160966 0.013186055 -0.0041197794 -0.002182785 -0.18306415 -0.01077662 0.04214302 -0.025877398 0.07863898 -0.030914297 0.17946531 -0.0283947 -0.033878826 0.12454261 0.13372646 0.031996336 0.06818255 0.04174926 -0.029192407 0.06968616 0.05341053 0.15719298 -0.106630914 -0.064876385 0.101315476 -0.2591342 0.21738166 0.033422217 0.12187688 -0.13451698 0.054817393 -0.17947374 0.0009178781 -0.058462244 -0.09355467 -0.124894805 0.15160775 0.01822419 -0.14036287 -0.025602467 -0.07429334 -0.037592568 0.047434136 0.1811212 -0.2285082 -0.08579138 -0.15742387 -0.007049983 -0.14860833 0.07537508 0.11623848 0.015958542 -0.04347556 0.0982015 0.2160389 0.16570674 -0.012001377 -0.005931009 0.12562186 -0.13653815 -0.15931933 -0.08044049 0.16875705 -0.00024083091 -0.18679187 0.10196069 0.08048104 -0.11638912 -0.062705755 0.09311235 0.112840064 0.045793276 0.10914513 0.029634278
504 0.06078447 0.043233693 -0.021523137 0.048620045 0.055939388 0.057237037 -0.075151004 -0.05354788 0.23800547 -0.07024953 0.1029871 0.041016918 -0.13202275 0.25297335 -0.30482224 -0.23945782 0.060514174 0.0289302 -0.015443129 -0.21447448 -0.025288938 0.19257228 0.23524095 -0.179887 -0.022211885 0.018497266 -0.20856442 0.07399639 0.20630993 0.22298424 -0.010605823 0.2016156 -0.13045244 -0.090647854 -0.24854225 0.29756138 0.106504686 0.090615496 0.36382037 0.095232 0.017646216 0.06983695 -0.25479716 -0.1291013 0.16321371 0.15021285 -0.22010373 0.13400345 -0.29392028 -0.1658586 0.08891064 0.09257726 -0.1380332 -0.14715044 -0.17220235 0.35604963 -0.1918726 0.19186334 -0.037916046 0.3891427 0.02808014 0.06313209 0.22916068 -0.108885005 0.06784941 -0.11984608 0.14336509 -0.028127842 -0.08831229 0.00940681 -0.18111186 -0.052864846 0.032497823 -0.056561366 0.067754716 0.23049091 0.16064201 -0.043302517 0.21025261 0.13411766 0.15010664 -0.08071953 -0.028499505 0.20739777 0.08406639 -0.08823477 0.13863368 -0.057506647 0.12451151 -0.052019052 -0.24028082 0.0014909594 0.009006888 -0.18629085 -0.08631676 0.22461924 0.0053833807 -0.09795739 0.08644368 0.002609995 0.21204999 0.051558536 0.024676457 0.049573366 -0.11057261 -0.16049057 0.18404853 0.09495778 -0.2739827 -0.041331224 0.08852482 0.03002209 -0.034900475 -0.061338335 0.05289024 0.016202342 0.11460223 -0.09087748 0.026561683 0.13700216 -0.027885165 0.061911665 -0.021174032 -0.17818132 -0.06569737 0.22822936 -0.07901623 -0.05716935 0.18645602 -0.28970966 -0.040064298 -0.159976 -0.12677667 -0.14384378 0.024694746 -0.050405823 0.017133916 -0.025358707 -0.06442485 0.16049759 -0.032026798 0.18521427 -0.26649714 0.071803465 0.027708724 0.1146403 -0.020623224 -0.14132117 0.10543274 -0.27426863 -0.08659856 0.077933975 0.19369861 -0.0786643 -0.052933995 -0.058452677 0.13151841 -0.103496015 -0.15064752 -0.07020665 -0.0582905 0.13972093 0.22383067 -0.21635808 0.2612909 0.08730859 0.020410398 0.06152158 -0.2011646 0.117032185 0.12441266 0.003790089 0.09583337 0.13003875 -0.15166628 -0.06110122 0.09128717 -0.066405 0.16711062 0.0155518865 -0.10069573 0.005896688 -0.24688178 0.03174745 -0.023228848 -0.061520103 0.15249214 0.20792048 -0.15920272 -0.033998605 0.028290115 -0.023924664 -0.013409791 -0.049361855 -0.11955158 -0.19054507 -0.12440864 -0.07357209 0.18481414 -0.12204144 -0.1333523 -0.18006404 0.03602213 -0.115170844 -0.030413326 -0.040197168 -0.010647047 -0.015767844 -0.15440325 -0.0977757 -0.24830703 -0.09032561 0.045047604 0.14738345 -0.062284864 0.0762054 0.14940946 -0.03272117 0.20556588 -0.059762627 0.06045221 -0.25204387 0.0107597355 -0.32169485 -3.4575343e-05 -0.26880753 0.09707316 -0.048596397 -0.009623676 -0.041925937 -0.03994202 0.07792437 0.081186555 3.790777e-05 0.17260337 -0.20959315 0.15566577 -0.16943668 0.10760362 -0.21738899 0.24638137 -0.121051766 0.22059385 -0.024578309 0.04950568 0.20952548 -0.0531223 0.14961565 -0.19759206 0.074741066 0.043528568 -0.15764524 0.033225756 0.057817135 -0.078612655 0.15088075 0.2627124 -0.17509338 -0.09020509 0.032984544 -0.105320066 0.07110964 0.050090965 0.08414832 0.04166762 -0.06480109 -0.20547144 -0.15780944 0.17342407 0.1649166 -0.043157287 -0.10414681 -0.06901436 -0.031777393 0.14893185 0.16279326 -0.044103626 0.2804061 0.23537059 0.06479405 0.17129295 0.031786747 0.0024189649 -0.019430833 0.1656148 0.21981142 0.07951272 -0.11761649 0.0038833271 -0.028886069 0.09965085 0.21909142 0.08810593 -0.020229094 -0.018344413 -0.1499728 0.09775735 0.29427093 -0.12250761 -0.05317946
463 -0.13842975 0.15506074 -0.014475411 0.018757738 -0.09520045 -0.34444088 -0.16235839 -0.0036012803 0.0961838 0.035430174 0.052163366 0.1515674 -0.045119632 -0.16977842 -0.00014409068 0.00047010425 0.011135197 0.016048409 -0.040274475 -0.002927201 0.006045929 0.053595785 0.25945157 -0.14516519 -0.010285588 0.18990923 -0.202406 -0.088253625 -0.2051437 0.21892598 -0.10527494 -0.04760649 -0.22884372 0.059867505 -0.20500714 0.11871989 0.20527397 0.0697111 0.015221765 0.12922572 -0.07512563 -0.028340843 0.10459658 0.15690863 0.13047607 -0.16614537 -0.1845632 0.12187182 0.066515766 0.11631164 -0.11570292 0.027984735 0.08561598 -0.12733415 0.088851824 0.2093399 0.0049337028 -0.21836667 -0.16228434 0.18048759 -0.15249038 -0.050206672 0.00012643205 -0.10814145 -0.28873354 0.22728252 0.25038436 0.0514689 -0.15265514 -0.05405132 0.20200162 0.26593012 0.10641553 -0.087965526 0.022384968 0.08828234 -0.058271233 -0.12384452 0.021291682 0.031667374 0.05077847 0.040542223 -0.16636138 -0.04770338 -0.09641315 -0.11386366 -0.06897379 -0.13317764 -0.2170569 0.18381616 -0.10178639 0.11843715 -0.13447648 0.00082880136 0.21903963 0.19586882 0.06798063 -0.1393175 0.23177524 0.033378534 0.05577739 -0.014987497 -0.1851445 -0.03755398 0.05958465 -0.0014711313 0.13049461 0.016206004 -0.03246483 -0.1699577 0.0029791067 0.24216025 0.16299525 0.085501336 -0.0120423725 -0.04747663 0.15375687 -0.08389576 -0.10892483 0.09473189 -0.04513804 0.02255195 -0.051761072 -0.06899241 0.048659656 0.15993482 0.007121664 -0.075908154 0.1747755 -0.04636821 -0.3095071 -0.1987607 0.010367687 -0.03331011 0.035162512 0.035912476 -0.17804642 0.018237198 0.08536542 0.109636925 -0.012258864 0.0147726135 -0.08252162 0.022917658 0.023612773 0.045602296 -0.06997666 0.0051781284 0.03311856 -0.24675955 0.0070737554 0.19099532 -0.046019755 -0.006914189 0.23706211 0.11275426 0.057472456 -0.061491337 -0.06729991 0.04992421 -0.047753245 0.112946115 0.0121044945 -0.12460961 -0.058676 -0.119198754 0.09809007 0.14052261 -0.01962508 -0.02914794 -0.00014264966 -0.1203767 0.03801805 0.016701156 0.033608895 -0.017553039 0.12576276 -0.16900861 0.037161678 0.098714486 0.12128183 -0.3847423 0.011133587 -0.18158603 -0.17497803 0.059164852 0.15882422 -0.004400243 0.02106098 -0.025219915 -0.05361906 0.003702552 -0.08337143 -0.087287664 0.20669687 -0.011032281 0.06285092 -0.1018022 0.13551372 0.16346852 -0.046255134 0.16924462 -0.12573923 -0.12132212 -0.060611546 0.0696033 0.0006046212 -0.16888933 -0.17731586 -0.08941031 -0.038580816 -0.006979034 0.04498249 0.1522561 0.11633116 -0.08154691 -0.09912831 0.05756565 0.1662028 -0.049597453 -0.042884182 -0.12951986 0.053831298 0.16311894 0.017547453 0.06838108 -0.078221455 -0.004043644 0.04184666 0.0014176285 0.18813938 -0.22772539 0.13468093 0.14772244 -0.060721297 0.04024691 0.07093674 0.16483459 -0.03797789 -0.2361847 -0.114924565 0.04313929 0.023618542 -0.09620256 0.18419619 0.37024665 -0.11742448 0.14642175 0.01669676 -0.19409849 -0.009806877 -0.084701344 0.09046382 0.09373893 0.04037569 0.2578863 0.079681106 -0.14101453 -0.22685927 0.09012639 0.104079954 -0.04249925 0.055209547 -0.087052755 -0.067799866 0.020745955 -0.13331346 -0.17551786 0.06000499 0.24046896 -0.17902243 -0.055081412 0.07049189 -0.023557898 -0.03077859 0.0785258 -0.012313082 0.07394986 0.035829935 -0.085941456 0.13515781 0.017667005 0.1906855 -0.093348436 0.0807184 0.30050588 0.07450857 0.05133926 -0.05840837 0.058434986 0.14250599 -0.11355543 0.1474979 0.06287846 0.07852387 0.14076872 0.12556241 0.22297013 -0.20675536 0.16460758
623 0.19648644 0.120778166 -0.17488778 -0.11824985 -0.005159084 0.059196487 -0.10250305 0.10282085 0.041771524 -0.06899434 0.01968808 -0.025707984 -0.04123968 0.113817096 -0.08913329 0.024373863 -0.06541185 -0.20329854 0.037639547 -0.13154568 0.0473464 -0.001159877 -0.040872313 -0.28855717 -0.13177644 0.13155168 -0.06290835 0.022748524 0.041827228 0.10730719 0.06842545 0.16525373 0.057678964 -0.20288914 -0.00830612 0.21513095 0.263322 -0.13842021 -0.015350027 0.03043127 -0.03959609 0.14902395 -0.020815203 0.08945236 -0.117722996 -0.05121458 -0.0044221412 0.07631904 0.09616291 -0.08445441 0.023139516 0.029243315 -0.06586233 -0.18826632 0.20053992 0.11566198 -0.04633504 -0.0290469 -0.25487977 -0.21056843 -0.19665493 -0.4275317 0.15806976 -0.12638244 -0.0422852 -0.04823743 0.12086293 0.08480917 -0.3300686 0.08222117 0.2675221 -0.051758386 -0.115492776 0.30943614 0.026920995 0.104234174 -0.10266829 -0.16872178 0.14386638 0.21105976 0.11012097 0.16626664 -0.47176954 0.23366158 0.21727343 -0.22288951 -0.044391103 0.1296638 -0.14239414 -0.05456869 0.1448554 0.065972164 0.2995516 -0.13835505 0.02732655 -0.19409232 -0.23539793 0.11991022 0.03359558 0.1402931 0.05919159 0.13615523 -0.0045807846 -0.16720805 -0.13152243 0.023529172 0.07686894 0.062568836 -0.097375184 -0.13653593 0.27150095 0.2002351 0.072935626 -0.07707234 0.0017409374 -0.12385545 -0.14409564 -0.2158209 -0.11811924 -0.09292404 0.113417774 0.27950162 -0.02454747 0.11696434 0.113776885 0.053754844 0.016827874 -0.029038731 0.06273559 0.15861209 0.03664177 -0.27517924 -0.1925405 0.15364154 -0.13958468 -0.03239059 -0.031656656 -0.023652159 -0.009739428 -0.08906636 0.25169882 -0.0476542 -0.20771497 -0.07751986 -0.16727306 -0.11136168 0.12666287 -0.19781667 0.123092815 -0.123555474 -0.06225323 -0.056905013 0.20501316 -0.16368505 -0.14438936 0.20680651 0.29608604 0.23267199 -0.26873472 0.1651626 -0.08340435 -0.041807115 -0.102043726 -0.19940355 -0.08181535 -0.013672936 0.064660065 -0.03190981 0.21913522 0.17886072 -0.012864703 0.15573265 0.043814864 0.21699898 0.12874126 -0.16408828 -0.17882462 -0.2142518 0.25731206 0.092466995 -0.02169224 0.043525137 0.15056963 -0.030140115 0.12520155 0.17010975 -0.024780435 -0.13109171 0.022619164 -0.07272421 -0.10421473 -0.109494574 -0.024173541 -0.107299544 0.30499002 0.053143334 -0.119533285 0.2177963 0.0776962 0.11417801 0.001962709 -0.025468422 0.24707182 -0.11178914 0.009063524 0.006244021 -0.14533402 0.14377639 -0.2563031 -0.08245511 -0.16727677 0.24428122 -0.111281835 -0.044072915 -0.06778476 -0.02425403 -0.33641338 -0.14960574 0.3397795 0.22111644 0.17810938 -0.113492064 0.019500533 -0.13238798 0.015338467 -0.15233256 0.25663838 -0.026901161 0.28483817 0.014929124 -0.15971111 -0.14193878 0.22551042 0.079093665 -0.21428859 -0.14764471 -0.037468083 0.19028975 -0.15878874 -0.0951776 0.07990142 -0.27446702 -0.10400467 -0.01995189 -0.02208226 0.16716386 -0.22448696 0.06973571 0.067768626 -0.09069743 -0.033635717 -0.031410147 0.1792152 -0.13190895 -0.090550564 0.102335036 -0.2138283 -0.10605707 0.06695068 0.18822281 -0.18664585 0.119055666 0.047427602 0.0014326178 -0.24475679 -0.22212572 -0.11233092 0.015923882 0.03996407 0.287553 -0.031933263 -0.17136501 -0.041705787 -0.14402263 0.22070207 -0.13631631 0.03480836 0.104495145 0.036667187 -0.19985694 0.28605515 -0.15666099 0.23187993 -0.036464486 0.081139 -0.11963827 -0.037824463 0.094974436 -0.036011893 0.11425987 0.010620063 0.017300658 0.13939868 -0.021825774 0.21120399 -0.1433216 0.13677186 -0.026978197 -0.021503258 -0.14414924
660 -0.033252977 0.08142305 -0.020754026 -0.025008101 -0.06298743 -0.08741535 0.17617686 0.036063667 0.14806522 -0.06407063 -0.08641869 -0.08573532 0.3235463 -0.2408704 0.09092767 -0.17450623 0.17245804 -0.103439756 -0.15057476 0.07907701 -0.04973347 0.047014985 0.14467688 0.047568742 -0.16753386 -0.13019396 -0.017333413 0.102336206 0.14799368 -0.105850734 -0.005653169 -0.04605453 -0.035791267 -0.11102937 -0.23270622 0.14427704 -0.035045143 -0.10386862 -0.082403146 0.18052419 0.11076313 -0.045157697 0.04663137 -0.009725955 -0.23051126 -0.21334757 -0.031093808 -0.09960904 -0.019728804 -0.096855134 -0.0028757374 -0.06835095 -0.1996027 -0.023796573 0.035101272 0.30503416 -0.09805085 0.39930245 -0.15576364 0.12692353 0.13149334 -0.08713186 -0.14915553 -0.24080363 -0.29598764 0.05060471 -0.10477094 0.00022713262 0.04911701 -0.12843706 0.038270168 -0.2805159 0.02179155 -0.01200885 -0.3151835 0.04138272 0.106309235 0.11391963 -0.07765798 0.10497953 0.07653619 0.27729592 -0.067275874 0.21547551 0.15171114 -0.39663494 -0.20420423 -0.21003516 -0.11158634 0.1390215 -0.0041635856 -0.05257411 0.16717447 -0.18616958 -0.013649556 0.024204513 0.12690325 0.16211614 0.04700958 -0.09379037 -0.012632248 -0.0348078 -0.068659395 -0.3229351 -0.13531546 -0.21907279 -0.05129732 0.12995309 -0.03231893 -0.14143209 0.016879825 -0.026627975 0.037912115 0.22832416 -0.02100405 -0.09483843 0.031931188 0.009811532 -0.21910633 -0.18819644 -0.28136012 0.18462296 -0.069756515 -0.0009878166 -0.018278519 0.19125785 -0.08760297 -0.1422196 -0.08980976 0.15855603 -0.09499091 -0.27170083 -0.26330706 -0.00039729514 -0.040392302 -0.010733224 0.027112536 0.007866874 -0.12536271 -0.076359004 -0.18888205 -0.12218481 -0.14866018 -0.037290696 -0.0559949 0.16897339 0.024733182 -0.16407731 0.012282555 0.035250586 -0.17414327 -0.030756446 -0.060635384 -0.10811919 0.006286083 -0.037495553 0.14658643 0.51695794 -0.20842429 0.21400802 -0.17429756 -0.17750631 -0.05982784 -0.11764336 -0.10120368 -0.020991256 -0.08158658 -0.018053891 -0.40597075 0.06564677 -0.38404614 0.09022428 -0.027392576 0.14084142 0.16075602 -0.12054038 0.33700708 -0.037010137 0.23673072 -0.00076749927 -0.099023454 -0.12236428 -0.03454122 -0.002221839 -0.022518488 -0.13061763 0.13897343 0.0824895 -0.1460942 -0.11789223 0.10743986 -0.077431954 0.10250227 0.10232097 0.12871452 0.14050806 -0.17437756 0.08514252 0.14199317 -0.09318917 0.12205949 -0.020848231 0.21035264 -0.1258032 0.25819424 0.11825635 -0.036733843 0.1611259 -0.15663847 -0.10082579 0.06055245 0.11995016 0.0825198 -0.06188458 -0.28943542 0.24200052 -0.011156189 -0.1456054 0.47473618 0.018728854 0.23946796 0.035927128 -0.30756518 -0.19187382 -0.08805224 0.03204979 0.1975171 0.08406109 -0.007293596 -0.23777784 0.044427305 -0.08297213 -0.029364517 0.084967636 0.19555867 -0.24946125 -0.033513926 0.082930036 -0.08432763 0.023826012 -0.11277925 0.042827822 0.23273303 0.09931728 -0.24186684 0.030030489 -0.029282503 0.10285604 -0.046186335 -0.0443683 0.23153967 0.090909414 -0.07049414 -0.3957091 0.22934349 0.0040763635 0.0007444957 -0.1270295 -0.04508897 0.07293223 0.07207347 0.06991927 0.28055134 -0.060075488 0.018465422 0.0045601563 -0.07134165 0.02934727 0.039777484 0.08274316 0.16983986 0.09686431 0.05826298 0.13415825 0.14630678 -0.010251436 -0.08445874 0.23907946 0.14762308 -0.10610005 -0.080519214 -0.10303616 -0.077761754 -0.04081901 0.18608168 -0.11687783 0.039135996 -0.16295083 -0.01307972 0.37038147 -0.07266489 0.21675147 -0.08363371 0.047174137 0.052401986 0.049045816 0.13814214 0.08501795 0.15826677 0.13067958
620 0.019952156 -0.006083813 -0.0010648934 -0.11134829 -0.18883286 -0.061940186 -0.2090542 0.15236062 0.06069265 0.023026438 0.17471403 0.25630924 0.34655684 -0.041813605 -0.012455113 0.09754509 0.10347801 0.0029472031 -0.031380177 0.30152905 0.12614033 -0.10627543 -0.12392032 0.08886406 0.09293072 0.15701714 -0.12450597 -0.16944997 -0.03925401 0.1976105 -0.21588038 -0.30126926 0.11869383 -0.11557041 0.14336386 -0.11529505 0.04529959 0.11731273 0.14148068 0.13489398 0.06952378 -0.017653044 0.1260459 0.061599836 0.14309877 -0.25800192 -0.25880334 0.13037829 0.009205896 0.19374293 -0.0113039175 0.03017483 -0.10806162 -0.03670907 -0.14110711 0.14582032 -0.1403175 -0.067427 0.0702627 -0.05919278 -0.038881943 0.007689718 -0.14089826 -0.07770523 -0.08871521 -0.13026224 0.0045989067 0.0071786484 0.21620473 -0.19772394 -0.027902154 0.07969857 -0.31123945 -0.03206469 -0.0018440462 -0.1983805 -0.11158187 -0.12502564 0.14057171 -0.07130562 0.03842951 -0.08830031 -0.08571277 0.10841133 0.13564692 0.033584915 0.18317929 -0.008746201 -0.14413604 -0.030870575 -0.41684875 0.040656302 -0.03367623 -0.14504372 0.096929155 -0.061393287 -0.038696438 -0.0218903 0.10661309 -0.050927162 0.05686563 -0.19979557 -0.22893654 0.28932777 0.08491925 -0.302297 0.18442914 0.06423585 -0.108720884 -0.20133185 0.09745253 0.21451977 -0.09106623 0.11234638 0.111224815 -0.06480007 0.10959032 -0.061070785 -0.11636948 -0.18098633 -0.0005265936 0.19258778 -0.05041765 -0.009945366 -0.06699216 0.46090508 -0.138713 0.030335676 0.004297011 -0.118290596 0.021263655 0.036802582 -0.121896945 -0.11813088 -0.09913644 -0.032632142 0.061278637 0.12718748 -0.055141274 0.04022257 0.2826422 -0.28670564 -0.22784728 0.12806033 0.04027809 -0.0070249885 -0.17730445 0.02133081 0.06035019 -0.003959299 -0.033126947 -0.021615643 0.03956024 -0.12039076 -0.269419 0.0048388895 0.079997815 -0.18733092 0.0040444355 -0.16976161 -0.14375979 0.11620814 0.11322254 -0.07773422 0.047819123 -0.039252233 0.11377232 0.035289474 -0.0833113 -0.03271895 0.0038205585 0.13672635 0.13066755 -0.07565191 -0.17659482 -0.021176064 0.0048242873 0.072972976 0.0060387654 0.16390619 0.14313482 -0.13564555 -0.08756805 -0.1525478 0.26610455 -0.17411731 0.009221518 0.18087065 0.050041243 0.111864366 0.044794444 -0.0792677 -0.14194953 -0.24658185 0.36039597 0.12595768 -0.017039265 0.15591249 0.26928023 0.014562933 0.2024052 0.07358671 -0.1588764 0.09934944 -0.18790634 0.11605257 0.105689794 0.05746786 0.093573004 -0.1513524 -0.12665664 -0.10043313 0.25655955 -0.0012843304 0.18956922 -0.11957435 -0.09427828 0.096989386 0.21565756 0.24277954 -0.11443384 -0.2136122 -0.18560754 -0.11159393 0.066133685 -0.24324116 0.002016763 0.024270458 -0.027152892 0.04665223 -0.066767715 0.026097305 -0.061115365 0.0041508907 -0.03510752 -0.07361903 -0.057747725 0.09627849 -0.103949614 -0.046613816 -0.05430652 0.042326666 0.08751625 0.090573385 0.14055768 0.12066457 0.016351456 0.40133122 -0.00074014696 0.12369714 -0.06011282 0.04484942 0.14237142 -0.0954037 -0.043512978 0.13236448 0.13257736 -0.0022748578 0.10316895 0.0712669 -0.028961498 -0.19377744 -0.04908511 0.083383515 -0.05976031 0.018341657 -0.031792853 -0.35558873 0.079762936 -0.04161874 -0.17222738 0.20029911 -0.0016829168 0.059172463 0.18982068 0.15517065 -0.0402628 -0.08409843 0.06845967 -0.05732695 0.082183 -0.07039597 0.15786476 0.13195696 0.14846112 0.09478917 0.074287154 -0.123165384 -0.13144484 0.12985104 -0.108297 0.22530097 0.105587296 -0.14793277 0.05362943 0.04730565 0.1346287 0.05426528 0.15935111 -0.20001625
13 0.1874001 0.012607402 -0.3059084 -0.15067118 0.029854525 -0.10474997 -0.27227655 0.14907436 0.27669638 0.017182529 0.019657766 0.0598538 -0.19201496 0.12517555 -0.03348315 0.24669077 0.28949404 0.11408308 0.07201511 0.11389956 -0.033453993 0.21540263 -0.19294739 -0.15809518 0.015079159 0.13169876 0.11381807 -0.23694324 -0.26993334 -0.2599479 -0.032473244 -0.14717494 -0.30062982 -0.041258078 0.1863976 0.12627119 -0.37866622 0.2797891 0.038761165 0.009810755 -0.06521729 -0.039824642 0.32819188 -0.12196045 -0.047988243 0.17120479 -0.32644612 -0.00574312 0.03396827 -0.28726506 -0.13291785 -0.08470438 -0.31180057 -0.23172317 -0.20611297 0.19789995 -0.3240576 0.039888423 0.26208103 0.09470876 0.09199367 -0.16697071 0.25345552 0.063640416 -0.4046051 0.44038698 0.056048412 0.31651643 -0.104215026 0.033097096 -0.3180597 0.13978948 0.22143443 -0.08215047 0.19506313 0.35722172 0.524798 -0.16690616 -0.02627745 -0.09621595 -0.17689566 -0.48538008 -0.08511067 0.50954366 -0.16608803 0.4793727 0.35543847 -0.15662831 0.3236948 0.0819401 -0.15831432 0.28357795 -0.24106336 -0.16942854 -0.11543246 -0.17306736 0.31573504 -0.45685104 -0.22363238 0.2669513 -0.049143538 -0.09177915 -0.07284573 0.12266326 0.006602836 0.10998045 0.15798414 0.21595082 0.29159403 0.23877963 0.089281715 0.061572805 0.25480595 -0.26968387 0.377257 0.620955 0.101269685 0.3272134 -0.21459731 -0.4473048 -0.15356332 0.30877858 -0.01899773 0.054285426 -0.09560403 -0.19322503 -0.21872272 -0.015441165 -0.4064571 -0.14122841 0.10431914 -0.21674734 -0.26148444 -0.44456145 -0.08855915 -0.120970145 0.1906264 -0.10285439 0.3255104 0.111603856 -0.12718202 -0.4105681 0.055044312 0.041333087 -0.15552442 -0.23108488 -0.20650552 -0.16396992 -0.07265018 0.12679505 0.030877527 0.32652652 0.021144778 -0.020211244 0.12848938 0.13948613 0.2501941 -0.042419627 0.23096126 0.062018175 -0.08669312 0.08372642 0.24060152 -0.0011595389 -0.1424087 0.108200975 0.124365054 -0.0640262 -0.33404696 -0.092208564 0.2062228 0.12767923 0.006197229 0.053857595 0.064426094 -0.34170505 -0.15003912 0.25457966 0.14024626 -0.06834063 0.5199167 -0.2795667 0.059952293 0.038697142 0.1224631 0.047736716 0.38739443 0.08906604 -0.009239606 0.12485831 0.21671584 -0.06498221 -0.00784867 -0.66036135 0.15267982 0.055931162 -0.29563424 0.26403514 0.050640855 0.1573633 0.05519813 -0.35272264 0.11913877 -0.26150063 -0.051537193 0.113878295 -0.37197587 0.16059956 -0.132698 -0.02452708 0.35543373 0.24689569 -0.08066146 0.08931218 0.04869772 -0.14203604 -0.34440792 -0.031665705 0.2776468 -0.15727161 0.41045952 -0.041953716 0.0040539466 -0.066609226 0.03186941 0.096708916 -0.3048402 0.049514636 -0.12355176 0.012470379 -0.32852715 -0.105242275 0.3373274 0.15614147 -0.04083228 0.118280105 0.37559736 -0.0141062355 -0.07840908 0.06516031 0.078662954 0.013092834 0.13261265 0.025817469 -0.22391771 0.12567973 -0.29356015 0.20347469 0.036263835 -0.020588588 -0.0052474327 -0.3341743 -0.17472076 0.45454597 0.35360947 -0.05806032 -0.118287645 -0.19404179 0.26124993 0.0994875 -0.23325963 -0.2841011 0.14990543 0.35132036 -0.49586323 -0.3393188 0.28715914 -0.34855872 -0.10438215 0.21411665 -0.22190881 -0.18744855 -0.004673228 0.20992818 0.19444607 -0.3460751 -0.4196821 0.27796614 -0.0059904526 0.4359627 -0.064605385 -0.2906151 0.5682365 -0.108607434 0.0039884904 -0.06178596 -0.31348735 -0.36088246 0.015265637 0.018501837 -0.2040218 0.19970138 0.2502106 -0.21463826 0.13406087 0.23333097 0.06521278 0.00090578553 0.12153174 0.29183182
90 -0.15483247 0.037020646 -0.06690582 -0.12809896 -0.10177996 -0.42906153 -0.1146502 0.062149283 0.1350756 -0.056319874 -0.00062063447 -0.14695889 0.2702838 0.031098811 -0.0040947907 0.23459865 -0.1279109 -0.24738562 -0.050625473 0.08075059 0.009941887 -0.03268491 -0.00847669 -0.029401219 -0.124349676 0.05042528 0.15231375 -0.4534786 -0.199171 0.3485437 0.021918636 -0.00031091226 -0.082051754 0.006202441 -0.19826809 0.097323865 0.106987625 -0.03442844 0.13491489 0.0024338176 0.058596037 0.006408994 0.12135738 -0.09172499 0.0250927 -0.1656202 0.0055935727 0.17398787 -0.10991612 0.15790868 0.02805206 0.015126491 -0.25518134 -0.0257629 -0.12269205 0.39178804 -0.09448076 0.15730146 0.16899788 0.040532064 -0.09680073 0.04758825 -0.22409508 -0.12918416 -0.014695429 0.119725905 -0.0845087 0.11686354 0.016666038 0.05835075 -0.13501254 0.27195337 -0.17717375 -0.0018423455 0.1759599 -0.07537861 -0.15940139 0.10749907 0.3348571 0.17979538 0.09462784 0.23950762 -0.1269267 0.099484265 0.2713641 -0.3492725 0.10421483 0.13656834 -0.19141853 0.24352796 -0.18904796 0.12770295 -0.2457584 0.032225586 0.019074338 0.046429276 0.05171605 -0.1947575 0.063376434 -0.047063924 0.112402394 -0.107060194 0.1435737 -0.14028724 0.19403827 -0.15668489 0.16803579 0.24407737 0.051602833 0.013614231 0.15187159 -0.12714668 -0.03630282 0.15688819 0.12099263 0.23493348 0.06551793 0.12478438 -0.06778969 -0.04437525 0.018406166 0.110333756 -0.21095519 0.067732394 -0.07948268 -0.16607735 -0.09477137 -0.068688676 -0.22539948 0.077232994 -0.0073707593 0.088496625 0.24378394 -0.14799783 0.042308867 0.09515925 0.0024756372 0.0915166 0.08486629 0.17921743 -0.17162518 -0.14632018 0.08396907 0.0049342182 -0.206562 -0.014989606 0.042409237 0.17256366 -0.07644371 -0.36560598 0.023587268 0.062463507 -0.055309843 -0.20546928 -0.05159206 0.11560599 0.074452005 -0.36367202 -0.13046606 0.1377155 0.122051336 0.18530728 -0.025550649 0.25479293 -0.023006799 -0.19560175 0.025411239 -0.13549821 0.052890707 0.089504786 0.18502396 -0.15196691 0.12161623 0.20107855 0.06391403 -0.08512336 0.1792299 0.12150961 -0.15827583 0.09933911 -0.14652634 -0.54791075 -0.0062527913 0.06109765 0.08300884 0.056042198 0.15469661 -0.007691095 0.02024256 -0.18951696 -0.06886559 -0.04646442 0.0025077073 0.059672598 0.16904902 -0.051645387 -0.07518649 -0.07630119 0.12667926 0.17841367 -0.007028276 -0.047300823 -0.18498693 0.019612974 -0.09065647 0.15470324 0.20718384 -0.03723444 -0.18272592 0.094090134 0.029276455 -0.12943706 0.23852596 0.17923033 0.19168578 -0.0030836575 -0.070743605 0.04889965 0.120577574 0.2956507 0.14301728 -0.06687126 0.08213903 -0.08264578 0.10461695 -0.12603353 -0.18261105 -0.22411199 0.053969227 -0.008413992 -0.06147709 -0.07243109 0.01876432 0.09443883 -0.17379801 -0.064792156 0.10952548 0.07207519 0.0033367947 0.1254688 -0.13305789 0.032410372 -0.0034494142 0.10843586 0.15423535 0.013945731 -0.2629472 0.10843847 0.11287685 0.054587603 -0.008796369 -0.14381829 -0.023558306 -0.104467295 -0.06343888 -0.20698312 0.11111424 0.012101847 0.028628197 0.06553361 -0.02474049 -0.030772762 -0.1439785 -0.048473086 -0.20511733 0.18671419 -0.15567662 -0.20596363 0.097633205 0.2334048 -0.121509425 0.105724424 0.17892078 -0.01311213 0.17090815 0.18515597 -0.006014588 -0.05970442 -0.095270954 0.20115039 0.14676036 -0.09387211 0.048450667 0.17917323 -0.004435825 -0.054204583 0.06540884 -0.017095031 -0.13243756 -0.04297632 -0.102801874 -0.20367333 -0.100705706 -0.16929692 0.107746966 -0.21349192 0.16419238 0.021517958 0.13085894 0.0587825
736 -0.24056742 0.12520817 -0.47351363 0.083514646 -0.09355018 -0.09335942 -0.0097617665 0.39821017 0.14405851 -0.28843796 -0.054820348 0.06709011 0.00870956 0.08163048 -0.022887243 0.147478 -0.15980609 -0.18813214 -0.033682946 0.10349911 -0.19531232 -0.18758523 0.13700068 0.25945866 -0.004778533 -0.07977446 -0.13456072 0.05311724 -0.08322657 0.13685568 0.0985647 0.13060765 0.07082394 0.011057798 -0.13051713 0.4287558 0.13589358 -0.05006925 -0.08651467 -0.042726304 0.12585536 -0.00074072706 0.37669986 0.025122602 0.13172522 0.11252878 0.02739468 0.02539957 -0.005015593 0.15729687 0.09696289 -0.07063307 -0.13480023 -0.087801546 0.061843663 0.3917354 0.22259192 -0.44530606 0.2556159 0.19234636 -0.07371995 -0.052463263 -0.12074564 -0.15853295 0.06187888 0.19222915 -0.19556187 -0.029606083 0.10480693 -0.2913982 -0.027398927 0.12720576 -0.029012218 0.15352671 -0.04446121 -0.19794911 0.21338151 0.20425521 -0.023317525 0.049878072 -0.028171362 0.47007164 -0.0652726 0.2822981 0.24493462 -0.27059603 -0.06666131 -0.114455424 -0.025652824 -0.19772698 0.034189887 0.006179297 0.049698118 0.018063432 -0.17796619 -0.14440662 -0.1810502 -0.29529312 0.029565256 -0.12646718 0.11944442 0.025491808 -0.021575492 -0.010563419 -0.0061597857 -0.3698672 0.20923278 0.3132243 0.013548562 -0.19311972 0.20808372 0.06597682 -0.05570273 0.26379335 -0.029862927 0.21600401 -0.13180436 -0.023924824 -0.15354009 -0.1988746 0.01681542 0.16570859 -0.077588215 0.14885831 -0.1342473 -0.09970413 -0.23915716 -0.09452608 -0.15593202 -0.17756246 -0.024806416 -0.14694706 0.105071135 0.21685337 -0.19491196 -0.29083472 -0.11072135 -0.033568684 -0.050224174 -0.11385854 0.10765936 0.050160356 -0.07583024 0.02153789 -0.18057649 0.10519004 0.107735425 -0.04563172 -0.083829984 -0.20673163 -0.109032914 -0.19589014 -0.17904213 -0.048121303 -0.04043698 0.07007614 0.031060677 -0.14953227 0.014982974 -0.3063467 0.060725424 0.11646675 -0.29518324 -0.07459138 -0.13469535 -0.09250223 -0.0011529087 0.009893298 0.016548846 -0.26770002 0.035341386 -0.04132398 0.19777481 -0.0052455245 0.0525976 -0.07335998 -0.12496401 0.40896916 -0.10847067 0.18372726 -0.1216538 -0.2035562 -0.033547524 0.10549933 0.15318817 -0.3201072 0.03763823 -0.03669571 0.20194113 -0.015693378 0.18882771 -0.15133728 -0.06348523 -0.08270855 0.15217808 0.050174452 -0.13268581 0.022653075 0.21771936 0.15774338 0.17978604 -0.15554689 0.014795036 0.07152676 -0.24002594 0.012466044 -0.06713541 0.038283207 -0.06281175 -0.047269873 -0.039605346 -0.021706399 0.42049754 0.09717105 0.17244497 0.15699917 0.059675496 -0.081842214 0.14744598 0.24412876 0.03548567 -0.21275643 0.1209117 0.0055938778 -0.036354635 -0.0861783 -0.0040349076 -0.11501533 0.20801714 0.07946457 0.17883536 -0.15079328 -0.54977864 0.08077066 -0.20139115 -0.07871679 0.06460922 0.027747158 -0.0073815244 0.2397332 -0.010939736 -0.02885278 0.00056761643 0.31275314 0.09129299 0.23274858 -0.017809715 0.08320431 -0.0074129445 0.13908625 0.19519508 0.00093028473 0.041587114 -0.009776973 0.109524265 -0.13760906 0.058640182 -0.07738388 0.22412504 0.09750438 -0.11201444 -0.064568445 -0.31149596 -0.062969506 -0.04161858 -0.019082354 -0.10085911 -0.34975472 -0.0055972254 0.22646697 -0.26940203 0.17478149 -0.018735716 -0.06906529 -0.01715627 0.042081438 0.09428518 -0.082511015 0.010846147 0.02746792 0.10577684 0.07224147 0.036005385 -0.1202111 0.11742647 -0.27653968 0.06609794 -0.3112574 0.11752732 0.086115815 -0.3739395 0.22005886 0.021334108 -0.10324864 -0.011009496 -0.17046204 0.2283769 0.051180936 0.3439739 0.17402764
570 -0.07847603 -0.1441377 -0.19869407 -0.120396264 -0.10100161 0.0455839 -0.18732584 0.07877584 -0.07811127 -0.1464981 -0.103320956 0.12972838 0.054645654 0.15830728 -0.00077744987 0.027647898 0.24099807 0.04814093 0.06364142 -0.32135725 0.2567248 -0.11379386 0.047639254 0.027582126 -0.09102202 0.086163975 0.009323646 0.11263493 -0.026285795 -0.09445464 0.057704166 0.034309 0.021993456 -0.20840889 -0.16346405 0.039366722 0.0843723 0.1451473 0.00411892 0.0034047163 0.18284245 -0.08390601 -0.14503245 0.11304589 0.07788169 -0.11838308 0.11994572 0.06494979 -0.05717092 0.0053457655 0.13514714 -0.13225435 -0.19365218 0.0046188524 -0.04609542 0.14116426 0.017428784 0.14879815 0.34612328 0.1912038 0.06586104 -0.0883591 -0.464738 0.052322 0.148187 0.02369976 0.01136614 -0.022054603 -0.05929437 -0.12113097 0.009038641 -0.011808127 -0.18333161 -0.10129596 -0.15622157 0.018288556 -0.12665926 -0.1644033 -0.14259283 0.22579901 0.12252832 -0.058388013 0.08678429 0.08470377 -0.13161969 -0.08790839 -0.04857629 -0.13228506 -0.24851577 0.010543641 0.13313283 -0.2236581 -0.14639366 -0.05403205 -0.09597335 0.06652904 0.0046418407 -0.19551395 -0.12730122 -0.16656819 -0.045313627 -0.054098066 -0.18073058 -0.017626017 -0.24163218 0.12094429 -0.055320065 0.18117084 0.14142111 -0.14021143 0.113451675 0.038658217 0.21219152 0.029502153 -0.036049757 0.15990143 0.05508286 -0.08433064 -0.032086384 -0.083455086 -0.016338423 0.18228064 -0.014254638 0.060988944 -0.014466929 0.00743721 -0.12595858 0.07058769 0.17599772 -0.03334569 -0.066550486 -0.19665843 -0.17347349 -0.012656051 0.074396595 -0.11418122 -0.08085961 -0.14459537 0.11324686 -0.09981743 -0.12138258 -0.10738481 0.014952934 0.13541141 0.09288882 0.16249877 0.30398425 -0.10098346 -0.07296092 0.01673223 0.03089669 0.03465435 -0.26776144 0.02661369 0.0647859 0.11151889 0.093232736 0.22984836 0.16871677 -0.02800611 -0.17739424 -0.031840466 -0.058529727 -0.1257729 -0.067153364 -0.00058668404 0.04812883 0.11900026 -0.04469475 0.08259983 -0.17608497 -0.0326795 -0.10736628 0.035564907 0.3667417 0.12603049 0.11689291 -0.060412355 0.4787974 -0.064213075 0.27120245 -0.10470702 -0.1359293 0.030884491 0.019105135 -0.2641899 -0.040126998 0.072646044 0.010526145 -0.20680754 0.15503465 -0.0542439 -0.19281724 0.12904243 0.0013330642 -0.023211356 -0.15048577 0.047270894 0.35799578 -0.0986465 0.18570301 -0.21875389 0.046343718 -0.17885275 0.14402136 -0.020725992 -0.2070976 -0.3106538 -0.09359362 -0.2373955 -0.17507045 0.11496642 0.046919152 0.09788795 -0.08054274 0.2593333 -0.04959078 0.004876704 0.09192517 0.13720094 0.055903744 -0.14841592 -0.23219034 0.013970999 -0.34374136 -0.024266837 0.15587744 0.024873829 0.024829822 0.075887 0.015298097 -0.1628163 -0.20938201 0.010546616 0.41810313 -0.10339481 0.042394288 0.07783868 0.0054498413 0.12080942 -0.122776136 -0.11454602 0.3077814 -0.09242157 -0.006660944 0.20520751 -0.01147445 -0.15507947 0.07237861 -0.11529593 0.20196865 0.048903037 0.11591366 0.1878893 0.0017901565 -0.1267582 -0.19458051 -0.003956941 -0.24040407 -0.064885266 -0.022195017 0.06720275 -0.07007828 -0.17739977 0.037794717 -0.074687764 -0.1402529 0.0918917 0.03817481 0.043364692 -0.010961237 0.17851296 0.19295193 0.26886922 0.2568648 0.16471006 -0.012164513 0.16637947 0.03978683 0.038912218 -0.12041607 0.05697128 0.0075417343 -0.2064532 -0.07994401 0.015196051 -0.10026261 -0.21079788 0.13940695 0.07672087 -0.06521996 -0.041197654 -0.016127897 -0.012519598 0.060042743 -0.2703339 0.31323287 -0.0053122705 0.15821144 0.0418031
28 -0.028476063 0.25652105 -0.340639 -0.048673827 -0.06285421 0.021257952 -0.16868716 0.13122427 0.1146695 -0.043870863 -0.019852126 -0.040251978 0.15955278 0.03706222 -0.014634488 0.0112291975 0.06706736 -0.03054209 0.14144182 0.045912214 -0.032069854 -0.111962505 0.09552136 -0.1593945 0.2338522 -0.014239671 -0.22099358 -0.08280815 0.13567911 0.017736012 0.005802459 0.007214283 -0.0726624 -0.31985345 -0.13347352 0.37634015 0.33967558 -0.19570524 0.27708733 -0.054504596 0.032140724 0.09100853 -0.25556344 0.06703842 0.17545821 -0.14432025 -0.065057896 0.02866581 -0.01079353 -0.16511634 0.08635416 0.07329291 -0.29213572 -0.10947643 -0.009115025 0.12535982 -0.13904306 -0.109169565 -0.27439317 0.22183079 -0.11397945 -0.41227087 -0.15358175 -0.16587703 -0.08513709 0.033050906 0.1027923 0.10628937 -0.04771328 -0.018569734 -0.0051401895 0.20429136 -0.056009572 0.23924808 -0.09075382 0.14625749 0.1009662 0.036472376 -0.031502087 -0.032483462 -0.12916042 -0.06251412 -0.11786383 0.08607429 -0.18228486 -0.122439176 0.34251177 0.07388146 -0.26208085 -0.08050232 -0.14398296 0.18229721 0.10220542 0.08291344 -0.26804626 0.12269036 -0.37275714 -0.015287877 -0.035308193 0.14800932 0.0646205 0.265843 -0.135067 -0.043827105 -0.0028154138 -0.027319986 0.044674844 -0.0028524096 0.02975913 -0.0974457 0.23141442 0.090726525 0.027280703 -0.122587584 0.05952394 0.2198264 -0.05813501 -0.1141375 0.08317371 -0.031532373 0.004519646 -0.061213084 -0.11127422 -0.005688439 -0.04712924 0.048838355 -0.10136753 -0.10394545 0.14035854 -0.15088339 -0.10986433 -0.09333021 -0.21333623 -0.20053329 -0.094656125 -0.04122039 -0.21625803 -0.091057464 -0.047294497 0.21500902 -0.024544764 0.05845606 0.20793544 -0.08061635 0.16232868 -0.06920911 -0.09368567 0.043759163 -0.017089918 -0.19583346 0.058484472 0.23294637 -0.07931267 -0.019693851 0.053803623 0.005869376 0.259769 -0.05759936 0.21923807 -0.12370114 0.016567402 -0.09517498 -0.01185119 -0.0067204614 0.13581719 -0.108803265 -0.033475015 0.08186905 -0.033036098 0.05420192 -0.015105583 0.0067813 -0.12067919 0.045364697 -0.04693879 0.123115234 0.17505246 0.034340482 0.10844719 -0.15980943 0.073791794 0.018547514 0.1092456 -0.09740933 0.18351251 0.11563135 0.17583768 0.17215575 -0.23126753 0.08195638 0.046673674 -0.065590926 -0.060461905 0.09741408 0.19413604 0.12474355 -0.0005471349 0.16782138 0.07338359 -0.0010972724 -0.040053014 0.17384128 -0.07698844 0.0870344 0.011736763 -0.200784 -0.16693133 -0.22793093 0.07434469 0.04231202 0.13151571 -0.0980376 -0.018737216 0.17210151 0.13014926 0.16013901 0.095428206 0.014878851 -0.088939376 -0.011782301 0.041127376 -0.017101033 -0.04492491 -0.10542753 0.037045334 0.024839701 0.020546364 -0.14916274 -0.0685788 -0.07412173 0.09235189 -0.15989877 0.065291084 -0.22153658 0.121772304 -0.37541 0.10487838 -0.070124656 0.20015007 -0.17900348 -0.13253139 -0.13192785 -0.16912796 -0.055923693 0.1132786 0.14025278 -0.06866422 0.047671612 0.0415584 -0.08623598 -0.026819814 -0.2640623 0.029924784 -0.05271766 -0.0054103374 -0.17862813 0.19496267 -0.12604448 -0.3548519 0.18731213 -0.1563315 0.03414912 -0.031807646 -0.034248583 -0.19823803 -0.044974703 -0.0760334 -0.085301235 -0.14058124 0.07139059 0.12951122 0.07840927 0.0021334002 -0.11550945 -0.10639491 0.007428909 -0.12548363 0.26123503 -0.02915622 0.19488819 0.09933757 -0.03221507 -0.04506102 0.04858688 0.099057 0.1379591 -0.1711309 -0.050888363 0.14258045 -0.042907733 0.203097 -0.13187127 0.039690375 0.050766 0.056870602 0.014705986 0.087058656 0.049678527 -0.10184958 0.026696807
411 -0.051624075 0.23882203 -0.026699813 -0.08096766 0.13569486 0.066079035 0.19658679 0.11810011 0.01877169 -0.19781968 0.25196004 -0.27251905 -0.026043111 0.07242415 0.09671099 0.043401416 0.029100347 0.11842529 0.04901067 0.24302165 -0.23630205 0.09750449 -0.1166123 -0.08940146 0.0997166 -0.21898083 -0.15228465 0.1549869 -0.04066908 0.041546553 -0.13478208 -0.1449693 -0.04423713 -0.13555679 -0.18254894 -0.17928223 -0.057531793 0.10733423 -0.17832065 -0.16126043 0.030033004 0.06872519 0.09714946 -0.20715342 0.13613266 -0.091976814 -0.06029495 -0.13538738 -0.039901003 -0.059779156 0.095088914 -0.28465715 0.07457709 -0.11355009 -0.21383068 0.14434208 -0.20392776 0.15584458 -0.10841487 -0.06317012 -0.079327956 -0.023572657 -0.16657081 -0.25847435 0.003906912 0.11550841 0.1838526 0.10981827 0.47895047 -0.09042335 0.10343489 0.067818254 -0.10641497 0.088729896 -0.020337127 0.033610582 -0.010948359 -0.0015956945 0.07314437 0.24447507 -0.12953398 0.14065102 -0.18932587 0.19449106 0.27306116 -0.11857317 -0.039859902 -0.069150545 -0.023472674 0.06780644 -0.30501172 -0.071618475 0.04200774 -0.32780808 -0.024140265 -0.2627666 0.12723161 0.13772629 -0.045407694 0.058195073 -0.02337863 0.05242239 -0.35938296 0.110085174 0.09120319 -0.22360213 0.30499944 -0.080809206 -0.45430428 -0.3023941 0.14034805 -0.16620691 -0.043822456 -0.032252498 -0.016318487 0.06595993 0.0766177 -0.042206172 -0.047548577 -0.31093067 0.2157953 -0.04516697 0.22273804 0.15005778 -0.14867942 0.09957889 -0.07508621 -0.08674786 -0.14423364 0.008743298 0.07277316 -0.3199677 -0.23373266 -0.2243335 -0.07259797 0.063051306 0.020052345 -0.013035055 0.034303766 -0.048926845 0.0078018 -0.21461102 -0.02538213 -0.10181917 -0.2495457 -0.047387812 -0.077686265 -0.010734144 0.07281845 -0.21647802 0.007431254 -0.16806908 -0.20062627 -0.10239953 -0.14011762 0.04512948 0.16305982 -0.18951671 0.18708216 -0.15694425 -0.121776976 0.18138425 -0.09354721 -0.13521159 -0.131563 -0.098081194 0.11796044 0.007937672 0.117050506 0.2876784 -0.1297843 -0.03918851 0.043856654 0.040145487 0.16031905 0.005583053 0.026240125 -0.067961685 0.019005962 0.26579228 0.039579824 0.16494443 -0.026277924 -0.107060514 -0.24881819 -0.15144956 0.021831086 0.24234757 -0.015246277 -0.04413998 -0.3135415 0.1646389 0.011950877 -0.11423362 0.043693643 0.011503429 -0.3852236 0.117668115 0.27650785 -0.05357436 0.012986275 -0.07366761 -0.0791429 0.18697949 -0.1614161 0.1337438 -0.14270884 -0.035332855 0.319962 -0.16988721 0.2627248 0.035090543 0.04789386 -0.09437912 0.070639536 0.029301232 0.06634973 0.018783974 0.2159769 0.14124973 0.0149350185 -0.14511763 0.23506573 -0.19182691 0.041595597 0.050988737 0.15010318 -0.0026942566 0.023653807 0.01658232 0.016665705 0.10898156 0.23168467 -0.051929995 -0.059359394 -0.088673614 0.0081798555 0.0622777 -0.23283608 0.07812044 -0.07920723 -0.16270132 0.20807455 0.20103282 0.013504986 0.029612826 0.042814862 -0.0704443 0.06617885 0.018039001 0.18432035 -0.10629316 -0.0016543758 -0.119787574 -0.13714308 0.035936378 0.029453116 -0.007353528 0.16198339 0.21961123 -0.0731985 0.07370176 -0.09771798 -0.058401212 -0.13184562 0.052490797 -0.12142253 -0.34293765 -0.09100553 0.15639856 -0.22648434 -0.03617612 0.38811904 0.15482964 0.21103978 -0.19152808 -0.09945629 -0.1974244 0.29720095 0.025608987 0.14532414 -0.19613634 0.20843692 -0.26904237 -0.06822016 0.117241345 0.16352004 -0.14059608 -0.06263022 0.07776942 -0.37173113 0.21523131 0.1073737 -0.30117026 -0.047858194 -0.19201401 0.23169562 0.09924361 0.15048134 0.18511656
104 -0.09858069 0.23591992 -0.024125392 -0.11181021 -0.28217667 -0.10039308 -0.13745065 0.15830809 0.15336743 -0.087141916 0.008982308 0.29232854 0.0740182 0.022131838 -0.20708156 0.1187802 0.28717044 -0.2620962 0.29822055 -0.01205185 -0.03567167 0.07624405 0.0970754 0.01307002 0.15686503 -0.014003209 0.16697012 0.14382598 -0.31225199 -0.30198935 0.044151153 -0.15782747 -0.18177415 0.20402275 -0.0115432935 0.14361402 0.04236521 0.025909701 -0.037905414 0.06023216 -0.07836956 0.07533212 -0.038229935 0.10954847 0.08420971 -0.14137614 -0.3411475 -0.015631448 -0.14428456 0.101661876 -0.026255801 0.2575451 -0.087492846 -0.010426116 -0.035537068 -0.007552463 -0.34839782 -0.070363835 0.040188592 0.18446606 -0.09230309 -0.039118245 -0.11688705 -0.15701106 0.18474346 0.029298855 0.102857545 0.026485965 0.10964708 -0.10178296 -0.005008545 0.033320863 -0.27268502 0.058469582 0.05393792 0.15200394 -0.09141673 0.015798971 0.20451035 0.13396047 -0.03637349 0.16665995 -0.20006238 -0.04636063 -0.0134777725 -0.37711698 0.13603207 -0.07977779 -0.22569391 0.16961946 -0.07970003 -0.0034840084 -0.08603242 -0.15297511 0.23345315 -0.04007714 -0.07219469 0.0068028094 -0.04203622 0.030003853 -0.10912087 -0.13824011 -0.053383306 -0.025509192 0.24812861 0.09935118 0.17141391 0.021243608 0.13224062 0.16882922 0.20852391 0.1318993 -0.02009773 -0.06744817 -0.04189433 0.07148882 -0.062547274 0.17085421 -0.13582623 -0.012948466 0.18892558 -0.051562704 -0.06468316 0.14297026 -0.057183247 -0.04251339 -0.01365714 0.10197298 0.034010913 0.09231445 -0.0046632863 -0.17141691 0.05528702 -0.20017008 0.2744855 -0.1414331 -0.13595746 -0.0022459156 0.044156086 -0.06150893 -0.10669473 -0.14394143 0.10185619 0.15076959 -0.027508263 -0.17232646 0.03875914 -0.10067551 -0.044584796 -0.110157005 -0.030608917 0.08092352 -0.23371513 0.039132576 -0.06917944 -0.05526363 0.05769385 -0.13688523 -0.05765877 0.042415183 -0.03494083 0.03456045 -0.10246691 -0.26139283 0.011853178 0.12075137 0.08848787 0.07588665 -0.048847683 -0.07879126 0.060107883 0.124226004 0.06824426 -0.018314095 -0.12541197 0.055680152 0.09380767 0.0044110063 0.07971608 0.15622617 0.020128924 0.12931646 -0.13990712 0.07880442 -0.061627142 -0.107659176 0.21637176 -0.05904147 -0.18794203 -0.061212618 -0.10287797 -0.2393598 -0.023107858 -0.30042702 0.08897038 -0.1192912 0.041870795 -0.107686214 -0.023733262 0.056063116 0.056854494 0.04240443 -0.09277577 -0.033742126 -0.14365768 0.036600955 -0.02170025 -0.072106354 -0.08547602 -0.06943056 -0.14717457 -0.063422605 -0.013467867 -0.03945931 -0.013022815 -0.009919639 -0.018536113 0.23899202 0.007504273 0.087800555 -0.01634197 0.02021689 -0.17371392 -0.16393471 -0.028466836 -0.1496651 -0.050086763 0.07171074 0.022880109 0.003715517 -0.17640005 -0.20947205 0.01444448 -0.1312914 -0.09213443 0.016885474 -0.034727685 7.31402e-05 0.029295497 -0.15761633 -0.19182388 -0.2083532 0.07337415 0.08435465 -0.02329437 0.07122204 -0.02725214 0.32047006 0.11280388 0.024872841 0.14762975 0.06260148 -0.087460205 -0.08982323 -0.123689435 0.21295108 0.23076108 -0.13569403 -0.038487285 0.118465506 -0.18005799 0.20230208 -0.15870525 0.08365895 0.11991157 -0.12736465 -0.156413 -0.076289855 0.08706335 0.30572483 -0.1822809 -0.122393236 0.10138561 -0.035312034 0.013436105 0.10523834 0.06764017 0.073624186 0.010873024 0.043168887 -0.007731736 0.024311729 -0.021942254 0.102466896 -0.062070515 0.06851496 0.06330792 -0.0011605838 -0.026838966 -0.06076238 0.10261373 -0.01798434 0.029188741 -0.02678205 0.04313762 0.23615529 0.078993075 -0.036825236 -0.09125377 -0.16025421
250 -0.234297 0.06383431 -0.060607634 -0.022589816 -0.17851844 -0.27633113 -0.070810184 0.11732074 0.037037376 -0.09565119 0.13037767 0.062144272 0.23707716 0.21403061 -0.1306341 0.06883906 0.062668435 -0.11428522 0.18727909 0.21581972 0.26411474 -0.120452195 0.15180615 0.039150227 -0.1861467 -0.13975045 0.03053045 0.11863772 -0.2019739 0.19084103 -0.060389493 -0.09361554 -0.11372109 -0.28388822 -0.1668998 0.23167695 0.0020329386 0.07990825 -0.10891602 -0.064769946 -0.083993666 -0.039634343 -0.04593869 -0.01775475 0.013970371 0.083634846 0.06613055 0.124923155 -0.07876132 -0.13176912 0.33168873 0.05186774 -0.11211596 -0.15071435 -0.0063819466 0.028255422 -0.17975275 -0.02056078 -0.004454354 0.09648233 0.14036426 0.051059652 0.009985912 -0.047345407 0.1163032 0.018408714 0.042938523 0.065679245 -0.25775585 -0.02377695 -0.08276831 -0.049912486 0.0404594 0.22754245 -0.025221357 0.08643478 0.08039085 -0.082148105 -0.0040402533 -0.028113343 -0.09923483 0.07353955 0.0035802461 -0.041169118 -0.2513462 -0.07638817 0.034018423 0.028014435 -0.029533064 0.025270157 -0.086115405 -0.21316014 -0.020678781 0.026583124 0.029735016 -0.08794728 -0.13694306 -0.07892708 0.06698495 -0.1554428 0.08220794 -0.08040073 -0.17781886 -0.107509 0.072437026 -0.0579445 0.07232735 0.018920317 -0.2674177 -0.4141504 0.15801862 -0.11541389 -0.024836367 0.115030125 0.101699814 0.030648338 0.10411345 -0.15872075 0.0193719 0.07761022 -0.110475905 -0.087960854 -0.35457176 0.1260058 0.10570846 0.030870995 0.045312703 0.06581386 -0.05680368 -0.1118914 -0.21820946 -0.18773143 -0.070766784 -0.13221386 0.12845433 0.010498641 -0.0880777 0.0338389 0.19476514 0.053539574 0.16376024 -0.030208606 0.064224064 0.21106878 -0.09225296 -0.100839235 0.057826668 -0.31808084 -0.05015338 0.025874851 0.084463626 0.00598508 -0.22339654 0.07703343 0.14925188 0.46280015 0.31604713 -0.038900506 0.025511814 0.12868443 -0.14422455 0.116709866 0.13750269 0.09932053 -0.15916626 0.004597908 0.13862272 0.26529962 -0.15279391 -0.05622185 -0.05005825 0.1370519 0.16002744 -0.12391622 -0.09526666 -0.08603467 -0.030711375 -0.15538141 0.1042988 -0.08893564 0.021473903 -0.17414492 -0.0868147 0.03858012 -0.14843525 -0.033943996 -0.10235472 0.07231995 0.18214208 -0.117939875 0.062454812 -0.17189713 -0.13177696 -0.20776683 -0.09565372 0.21778882 -0.21415047 0.21332121 -0.007021097 0.041540362 -0.018016703 0.16477604 -0.16960189 -0.0831167 0.043415967 0.15221772 -0.12538902 -0.1252842 -0.23426811 -0.007904225 -0.038577013 0.019091057 -0.051701 -0.03041355 0.18065837 0.040516954 -0.063946016 -0.09555571 0.027016163 0.072406694 -0.05802381 -0.3425047 0.089997835 -0.19179982 0.057758667 -0.057386752 0.005565635 0.0016059626 -0.0012723892 0.14663309 -0.24356699 -0.06177813 -0.029988889 0.0043971175 -0.1832678 -0.07844252 0.24647777 0.114066705 0.05740435 -0.18768409 -0.1655529 -0.13629729 -0.024353638 0.0010774315 -0.0017249039 0.2820053 0.13261965 0.1289408 0.02612071 -0.2011364 -0.22848837 -0.06763505 0.046297874 0.24437082 0.15168035 0.11467922 -0.05009367 -0.21609896 -0.03273126 0.07519317 -0.3444476 0.05777937 0.089655004 -0.009493451 -0.0270921 0.033793077 -0.10799271 -0.09989145 -0.0024064195 0.14375943 -0.03040593 -0.13508196 -0.042435788 -0.02926459 0.09164976 0.028679289 0.07964332 0.32813352 0.014281937 -0.11339988 0.04838908 0.025002016 -0.13214754 -0.06988275 0.18089096 0.105958566 0.118817575 0.18655822 -0.0022965118 0.03342025 0.1424709 -0.12066368 0.072410375 0.20241775 -0.060790952 0.28524 -0.07101024 0.11689129 -0.102013685 -0.09015882
35 0.31782863 -0.054931697 0.35223386 0.09390216 -0.017223364 0.023021016 -0.012579555 0.19648907 0.07582118 -0.29097915 -0.11555747 0.09228213 0.13599448 -0.0866184 -0.3393005 -0.24485919 0.051029805 -0.066205256 -0.00787721 0.3513938 0.0064684586 -0.0051100412 0.13722745 0.035914633 -0.00032679972 -0.18351199 -0.0031260182 0.3216455 0.090865284 -0.0161719 -0.33748686 0.3223177 -0.057453666 -0.17713587 0.16254225 0.11211331 -0.33623803 -0.45974818 -0.36543727 -0.20163947 -0.07442301 -0.09713623 -0.0005138586 0.1023418 -0.20582375 -0.15918566 0.15144043 0.14635809 0.20715082 -0.02096944 0.077820554 0.26709813 -0.1238007 -0.121295504 0.2402661 0.2786092 -0.23179585 -0.18070011 0.026627365 0.20455255 -0.062242515 -0.09443945 -0.10947964 0.003479508 -0.27672645 -0.22423983 -0.03826279 -0.13799378 -0.082297094 -0.28889504 -0.16997884 0.3291217 -0.19786978 -0.21293208 0.29157734 0.29188243 -0.30461043 -0.063320495 0.026530815 -0.11586546 0.017366238 -0.13144685 0.18064007 -0.021248948 -0.07664508 -0.16109385 -0.094577596 -0.05182862 0.11398885 -0.34753406 0.28260106 0.08284453 -0.022490267 -0.45442164 -0.13988964 0.116911784 0.1570759 0.072389446 -0.09737668 -0.16101956 -0.020973379 0.026934458 -0.010285526 -0.029578997 -0.1744847 -0.085145384 0.09388465 0.17561898 0.30971685 0.21942486 -0.2450524 0.17405456 0.28773382 0.065396905 -0.12267321 0.48316845 0.4923191 -0.113053724 0.031598184 -0.16397865 0.03798669 -0.02331394 0.3385429 -0.0694728 -0.1174504 -0.3145617 0.16047809 0.10042885 0.027488107 0.123794846 -0.114910856 -0.010461577 -0.08068022 4.215485e-05 0.096192166 0.046658624 -0.040361155 0.31007552 0.24139567 -0.13451008 -0.37734398 -0.21941562 -0.07274629 -0.25495264 0.16903268 0.10951983 -0.09016091 0.18151112 0.24095173 -0.44842657 0.19412147 0.36316884 0.3804107 -0.27774894 0.011804203 0.13770367 0.1632631 -0.11515935 -0.14448506 -0.113598794 0.18653287 0.109717995 0.00071769924 -0.07040823 -0.018243656 -0.060759306 -0.09026989 -0.079702996 -0.085048996 -0.03225492 -0.12553763 0.050625797 0.048957914 0.15771255 -0.19619319 -0.13454568 0.14944392 -0.030287633 -0.07508259 0.019704701 0.49875987 -0.0034048776 0.1313599 0.21436858 -0.065728694 0.111890435 0.3294619 -0.25876126 -0.14607523 0.12098261 -0.16061163 0.06625487 -0.19063327 -0.1825811 -0.0133812055 0.034578044 0.03279024 0.120026775 0.11237763 -0.098677866 0.18627782 -0.2734774 -0.15395701 -0.076713674 -0.00034701475 0.26729515 0.26382762 -0.11352006 -0.21725586 0.30265445 0.21200682 0.102549195 0.19451678 -0.22232367 0.17536685 -0.1000899 -0.49914113 -0.12753356 0.16112444 0.12542757 0.13997148 -0.18903704 0.059455127 -0.2982475 -0.016857713 0.17386822 0.0156587 0.34312257 0.06954987 0.085342765 -0.1195157 -0.0021226848 -0.10098982 -0.10541413 -0.020679617 0.0574741 0.07188288 0.17069395 -0.25131518 0.039892446 0.04831334 -0.08883215 -0.24127112 0.11283273 0.07960205 0.21021374 -0.104819074 -0.19582824 0.27542594 -0.113304906 0.20836234 -0.092034966 -0.020517914 0.039078686 0.29483423 0.0558097 -0.21161285 -0.08871717 -0.018601075 0.1175063 -0.21192133 0.17464092 0.2554309 0.054039814 -0.016847689 -0.24582805 -0.14221416 0.047627818 0.4163316 -0.19635645 -0.17241722 -0.12794645 -0.26785767 0.07972995 0.08044468 0.16700555 -0.06709943 0.10697827 0.026531689 -0.0909847 -0.046651337 -0.004640792 -0.061139196 0.11935498 0.0018055763 -0.20317023 0.027961852 -0.12785137 0.048942246 0.14716442 -0.032295883 -0.035986323 0.11479993 -0.45770237 -0.15721248 0.074092604 0.36627296 0.08049371 0.15601744 -0.041758552
163 -0.10239932 0.11723768 -0.17187117 -0.025222696 -0.040645767 -0.01874774 -0.32722586 0.16030106 0.04502718 -0.020207891 -0.063542925 -0.11259052 0.14849694 -0.1871499 -0.18245777 0.002819291 0.0070716445 -0.037981875 0.18433513 0.05642504 -0.06005018 0.20006868 0.34637934 0.0059421114 0.09297498 0.029991131 0.07743162 -0.016270606 0.037592307 0.00024714624 -0.17603062 0.056515906 0.036574308 0.06513521 -0.07820708 0.18306883 0.27646098 -0.17905563 0.042164143 -0.13874173 0.061233696 -0.13090025 0.06873345 -0.19758272 0.26791185 0.07798499 -0.12861642 -0.073561504 -0.19404878 0.16336404 -0.18729061 -0.103921846 -0.13749716 0.14261664 -0.1820078 -0.04236102 -0.14100268 0.11088327 -0.24702027 0.19351858 -0.23470294 0.07651357 -0.11553819 -0.21295007 -0.079457305 0.18621159 0.09561161 0.18379192 0.06695531 -0.047892086 0.09728801 0.17751561 -0.25950927 0.27839106 -0.062431835 -0.011299649 -0.10009351 -0.10627078 -0.00883302 0.11390274 -0.30995297 0.07966759 -0.1992396 0.070267566 0.039386623 -0.12939757 0.1273922 0.08292803 0.045574807 0.12551585 0.012018855 0.019512536 -0.14414175 0.09721151 0.14461781 -0.15561107 0.11223518 -0.25967965 0.0019162272 -0.00047823248 -0.13731909 -8.390227e-05 0.13071063 0.001329617 0.1408306 -0.04803375 0.031354558 -0.040278934 0.012372252 -0.18663134 -0.07244112 0.14955252 0.1778869 -0.035811868 0.11499502 -0.092396885 0.05394966 -0.07157269 -0.067642145 -0.22045998 0.095941305 0.065886624 0.031096233 0.019914102 -0.06848182 -0.25094435 -0.17353144 0.11775182 0.27892378 -0.018891225 -0.08195551 -0.047142643 -0.1305541 -0.053043865 0.08463027 0.03135549 0.025723567 -0.021529686 -0.107475355 0.012239487 0.075282514 0.080314815 0.22988544 -0.109400116 0.41339436 0.110578224 -0.04594601 -0.19737342 0.073653735 -0.26302353 -0.14227654 0.23010564 0.030912247 0.10550797 -0.023696568 -0.077993795 0.17050126 0.10838376 0.34215188 -0.1173355 -0.2391528 -0.0828283 0.13468778 -0.1819456 0.026889956 -0.12442184 -0.13676158 0.15627043 -0.15351042 -0.16946067 -0.12501381 0.113277584 -0.2941526 0.017294677 -0.11409142 -0.18385181 0.009899724 -0.11984049 0.13049147 -0.03309159 -0.100011736 -0.10957148 0.05305229 -0.3087555 -0.11420309 0.17745379 -0.017704982 -0.14541934 -0.078747034 -0.044801608 -0.21326432 -0.17847727 -0.09262198 0.2020763 0.24227205 0.051998522 0.09869565 -0.03056034 0.050690465 0.11076177 0.035615046 -0.069829956 -0.011695822 0.10209408 0.0019842472 0.024969256 -0.0016676432 -0.038603142 -0.15954533 -0.048770882 -0.15454847 -0.20051461 0.25475663 0.25455856 0.061303258 0.13177228 -0.023241267 0.037201807 -0.10771588 0.002949863 -0.039542306 -0.043083727 0.19146027 0.3679526 -0.053431183 0.08666847 0.1373618 -0.14923781 0.051401876 -0.05696492 -0.06214176 0.04457663 -0.08904744 0.078867584 0.018122183 -0.06464701 0.18466073 -0.014549231 0.0016015931 -0.14870536 -0.19615364 -0.12588261 -0.052855227 0.13673873 0.06408712 0.17568208 0.0332184 -0.011800448 -0.05907368 0.20315267 0.19730319 -0.071628466 0.11468927 -0.060553215 0.040770926 0.10077607 0.25861073 -0.0958506 -0.11187651 0.12560266 0.008542496 -0.20297958 -0.08348184 -0.043968022 -0.22684386 -0.08955108 -0.08005755 0.02742953 0.081614584 0.2524879 -0.20186235 0.0143835535 0.16565025 0.044257235 -0.02581058 -0.11350907 -0.069345176 0.20433801 0.027515294 0.11406633 0.18752624 -0.040592466 0.06625417 0.06955502 0.053381518 0.025212714 0.06740464 0.10981808 -0.23287815 0.2202777 0.14522353 -0.02552366 -0.11304973 -0.032242965 -0.111025535 0.009608451 0.29614246 -0.12005358 -0.12419541 -0.03681884
54 0.088374645 0.10543105 -0.15191753 0.16606663 0.03655551 -0.056822035 -0.062248748 0.1053969 0.21786393 -0.12944624 -0.1394041 0.06353462 -0.22453254 0.15850006 0.16538629 0.009670974 0.2653181 -0.0058048875 0.080596164 0.17726496 0.072638795 -0.073579535 -0.09938481 0.103227496 0.076251514 0.117726564 -0.11068242 -0.36603236 -0.24988258 -0.11274828 -0.04802381 0.0137241315 -0.105456755 -0.113293566 0.43959564 -0.07326934 0.099797845 0.27420563 -0.023201859 -0.2201864 0.029359888 -0.0629461 0.023469692 -0.24522509 0.25914288 -0.06153858 -0.2442081 0.31228322 -0.3210112 -0.29961243 0.16557606 0.23927608 -0.41732997 -0.050558254 0.10041592 0.041414622 -0.16563624 -0.041658334 0.4353267 -0.02583367 -0.009996068 -0.00031862778 0.078347914 -0.010156053 -0.23064172 0.54195887 0.03814242 0.069513716 0.024928031 -0.07916264 -0.23235382 0.099998295 0.12811911 -0.051378064 0.2008977 -0.024201797 0.20316361 0.02754736 0.09016104 0.073803745 -0.039977558 -0.11884478 0.079733826 0.032512754 0.056001026 0.21412091 0.0054956744 0.036011256 0.09342261 0.28787857 0.08181778 0.10543009 -0.03934729 -0.34366578 0.043638427 -0.2728687 0.05101524 -0.35628355 -0.3876902 0.09740143 0.20345579 -0.1813342 0.006457131 0.08588978 0.051524676 -0.07978586 0.3956191 0.0052523795 0.028889488 -0.024589071 0.30008516 -0.059308756 0.12012436 -0.23682818 0.05817686 0.34838468 0.013208265 0.12878685 0.104457214 -0.52310044 -0.39832315 0.31587836 0.08109363 -0.2360653 -0.026035478 -0.113484085 -0.029012157 0.07349112 -0.3579443 -0.12148141 -0.068740755 -0.12315169 0.04805667 -0.119729504 -0.0055125295 0.25797436 0.076006845 -0.09239275 0.11814543 0.18439987 -0.03305675 -0.26189536 -0.08967902 -0.13821813 -0.0847611 -0.49113998 0.16000746 -0.3781311 -0.1762912 -0.1268191 0.1451075 0.23883864 -0.2253338 -0.052313354 0.14864059 0.1391466 0.015712425 0.1452159 0.027028091 0.030524362 -0.2594883 -0.20301847 0.29981735 -0.026594847 0.18705545 0.17565508 -0.13386837 -0.051575556 0.044479165 -0.15311645 -0.11367387 0.0071183895 -0.065807804 0.18630867 -0.3035102 -0.16332908 -0.046350412 0.31989393 0.17505361 0.048589963 0.41369414 0.063970745 0.006633888 -0.22572881 -0.1333501 0.03943958 0.21553311 0.0009216188 -0.21338515 -0.11604803 -0.12071261 0.01888531 0.08738445 -0.35251817 0.009445781 0.28687298 -0.26151097 0.22543575 0.16835298 -0.09653868 0.15189004 -0.18615994 0.062495705 -0.12114053 0.4163392 -0.13260318 -0.3579543 0.13749357 0.09747691 -0.10851764 0.23758247 0.04918301 -0.04851075 0.1567739 -0.09811725 0.28155336 -0.027111052 0.070162684 0.045582548 0.15397811 -0.010812628 0.11376585 -0.17532673 -0.25545698 -0.010681574 -0.2810378 -0.25636402 0.12694836 -0.061034366 -0.08777957 0.024217378 0.34634936 -0.002462993 0.29363245 -0.23439401 0.15037704 0.03229229 0.19881345 -0.09230261 0.0480109 0.28861806 -0.10329159 0.096936546 -0.17881957 -0.38135913 0.008932321 0.04578523 0.076471135 -0.13591342 -0.110249184 0.23208898 0.15672398 -0.4830959 0.37248892 0.0900829 -0.33225384 -0.090049885 -0.36966956 0.11368857 -0.1001443 -0.16663538 -0.13171913 -0.0054849503 -0.12787212 -0.27589965 -0.6364906 0.40622044 -0.11607668 0.060497474 0.38919497 -0.28012744 0.13358776 0.07843925 0.090296164 0.035911076 -0.07849311 -0.5571158 0.04418987 0.09908502 0.096206084 0.18005307 0.06612244 0.22680235 -0.09602049 -0.1314203 -0.29397327 0.09017687 -0.13514876 -0.25910038 -0.29411715 0.2327448 0.1341031 0.10490354 -0.16976826 0.16638434 -0.044945035 0.26245913 0.20213775 0.24639411 0.04297227
