1052 100
537 -0.099602304 -0.121850446 -0.036726076 0.22399889 -0.1523186 0.41915104 -0.012691081 -0.14163019 -0.07445047 0.19382711 0.2954693 0.09556037 -0.03257251 -0.093413666 0.21008535 -0.11802519 0.13030207 -0.10747181 0.32759732 -0.098070376 0.16805804 0.25866336 -0.16588698 -0.0559035 0.06461196 -0.038413927 0.11801907 0.0021097607 -0.20242573 0.09636347 -0.053623006 0.021158345 -0.01942824 -0.27059266 -0.06982813 -0.014378293 0.15731363 -0.066475704 -0.03307669 0.23680751 -0.115396574 0.09617195 0.14993434 -0.042220354 -0.07878897 0.05854831 0.06518653 0.055272482 0.23814338 0.19344695 0.17868422 -0.23487498 -0.17351244 0.21165217 0.12711696 -0.041800678 -0.20833524 0.014997243 -0.18335448 0.04481972 -0.18466428 -0.1337277 -0.13457388 -0.21672396 -0.20276092 0.14119744 -0.18645804 0.20299181 -0.19176584 0.2470291 0.19786313 0.26007283 0.08847064 -0.048424214 -0.09875131 -0.16475166 0.32357457 0.028601471 0.008663036 0.065196134 -0.27866367 0.06579959 -0.06887075 -0.26839897 0.026919072 0.1225128 -0.04998873 -0.016906094 -0.10545565 0.14316864 -0.006949196 -0.19459371 -0.083742835 0.103008725 0.13081244 0.14539506 -0.07650717 0.048767906 -0.15974769 0.2247748
339 0.06690675 -0.1604706 -0.22267425 -0.04125822 -0.1592657 0.06464054 0.07814542 0.10112521 0.3861668 0.36427754 0.09752589 0.058649596 0.1072695 -0.09105794 -0.031867515 -0.19295986 0.038111914 0.12508702 -0.034303024 -0.15938064 0.16425425 0.050278462 -0.12838802 0.17561918 0.07266561 0.06731327 0.0970615 -0.07553255 -0.34878582 0.16582555 -0.16410504 -0.23580724 0.035179105 -0.012025899 -0.16795957 -0.09568835 0.19456656 -0.14493005 0.029077351 0.109036915 -0.15486789 0.07272062 -0.016793717 -0.14371297 -0.21167238 0.11303431 -0.059448734 0.14754161 0.1086293 0.1755197 0.10143123 -0.07132357 0.0072771315 -0.013536753 0.022189515 -0.12470986 0.055704806 0.10678959 -0.18166387 -0.14318931 -0.024054943 -0.17336345 -0.15690748 -0.23284835 -0.2170557 0.022809532 0.040988192 0.20654386 0.18660715 0.0143025555 0.08613234 0.43070993 -0.001885941 -0.10005542 -0.16712849 -0.114697054 -0.16738309 0.034073982 -0.062052414 0.16393001 -0.17086604 0.0066061327 -0.09509643 -0.23044199 0.07883594 0.026850078 0.08500255 0.37518477 -0.23194507 0.06864644 0.06855617 -0.3104777 0.14928524 -0.20985565 0.18913403 0.2095398 0.07485383 -0.11735217 0.06719852 0.0893776
46 -0.10954012 -0.34694952 0.13466409 -0.08928279 0.8073084 0.1332357 0.42465654 -0.46797693 0.23697859 -0.4557962 0.17456777 -0.41042033 0.20108339 -0.58455485 0.5108835 0.04107695 0.587724 0.009922132 0.41866446 0.16990304 0.44075766 0.17258932 -0.49076217 0.38404408 0.28161895 -0.28245348 0.5615507 -0.3644893 0.45598269 -0.0009928507 -0.27346218 0.18648031 -0.39098895 0.7000215 -0.2743826 -0.05346501 0.44655353 0.37693802 -0.25418884 0.15215237 -0.4833009 0.14990832 0.17801516 -0.5243247 0.37598693 -0.06087363 0.48330805 -0.032323748 -0.3351474 -0.23382035 0.20910557 0.08793577 0.016606672 0.12346264 -0.06880238 0.3499117 0.01657086 -0.3266169 0.5723254 0.4065285 0.105364054 -0.06066821 0.32428625 -0.4074848 -0.25338468 -0.3866033 0.6647465 -0.03587702 -0.48589352 0.18965958 0.17527856 0.50031006 -0.035029273 -0.26105872 -0.40863445 -0.28745174 -0.37120175 0.059128862 -0.27681798 0.114918485 -0.2262271 -0.36368507 0.1037207 -0.21930963 0.23113374 -0.12687515 -0.20019405 0.16730689 0.0847899 0.42336732 -0.19961697 -0.6400344 0.04017339 -0.13837157 0.31616107 0.30577484 0.09199256 0.10911076 0.375143 0.12806268
92 -0.031949896 -0.4113561 0.30899292 0.078850485 0.44679767 0.31003153 0.10926364 -0.3207309 0.13885838 -0.09266378 0.068113215 -0.16692936 0.2285744 -0.30413696 0.06403246 -0.085226126 0.40994087 -0.073447146 0.4125791 0.07554104 0.07744786 0.2571317 -0.19207206 0.21431729 -0.071473554 0.20768179 0.51627433 -0.22905846 0.12591317 0.080623515 0.0062944507 0.031454496 -0.40344015 0.62553686 -0.36237454 -0.21705595 0.51556563 -0.08419249 -0.44341537 0.15464543 -0.28885978 -0.058359183 -0.010285551 -0.13134639 0.13886249 -0.06974602 0.16200103 -0.17400634 -0.20642574 -0.20414348 0.4184694 -0.049426097 -0.029292924 -0.14860228 -0.08287102 0.33699605 -0.10905645 -0.035383195 0.10080282 0.20416161 0.031333596 0.1004503 0.22258279 -0.29318663 -0.15801051 -0.30268335 0.30092683 -0.21276817 0.0008600155 0.2522263 0.17473878 0.46164817 0.03489355 -0.16964889 -0.4608862 -0.502467 -0.28683174 -0.114469275 -0.24212006 -0.1477335 -0.08341019 -0.43172073 0.33711264 0.11482075 0.3947887 -0.116252825 0.05877446 0.19595437 -0.02642766 0.31341177 0.19898842 -0.21304014 0.021087164 -0.4648524 0.14819242 0.2326128 0.11391503 0.12439448 -0.031878654 0.3619197
24 0.0397527 -0.3768601 -0.537004 0.023109103 -0.29516616 0.34686837 0.252725 -0.19004618 -0.17394738 0.30447027 -0.17689344 0.11195239 0.0892254 -0.015584646 0.31356925 0.12479321 0.23672894 0.16261113 0.11688504 -0.29358995 -0.4767239 0.19571547 0.27226904 0.14978853 0.17605296 0.028783482 -0.0026373684 0.032489903 0.179663 0.3456485 -0.6247277 0.10016256 0.0016064729 -0.14841211 -0.21888946 -0.3156305 -0.12934327 0.09883233 -0.16232048 0.16637929 0.015276869 0.15532772 -0.40691024 0.455626 -0.47869456 0.59923095 0.31974557 -0.36840114 0.16210224 0.08533816 0.20294571 -0.09742059 -0.005912209 0.41046456 0.14491232 -0.12894143 -0.18365787 -0.03229627 -0.16576783 -0.08453354 -0.2088499 -0.091629915 0.46993548 -0.0028568588 0.21796615 -0.29293066 0.42820206 0.042684127 -0.036603875 0.6633295 0.1304177 0.37638462 0.07991577 -0.19273725 -0.4221085 0.12427485 -0.012430668 0.33875796 -0.05699494 0.36303788 -0.17572793 0.10117583 -0.129882 0.25398478 0.18576154 -0.04739376 -0.16774066 0.1923927 -0.024554227 -0.037323788 -0.028246015 -0.115527704 -0.18685228 0.018764814 0.1765485 0.0776917 -0.0898236 -0.09728945 0.24615514 -0.15768783
9 0.12478331 -0.0042923214 -0.14864233 0.18863988 -0.1877874 0.105631605 -0.026417 -0.12201606 -0.093567066 0.19850764 -0.043294717 0.40007308 0.043378953 -0.27703235 -0.05660602 0.48091814 0.33313307 0.21911682 -0.16506144 -0.12584203 0.1529793 0.12481559 -0.20903343 0.31047696 -0.06739535 -0.13526909 -0.15831083 0.1145013 -0.15566646 0.309741 0.089566045 0.22760764 0.17238796 0.2823632 -0.25298184 -0.19013266 -0.10819161 0.032149956 -0.032080956 0.10890575 -0.036141 -0.089693815 0.057518076 0.23800918 0.33040848 -0.33000246 -0.11338617 -0.3789649 0.09664554 -0.10175426 0.061888065 -0.1892744 -0.018000899 0.05081709 -0.24362314 0.41211215 -0.019011196 0.15842725 -0.17963985 0.111465596 -0.06337627 -0.2755603 -0.23460802 0.00040706765 -0.0327716 0.23128557 0.011567677 0.08434098 0.068635605 -0.048097085 0.3142919 -0.15462999 -0.25634778 0.119505964 0.012516571 0.19666857 0.24772254 0.26647264 0.14164777 0.26746777 -0.23529051 0.103886284 -0.24928142 0.123966746 0.25387233 -0.12800887 0.18328714 0.12658438 0.33673432 0.1958653 0.32729492 -0.20814112 0.20434754 -0.040758822 0.29661098 0.20794128 -0.12621054 0.19150981 0.1591746 0.16730943
5 -0.2765536 0.13661976 -0.48524988 -0.25941265 -0.57343465 0.11868549 0.30240518 -0.06654564 -0.30875057 0.44258064 -0.08779514 0.102854125 -0.45905706 0.07792007 -0.121221185 0.21575801 0.32226384 0.03160028 -0.2619338 0.08258995 -0.0496721 0.03306439 0.18014592 0.1293577 0.30913344 0.013848433 -0.22845279 0.026867442 -0.31070167 0.39426732 -0.21978334 -0.11245799 -0.10146194 0.35910222 -0.026877817 -0.0979409 0.26463708 0.4732418 0.024807345 0.09955514 -0.54254097 0.08934013 -0.020442706 -0.039822053 -0.04989593 0.36529592 -0.1090055 -0.19206485 -0.23005325 0.3023974 -0.07294585 -0.1627849 -0.05871944 -0.14873983 -0.16498761 -0.049600694 -0.05891098 -0.15094997 -0.0650617 -0.18738475 -0.08460071 0.2985668 0.06674361 0.04278587 -0.03227896 0.25793135 0.09445461 0.041625198 0.050776165 0.11481324 0.12625793 0.3165768 -0.051766697 -0.5064404 -0.5122733 0.0775849 -0.104397416 -0.021268934 0.21092807 -0.09063715 -0.35117796 0.025402583 -0.055479668 -0.061420836 0.35811046 0.2505833 -0.04611307 0.031506985 0.59907746 0.21597868 0.066708595 -0.13246824 0.31651804 0.14604439 0.32081023 -0.07079267 0.21786691 -0.047181368 -0.1884168 0.08758934
377 0.14952007 0.027944975 -0.43609816 0.20591477 -0.033102375 -0.22880222 0.08149087 0.08095661 0.36078358 0.22823885 -0.019213922 -0.031845342 0.12015914 -0.11851473 -0.08742673 0.45337182 0.13298328 0.22415937 -0.05019484 0.055540156 0.15567726 0.070926785 0.002714853 -0.15441178 0.26152816 -0.28501126 -0.12870143 0.15387876 -0.08774616 0.13292362 -0.048927993 -0.074037075 -0.10011956 -0.059630033 -0.58060044 0.026156375 0.16471967 -0.34760156 -0.04483342 0.28129834 -0.24529286 -0.14275654 -0.1251108 -0.06398483 -0.22674085 0.26121867 -0.115688324 0.18367735 0.06732002 -0.14082989 0.034172382 -0.36683017 0.07546415 -0.12440156 -0.09964751 0.107891776 0.08196886 -0.43986124 0.08590475 -0.14676595 0.012131028 -0.033164024 -0.26218218 -0.18959841 -0.014084557 0.6779733 0.11463417 -0.08866846 -0.019276924 -0.0418031 0.4003083 0.039856564 0.071090564 -0.24143378 -0.3513269 -0.1304314 0.029966395 -0.07668794 -0.3802659 -0.008949597 0.1043347 0.3682146 -0.13595834 -0.16513222 0.064821765 -0.12306558 -0.1929194 -0.16391177 0.025712201 -0.17745124 0.18494701 -0.10636982 0.08709503 -0.3558948 -0.18120547 0.06910292 -0.021727726 0.3312315 5.4002907e-05 0.11923819
244 -0.16737513 -0.08075753 -0.5359105 0.36988708 0.0051987353 -0.0014802498 0.13078627 -0.23060896 0.11587995 0.14406964 -0.1550831 0.10973203 0.21769579 -0.029958611 0.23198831 0.10405034 0.16384992 -0.1763747 -0.19576938 0.14128143 -0.16872002 0.16687511 0.04804816 0.22686441 0.26007426 0.048725806 0.16902879 0.04687423 -0.072269976 0.22914115 0.022461027 -0.16877794 0.16541475 -0.03379859 -0.13754572 -0.070738666 -0.2861655 -0.02687413 0.40512553 0.5063783 0.15848388 0.08275003 0.20750335 0.17358227 0.0070152655 0.05737305 0.10613624 -0.2096317 -0.16669723 0.4382194 0.3292893 -0.013368083 -0.079983674 -0.16340958 -0.113653995 -0.010395137 0.12131766 -0.17560053 -0.02030841 -0.20531431 0.08710387 0.09480872 -0.15431903 -0.2681787 -0.2110516 0.21704058 -0.16972813 0.091187865 -0.006362061 -0.2015269 0.26691866 -0.045660403 0.07074329 -0.17938414 -0.08517705 -0.0338742 -0.12555213 -0.088630825 -0.108636126 -0.05984326 -0.28156206 0.10684842 -0.2509751 0.28128675 0.18853773 -0.13722694 -0.088661455 0.19433038 0.1457537 -0.16460125 0.22785307 -0.06781071 0.013635918 0.0417375 0.083676554 -0.26724994 -0.20205787 0.15979563 0.3245002 0.30407402
742 0.1647893 -0.043766186 -0.24211547 0.4105518 0.28113502 0.52027947 0.028953271 -0.14205354 -0.023223544 0.018938525 -0.10271446 0.27047378 0.12551983 0.2506963 -0.017683232 0.009557491 -0.2381601 0.12682378 -0.13098645 -0.19626045 -0.2675969 0.11154913 0.10076763 -0.008121056 0.02892245 0.085063756 0.33159596 -0.13909009 -0.15300846 0.3523923 -0.036455438 0.058545813 -0.105991416 0.35614717 -0.008811677 -0.23399147 0.10065563 0.37377626 0.12170914 0.4032963 -0.24953973 -0.21386376 0.2190574 -0.17084874 -0.2563141 -0.13015717 0.13735336 0.4562281 -0.12083005 -0.0752358 0.3264501 -0.13904592 -0.17074762 0.18227458 -0.035751868 0.30845663 -0.55571043 -0.17607999 -0.3855443 0.048107736 0.059836138 0.022169247 0.15108562 0.0858701 -0.3182326 0.032419935 0.21085696 0.06301961 0.0388906 0.36468327 0.08361772 0.25078383 -0.112134 0.006268383 -0.3559864 -0.042840082 -0.3809132 -0.12116098 -0.1768204 -0.05466725 0.16189559 -0.12548782 -0.10921288 0.05976069 0.039616965 -0.2003084 0.29521778 -0.113242775 -0.28086978 0.077132985 -0.0052428516 -0.117275625 0.1579016 -0.27073336 -0.14292555 0.33709303 -0.039132424 0.075438604 -0.27749544 0.3167352
301 0.17535745 -0.26543656 -0.19126707 0.47394457 -0.3921011 -0.046810895 -0.009931873 0.13656448 -0.020723509 0.118470974 -0.33819017 0.2966577 0.09799509 -0.03248119 0.054354675 0.28758854 0.039851975 -0.09419463 0.1375931 0.13263331 -0.23516417 0.25366494 -0.013998259 0.30795473 0.04711068 -0.32877076 -0.044708982 -0.009384877 -0.21721996 -0.177124 0.07580899 -0.20247415 0.106374346 -0.07941395 -0.39565584 -0.29037347 -0.0928931 -0.070607334 0.0513684 0.1279224 -0.103772834 0.15170813 0.13926823 -0.11880444 -0.0890601 -0.32447752 0.16435495 -0.13669585 -0.14355285 0.10420827 -0.009227391 -0.012625824 -0.053041752 -0.02661295 -0.062220093 0.17282838 0.24114075 0.1511714 0.2749701 -0.32653052 0.069290966 -0.25315198 0.021770516 -0.14446259 -0.087820314 0.0658603 -0.24431852 0.10007791 0.09485862 -0.14202923 0.18772532 0.48486072 0.04338189 -0.24333912 -0.030649193 0.13832678 0.09568192 -0.009716166 -0.16947868 0.23974846 -0.22631882 -0.05339701 -0.31136078 0.042495538 -0.007285437 -0.37175682 -0.10804175 0.03723342 0.27250165 -0.07089021 0.23102078 -0.02477689 0.27418464 -0.2237614 0.18278489 0.08911105 0.1517935 0.15803677 0.14894201 -0.16653907
37 -0.102522194 -0.090836585 -0.3205111 0.22380526 -0.29271123 -0.17715153 0.08351374 -0.074033946 -0.018904602 0.17635062 -0.10711593 0.0612482 0.30951253 0.21519354 0.080730714 -0.1360065 0.25756148 0.053552575 -0.09779821 0.34131542 -0.044011746 0.30135164 0.20793183 0.08657891 -0.09439131 -0.14622723 0.08559434 0.095521644 -0.051640425 -0.22321017 -0.028966699 0.011009315 0.07951814 0.1862311 -0.39048222 -0.061722267 0.11912062 0.019194052 0.11907499 0.27815047 -0.073882796 -0.045755696 -0.029606454 -0.10158065 0.14644654 -0.002494063 0.10426586 0.10568735 0.005422555 0.1868413 0.18969958 -0.14916214 -0.05961942 0.18632571 -0.109002724 -0.0018492673 0.19777083 0.25104693 0.17160681 0.18771948 0.038679536 0.14683084 0.10581081 -0.12104158 -0.31387696 -0.12539092 -0.36015248 0.37276024 0.13238168 0.12733555 0.05630424 -0.22170132 0.11986978 -0.2882857 -0.46762988 0.16676253 0.0552198 -0.17084591 -0.2872475 0.04862567 -0.17091718 0.14257571 0.30788663 -0.20130731 0.15548304 -0.10191814 -0.29477328 -0.1172515 -0.032026708 0.17403883 -0.07192152 0.008739809 0.02555649 -0.18768623 0.19049515 0.19852063 -0.11071041 -0.16734892 0.17454532 0.27445465
504 0.15438466 -0.16363157 0.116380855 0.11900549 -0.359321 -0.47917652 0.5155163 -0.092190206 -0.084464446 0.11913938 -0.059381377 0.2761404 -0.047362242 -0.26396325 0.09758394 0.074614696 0.11279326 -0.3248445 0.15259421 -0.12157275 -0.09043967 0.63187253 0.0037345663 -0.006904841 -0.04576887 -0.09280618 -0.010460422 -0.08327066 -0.2665907 -0.25219366 0.017085148 0.011751451 -0.06161369 0.4244996 -0.14565638 -0.14089943 -0.064865075 0.091632955 0.16740708 0.26006222 0.1229423 0.16469562 0.024840783 -0.0026534142 0.04979365 0.26365462 0.11362986 -0.12007325 -0.19667085 -0.22936252 -0.13132215 0.0898703 0.26088622 0.083745934 -0.28058276 0.36452147 -0.21815065 0.31033 -0.17138766 -0.28621534 -0.1168731 -0.35373828 -0.33754182 -0.28193274 -0.13478152 0.08051754 0.06418031 0.38647988 0.086514145 0.015451411 0.10916198 0.092101894 0.27324244 -0.39826113 -0.3253067 0.21591504 0.11419741 -0.025570298 0.16423109 0.151891 -0.002815619 0.16571133 -0.38407025 -0.24408752 -0.10578105 -0.2312115 0.0028209488 -0.1193459 -0.052822325 -0.022901632 -0.031390563 -0.26706663 -0.2950487 -0.46621534 0.08454835 0.15553722 0.024665425 -0.25170138 0.14316976 0.09974746
463 0.019123431 -0.17345251 -0.18640259 0.28453833 0.08350468 0.1461787 -0.0721312 0.07458825 -0.361566 0.10036895 -0.14880617 0.17523625 0.12069976 -0.038955733 -0.30888578 -0.24302623 0.13529137 -0.13648137 -0.04364266 0.018388169 0.19755948 0.4775658 -0.26582423 0.34729704 0.1424083 0.088632464 -0.2537354 -0.032050144 -0.1467056 0.054829523 -0.12445635 -0.16692954 0.19508024 0.1764416 -0.25025076 -0.25192344 -0.21506438 -0.06309483 0.23571363 0.22045292 0.039371807 -0.24927922 0.014331329 -0.14566441 -0.07574561 -0.120886855 -0.0429295 -0.23743641 0.06091733 -0.018569345 0.0877127 -0.032182187 0.20225446 0.07796962 0.019564306 -0.074037515 -0.24268597 -0.13187367 0.13101007 -0.093223296 -0.22805549 -0.033746727 -0.1218492 -0.2105565 -0.1021695 -0.09263633 -0.04789686 0.34751377 0.037779156 -0.38271946 0.523383 -0.0593341 0.16298136 -0.22461088 -0.20538878 -0.004692474 0.09407761 0.25205252 -0.12554544 0.17882088 -0.021222923 0.01303924 -0.45078826 -0.14316614 0.2545193 -0.35380134 -0.2513349 -0.040900793 -0.071456 0.024793634 0.30037344 0.124680914 0.044783037 -0.33517677 -0.11630591 0.10082437 0.047290545 -0.14335537 -0.1720892 0.11078288
623 -0.071204044 -0.45911226 -0.1633934 0.35304013 -0.2871648 0.29962084 -0.06161924 -0.30383313 -0.19645992 0.18633033 0.35090104 0.06529111 0.12958845 -0.039467715 0.2764245 -0.123953365 -0.21671319 0.11988691 -0.31383094 0.046325665 0.06507546 0.21102883 -0.035215914 0.14469172 0.08662576 0.17009397 -0.06287482 0.23372094 -0.34370756 0.34099054 -0.15059263 0.2745421 0.04305 0.4904983 -0.30513194 -0.2115351 -0.05566569 -0.1388027 0.14019041 0.118890904 -0.044937417 -0.21580781 -0.047218543 0.030443134 0.10137881 0.17088448 0.117258646 -0.22993797 0.020073546 -0.108210415 0.17141607 -0.30085817 0.32589626 -0.11508025 -0.006271552 0.38226515 0.17236778 0.30807412 -0.18160601 0.14234239 -0.18100229 0.0081355935 -0.2273595 0.022534965 0.06581101 0.07477939 0.2869086 0.010956687 -0.27278173 -0.37943798 0.01738087 0.36498094 -0.008361179 0.43153563 -0.54204565 0.118930504 0.5247358 0.03606737 0.06169135 0.34512 -0.1937226 -0.10688237 -0.34769493 0.15008833 0.10204502 0.12542467 -0.017067086 -0.43387142 0.16050681 -0.3784945 -0.091984026 -0.42215306 0.21608382 -0.042428136 -0.19118367 0.2624203 0.01614451 0.056323856 -0.11617449 -0.0024817348
660 0.0074909236 -0.4332312 0.22574556 0.36440277 0.061688837 0.36041972 0.103488356 -0.21227017 -0.04785346 0.19781788 0.15541935 0.43953487 -0.2265338 0.107642666 0.49992374 -0.30406627 0.120790854 0.025614383 -0.017641498 0.12967724 -0.18941237 0.39449474 -0.070032656 -0.5464185 0.026650067 0.0051802723 -0.061745588 0.14204176 -0.2289342 0.19848388 -0.07630501 0.18046406 -0.37393478 -0.13164787 -0.04155064 -0.22471942 0.0872766 -0.24383166 0.22265317 0.003910346 -0.32015526 -0.25392392 0.1859686 0.14642975 -0.04802028 -0.04667755 -0.1570891 0.43074083 0.084679395 -0.028615355 0.05981625 -0.32430372 -0.22509882 0.33162507 -0.21367362 -0.21612434 -0.33638185 0.13051844 0.10807423 -0.044699598 0.049990315 -0.1880156 -0.07200112 -0.3403582 -0.20504789 0.16306254 0.39384648 0.17230083 0.19503535 -0.08906063 0.1952937 -0.08001813 -0.02301888 -0.006662075 -0.5226697 0.025482098 0.2269727 0.019459791 -0.13279417 0.07802692 -0.19578126 0.14161089 -0.13998383 0.45780978 -0.107468374 0.45044652 -0.2016899 -0.10949965 0.22007403 -0.07278117 -0.14264704 -0.34088033 -0.24677932 0.1952765 0.39490452 0.058783147 0.10013455 -0.13659611 0.24230143 0.1529379
620 0.14542757 -0.44667718 -0.46441725 -0.0061414284 -0.31689966 0.12795098 -0.49510032 0.11004638 -0.0064396523 0.19609606 -0.5630121 -0.060325164 0.12994929 -0.16411297 0.20338151 0.3620254 0.16105165 -0.46741 -0.040040724 -0.03916856 0.17043449 0.13869816 0.0018117878 0.43194914 0.0884531 0.17994861 -0.23828706 -0.09690024 -0.06564333 -0.013544332 -0.3444366 0.06929123 -0.029609526 0.056742717 0.09023527 -0.10066364 -0.12208995 -0.10490034 0.3845513 0.2711983 -0.29307243 -0.34383944 0.025037387 0.06931932 0.08495162 0.06422085 0.045564145 0.1420901 -0.08198947 -0.024952153 0.17230633 0.200383 0.10587093 0.13712196 -0.013554806 -0.06633897 -0.26845562 0.007483156 -0.22156408 -0.057250857 0.10040293 0.0018717365 0.19046387 0.04385867 0.19392446 -0.0014746886 -0.07947573 0.33233428 -0.16855758 0.30791375 0.09550881 0.011093663 -0.362634 -0.3273773 -0.45903185 0.12002949 0.24276146 0.055068024 -0.14617538 0.31090438 0.112307146 0.024020115 -0.20336899 -0.08698064 0.23136334 -0.06308667 -0.03922923 0.21404567 -0.081991546 -0.18126754 -0.26420176 0.058731038 -0.23277497 -0.19127932 0.38334122 0.3371986 0.15682873 -0.098216735 0.020716581 0.17309897
13 0.33805674 0.17155413 -0.5028458 0.49780288 0.48790112 -0.24035105 0.1292342 -0.8241257 0.00016099175 0.5051059 -0.044716794 -0.17509525 0.31252557 -0.06677684 0.02241717 -0.02518056 0.3270868 -0.2587346 0.014845067 -0.3101524 0.0474548 0.74258053 0.41410443 -0.30946645 0.21563621 0.029224573 -0.4969648 -0.8385202 0.017763266 -1.1107779 0.12357103 0.413963 0.6893599 0.5030159 -0.5731121 -0.5537717 0.0313301 0.18972851 -0.12837411 0.17266305 -0.6023934 0.07168134 -0.0016108847 -0.20177987 -0.042497024 -0.031681087 -0.09169958 0.13801222 0.2291051 0.9085148 0.06905381 0.23626779 0.14754921 -0.16392794 0.675975 0.03367031 0.35067436 0.16324997 0.12838179 0.17281482 -0.32350814 -0.20458113 0.2968439 -0.11534353 -0.46720237 -0.5675345 -0.31362945 -0.40608197 -0.25379053 0.632979 0.013519064 -0.07837758 0.1763972 -0.08710338 -0.48481178 0.07455076 0.44964293 -0.06822176 -0.2922159 0.050086074 0.3035669 0.012098223 0.15525326 0.15416148 0.72440046 0.4141403 0.26836398 0.33054408 0.44142094 -0.18011086 0.58803105 -0.6675207 0.038970664 -0.25202453 -0.08499226 0.6907768 0.4346427 0.100684755 0.5563007 -0.26027063
90 0.17519812 0.08759157 0.076334104 0.059262298 -0.13284267 -0.0007076544 -0.22189517 0.11231461 -0.19500619 0.19178051 -0.026790477 0.10134911 -0.18967792 -0.017839335 -0.006575251 0.09251799 0.04940588 -0.2728555 0.2237037 0.34429994 0.29742435 0.021343622 0.2805209 0.29674128 -0.011171603 0.021699464 -0.07324629 0.28302792 -0.12126708 -0.08960185 -0.6706055 0.11322433 -0.033127632 0.04410782 -0.144134 0.17499588 0.14074513 -0.23458077 -0.13186368 0.390886 0.10792048 -0.32333434 -0.009286559 -0.34028494 -0.07786507 -0.04672831 -0.32862815 0.07909137 0.21211636 -0.011966471 0.50181764 0.24455476 -0.06423032 -0.009292446 -0.013564664 -0.34267175 -0.11614422 -0.18083555 -0.06004388 -0.33704767 -0.3526407 0.29305255 -0.03297305 -0.11262542 -0.26541507 -0.1871004 -0.12809664 0.3063075 -0.28192925 0.35592407 0.3129245 0.059595916 0.1735312 0.06958379 -0.27554834 0.2398516 -0.16681968 -0.043708634 -0.09845203 0.3147378 -0.17902821 -0.020734265 -0.3191412 -0.07169771 0.30657238 -0.50713205 -0.06118199 0.18694511 0.33698103 0.02476129 0.14806637 -0.4485136 0.10158494 0.013779042 0.020864956 0.24199842 0.08305027 -0.023130542 -0.16825064 0.41281086
736 0.016245637 -0.51399326 -0.16846502 0.26236525 -0.29869485 0.31040677 0.20063046 0.23865066 0.038317643 0.47376212 0.06630343 -0.106797405 -0.30419484 -0.10481284 0.22088517 0.20227113 0.3226755 0.036239844 0.19307837 -0.07506838 0.3232327 -0.52333146 0.07241744 0.025878934 0.05736062 -0.121693425 -0.19902225 0.3784799 0.16716203 0.30954105 -0.2794735 -0.21273689 0.09282387 -0.1230282 -0.39051846 -0.12537456 -0.08728931 0.22240686 0.057345007 0.79127616 0.071438864 -0.09547318 0.38540053 -0.0427233 -0.34854183 -0.09743372 -0.31263253 0.32122046 -0.25473523 -0.2929515 0.002884394 -0.1865303 0.48448762 -0.15938324 0.22545317 -0.2842342 -0.19441392 -0.10448595 -0.27089906 -0.13461135 -0.034113556 0.23031075 0.1484637 -0.013151054 0.0177557 0.10720649 -0.3026397 0.18549816 -0.16820347 0.38091314 0.28913024 0.23180024 0.08904623 0.028597752 -0.40134844 0.43596014 0.13824028 -0.39985362 -0.15826344 0.038514324 0.18718278 -0.32313877 0.067197986 0.13525842 0.33475167 -0.15024547 0.013465007 0.25181282 0.35734764 -0.09776766 0.0013162172 -0.3690977 -0.4704576 0.12026388 -0.00060469273 0.36514547 0.18726479 -0.110430576 0.020681344 0.54336727
570 0.0866153 -0.2210002 0.10857852 0.08998279 0.1451968 0.12535511 0.056859937 -0.30274197 0.058581278 0.07493474 0.10425728 0.24401028 -0.192074 0.091436535 0.22943078 0.15264852 0.14632136 0.15463836 0.09844619 -0.041726127 -0.45396668 0.084366694 -0.23624171 -0.34179178 0.30759233 -0.20342645 -0.3140764 -0.21992092 -0.1216492 0.43535113 -0.24993122 -0.17269479 0.06779121 0.2686022 -0.36666182 -0.14464426 0.23465186 -0.04817505 0.11136542 0.30851725 -0.100166485 0.09747085 0.084324546 0.37986416 -0.27644446 0.13069683 -0.2737334 0.2177355 0.05062973 0.17241895 0.413792 -0.12460916 -0.32478565 0.14158277 -0.0067311 -0.0143295685 -0.20436074 0.08816692 0.4093125 0.08228654 0.52816135 -0.24578522 -0.13869686 -0.28948024 -0.053381037 0.48908043 0.2889129 0.35714573 0.3854363 0.13020375 0.25665334 0.1879461 0.15509108 0.0530382 0.0031484193 0.019250073 0.12947561 -0.28631502 0.029799307 0.04018864 -0.016843198 -0.16698904 0.1793732 -0.12714936 0.08241082 -0.060376655 0.084432036 0.24698551 0.16471198 -0.09051242 -0.034642708 -0.29003522 -0.051413774 -0.3023137 0.061238717 0.046172112 -0.07114525 -0.2215995 -0.05725656 0.30796558
28 0.02541226 -0.042629 -0.17471969 0.004064305 -0.053846978 -0.3175902 0.20612516 -0.12214523 -0.089939326 0.24515058 0.16569524 0.09824184 0.08615081 -0.22349901 0.06977608 0.28903866 0.2481438 0.17514415 -0.37661168 -0.41224512 -0.11784347 0.41258395 0.25255606 0.11483656 0.08603585 -0.28620726 0.106692 -0.017699637 -0.2670116 0.20539899 0.2525583 -0.12048938 -0.02372662 0.061002854 -0.32759634 -0.001883479 0.050777104 -0.020782663 0.11408794 0.13677844 0.12071906 -0.18553178 -0.106232345 -0.21980004 -0.04665741 -0.43088365 -0.011329919 0.0012821275 -0.15275896 -0.21603332 0.095759355 -0.27313334 -0.060565997 0.12498876 -0.38181826 0.17594093 0.048374124 0.18222244 0.30415106 -0.31277898 -0.44913995 -0.08537119 -0.19806983 -0.069021165 -0.18908302 0.18269652 -0.0052327584 0.19924302 0.31253865 -0.11623972 0.41663003 0.17339526 -0.10934402 -0.17640033 -0.26158717 0.1926255 0.020570263 0.0071506114 -0.087877356 0.10469102 0.28553644 0.10501485 -0.13091476 -0.36090764 0.24186453 -0.012472439 -0.14073122 0.22594495 0.1878482 -0.0070504546 0.014437442 -0.102193415 0.18404536 -0.1506099 -0.2958987 0.5454619 -0.07887968 0.17575346 -0.12103543 -0.12703624
411 -0.33824605 -0.2431202 -0.14140458 0.093520306 -0.26774544 -0.039008766 0.062913254 0.07189209 -0.20909257 0.5582932 0.0011162199 0.17571877 -0.008463554 -0.0875991 0.39659473 -0.026937768 0.003208607 -0.052120548 0.088682815 0.07146844 -0.010048914 0.015615255 0.2717605 -0.31305566 0.17142734 -0.5458971 -0.1317036 -0.13826759 0.26833797 -0.03956493 -0.43470743 0.0077719023 -0.13365178 0.26210284 0.25105706 -0.057933725 -0.23534395 0.35458213 0.19899155 0.07177368 -0.44251275 -0.015087654 -0.0784945 0.08457081 -0.13358055 0.2673216 0.26145124 -0.08047154 0.15251745 -0.2011638 0.23660761 -0.5393796 -0.16271277 0.20759124 0.05816604 -0.26201192 -0.12386797 -0.12474011 -0.7257803 0.025412407 -0.29572454 -0.0039384984 0.19268209 -0.05512606 0.19668397 -0.21738994 0.21909836 0.27391353 -0.074251026 0.4351426 0.14707224 0.08367714 -0.070271485 -0.17336798 -0.7250694 0.28388938 0.29858607 0.060238425 0.1449261 0.21326548 -0.19754864 -0.0058685974 -0.33327606 0.18756278 0.32587364 0.1207041 0.3086402 0.43023378 0.010082656 -0.26617727 0.014329689 0.26270008 0.16127549 -0.09727714 -0.07468961 -0.079999216 0.28968713 -0.048096348 0.33883503 0.38460177
104 0.060111944 -0.16402507 -0.36085886 0.18624572 -0.29664367 -0.26937371 -0.22464481 0.14374885 0.0488916 0.19384708 -0.28301203 0.11712808 0.32893747 -0.040871922 0.038891636 0.013434232 0.06057949 0.06866484 0.0052252454 0.07170572 0.013939651 0.32959569 -0.14024466 0.16016214 -0.17413047 -0.05864358 -0.098170616 0.07870685 -0.048189417 0.2248169 -0.18865044 -0.122417994 -0.19890529 0.24776565 -0.1776145 -0.25090086 -0.12044916 0.30343792 0.1833396 0.14582601 -0.106102206 -0.12258253 -0.41308787 0.26927152 0.095330216 -0.17808238 -0.080531694 0.103281066 -0.07536435 0.00826392 0.039271433 -0.09878527 -0.018925468 -0.1712451 0.12009991 0.18225127 0.12691157 -0.14837328 -0.1607818 -0.34566018 0.04541503 -0.22457851 0.04290268 -0.26767677 0.022633523 -0.16695933 -0.3591008 0.2563497 -0.10783088 0.03539285 0.3321782 -0.11993019 -0.0681973 -0.08908308 -0.018192178 -0.055596244 -0.077413075 -0.15000966 -0.30041632 0.19085787 -0.03750284 0.5419909 -0.225306 0.010662399 -0.038698994 -0.26496828 0.12074375 0.03609429 0.31207737 0.2707458 0.20513128 -0.46694887 0.25449157 0.010886438 0.10300743 0.004730805 -0.017066536 0.4628041 0.036340635 0.2818576
250 0.058946535 -0.18596649 -0.2895508 0.26640922 0.014029503 0.13499235 0.20735341 0.082697056 -0.36676487 0.14919052 -0.15149395 0.2754617 0.15843262 -0.018336847 0.410844 0.2047362 0.08372795 -0.00129961 -0.036631722 -0.10201463 0.26328218 0.41953167 -0.11397122 -0.009838802 -0.0017820519 -0.24183783 -0.056321114 -0.3724346 -0.2994854 0.15313545 -0.0048329975 -0.4706071 0.17259188 0.0070632435 -0.5051272 -0.20085283 -0.06856473 -0.2660716 0.15113117 -0.16805468 -0.053812787 0.36092675 0.1092745 0.061871212 0.21954261 0.23493908 -0.31570387 -0.19622886 -0.037568826 -0.13127911 0.03546471 0.13128605 0.3090204 -0.36581996 -0.26016203 -0.017371649 0.15898222 -0.011622449 0.13790233 0.0964644 0.071359955 -0.23920204 -0.10843481 -0.23883043 -0.05677599 0.014221386 0.023125373 0.12312262 -0.15267557 -0.029451786 0.3159053 -0.025620783 -0.010853984 0.107544534 -0.23377885 0.4083723 -0.158202 -0.16876586 -0.42850778 0.42581856 -0.15973863 0.34004635 -0.25160316 0.10805014 0.103892975 -0.2607924 -0.2604789 0.16347872 -0.053983632 0.050341714 0.15949641 0.039520927 0.18461885 -0.0055791996 -0.22409162 -0.16525121 0.023193935 -0.013844299 0.011799515 -0.1335844
35 -0.49851716 -0.44559023 0.11388035 -0.20899256 0.20309517 0.45011613 0.22482412 -0.15477416 -0.3396619 -0.5496135 -0.045664854 -0.24733718 0.2122193 -0.78576773 0.21474485 -0.31925043 -0.14466831 -0.06371401 0.37775233 0.35791555 0.3533064 0.4734844 0.034750607 -0.08742031 -0.13287322 -0.2648326 0.14030872 -0.111593656 0.16164206 0.34778997 0.0074398257 0.06365539 -0.24701759 -0.29425642 -0.6449676 0.08706241 0.107057236 -0.12370749 -0.44941 0.5322531 -0.6783579 0.29645896 0.027425071 0.009236982 0.36113292 -0.103576966 0.5073462 -0.07852752 0.081039675 0.2536988 0.018140169 0.3966146 -0.0957991 -0.56809855 0.10154981 0.6052027 -0.3253829 -0.05098611 0.13247113 0.38296205 0.06863937 -0.022746377 0.22815572 -0.098754995 -0.34874392 -0.18621552 0.66611767 0.06756994 -0.43046552 0.18455645 0.22682959 0.2181389 0.07447373 -0.36099464 0.17566001 -0.25378942 0.4259915 0.12530643 -0.11287403 0.09257563 -0.21718399 -0.07182868 -0.006899565 -0.5191703 0.43502432 0.14337738 -0.003916953 0.0941671 0.022053668 0.27747428 -0.0960536 -0.74818856 -0.0033512048 0.08810083 0.2150755 0.31844684 0.15183562 0.14052771 0.068680614 0.40318924
163 0.2509316 0.040569823 -0.19216657 0.066234514 -0.2163169 0.12903371 0.11602664 0.39748514 -0.095308445 -0.08988223 0.17370008 0.20810734 0.24201438 0.09441203 0.03415567 -0.08335142 0.46751747 0.31002945 -0.11107454 0.16572149 0.10878835 0.061992336 -0.059606913 0.15906319 -0.0674092 -0.15182583 0.09739472 0.115123786 -0.2132159 0.3004619 -0.43849802 0.027094025 0.21705756 0.30742967 -0.2674446 0.0069322884 -0.11786939 0.004396608 -0.0033062391 -0.28392863 0.105199456 -0.43581876 0.08482073 -0.45816272 -0.06140937 -0.50964206 0.068311 -0.09433125 -0.36183894 0.1084653 -0.076800115 -0.3039048 -0.10337619 0.27831766 -0.0981017 0.3255997 0.016727109 -0.07803662 -0.02407589 -0.13371928 -0.1528862 0.22335847 -0.06467568 -0.15421607 -0.08081471 -0.053509858 0.16514885 0.3603455 0.08647818 0.23620881 0.53606385 -0.3334295 0.27097565 -0.20767358 -0.18324687 -0.11982778 0.074048 -0.03035319 -0.21723332 0.07700378 0.25250655 0.2953939 -0.13472834 -0.16222553 0.18403932 0.039271742 0.18638203 0.07026107 -0.15517884 -0.2726131 -0.017164033 -0.16354541 -0.038031224 -0.27023387 -0.06994183 0.2062549 -0.1646708 -0.07789666 0.17463809 0.24906676
54 0.2386554 0.04004253 -0.4713371 0.22357783 0.042071104 -0.0725894 -0.13645759 -0.23751734 0.4288933 0.36076224 0.401581 -0.17479384 0.03193442 -0.20876326 0.14986959 0.101031475 0.04052842 -0.50746185 0.5812562 -0.15351366 0.34641173 0.0035741094 0.32580462 -0.36965188 0.046114765 0.0670643 0.027582673 -0.106412046 -0.5911166 -0.22985673 0.13504711 -0.09768258 0.006757237 0.6002283 -0.15269297 -0.8541722 0.32522348 0.68981045 -0.29317522 0.18311436 -0.6142655 0.18122827 0.13857226 -0.0034465785 -0.19604132 0.017314944 -0.0666276 -0.368169 -0.050935857 0.58154947 0.2394704 0.2443528 -0.18566659 0.3271017 0.3787811 0.52245176 0.08457476 -0.2159288 0.46988082 -0.087148175 0.1978589 -0.38650107 -0.102411814 0.20909941 0.00056011096 -0.026342858 -0.08679807 -0.25510424 -0.26505578 0.70972294 -0.1841203 -0.37393484 0.48326463 -0.45342976 -0.17504728 0.018204289 0.19862 -0.1301081 -0.33701304 0.79317296 -0.08122583 -0.15361993 0.1625988 0.3999601 0.40279385 0.35312977 -0.110180855 0.25782844 0.06960117 -0.14081186 0.5267518 -0.16039628 -0.010257457 0.1727297 -0.17735472 0.45310137 0.5629314 0.10968385 0.32599235 -0.045121837
596 0.21245138 -0.29085377 -0.07066416 0.19308741 -0.13131037 0.0007356663 0.43672812 -0.37071812 0.18207061 0.45868424 0.39369643 -0.16675569 -0.29581615 0.15387931 0.047411647 0.38300744 -0.18086971 -0.41511026 -0.19476545 -0.29144937 0.25898755 -0.021965085 0.075484976 -0.1385998 0.10416897 0.06654388 -0.0588724 0.11612768 -0.45800307 0.25263146 0.09224707 -0.29844606 -0.12051645 -0.033546764 -0.06360143 -0.09611079 0.15795921 0.19991569 -0.22918326 0.13952723 -0.48655686 0.008200252 -0.55322295 -0.2933989 -0.063242435 -0.039406884 -0.59480965 -0.164505 -0.2662094 0.5171923 -0.15835516 0.19121268 -0.2558928 0.45579845 -0.21524034 0.09799347 -0.2695931 -0.11539504 -0.024666995 -0.16492577 -0.014694221 -0.14596061 -0.13798647 0.09222336 0.15366897 0.123685226 0.41382805 0.27286786 -0.049772725 0.009745204 -0.17070127 -0.08793243 0.34697035 -0.62259614 -0.416571 0.01384991 -0.28446308 -0.60092795 -0.34926888 0.38691074 0.02567802 -0.2334633 0.164255 0.10216072 -0.016418148 0.048768513 -0.01795878 0.08956305 0.3474227 -0.033283237 0.491931 -0.1069205 0.04693652 0.065609016 -0.09422948 -0.011145087 0.20863222 0.10229106 0.06558694 0.45416024
22 -0.11223367 -0.05212519 -0.2985642 0.18991324 -0.18317957 -0.030918796 -0.123976536 -0.17221211 0.27025828 0.018467074 -0.14260648 0.2356267 0.30344096 0.22923939 0.23556305 0.26598984 -0.111165345 0.08351484 -0.055158734 0.10514231 -0.4923896 -0.02823915 -0.031260993 0.07657197 0.34090123 -0.5414457 -0.006018229 -0.27955174 -0.012378764 0.027021807 -0.019380694 -0.003530816 0.19483724 0.14924088 -0.30681422 -0.27993765 0.025258103 0.28231597 0.33491665 0.027696032 0.4270974 0.17597853 0.30451143 0.38882726 0.17337248 -0.027507344 -0.39530253 -0.42677218 -0.08477328 0.3501703 0.022557413 0.3744577 -0.1485818 -0.087616384 0.091485426 -0.073418215 -0.023077087 0.08558485 0.39630863 0.35166296 -0.025210124 0.29215285 -0.09790421 -0.10552752 -0.20512512 0.31485578 0.22871193 0.4746502 0.13891776 0.0061970716 0.5323065 0.5182833 0.1813731 -0.037724774 -0.37284717 -0.11750954 0.0018269881 0.2563482 -0.4292694 0.07369242 -0.025066063 0.18121886 -0.22879824 0.21999744 0.34442592 0.03555622 -0.074112594 0.023130374 0.35852814 -0.058670893 0.04517976 0.036288228 0.18958694 -0.56726414 0.19171919 0.1263888 -0.3219772 -0.2626664 0.13467538 0.19082236
39 0.5042224 0.19463748 -0.05879089 0.5017597 0.12914814 -0.16135627 0.26477835 0.34679767 -0.145825 0.16987923 -0.26474193 0.36161232 0.09342295 -0.28001562 0.014148437 -0.012172768 0.54761434 -0.18895604 0.06655179 0.0080192955 -0.34366333 0.4078331 0.24698955 0.0560938 -0.06412445 -0.089487314 -0.111657776 0.030893367 -0.26399967 -0.17593946 -0.049509875 0.024572881 0.15106189 0.064522244 -0.4624078 -0.016094372 -0.0430573 -0.1350659 0.22054711 -0.33282164 -0.18968941 0.17654595 0.04508653 -0.055895455 0.37514338 0.16153729 -0.09088359 -0.077477455 0.049282275 -0.09362362 -0.03857031 0.20267047 -0.15485749 -0.034360435 0.030849338 0.28502202 0.0506775 0.29861125 0.034038343 -0.03366262 -0.22508338 -0.56544644 -0.042617254 -0.14176463 -0.2074882 -0.09085526 -0.050784927 0.2069051 0.12151591 0.111051515 -0.0042703315 0.30134073 0.08157905 -0.15206404 -0.28883237 0.49462923 0.04119586 -0.34179813 -0.10594499 0.33997592 -0.13171512 0.19602588 -0.13092452 0.13047273 0.46549287 -0.3928714 0.07236428 -0.097908504 0.25305083 0.042684425 0.35599434 -0.09280171 0.21594691 -0.052408524 -0.05818842 0.043321203 0.015347211 0.30278698 0.006206804 -0.03164428
585 -0.03771433 -0.1747915 -0.48477513 0.32963106 -0.13194557 -0.13807032 -0.23579712 -0.02620467 -0.076908305 0.2861044 0.42926818 -0.18471843 -0.053946488 -0.10667855 0.15763088 0.29888573 0.28168082 0.108338274 0.0072748163 -0.15892243 -0.053949367 0.23451674 -0.04944749 -0.38420993 -0.11387338 -0.1365707 -0.08321292 -0.02910845 -0.17413059 0.008181202 0.17388164 -0.28653106 -0.15898834 0.25603288 0.008470606 0.005460826 -0.11350704 0.058595464 -0.042421408 -0.1876726 -0.09384642 -0.36566135 -0.31816918 0.053033307 -0.4073842 -0.16249704 0.19097598 0.14690682 -0.20693198 -0.11848043 -0.21741717 -0.012136412 -0.24974836 -0.13343315 -0.049607962 0.046547193 0.0173575 0.09602167 0.056084804 -0.73336446 -0.23931518 0.046091653 -0.26942146 0.05029946 -0.12903361 0.2186956 0.33683163 0.35477936 0.15822512 -0.1331427 0.5042299 0.060525384 0.12405464 -0.12926725 -0.23647907 0.043522496 0.11382198 -0.4076251 -0.24087153 0.32351378 -0.05606243 0.06332797 -0.08538338 -0.40362015 -0.20646146 0.07594362 -0.33759066 0.1544193 0.36110157 0.0716847 0.14773668 -0.27387136 0.2545436 0.1287074 0.16683242 0.13541487 -0.31359532 0.47963524 0.44668928 0.2666118
679 -0.2720914 -0.09561089 -0.26660427 0.29493088 0.015670348 0.38156372 -0.4251993 0.15256362 0.23360379 0.45555285 0.08889067 -0.10066487 0.14373878 -0.0060985344 0.19214652 0.5350923 0.031720363 -0.23686169 -0.36764434 -0.26818588 -0.20477441 -0.12567256 -0.22481185 -0.13361323 0.15233509 -0.2579638 0.16904517 -0.09739156 -0.2344175 -0.07197252 -0.04020266 -0.051299673 -0.52007186 0.22155863 -0.08789435 -0.2115769 -0.24515072 0.15368542 0.33669707 -0.29815018 0.29685315 0.122574225 0.11725527 0.1455564 0.30561742 -0.10106424 0.14789344 -0.3190758 0.00017981855 0.28350303 0.53821784 -0.1383221 0.5424038 -0.33120188 0.41641185 -0.21480708 0.10753497 0.23297769 -0.13766928 0.26759475 0.037196755 -0.08428211 -0.41927645 0.14176387 -0.1058963 0.16657281 0.43668205 0.3338232 0.036944527 0.366436 0.08281097 0.14242291 0.4081659 -0.21135132 -0.49969277 -0.2507275 0.3704211 -0.34066296 -0.17058401 0.11438903 -0.0402921 0.13081503 -0.41525537 0.20907165 0.13701907 -0.61437297 0.13719444 0.040548876 0.28877512 0.28102595 -0.23188047 -0.09205057 0.040255144 -0.035661392 0.27516338 0.3908078 -0.013080878 0.1277797 0.12664191 0.00891289
141 0.051062178 -0.06136819 -0.33823815 0.33508456 -0.19550915 0.15282437 -0.44338635 0.23522691 0.25043216 0.3998573 0.089569286 0.090889245 0.1439359 -0.20542017 0.12814844 0.31405446 -0.09338096 0.07479223 0.20437326 -0.3985727 -0.005007907 0.22209972 -0.35980758 -0.00928645 0.53118217 -0.20188038 0.12217452 0.35391873 -0.2541072 0.0626353 0.31699675 0.113943964 -0.05447318 0.13711043 -0.09225327 -0.044802476 -0.14926122 0.32718652 -0.03041771 -0.14101115 -0.2364971 -0.05686967 0.20696346 0.30408055 -0.19189152 -0.20875928 0.14180683 -0.03947304 -0.15964179 -0.15604854 0.4933575 0.09112554 -0.16536815 -0.010546854 0.22715424 -0.09284177 0.05539254 -0.0021575314 -0.16620857 -0.42519408 0.19336383 0.027193421 -0.101731494 0.09468186 -0.08191 -0.028511941 0.46423995 0.11738898 0.055514697 -0.16559201 0.103070505 -0.03883816 0.2976995 -0.13135783 -0.17708024 -0.23824799 0.24279173 0.14906085 -0.26299685 0.21856675 -0.48517406 -0.03442193 0.21874797 -0.35886577 0.25764287 -0.3065891 -0.18745317 0.011093058 0.18434037 -0.12787312 -0.01342593 -0.29986733 0.06587175 0.23376052 0.061864745 0.29168195 0.3141587 0.06107181 0.2455112 -0.44869483
255 -0.05177906 -0.16482869 -0.46557564 0.12388061 -0.5357386 0.13120377 0.10087769 -0.28179288 0.062898666 0.16234933 -0.22243895 -0.1852736 -0.13904393 -0.14666702 0.14261891 0.28316703 0.5086521 0.21611746 -0.07905408 0.09519769 -0.65852153 -0.26308477 0.024529196 -0.03214985 -0.22064406 0.27150774 0.40818095 -0.17308962 -0.46802038 -0.29044023 -0.13233267 -0.047841974 -0.095358394 0.041817743 0.22934812 0.06033122 -0.17717847 0.21920127 0.44291937 0.73294014 0.045415018 0.025314342 0.27442634 0.25827494 -0.22023073 0.10585327 -0.2931296 -0.57752585 -0.29570714 -0.0043005752 0.6048102 -0.120735474 -0.11165205 0.0071906634 -0.01582367 0.2214587 -0.35252517 0.009265318 -0.26538157 0.35145578 -0.4179858 0.077735774 0.2984561 -0.44114658 -0.26907822 -0.12660058 0.12681116 0.308037 0.17249379 -0.277957 0.50316674 -0.34418312 0.35063368 -0.31366485 -0.11645981 -0.20643634 0.08567037 0.23866192 -0.2265165 -0.10879453 -0.3065032 0.40965042 -0.15996464 0.19688323 0.45638758 -0.0054867533 0.050424337 0.34663936 -0.01722477 -0.09311558 -0.0057285326 -0.24979596 0.21748962 -0.13683404 -0.46706954 -0.30989072 -0.18907592 0.27713364 0.17407 0.08771512
95 -0.024757106 -0.17341453 -0.021568954 0.048164286 -0.057996206 -0.15472604 0.6293194 -0.21142046 -0.2502049 -0.089299016 0.5298156 0.07601304 -0.2892928 0.26042885 0.17571747 0.2812415 -0.14426556 -0.32480633 0.0144077735 -0.021404522 -0.23082443 0.60789716 -0.2549489 -0.10976348 0.11676789 0.09448659 -0.55269283 -0.13756247 -0.014031963 0.15736374 0.15206109 -0.1644095 -0.2628196 0.30675718 -0.2564662 0.12440542 0.12000208 0.03902826 0.27693018 0.08148206 -0.4052925 -0.084733896 0.092051126 -0.22467 -0.41540453 0.1257882 -0.43366262 0.16371527 -0.1899855 -0.11038538 0.068857014 -0.016265575 0.1514723 0.48452342 -0.3213855 -0.008498924 -0.19462194 0.29032966 -0.04602912 -0.27522364 0.15773477 -0.081729464 -0.25272316 -0.15245083 0.015733879 0.022408823 0.22623669 0.14073746 0.13032483 -0.04356147 -0.076269604 0.099833235 0.47557408 -0.34346583 -0.16138063 -0.096414715 0.13402851 -0.56251 -0.17176053 0.25038907 -0.055083517 0.08757742 0.047959004 0.22970524 0.050867006 0.25918704 -0.26457515 0.078976005 0.12819906 0.007398971 0.03855693 -0.09529579 -0.016278869 -0.28503534 0.506019 0.0023396858 -0.43366274 0.08706192 0.3647261 0.28384286
152 0.70544887 0.23897098 -0.2657227 0.14382826 -0.25281885 -0.00076003175 0.8347857 0.8576161 0.24358188 0.025751133 0.008423904 -0.27151626 -0.055024065 0.13952081 0.3776845 0.5176605 0.17008628 0.18765661 0.13960767 0.1490202 -0.005225121 0.48575214 -0.45660612 0.21466927 0.6366235 0.2608364 0.018607648 0.18537271 0.11507214 0.13044599 0.2955869 0.2274024 0.028459381 0.32887605 -0.22447401 -0.6001971 -0.21199685 -0.4167119 0.13656385 0.6332489 -0.28098166 -0.22473241 0.13493903 0.030486569 -0.06902951 -0.3973968 0.024420587 -0.94161326 0.07152578 0.26533374 0.46778965 -0.37062094 0.37649298 -0.08640777 -0.10252714 -0.28674164 -0.3020516 -0.1322919 -0.112759836 -0.09421156 -0.034931134 -0.117703766 0.63070625 -0.080481805 0.14456081 0.18209304 0.45333427 -0.018855562 0.30386183 0.3146814 0.23248875 0.32203662 0.23526809 0.20490086 -0.05239242 0.677701 0.31743047 0.15050572 -0.2891405 0.1709893 0.037943717 0.350713 -0.04640857 -0.41894132 -0.07262833 0.3647441 0.21241638 -0.13672467 -0.028108625 0.39543363 0.5241187 -0.26538655 -0.31747344 0.057703715 0.090805955 -0.035160292 -0.05919742 -0.43069422 0.15744363 0.22503284
100 0.37559652 0.042214878 -0.3978829 0.39121446 -0.16425093 -0.061193254 -0.4480432 0.17782676 -0.15628314 -0.060364243 -0.07881488 0.44781187 0.09984108 0.06946029 -0.18115765 0.27744278 0.14902146 -0.015178046 0.15072104 -0.01186294 0.076801986 0.38827118 -0.30073148 0.3709519 -0.0068446677 -0.09543147 -0.10693971 -0.05273335 -0.1394915 -0.09189065 -0.20146255 -0.09361497 -0.05137421 -0.16872896 -0.436085 -0.30686212 -0.20878464 0.054238413 0.044653222 -0.049515255 -0.15176784 0.06148573 -0.072698146 0.11136887 0.6599706 -0.38442573 -0.20030211 -0.18092208 -0.25395 -0.10599083 0.08509668 0.019432306 0.0879422 0.13915728 -0.041471668 0.33751783 -0.14072688 0.21026902 -0.052711166 -0.10085007 -0.09091702 -0.0020174603 -0.10451608 0.27262762 -0.0725361 -0.112759665 -0.04621087 0.25161514 0.10110307 -0.039588705 0.2894941 -0.011797448 -0.20144418 -0.05146835 -0.29304653 0.02743267 0.089873046 0.16648822 -0.30273336 0.10243549 -0.15813427 0.22940382 -0.2341833 0.23559538 0.38536564 -0.2588129 -0.17033477 0.23554914 -0.13592803 -0.0030003157 0.072269134 -0.2983525 0.10690931 0.09227822 0.179819 0.009495011 0.16346787 -0.09516468 0.016136825 0.44217446
132 -0.3117818 -0.18067053 -0.5806186 0.15250011 0.16965163 0.18426357 0.07503703 -0.16793302 -0.03256034 0.16258825 0.009017492 0.33374086 -0.09183297 0.20705408 0.17848246 0.01668468 0.21391732 -0.08290716 -0.063853346 0.008590715 -0.033700738 0.47789317 -0.099669985 0.029648967 -0.11975607 -0.25567916 0.25997216 -0.26870835 -0.013163784 0.3406326 -0.181265 0.2334357 0.4339736 0.23146887 -0.083361596 0.037200894 0.26745743 -0.04438569 -0.15355201 0.13192582 -0.19243023 0.041489616 0.3084376 0.4135832 -0.22061397 0.08261455 -0.13802224 -0.0006094116 -0.004561784 0.27450117 -0.04774898 0.11413299 -0.106347494 -0.1779954 -0.28020218 0.045009017 -0.02973122 0.011929808 -0.15249296 0.049204614 0.6053075 -0.014193919 -0.057197087 -0.24750692 -0.1254809 0.31194824 -0.011342018 0.35653284 -0.15748404 0.12977806 0.23517084 0.115342356 0.33880538 -0.017660452 -0.08801402 0.23688926 -0.21330504 -0.098189 -0.029556142 -0.15126072 0.040072534 0.097251736 -0.15306644 0.020537028 0.30117348 -0.1370928 0.1722062 0.09788531 -0.16265196 -0.04036525 0.10358636 -0.025753768 0.061454386 -0.16279356 -0.0502797 -0.090172715 -0.05630066 -0.28437588 -0.054350276 0.0028099841
136 0.18298103 -0.37470752 0.06092386 -0.15650232 -0.26365083 -0.0868706 0.59804755 0.027419362 0.44108176 0.4452978 -0.21576087 0.7636478 0.42538807 -0.09968751 -0.17411453 0.029544175 0.15212077 0.22566499 0.40590775 -0.17935248 -0.06021072 0.47260156 0.09383859 0.54036343 0.10888784 -0.21102937 0.040308356 -0.48819706 -0.044074472 0.43460152 -0.18521869 -0.07894367 -0.23593222 0.47888166 0.009083061 0.242043 -0.15725294 0.26284134 0.24484704 0.2203764 0.13805233 -0.48095754 -0.04506939 -0.90666306 -0.03206857 0.10248369 0.05713682 -0.21866128 -0.25464028 0.23239797 -0.46321952 -0.18243904 0.2927793 -0.09826881 -0.36882323 -0.1607632 -0.15861325 0.4850097 -0.3595498 -0.2719136 0.3614285 -0.21482383 -0.21559414 -0.35805166 0.04131636 0.15887325 0.03541495 0.31104913 0.19408488 0.14757559 0.31984383 0.09242228 0.33654675 -0.45107418 0.25737914 -0.043727294 0.03177293 0.2956315 0.06834998 -0.042821344 -0.12565267 0.023032002 0.13520873 0.12522073 -0.09755511 0.065109886 -0.08048092 -0.15519875 -0.076764435 -0.3587284 0.3357697 -0.51000893 0.042641614 -0.16767646 0.23065573 0.64916 -0.1717171 0.08854639 -0.12837519 -0.10243467
251 -0.29515734 -0.10896431 -0.24974911 0.25110817 -0.007856711 0.5554449 -0.3104455 0.29773998 0.39410087 0.27183843 -0.11788833 0.09705336 0.5411185 -0.12635931 0.091599174 0.09323728 0.1486475 -0.121538945 -0.23483779 -0.14553218 -0.10491983 0.075598866 0.09056901 -0.05485861 0.006574805 0.2394913 -0.062828176 -0.38976628 -0.34667993 0.12302533 -0.45126107 0.026701402 0.043549955 0.18178412 -0.041982945 -0.47965428 -0.07525773 0.044102274 0.47856787 0.25671148 -0.117727764 -0.16069709 0.25121847 0.047899928 -0.07680475 -0.077628605 0.3829563 -0.15405153 -0.21603654 -0.29156968 0.4268554 0.009407755 0.2385306 0.12416293 -0.0925149 0.06861302 -0.051663116 -0.071353175 0.08656831 -0.11225679 -0.29070473 0.37319997 -0.28200787 0.121194445 0.080831975 -0.14047733 0.09518313 0.4164188 -0.116203 0.07132405 0.15525419 -0.060242224 0.15746693 -0.22675133 0.041157793 -0.06909972 -0.13455005 -0.092542075 -0.2553968 -0.17312232 0.041121826 0.057786327 -0.5255666 -0.20897311 0.18872355 -0.1365978 0.15513928 0.19802971 -0.050404426 0.18992093 -0.013990398 -0.1204289 -0.23535922 -0.21340692 0.13338573 -0.11316804 -0.03008259 -0.0659492 -0.069266334 0.22994728
513 0.3435908 -0.15094629 -0.36514932 0.24299267 -0.112563424 0.31537336 -0.12921913 0.07790405 -0.02594486 0.09895797 0.028395424 -0.011826677 0.0016436194 -0.018700087 0.24351814 0.13896514 0.18229003 0.24359052 0.22977 0.07157204 0.057696253 0.118670456 -0.16190645 -0.14301392 -0.045972586 0.0051336125 0.28610626 0.091264 -0.17394426 0.10489372 -0.17330629 -0.033417538 -0.062284324 0.29156435 -0.04025781 0.044975936 -0.13659726 0.14455669 0.26057613 0.07240142 0.29356587 0.0750161 0.122768834 0.05686587 0.2131399 0.19989227 -0.22521602 -0.12245283 -0.18492772 0.2383797 0.33397797 -0.5561001 0.21156706 0.28809682 -0.0753239 0.20283492 -0.1427811 0.14825903 -0.3146645 0.049932774 -0.08676164 0.17333621 0.14090735 -0.47161958 -0.050100476 -0.08939881 -0.39121774 0.106371894 0.035683725 0.0047936584 0.3762672 -0.37737042 -0.13462251 -0.23348072 -0.101202086 -0.21441767 0.27602315 0.05411096 -0.21229813 -0.35252595 0.0895232 0.11499044 -0.21480586 -0.061463222 0.28077215 -0.14023708 0.37140852 0.13536641 0.26532087 -0.11467606 -0.06949545 -0.46305877 0.20468353 0.017515928 -0.35229555 0.15593953 -0.4240498 0.30223262 0.3272229 0.04912855
60 0.012835554 0.044420715 -0.10364588 0.25027564 0.11919351 0.22086419 -0.002715131 -0.14308542 -0.027838437 0.27309257 0.30886465 0.1804644 -0.21225569 -0.102952965 0.2857782 0.24058898 0.034582634 0.06263051 -0.16646324 0.021243764 -0.22202198 0.3664042 0.06761774 -0.1280651 0.19963518 -0.1938064 -0.03336134 -0.05617819 -0.17157994 -0.12729815 -0.07876538 -0.17401671 -0.1330082 0.3911857 0.119685285 -0.005208066 -0.1348573 -0.15239868 0.10922529 -0.1376585 -0.1375725 0.06989423 0.14494337 0.09432002 -0.021585435 -0.066137925 0.18538393 -0.017724402 0.11357662 -0.28129315 0.12555778 0.086016476 0.16797704 -0.42596805 -0.16547558 0.14860488 0.011719246 0.2437957 -0.085935205 -0.30543238 -0.11957223 -0.46605957 -0.121781796 -0.22672327 0.21846373 0.031653494 0.069568284 0.63859516 0.14998385 -0.113294795 -0.08560969 0.17319745 0.055839304 0.10776255 -0.3762587 -0.34025228 0.39902094 -0.22559988 -0.2688211 0.25525627 0.009235039 0.047735844 -0.29836324 0.19947374 -0.085381195 0.039690997 -0.17456475 -0.045267545 0.18918003 -0.08088484 0.024524398 -0.5405634 0.024651501 0.13538145 0.16724582 0.2102475 0.080312535 0.00281708 -0.08983499 0.056994293
666 -0.051575776 -0.10548068 -0.4480997 0.25621668 -0.12817942 -0.03869425 0.028249238 -0.014724477 -0.24639931 0.20154695 -0.2955987 0.42572197 -0.1612031 -0.2755678 0.21431093 0.04667281 -0.19395334 0.056244884 -0.09353761 0.016200313 -0.060472198 0.51395625 -0.37267935 0.16827144 0.053852193 0.11927155 0.3069449 0.14299506 -0.21834244 -0.093721144 0.10493519 -0.1458074 0.16345954 0.45716688 -0.3296922 -0.114885814 -0.06752892 0.011599714 -0.05403321 -0.0032043157 0.09815355 -0.010365779 0.04011779 -0.0033646193 0.45059088 0.055366985 -0.055371214 0.01483166 -0.120343015 -0.013693607 -0.07345049 0.013279597 -0.07810576 -0.16121836 0.07046496 0.16638227 0.37248468 0.08203974 -0.22198993 -0.14832716 0.07714723 -0.48269856 -0.1778004 -0.08824734 -0.03441732 -0.0035606534 0.104030795 0.3816166 0.1132369 0.03808025 0.24552366 0.13448192 -0.28783134 0.13806956 -0.05398266 0.51147157 0.3220587 -0.13330723 -0.42763776 0.3967312 0.40163404 0.15489002 -0.30571806 0.22411077 0.33932573 -0.13482496 -0.10568672 -0.1583819 0.29293606 0.12922888 0.21909417 -0.25231335 -0.06082214 -0.090021804 0.14008506 -0.13021083 0.00073438894 0.10093512 -0.13591298 0.13960734
45 0.020777097 -0.53793246 -0.45133922 0.021447076 -0.056785848 0.0030882226 -0.21043128 -0.08249828 -0.19762778 -0.05370933 -0.13168125 -0.0070539 0.2896331 0.3310176 0.10396187 -0.015815338 -0.10991984 0.25053608 -0.16217726 -0.18367842 0.25354102 0.023523416 0.11985893 -0.29349294 0.52366704 0.21472825 0.37818056 -0.4348136 0.014469824 0.14065501 -0.3314572 0.60129017 0.11675334 0.5627482 -0.4139512 -0.08441276 0.0695842 0.015398755 -0.16119361 0.5052599 0.017434053 0.29135418 -0.2255836 -0.017565364 -0.19051684 -0.37515634 0.09996495 0.033027846 -0.015951088 0.18534392 0.52813524 -0.35788086 0.013242902 0.08919966 -0.3015354 -0.07097482 -0.31408483 0.4325933 -0.15682387 -0.046564892 -0.2597383 0.47183332 -0.0973073 -0.20094833 0.2124923 0.04118055 0.0069725784 0.09428153 -0.20989828 0.1805907 0.25064072 0.5864413 -0.032091808 -0.029856605 -0.6616083 0.18010718 0.059659664 -0.44291517 0.08973245 0.18112747 -0.037498355 -0.10148305 -0.18514468 0.29879385 0.16413866 -0.009965742 0.028003164 -0.26274574 0.10090288 -0.0013891058 -0.340974 0.13681562 0.37546128 -0.025367318 0.07694838 0.40763715 0.015552185 0.21060826 -0.58665377 -0.22270788
0 -0.09022173 -0.50630736 -0.21108536 0.13475165 0.023161493 -0.30571023 0.047523726 0.14659053 -0.018423028 0.07215793 -0.210122 -0.20160137 0.063789025 -0.16320597 -0.007990991 0.33533832 -0.26158318 0.1721505 -0.1296779 -0.25565523 0.1694384 0.20937943 0.09127005 -0.18044169 -0.002112854 -0.3530991 0.12966412 0.06712333 -0.5133371 -0.011480416 0.18166004 -0.20785119 0.2446371 -0.1287159 -0.73574406 -0.62058234 0.5604921 0.18073326 -0.42914787 0.14223422 -0.17452715 -0.3536872 -0.37883374 -0.30711284 -0.19522807 -0.14645986 -0.35741237 -0.20326962 -0.16963735 -0.10828982 0.4498222 -0.15889531 -0.20797408 -0.13722846 -0.41161433 -0.27537212 0.15270956 -0.16508065 -0.22459517 -0.46353164 -0.0784098 -0.23896553 -0.42825916 -0.39071944 -0.27281082 0.4340056 0.32866758 0.14127827 0.010085876 -0.060544085 -0.24320166 0.20226465 0.2053982 -0.09678828 -0.9035381 -0.3281063 0.3851905 0.44652522 -0.25526935 -0.10305083 -0.2419464 -0.114888325 0.14547005 -0.49503082 0.43039894 -0.1966224 0.20939265 0.014216369 -0.4952974 -0.3598676 -0.011599403 -0.17667118 -0.063270144 0.300695 -0.1455936 0.10115436 -0.067673534 0.41471517 0.07943371 -0.37089342
79 0.23735015 -0.14061026 0.09956208 0.3045368 0.24809362 0.35100722 0.4915043 -0.33413416 0.0715621 0.36898926 -0.13303348 -0.20231567 -0.12344901 0.06192236 0.22493896 -0.07165505 0.044078097 0.31823424 0.6392322 0.10524934 -0.13299388 0.11098022 -0.06193768 0.01513618 -0.29085916 -0.15510511 0.19815958 -0.37149882 -0.53440017 0.3882851 0.09995427 0.13915972 -0.07802681 0.49818778 0.07309514 -0.25310618 0.18205985 0.15635562 -0.39051622 0.3163142 -0.11838612 0.04655709 0.1428165 0.07016416 -0.0072953133 -0.19049105 0.037494022 0.43972072 0.28401548 -0.23376422 0.35272026 -0.1801695 -0.23345579 0.3540575 0.1873347 0.4529916 0.10792876 -0.4652299 -0.24801534 -0.20608701 0.34565848 0.13719133 0.0017319866 -0.28769773 -0.5873241 -0.024913525 0.19464208 -0.10401486 -0.02527997 0.3803794 -0.16644774 -0.08506492 0.17691301 -0.51062053 -0.38919798 0.018724516 0.2399088 -0.13539435 -0.11419574 0.20119923 -0.18625472 -0.32472196 -0.16507187 0.22548051 0.18380183 0.14033173 -0.26866654 0.10051304 -0.22317581 0.21356003 0.07103093 0.4540249 -0.27080858 -0.49890035 0.45155764 0.2738578 -0.2747466 0.17281272 -0.29922593 0.118222445
396 0.41068506 -0.219115 -0.09524444 -0.31159592 -0.52496177 0.018455902 -0.10268196 -0.28339246 -0.42368683 0.19359817 0.06198678 0.18100093 0.020221058 0.22968791 -0.074286714 -0.08365619 0.24055113 0.03716315 -0.02079847 -0.02066822 0.14858343 -0.24335927 -0.025786806 -0.053100996 0.23630519 -0.013745567 0.036803983 0.14855236 0.07396878 0.08932733 -0.30932662 0.29383945 0.38735917 0.2827546 -0.16706148 -0.013475644 0.09202104 0.18607445 -0.05250109 0.45202142 -0.10847488 0.07998007 0.058385707 -0.23248826 0.12842397 -0.016805246 -0.025847267 0.38988546 0.17318693 0.08847514 0.5797841 0.09896467 0.14738545 -0.2785845 -0.30020934 -0.17848016 -0.34063065 -0.08785242 -0.17409788 0.005635132 -0.17507496 0.44947654 0.16591537 -0.15262793 0.010356448 0.14475638 -0.09162814 0.26719686 -0.15796201 0.45549458 -0.021074673 0.19059524 0.02920465 -0.0523414 -0.4385945 0.44447845 -0.074370354 -0.60179496 -0.09508722 0.02433858 -0.38273036 -0.0065717204 -0.16812503 -0.12886158 0.3528216 -0.19814643 -0.3167473 0.090183444 0.15294477 -0.16506995 0.012266637 -0.009394709 -0.13682395 0.03983681 0.32378373 0.40509504 0.0044687493 0.08829227 -0.10839939 0.32996395
712 0.041189946 -0.015718007 -0.109198414 0.033509005 -0.4387774 0.007137978 0.46243775 -0.09836425 -0.05111545 0.29959577 0.2595615 0.46160653 0.10839524 -0.30840033 -0.16279688 0.48450187 0.24355847 0.15110363 -0.011337888 -0.042798348 -0.09804419 0.32127732 0.10148062 0.5081302 0.19727957 0.06972702 -0.18609008 -0.19706228 -0.24683022 0.3035699 0.025486736 -0.37188354 -0.07554033 0.16391723 -0.20142236 0.23678994 0.0026309215 0.21868886 0.15422761 -0.004411284 -0.21959637 -0.3310122 0.03309281 -0.312575 0.11019618 0.017908067 -0.01794633 -0.10105281 -0.42320016 0.16761817 0.015262414 -0.45209453 -0.02822954 -0.012705121 -0.3054479 0.2604709 -0.2146582 0.28523892 0.19368653 -0.18696156 0.02478479 0.059482813 -0.13788022 -0.12605728 -0.19146445 0.08448755 0.26574033 -0.011746704 -0.18930945 -0.02244116 0.2380856 0.032194626 0.333302 -0.2617358 -0.16335079 0.12407996 -0.044563975 -0.18225695 0.2712202 0.116459146 0.236298 0.3936225 -0.23498726 0.14670806 0.23417093 0.31480205 0.28753486 -0.028858388 0.1999481 -0.11268747 0.14735852 0.14176734 0.22914323 -0.11761422 0.42171565 0.26150855 -0.31829843 -0.056489266 0.05260645 -0.121248394
322 0.35166708 0.7427551 -0.5299797 -0.6820202 -0.08153369 0.111054994 0.3651496 0.084909156 -0.81636 0.061095756 0.24100286 0.4046923 0.24689806 -0.16814993 0.44783813 -0.1620096 0.5533575 0.61913455 -0.49980012 -0.455278 -0.03745174 0.13056959 0.49412754 0.24734439 0.124147795 -0.46188268 0.1453951 -0.084103316 0.04689391 0.41107288 0.024882851 -0.049913514 -0.45879936 0.75731736 -0.31394804 -0.93860155 -0.22540429 -0.4440152 -0.36900842 0.5847603 -0.38263875 0.36156902 -0.4418883 -0.2277194 -0.11098692 -0.030815583 -0.39130813 -0.17500392 -1.0246847 0.3162325 0.17261912 -0.32424834 0.6682379 0.3459322 0.44651714 0.06322243 -0.1611659 -0.3366183 -0.019746747 -0.20770124 -0.124544516 -0.24650247 1.1279961 0.06600729 0.2960296 0.058710847 0.55013967 -0.30887386 -0.8147483 0.16146585 0.19496225 0.92180336 0.30252567 -0.6239582 -0.66461885 0.97385657 0.49449304 0.16023216 -0.24928759 -0.4166536 -1.1914874 0.17737943 -0.34014645 0.07778392 -0.034199037 0.41123497 0.4136257 0.21610188 0.79892737 0.08847166 0.42646706 -0.116647534 -0.66991305 0.22959779 0.7979851 -0.25725526 0.2704861 -0.18002154 -0.062247224 0.123924255
263 -0.045662984 -0.082867235 -0.3015304 0.28552777 -0.07137973 -0.10547961 0.3488712 -0.132899 0.12923916 -0.007159026 0.25193578 0.14954504 -0.019080821 0.0052028145 0.094036035 0.047522005 0.28474754 0.14692433 0.031775553 -0.21106818 0.37320307 -0.21658756 0.026340522 0.13761339 -0.30929676 -0.25547105 -0.17816192 0.10877061 -0.10280076 0.098925725 -0.20123939 0.3175014 0.14083007 -0.2021622 -0.40294757 0.15966354 0.081760325 -0.40928012 -0.19061314 0.19634135 -0.037852526 -0.33574313 -0.0835255 -0.25522137 -0.47140625 0.30089235 0.057785284 0.21241757 -0.15087152 0.12193315 0.42731407 -0.12996173 0.17838983 0.013396374 0.04852247 0.27377632 -0.2322772 -0.20347956 -0.055219635 -0.09252384 0.42805645 -0.081903905 -0.17260239 0.14982091 0.25580838 -0.15927868 -0.32651794 0.24299641 0.21177098 -0.06827959 0.36682233 0.17349984 -0.12990853 -0.086183906 -0.7360707 0.10073986 0.43086916 -0.29418817 -0.5156937 -0.2446269 -0.3178443 -0.022358935 -0.08655733 0.26716432 0.09397152 -0.020397795 0.02268882 0.18957517 -0.020992802 -0.0056029367 -0.1945744 -0.1272751 0.108592756 0.11010677 0.0060583698 0.32581145 0.06960731 -0.41245076 -0.060038242 0.2771159
274 -0.17975488 -0.15985085 -0.1861652 0.22171406 -0.40103367 0.28452793 0.20479631 0.035641156 -0.14912008 0.39406446 0.26154053 -0.13222395 -0.37754703 -0.24228254 0.234727 0.2077003 0.13873424 -0.052588414 0.17292178 -0.14558865 -0.070469044 0.2827373 0.04874339 -0.14115626 -0.06826103 -0.41232005 0.053241283 0.16593064 0.12693039 -0.070259765 -0.12645625 -0.046024345 -0.27730182 0.32726228 0.10976088 -0.010277686 -0.134485 0.071777955 0.35882503 -0.018846713 -0.11794773 0.4912006 0.15760249 0.09318789 0.020251393 0.1298474 0.06770359 0.009580121 -0.31501514 0.0042737615 0.41186246 -0.4107592 0.53802013 0.2625371 0.04351084 -0.29865748 0.0030767699 0.17934026 -0.40535116 0.15880091 -0.29766795 -0.0969827 0.020532874 -0.1063847 -0.05010088 0.022451825 -0.15784729 0.21886581 0.18425298 0.59601396 0.18576041 -0.1960436 -0.060412668 -0.34030184 -0.32192212 -0.24110249 0.31961077 0.27676684 0.22365831 -0.13149051 -0.16912158 0.014844658 -0.6421111 0.073699646 0.19541933 -0.32623252 0.0054098857 -0.092610754 -0.078591324 -0.14899415 0.017215 -0.27084622 0.019478206 -0.20633508 -0.25861543 0.044659447 -0.20857702 0.13256276 0.49951848 0.029624263
484 0.2048611 -0.044729598 -0.20561713 0.39837205 0.28836328 -0.014092015 0.1659132 0.46101576 -0.06287928 0.4201358 0.047008272 0.00848365 0.15866898 -0.040095914 0.18324967 0.011574129 0.23713924 0.08125361 -0.0066019236 -0.28142112 0.19629452 0.20982318 -0.17182744 -0.24676822 0.15543307 0.17727304 -0.17172636 -0.16063544 -0.25224668 0.53643423 -0.23538153 -0.33022532 0.13581564 0.39841172 -0.54390895 0.109647214 -0.4021377 -0.077371776 0.15763405 -0.13923977 -0.44863886 0.4435554 0.0050770696 0.006906913 0.28834918 0.45747286 -0.43854648 -0.4911404 0.22653364 -0.24486709 -0.03793654 0.2995902 0.10607808 -0.049445923 -0.16114739 -0.016650323 -0.20295502 -0.06424133 0.3453749 -0.05175928 -0.16564971 -0.32884392 -0.13716827 0.048964873 -0.47933075 -0.4018054 -0.024681019 0.35836527 -0.10099794 0.09137806 0.287413 0.36096406 -0.271066 -0.18610686 -0.13760482 0.52632886 0.26362202 -0.075624704 -0.0903523 0.39760804 -0.14652012 0.20841926 0.29104307 0.27924716 0.23165697 -0.3934718 -0.22599249 0.10762683 -0.33497024 0.13582478 0.21293855 0.017540263 -0.046186678 -0.19336843 -0.22299613 -0.2599681 0.075952135 0.32271153 -0.04130869 -0.23183787
295 -0.14628328 -0.13194749 -0.04667686 0.24240309 0.14083183 -0.006317841 0.23854862 0.06193584 0.09324269 0.22965401 0.025419213 0.12458596 0.12835109 0.12969814 0.062931046 0.055337783 0.46117994 -0.113573276 0.20178398 -0.14607179 0.14676294 0.35143563 0.06526387 0.09345482 0.37631795 0.24248847 -0.17793573 0.33238056 -0.14576668 0.24207579 -0.18783097 -0.00012096592 0.15332538 0.42817488 -0.3499081 -0.03001509 -0.09710279 -0.3541207 -0.12725902 0.064051844 -0.11360998 0.10368457 -0.28807154 -0.15509814 -0.21053578 0.09032265 -0.23980169 0.011640293 -0.018486839 0.10506685 -0.15976611 0.3824198 -0.03314161 -0.11250822 -0.060160838 0.29389292 -0.34017652 -0.066187486 0.01853483 0.08636096 -0.22966035 0.0502221 -0.2699095 -0.33089286 -0.32501268 -0.03855555 -0.103088275 0.3456376 -0.053870473 0.05233919 0.16583762 0.26088357 -0.17367053 -0.19419488 -0.08236923 -0.1492175 0.25770476 0.027641794 0.13336985 0.15936095 -0.14056136 0.34614086 -0.34446287 -0.115344 -0.061195333 -0.29112706 0.10069639 -0.17800985 -0.092247896 0.027495611 0.11734717 0.010345838 -0.21028778 -0.20835194 -0.29629505 0.10907739 0.15145665 0.21319754 -0.20535515 -0.08789127
7 -0.3279436 0.025732031 0.15980986 0.9991093 -0.35596532 -0.20480312 0.3351695 -0.34632966 0.010729288 0.23206887 0.36071026 0.041242547 0.25462002 0.20130908 0.45957997 -0.108199656 -0.21156737 0.11854119 0.18802412 -0.42664453 -0.3072451 -0.14088275 0.2907038 0.53763515 0.43807578 0.20656729 -0.041434698 0.16186929 -0.07885717 0.24240923 -0.025033971 -0.11918238 0.5498478 0.25338027 -0.69630265 -0.36725518 0.35759157 -0.5593845 -0.16721405 -0.073538445 -0.47011477 -0.47741437 -0.0015962571 -0.42011607 0.041329484 0.40141207 0.008812376 -0.45100355 0.15301898 0.018733406 -0.020036502 -0.71547747 -0.01780391 0.027883524 0.310657 0.26074836 -0.068341315 0.4942279 -0.121319294 0.4687815 0.23395978 -0.1870462 -0.04141577 0.20321497 0.21028148 0.24300276 -0.13100933 0.25198966 -0.587978 -0.61879176 0.94844687 -0.2726405 0.02432576 0.0024818599 -0.2365202 0.43961725 -0.036368947 0.04568829 0.033566438 0.4491195 -0.30783027 -0.30737838 -0.8957192 0.1716991 0.3468437 -0.22136225 -0.018404944 0.08113468 -0.13216552 -0.0668234 -0.7848107 -0.14148046 0.307215 -0.1177078 0.45802963 0.23566449 0.28366792 0.5066377 0.1452965 0.08425783
150 -0.11766125 -0.13581848 0.011212287 0.015358811 -0.37098396 0.23212051 -0.017069833 0.15047824 -0.039234295 -0.25869665 -0.3117301 0.4080447 -0.054945886 -0.0678344 0.04251955 0.09745928 0.041330535 -0.027786668 0.106837496 0.023791613 -0.018965658 0.67744315 -0.16934456 0.4574397 0.43359676 0.15567504 -0.42518154 0.03395509 -0.12423358 -0.51747847 0.002104516 -0.053170685 -0.040934335 0.21895604 -0.44968435 -0.24511881 -0.2543667 0.3055657 -0.41176447 0.4094057 0.28290612 0.29664078 0.20701261 -0.25187555 -0.043069527 0.0003999822 -0.17619838 -0.36913034 -0.2611128 0.2112131 0.0120418575 -0.13939627 0.24399196 0.0834699 -0.14737864 0.1881261 0.044440832 0.16410375 -0.2047865 -0.23150107 -0.3091809 -0.55406505 -0.16570903 -0.063621335 -0.1435149 0.060810264 0.17872226 0.33914956 0.23614173 -0.045873806 0.41387758 -0.114479505 0.11176862 0.39226043 -0.26077574 0.5165457 0.2569979 -0.21951754 -0.53438026 0.068680674 0.14716898 0.108459406 -0.6095453 0.076626904 -0.16825636 -0.18927747 -0.33307496 0.30284277 0.1439591 0.46275458 0.7351831 -0.3486626 0.018756712 -0.6315182 0.14952464 -0.088413164 0.22181448 0.096130624 0.058588553 -0.18671466
392 -0.23317645 -0.023054136 -0.63104486 0.21677676 -0.0041859127 -0.2993 -0.1341391 0.12760411 -0.15476263 0.31515267 -0.13711207 0.03575883 0.036002245 -0.13380277 0.19079745 -0.049558427 0.16461492 -0.32597497 0.13298996 -0.35028324 0.011171949 0.15949783 0.2059672 0.24656466 0.18620521 -0.09663403 -0.00062511466 -0.25021747 -0.10716039 0.056466375 -0.27985525 -0.23727158 0.13009015 0.049707945 0.08961895 -0.30320364 -0.2804834 -0.33866236 -0.2702333 0.19164169 -0.3988014 0.032903254 0.52315027 -0.06837598 -0.20503964 -0.025722448 0.33728004 -0.020694645 0.6221097 0.27975202 -0.5029395 -0.009290096 0.22212839 0.3271914 -0.4176893 0.13995992 0.13558638 -0.03289835 -0.35644114 -0.2226081 0.44664565 -0.16346052 0.045978572 -0.33995143 -0.21889034 0.36756614 0.13883057 0.6790996 -0.39684248 0.41548628 0.16049445 -0.16260913 0.34015378 0.50663537 -0.39740092 -0.2490219 -0.020538667 -0.14447494 -0.18626969 0.14891522 -0.26381165 0.38916516 -0.4189677 -0.24692687 0.13600051 0.2692265 0.21962231 0.15734735 0.29355347 0.22884758 0.09239264 -0.044615213 -0.089266054 -0.19637895 -0.3652359 -0.17094564 0.03153062 -0.04457955 -0.21408185 -0.023379197
29 0.21206039 -0.11482575 -0.44262516 0.27710032 0.066112146 0.24379715 -0.003393343 -0.18399765 0.30554417 -0.034779042 -0.11613275 -0.02861428 0.060324445 0.33590174 0.09575728 0.14475212 0.33244833 0.2711084 0.32024255 0.31548926 0.37778845 0.33962962 0.122698985 -0.11384306 -0.01207162 0.12092446 0.16610588 -0.07310305 -0.0967756 -0.08123744 -0.25176018 0.33628374 0.20608012 0.030479755 -0.060434874 -0.012820455 0.1371188 -0.24564911 -0.4629258 -0.14877012 -0.05895428 0.4335986 0.038327694 -0.06588175 0.3364365 -0.0145772565 -0.05571699 0.28302372 -0.04405662 0.2384909 0.14641924 -0.29329592 -0.09945159 0.035489988 0.13041525 0.072886765 -0.08801395 0.56220156 -0.14683217 0.019950444 -0.19293815 0.25128752 -0.16883124 -0.42270666 -0.084261596 -0.40958688 -0.071461625 0.18328321 0.22031784 -0.3473278 0.3828991 0.14622048 0.055337485 -0.29203832 -0.45203805 -0.05544708 0.12422134 -0.15721498 -0.008070206 -0.16548343 0.2153698 0.22158894 0.06773098 0.019730484 0.18254355 0.04380529 0.3985172 0.089379385 0.08584754 -0.073141865 0.12229037 -0.27432865 0.023047628 -0.32366148 -0.20469095 0.267732 -0.06563945 0.017182443 0.25060084 -0.04943854
577 -0.34698248 -0.050559934 -0.47351453 -0.033296462 -0.32200682 0.17328186 -0.014459637 0.14780042 -0.4101545 0.20955546 0.15928352 -0.14317848 0.06146095 0.20392144 -0.037989758 0.1447722 0.38578525 0.15924735 0.20177364 -0.2066735 -0.0516478 -0.19468889 -0.08117842 -0.08005554 0.090609126 -0.3241056 -0.007570266 -0.071510404 0.08668834 -0.030350363 -0.047301717 -0.0040462874 0.11455934 -0.2277509 0.36425403 0.004535776 0.2940738 0.07979632 -0.027496748 0.090368345 -0.2767218 -0.36034325 0.27393773 0.0708045 -0.080082014 0.38889536 0.11350386 0.07273647 0.40122202 0.27581796 0.109821774 -0.5632757 -0.07526935 0.12609147 -0.24700569 0.49736235 0.08079229 -0.22454585 -0.44940245 0.09432652 -0.29061344 -0.12366055 -0.20402065 -0.35569057 -0.16269763 0.18493922 -0.25415748 0.82454187 -0.12926 0.111511126 0.33972988 0.6492772 0.31604376 -0.28024057 -0.14955127 0.15973495 -0.18116984 -0.010854086 0.23350151 0.30683422 -0.24587753 -0.053245045 0.13369544 -0.16242482 -0.03186098 0.478034 0.2687526 0.16724628 0.26567343 0.18828216 0.30978122 -0.35696554 -0.04168721 -0.08388383 0.34130523 -0.26948607 0.5180656 0.16596894 -0.032893077 -0.16444498
252 0.13469914 -0.17749259 -0.24074332 0.1852529 -0.3709361 0.072825514 0.05325678 0.12290836 -0.024844706 0.20044708 -0.3580747 -0.18143573 0.13596658 -0.0008879835 0.11327692 0.34837666 0.5184183 -0.34269455 0.14059195 -0.07035485 -0.15889607 0.40399832 0.25555444 0.15307516 0.13592404 -0.12011142 -0.05535341 -0.18420301 -0.17011237 0.050514378 -0.28108054 -0.033877045 -0.017490901 0.19390914 0.025402999 -0.1347956 -0.17566924 -0.05707726 0.051819973 0.14753556 0.053555537 0.050635085 0.1724381 0.037313797 -0.17956924 -0.17829919 0.25596076 -0.22654274 0.08942176 0.06328224 0.1990035 0.08036955 0.020647386 -0.06797101 -0.3184632 0.20098865 0.09790594 0.15845747 -0.22840378 -0.19079395 0.09145509 -0.17717029 0.17643847 -0.17754318 -0.36566594 0.30188316 -0.121918544 0.42339018 -0.22768745 -0.052991714 0.1836181 0.0032923874 0.19125678 0.044860274 -0.14757197 0.06611407 0.14611942 -0.059194863 -0.2222329 -0.0066712033 -0.030180216 -0.13212703 -0.4477424 -0.3611972 -0.17076364 0.16444658 0.022634923 0.38690785 -0.013583431 0.21259949 0.098022446 -0.13012528 -0.32043064 0.1276431 -0.05560902 -0.18025765 0.09787739 -0.53127676 0.024765061 0.060667556
273 -0.10792777 0.07236344 0.021742003 0.024846448 -0.4556848 -0.19055623 0.25256038 0.33682242 -0.12894665 0.42689317 -0.087715715 0.6983763 -0.18750642 -0.15213937 0.1644841 0.47930634 0.25528514 0.18601137 0.050477028 -0.31986457 -0.07283505 0.4559429 -0.090309046 0.32710323 -0.1461537 0.041134987 0.3399182 -0.24274667 -0.03332436 -0.16254602 0.08178933 -0.42125946 0.12890795 0.46746394 -0.5935364 0.015429956 0.057989575 0.14484973 0.25818896 -0.112198584 0.12637028 -0.04855464 0.29228455 0.15377168 0.19475546 0.31902808 -0.0646033 0.15332875 -0.27407467 0.25970408 0.28481507 0.002252546 0.029986551 -0.08477837 -0.2743626 0.20832872 -0.07440804 0.3319712 0.06531081 -0.22096771 0.35428777 -0.5694879 0.08694781 -0.44587398 0.0797378 0.03752104 0.0029937667 0.2262282 -0.36655608 -0.08621151 0.03754625 0.07071873 0.060063392 -0.40975314 -0.16160384 0.53560966 0.048311587 0.058153484 0.04797025 0.100385554 0.2851329 0.30691946 -0.31626698 0.025583256 0.21915922 0.14884031 -0.25273985 -0.058699556 0.2878599 -0.04847063 0.2759561 0.015622949 0.1753151 -0.19527946 0.18791787 0.13488528 0.037463743 0.16034672 -0.12443488 0.24531367
385 -0.1592418 0.023291701 0.2341792 0.020055786 -0.08640521 0.08523591 -0.18026912 -0.3090237 0.18292084 0.19916654 0.041587405 -0.14758413 -0.1451369 -0.1578777 0.017480372 -0.0017095137 0.36497205 0.03784206 0.2223697 -0.14482205 0.20107122 0.37735927 -0.11762179 0.043911878 0.39433303 -0.045394853 -0.34768546 -0.1950585 -0.17460456 0.41703478 -0.118599705 -0.43825302 -0.14815132 0.17279436 -0.2660809 0.08057969 0.5142985 -0.18447109 -0.19258532 0.026191024 0.019588707 0.26118484 -0.24754414 -0.071603775 -0.5100528 0.23153658 0.2427358 0.13946557 0.18007384 -0.19418745 0.40916237 0.032011904 -0.31040478 0.17757156 0.1713427 0.10007809 0.14227758 -0.14206429 0.20669548 0.11742267 0.28597698 0.006250775 0.14184909 -0.5744469 -0.20086844 0.41805077 0.23380029 0.051235195 0.30317104 0.122643955 0.27516252 0.39557856 0.35635063 0.027747486 -0.050480124 -0.03332068 0.19874091 -0.20042692 -0.29296473 0.070734404 0.03844097 0.07647233 0.33718565 0.31026453 0.11879055 0.06559745 0.099372454 0.13622564 -0.10910746 -0.11118311 -0.1227025 -0.43081412 -0.09888534 -0.45288864 0.2350498 0.04207584 -0.2434579 0.04890796 -0.093670815 0.5499409
602 0.15256642 0.114977695 -0.09575693 0.21534294 0.08573497 0.09210121 0.06953525 -0.07065223 -0.06950951 0.20524272 0.024351431 0.16275482 -0.0929036 -0.14796557 0.26557225 0.13901296 -0.009243406 0.0011595908 -0.22907943 0.058297716 -0.30258852 0.27333698 -0.07686619 0.09840056 -0.0071750316 -0.15234576 -0.11643362 -0.1419682 -0.52761906 0.14133611 0.2668086 -0.14460775 0.15201667 0.38645244 -0.24092059 -0.20584574 -0.3297571 -0.3137813 0.18703617 -0.026266789 -0.21435235 0.13061427 0.057230797 0.061310913 0.5034575 0.12270007 -0.12795073 -0.11481601 0.003159976 -0.33611134 -0.25407097 -0.033681445 0.02203621 -0.07500877 -0.31735688 0.21113978 0.019263525 0.14334694 0.3261393 -0.22208612 -0.2639331 -0.5208202 -0.3452174 -0.3575317 0.14107291 -0.017524697 -0.016316751 -0.04133876 0.18549736 0.042149533 0.2322096 0.31577182 -0.15952912 0.07824716 -0.4933432 0.37129223 0.17773218 -0.21225603 -0.30452254 0.4460554 -0.24623194 0.1789289 0.0026357388 0.17452456 -0.022279315 -0.0894884 0.049762204 0.05659041 0.31435248 0.0017954222 0.1169713 -0.26884127 0.2482303 0.15024914 -0.13517296 0.31121615 -0.12782954 -0.024156967 -0.0648804 0.017958641
86 0.054521576 -0.33726025 0.03515603 0.36242598 0.27018332 0.4875126 0.1787039 -0.32591087 0.1770007 0.25019842 0.073563404 0.31550154 -0.35816437 0.17129047 0.13165922 -0.306218 0.047084164 0.047395356 0.18161911 0.15873459 -0.49607798 0.249191 -0.16339795 0.14318936 -0.012789313 -0.09677452 0.04145051 -0.3546001 -0.34241778 0.624633 -0.17887735 0.111911714 -0.35140577 0.27614298 -0.083744064 -0.11489102 0.37708098 0.102606535 -0.1934463 0.31056982 -0.15653737 -0.17512996 0.26184335 0.33675575 -0.034939475 -0.14809659 -0.038914327 0.5494753 0.103932746 0.13332045 0.19164294 0.04582962 -0.113742195 0.17808796 0.018209781 0.27626774 0.15541267 -0.5391322 0.11017195 0.15455884 0.36317152 -0.0027657382 0.124901205 -0.42117938 -0.30647936 0.20807004 0.39553353 -0.019467037 0.5115341 0.26216492 -0.07187214 0.1302809 0.262495 -0.15715063 -0.4593753 0.26003265 0.12379436 -0.12984619 -0.0132927885 -0.045435574 0.16847089 -0.012325936 0.09327493 0.2869658 0.14756683 0.00040217096 -0.071273796 0.101975515 -0.44029942 0.11774472 -0.039274327 -0.08642437 -0.100488305 -0.15417387 0.14765088 0.097849816 0.110575825 0.113873184 -0.2230847 0.18975908
21 0.23734269 -0.061556786 -0.4775022 0.14111763 0.0452535 -0.20324662 0.3595856 -0.6128454 0.1592154 0.046082363 -0.3215685 -0.21394102 0.39868072 0.2867652 -0.020919602 0.2579416 0.06445282 0.2887288 -0.27123562 0.26905474 -0.027172185 0.24241902 0.5195936 -0.11921067 0.14933772 -0.14911227 0.07889639 -0.0671273 -0.005051538 -0.12946346 -0.10420745 0.17893912 0.13658819 -0.03548716 -0.39693677 -0.14148669 0.032455668 0.19300742 -0.23250058 0.017775593 0.14470457 0.37916526 0.19283743 -0.028217766 0.12896745 -0.6320367 -0.16393667 0.06825079 0.08819936 0.08121168 0.16355425 0.064246446 -0.14885421 -0.1445815 -0.03289063 -0.118005544 -0.061374653 0.5709736 -0.006112623 -0.086147465 -0.21732548 0.29229555 -0.22245832 -0.2616089 0.16423282 0.11542815 -0.07971054 0.40891826 0.102723636 -0.01983741 0.44995016 0.3564064 -0.05520123 -0.10643262 -0.62834203 0.12392551 0.05188924 -0.09131051 -0.23437 0.14510006 0.17569093 0.05311958 0.0600113 -0.11555967 0.35666496 0.104734376 0.11186292 0.12282262 0.13664457 -0.09894079 0.009023514 -0.058361497 0.059166722 -0.49417716 -0.004147356 0.60192215 -0.32247338 0.035924908 -0.023779474 -0.27498284
496 0.4657312 -0.009442925 -0.08562421 0.25155595 -0.09056142 -0.6022782 0.24741168 0.19375423 -0.16574413 0.43322632 -0.06993903 0.45140743 0.1648399 -0.0377236 0.22274148 0.002986219 0.4213949 -0.25316536 -0.5624888 -0.031050948 -0.10767421 0.0010126735 0.071998015 0.06292154 -0.12236911 -0.08487462 -0.31848493 0.07151347 -0.22951692 0.27870798 0.21865396 0.005175162 -0.16183512 -0.27871826 -0.31971183 0.15589145 0.3163424 0.36878812 -0.46027687 -0.110863745 -0.2272834 0.1319892 0.006117949 -0.060412545 0.012549404 0.07457643 0.29548484 -0.16166735 0.009765623 -0.08113338 0.2968904 0.11085509 -0.16211733 0.13989191 -0.35314396 0.07089669 0.17757846 0.42296425 0.22743036 -0.20452297 -0.5093943 -0.34980774 0.036171664 0.031358264 -0.19400313 -0.024020996 0.0104119815 0.25807974 0.29842442 0.17950773 0.46227178 0.3567858 -0.08863965 -0.5360319 -0.128513 0.22166072 -0.18472737 -0.10537701 0.059605002 0.229763 -0.0007298596 -0.29760587 -0.20081852 -0.2569291 0.05125924 0.12755002 0.10500651 -0.30230823 0.30412483 -0.1931147 0.34689206 -0.29214352 0.080679044 -0.21481562 -0.23827907 0.31154308 0.0018882524 0.27516776 -0.27501184 -0.040144436
260 -0.009613378 -0.29799637 -0.13038674 0.3673271 -0.2764771 0.3320843 0.042552914 -0.07511681 0.016039614 0.27049512 0.0852722 -0.035299007 0.1932563 0.088403314 -0.0035876967 -0.27867246 0.101757534 -0.026150232 -0.04547092 0.1747509 0.2688131 -0.0033154183 -0.031596098 -0.034836255 0.09649871 -0.07395609 0.21441913 -0.055262297 -0.21906492 0.32426277 -0.100456305 0.047725692 0.03316394 0.056883786 -0.18084289 -0.16225664 -0.09968234 0.09681576 -0.012136163 0.3743714 -0.019553142 -0.33557844 0.2635155 0.20991123 -0.03791241 0.03492337 -0.25452736 0.12365994 -0.015924236 -0.018236244 0.22758263 -0.41184187 -0.02486555 -0.16848005 -0.033635747 -0.06746511 -0.037591904 0.1607866 -0.14724296 0.009569066 -0.10461135 -0.17855798 0.11917485 -0.29203144 -0.1286054 -0.09482231 -0.023411576 0.18530229 -0.022064479 -0.07963096 -0.16056886 -0.10380494 -0.07266041 -0.015811967 -0.2410355 0.07401317 -0.010127588 -0.21798775 -0.0010038705 -0.26633853 -0.12866245 -0.11052934 -0.20504475 0.39073965 -0.032054454 0.07502607 -0.042725142 -0.053220797 0.27963775 -0.06606931 -0.282907 -0.4102018 -0.28031674 -0.16829054 -0.20627876 0.04859667 -0.2220615 0.025582645 0.31251693 0.33582023
57 -0.052635793 0.25103974 0.15175761 0.09538219 0.24312937 0.07459855 -0.09773885 -0.057586998 0.12742177 0.3463747 0.00025132194 -0.03304537 0.15179412 -0.015301538 0.07885226 0.18152966 0.19336249 -0.011060852 0.26526123 0.00079123786 -0.2891098 0.0030799792 0.14261025 0.21361983 0.012754604 -0.28296465 -0.3490266 0.009057448 -0.56320477 0.056625146 0.18082038 -0.05070207 0.33464813 -0.0085333055 -0.117652155 -0.12659682 -0.5015295 -0.579766 0.17472653 0.45704824 0.052689936 0.35545474 0.080844216 -0.18293548 0.19463237 0.11822475 0.13510111 -0.38704064 -0.2657395 -0.4153554 -0.16491844 -0.04352626 -0.30878416 -0.08495544 -0.33412325 0.1756749 0.2243544 -0.120321736 -0.13981175 -0.48899397 0.2802263 -0.5161667 0.09766909 -0.31558397 0.2168979 -0.2717235 -0.16292413 0.004447827 0.15400028 0.010501256 0.27227035 0.5558901 -0.04629599 -0.28555462 -0.73789316 -0.08788006 0.2448875 -0.37636742 -0.17137162 0.09809583 -0.21291223 -0.10850521 -0.3005539 0.14275762 -0.10997415 -0.03706777 -0.081915736 0.3615829 0.11888768 -0.07069608 0.08137819 -0.4509146 0.7864263 0.08463822 0.2749979 0.69800574 0.031011159 -0.3920335 0.076387435 -0.13518323
296 -0.14216712 0.011801058 -0.061664015 0.15659381 0.32881838 0.6255867 0.043194495 0.23494267 -0.01352535 0.060628224 -0.27186877 0.24566878 0.30060342 -0.16499728 0.18062006 -0.20400228 0.35945958 -0.19693996 0.023789296 -0.4717745 -0.08435397 0.26365134 -0.3297957 0.3553167 0.092475384 0.19419034 -0.16132767 0.09411397 0.06677119 -0.09499512 -0.51581126 -0.36673838 0.17392689 -0.010900337 -0.27544272 -0.29020885 -0.28266057 -0.33419397 0.10508899 0.16162258 -0.43538588 -0.029159077 -0.042592786 -0.45258212 -0.045157377 -0.05338348 0.14906396 0.06703499 0.28480953 -0.20746194 -0.13261546 -0.3711893 -0.04738983 0.15657198 0.1446115 0.27322537 -0.10894644 0.098172575 -0.040710166 -0.6204765 -0.1887326 0.3098081 0.11350137 -0.22616577 -0.27246514 0.5404131 -0.11605878 1.0105057 -0.52077633 0.16889456 0.10254329 -0.15001824 0.7678598 -0.09258798 -0.087386645 -0.31953433 0.33994105 0.14427114 -0.09135163 0.007891106 -0.2043299 0.13583523 -0.3311961 0.03390482 0.3684078 0.25118026 0.09400235 -0.22480637 0.052834805 0.19662821 0.11714588 0.22886056 -0.100673564 -0.21652323 -0.465504 0.09791964 -0.013315253 0.04142854 0.063657604 0.010420899
334 0.32180178 -0.5519365 -0.70567244 -0.08599796 0.045698956 0.2300711 -0.004751288 0.09629181 -0.014981333 0.11411006 -0.13756956 0.2484633 0.059306215 0.19725928 0.22174786 0.48129278 0.2352475 0.5830554 0.15568116 -0.1502024 0.1298155 0.46963167 0.005259581 0.013763438 0.49624845 0.060008787 0.037821103 0.26224113 -0.24782959 0.3483225 0.59096503 0.2974292 -0.29750457 0.4796622 -0.27235886 -0.16134284 0.28034192 -0.3325146 -0.38531741 0.38558382 -0.24342328 0.068833634 -0.124047235 -0.029245164 -0.57502 0.27399367 0.11087103 -0.3588012 0.14120007 -0.020676218 0.19703391 -0.25079954 -0.0804056 0.27490517 0.047795303 0.15269332 0.20273927 -0.041353785 0.1785877 0.13893646 -0.14940524 0.043802176 -0.16314347 0.13287824 0.293306 0.43762642 0.15123442 0.33500907 -0.37796983 -0.0637686 0.07103338 0.3806631 0.1329664 0.49020886 -0.3303421 -0.119900234 0.24958427 0.15317628 0.32214874 0.05597919 0.2474966 0.59909767 -0.29309785 0.33297002 -0.0011702466 -0.3619663 -0.096312016 -0.33292326 0.0542843 -0.3877907 -0.033822514 -0.26591894 -0.030155377 -0.062367562 -0.5486899 0.20377092 0.1706181 0.05433426 -0.028730111 0.36145592
89 0.6309777 -0.02706884 -0.3468263 0.39567158 0.13029386 -0.22677313 -0.2649873 0.4682461 -0.1672419 0.07886008 -0.022832213 -0.16291538 0.15160926 -0.14491759 -0.056343686 0.042801876 0.09762864 -0.07245889 0.31660193 0.10539105 -0.091767535 0.54743534 -0.07469722 0.15508905 0.20122099 -0.04392136 -0.03052705 0.1783963 -0.4048296 -0.0156166535 -0.40704685 -0.013432032 0.33785746 0.04217429 -0.28030336 -0.29035893 0.47940144 0.28210837 0.26750088 0.23453754 0.29819 -0.2725957 -0.33967236 0.0701907 0.36203405 -0.1085539 -0.097333625 0.29613823 -0.36648378 -0.2352023 0.28127268 0.20827325 -0.31790844 0.16809982 -0.03833731 -0.06767749 -0.16375172 -0.16534668 -0.5986387 -0.21257298 -0.063529044 0.13045391 0.026035963 0.25906003 -0.074418046 -0.3160735 0.0038955593 0.5203961 -0.22431844 0.12126554 0.26042166 -0.21173556 -0.17103916 -0.039151866 0.054010563 0.12971084 -0.46012416 0.017950198 -0.3630782 -0.10867952 -0.15881793 -0.035131373 -0.69013625 0.34928867 0.24743116 -0.20820153 0.1741638 0.47226274 0.15597992 0.26924026 0.1731052 -0.67841375 0.020761667 0.38929126 0.081523195 0.04672677 -0.124379486 0.10977431 -0.34769997 0.40655693
751 0.26737994 -0.19748813 -0.5255011 0.17486762 -0.41322368 0.40380782 0.017084472 -0.13724992 0.012547207 0.5090224 -0.5061409 -0.5801466 0.10383028 -0.32542527 -0.086991325 -0.11211321 0.23534293 -0.14790243 0.26825523 -0.108798705 -0.5561673 -0.114442185 0.19652574 -0.07741492 -0.03755357 -0.19142579 0.3105977 -0.41863388 -0.24376664 -0.2423233 -0.3896095 0.26511952 -0.24558026 0.09249919 -0.0028663278 0.033081245 -0.13257644 0.15729555 0.37146467 0.20757866 0.013137921 -0.2910637 0.52274233 -0.023829782 -0.19153936 0.01828986 0.26138636 -0.31863958 -0.20097068 -0.050831605 0.432261 0.20092538 -0.20606223 0.36806792 -0.29802683 0.28874972 -0.033917498 -0.27613866 -0.54289585 0.22129688 -0.38786095 0.1271373 -0.1156944 -0.29182604 -0.3528322 -0.17412487 -0.085559666 0.63410413 0.13455182 0.051424377 0.45887968 -0.26660782 0.2998978 0.15101145 -0.047647335 0.040365756 0.060707327 -0.05753895 -0.12807131 -0.106868036 -0.123415664 0.026363824 -0.50585103 -0.045184404 -0.19482827 0.11779692 0.44740653 0.1551569 0.065600865 0.16694541 0.18252493 -0.28718168 -0.16732918 0.059521258 0.05480199 -0.3160354 0.16406825 -0.15866566 -0.0931089 0.30273256
194 -0.47382775 -0.33792856 -0.2796695 0.52493834 -0.115893915 -0.28624186 -0.11526724 0.2575928 -0.29856282 0.38736343 -0.16979904 0.035955563 0.07374898 0.35910648 0.19944116 -0.28577226 -0.046291456 -0.28150037 0.32435346 -0.26850918 -0.05055197 0.26246434 0.099368975 0.20363055 -0.19525863 -0.25033364 -0.34750244 0.27942747 -0.3453335 0.19170962 -0.502387 0.60924125 -0.09363318 0.33593243 -0.042438217 0.12930697 0.2167559 -0.12946402 0.120441034 0.15230662 -0.34778273 -0.47561756 -0.3836401 -0.051272057 0.13411808 -0.3279291 0.27824846 0.07281197 0.5040277 0.046296548 0.37090692 -0.57279503 0.74786294 0.29602256 -0.53142095 0.026068171 -0.045855954 -0.08170263 -0.14894168 0.5583022 -0.2308098 -0.44952583 0.07728964 -0.3451668 0.27261952 0.77100885 0.24790233 0.39061528 -0.7114711 -0.22261709 0.2991776 0.032760352 0.0040964317 0.28161752 -0.64103913 -0.020815108 0.07526292 -0.09210695 0.17835803 0.12089947 -0.3026705 0.39552957 -0.017221037 0.05658493 0.2083632 0.57190776 -0.14298907 -0.040700562 0.3005831 -0.3690606 -0.06886549 -0.17644528 0.235664 -0.12211355 0.07699397 -0.42641845 0.61300695 0.3511605 0.17926289 0.16554946
399 0.051223565 -0.011715015 -0.16772267 0.18237084 0.10002483 0.41425976 0.10105375 0.09416051 -0.005739754 0.15208027 -0.106193505 0.19052637 0.08767281 0.21332045 -0.34238362 -0.03277858 0.006331592 -0.10850486 0.14760435 -0.12915717 0.18071201 0.5660201 0.045786526 0.02797412 -0.10218104 0.06952592 0.024488464 -0.053667784 -0.22004661 0.43362805 0.39340097 -0.056772847 -0.124966055 0.31966949 -0.0795158 0.06676006 -0.11801164 0.24203092 -0.22695757 0.18415695 -0.04426326 -0.31546834 0.13505518 -0.22837101 -0.17550658 -0.2262027 0.1955708 -0.04746113 -0.0516435 -0.08738569 0.3310839 -0.3800305 -0.17782563 0.04618452 -0.104612574 -0.33975577 -0.27149594 -0.065915585 -0.097750954 -0.16679537 -0.19331087 -0.07987739 0.057323474 0.0573968 -0.09649373 0.088878475 0.09478612 0.1979319 -0.03441233 -0.028245432 0.3074453 0.09199189 0.1781065 0.34954625 -0.08488689 0.19366445 -0.27647904 0.52120936 -0.058526307 -0.21640667 -0.5317483 0.23691303 -0.19353165 -0.16465047 0.08952412 -0.05767511 -0.21915857 0.031994384 0.035743516 -0.06524879 -0.016068561 -0.38945588 -0.14019749 -0.574176 -0.2217832 0.61140794 0.10504656 -0.17546006 -0.44400543 -0.034243573
12 -0.54440707 -0.34122863 0.32182983 -0.3671594 0.6726559 0.21573831 0.7443327 -0.4802409 0.16013321 0.44252297 0.4151695 -0.25802824 1.1013833 0.070150726 0.010380308 -0.21330626 0.5717164 -0.1812945 0.7953888 0.18466736 -0.118385285 0.9660877 -0.73780364 1.0634943 -0.40107775 0.5355594 0.025522375 0.1957854 0.07333646 -0.052640714 -0.04980752 0.78066355 -0.82655567 0.86153823 -0.71861684 -0.65022993 0.8964175 -0.23779894 -0.442676 -0.54096407 0.60794556 0.24538007 1.2598107 0.48292696 -0.094308116 0.37463292 -0.23387633 0.3582234 -0.45170742 -0.14913593 0.5490055 -0.37628257 -0.41457212 -0.24319384 -0.79587275 0.11690028 -0.28628755 -0.6114447 0.45906132 0.117589824 -0.17782286 0.7632983 0.7531668 0.74814653 -0.47350302 -0.031910572 0.49905074 -0.11666447 0.24052261 -0.28489783 -0.0669115 0.5503195 -0.77947414 -0.22803886 -0.51981014 -0.68123406 -0.22084598 -0.9013665 -0.9056509 0.9621776 -0.53764033 -0.32683733 0.022650314 -0.15336487 0.051535632 -0.17257649 0.22834569 0.89021885 0.16192387 -0.08858451 0.306018 0.034346964 -0.87479496 0.2520537 -0.4901751 0.44757253 0.59828985 1.0415324 0.121691264 0.99758214
336 0.20439897 -0.14700812 -0.27224636 -0.17972831 0.009480504 -0.3232256 -0.11518845 -0.17869464 0.2143729 0.305893 -0.021548713 0.14538875 0.10762144 -0.100657694 -0.10569474 0.06062828 0.18688136 -0.047662616 0.05435087 -0.29864037 0.20500623 0.15350886 -0.05854674 0.03673764 0.26198775 -0.03069488 -0.34339857 0.4841352 -0.038473345 0.298767 -0.13116725 0.23025507 0.067795835 0.4724548 -0.12210761 -0.21260814 -0.011188971 0.17376496 -0.25946814 0.42987862 -0.36323792 -0.08550066 -0.008290313 0.1981129 -0.004031391 0.00777707 0.04235805 -0.20879637 0.33301383 0.2563032 -0.16379365 0.048436623 -0.13476196 -0.30910426 0.22483961 0.24459179 -0.14775053 -0.073579505 -0.2688494 -0.21103728 0.2859585 0.060479656 -0.20471926 -0.6696546 -0.29011762 0.032702148 -0.2706968 0.3441824 0.070828885 -0.09155548 0.21999294 -0.079080604 -0.55819476 -0.18376027 -0.17078535 -0.10369092 0.23386136 0.40226015 -0.08056072 0.36966622 -0.08799375 0.6261224 -0.66783494 -0.056945205 -0.26159978 -0.29145053 0.21528772 0.33878842 0.55222607 0.23308447 0.14300077 0.025802944 -0.23188093 -0.058455106 -0.17757724 -0.22309618 -0.29305884 0.68660784 -0.16949515 -0.06895189
318 0.18989299 -0.16247974 -0.15693632 0.51984787 -0.06362249 0.21596919 0.20496932 0.087985225 -0.32082808 -0.016023746 0.016042084 0.29267162 0.238096 0.0105571 -0.0184565 -0.11194014 0.18148665 0.05869707 0.019914871 0.14140917 -0.06450023 0.21723847 -0.3314367 -0.05894556 0.28349456 0.132757 0.058446556 -0.23357025 -0.4163531 0.03911507 -0.16556354 -0.10729367 -0.1669268 0.6240709 -0.48941138 0.15307441 -0.3860447 -0.3077901 0.11543691 -0.0090861 -0.30993512 0.2701194 0.11443947 -0.09266416 0.05873146 0.15846775 -0.41862175 -0.49196696 -0.04772881 -0.33159664 0.15997557 -0.00047570202 0.11891169 -0.25873595 -0.16271372 0.099727675 0.188983 0.06747572 -0.08591569 0.1820223 0.06589716 -0.5443289 -0.530752 -0.05730173 0.006621871 -0.054750737 0.3470812 0.16376728 0.22260877 0.015325058 -0.08589249 0.42057377 -0.43877572 0.077931665 -0.39205372 0.78687686 0.17061637 0.13604304 -0.512681 0.7430843 0.10192425 0.37273535 0.022179255 0.2054731 0.16722092 0.07577187 0.022634557 -0.276115 0.173805 -0.062302947 0.183571 -0.2506419 0.07428894 0.3039621 -0.11707358 -0.02023455 -0.28969687 -0.16959853 0.13130404 -0.035578206
256 0.038016863 -0.055852618 -0.19002183 0.2880407 0.12793435 0.039617192 -0.086197376 0.2581745 0.041964732 0.38201258 -0.22974041 -0.13038023 -0.051904567 -0.0013131645 0.2058415 0.61659336 0.29903722 0.073689654 -0.118743144 -0.07186155 0.12742457 -0.24471423 -0.2628464 -0.11403672 0.13878112 -0.1335972 0.015778733 0.011222975 -0.042550027 0.250355 -0.11294074 -0.48527735 -0.074335754 0.06058113 -0.22157235 -0.2787844 -0.19121023 0.08719201 0.18710293 0.34387136 0.29691702 -0.14485963 0.26123166 0.17856336 -0.03136537 0.18153165 -0.24205942 0.0649478 -0.16264513 0.49766678 0.44766903 -0.29790127 0.21134894 0.006210947 -0.09822837 0.05205968 -0.044475306 -0.09575699 -0.03198264 0.19611456 0.34268147 0.024036601 -0.025717283 -0.5026989 0.30858964 0.1935811 0.019086704 -0.02848256 0.011220034 0.066178635 0.10022019 -0.04562541 0.16982989 0.023406316 -0.051621214 0.047566913 0.37066284 -0.25155184 -0.07076971 -0.1632138 0.22349483 0.23437597 -0.1690503 -0.021952173 0.18041676 -0.0728665 0.020787697 -0.021149315 0.34520617 -0.03691337 -0.24109332 -0.42829216 -0.31146476 -0.16571917 -0.026347127 0.25219655 -0.037082765 0.26657853 0.29361436 0.44420233
77 0.12304404 -0.03759652 0.15706559 0.21357782 0.16973014 0.6278745 0.49404442 -0.13866436 0.45496604 0.48547614 0.021375852 -0.37866262 -0.12549073 0.09389135 0.38512993 -0.18296611 0.23205592 0.1782067 0.66431326 0.5819136 -0.41485187 0.10321168 0.093171716 0.042427484 -0.30732876 -0.23979506 0.4005111 -0.21890244 -0.24726555 0.24692364 -0.032236326 0.09574636 -0.16020305 0.3149441 -0.09635497 -0.08006388 0.22089684 -0.0003070681 -0.24685445 0.08563762 -0.24857634 0.055591334 0.111639075 0.14828503 0.25706175 -0.124510795 0.028969215 0.39832953 0.19142938 0.3577664 0.41499946 -0.08515851 -0.2669386 0.51271605 0.28896463 0.48780015 0.11198538 -0.53945696 -0.030391041 -0.38785157 -0.030882815 -0.12871504 -0.1490803 -0.2798267 -0.38272414 -0.19342345 -0.06974528 -0.08930564 0.013902221 0.061149362 0.021984285 -0.31280938 0.2762255 -0.055440374 -0.64616877 0.07076339 0.35722545 -0.14013097 -0.09801446 0.32011446 -0.31620738 -0.4351965 -0.071158126 -0.06606984 0.22916667 0.11560932 -0.4525007 0.0055211475 -0.13530122 -0.053645853 0.28335723 0.27682713 -0.32599983 -0.14104761 0.54949135 0.25516644 -0.041711964 0.41736656 -0.5956181 0.16888922
705 0.4112654 -0.3165044 -0.5007852 0.32671815 -0.10179269 0.017226394 -0.114639044 0.15992172 -0.04856759 -0.21601994 0.093773395 0.47489455 0.103221424 0.30104765 0.21940045 0.071872465 0.32993406 0.17820424 0.130566 0.13461067 0.21891995 0.32711825 -0.24112463 -0.13097435 -0.019034192 -0.022855215 -0.1696265 0.20182347 -0.0060062725 0.11214492 -0.29863545 0.28950232 0.17509256 -0.121754095 -0.2437378 0.15972906 0.042313334 -0.14252062 -0.076391086 -0.29867285 -0.16513075 -0.37322903 0.11050907 0.020886408 0.27788016 -0.15313336 0.053668316 0.2621672 -0.30909732 0.17067735 0.03490264 -0.21330604 0.14172773 0.17204961 -0.19097683 0.19856627 -0.19168577 0.31296945 0.085745886 -0.05033422 -0.012905128 0.2210379 0.010081351 -0.0920308 -0.23740827 -0.2301794 -0.28221947 0.2858684 0.503244 -0.25751823 0.30478007 -0.0911806 -0.003463289 -0.22683603 -0.8039365 -0.15781683 0.23209837 -0.04949749 -0.62875146 -0.34295014 0.02023437 0.0860989 0.074303605 0.48484325 0.45447394 0.12739111 0.13080433 0.17112961 -0.035090923 -0.1480638 -0.20387524 -0.08840128 -0.14999728 -0.06774521 0.15975922 0.17221878 0.25410417 -0.44765335 0.13870902 0.09272442
172 -0.1151546 -0.39390704 -0.40580335 0.22756745 -0.078396745 -0.15223338 -0.13737805 0.15036303 -0.17711025 0.11573617 0.40883628 -0.12418807 0.12044277 0.00662869 0.23246238 0.18160798 0.29123732 0.0021974759 -0.091061726 -0.19995531 -0.30358532 0.12919162 -0.21374573 0.06038393 0.061613843 -0.08366991 -0.32773894 -0.04514238 -0.22320217 0.030989151 0.1416062 -0.13834733 0.010582672 -0.15352432 0.017943574 0.11564339 0.19519809 0.050972108 -0.44032535 -0.06629981 0.014523521 -0.29096177 0.094654724 0.060706098 -0.04508524 0.12326512 0.054021236 -0.01749538 0.21399903 0.022707187 0.10492485 0.00031916474 -0.19969785 0.11302884 -0.15620133 0.34557888 0.19897974 0.106342785 -0.18775345 -0.28047574 -0.55513746 -0.21098985 -0.10576189 -0.046332058 -0.1790898 0.26922882 -0.2687412 0.5141894 0.18697453 0.1608169 0.26060066 0.5132319 0.12315622 -0.26199228 0.13260396 0.1891296 -0.013534728 -0.14460358 -0.043804172 0.026716877 -0.16199341 -0.35808054 -0.09303261 -0.33745778 -0.026688987 0.10809397 -0.097270824 0.2759062 0.32447395 0.01338458 0.31104356 -0.24006726 0.051854283 -0.05086162 0.20052305 0.08889238 0.046699043 0.12995395 0.20702687 -0.26171812
44 0.19434485 -0.21589914 -0.31927472 0.094674855 0.1330029 -0.45607227 0.5752092 -0.18533689 0.1138941 0.4005881 -0.38439134 0.22322544 0.4484955 0.017277991 0.3397988 0.35383278 -0.019828312 -0.20080097 -0.18752249 0.076746315 -0.0790462 0.14378756 0.36491317 0.06837436 0.061459947 -0.32892933 0.030967932 0.07809134 -0.20233612 0.13293171 0.025125911 -0.20724024 -0.20933102 -0.07035253 -0.39208004 -0.10339609 0.21688955 0.23593397 -0.34270465 -0.014661102 0.23575144 0.018212307 -0.11831529 -0.15046804 0.24789715 -0.4117307 0.2584719 -0.065139554 -0.20186873 0.062757745 0.27193785 0.17831902 -0.16585405 0.09903533 -0.19904631 -0.3375212 0.07240592 -0.05050416 -0.058160488 -0.23705222 -0.09055243 -0.22294892 -0.4142839 0.08092164 -0.09347407 0.47871223 -0.2221338 0.11670051 0.18056765 -0.08352474 0.6576556 0.5060545 0.0021560155 -0.12000543 -0.24191678 0.16141723 -0.17002723 0.03685969 -0.21781781 -0.1153754 0.0077338247 0.1469717 0.07805985 -0.3961101 0.53591007 0.016764564 0.029216915 -0.341339 0.07022633 -0.22620943 0.089296706 -0.23869644 -0.061915003 -0.37506413 -0.13926642 0.29747555 0.018145809 0.15879107 -0.11237131 -0.4722297
189 0.23484336 0.11255485 -0.28047702 0.20669824 -0.22784224 -0.32860082 0.012196547 0.3896958 -0.30709866 0.4388308 -0.19956191 -0.036371507 0.18642473 -0.106345885 0.10789129 -0.3889169 0.28952107 -0.10478656 0.12513578 0.35150734 -0.28155568 0.33538258 0.20688394 0.034473263 0.07648446 -0.12445901 0.06523108 0.03698622 0.057294756 -0.03220742 -0.43656233 0.08697286 0.017160764 0.3290871 0.034398783 0.40883186 0.18104218 -0.068103015 0.47014293 0.04622098 -0.041360598 -0.36557272 -0.03175515 -0.18861897 0.055832155 -0.10161251 -0.027431982 0.1455843 0.11641875 0.017522234 -0.120729156 -0.03152196 -0.106909916 0.2737311 0.19244878 0.13468653 -0.15635388 0.012221152 0.08099152 -0.26285398 -0.19253503 -0.21775046 0.1914493 -0.1294157 -0.13090567 -0.10292907 -0.20839868 0.1942825 0.066196546 0.47277826 0.37399435 -0.20343016 0.13707153 0.26823944 -0.6238751 0.0039235293 0.24058785 -0.2657866 -0.1829985 0.2313263 -0.10028644 0.039999526 -0.1930144 -0.38093933 0.4919512 -0.30050072 0.20926344 -0.0070984713 0.30000362 -0.11609194 0.38655853 -0.053231537 0.3287559 -0.14054526 -0.048512094 -0.26938036 0.24553232 0.061817527 0.11348492 0.29920515
81 -0.17001271 0.008336703 -0.5750358 0.5301127 0.12546888 0.5004885 0.21220663 -0.38318235 -0.036547065 0.2093203 0.30703184 0.6873188 -0.02304563 0.101080656 -0.20001848 -0.24623325 -0.014013944 -0.29905072 -0.0069386186 0.24940962 -0.042840037 0.25915533 -0.095591746 -0.15198648 -0.14832555 -0.34809887 0.36688444 -0.14911658 -0.053387992 0.06911033 0.082939394 -0.17528889 0.12668206 0.12881376 -0.26032883 -0.12881371 0.14578347 0.31390736 -0.2016388 0.42788857 0.11267911 -0.017442811 0.1658126 0.055269223 0.3254761 -0.124808714 0.51213765 -0.117614456 -0.35730436 -0.068988875 0.19935296 0.30297875 -0.05753136 -0.056690022 0.21990737 -0.39759701 -0.10049824 -0.18096328 -0.14996466 -0.07118695 0.17179194 -0.21126251 0.12550867 0.14710185 -0.12408767 0.18530339 0.08708783 0.34455025 0.124957174 0.13409057 0.1350238 0.43712443 -0.14075564 0.009441783 0.05447109 0.13443182 0.16939977 -0.16937877 -0.27669367 0.1389875 0.3831942 0.24582112 -0.054978695 0.09049344 0.38512126 0.22790876 0.19666162 -0.21916668 -0.14512816 0.057843443 -0.25288057 -0.1467843 0.03453794 -0.28065407 0.16230172 -0.20309567 0.12182538 0.33115342 -0.254205 0.06690787
614 -0.5179325 0.048065674 -0.2822116 -0.29451883 -0.13953498 0.23707215 0.467152 0.3569239 -0.2737427 -0.4737554 -0.16598313 -0.49853915 0.18940939 -0.61303246 0.8675759 -0.008577268 -0.07755116 -0.4479779 0.54357904 0.38895 0.38924244 0.12631157 0.11930736 0.06516089 0.15830615 -0.3339679 0.12646934 -0.39496642 0.47287285 0.09582235 -0.49022615 0.112550646 0.13438158 -0.24392435 -0.13845453 -0.34824783 0.07835717 0.3729494 -0.77346635 0.19775394 -0.7184093 0.24510838 0.5540374 -0.49404365 0.5552922 -0.45084065 0.7967125 0.1339684 -0.07238384 -0.15617777 0.4222723 0.07690846 -0.053013794 -0.13729839 0.101688534 0.42813838 -0.5027651 -0.5265937 0.6921347 0.41963738 0.28835887 -0.6579172 0.1648745 0.011724558 -0.44987315 0.007944397 0.93686897 0.4743458 -0.42318028 -0.31956357 0.24608894 0.10533471 -0.5998987 -0.5517459 -0.13169707 -0.5262417 0.11851007 0.2075376 0.21528897 0.14070642 -0.08000842 -0.4070519 0.331622 -0.5176315 0.32624784 -0.11279911 -0.2977264 0.41526017 -0.03232967 0.72993165 -0.13924974 -1.1621187 0.03798135 0.28346628 0.28535262 0.6967782 -0.3845258 0.48509866 0.2551411 0.41804272
214 -0.20136487 -0.40262428 0.25458542 -0.25901416 -0.055136472 -0.17458434 0.34470332 -0.10223164 0.4497092 -0.5785491 0.35964668 -0.03055812 -0.12875248 0.0059330896 -0.37156275 0.16107677 0.24937145 -0.009152901 -0.20403495 0.82075524 -0.2807685 -0.16975616 0.2227831 0.12010853 -0.29780394 0.2262043 0.5762418 -0.59202623 -0.4354295 -0.23468961 0.16390969 -0.40750587 0.07579504 0.12645383 -0.27289128 -0.2711475 0.39192337 -0.32318667 0.29308045 0.87583375 -0.22659172 0.054767963 0.28851464 0.653485 0.32794538 -0.28339797 0.23979364 -0.23792985 -0.29176828 -0.10310578 -0.0057042013 0.20409259 0.36155155 -0.119284004 -0.32192263 0.10371833 0.31529358 0.1715374 0.12907079 1.1775928 0.0226375 0.326526 0.49304065 0.14212015 -0.48584488 -0.9868106 0.6752903 0.7267094 -0.2577621 0.19461474 1.09792 0.0033395793 0.49265268 -0.27493185 -0.622017 -0.3231608 0.41465914 0.41632146 -0.9521639 -0.2764691 -0.24542034 -0.13279715 0.20421188 -0.10635447 0.3858979 0.096072376 -0.11628529 -0.21455216 0.0994067 -0.074900314 0.47695893 -0.044771634 0.052943185 -0.5549677 0.3123953 0.25861716 0.25283045 0.8349061 0.18365437 0.41925392
