1052 20
537 -0.37455186 0.24312831 -0.30823398 0.29717776 -0.10520521 0.1896954 -0.14837871 0.05198997 -0.08177069 -0.025810283 -0.24643193 -0.5726969 -0.15176357 0.56612825 0.21578398 -0.02977709 -0.20796506 -0.016722443 0.088366054 0.53093505
339 -0.034707516 0.389824 -0.26240385 0.022026647 -0.23683734 -0.057196796 0.23144878 -0.44119635 -0.19076589 -0.073295005 0.18134494 -0.2410939 0.07500488 0.8054494 0.42452106 0.066069484 0.0238608 0.08627592 0.12038452 0.21617281
46 -0.35122865 -0.026064511 -0.94870496 -0.6505719 -0.7845552 -0.050256517 -0.387437 -0.19396853 1.2074031 0.35810867 0.283528 -0.066955976 -0.45673993 0.29246035 0.5596576 -0.93587714 0.12838066 -0.90419424 2.013724 0.26677737
92 -0.25142103 0.20586978 -0.62060314 -0.53981483 -0.23330231 0.106358305 0.031524148 0.12222642 -0.051775657 0.14905575 -0.0856694 -0.06360086 -0.07427933 0.4637329 0.5523182 -0.3928159 0.6514485 -0.7176635 1.5975326 -0.074156
24 -0.5119224 0.7489617 0.28796467 0.35119975 -1.2109764 -0.57510275 -0.0904377 -0.061115492 -0.4212184 -0.21896578 0.030405965 -0.05947858 0.005496943 -0.17609699 0.31497836 0.301328 -0.3962104 -0.30697206 0.14031866 0.7469145
9 -0.60011834 -0.20511392 -0.20476854 -0.09776127 -0.111474216 -0.6613689 0.16237742 -0.12789726 0.018164396 0.5195689 0.24684632 -0.17380428 0.31668705 0.37749428 0.11751615 0.6500057 0.22868079 -0.34107175 -0.36335507 0.09504
5 -0.18436071 0.0522606 -0.49982396 0.5376518 -0.35877955 -0.60002685 0.045349672 -0.345983 -0.27453497 0.19789456 0.76422757 0.10508235 0.18690854 0.18202348 -0.6718926 0.07933851 -0.35640696 -0.36149496 0.06866408 0.86861604
377 -0.3168031 -0.029438037 -0.762235 -0.02171145 0.20645343 -0.49325493 0.22021094 -0.66719747 -0.57150984 0.14013213 -0.036113698 -0.038482394 -0.30960447 0.20838593 0.17312685 0.06924112 -0.10717795 -0.1450965 0.06446668 0.18832514
244 -0.30444792 0.08210685 -0.030169802 -0.18674849 -0.14355186 -0.22137272 0.17264713 -0.40199158 -0.23675872 0.4942088 0.14089288 -0.3296783 -0.5115799 0.12293199 -0.19429928 0.7861451 -0.3091719 -0.3278801 0.16686454 0.15257567
742 -0.09413456 0.48521945 -0.3490295 -0.35729414 -0.024924621 -0.16974364 -0.24566838 0.032892946 -0.27444202 -0.2513168 0.14372677 0.23065387 0.0723879 0.46563864 0.079082206 0.043082595 -0.3865431 -0.65265894 0.49549145 -0.11569451
301 -0.39412457 -0.097767144 0.0014338408 -0.30696884 -0.13174073 -0.5755271 0.4219449 -0.47415242 -0.034664433 0.4038731 0.24268125 -0.18889436 -0.29040396 0.30817062 0.3099384 0.13635156 0.055243608 -0.33589414 -0.20959373 0.13984403
37 -0.44091707 0.19350895 0.2386009 0.060389053 0.30136243 -0.14155155 -0.10680207 -0.28499418 -0.017783636 0.19589601 0.22631964 -0.30123854 -0.53040355 0.49481645 -0.1263201 0.055794857 -0.20888464 -0.25412267 0.34654155 0.04319022
504 -0.5114869 -0.36823034 -0.041872907 -0.034267552 0.08962391 -0.51374185 0.3844799 -0.25175408 -0.051266912 0.31265885 0.37524152 -0.20981434 -0.09294423 0.43924078 0.5505214 -0.26265302 -0.75035447 -0.045587465 0.06669336 0.051524777
463 -0.37254933 0.19732243 -0.10434607 -0.4364631 0.2610452 -0.33790627 0.0004593701 -0.6749285 -0.10064753 0.35686174 -0.01990812 -0.23861025 0.001575355 0.42186254 0.35038772 0.41781664 -0.028452195 0.17547075 0.121024616 0.017769204
623 -0.9505994 -0.25019464 -0.18480457 0.1293697 0.07181317 -0.8181576 -0.54655427 0.11437351 -0.5748205 -0.15488902 0.23445264 -0.23005763 0.30990407 0.22388369 0.58937556 0.20096141 0.077613086 0.12840474 -0.05801563 -0.113861784
660 -0.33367997 0.024076495 -0.07653787 0.32662928 0.06839652 -0.71430945 -0.17906755 0.6304024 -0.07328982 -0.4316374 -0.26068905 -0.53360516 -0.15789814 0.70072156 0.22462852 0.14477697 -0.53653926 -0.222015 0.31524792 0.31543955
620 -0.20932037 0.5267763 0.3820316 -0.463007 -0.15975495 -0.48700863 -0.27197286 -0.045291726 0.14876251 -0.16738679 0.77899444 -0.021590328 -0.2884892 0.2969098 0.23865665 0.5324241 0.18031102 -0.015759924 0.0076595414 0.5888998
13 -0.61216843 0.16474481 1.5739546 -0.5295646 -0.5348071 -0.33454055 -0.047313444 0.11234805 -0.8321455 1.3296195 0.23582612 -0.24438469 -0.9608723 0.947565 0.17314541 -1.6582257 0.10699296 -0.32465264 0.18977104 0.6632694
90 -0.5612996 0.6223523 0.06744757 -0.23864628 0.45077682 0.24468979 -0.17589413 -0.6164844 -0.072554156 0.31884795 0.25822935 0.47186336 0.06180389 0.6128873 0.13057026 0.15723 0.24830718 -0.029152459 0.0416394 0.84641623
736 -0.2978176 0.4213967 0.15631945 -0.21424471 0.5247157 -0.20020962 0.01780184 -0.22319171 -0.58200324 -0.3428198 0.2588324 0.024949277 -0.07553176 0.4846273 0.12587975 0.40816742 -0.120713755 -0.23089655 0.5213916 1.4597583
570 -0.2722631 0.20485324 -0.37131077 0.23308966 -0.148648 -0.60851985 0.5053779 -0.08887167 0.14668423 -0.35168117 -0.17633185 -0.0744236 -0.47548872 0.5781266 0.08206138 0.16320045 -0.4917255 -0.47527343 0.54677933 0.12272335
28 -0.10828274 -0.293164 -0.36507353 -0.12502354 0.33136865 -0.66770905 0.23900156 -0.6665462 -0.313723 0.23758788 0.34111983 -0.1856118 0.17671034 0.55225056 0.24887365 -0.088083856 -0.03733434 -0.6172721 -0.005519712 0.10308698
411 -0.26644278 0.2010695 0.15069157 0.021929836 -0.32896957 -0.59504396 -0.573137 0.24697772 -0.31936803 -0.24419479 0.8035178 -0.080922395 -0.27352244 0.013046642 0.18966469 0.19764246 -0.8388503 -0.13438377 -0.15488558 0.9713287
104 -0.25555477 0.13001145 -0.15686771 -0.55274826 -0.065934815 -0.37704197 0.08217695 -0.30934563 -0.11826655 0.42307693 0.204863 0.08127435 -0.060850017 0.44949538 0.05478004 0.4150997 -0.1248157 -0.187856 -0.304915 0.09517386
250 -0.4660258 0.04317212 -0.014042708 -0.34249222 -0.04814699 -1.044995 0.3485924 -0.57614124 -0.09808626 0.25875533 -0.21544978 -0.22820203 -0.54448754 0.25307038 0.11593848 0.20513755 0.027311765 0.43806204 0.1717536 0.10448883
35 -0.0581146 0.23360641 -0.91049254 -0.025009183 -0.35578033 -0.23110697 -0.5600018 0.29541063 0.89173937 0.72410685 -0.029706033 -0.9350178 0.12870108 0.5820635 0.2604746 -0.7471637 0.93020386 -0.24569042 0.6226558 0.18575493
163 -0.039126355 0.105504446 -0.259471 -0.4136879 0.5646212 -0.24511127 0.034771778 -0.25649157 -0.23558939 0.46587336 0.25728005 -0.2293193 0.23868042 0.37062642 0.37026352 0.43909487 -0.30580604 -0.23867734 0.33169892 -0.006787295
54 -0.14145654 -0.22616717 0.024304623 -0.34968913 -0.9708513 -0.27675885 0.28618282 0.60251844 -0.88025886 0.7571081 0.2693253 0.04001741 -1.0443019 0.8653484 -0.2574819 -0.78038764 0.49826786 0.11604983 -0.05248624 0.7105685
596 0.13792856 -0.36159036 -0.3039482 0.24764656 -0.008273498 -0.41434756 0.4896503 -0.22524574 -0.968251 0.27779347 0.1863596 0.4805899 -0.24404131 0.85007465 -0.47727844 -0.43058667 -0.18553178 -0.07582815 0.43017992 0.6821753
22 -0.2984352 0.09331607 0.37561268 0.01421436 -0.29424238 -0.84453315 -0.05328289 -0.6257953 -0.07841511 0.15898667 0.16228686 -0.30466145 -0.6826679 0.33359534 -0.352447 0.59642875 -0.15060768 -0.72525656 0.39125165 -0.31174666
39 -0.7353699 -0.078958556 0.28760114 -0.36800718 -0.014291064 -0.8274 0.48062116 -0.31258005 -0.07348536 0.5472951 -0.0141550135 0.35574624 -0.3850745 0.38720164 0.23797342 -0.19959132 -0.25973117 0.09384981 -0.10072662 0.02016703
585 0.037146065 -0.633063 -0.5905902 -0.12717183 0.03352982 -0.46758586 0.24766713 -0.3410701 -0.3716017 0.120110326 -0.019383162 0.03749565 -0.30575445 0.9876404 0.16598687 0.06300897 -0.38295573 -0.13473135 -0.2748258 0.36856785
679 -0.2735012 -0.65819323 0.13944751 -0.25114214 -0.55092424 -0.47787538 -0.5263792 -0.11908764 -0.14055271 -0.32533205 0.35938105 -0.033782545 -0.70891136 0.6374161 0.31105027 0.6725701 -0.17883085 -0.17160352 -0.03720684 0.123061456
141 0.061916042 -0.48496372 -0.34946376 -0.29278785 -0.73544204 -0.39316547 -0.12487627 -0.18094082 -0.34173203 -0.079672255 -0.102272816 -0.21434687 -0.08981438 0.8815282 0.09935443 0.24915317 0.36457506 -0.25393832 -0.3367958 0.15369754
255 -0.16811885 -0.03938998 0.2160154 -0.31981415 -0.50665134 0.2444154 -0.3318025 -0.3137934 -0.90779215 0.7633763 0.2055137 -0.67533934 -0.24213202 0.18690118 -0.41385782 1.2000575 -0.5385973 -0.5392122 0.4547124 0.23696569
95 -0.13007018 -0.51010966 -0.344588 0.43663844 0.22287169 -0.72910005 0.54626536 0.1966262 -0.2037654 -0.001083873 0.101036265 -0.071496464 -0.24856189 0.72741747 0.03334315 -0.1398866 -0.6617675 0.053278156 0.6633099 0.30419078
152 -0.27231267 -0.31363115 -0.14233164 -0.68693376 -0.7685072 -0.8351421 0.49622715 -0.1815399 -0.39137465 0.59527946 -0.47751984 -0.27821803 1.2129606 0.20899604 0.19237809 0.6808989 -0.3169321 0.26190993 0.48444 1.1402688
100 -0.39134467 0.0584118 0.36019522 -0.6095085 0.14217956 -0.7542432 -0.10268461 -0.36419058 -0.015953457 0.30225602 -0.022615384 -0.025740245 -0.12205044 0.5998357 0.11925579 0.57183444 0.3544793 -0.2517167 -0.2010249 0.093428195
132 -0.59753615 0.61343986 -0.14292048 0.088020325 -0.09826238 -0.42078495 0.0006023605 -0.33394632 -0.13271314 -0.014050011 0.047138523 -0.2775271 -0.34712547 0.32576078 -0.17633367 0.17029852 -0.46514112 -0.13815562 0.35437098 -0.23944081
136 0.39369074 0.17674972 -0.3131488 0.23474851 -0.11325068 -0.48812118 0.6727967 -0.3071377 -0.21787989 0.86886835 0.8010872 -0.6645574 0.4840218 0.30975816 0.99596083 0.1783562 -0.54433954 -0.6677506 0.3110118 -0.38174906
251 -0.06761269 0.42774895 -0.20510623 -0.72573394 -0.22889358 -0.06433402 -0.40203622 -0.24972995 -0.11513939 -0.003585381 0.50489336 0.01103798 -0.30716643 0.32629666 0.34132695 0.74259603 -0.3749574 0.146774 0.32239377 -0.13351753
513 -0.27086917 -0.010501339 0.22215834 -0.39407414 0.10288236 0.036706343 -0.12734626 0.11489704 -0.40547645 0.46484607 0.010761228 -0.4773886 -0.15106584 0.28632256 0.21617363 0.755784 -0.3554967 -0.6204535 0.034937963 0.20195754
60 -0.41141933 -0.41132468 0.03859513 -0.1597386 -0.14925902 -0.52756864 0.0033988957 0.01207687 -0.27068993 -0.23079053 0.076131046 -0.25088817 -0.32918876 0.7327895 0.6348472 0.015670955 -0.35742876 0.03987017 -0.10292804 0.0384441
666 -0.80425566 -0.31695005 0.056645982 -0.5904798 -0.1558931 -0.9637676 0.10244578 -0.19062331 -0.14796618 0.15839483 -0.041214198 -0.10362438 -0.096369185 0.5276931 0.11331249 0.12760408 -0.10010482 0.03395957 -0.16552094 -0.11066328
45 -0.83021015 0.6409726 -0.032974873 0.16313508 -0.1574477 -0.50335795 -0.75545996 -0.3376487 -0.5315305 -0.40547594 0.6183075 -0.08336487 0.23066323 0.11863497 0.16891177 -0.24011314 0.2701341 -0.8379876 0.15016682 -0.07167191
0 -0.4967683 -0.36617288 -0.774721 -0.035823043 -0.23568498 -0.37103924 -0.3182733 -1.055349 -0.98173803 -0.059353046 0.20867608 -0.30661342 -0.021042548 0.97940695 -0.038304735 -0.6159863 0.7245134 0.090606116 -0.00013008059 0.15728572
79 -0.44158345 0.12874943 -0.58993083 -0.11983919 -0.15356067 0.30380967 0.33871445 0.82873917 -0.4229392 0.020429445 0.2536314 -0.13002096 -0.2858263 0.75997627 0.043794088 -0.10159347 -0.27761385 -0.46257642 1.0117333 0.09791609
396 -0.63900226 0.6455278 0.03043624 0.19740793 0.35315207 -0.13361898 -0.37131825 -0.33406106 0.050722525 -0.17916737 0.45507625 0.14540812 0.11947619 0.4062086 -0.3134443 0.012152955 0.03920775 -0.46508187 0.4113389 0.9086805
712 -0.20882201 -0.34715232 -0.44496074 0.43624404 0.17912637 -0.59816635 0.45206487 -0.15023229 -0.17472978 0.62938744 0.78355426 -0.18837428 0.20554544 0.13315554 0.08206164 0.32557324 -0.342065 -0.29006815 0.28014252 0.08514817
322 -0.9593622 -0.3943894 0.17478941 0.31865025 -0.60098416 -1.5109891 0.40928754 -0.20887272 -0.45805684 0.6314027 1.0164138 -0.22579832 1.1701545 -0.85624 0.36549574 -0.34443358 0.2136698 -0.12064394 1.1995867 2.6103685
263 -0.48658615 0.36873922 0.03579024 0.5835524 0.55314577 -0.1578488 -0.11712121 -0.32731166 -0.55475473 -0.3188402 0.31079295 0.11241136 -0.2351538 0.54726905 0.6103453 0.26405767 0.04768528 -0.26045483 0.35744685 0.39465204
274 -0.21396486 -0.3974982 0.33527753 -0.13320409 -0.28922 -0.265953 -0.23424374 0.09016426 -0.28112394 0.06607594 0.23790237 -0.49483344 -0.43449 0.12243256 0.42840847 0.4809983 -0.70318645 -0.3248904 -0.032838896 0.7687493
484 -0.29846302 0.4861795 -0.108478025 -0.50041056 -0.54664654 -1.1355813 0.64206123 -0.47335303 -0.23090494 0.35865617 -0.35967636 -0.0496812 -0.39764452 0.225632 0.23380706 0.066400744 0.24175568 0.6442371 0.17394589 0.10825227
295 -0.5596751 0.5128091 -0.39712355 -0.12535647 0.1889784 -0.29900107 0.23260173 -0.5093511 -0.34447452 0.36222133 -0.20519848 -0.053837758 -0.008189327 0.2364683 0.35474896 -0.10352195 -0.013419846 0.25206745 0.098111585 0.020925106
7 -1.9062874 0.007570549 -0.7422681 0.62201595 0.67595404 -0.717173 -0.27843872 -0.19077662 0.24464965 0.48433432 0.7432698 -0.11955994 -0.41475478 -0.13028993 1.2780465 0.50222856 0.14911957 0.20450601 -0.36408845 0.15780362
150 -0.87655395 -0.27680743 0.15479884 -0.88083047 -0.15737091 -0.57973593 0.46323085 -0.6216247 -0.2495397 0.43892276 -0.09166635 -0.29514313 0.17371762 0.46704516 0.695897 0.016855285 -0.14183733 -0.19267625 -0.20812775 0.376332
392 -0.54345274 0.5857656 -0.45462617 -0.59639895 -0.10959096 -0.34995788 -0.09731698 -0.31470245 -0.33044764 0.31966108 0.21723953 -0.43874106 -0.40963912 0.14695266 0.13494718 -0.15762077 -0.88887644 0.6296661 -0.18398184 0.3348668
29 -0.45132527 0.4667367 0.38036618 -0.06803509 0.2891738 0.033713195 -0.05751533 -0.05163401 -0.3077607 0.342353 -0.06970167 -0.40605712 -0.13988838 0.5682199 0.24780309 -0.1518236 -0.025544416 -0.60439163 0.38767192 -0.27247033
577 -0.3894728 0.3664455 -0.7646904 0.30451125 -0.25092408 0.110592954 -0.14182496 -0.21503198 -0.09651339 0.259221 0.5143762 -0.7233248 0.0639967 0.35612103 -0.08428352 -0.07216264 -0.75740594 0.05579563 -0.28134024 0.8625142
252 -0.30414903 0.17349242 -0.08593388 -0.5632922 -0.18122311 -0.11852806 0.1377352 -0.25416347 -0.08436408 0.23538469 0.29282382 -0.37648204 -0.08864102 0.27271453 0.16793372 0.2605839 -0.5377422 0.08421004 0.04314833 0.4381782
273 -0.70762753 -0.40358835 -0.1875809 -0.17780522 -0.08866471 -0.8981912 0.5961617 -0.25375676 0.01991519 0.3994634 0.5660783 -0.3097381 -0.14691868 0.18752 -0.058968898 0.16539206 -0.40953332 -0.13300239 0.18523276 0.2067244
385 -0.12939991 0.5213866 -0.7502784 0.23111458 -0.1496442 -0.19268513 0.6116379 -0.051808644 0.007550091 -0.1442066 -0.16627778 -0.30271703 -0.34225968 0.51723856 0.22849363 -0.09227115 0.01733751 -0.18294592 0.7870783 0.21654601
602 -0.36941704 -0.31063396 0.12277037 -0.12835445 -0.01838291 -1.0546188 0.5178136 -0.05072691 -0.2580143 0.19304016 0.12693875 -0.07538224 -0.23493463 0.50827456 0.56685627 0.11080793 0.029171998 0.053513646 0.004399876 -0.016298404
86 -0.31749415 0.39436775 -0.5564752 -0.03957919 -0.23449077 -0.29124433 0.167053 0.48470014 -0.21249196 -0.40909854 -0.10220852 -0.23154907 -0.28370935 0.74608374 -0.114658356 -0.028716829 -0.34549975 -0.5156357 0.9974017 -0.18528536
21 -0.37514207 0.22046201 0.3527277 -0.052104045 0.11818461 -0.5653082 -0.14261033 -0.60702693 -0.3544322 0.0891283 0.47481567 -0.29990214 -0.39513993 0.63219106 -0.04338979 -0.40946567 -0.022981018 -1.0184978 0.10846876 -0.29722145
496 -0.2877611 -0.021363856 -0.23692942 0.4472577 0.045949433 -0.82940006 0.4245061 -0.6926978 -0.043053936 0.57270265 0.22820632 0.32421222 0.17626464 0.5983028 0.0115990825 -0.65646034 -0.35868168 -0.5815941 -0.3573191 0.1707631
260 -0.36862645 0.1466652 0.08254214 -0.0149735445 0.2796487 -0.1363118 -0.1346038 0.080756195 -0.32896885 -0.085718505 -0.014527218 -0.25316706 -0.025079092 0.43661168 0.20812483 0.4042366 -0.23535243 -0.24759743 0.31789738 0.32993355
57 0.09364849 0.053141944 0.2893473 0.06257087 -0.11368624 -0.4328231 0.758781 -0.13635723 -0.36279112 0.11961703 0.5171988 -0.17986092 -0.47555768 0.55002904 1.4201423 0.24570191 0.065326676 -0.48427203 0.06136083 0.21220055
296 -0.5117807 0.69620675 -0.5352053 -0.45791104 0.25418523 0.03619306 -0.09766484 -0.38926554 -0.44445354 0.4556214 -0.11953075 -0.3276625 -0.108141534 0.10094373 0.7928083 0.16454716 -0.59249586 0.7948192 0.19827873 0.23390839
334 -1.0339215 0.08923691 -0.58035934 0.07399686 -0.28430763 -0.7612435 -0.09026547 -0.3299179 -1.1434186 0.07027764 -0.68343854 -0.19237958 0.62266374 -0.1093395 0.33758458 0.055327993 -0.27661628 -0.49072614 0.093383424 -0.001754015
89 -0.563171 0.36778808 0.24782248 -1.0139548 0.026044302 -0.10285621 -0.15968521 -0.3603448 -0.117985085 0.42425007 -0.06728593 0.89143276 0.06454051 0.90523267 -0.008192217 0.37328303 -0.2514437 -0.37542123 -0.22312492 0.2974408
751 -0.3009252 0.20355621 -0.096772164 -0.9787335 -0.34413087 0.51550514 -0.54990435 -0.10439798 -0.5616848 0.32675582 0.6463301 -0.29569355 -0.14309375 0.3518745 0.0009870543 0.62198275 -0.88997513 -0.45399016 0.088115975 0.25499085
194 -0.95301276 0.26565054 -0.6852983 0.07785725 0.6227038 -1.1900984 -1.0897611 -0.07816806 -0.08886714 -0.05884939 0.4577417 -0.8380266 0.1115848 -0.1176757 0.16642244 0.23653397 -0.48385292 0.29662624 -0.1005001 0.4116994
399 -0.03840571 0.17818601 -0.483111 -0.1934873 -0.026549302 -0.335026 -0.17129615 -0.4839866 -0.19222039 0.02032172 -0.21011056 -0.40885332 0.7180203 0.5833368 0.36077392 -0.024135808 -0.30589712 -0.46984327 0.12087689 -0.032789513
12 -0.8180567 -0.060898867 -1.2559881 0.21087271 0.08510511 -0.7873311 -1.2135314 0.62459874 1.141825 0.55710965 -2.68029 2.8451319 -0.403934 1.7012867 0.075512715 1.2386804 1.8321652 -1.9921285 2.7421381 1.1132472
336 -0.711862 0.46384263 -0.6470229 -0.16837092 -0.26203987 -0.11777449 0.13207714 -0.26965758 -0.3923439 0.7070798 0.11212262 0.023963977 0.022642652 0.39003518 -0.07715214 0.38808516 0.15124992 0.1432288 -0.5794044 0.1630629
318 -0.39939553 -0.26714683 0.15836874 -0.36261892 -0.34932193 -1.4360702 0.3834526 -0.114216045 -0.53486025 0.06045217 -0.27319202 -0.05219666 -0.00590818 0.46100003 0.5573796 0.34222734 0.22903429 0.37869176 0.19847573 -0.070770845
256 -0.32629755 -0.2533922 -0.16712853 -0.3479827 0.054994375 -0.28617284 0.23614855 -0.04974187 -0.13613659 -0.025963921 0.103209116 -0.24014911 -0.3870496 0.22995275 0.07730211 0.79303074 -0.3151614 -0.38366184 0.27242932 0.61976534
77 -0.69700986 -0.067248665 -0.6390682 -0.38286793 -0.063475296 0.40886268 0.21133946 0.81815803 -0.53107345 0.14282799 0.20564766 -0.19388852 -0.6218637 0.704526 -0.13561125 -0.08543218 -0.23847774 -0.39604416 0.990821 0.13140331
705 -0.34805897 0.4492992 0.48325175 0.03825103 0.71575 -0.54308563 -0.23814033 -0.014237688 -0.2381211 0.07045917 -0.0060064294 -0.2986258 -0.19324659 0.7096952 0.21871725 0.3155877 -0.017554691 -0.5011791 0.31282324 -0.109148085
172 -0.24600656 -0.04157307 -0.44218376 0.24238272 -0.14643012 -0.20543489 0.3187217 -0.4114575 0.02856441 0.23594554 0.0987528 -0.21093349 -0.118305735 0.7665481 0.15350424 -0.22539918 -0.2848731 -0.2346856 -0.45822 0.4522535
44 -0.18942429 -0.037628744 -0.33454272 0.057486854 -0.06834423 -0.7410853 0.16027969 -0.93721473 -0.17044602 0.30945793 0.22784306 -0.22043869 -0.20843774 0.52044654 -0.0064147124 -0.54339427 -0.16764553 -0.87497556 -0.15832773 -0.2231008
189 -0.5175649 0.31630945 0.116358995 -0.49921736 0.40004978 -0.269258 -0.18897168 -0.25642836 -0.118610494 0.4031984 0.38904607 0.22349845 -0.4125528 0.17954187 0.01898425 0.13624556 -0.6520704 0.013388682 -0.03045429 0.36471352
81 -0.5786762 0.023117578 -0.1927954 -0.0074463603 -0.44965 -0.45087504 -0.43336666 -0.17685682 0.030024797 -0.15700534 -0.36092237 -0.29361537 -0.4956256 0.538717 -0.2004279 -0.14999232 -0.49375975 -0.3973781 0.12057996 -0.39315352
614 0.33330536 0.17110217 -1.2032642 -1.049381 -0.6952129 0.061705958 -0.7977177 -0.024803188 1.8079994 1.0457404 0.68162024 -0.5678436 -0.29611176 0.74165714 -0.14556445 -0.9983865 0.2310686 -0.8527743 0.6274273 0.86640006
214 0.21474843 -0.33668602 0.23195241 -0.7870251 0.47545302 -0.637225 -0.84667516 -0.24174894 -0.35515913 0.82255095 0.49122488 -1.0928575 -0.64657515 0.4636675 -0.6150866 0.059213676 0.34553316 0.39605594 2.1782076 -0.19180974
249 -0.0008217066 0.027767247 0.28101304 0.012616334 -0.18839805 0.22296104 0.08257816 0.18078224 -0.3187663 0.7363985 -0.04946624 -0.95141333 -0.5630581 0.1515982 0.63765574 0.88641596 -0.28296715 -0.50744915 0.0075037577 0.43275
460 -0.014273611 -0.015801528 0.030087553 -0.58010983 -0.46262807 -0.8097423 0.09889122 -0.41925892 0.26808634 0.38882187 0.09890946 -0.22705692 -0.32461202 0.44614977 0.15199906 0.6721903 0.76050824 -0.17585592 -0.44089845 0.48066646
511 -0.3583003 0.087837555 0.83540654 -0.52797025 -0.47099996 -1.0006495 -0.2725792 0.6767702 -1.056883 1.5769664 0.5123007 -0.1949377 -1.0032321 0.9232496 -0.16233326 -1.8689182 0.58199483 0.22260535 0.20620106 0.54027283
626 -0.003023865 0.40267843 -0.10642807 -0.113421746 -0.4957507 -0.64636195 0.44795218 -0.1705686 -0.014821496 0.9559152 0.49394342 -0.18290175 0.42338875 0.46454778 0.74502134 0.35327694 -0.307525 -0.5868551 -0.6418023 -0.3706536
16 -0.78141856 -0.42843133 -0.22998542 -0.3940851 -0.28787398 -0.32873654 1.0479703 0.32216918 -0.2641164 1.2189494 0.448074 0.05367373 -0.5871158 0.39499727 0.042236585 0.05415259 0.3347782 -0.7661389 0.07976607 -0.010149415
66 -0.7101481 0.27128756 -0.6902784 -0.1903022 -0.363955 0.23763484 0.01837914 0.15311243 -0.6388874 0.75575364 0.14840686 -0.30401602 -0.30097193 0.58719754 -0.13706012 -0.31116968 -0.28258076 0.525222 -0.5258477 0.51169235
102 -0.30920437 0.2339725 0.15901095 -1.0011239 -0.07961661 0.2729044 -0.43831778 0.012665899 -0.33516115 0.34638456 0.046429418 0.32472593 0.100611955 0.7176661 0.0002214482 0.4936517 -0.79028946 -0.9232947 0.0035032835 0.22013812
389 -0.15106495 -0.2552672 0.6074754 -0.30011478 -0.5573673 -0.6203427 -0.40859118 0.17484744 -0.36320907 -0.2002781 0.64032006 0.14577204 -0.63295615 0.45640287 0.29531613 0.22809154 -0.086279586 0.17457362 -0.19881567 0.62256205
450 -0.574198 0.6509818 -0.26191884 0.55843294 -0.26142216 -0.25588942 -1.1633143 -0.3942564 -0.72072333 -0.05623689 -0.25353798 -1.4554529 -0.80504066 -0.21660613 0.55585414 -0.8342846 0.6920042 -0.42764872 0.38932407 0.62421304
127 -0.08860019 0.277806 -0.512347 0.2967862 0.22180873 -0.060280293 0.13673949 -0.2969512 -0.27517962 0.2885242 0.022619614 0.5815551 0.121508785 0.5879867 0.0066094426 -0.6146688 -0.24957809 -0.45050827 0.35098878 0.1445371
15 -0.7255108 0.040473282 -0.59361404 0.26963222 0.44314817 -0.5246214 0.15692739 -0.35951087 -0.024387635 0.42463467 0.41471186 -0.1002079 -0.20817515 -0.10390562 0.72027165 0.040409762 0.10862908 0.23734716 0.07259649 0.065140694
186 -0.46670488 0.0550466 -0.72358966 0.23999698 -0.19529094 -0.24838944 0.008450483 -0.80286044 -0.61125386 0.6267423 0.31095925 0.2056946 -0.19024175 0.1256709 -0.46831423 0.6411536 0.039712504 -0.21983089 -0.22246519 0.41484508
325 -0.08638926 0.26533487 -0.3612025 -0.026658343 -0.16626412 -0.4316962 -0.0073202457 0.073648304 -0.1967622 -0.39582014 -0.3979857 -0.27300346 0.20117737 0.6860571 0.28169182 0.19193281 -0.26999658 -0.33939078 0.240163 0.15027563
264 0.11951745 0.36974174 -0.46811762 -0.08363286 0.21933824 -0.5018018 0.39936206 -0.4020596 -0.31534636 -0.46805173 0.17485027 0.12227474 -0.17064057 0.5008954 0.6275775 -0.0305552 -0.22592343 -0.6525081 0.48804167 0.35553
10 -1.2094747 -0.18759327 -0.50508225 0.20448442 0.48399758 -1.0484958 -0.40905592 -0.384042 -0.018201655 0.29469454 0.14001894 -0.15303661 -0.22117513 -0.11086606 0.8722076 0.5684719 0.31361136 0.5050238 -0.15244247 0.18428075
259 -0.06510385 -0.005189384 -0.14178413 -0.24385022 -0.13987847 -0.4701901 0.3234639 -0.70531327 -0.12905109 0.35602713 0.093856506 -0.3586031 -0.3472837 0.18406087 0.06026378 0.4316052 0.17953373 -0.29143268 -0.09636674 0.58630896
667 -0.36846438 -0.24238908 0.17578779 -0.30441588 -0.056867767 -0.53650486 0.29366222 -0.48059642 -0.15490438 0.19452323 -0.16898051 -0.6867204 -0.4275465 -0.0212384 0.27650154 0.34172186 -0.062116086 -0.026266921 0.14949289 1.2128024
737 -0.29840392 0.03285908 -1.2367342 -0.4194063 -0.1673125 -1.2459912 -1.9273381 0.93656725 1.2287296 0.7352511 -3.0315042 3.7987788 -0.6073278 2.1579132 0.4299831 2.2384148 2.4002728 -1.9921074 2.7660747 1.3784631
573 -0.4572458 -0.29559237 0.31132475 -0.44203585 -0.20353939 -1.1647608 0.067535214 -0.291416 -0.27784294 0.21774647 0.045521006 0.018486135 -0.24491277 0.52478725 0.15136601 0.30739298 0.3494972 0.3364338 -0.18477863 0.14200957
32 -1.0374731 -0.3894184 0.008241691 0.79316825 -0.6163867 0.559994 -0.6668054 -0.105641834 0.15957682 0.10738592 -0.5721129 -0.5392212 -0.95803696 1.2032043 0.35285127 0.083916195 -0.40019655 -0.054766666 0.020327643 -0.0029399146
530 -1.5351814 -0.67451817 -1.374382 -0.49585736 -0.29887113 0.06413714 0.41628098 -0.4328889 -0.8502927 0.36446965 0.25720403 0.2841671 -1.9161273 0.19835374 0.14285997 0.9282882 -1.0120392 -0.18926492 0.9255449 -0.11412322
470 -1.1784996 -0.5328477 -0.14869264 0.44921166 -1.121417 0.20667581 -1.0626864 -0.12654458 0.22973101 -0.13166346 -0.4198192 -0.45806345 -1.1943381 1.0471883 0.12524238 0.14510262 -0.25138086 -0.078932226 -0.060888845 -0.23244658
52 -2.0244565 0.16252023 -0.73838884 -1.7026775 -1.8854696 0.5044604 -1.9316998 -1.5980043 -0.55320823 -0.22401568 1.6737515 -0.22055617 -0.23022379 0.006774862 0.8707873 0.22880243 0.20589809 -2.288682 -0.23675446 0.19594184
429 -0.8199753 0.13621673 -0.4765873 0.4271155 -0.4697777 0.21477428 -0.6177192 -0.55666333 -0.9299349 -0.22773938 0.03341676 -1.094023 -0.5684927 0.23227845 0.5218811 -0.4749208 0.7166412 -0.2742942 0.14789303 0.83344054
26 -1.5988686 -0.044582754 -0.42031392 0.80871516 0.13167888 -0.62468326 0.039306276 -0.08322862 0.6694796 0.067903504 1.061569 0.31548586 -0.06966964 0.70647824 0.66431975 0.77732337 -0.1364798 -0.18267298 -0.30233544 0.05811623
579 0.03763221 -0.12959482 0.31381497 -0.17130323 0.04191322 -0.22818239 -0.37812373 -0.49031463 -0.531285 0.5205725 0.304272 -0.66870815 -0.64438504 0.4166279 -0.54171765 0.6974398 -0.06391342 -0.19841293 1.0566026 -0.1498811
522 -0.3951349 0.053267915 -0.76734734 -0.23615742 -0.35746118 -0.6531634 0.04132018 -0.2507673 0.080364384 0.3002131 0.6198276 0.45968047 0.53738475 0.35198402 -0.4433226 0.5410506 -0.18825524 -0.47246236 -0.1841787 0.33457366
526 -0.5799446 -0.13049187 -0.29208058 -0.30150107 -0.29749274 -0.39851362 0.26726145 0.21065104 -0.043564886 0.27169988 -0.4325717 -0.5720208 0.5799496 0.21413824 0.2546552 1.0178664 -0.41795555 -0.25330952 0.026182435 0.8938365
360 -0.21812098 0.38220635 -0.6566185 -0.19622627 -0.25605386 -0.48584643 0.11274047 -0.5770096 -0.28295985 0.108724214 -0.090358905 -0.3371765 -0.24899538 0.17665629 -0.050052967 -0.23563233 -0.26257494 0.4464063 0.009899362 0.39714703
717 -0.29808107 -0.11337757 -0.5012495 -0.29187948 -0.37137836 -0.70057553 -0.075810395 -0.201865 -0.4239955 -0.013037518 -0.52960485 -0.30685875 0.81271756 0.37644708 0.22989821 0.38129893 -0.02880625 -0.43900475 -0.048466615 0.1460062
74 -0.210476 0.4552581 -0.06466779 0.2837354 -0.5538159 -0.21785912 0.18632752 -0.4572777 0.031324487 -0.07091891 -0.23660684 -0.366816 -0.5089308 0.37381235 0.09754217 0.17350738 -0.40851423 -0.48433045 0.09412339 0.1454424
306 -0.07754033 0.47558796 -0.11050075 0.17359704 -0.64301056 -0.5721569 0.40962294 -0.5093847 -0.09433158 0.52208716 0.27006158 0.066751935 0.2583911 0.25805363 0.53303033 -0.11462452 -0.31142935 -0.4561503 -0.54847604 0.06801111
169 -0.32328966 0.1667962 -0.60772353 0.27451828 -0.20463172 -0.24496996 0.39862195 -0.3894365 -0.064371236 -0.031105634 -0.19409563 -0.24185349 -0.13671988 0.6287645 0.27770752 0.016881112 -0.18208203 -0.31533977 -0.13264814 0.2805418
694 -0.97640276 0.5224841 0.011525526 0.60799277 0.30771548 -0.28534487 -0.2182174 -0.15835245 0.098309755 -0.19745746 0.58427227 0.006091495 -0.32490474 0.6211964 0.1906892 0.4925293 -0.07130678 0.0990479 0.4517563 -0.18331262
118 -0.23953526 -0.12955622 -0.117716625 0.5255548 0.02083213 -0.53783613 -0.25509942 0.44275418 -0.23841159 -0.3460274 0.18493783 -0.27987298 -0.05157972 0.55679893 -0.17720957 -0.0029946072 -0.7722194 -0.008108613 0.3095793 0.939068
33 -1.112107 -0.05258653 -0.572313 0.36802113 0.45878607 -0.72354037 -0.68053865 0.07757584 0.050651073 0.19421484 0.28085664 -0.5793817 0.05559919 -0.029925926 0.5883534 0.26376194 0.061427657 0.1924891 -0.25575355 0.10659029
533 -0.06930541 -0.1932744 -0.13837124 -0.5290155 -0.2032167 -0.42535245 -0.104987584 -0.25015143 -0.03070922 0.40168157 0.08714672 -0.3848263 -6.119914e-05 0.59611315 -0.06429142 0.67197114 0.59938306 -0.4561475 -0.04657177 -0.11461418
50 -0.19537361 0.04256948 -0.18571144 -0.031688977 -0.24852465 -0.78039765 0.90202 -0.17002349 -0.21369627 0.20032777 -0.032998566 0.21217461 -0.2650689 0.6581099 0.13170084 -0.06809736 0.11748424 0.15087612 0.24189001 0.15342301
383 -0.21090557 -0.18616939 -0.33987993 0.095157474 -0.106398396 -0.44921243 0.06566044 -0.6998319 -0.46725413 0.5384463 0.422994 -0.21628965 -0.0010526329 0.0936545 -0.3234503 0.6589866 0.025546191 -0.50173026 -0.115634136 0.47809157
805 -1.0096054 0.8964319 -0.1945479 -0.004017611 0.0788726 -0.3384743 -0.24001922 -0.48161325 -0.7235503 0.24471635 -0.21120557 -0.29426607 0.29286188 0.06851976 0.14915787 -0.003338846 -0.044973254 -0.33353284 0.34429595 -0.38520733
270 -0.2632035 0.21914008 0.11635215 -0.29058576 0.15588433 -0.43608567 0.24374092 -0.44510958 -0.010382283 0.025691519 0.50679547 -0.13061371 -0.16081794 0.31453305 0.6801044 0.13985164 -0.033634268 -0.08063028 0.1409699 0.29123992
91 -1.2320173 0.05384649 0.7999901 -0.94208515 -0.45778996 -0.98336667 0.31324786 -0.79030573 -0.35652727 1.0082343 -0.03926583 2.3070788 0.13202468 1.0634049 -0.049209733 0.09656454 -0.5732969 -0.082572974 0.44770452 0.020791242
646 -0.34255904 -0.018332671 0.19874105 -0.22312829 -0.7033979 -0.74304545 0.4579622 -0.21283118 -0.5801135 0.10319833 0.19192411 -0.11790709 0.67607754 -0.35538658 0.47513795 0.3553287 -0.2254085 0.008663509 0.76452583 1.8778437
494 -0.8603469 0.6819412 0.78659433 0.64741474 -1.176833 -0.8888277 0.118399076 -0.5647267 -0.28434888 0.47798312 -0.056277726 -0.01698687 -0.41182172 -0.36158684 0.078398176 0.68982464 -0.008289673 -1.0075539 0.5878057 -0.047673143
340 0.20581731 2.0670748 1.0974829 0.015595289 -0.19973817 0.42178848 -0.08194513 -2.5849938 0.38596234 2.2023942 -0.48707154 1.2858996 0.13740177 1.4506288 1.2774421 0.46627212 0.8816278 -0.73131156 0.03106524 0.60010254
328 -0.80710024 0.38943386 -0.29681152 0.24681002 -0.91133684 -0.6638223 -0.23249617 -0.2481746 -1.1801326 -0.20175008 -0.47166368 0.19890991 0.58439773 -0.34411824 0.28185713 0.034867708 -0.74363047 -0.69078714 0.41943744 0.524664
410 -1.2117712 0.4433202 -0.23840222 0.5752047 0.19118504 0.19387013 -0.33833522 -0.323312 0.53181636 0.02875639 -0.16216464 -0.31600064 0.32331535 0.6031411 -0.30662185 -0.18949397 0.18078873 -0.20967181 0.68210566 1.193671
115 0.6710892 -0.51238453 2.495114 0.6381426 -2.349922 -0.38916817 -5.663246 -3.0621834 2.1829863 4.0973806 -2.1721003 -0.5868432 1.8324683 0.6142526 0.96841437 -0.1572654 -1.4478892 -1.6624342 2.817098 1.3785672
292 -0.5503213 0.49737993 2.5884123 -1.3784121 -3.6463387 0.4143382 -4.3546944 -3.861552 2.3384662 4.561804 -0.83444536 0.18235481 0.99020445 1.0139272 2.9017086 0.3234581 0.36484176 0.7234991 2.587396 -0.40387937
229 -1.2775416 -1.9591646 2.226103 0.20855136 -1.2925017 -1.059955 -2.27649 -0.7821665 5.346008 4.257211 -0.16756834 0.9039014 0.8163249 0.8360663 2.8539052 1.5693991 -2.5388951 0.79311 3.442719 0.48887983
509 -0.6623083 0.3625178 0.9658441 0.07452622 0.2383865 -0.27368504 0.23691806 -0.17334276 -0.21657036 0.7184051 0.11031378 -0.12047297 -0.68376714 0.60746264 0.13166752 -0.7325215 -0.063182786 -0.16580053 0.37557784 -0.013054093
331 -1.0359046 -1.3030182 3.6394277 0.22226539 -1.6582452 -0.39368984 -2.6555278 -0.26133898 1.8897814 4.1966934 2.9273834 -1.6482265 2.8290977 2.0306053 0.9707395 -0.099486664 0.439374 -1.4075916 3.4732234 0.45568985
108 -1.430315 -1.8892635 3.1222596 -0.40709937 -3.6095948 0.25670022 -3.2079277 -2.033194 4.1519074 3.212029 -0.8769616 -0.94756556 0.6318811 1.8496418 1.7404438 0.72539186 -0.90457255 1.6304698 3.691469 2.1407099
124 -0.117081515 -3.4069147 1.0061902 -1.5076718 -1.8236661 -1.4791819 -4.9737654 -2.0760903 3.6543877 3.4087727 0.78369135 0.6017685 3.237894 0.99410164 2.3727324 -0.10176564 -1.9834393 0.30822462 2.399691 1.0338533
943 -0.60294014 -2.6021266 1.883053 -1.2182308 -1.6515697 -0.8497915 -3.9293687 -1.4636892 3.386173 3.1484814 -1.0455614 0.3312606 1.9777448 0.7776324 5.523518 0.36462373 -2.3821719 0.87626 2.9879737 0.6795356
695 -0.0032648244 -1.1605899 3.6858828 0.14880526 -2.3164895 0.49221897 -2.3402584 0.52629507 1.965533 3.1540112 2.3118384 -0.7464591 2.7287486 2.882693 1.3165675 -0.14978614 -1.2899842 -1.5533392 4.4740243 1.2192924
182 -0.6829306 0.65493083 2.0231185 1.0395329 -2.3276663 -1.4940166 -5.193174 -1.5218995 0.72069997 -0.5219902 1.4664094 -0.30341443 2.941023 2.2530544 2.4559033 -3.2527936 -1.1309903 0.33850205 4.5983453 -0.03272608
582 -1.4161102 -0.29672807 0.7153397 -0.9891334 -2.1419466 -2.0482266 -4.268095 -1.4364389 -0.059464056 0.39730018 1.4308597 0.44571787 3.6417222 1.2244804 1.3466699 -2.0172496 -1.8700128 2.1514387 5.4314313 -0.4108984
871 0.5706279 -2.110289 2.72607 1.3468949 -1.7449613 -2.1767719 -3.0308583 -1.5256627 3.4352405 2.6201296 0.6585824 1.0697469 2.00703 2.883988 2.161976 -0.4377459 -2.4021783 2.7624986 4.6207414 -0.17678352
30 -1.02444 -0.40679166 -0.032871693 0.7190979 -0.6021209 0.51042837 -0.7152305 -0.099160016 0.15673189 0.0058420957 -0.5423444 -0.59245354 -0.98776996 1.194536 0.25252447 0.1513698 -0.39796087 -0.080945015 0.020610206 0.055585667
374 -0.6072569 0.90149367 0.22795257 0.101744615 -0.30694306 -0.27597442 -0.21155438 -0.13034412 0.014516229 -0.408067 0.94757384 0.0365951 -0.2878894 0.68550974 0.31837842 0.48567635 0.17509408 0.5175619 0.4583476 0.077659845
657 -0.20094791 -0.119940534 -0.792024 0.43590173 -0.28020927 0.046958692 -0.3553709 -1.118179 -1.3242105 0.16789398 0.50481445 -0.15880752 -0.013542005 1.2798439 -0.58148926 -0.49245965 0.658747 0.5598385 0.5023013 0.40740055
786 -0.4693617 0.19926728 -0.3759535 -0.288914 0.042188488 0.16031136 0.19484314 0.45981756 -0.19315207 -0.038480647 0.09284342 -0.1319176 -0.458609 0.58116925 0.00022826993 -0.15903667 -0.18357144 -0.5758434 1.214256 -0.11408296
239 -1.7180318 -0.8399351 0.086206816 -0.6955514 0.06279973 -1.1088729 -0.5897812 0.21038942 -0.7682791 0.0021124575 0.06958744 -0.30628666 0.5194135 0.77034533 0.44501096 -0.15485875 0.08747357 0.06449087 -0.09276631 -0.1528344
76 -0.36270738 -0.19892807 -0.3741189 -0.4093477 -0.25640583 0.15153046 0.64917934 0.98207164 -0.6397778 0.67515683 0.39348707 -0.16620828 -0.5800523 0.71071553 -0.14351568 -0.118075795 0.18647942 -0.5031314 0.6442988 0.21935639
505 -0.86538243 -0.4267608 0.096727066 0.369004 0.0063509895 -0.9236259 0.218228 0.47930658 -0.4729578 -0.066728 0.18813397 -0.34858724 -0.19639699 0.43372658 0.6282177 -0.011024588 -0.30152902 0.03738299 0.18633291 -0.052193005
323 -0.3077553 0.17894493 -0.6728047 -0.37877616 -0.14965414 0.17071779 0.32015303 0.8154282 -0.33804643 0.0038109156 0.167027 -0.2216046 -0.36326918 0.6946389 0.102733344 -0.07940942 -0.031218154 -0.56582505 1.3829548 -0.064106666
373 0.21603933 -0.15345138 -0.46911153 0.34902698 -0.2174202 -0.078956746 0.07305374 -0.6131657 -0.95441693 0.14696199 0.47710142 -0.05039231 -0.029849278 1.1117781 -0.6355216 -0.20297246 0.20794989 0.31687453 0.6359046 0.48711592
291 -0.83787835 0.28089365 -0.49967054 -0.018271603 0.29150426 -0.22069405 0.11939567 -0.49133638 -0.25431994 0.58578867 -0.21807563 -0.022002978 -0.2736652 0.06797531 0.6884489 -0.07711184 -0.26996422 0.66291976 0.081822574 -0.0061398647
261 0.06382715 0.43529195 0.08271275 0.1902078 0.4152449 -0.49273422 0.41870904 -0.46532115 -0.36992922 -0.26944852 0.605477 0.07823656 -0.27182832 0.44764835 1.2370688 0.2902467 0.11873343 -0.573334 0.45951575 0.37670413
253 -0.086915165 -0.025588421 0.0629583 -0.44162714 -0.040111907 -0.32676 -0.16334099 -0.594781 -0.30810866 0.60214764 0.039384436 -0.6654246 -0.23909627 0.3179236 -0.2903395 0.9698805 0.07226199 -0.11797244 0.54543084 -0.074800484
131 -0.54081476 0.48125443 -0.3481409 0.1898036 -0.5762312 -0.47352132 -0.17832135 -0.09210183 -0.20070478 -0.2264728 -0.26660267 -0.2297659 -0.254382 0.35963315 -0.3990632 -0.05807824 -0.7027337 -0.5355401 0.54225785 -0.31132865
518 -0.60559773 0.3475357 -0.19090874 0.35640278 0.18692085 -0.065514036 -0.11607428 -0.3453608 0.21642837 0.36572334 0.41351536 0.022131104 0.3999428 0.45421335 -0.39477754 0.37844816 0.24000452 -0.22383758 -0.014346278 0.8677036
684 0.25004807 0.05885162 -0.5242289 0.101712376 -0.016774364 -0.64127874 0.17666627 -0.6676867 -0.18950652 0.44596162 0.43714157 -0.57522756 0.5311216 0.4285754 0.53104234 -0.35326794 -0.6445394 -0.8630999 0.20536895 -0.40791833
196 -0.5744471 0.3896865 -0.17791957 -0.27176318 0.2812793 -1.0823332 -0.61963725 0.5180297 0.33738273 -0.33038145 0.44886866 -0.62467694 0.05175135 0.24820204 0.18335955 0.57662284 0.018860713 0.01780517 0.02870997 0.4477717
729 -0.1877635 -0.25595737 -0.42592025 -0.037803616 0.34240893 -0.23697151 0.10028726 -0.16417594 -0.3655256 0.35203227 0.43632808 -0.31049234 0.6583643 0.69578403 0.6364452 0.49869344 0.19080602 -0.28458285 -0.030515686 0.065784656
184 -0.5372137 -0.24646649 0.113304764 -0.57688314 -0.2243232 -0.5812136 0.55626994 -0.6543673 -0.11530081 0.49229798 -0.14693283 -0.5584204 -0.37212446 0.047121644 0.17908967 0.58472216 -0.11190585 -0.3749289 -0.019237949 0.85700643
362 -0.41286716 0.019187484 -0.072871424 0.09678901 -0.05381463 -0.029484563 0.11483884 -0.49071336 -0.1308782 -0.03402109 -0.25459877 -0.84479016 -0.48926902 0.3636059 0.263311 -0.09719044 0.05814758 -0.07512896 0.22264221 0.91960984
619 -0.1656097 0.77217615 -0.7028468 0.090483114 -0.47634873 -0.54983824 0.6162469 0.039532855 0.12232193 -0.46083596 -0.1579204 -0.44594747 -0.3305025 0.81029916 -0.007242571 -0.111179374 -0.26620805 -0.08538007 0.8924447 0.15114406
670 -0.3898761 0.2504567 -0.02784057 0.24339524 -0.20980434 -0.6202744 -0.16952918 -0.4466453 0.06236912 0.10213922 0.16956818 -0.13646479 -0.4994008 0.34244215 -0.67060536 0.049029965 -0.45448673 -0.3516563 0.33042857 -0.12653054
8 -0.60959166 -0.109556526 -0.102202974 -0.1826382 -0.08259745 -0.802643 1.0197555 -0.088681996 -0.040294204 0.8409909 0.037544988 0.24712847 -0.31271476 0.510665 0.16970098 0.048884265 0.33054692 -0.2849263 -0.15058973 0.09524319
302 -0.6331028 -0.32119593 -0.044084806 -0.18497813 0.113298066 -0.71277946 0.016714204 -0.63075185 -0.38434735 0.24870363 0.20197202 -0.26398373 0.08393019 0.39530638 0.4944562 -0.08304739 0.030580822 0.17617708 -0.00016887632 -0.08979193
766 -0.20819198 0.12864365 -0.8879317 0.32356074 -0.017834196 -0.04968063 0.6601516 0.502948 -0.06771069 -0.006165388 0.024687393 -0.17176516 -0.100554466 0.6375358 0.31528088 -0.13596888 -0.3624756 -0.0298837 0.9268343 0.2421308
269 -0.19916968 0.19408023 -1.5499827 -0.030230846 -0.8855103 0.15468083 -0.034001242 0.31946987 0.6590862 0.7973545 -0.27323222 -0.21016444 -0.16424276 0.44710502 0.71498924 -0.4509689 0.6015267 -0.034867983 1.720054 0.0041277674
480 -3.6919043 3.792853 0.68127525 -0.38868386 -5.92301 -1.069808 1.5886922 2.8780684 -0.24067946 2.7237291 -1.0653188 -0.38938868 -0.02609336 2.0326455 1.6026278 -0.29557535 0.6696278 2.6369352 4.510154 -0.87373954
481 -3.7128055 3.7549489 0.6822608 -0.23079666 -6.0002227 -1.1956134 1.5609528 2.8991601 -0.34822813 2.7995746 -1.0410322 -0.2587863 -0.029079633 1.9412715 1.6536564 -0.4104415 0.6265907 2.52243 4.4669733 -0.9371948
720 -0.6063846 0.58573073 -0.7494356 0.37100306 -0.5194555 0.02933501 -1.073445 -0.734697 -1.0134845 -0.1470588 0.14722046 -1.7729145 -0.9130788 -0.36355716 0.88304377 -0.65353113 0.97283816 -0.4340857 0.5973965 1.1406125
166 -0.65266806 -0.17161614 0.02367162 0.34188503 -0.2543497 -0.016654586 0.8593808 -0.07134074 -0.5097719 1.6937562 0.9001229 -0.08618222 -0.8648187 0.099823356 -0.4241182 0.7841754 0.24364507 -0.5379021 0.7035995 -0.043572765
761 -0.23951769 0.20396021 -1.1432495 -0.026576338 -0.662722 0.1861009 0.13850944 0.17998156 0.5378597 0.29860893 -0.12196202 -0.116026364 -0.051841337 0.34020835 0.6400239 -0.4894103 0.22171016 -0.18316981 1.4597214 0.09171155
609 -0.8549294 0.5558727 -0.08679194 0.6959705 -0.22749926 -0.1784895 -0.9729523 -0.54293984 -0.7081879 -0.36778995 0.30241475 -0.7785385 -0.5713933 0.05913146 0.6389683 -0.4934605 0.90156054 -0.79175395 0.22004361 0.35560626
507 -1.6445595 0.2767613 -0.69517046 0.9718522 -0.4578529 -0.34812397 0.29449934 0.023187442 -1.5317634 0.5815932 -1.0829935 -0.7363669 0.5921453 0.05992248 0.5865176 0.17020133 -0.48294377 -0.660502 0.08395655 0.1471868
59 0.10256893 0.4917242 0.47140133 0.034404863 -0.69309217 -0.22602677 0.67203593 -0.4541027 -0.6598556 -0.17909731 0.5154401 -0.31439105 -0.024168745 1.5424564 1.3723785 -0.025998263 -0.25451556 -0.23939203 -0.04665262 0.066096395
566 0.02827106 -0.108288616 0.71612394 -0.21972175 -0.62650126 -0.1533305 0.023794547 0.30578884 -0.54620624 0.38766482 0.45256096 0.024571126 -0.7816596 0.85720706 0.19488193 -0.6791037 0.21509224 0.021201184 -0.1404075 0.85004276
370 -0.004152219 0.18334812 0.22575738 0.20402813 -0.5290775 0.16587482 0.16363527 0.10842929 -0.28748387 0.016208278 0.21100718 -0.13249992 -0.2884291 0.94882464 0.4159939 -0.44937387 0.15882604 0.1495531 -0.06593803 0.7211403
290 0.73843104 0.30314335 -2.1599336 -1.3053209 -1.2623008 0.58485585 -1.120808 -0.70322037 2.5000598 2.0498927 1.253706 -1.2750334 -0.67452615 0.82151353 -0.82655114 -1.7165449 -0.818621 -0.8616644 0.64384335 1.4556984
234 -2.4261434 0.4607442 -1.5928438 -2.2254055 -3.8153086 0.95635605 -2.5251062 -3.099209 -1.0948787 0.118930094 2.3788147 -0.4550919 0.04645267 0.22419356 1.0205235 0.19271567 0.015201761 -3.6217184 -0.7164586 0.54977036
58 0.053940397 -0.011243599 0.591793 -0.10773174 -0.3066949 -0.4006792 0.49603468 -0.21032697 -0.5334576 -0.20217279 0.5654152 -0.2915112 -0.5195337 1.3015939 1.50387 0.033198163 -0.35627705 -0.29849988 -0.0755874 0.13130243
64 -0.7553828 -0.24228068 -0.9302229 0.3149411 -0.3302771 0.1226412 0.038380355 -0.2331216 -0.69861877 0.72261465 0.41149464 -0.34372443 -0.39667833 0.52050483 0.22431642 -0.46868005 -0.85424227 0.3961029 -0.6380625 0.28113288
749 -0.5143261 0.7007866 -0.1479876 0.24729262 -1.0132561 -0.30455956 -0.19965264 -0.2205539 -0.8728827 -0.4014023 -0.3880134 0.23929904 0.22824378 -0.0028780582 0.11078153 0.09227206 -0.8266745 -0.7200609 0.3921037 0.79397774
420 -0.31680363 0.322219 -0.21481724 -0.09866375 -0.2825602 0.2625689 -0.517491 0.13837911 -0.24972036 -0.0040408946 0.5532841 -0.49153537 -0.14722553 0.34702 0.021729188 0.20760655 -0.8899033 -0.17788187 -0.18316738 0.71358943
376 -0.043640926 -0.09814835 0.049601275 -0.44584495 -0.5996949 -1.3261416 0.70285213 -0.065136015 -0.4794733 0.17107125 -0.40570027 -0.20518707 0.9297987 0.6445333 0.36261064 0.65748465 -0.060742546 0.3940071 0.54295474 0.6605348
133 -0.6541945 0.5142768 -0.30216938 0.49278617 -0.9265635 -0.4971374 -0.21965028 -0.24282148 -0.7929515 -0.38035047 -0.22809635 0.12272545 0.26224276 0.038140234 -0.19992699 -0.0004939845 -0.9720498 -0.6297729 0.5620252 0.4387679
187 -0.7970862 0.36642522 -0.7008698 1.078491 0.2055567 -0.07489142 -0.50480527 -1.0721537 -1.1085031 0.2967857 0.7009321 1.1601439 0.35936958 0.78399014 0.017193524 0.76221365 -0.42586362 -0.04823223 -0.15829428 0.51661533
308 -1.0782489 -0.33109975 -0.3082772 0.37724006 -0.08830887 -0.7125841 0.73755324 0.11481883 0.83759695 -0.033297367 0.47153682 0.45558706 -0.27507123 0.6821923 0.6856324 -0.07888564 -0.75148374 -0.3920167 0.13325903 0.10604112
220 1.5052689 1.993614 -0.8242893 0.29530814 -1.7819599 -0.33890155 -1.470681 -0.7302364 0.6020935 0.8342892 1.6464906 1.8460745 -0.86124045 1.4548429 0.26981524 0.9946868 -2.046445 1.9521574 1.6367735 -0.112338096
188 -0.7913256 0.81215185 0.120072074 -0.5768682 -0.10104555 -0.63086873 -0.41902453 -0.19382834 -0.2289726 0.18322173 0.62281764 0.08661289 -0.7318563 -0.29720557 0.29530242 -0.23274495 -1.2022706 0.16299888 -0.28832597 0.68945175
946 -0.16316886 0.4012292 -0.5683784 0.22308886 -0.23498866 0.25295326 0.014837914 -0.23127256 -0.06118023 0.06134335 0.3204336 -0.7129061 0.01291205 0.63008744 0.2163051 -0.081819214 -0.45160088 0.17785443 -0.0354526 0.71176714
353 -0.334502 0.43795252 -0.18766028 0.23221219 0.06107785 -0.088830605 0.1677755 -0.2091066 0.044051833 -0.2518211 0.12780899 -0.15935074 -0.027054634 0.6071806 0.11292884 -0.033362716 -0.09397327 -0.20921041 0.37717482 0.5182008
630 -0.11320967 0.96473753 0.3104861 0.6725562 -0.67876506 -0.863999 -0.36922082 0.6446236 -0.28060818 -0.4555357 -0.54314584 -0.6013254 -0.048395883 0.41472456 0.22414824 0.55592334 -0.41224048 -0.2782824 0.24198511 0.7991749
120 0.014746593 -0.21592963 0.19472744 0.19145812 0.44997275 -0.5601795 0.29240248 -0.17172581 -1.0629352 -0.21185525 0.22920631 0.24106161 -0.18298684 0.96434414 -0.25141442 -0.24387622 -0.47929054 -0.032448534 0.6875454 1.3175892
945 -0.19865206 0.42226383 -0.58677334 0.29523546 -0.25532183 0.26551345 -0.031567637 -0.17509042 -0.04053554 0.05374601 0.31025666 -0.77847457 0.019323392 0.5960837 0.20618719 -0.08977213 -0.4306215 0.11294938 -0.07089181 0.7445788
865 -1.0249071 0.11812215 -0.32267836 1.2435896 -1.7753963 -2.3641832 -0.44214472 -1.1412086 0.07194935 1.8181678 1.1932567 -1.0925453 1.0275694 2.036984 0.150663 2.141845 0.82474583 0.9650214 -0.74419296 -1.7929405
367 0.05798047 0.03522345 -0.3816639 0.39100054 -0.29599378 0.21461304 -0.1577207 -0.49834424 -0.7203483 0.002156578 0.22805166 -0.48502547 0.009016677 1.0481815 -0.21113439 -0.008537424 0.25167307 0.37464267 0.4690171 0.3526279
969 -0.3698772 0.2262927 -0.21227255 0.173658 -0.44036135 -0.433756 0.05732901 0.3992655 0.04026632 -0.1698892 -0.47815174 -0.4827271 0.23312363 0.2323618 0.32185897 0.6044002 -0.4823331 -0.20355968 0.0324813 0.81456566
177 -0.70159906 0.40724105 -0.55902815 0.49045074 0.11938323 0.16615929 -0.4699745 -1.1946796 -0.95150703 0.43163174 0.57574093 0.80058503 -0.11284319 0.6192827 -0.29575917 0.5069174 0.2365794 0.20381618 -0.07775108 0.5224183
84 0.07075192 -0.4745429 -0.76883256 0.12139194 0.2156524 -0.4923704 0.35706106 -0.47880384 -0.8038247 0.19555707 -0.080233075 0.3916904 -0.5091759 0.8269536 -0.02318137 -0.16006583 -0.21197766 0.001477167 0.04409908 0.64111686
285 -0.66248035 -0.26425248 0.14195737 -0.6825674 -0.369759 -0.8445448 0.52590144 -0.46798673 -0.16455176 0.4927107 -0.20697556 -0.48374125 0.46210867 0.14862609 0.27174336 0.5329983 0.023856051 -0.22421625 -0.08633215 0.83112144
468 -0.22783339 0.3508717 -0.27161038 0.0020890245 0.009389908 0.093206555 -0.0038660949 -0.4879696 -0.15098572 0.07952078 -0.26734075 -0.33757862 0.06128871 0.8128531 0.4120259 0.14995636 -0.07113382 0.30922905 0.07540358 0.3358969
457 -0.17832927 0.51847 0.051749997 0.55126953 -0.35482067 -0.6187283 -0.21346778 0.6206428 -0.16479887 -0.3679339 -0.5164679 -0.7541119 -0.1196578 0.66523796 0.14727266 0.3851034 -0.34870932 -0.05500189 0.24401273 0.63762426
85 -0.44050115 0.13172933 -0.6879386 -0.30501387 -0.07824626 0.15504548 0.41718096 0.9026122 -0.5405627 -0.035068754 0.2877442 -0.24925256 -0.50685143 0.8347406 -0.05362235 0.06471304 -0.27837664 -0.56341475 1.2542056 -0.003964029
956 -0.23430249 0.3184081 -0.5004683 0.32143778 -0.14874908 -0.018490493 0.4558133 0.37634963 -0.11143608 -0.11273223 -0.071036346 -0.33096763 -0.09083352 0.81145334 0.39325017 -0.018216208 -0.17080271 0.0838378 0.5762788 0.11399747
355 -0.35801703 -0.07808974 -0.35255048 0.11829814 0.077137455 -0.080719 -0.20137672 -0.0027091745 -0.37931928 -0.10816775 0.25818247 -0.3935545 0.45195282 0.5786555 0.68242526 0.24565849 0.11788603 -0.0044299173 0.03747036 0.19909623
455 -0.06347275 0.84016335 0.18931356 0.6598392 -0.43950203 -0.6919249 -0.49281842 0.7621119 -0.17639467 -0.3990598 -0.67336214 -0.8823103 -0.23874861 0.84459937 0.08079635 0.5689537 -0.4834535 -0.26382598 0.21586314 0.86839914
456 -0.19349056 0.51670057 0.15511174 0.5602618 -0.28038827 -0.5845677 -0.29473042 0.6880211 -0.16661072 -0.36745054 -0.527072 -0.7723572 -0.14176552 0.6832189 0.131505 0.39988592 -0.32461908 -0.14163366 0.2319662 0.68118864
407 -0.37649634 0.95628643 -0.0024422049 -0.35418224 0.11205031 -0.29170814 -0.40563414 -0.01700019 0.113996625 -0.41392952 0.7219206 0.3554674 0.022709683 0.42855734 -0.039398488 0.36352703 0.13235128 -0.6012842 0.45100763 0.45593542
105 -0.017021207 0.6275746 -0.1456928 -0.7493581 -0.08470074 -0.09729632 -0.15604036 -0.23611997 -0.19650097 -0.084059894 0.12013958 0.4792821 0.106754184 0.8511036 0.26048428 0.2916958 -0.31081015 -0.18039511 0.17892924 -0.051596623
53 -1.5167024 -0.29428726 -0.6145687 0.52895653 0.4648061 -1.0728486 -0.7326846 0.034423523 -0.1774357 0.27977335 0.54716814 -0.23451316 -0.17096397 -0.10060921 0.9660404 0.20019042 0.3257874 0.30397686 -0.3114945 -0.10623018
307 -0.50351155 0.7918329 -0.24317746 0.16785078 0.59145504 0.043917824 0.15675783 -0.660521 -0.20233388 0.54560125 -0.0607259 0.7715234 0.045101393 0.5074695 0.20499112 -0.27276772 0.038843375 -0.052112203 0.24055068 0.5024418
276 -0.55024946 0.1793952 -0.3124002 0.39956078 -0.066094264 -0.7207445 0.17999421 0.18250336 0.30420884 -0.56917495 -0.5955096 -0.3043969 -0.81636053 0.4251583 0.4405143 -0.0008090011 -0.3262151 -0.20855306 0.28900102 0.7458156
83 0.078894295 -0.56595 -0.71240985 0.15673386 0.1803624 -0.5450558 0.42857504 -0.51977056 -0.74414283 0.16276483 -0.0418445 0.38801074 -0.48262084 0.8136992 -0.020490423 -0.15554689 -0.2515253 -0.055608954 0.031346016 0.59565985
992 -0.22367756 0.66713476 -0.11224922 -0.06158304 -0.19224788 0.02663235 -0.14129722 -0.14544828 -0.56666076 -0.43503886 -0.15326458 0.10312379 0.09291226 0.351986 0.14797367 0.0632169 -0.5627381 -0.51063365 0.4402522 0.7675099
562 0.27662158 0.14260817 -0.34023577 -0.29294625 0.6339665 -0.88102573 0.2991881 -0.66113156 -0.40711838 -0.47825882 0.42664126 -0.04326039 -0.032483853 0.6905248 0.5781574 -0.15647979 -0.11386339 -1.0292242 0.29089046 0.9452443
69 -0.4777886 -0.4515579 0.060884114 0.35831112 0.34096736 -1.046312 0.43250218 -0.5743435 0.22806594 0.7877146 0.27549866 -0.27262142 0.14477213 0.88310516 0.13088322 -0.90935785 -0.9674365 -0.47146463 -0.20205396 0.12803313
218 -0.14087167 0.24264583 0.3339027 -0.43261725 0.3141668 -0.7039753 -0.114579834 -0.71943104 -0.0058970824 0.47154322 0.082831584 -0.11515139 -0.13897125 0.42117363 0.006502247 0.7203013 0.04892862 -0.37408444 0.2079746 -0.12124892
783 0.3316632 -0.42503482 -0.47129798 -0.44990468 0.54269403 -0.67975795 -0.017819714 -0.45093873 -0.21747927 0.45641673 0.22075218 -0.37137672 0.15807849 0.98669773 -0.023519099 0.07147172 -0.2744715 -0.50116754 -0.006418396 0.10144666
142 0.5322116 0.35244074 -0.61706066 -1.1407628 -0.70822924 -0.7124422 -0.906804 0.07014414 1.9554415 0.6573308 0.89163667 -0.18001994 -0.32008564 1.1650978 -0.39085376 -0.66765535 1.1720953 -0.82228506 0.34652752 1.2745905
500 -0.21831252 0.42126462 -0.47177622 -0.49155208 -0.8037411 -1.2834566 0.334055 -0.57654446 -0.12628266 0.28162897 -0.5021918 -0.40853164 -0.44176197 -0.07335339 -0.07977945 -0.11677939 -0.13059205 0.79362786 0.08332245 0.3651327
241 -1.238731 -0.13415107 -0.67945784 0.4547548 0.71752757 -0.9917738 -0.4884023 -0.29976082 0.060597617 0.42661974 0.3457131 -0.34336865 -0.29754335 -0.17101325 0.8503894 0.33514068 0.27390414 0.38869268 -0.13971782 0.084363505
223 -0.4989849 0.3924874 0.92871726 -0.9417839 -0.10559374 -1.518539 -0.49104238 1.238014 -1.4170003 2.205377 1.1319896 -0.093134366 -0.9816785 0.99110126 0.014778839 -2.221218 0.9918393 0.616984 0.6701143 0.5777833
448 -0.35252234 1.3057868 -0.26706246 0.7334986 -0.5032772 -0.78498596 -2.0414627 -1.1691871 -1.1122901 0.7155919 -1.6555953 -2.40198 -0.8967111 -0.77677125 0.7192092 -1.2914414 0.60885096 -1.4578439 0.9563782 0.5947732
832 0.46359533 0.9397826 -0.3694523 -0.35999623 -0.64472085 -0.38110945 -0.9052989 -0.31765965 0.2577624 0.31151736 1.2187246 0.7354581 -0.41649476 0.61375254 0.29955027 0.7917524 -0.8027423 0.98918563 0.86271244 -0.49387816
759 -0.13959433 0.2711628 -1.0981227 -0.15403117 -0.60520095 0.0764077 -0.14424545 0.38046983 0.5983107 0.6187951 -0.3327091 -0.42651686 0.11679873 0.57122564 0.5542652 -0.40632844 0.733117 -0.33070397 1.2755958 -0.061008085
215 -0.41499788 -0.56047875 -0.06097137 -1.1594713 -1.2249078 -1.3204889 0.2074479 0.18182755 -0.010751452 1.6453029 -0.9669077 -0.3687699 1.6572503 -0.03089436 -0.48430976 0.7086508 -0.727209 0.3584745 1.142807 0.996737
143 0.60540354 0.17814417 0.1257128 -0.88249516 -0.7583752 -1.0257498 -0.7275324 0.07920238 1.4379119 0.29484537 0.9438452 -0.24834155 -0.4369878 1.0988294 -0.31412932 0.015354593 1.4558624 -0.5569798 -0.07515187 1.117449
174 -0.7169897 0.26594412 1.4217918 -0.48772374 -0.73035836 -1.0268444 -0.08310814 0.57101077 -0.8205297 2.1131382 -0.09031717 -0.3923389 -1.2427286 1.0399231 -0.01786476 -2.2099023 0.43303856 0.025177544 -0.05887648 0.69779783
418 -0.4038498 1.1462039 0.41628325 -0.06181837 -0.10237574 0.43185627 -0.14595143 -1.2764903 0.17648248 0.6720329 -0.1439191 0.8673116 0.032418944 0.78169125 0.7551629 0.12649927 0.6520844 -0.1746467 -0.063459806 0.7064028
616 0.52349395 2.6423097 -2.405264 0.3147981 -0.23196614 -0.4815543 -2.6741896 3.527475 0.9375181 5.444307 0.35591605 1.3548993 -2.2680035 2.954268 -1.5948573 0.6977273 -0.83103496 -1.0421563 -1.0557568 0.6062083
615 0.5175339 2.5799906 -2.403116 0.25329417 -0.26012978 -0.46889088 -2.7295897 3.5504024 0.8724567 5.417312 0.3449149 1.4006652 -2.257004 2.9091885 -1.5598857 0.6971006 -0.8731569 -1.0573394 -1.0791044 0.65591455
653 -0.51678485 2.6095774 -2.428401 0.4643464 1.3408481 -1.0758699 -0.4099062 3.3396661 1.7094193 6.055101 0.044534873 2.1426268 -1.5836759 2.619581 1.5124822 0.73373336 2.9263704 1.7637869 -0.34499708 2.331857
654 -0.48846173 2.6720448 -2.4319932 0.44906795 1.3320186 -1.1202744 -0.38675106 3.2989771 1.6983671 6.083915 -0.0040919785 2.1672015 -1.5773559 2.6341255 1.5450982 0.742269 2.9123104 1.6694591 -0.33402225 2.3120546
202 0.5458575 2.4924397 -2.4624567 0.7204452 -0.5740546 -2.6786015 -0.87531984 4.206428 0.30112264 5.489427 0.074925974 -0.17262721 -1.7325863 0.56661177 1.2716284 0.30084875 0.45195442 2.198371 -0.88370305 2.1147306
203 0.85302943 2.525088 -2.4824548 0.7329347 -0.4198518 -2.4705815 -1.0029869 4.091871 0.14869048 5.450015 0.38306794 -0.1888886 -1.7345678 0.8010372 1.0715578 0.39585233 0.57090884 2.508921 -0.61829674 2.0938182
1033 -0.26340753 2.0660553 -2.598638 1.6093758 -0.73530805 -2.1760209 -1.443693 3.2654045 1.0914078 6.2979875 -0.032955803 1.2646395 -1.234881 1.9529384 -0.54266495 0.5388078 0.6015799 0.9738986 -1.3567073 0.54628897
1032 -0.3389795 2.0027964 -2.5966642 1.5672654 -0.7600044 -2.1519294 -1.4254462 3.2648566 1.0516076 6.312605 -0.06616785 1.2400682 -1.2227893 1.8592438 -0.5180236 0.5385932 0.6235203 1.0494092 -1.3865999 0.6020951
947 -0.11687175 3.0107727 -3.0287669 0.25193745 -1.3178949 -2.2072723 -1.9761254 3.8998759 0.34736383 5.302979 1.3484459 0.6358309 -2.2359433 0.4996985 0.6420689 0.65483046 -0.11647408 0.544336 -0.95692945 -0.66696745
948 -0.114396565 2.9474764 -3.0531948 0.2223095 -1.3506984 -2.2225072 -1.9516089 3.9015195 0.29727983 5.323365 1.3272059 0.60083765 -2.196504 0.47881314 0.66144043 0.6515339 -0.12942956 0.6089704 -0.96750414 -0.6119573
299 1.5199978 2.6535945 -2.3652148 2.0272186 -0.84542036 -1.8215297 -1.5198941 4.0057387 1.521098 5.1945868 1.7191734 0.12619753 -2.4539032 1.844789 -0.075922005 0.07521844 -0.7226102 -0.2129197 -1.2288146 0.35627455
300 1.6894729 2.8963156 -2.3571393 1.9022037 -0.5487168 -1.4971753 -1.5388724 3.8176162 1.6210775 5.2244864 1.8690181 0.14450805 -2.5217812 1.8226712 -0.094379224 0.17658007 -0.74392146 -0.009304689 -1.068718 0.6649496
405 -0.3211216 3.607499 -2.0692472 1.3254201 0.3244332 -1.3006493 -1.651594 3.2532523 2.3114023 5.4999537 1.0348808 1.4421716 -2.662038 1.5744053 -0.42070878 -0.10420713 -0.021905646 -0.8499854 -1.4563922 0.8105271
404 -0.62768126 3.4940317 -2.147909 1.2619818 0.18163055 -1.2785226 -1.6368487 3.406683 2.5117097 5.5663314 0.7670803 1.3985944 -2.5601892 1.5735482 -0.10362212 -0.006197822 -0.22867845 -1.016084 -1.634813 0.62848824
442 0.8482839 3.6504593 -3.4052052 1.2186561 0.10747881 -1.9337538 -1.5442978 3.1765666 1.4216058 4.9481273 1.5653617 1.2163581 -1.5199718 0.8838312 1.6452771 -0.5142633 0.6172918 0.71757007 -1.5861489 1.5939182
441 0.85631055 3.5750449 -3.4310224 1.1668802 0.076954775 -1.9229202 -1.5134766 3.1917732 1.3939257 4.9413714 1.5599401 1.1754717 -1.5316169 0.8965221 1.6786011 -0.5047414 0.6146381 0.79351014 -1.5919018 1.6643614
342 -0.27689132 -0.21115923 -0.22849204 -0.092285074 0.015996488 0.16840596 -0.24704432 0.075637236 -0.20912157 0.32556802 -1.0657346 -0.34940094 0.16715652 0.47247124 0.69677734 -0.9264378 -0.52886474 0.009904674 0.1467874 1.2497613
986 1.3933938 1.5205003 -1.7049546 -1.1577758 0.25252667 -3.5296845 -2.7439995 3.7653666 -2.2466218 3.7161477 -1.3890078 0.8733513 -0.35635656 0.2572912 1.3412592 -1.4664583 0.17367183 -1.3940055 -0.31400594 0.69027054
987 1.4189628 1.4935455 -1.736468 -1.2000275 0.29594254 -3.4988654 -2.714468 3.8265138 -2.2428796 3.6970916 -1.334868 0.90331894 -0.40339455 0.30106506 1.4690387 -1.436008 0.17510954 -1.2693388 -0.25839463 0.6628101
1000 0.618679 1.1332715 -2.368632 -0.21873917 0.023971811 -2.6729693 -3.1680765 4.048597 -0.6129284 3.7519372 -0.3643228 1.776262 -0.8951507 1.4505802 0.97374606 -1.9311066 -0.5233425 -2.055695 -1.4321852 0.10470225
999 0.60326123 1.1609179 -2.449356 -0.22391264 0.0010607099 -2.677133 -3.1591887 4.004807 -0.6329036 3.7188637 -0.4544339 1.7545489 -0.98055446 1.3665593 1.0119288 -1.9597276 -0.52448034 -2.0103524 -1.4451548 0.12739441
129 2.564556 -0.12433435 -2.316031 -0.85863525 -1.116056 -0.8014825 -4.784563 -0.079460576 -2.0202396 2.709563 -2.1582568 1.0714706 -3.9780092 0.32736441 0.7898535 -0.53533715 0.55072165 -0.27557248 1.0248939 1.6324608
130 2.6336377 -0.30972168 -2.2251563 -0.7613239 -1.1261468 -0.82761043 -4.8107514 -0.2655205 -1.9786634 2.612635 -2.197849 1.1111525 -4.0254645 0.3173265 0.87613535 -0.44762787 0.48397458 -0.38279927 1.1180031 1.5880057
423 -0.17019211 1.1887622 -1.6887524 1.2765162 0.13410024 -1.5771921 -3.234275 4.0860353 -1.1615094 4.9250097 -0.60106 1.8755713 0.11039789 2.353403 0.5362685 -1.8333364 -0.9414473 -1.1657591 -1.2216628 -0.4705999
424 -0.14632945 1.1502367 -1.6857028 1.3171601 0.1421532 -1.6159229 -3.1915948 4.134251 -1.1306868 4.9345016 -0.554827 1.8894508 0.10268917 2.3395364 0.53333557 -1.807773 -0.90450233 -1.2959645 -1.2276473 -0.45702013
774 0.37950462 1.6123424 -1.4341357 -0.19293377 0.34021115 -2.4744258 -3.2318232 3.6055465 -2.0835116 4.4667497 -1.62405 1.6959912 -0.112538844 2.2675714 0.9811002 -1.8907204 -0.64019454 0.6905037 -0.5316902 -0.32005292
773 0.44136396 1.6403294 -1.4002537 -0.19831215 0.30843166 -2.4926987 -3.1675775 3.583636 -2.1027842 4.4920316 -1.6471312 1.6825757 -0.0829486 2.2539332 1.0229679 -1.8718206 -0.6564385 0.6568062 -0.5635828 -0.30530933
112 0.8888836 1.1603044 -1.1459494 -0.46907148 0.95671076 -1.0610119 -2.6826794 3.833916 -0.6857265 4.8899846 -0.46522635 1.0160735 -0.46512905 1.3835758 -0.4255161 -0.116407715 1.0005869 -1.4033844 -0.6061732 3.5414858
113 0.8282328 1.3104695 -0.945844 -0.6002537 0.9631832 -1.3408345 -2.905016 3.6332757 -0.8687448 4.662703 -0.6962645 0.9411462 -0.5280131 1.199743 -0.4045332 -0.33259082 1.299986 -1.5188164 -0.64166266 3.6191838
804 3.5988872 -1.8512747 -1.0496525 3.1189897 -1.2858727 -2.219534 -2.915631 -2.929567 0.31882256 2.0041873 -0.18069473 1.402269 -3.2627892 0.48464653 3.8147745 0.71313953 1.7701943 -0.50846624 2.6724496 0.3729989
803 3.379147 -2.118444 -1.1260959 3.3627183 -1.1587778 -2.3446617 -2.912502 -2.8636794 0.50026596 1.9415176 -0.0038328993 1.2292167 -3.3742213 0.31810525 3.566749 0.5600269 1.6544052 -0.7492265 2.7096457 0.584434
798 2.5600457 -0.19311677 -2.067606 1.8383511 -0.4358911 -1.3446537 -4.2178593 1.3637427 -0.6236513 2.4324467 0.004682032 2.3169148 -2.8928063 0.9090509 3.0721335 -0.09314259 0.23056667 -1.9642262 -0.46143198 -0.5833185
799 2.665575 -0.38311037 -2.0035782 1.8431704 -0.39728725 -1.3646736 -4.228247 1.1373576 -0.54996336 2.3991818 -0.030952044 2.386369 -2.9460886 0.9109791 3.202338 -0.05304122 0.19263044 -1.9780675 -0.33614656 -0.5756432
900 3.0022004 0.48456538 -1.9010017 1.0390636 -0.34649324 0.26010028 -4.5169477 0.2949029 -1.7529595 3.2017238 0.22584745 1.4913296 -3.465549 0.5217108 1.9476924 1.196844 0.74431056 -0.40971467 0.19013862 1.6704632
899 3.0756946 0.34855753 -1.9333957 1.1304736 -0.3839967 0.22652249 -4.602446 0.0574411 -1.6943043 3.108057 0.16445063 1.5149428 -3.509439 0.45219046 2.045443 1.2730619 0.6808364 -0.42936167 0.24343766 1.6777565
110 -0.31488755 1.539208 -2.009287 -0.62725216 0.1780212 -2.3822663 -3.1355827 4.401591 -0.480185 3.5491583 -0.14193454 2.976935 -1.5476573 1.4367942 2.1001914 -1.6109163 -0.55445576 -0.5362123 -1.0223844 -0.15497832
111 -0.038955037 1.7700591 -1.9722762 -0.43961117 -0.014644959 -2.4866269 -3.0573752 4.363007 -0.34801415 3.4644516 -0.20477776 3.1723964 -1.7436897 1.5585982 1.8478396 -1.4630358 -0.31015724 -0.6365446 -0.97780305 -0.16330253
589 3.2624266 -1.7491372 -1.6156567 2.05108 -1.7780048 -2.1198924 -2.971764 -2.590293 -0.83965755 1.967909 -2.0877864 0.2711544 -3.1398928 -1.0356916 3.2670786 2.0660493 1.6612216 -0.24492459 3.3978295 2.034334
588 3.2820573 -1.7102269 -1.617951 2.0852623 -1.8188694 -2.114275 -2.932689 -2.5683587 -0.8211135 1.9400563 -2.0671506 0.29367936 -3.1524365 -1.0579282 3.2816086 2.1040847 1.6280422 -0.24024425 3.393498 2.0118032
868 0.94025135 1.6501925 -2.321446 -0.29058424 0.25138038 -0.49908307 -2.4780781 3.1398544 -0.6492647 4.3427367 0.37181017 1.2878505 -1.2635169 0.92924225 1.5003811 -0.6280647 0.9106354 -2.7769308 -2.072896 2.915313
869 0.7022084 1.6443099 -2.2388802 -0.5301072 0.41017786 -0.67358947 -2.320953 3.0874329 -0.7716251 4.3055058 0.003950089 1.4271535 -1.4895722 0.7311252 1.7632959 -0.5817927 1.1515197 -2.6894813 -2.037386 2.9175372
790 0.28236544 0.7408883 -2.097419 0.15028954 1.5332712 -1.4242954 -3.2914138 4.188999 -0.41582087 3.6623473 0.41305518 2.0493505 -0.9304139 2.0848663 1.7362231 -1.5930384 1.3277292 -0.88102406 -1.0755725 1.8068126
789 0.31591815 0.75524104 -2.0949433 0.10451586 1.552173 -1.3691871 -3.2870638 4.188051 -0.39111534 3.6914947 0.4502681 2.052164 -0.9858158 2.1167748 1.725702 -1.5478647 1.2774214 -0.85498905 -1.0407072 1.85132
605 0.3213002 1.2394335 -3.0391483 -0.28401795 -1.5871652 -1.3048897 -2.3837361 4.1138434 0.18840183 4.0817657 -1.380434 1.2750388 -1.4631877 1.0373348 1.6058896 -1.7889194 -1.8303908 -1.3670292 -2.0458288 1.7432177
604 0.32120115 1.2361577 -3.0732553 -0.35096124 -1.5904961 -1.3695897 -2.378326 4.1093416 0.18487845 4.0350614 -1.3600614 1.2941192 -1.439612 1.0032339 1.6592989 -1.8122315 -1.8334159 -1.3527964 -2.023309 1.6500933
416 2.433023 -2.3134024 -1.848933 2.397134 -1.140672 -1.0280308 -3.9833946 -2.9330947 -0.5222282 2.7017572 -1.6378204 1.3237547 -3.0269158 -0.55251265 3.807833 1.5226976 1.1290104 -2.330472 2.2319746 0.1913234
415 2.4712293 -2.3025236 -1.82309 2.437481 -1.1070528 -1.0473756 -4.0242405 -2.9134495 -0.48319963 2.6946998 -1.5826789 1.3554856 -2.975467 -0.5170775 3.7557886 1.5629476 1.1379248 -2.346403 2.2174356 0.20394082
689 0.35576907 1.6474307 -1.7342744 -0.17895907 0.809591 -1.0748016 -3.3749104 3.335937 -2.349706 5.376876 0.7311577 1.8693879 -0.18274859 0.7349913 0.923972 0.05731338 0.8271912 -0.72845465 -1.0655296 1.305044
690 0.33812898 1.6576949 -1.7063146 -0.14161657 0.82991457 -1.1304542 -3.4223037 3.3220122 -2.3872457 5.380949 0.73640853 1.8826982 -0.16233067 0.7226901 0.99588823 0.04256506 0.8335414 -0.76275325 -1.0698713 1.2029301
281 1.2089882 3.001965 -2.5420995 -0.77692974 -0.36936602 -0.46347833 -2.538546 3.3746078 -0.4234126 4.3217106 -0.9636816 1.56995 -2.263785 0.51640606 1.4312624 -0.70372367 -0.26233232 -0.04050645 -0.9722606 3.4574587
280 1.2193207 2.993785 -2.5872211 -0.806593 -0.43292013 -0.48282564 -2.578476 3.3480244 -0.40986744 4.257786 -0.97493845 1.5565212 -2.2399416 0.57694536 1.4160807 -0.7398344 -0.2544851 -0.04573271 -1.0208577 3.406438
638 3.0707622 -2.3887773 -1.4076266 1.8196213 -0.5539758 -2.4073923 -3.6828537 -2.4356136 -0.55362 1.7651114 -1.8661398 1.7256272 -3.241056 -1.1385328 3.5849986 0.55465615 -0.30816683 -0.92314035 3.5035882 1.5830467
639 3.133374 -2.4581149 -1.4165666 1.7823281 -0.47865385 -2.4374511 -3.6557605 -2.3526475 -0.52707523 1.8098316 -1.8000387 1.7499671 -3.2504787 -1.0699131 3.5958545 0.53881043 -0.3531188 -0.74803764 3.493352 1.6284252
937 2.784948 -0.8643845 -1.31357 -0.25796503 -0.12544294 -0.6875394 -4.725431 1.5646888 -1.8029542 2.2320454 -1.955494 1.435429 -4.3302445 1.4603046 1.8288978 0.6391391 -0.092640705 0.87594366 2.6251564 1.4856728
936 2.7120397 -0.6646907 -1.4075006 -0.33110857 -0.1554121 -0.5939413 -4.734543 1.7186985 -1.8883754 2.2832365 -1.9836115 1.425657 -4.2132163 1.4876984 1.7333845 0.4847249 -0.024094095 0.8972818 2.4554381 1.5488513
1045 3.0499394 -1.4519558 -1.6253544 0.73002446 0.5026761 -0.27988657 -3.5619202 0.85615176 -1.4262586 3.4642015 0.77916557 2.2979567 -2.0834208 1.3366462 2.929617 0.8664983 1.7525629 -1.2766168 0.44384652 2.0606513
1046 3.132755 -1.582123 -1.605105 0.76822716 0.47173908 -0.29690453 -3.5426228 0.6486717 -1.3864602 3.3978927 0.6825726 2.262003 -2.122836 1.2600237 2.9771247 0.94911927 1.7542179 -1.2628753 0.5870219 2.0213962
123 2.6430886 -0.8851664 -1.9968565 1.7199583 0.1351865 -2.0293617 -5.5622034 0.9141408 -0.78271693 2.0994616 -0.4863735 2.3879092 -2.1671045 1.420008 1.8107249 -0.21226329 1.171006 -0.61597234 0.4892917 0.0014983705
122 2.5554695 -0.6709226 -2.033568 1.6279913 0.12653178 -2.0001445 -5.5182314 1.0979203 -0.8105316 2.1326275 -0.39530557 2.3562918 -2.1100292 1.3936213 1.713778 -0.28499693 1.1640855 -0.5740958 0.38073832 0.018198926
985 2.7563896 -1.4193498 -1.0579726 0.65398866 1.0433846 -0.57336825 -4.534005 0.2461933 -1.9563373 3.555848 -1.1771955 0.6278115 -2.8495984 0.6764398 1.105718 0.17855163 1.2683846 -1.4009868 1.3680401 2.0643148
984 2.6906486 -1.2382351 -1.056362 0.60467947 1.0664933 -0.5668506 -4.5163884 0.42551783 -2.037694 3.6302736 -1.0996227 0.62794435 -2.760023 0.69724333 0.98728293 0.102875575 1.3595073 -1.3870631 1.285109 2.1162505
540 1.3088962 2.0314972 -1.983415 -0.36628175 -0.19892147 -1.8985162 -3.084412 4.0624304 -1.1476632 3.956213 -0.13220885 1.9377562 0.75146973 2.2488606 1.9042304 -1.5892518 -0.09637598 0.7662936 -0.8234781 0.2387444
539 1.3047131 2.0778642 -1.9196488 -0.38547835 -0.1850878 -1.9205308 -3.0240395 4.047165 -1.1567419 3.986367 -0.20032547 1.9459583 0.75574356 2.233179 1.9075588 -1.5648209 -0.09564857 0.75130725 -0.8107403 0.2420069
971 2.3703716 -0.8598654 -2.5860658 0.5669425 0.04221141 -2.121657 -4.889362 1.416522 -2.3329253 2.824365 -1.8887237 0.7874739 -1.1171137 -0.6304239 2.6666434 0.5283977 0.37878597 -0.6391408 0.70904547 0.7274263
970 2.4835904 -0.9886035 -2.5565276 0.62821305 -0.032645665 -2.1590152 -4.938724 1.2148743 -2.2841952 2.7315407 -1.9516525 0.8052439 -1.2122872 -0.6284002 2.731851 0.61618024 0.33891094 -0.6596487 0.80438626 0.693271
964 0.808504 1.9434749 -1.8357849 -0.56695056 -0.84579927 -3.0319736 -3.5428376 3.9635952 -1.5996867 4.7449036 -1.0630795 1.1837562 -0.040453635 -0.06375931 -0.23593272 -0.1872619 -0.45694908 -1.903718 -1.0368785 0.6990399
965 0.83137244 1.970319 -1.8730447 -0.60438216 -0.8587857 -3.055054 -3.5283263 3.962625 -1.5927465 4.6711173 -1.070975 1.2078859 -0.051800236 -0.1465996 -0.17277145 -0.237642 -0.44654426 -1.9446797 -1.0158452 0.7125924
232 0.42944214 2.5783207 -1.7082748 0.10151769 0.53682363 -2.325318 -2.2561834 4.2270684 -1.9408134 5.189704 -1.3169833 2.5451257 -0.82408834 0.74456614 0.6639608 -0.31185526 -0.4690584 -0.23766485 0.1469019 0.14998063
233 0.45494378 2.5601265 -1.7068441 0.0524411 0.49085772 -2.336229 -2.232919 4.254695 -1.9136676 5.160596 -1.3266186 2.541078 -0.7705024 0.76845443 0.70148665 -0.32230094 -0.5201974 -0.14308977 0.16248147 0.14136814
326 -0.7098318 1.9234878 -3.2641916 -0.50962925 -0.54610795 -1.2072111 -4.3087454 2.2947507 -0.8482548 4.03913 -1.8244727 1.9260839 -1.580962 0.8989201 0.55085063 -2.2342536 -0.33437166 -1.2669396 -2.0869792 1.024766
327 -0.69591516 1.8832585 -3.2501736 -0.44622856 -0.5376365 -1.1534592 -4.307845 2.2805343 -0.8360144 4.072806 -1.854785 1.909964 -1.5566925 0.9564573 0.4605138 -2.2412245 -0.29246312 -1.2891657 -2.0988417 1.1263173
934 4.0820785 -0.5522687 -2.6959116 0.42771685 -0.9279152 -0.68533516 -3.2454982 1.0292155 -1.3183256 2.739461 -0.4999094 1.1583995 -2.1527348 0.32110274 2.3669715 1.4904742 0.70653576 -0.17836344 1.0150522 2.8623295
933 3.9862611 -0.38553214 -2.6858013 0.37368217 -0.85847807 -0.6673587 -3.243103 1.2473123 -1.3679086 2.7433023 -0.44066066 1.1207805 -2.1356783 0.3769022 2.2343433 1.4436575 0.7839884 -0.17940028 0.9742581 2.8778157
709 0.3412312 0.68634045 -2.6263506 0.056453194 0.929517 -2.2037768 -3.54954 4.0419674 -0.43542147 3.7460868 -0.27779904 1.6897292 -2.5971296 0.54192185 0.3053694 -1.3478705 0.14612168 -2.394181 -0.68835723 1.8826578
710 0.32404017 0.6658901 -2.5978076 0.04343964 0.9589203 -2.139984 -3.5270884 4.005039 -0.41793713 3.781013 -0.22046322 1.7066948 -2.6273015 0.5398113 0.24351662 -1.3211355 0.14205301 -2.4489675 -0.7233524 1.9403449
287 1.3505392 1.5691757 -1.507616 -1.0107254 -0.6402721 -1.7158253 -2.2772696 3.3877976 -1.4104096 5.6027308 -1.742362 1.1530015 0.09950312 1.2205489 0.5964595 -1.9879172 -1.695156 1.1109052 -0.57094836 2.2236242
288 1.3221397 1.568039 -1.4988569 -1.0000477 -0.65569276 -1.7980872 -2.2715504 3.3852453 -1.4361479 5.6350155 -1.7426852 1.1639149 0.15490974 1.1956992 0.5998233 -2.032551 -1.7624706 1.0690974 -0.5977481 2.145342
699 -0.30917385 1.5747387 -2.1370528 -0.74230045 0.08807868 -1.8750051 -4.167765 3.7095025 -0.08095642 3.5306804 -1.6246395 1.9053065 -0.5612322 1.9471942 -0.04119162 -2.1975543 -0.24164025 0.7217838 -0.7333001 2.047511
698 -0.30328053 1.5893437 -2.13934 -0.7276099 0.09368567 -1.7850968 -4.196362 3.6651206 -0.083918 3.5618584 -1.642734 1.8887181 -0.57801807 1.9921848 -0.07216306 -2.158532 -0.2024231 0.713827 -0.78013504 2.1141658
882 1.1349412 1.2719327 -1.7765507 -1.6496177 1.2411906 -2.43717 -2.6296685 4.3434453 -2.0849843 3.9266021 -0.92263305 0.9036768 -0.8160025 0.23530567 1.2816862 -0.3767818 1.2801564 -0.06524784 0.6327829 2.3203332
881 1.1077361 1.2652324 -1.7856964 -1.6734546 1.2351786 -2.5121937 -2.6624227 4.362986 -2.0776289 3.9220717 -0.92155284 0.94689673 -0.7771337 0.24219942 1.3322304 -0.413276 1.2901534 -0.0330434 0.6318765 2.2507606
887 0.45832828 1.8959216 -0.5942014 1.0663174 0.28925496 -1.8623952 -2.2481186 3.115577 -1.8008757 5.5985546 -1.3401395 1.7191845 -1.5023236 0.62490237 0.9606693 -0.5414022 0.36765006 -1.3909712 -1.8932273 2.041372
888 0.49179804 1.853616 -0.61772937 1.0614831 0.32829395 -1.8256168 -2.254249 3.0858934 -1.824094 5.6234965 -1.2814938 1.6756295 -1.5086913 0.6622841 0.93950117 -0.54094577 0.348738 -1.3754013 -1.8900543 2.1025088
17 3.9735727 -3.1871612 -1.5079781 3.1940722 -1.484099 -1.9892787 -3.8771248 -2.2206793 -0.7786238 3.1964698 -1.1700004 0.40929443 -2.2245395 0.15612642 2.7079203 1.1462429 0.4948159 -0.12652913 2.3378053 1.1061839
18 3.937593 -3.2000852 -1.50474 3.1320586 -1.4867445 -1.9914652 -3.8227215 -2.1975708 -0.8069839 3.1736786 -1.2005205 0.3961577 -2.2544806 0.11597363 2.7512531 1.104897 0.46567708 -0.11000674 2.3562858 1.0842651
98 3.7474022 -0.043940198 -1.4472386 1.1026512 -0.615202 -0.40214834 -3.3720663 1.2480056 -0.44332764 3.029955 -0.41298783 1.8560886 -3.4786272 1.020676 1.1878858 0.89165235 0.48343405 -1.9413248 1.0315361 2.2958195
99 3.8495347 -0.21302332 -1.4356477 1.1883879 -0.64716244 -0.4358464 -3.4421575 1.0602729 -0.4545554 2.9108446 -0.44589475 1.8590174 -3.5297945 0.9574914 1.2675797 1.0006027 0.36900023 -1.8750796 1.174716 2.2587094
769 2.2735503 -1.5596851 -2.2125444 -0.92452484 0.8847971 -1.0057724 -4.3559628 0.6362873 -1.094302 3.3084915 -0.642161 1.6414708 -3.2044868 -0.21727264 1.5965413 1.0742316 0.9493248 -0.36871198 1.3328724 2.5074806
768 2.1580276 -1.4419419 -2.2509522 -0.99987096 0.8815078 -1.0097572 -4.31039 0.826601 -1.129067 3.3420892 -0.5539808 1.6548734 -3.1273088 -0.14922038 1.5167875 0.98892933 1.0609043 -0.30189216 1.2641954 2.5227375
40 2.8887684 -0.85201067 -2.2901263 0.11046921 0.018039024 -2.2873569 -3.3671854 1.8977292 -1.66108 2.737841 -0.71785504 2.0857253 -2.2587214 -0.47683445 4.1011515 0.33542708 -0.5627203 0.23565102 1.2669607 0.61163884
41 2.9963415 -1.0365733 -2.2700005 0.19793168 -0.03666316 -2.3299727 -3.3724945 1.7151352 -1.5688418 2.6979966 -0.8255633 2.1329803 -2.3527606 -0.47062823 4.160408 0.43321922 -0.6052638 0.19554664 1.3255576 0.62359095
257 2.1773744 -1.6290883 -2.82482 1.0782154 -0.93298346 -2.0566413 -4.5735497 1.859361 -1.529705 2.3740041 -1.3352616 1.0992684 -2.9299872 0.24176577 1.967529 -1.1950048 -1.137435 -0.94761354 0.7897478 -0.265385
258 2.2020607 -1.7695124 -2.7548015 1.1549999 -0.95806164 -2.1136167 -4.601152 1.6492763 -1.4519945 2.297682 -1.4261359 1.1430609 -3.0560234 0.23787111 2.0418277 -1.0683914 -1.1123196 -0.9552424 0.92550683 -0.2857768
744 2.3929052 -0.6540477 -1.7973483 -0.025745586 -1.0978981 -2.495201 -3.5926173 1.9191742 -2.0781975 3.0354488 -1.6137404 1.4417392 -3.210847 -0.7468628 2.6220918 0.9429049 0.23480898 -1.3003656 0.98674464 -0.51050985
743 2.4758348 -0.7835959 -1.724645 0.011911765 -1.1176805 -2.4978507 -3.6388416 1.7087727 -2.0053968 2.9816027 -1.6581241 1.4650999 -3.306742 -0.741956 2.6389203 1.0232614 0.16754663 -1.3578136 1.0868812 -0.53862673
138 3.6833096 -0.73718435 -0.9781382 1.5420489 0.009811895 -2.820472 -3.4076889 1.7850559 -1.180445 2.8789804 -0.6894738 2.1193726 -1.56909 0.47057623 2.8759928 0.6869013 1.3120875 -1.9464216 0.70007616 0.84569895
137 3.773771 -0.8868994 -0.9225676 1.6050401 -0.035913568 -2.8414917 -3.4147313 1.5362282 -1.16621 2.8730116 -0.7907874 2.224855 -1.6920233 0.5243044 2.9883287 0.6988214 1.3180615 -1.9011238 0.8075491 0.7937036
879 -0.34212133 0.1645241 -1.123298 -0.2911519 -0.77466434 0.23620157 -0.04280766 0.12921932 0.62498844 0.45296973 -0.15836704 -0.0421192 -0.15997453 0.4070061 0.77979046 -0.51887274 0.35896257 -0.5248538 1.8124884 -0.047286853
813 0.10560975 0.10658704 -0.7029057 -0.45305264 -0.28480196 -0.17226942 -0.20162517 0.19135945 0.35467398 0.5760183 -0.12411083 -0.6972771 0.15660058 0.57172763 0.24819534 -0.17269127 1.0609182 -0.5490176 0.8786436 -0.08603433
486 0.9137918 -0.1406144 0.2033729 1.1335363 -0.40199116 -0.802007 1.0456876 -0.16484906 -0.11891223 0.9918308 0.33720732 -1.2251394 -0.4811385 0.46567407 2.0845764 0.8242919 0.055431906 -1.1749237 0.47412688 0.05832275
754 -0.72722405 -0.68398935 -0.009927829 0.94811165 0.11200876 0.0036379457 1.1692417 0.10072551 -0.6833852 2.4025874 1.2573218 -0.24686563 -0.59135586 0.39335978 -0.13022482 0.69878465 0.19975385 -0.32612795 1.0114398 -0.074247085
732 -0.8608181 -0.12716933 -1.5842198 0.60843647 0.33451936 -1.3925508 -1.3316708 0.9399264 1.4592469 1.057814 -2.7570415 3.1403062 -0.4467485 2.0177588 -0.33274874 1.2866457 2.30845 -2.1545508 3.286118 1.3718653
316 -0.6059205 -0.39556453 0.14731728 -0.8439827 -0.67429066 -2.4688644 0.6421536 0.020798493 -1.1570652 -0.023059677 -0.67882335 0.19914171 -0.5292777 0.30664665 1.5249016 1.0888337 0.75385594 0.14932016 0.9262004 -0.45340264
516 0.9266746 0.011237429 -0.0018699017 0.9595006 -0.22746004 -0.9054239 0.77539283 -0.35403702 -0.17636132 1.0196517 0.77765363 -1.2597572 -0.016879966 0.36243218 1.8447887 0.5557511 -0.05110548 -1.0939758 0.48043278 -0.29687053
378 -0.008275483 0.14197747 -1.3289303 -0.014680922 0.10370228 -0.80171925 0.43816775 -1.0475234 -0.9530241 0.3893656 0.1517775 0.20145297 -0.6800665 -0.34831733 0.9933128 0.040552672 0.43107137 -0.1395993 0.41960198 0.28949133
275 -1.2063534 0.37799796 -0.6616494 0.25998154 -0.20043316 -1.2898972 -0.076693594 0.04114776 0.54564 -1.1384573 -0.96355814 -0.106564954 -1.9194955 0.22877097 0.9596698 -0.15930364 -0.14258897 0.07359805 0.29333797 1.5366011
755 -0.5170977 0.120034456 -0.19732979 0.57006824 -1.0871875 -1.0719501 0.025184456 -0.084816426 -0.12524419 -0.045790855 0.19142726 -0.28861266 0.12284208 -0.15896685 -0.70672643 0.1392329 -0.24066481 -0.4364085 0.20642287 1.1799413
361 -0.51110214 0.025369808 -0.06479001 -0.3236951 -0.5824471 -0.21559197 0.861914 -0.5690884 -0.08802703 -0.011210446 0.078760974 -0.28228587 0.031998433 1.0194402 1.2069927 -0.13978557 0.34931135 0.0434524 -0.20432162 0.6390603
144 0.27945545 0.27757877 0.28397435 -0.729742 -0.5492867 -0.9005576 -0.30528787 0.0011877858 0.6657605 0.20821397 0.61281276 -0.31090966 -0.31690374 0.48696712 -0.045638535 0.5021927 0.8735208 -0.12987606 -0.23531386 0.7845658
363 -0.19327012 0.9152387 0.17475305 -0.17374463 -0.40481442 0.2972825 0.051670935 -0.903197 0.08916717 0.26106337 -0.12732662 0.6812856 -0.039238732 0.82580596 0.96637857 0.02875419 0.620591 0.06753042 -0.13480969 0.510653
63 -0.8379947 -1.3884192 0.5042466 0.1931856 -0.900662 -0.7108429 -0.17105226 0.06984896 0.2826044 -0.59635574 0.34552565 0.30980638 -1.3584017 1.249105 0.9970917 0.7429528 0.23248656 -0.3717791 0.09529228 0.44049776
140 -0.006016408 -0.791894 -0.13824005 -0.14664365 -1.4495825 -0.20946687 0.07784323 0.32273352 -0.7350409 0.46594054 -0.02031571 0.025127904 -0.5403895 1.0457611 -0.01004006 -0.16571021 0.6698355 -0.16674143 -0.4161054 0.25509465
669 -0.47827765 0.42060065 0.3866802 0.74978524 -1.0970612 -0.890909 -0.41820928 0.27217436 -0.561378 -0.11002081 0.33872038 -0.00048710196 0.29481372 -0.19161864 0.8299681 0.6206664 -0.38477862 -0.1004897 -0.07063192 0.6404721
627 0.56115746 0.08213379 0.2780085 0.32870188 -0.12545511 -0.33128944 0.5775908 0.059622284 -0.31071347 0.63963234 0.36331505 -0.7813502 -0.7774255 0.18211816 1.4691199 0.69152784 -0.094680645 -0.76978135 0.1091194 0.24818271
650 -0.44335738 1.0138452 0.35624784 0.39428505 -1.2916589 -0.29611468 0.039395235 -0.5849145 -0.09048981 -0.15985109 -0.23151016 -0.17455824 -0.69605994 0.06625399 0.35360745 0.25234026 -0.6040373 -0.54519445 -0.1812356 0.6477535
558 -1.0736754 0.4898973 0.43071827 1.2101563 0.3813299 -0.25461686 -0.36590022 -0.46751267 -0.6668859 -0.56774163 0.23909947 -0.28145528 -0.66533786 0.62386405 1.2804903 -0.024387851 0.78815216 -0.8910256 0.34413508 0.6965238
733 -0.5175434 0.18627872 -0.97215253 0.6378124 -0.6785594 -0.47285908 0.10852505 -0.8207861 -0.36603945 0.52847445 0.7843069 0.20067076 -0.36014622 -0.17887405 -0.6699718 0.5835551 0.24140817 -0.38807574 -0.066279635 0.8840185
469 -1.0577878 -0.9527643 -0.13357207 -0.08516775 -0.98782665 -0.10862118 -1.1781272 -0.13068025 0.0058948556 -0.58074975 -0.029907623 -0.20171845 -1.1724381 0.9955908 0.14412217 0.60492694 -0.01349842 0.08836176 0.14646408 0.1515895
330 -0.7733562 0.5393471 -0.090376586 0.19705236 -1.2520933 -0.3310661 -0.22603427 -0.31574476 -1.2056894 -0.290696 -0.61600095 0.28581506 0.43408194 -0.0966922 0.35209122 -0.13530432 -1.0471923 -0.9035634 0.3821574 0.7935698
160 -0.82359177 0.60859585 -0.23950832 0.041598383 -0.16479784 0.94661474 -0.47293225 -0.27584666 -0.25636265 0.15984604 -0.38829798 -0.33148625 -0.3629864 0.6031883 0.32412407 0.47038016 0.33233377 0.18159571 -0.040138006 1.2148837
212 2.462076 2.949416 -1.9685407 1.5636072 -2.5810182 -0.34386992 -1.9935254 -1.2658764 0.5268878 1.2678251 1.3969054 3.1559784 -1.1360548 1.6354382 0.568738 1.3137918 -3.0876317 1.8327532 2.2594097 0.26496577
800 -0.87217903 -0.32697803 0.28169933 0.67065036 -0.16933188 0.28062603 -0.53282225 -0.33239806 0.11200067 0.17799282 -0.3492363 -0.34770206 -0.9921226 0.99634737 0.06655161 -0.045987546 -0.43039382 -0.16084374 0.15960264 0.01912643
49 -0.8786382 0.46348512 -0.88797194 0.7477627 -0.041076206 0.28672713 -0.7578814 -1.6295998 -1.7730957 0.459657 0.6334739 0.4835078 -0.26392534 1.223664 -0.7348284 -0.14323133 0.55847627 0.73632663 0.4247941 0.45901886
294 -0.83267045 0.33720043 -0.6086016 0.13140628 0.11675973 0.24113734 -0.13418704 -0.21570744 -0.28686997 0.22018722 -0.30574113 -0.13705446 -0.15310827 0.23027776 0.8981046 -0.2926554 -0.2624607 0.5538345 0.10166547 0.4020713
580 0.40223178 -0.418048 0.1707867 0.075707294 -0.15353854 0.26783228 -0.39804238 -0.7698389 -1.1417158 0.38455597 0.7941876 -0.79678357 -0.65676796 1.214617 -0.6778317 0.6544903 -0.0093231015 0.29794213 1.3650669 0.34773102
716 -1.1479607 -0.18729983 -0.81210065 -0.5208371 -0.06879636 0.48218247 -0.047753073 0.5686681 -0.4689369 0.473532 0.45586705 0.12706837 -1.2750045 0.2316278 -0.25680184 0.41120836 -0.93773687 -0.28898782 0.8935469 -0.039015766
204 -1.1629568 -0.10446087 -0.31132665 0.74478436 0.29733527 -0.42781413 -0.71202546 -0.26221663 -1.3486984 -0.21596944 0.5876785 0.53131753 0.24782398 0.51629674 0.8706414 0.6064846 -0.21409597 0.19011152 0.120131575 -0.11312271
590 0.06424514 0.51424927 -0.22697565 -0.23555501 -1.0353827 -0.19247274 -0.4951497 -0.06521975 -0.4918208 -0.4518357 0.15262063 0.3315905 0.19220233 0.58226776 0.34981158 0.079868585 -0.18932827 -0.69825995 0.0016990795 -0.0006193958
388 -0.077444375 -0.048448212 0.520479 -0.072921485 -0.81449676 -0.5798503 -0.33189338 0.13646582 -0.50492626 -0.17081778 0.34238553 -0.20802273 -0.31139123 -0.05085776 0.4969633 0.36435974 -0.40605518 -0.20348562 0.0154768955 0.72951365
419 -0.5677715 0.015410475 0.22017165 0.449321 -0.4807786 -0.9343805 -0.6847261 0.33686316 -0.6276356 -0.28774574 0.51163644 -0.046576127 0.17678049 -0.031543527 0.7235318 0.37583807 -0.3915739 0.011122507 -0.26979345 0.47798216
671 -0.4523325 0.5587617 -0.26047602 0.50797087 -1.0213199 -0.62966245 -0.06617712 -0.26180843 -0.58787113 -0.13073209 0.11355901 0.2831945 0.28620327 0.015541903 -0.39751863 0.14607453 -0.7528355 -0.41210732 0.17409685 0.6439471
96 -0.078024246 -0.26392514 -0.9003473 0.90739715 0.084296964 -0.5729984 0.23814441 -0.09055143 -0.17977174 0.61254823 1.3572562 -0.11859682 0.38923192 0.06545853 -0.14859636 0.43077576 -0.38097027 -0.38691464 0.3778002 0.71055293
71 -0.8985499 -0.63825566 -0.77726173 0.25020045 -0.27657458 0.023311457 0.21444458 -0.3148932 -0.64194864 0.55507094 0.48461 -0.1392497 -0.34434712 0.50698763 0.6482333 -0.6175972 -1.2816582 0.42901355 -0.32431927 0.13985892
237 -0.0038373298 0.20621027 -0.27493492 0.40313512 -0.48357886 0.2962342 0.052055668 -0.12931566 -0.40188336 -0.08242964 0.0036717546 -0.6053601 0.04879937 0.8649451 0.39818817 0.09823465 -0.2655056 0.17031346 0.25474283 0.4006942
148 -0.54544073 0.12927046 -0.5063558 0.013072093 -0.3730564 -0.47980577 -0.22227456 0.026304299 -0.6145498 -0.37480354 0.539345 -0.49289083 0.29231068 0.3707967 1.118548 0.07422659 0.3702465 0.58639514 0.13019398 0.028398804
209 -0.23778296 0.03914785 -0.40468833 -0.03134565 0.1375125 0.21394067 0.1096138 -0.1545949 -0.53784347 0.19683221 0.6181948 -0.41128537 0.7843185 0.91663426 1.1365085 0.4979913 0.4027351 -0.09407295 0.012883286 0.21915004
661 -0.8200403 0.21560007 -0.41682324 0.9894525 0.39415896 -0.15865307 -0.64436823 -0.5523839 -1.1608514 -0.22480728 0.6579282 0.72384006 0.09475003 0.6083677 0.49129838 0.64292216 -0.14726532 -0.083544575 0.20525804 0.17926157
369 -0.42345074 0.091054514 -0.30162066 0.11082378 -0.3659166 0.5149616 0.11990401 -0.068354286 0.067016244 -0.12673312 0.03405101 -0.47708172 0.031667374 1.2401311 0.35291824 0.22093783 0.004267321 -0.044675943 -0.08649338 0.5492341
770 -0.43943092 -0.10599724 0.03460362 -0.6906151 -0.32890415 -0.5586025 0.14304127 0.054125383 0.4646658 -0.2578206 1.248577 -0.35102382 -0.5508322 0.47736755 0.055298693 1.047346 0.1513934 -0.14337675 0.24377754 1.0470668
802 0.29944533 -0.32267287 -0.37974712 0.33514333 -0.31869557 0.19522834 -0.24646491 -0.5506082 -1.1410921 0.11139414 0.4989691 -0.56979096 -0.2697519 1.284134 -0.6585029 0.22902153 0.20482577 0.4402061 0.99753886 0.26551434
788 -0.727782 0.19426611 -0.3271089 0.5170753 0.1450928 0.20115301 -0.26790208 -0.1921788 0.30398527 0.1835018 0.039916024 -0.46974525 0.34063664 0.68624425 -0.35639408 0.14722547 0.14859505 -0.2932819 0.11064027 1.0544746
344 -0.2725896 0.20870025 -0.38011912 -0.23203847 0.10319914 -0.0764212 -0.100832164 -0.7991777 -0.103093915 0.13678966 -0.049221575 -0.48378894 0.21354102 0.7634691 0.6191187 0.41088912 0.010050978 0.33799267 0.22843224 -0.038254302
151 0.22373259 -0.17218547 -0.1599121 -0.74550176 -0.004889934 -0.44652617 0.32795924 -0.2951079 -0.38650486 0.7798819 -0.03293994 -0.2428942 1.1381352 0.41167518 0.20412564 0.8612714 -0.53194433 -0.05592746 0.61229026 0.8001755
896 -0.2625322 -0.019233296 0.36755088 -0.29236045 -0.029399315 -0.5451655 0.43554395 -0.49240354 -0.4401579 0.00028958224 -0.058981348 -0.1367392 -0.025192598 -0.08896417 0.31738776 0.3437401 -0.17880124 -0.16627125 0.5385979 1.8261157
303 -0.32076213 0.16997638 -0.13442384 0.026311796 -0.17626166 -0.043037165 0.2999034 -0.25888407 -0.0112557085 0.18151365 -0.02218025 -0.3080201 -0.1326234 0.53216064 0.36345512 0.011389477 0.01735359 -0.09532696 -0.06622076 0.28627166
939 -0.10417796 0.5147063 -0.83394754 0.2510186 -0.40501064 0.21359326 0.019411441 -0.21048936 0.043841705 0.07825154 0.3513969 -0.98767984 0.102782965 0.73104066 0.1345885 -0.058595493 -0.6153661 0.28238457 -0.13070393 1.0463403
534 0.39405292 0.047871783 -0.37455803 -0.3892179 0.2383436 -0.2825484 0.37678444 -0.23298725 -0.3529151 0.900252 0.765148 -0.65659547 0.5130174 0.32897618 0.8672174 0.4008735 -0.74510723 -0.6251605 0.48114288 -0.4060847
815 -0.12034964 0.61931396 -0.44620925 -0.6719528 0.3635923 -0.026412385 -0.20314468 -0.33900085 -0.30935016 0.45944718 0.18687679 -0.14643785 0.0039855395 0.16735004 0.6866205 0.67212915 -0.61701316 0.2874887 0.28997996 -0.08238311
78 -0.35501173 -0.11145824 -0.72285646 -0.3241089 -0.10212344 0.15352498 0.47086352 1.1095601 -0.6971091 0.28849167 0.4348325 -0.19507052 -0.42552918 0.9050291 -0.13765503 -0.11136658 0.2476234 -0.58522785 1.1886172 0.09775166
748 -0.89994854 -0.37002707 -0.44886422 -0.09182331 -0.15338868 -0.82536995 0.6654305 -0.08993516 -0.11340836 0.66636926 0.6553159 -0.5714528 0.20946074 0.14155416 0.1339582 0.6867802 -0.16747275 -0.47606388 -0.13216394 0.19272943
731 -0.57366216 -0.4034186 -0.1544719 -0.52313185 -0.10236908 -0.591133 0.4659725 -0.0204411 0.14875816 -0.0008266551 0.695616 -0.45734075 -0.42735666 0.40462074 -0.16409892 0.8702869 -0.09584927 -0.21881403 0.2873378 0.84726304
940 -0.32255343 0.39886338 -0.7500415 0.38650224 -0.26852572 0.33309978 -0.05600532 -0.14548399 -0.025831446 0.17371441 0.27052054 -0.9550655 0.0054389946 0.48508853 0.1336435 -0.031988386 -0.55417895 0.15093556 -0.09017223 0.9664263
883 -0.23604731 0.1954462 -0.7274115 0.3747684 -0.24449152 0.21733913 0.37963247 0.42714787 0.21773213 0.06377513 -0.05991413 -0.2632518 -0.20135318 0.42038473 0.56345856 -0.15176731 0.037936397 -0.020720458 0.8639857 0.31629553
955 -0.20096219 0.6176908 -0.46323767 0.15967295 -0.33690473 -0.094652876 0.3140691 -0.15355712 0.020229978 -0.25692785 -0.19443955 -0.4796736 -0.24465851 0.7740073 0.22772688 -0.08370511 -0.08226557 0.097589515 0.4055134 0.24266955
930 -0.2989358 0.6360415 -0.2886359 -0.5488472 -1.2798758 -1.43407 0.47054344 -0.41242194 -0.1730063 0.1504547 -0.51984286 -0.16556337 -0.47289234 -0.2513587 0.09720178 -0.21748258 -0.14052436 0.47074628 0.053017586 0.345715
497 -0.69062537 -0.08256916 -0.3054933 0.82902753 -0.26819572 -0.7461487 0.19611225 -0.8177943 -0.26684242 0.73608685 0.4422495 0.8022261 0.48990035 0.7260697 -0.2185112 -0.10030004 -0.48815468 -0.6220767 -0.67912453 0.28549954
358 -0.18731347 0.5081736 -0.09794296 -0.434853 -0.23334071 -0.6293812 0.36542657 -0.6366468 -0.12655829 0.1886081 -0.1343996 -0.21443453 -0.15049951 0.35906583 0.38753873 0.102200165 0.2174854 0.5082165 0.1975463 0.15618439
356 -0.17711645 0.20023192 -0.59698623 0.12627591 0.02346569 -0.0670683 0.18088205 -0.37814626 -0.32358634 -0.013335727 -0.11343902 -0.27970684 -0.14307587 0.48684612 0.32822174 0.010715168 -0.021588715 0.041506484 0.09035794 0.295563
335 -0.29246455 0.47433114 -0.52583 0.08919351 -0.24327162 0.10167358 0.14343342 -0.15474835 -0.18164356 0.2562484 -0.06945702 -0.3309992 0.039555848 0.63126826 0.088035874 0.1908944 0.14259744 0.17684333 -0.2025742 0.31041014
265 -0.033852734 -0.32216159 0.33280054 -0.22096501 -0.34519988 0.15746525 -0.22063814 0.119425364 -0.66287667 0.6199122 0.15622406 -0.9144504 -0.46317282 0.07881955 0.31371677 1.0118803 -0.5313254 -0.532743 0.18149197 0.5874083
246 -0.07235834 -0.1657503 -0.35647443 0.034349907 -0.080214664 -0.036163047 0.19521531 -0.2835297 -0.08386594 0.27890453 -0.19148465 -0.31952205 -0.45051575 0.57721615 -0.064199865 0.3833882 -0.3401762 -0.13541126 -0.026541125 0.3907945
461 0.22265229 0.5410563 0.26448178 -0.7659808 -0.831067 -1.3562598 0.628543 -0.596897 0.14481461 0.54571366 -0.28779367 -0.40112555 -0.7509812 0.4585172 0.34985125 0.33408305 0.7387103 0.09900544 -0.34088847 0.45520553
422 -0.3252768 0.34665284 0.09153469 0.08048832 0.1630511 -0.110266306 -0.31477743 0.1208598 -0.2774202 -0.31588498 0.35769728 -0.19852892 -0.21916823 0.31713963 0.17718758 0.24384671 -0.46382996 -0.06460085 0.094941266 1.2336267
359 -0.217161 0.21322513 -0.18903956 0.23661818 -0.039183337 -0.1934573 -0.026572682 0.17869164 -0.07781108 -0.2890292 -0.1551009 -0.5353601 -0.03957985 0.74002516 0.36189458 0.053540837 -0.12029033 -0.03494777 0.19424015 0.31943437
190 -0.8019391 -0.012564986 -0.37542295 -0.8209446 0.23037486 0.3095959 -0.50354946 0.074887894 -0.46143785 0.48597172 0.6561195 0.015212332 -0.8233939 0.20453571 -0.21821581 0.33788374 -1.0168511 -0.25471666 0.43053085 0.025655836
564 -0.60625476 0.1693527 -0.54003435 0.9762848 -0.14063664 -0.57815796 -0.062373977 -0.8699694 -0.6248548 0.42514867 0.68211603 0.94692045 0.46184236 0.54273635 -0.3808947 0.26528227 -0.42625654 -0.41178578 -0.32628402 0.6062599
65 -0.58043164 0.110397674 -0.76310754 0.3976315 -0.33869708 0.3275861 -0.060175955 -0.114395104 -0.34790415 0.28858742 0.22103289 -0.5375384 -0.21043134 0.49580005 0.09934838 -0.3644344 -0.7789932 0.09475154 -0.40900224 0.69042736
219 2.0896814 2.6819723 -1.3686115 1.0799059 -2.1543207 -0.36965936 -2.0344458 -0.93389624 0.36944422 0.86653835 1.7271273 2.7965002 -1.3620865 1.7604986 0.3720545 1.1054249 -2.6426568 2.0870173 2.2341504 0.07296424
451 -0.7255402 -0.19662355 0.10585854 -0.3400153 -0.053803 -1.0532598 0.64062023 -0.37904912 -0.07171008 0.5116635 0.0749771 -0.12295198 -0.48748934 0.277111 0.051587623 0.08576084 -0.27770364 0.21173364 0.05871977 0.16968787
351 -0.13174377 0.52063096 -0.55092746 0.15425643 -0.43657684 -0.5122905 0.5673317 -0.1799676 0.03154896 -0.48054162 -0.047888488 -0.30253768 -0.36972186 0.79718536 0.1529739 -0.004950126 -0.20700565 -0.123236336 0.6286289 0.12179563
224 -0.49903932 0.46625587 0.2478203 -0.5988068 0.5469563 -0.3211838 -0.21073368 -1.0492194 0.14552975 0.54124564 0.043616813 -0.05317241 -0.080646105 0.4511441 0.22877458 0.56263644 0.13351673 -0.09321182 0.1516562 0.19053453
371 -0.0076898937 0.3961578 -0.18990938 0.18281211 -0.273451 0.002904046 0.04111781 -0.39858693 0.048978798 -0.05014335 -0.2258135 -0.56510437 -0.056832712 0.8145669 0.29465267 -0.08814173 -0.08950941 0.2924775 0.16433267 0.4332732
277 1.7284497 2.1168625 -0.938224 0.9880893 -2.2215679 -0.48729548 -1.8917309 -0.39408618 0.8977585 1.0050721 2.3625524 2.1543043 -0.8496559 2.0785308 0.40506503 1.5180068 -2.5149617 2.6507468 2.0449157 0.05926966
409 -0.5734247 0.49395803 -0.25776595 0.44334346 0.31447527 0.10372661 -0.26692504 -0.22636548 0.18027233 0.083987564 0.30631927 -0.18013282 0.27712443 0.45068997 -0.17264326 0.11594034 0.14412032 -0.4238916 0.20343699 0.9370482
878 -0.1365187 0.028830828 0.09581703 -0.41464168 -0.10437571 -0.10132222 -0.27142504 -0.7805814 -0.6457122 0.684702 0.062963136 -0.7335147 -0.2441713 0.19860029 -0.32052663 1.2023445 -0.24366659 -0.32676175 0.6601315 0.12379353
193 -0.62695885 0.2981872 -0.062514104 -0.30967695 0.3430087 -0.80152404 -0.8064253 -0.015969101 -0.09212252 -0.005396652 0.62079394 -0.18402061 -0.28436 -0.22431804 0.16114554 0.02193907 -0.8613774 -0.051308166 -0.23213792 0.6724556
723 -0.68837297 -0.7650683 -0.17236847 -0.17727908 -0.08853519 -0.9252147 -0.23380964 -0.84474105 -0.7485174 0.15094657 0.11491133 -0.36049712 0.02475813 1.0679233 0.20906496 -0.3595523 0.65455353 0.47736067 -0.097063266 0.014467972
346 -0.26552162 0.33364543 -0.1940334 -0.06339797 -0.015223359 0.004646426 0.01026796 -0.4340297 -0.03862443 0.10486765 -0.16475685 -0.3891138 0.024028521 0.5506668 0.47023523 0.16602263 -0.020202331 0.124410585 0.044431485 0.21029073
73 -0.18421125 0.22838062 -0.17619249 -0.0020674064 -0.5652469 -0.55777794 -0.13006885 -0.6504248 0.039942812 0.047715906 -0.21744063 -0.37730172 -0.6125546 0.3975523 -0.1839519 -0.34402245 -0.5600052 -0.78568244 -0.0896242 -0.26636156
811 -0.055784814 -0.2807443 -0.6054678 -0.20802563 0.42048845 -0.84044665 -0.071295515 -0.77971756 -0.30375278 0.088312805 -0.099645674 -0.57774234 0.78162384 0.9262032 0.09940827 -0.2510313 -0.3641821 -0.7942514 0.14770426 0.10501922
119 -0.06763787 -0.4521545 -0.030391969 0.45942995 0.29743627 -0.8029122 0.10887058 0.22506511 -0.5589768 -0.32933873 0.20012228 0.05894042 -0.0718375 0.8823669 -0.22285312 -0.02651027 -0.8818601 0.22614183 0.7315113 1.0019486
975 -0.0594457 -0.026485838 -0.27612346 0.08068795 0.03747545 -0.40789026 0.26251382 -0.5250499 -0.06592568 0.17799844 0.38384888 -0.42909297 0.21655393 0.5755332 0.6056799 -0.3454926 -0.4484506 -0.32178947 0.17708652 -0.120610386
245 -0.29828033 0.21418694 0.015286036 -0.3514802 0.074488014 -0.24117553 -0.09470472 -0.7730587 -0.29599622 0.6599503 -0.07439785 -0.4649796 -0.25682223 0.036290843 -0.13138036 0.97863364 -0.3007606 -0.089609236 0.41081852 0.16297662
996 -0.06093703 0.40311602 -0.3277558 -0.013724412 -0.15030028 0.063622355 -0.09619178 -0.026105488 -0.13637635 -0.22835462 0.050108835 -0.17623779 0.10762826 0.65831256 0.29799196 0.014117553 -0.20866118 -0.23255107 0.26374996 0.15012705
168 -0.48888457 -0.0018071735 -0.56924623 0.26813102 -0.16991247 -0.40511486 0.415123 -0.34933898 0.29802403 0.26580268 -0.037004728 -0.21002765 -0.0004555566 0.6216944 0.2658632 0.17624715 -0.14732373 -0.4468797 -0.5366366 0.3044868
677 -0.23756906 -0.43815687 -0.56637424 -0.120244846 0.04166017 -0.71759725 -0.015114504 -1.0953293 -0.5966317 0.29530108 0.31506366 -0.34709376 0.038555164 0.7977866 -0.108355835 -0.69311786 0.3860427 -0.47967198 -0.042701785 -0.060919687
515 -0.5279406 0.39713126 0.08741593 0.0012389261 -0.15043458 -1.0528282 0.08125477 -0.6096869 -0.02476915 0.1448932 -0.048510745 -0.39547557 -0.77185535 0.1617528 -0.27398285 0.3638881 -0.15067223 -0.02252861 0.40570277 -0.32497987
837 -0.82388026 -0.24789804 -0.8212431 1.688345 -2.3636389 -2.9956462 -0.92671967 -1.3153336 0.13010159 1.8334733 1.8788228 -1.5491263 1.0320007 2.9110281 -0.023556562 2.6935952 0.8937986 1.5831072 -0.8849613 -2.2387557
206 -0.71443707 0.62301445 -0.7063945 -0.05666298 0.17145188 -0.5337818 -0.521979 -0.18798473 -0.22897583 0.17611717 0.5413303 -1.0019925 -0.050547857 0.026289217 0.13018668 -0.061926194 -0.8469928 0.43195033 -0.25341022 0.5954534
134 -0.34287584 0.39789775 -0.31595838 0.2357824 -0.3719463 -0.13674147 -0.079391316 -0.16135998 -0.19678493 -0.25752237 -0.21299233 -0.44885996 -0.0668119 0.58734053 0.013581815 0.043064047 -0.38087082 -0.13483424 0.35564858 -0.010924196
923 -0.13913509 0.5005499 -0.20928577 0.34104708 -0.14060508 0.20053221 0.22287838 -0.1907433 -0.11792197 0.0842526 -0.16751161 -0.5202714 0.058792528 0.9417614 0.5762123 0.0789417 0.10672974 0.008893002 0.005818688 0.28021967
715 -0.358437 -0.4623266 -0.12841068 -0.050091445 0.009169047 -1.2984123 0.4868692 -0.07259094 -0.36785367 0.015193387 -0.13289592 -0.11164321 -0.31401473 0.62161666 0.14530678 0.22257747 -0.19305335 0.60073465 0.47427112 0.08835507
894 -0.95961225 1.5219223 2.2635064 2.6471736 0.77517456 -2.0997028 0.8103988 -1.7077976 0.317988 3.3876035 1.3672227 -0.6028635 -1.4254557 0.41338247 -0.64670587 -1.5496199 0.023849038 0.5407021 2.194614 0.37607875
293 -0.6309166 0.4707528 2.7303674 -1.472808 -3.5266204 0.38539705 -4.384005 -3.6208756 2.3242557 4.438281 -0.7979672 0.1741489 1.04145 1.0533155 2.9000986 0.5332652 0.4194555 0.7130126 2.6135113 -0.4130535
114 0.64323264 -0.57489 2.6283693 0.47873777 -2.2624416 -0.47551286 -5.6491227 -2.8306336 2.225796 4.006576 -2.1526976 -0.60901934 1.8085327 0.6605848 0.928538 -0.047982853 -1.3968455 -1.7861254 2.793439 1.3817002
181 -0.63653135 0.4076089 2.0783489 1.0199106 -2.2871993 -1.478454 -5.19705 -1.4647272 0.8285001 -0.52320915 1.4360019 -0.4263847 2.9003818 2.2971344 2.401364 -3.0849586 -1.1551344 0.36492017 4.5121417 -0.052182913
446 -0.017856546 1.7657807 -0.36228 0.4459463 -0.8855524 -1.3075905 -2.6032147 -1.6581078 -1.4669214 1.3146647 -2.4565947 -2.9632452 -0.61769557 -1.1806647 0.82365793 -1.304202 0.77154225 -2.3227925 0.97141904 0.44841763
700 -1.3516995 -0.43450287 0.8112334 -0.90727663 -2.146647 -2.0341053 -4.322021 -1.3986657 0.07350691 0.40692514 1.3109659 0.36371848 3.5716178 1.2993515 1.369666 -1.9098943 -1.9908675 2.2483673 5.3353386 -0.40148005
734 -0.4360797 0.1421207 -0.78784496 -0.12905985 0.0011279825 -0.28772312 -0.41583654 0.4926436 0.36436588 0.06496241 -1.1323751 1.3016423 -0.025644187 0.9568705 0.3335493 0.45774612 1.2938162 -1.1315534 1.8404077 0.40566394
905 -0.40899158 0.24306226 -1.647839 -0.3780526 -0.7691923 -0.48218277 -0.535003 -0.75138444 1.6829371 0.49037963 0.4600513 -0.09409058 -0.3270041 0.16835715 0.36675468 -0.8619547 0.4247047 -0.69939756 2.5768023 0.3029828
333 -1.024161 -1.3634316 3.6193194 0.2217305 -1.5822996 -0.48634887 -2.6209364 -0.3586603 2.0427659 4.277128 2.8086355 -1.562769 2.6430612 1.970357 0.8115948 -0.118038915 0.34136757 -1.35118 3.4069724 0.42721415
752 -0.053670008 -1.2711678 3.6609733 0.11879056 -2.1580126 0.42653126 -2.3469944 0.39687982 2.0812294 3.2545946 2.1068842 -0.6470028 2.544078 2.795081 1.2045372 -0.22675689 -1.4449995 -1.5229355 4.419773 1.1858242
107 -1.503172 -1.846203 3.1793048 -0.5010146 -3.4732664 0.20507221 -3.0673864 -1.8687965 4.064244 3.1497548 -0.86796683 -0.88246024 0.552211 1.8902812 1.6482977 0.725503 -0.878271 1.5971813 3.6920152 2.053183
944 -0.66203237 -2.574913 1.8904928 -1.2719792 -1.5642794 -0.8815479 -3.9604661 -1.4254802 3.229714 3.0258756 -0.9913889 0.27965975 1.9003551 0.77449393 5.5573177 0.292423 -2.3290129 0.91928625 3.0940003 0.5113225
230 -1.2693418 -1.76762 2.337912 0.16291527 -1.1987011 -1.170032 -2.2676718 -0.6397853 5.2839155 4.148229 -0.32204792 0.9269905 0.8560642 0.9641805 2.9317253 1.5622059 -2.4011858 0.832252 3.5462441 0.119477704
125 -0.16041945 -3.338507 1.0362674 -1.5805805 -1.7787956 -1.5421376 -5.019782 -1.998415 3.4922116 3.245341 0.8379095 0.57019436 3.225363 1.0001814 2.4415517 -0.22811164 -1.9050297 0.3088663 2.4370224 0.85490733
179 -1.878602 -0.5720669 0.47633305 0.43622637 -0.41841727 -1.7182888 1.2114449 0.37541798 2.7110858 0.5655263 0.6929687 1.3975959 -0.7769496 0.99205464 1.4313254 -0.03165318 -1.5746396 -0.9133035 0.6190425 0.5960809
312 -1.1614941 -1.7002805 2.3261619 0.22081165 -1.1609808 -1.2292497 -2.3334155 -0.6534014 5.28741 4.1089177 -0.37403283 0.920039 0.92171836 0.9496017 2.942199 1.554566 -2.418183 0.8099708 3.533487 0.1493661
216 -0.48324275 -0.48197693 -0.0926885 -1.3309438 -1.3475394 -1.6524861 -0.07609334 0.010002906 0.23076898 2.2848501 -1.7204947 -0.22414753 1.9662943 -0.23039158 -0.79816234 0.80907714 -0.8570624 0.16898488 1.4322876 1.2243928
1040 0.5184107 -2.145509 2.5851645 1.1288764 -1.7360677 -2.1678607 -3.0532522 -1.540192 3.3670557 2.5713775 0.60340065 1.1118194 2.070374 2.900931 2.27245 -0.6056746 -2.275365 2.7594502 4.5304823 -0.26519313
870 0.5625218 -2.1259518 2.6405456 1.1626923 -1.6601348 -2.1726148 -3.0612652 -1.5598351 3.3778095 2.621122 0.6636702 1.0828332 2.0602186 2.8854685 2.185419 -0.57219326 -2.265743 2.7112386 4.5190396 -0.29159978
