3509 80
635 -0.14753254 -0.017757328 0.084087335 -0.03050378 0.13591689 -0.123825066 -0.013698739 -0.03376106 0.030256113 0.007963747 0.17617662 0.059929427 0.065094516 -0.049022976 -0.1512485 -0.13743709 -0.026064893 -0.045009635 -0.14699548 -0.08151474 0.20744616 0.12251836 -0.06824749 -0.2713189 0.08283916 0.28723687 -0.20075443 -0.2569162 0.009498311 0.095256574 0.01561378 0.0014377382 -0.10896811 -0.08590043 -0.0066676782 -0.07806751 -0.1630434 -0.025777426 -0.12729923 -0.055272643 0.028243804 -0.057009768 0.08493918 0.15433016 0.06105899 0.049224075 -0.12944168 -0.06535811 -0.16153508 0.097247414 -0.015747234 -0.14304955 0.15377763 -0.25361425 -0.15637296 -0.26870227 -0.17636319 0.03313176 -0.15509245 0.050163995 0.016491015 -0.052846313 0.101364784 -0.055636074 0.004476377 -0.1026767 -0.23114775 -0.12934658 0.035096247 0.14174828 0.08535192 -0.27892175 -0.005996832 -0.06780747 -0.118844055 0.19940338 0.09270611 0.026059877 -0.0057555176 0.22356224
715 0.28226212 0.3629926 0.27684188 -0.1022822 0.0733744 -0.2435732 0.049202617 0.010002106 0.24261522 -0.15805969 0.44568947 -0.20312864 0.29915014 0.19070107 -0.102693215 -0.25341153 -0.22847946 0.0838688 -0.3828461 0.02875731 -0.03266797 -0.14079823 -0.10291582 -0.0059509706 0.2043534 -0.24276465 -0.088176645 0.043459676 -0.10774118 0.041566473 -0.27394143 0.10902823 -0.0818072 -0.14580548 0.30419075 -0.18117934 0.027765997 -0.273414 -0.09943704 0.020882076 0.093234934 -0.24426766 0.08375412 0.081549115 -0.39439437 -0.26347893 -0.28604633 -0.0625795 0.19035223 0.11427045 0.19784148 -0.10526722 0.016470097 -0.1612595 -0.48191148 0.028221026 -0.0808255 -0.24455228 -0.29949984 0.19952025 -0.11897132 -0.032039683 0.25754684 0.03528042 -0.1725268 0.084368944 -0.14616153 0.41087902 -0.2061285 -0.06534119 0.25039688 0.22967823 -0.30165234 -0.1695973 -0.11323187 0.4071515 0.40258345 0.14865659 0.20601083 0.003900127
2804 -0.106687285 0.04003685 0.14045699 -0.06437153 -0.1161072 -0.13330539 -0.318338 0.16652437 -0.10651771 -0.35339543 0.14309639 0.33003765 -0.12174546 0.19887963 0.27428356 -0.34083724 -0.0069264295 0.051797688 -0.05716552 -0.007310694 0.41679 0.1835024 -0.19524325 -0.50242287 -0.20706129 -0.32914558 0.020783942 -0.38894996 -0.111895256 -0.1353158 -0.1299068 -0.14814454 -0.2328218 0.29874462 -0.07671938 -0.0027389813 -0.20766549 -0.5551154 0.18932329 -0.064703554 -0.13877352 -0.13994259 0.11407799 0.12779729 -0.037793778 -0.31371677 -0.3303122 0.10142517 -0.25861824 0.10993227 -0.06656764 -0.23386176 0.47402763 0.41835243 -0.17635661 0.058109213 -0.07671715 0.07373182 -0.13069062 0.02488216 0.2684334 0.18092632 0.24055268 0.29565534 -0.25065356 -0.21056747 -0.4405673 0.45981318 -0.33073962 0.1537186 0.1350101 0.2903381 -0.28141752 -0.28455332 0.00876827 -0.2063769 0.26797393 0.13001746 -0.26083288 0.19164829
1408 -0.124401905 -0.5020442 0.480195 0.1346891 0.4148313 0.08686106 0.37304458 0.2749013 0.5550453 0.15251696 0.3843487 0.3041593 0.10738369 -0.47048083 -0.69417506 0.15763034 -0.509545 0.09423057 0.20291466 -0.07575804 -0.26545393 0.4430472 -0.48394054 -0.415797 0.3793128 -0.50808465 -0.118176535 -0.66805077 -0.090078734 -0.46995828 -0.73499495 -0.08909129 0.1772414 -0.57587576 0.21087295 -0.0057088435 0.5891767 0.305262 0.035799757 -0.21383119 -0.24715024 -0.6399339 -0.26519617 0.061283264 -0.33899853 0.625996 0.094012894 -0.6594059 -0.007517109 -0.10909449 0.29799056 0.5457585 0.41345915 -0.049682204 0.09989119 0.26148394 0.41430023 0.11639103 -0.82995266 -0.85707563 0.6391091 -0.57180303 0.4643648 0.50316614 0.125413 -0.09451097 -0.7073851 0.35055673 -0.076144114 0.2922772 -0.7803512 0.03478708 0.0034180307 0.23953931 -0.013071581 0.67505336 -0.23178214 0.05712032 -0.12979291 0.2161274
813 0.06834456 -0.19024509 0.275467 -0.34186378 0.03101097 0.38229072 -0.15186669 0.018958803 0.13327281 -0.3108145 0.43964446 0.2453158 0.29108316 -0.09769904 -0.005243468 -0.20832996 0.12692 -0.17375934 -0.076835096 0.05079576 0.094054736 0.15952906 0.27410927 0.033445608 -0.2960836 -0.12474615 -0.20403476 -0.17500833 0.079358846 -0.06965612 -0.3284342 0.09785958 -0.32771823 -0.071089394 0.040042434 -0.23312645 0.34893283 -0.061330203 -0.3559451 -0.016774118 0.007838092 0.18466839 0.292048 0.10980411 0.054196253 -0.006034545 -0.31460664 0.01666041 0.045195706 -0.2368687 -0.0056714322 -0.34352857 0.50708175 -0.025401916 -0.19840331 -0.29437438 0.083395116 0.11521489 -0.2794178 0.2431971 -0.02579995 -0.23834017 0.28254804 -0.25346294 -0.42764577 -0.0201388 -0.29441902 -0.15471654 -0.37984648 -0.21872598 0.027050458 0.35169235 -0.047370944 0.2334457 0.35680768 -0.015039817 0.04257886 0.24097826 -0.17364383 0.17048186
3401 -0.21398821 0.105391994 0.045445245 -0.035524983 0.08279982 -0.4393735 -0.29089358 0.04822707 -0.037272796 -0.09843812 0.046263434 -0.29844415 -0.2196846 0.024082612 0.10957176 -0.22330631 -0.26753703 -0.16354285 0.0971095 -0.33328044 0.014556324 0.17352858 -0.11275013 -0.2189418 -0.22178034 0.12081705 0.05211968 -0.06239968 0.0955513 0.41625524 -0.27004212 0.15116735 -0.15396138 -0.039621044 -0.11060025 -0.48661563 0.19240001 -0.26990008 -0.6522123 -0.39159542 -0.028606366 0.2372456 0.26599872 0.25463247 -0.14139351 -0.01349962 -0.014546463 -0.029399814 -0.41790804 0.0988702 0.37459642 -0.12036967 -0.015184635 0.14596252 -0.555421 -0.02794096 -0.23814769 -0.078592114 -0.07747273 -0.1189231 0.33930433 -0.14044924 0.24774046 0.40382594 -0.5282196 -0.20430617 0.03609912 0.08819915 0.07799099 0.1825158 -0.19190574 0.23085108 -0.13682915 -0.10631291 -0.02424227 0.14227839 0.08420245 0.06892246 0.04319526 0.32798573
1156 -0.30220097 0.2211544 0.30623427 0.02738498 0.4144329 0.14682214 0.073406205 -0.061854895 0.13995095 -0.027276225 0.18832576 0.46028656 -0.07205836 0.3443412 0.24590188 -0.16349629 0.2413686 -0.062045615 -0.13993539 -0.16575347 -0.2530133 0.33112937 0.13009223 -0.06249989 -0.056744967 0.035507135 0.21324573 -0.16674262 -0.032978848 -0.1259702 -0.20889235 0.06761649 0.19661261 0.023957342 -0.21971013 0.010452712 -0.020954762 0.17597313 -0.51706964 -0.010959361 0.058978282 0.0491152 0.017441215 0.2107133 -0.21915968 -0.14760579 -0.05386972 0.6644013 0.058681853 0.016747324 0.06683697 -0.14743982 0.4959481 -0.07586902 -0.63388556 -0.27114135 -0.00096202985 0.08509036 0.093479805 -0.36504745 -0.0018990104 0.0116072865 0.16917302 0.017873552 -0.019453207 0.05966299 -0.055332392 0.27045423 -0.24174307 0.11754946 0.06267629 0.143404 -0.23642208 -0.119461834 0.22740978 0.32088485 0.00963852 0.03939101 -0.23413622 0.16334033
537 -0.5229493 0.32557067 -0.35697615 -0.2643953 -0.20434451 -0.14175327 0.07458839 0.053935617 0.28475934 -0.5384512 0.11512044 0.15604994 0.59796685 -0.48942715 -0.13779825 0.2326673 -0.48765853 0.6617916 -0.16686974 -0.48413074 -0.18632568 -0.05554971 0.28694037 -0.2054422 0.0007046549 0.09186904 0.2838536 -0.18761629 -0.32600453 0.18147509 0.49346912 -0.41638488 0.028707257 -0.02412646 0.2110902 -0.0037743347 -0.29956716 0.030101284 -0.075041726 -0.32528022 0.45954308 -0.5311751 -0.1629287 0.19456229 -0.09388443 0.1840795 -0.1828326 0.37463927 -0.043585993 0.08395016 -0.17181557 -0.59258235 0.065006875 0.27894503 -0.07882905 -0.47268617 -0.58367336 0.3523975 0.003419711 -0.15002955 0.4625681 -0.11109863 0.7061183 0.2355244 0.02198633 0.4067512 -0.5076492 0.3586537 -0.084142484 0.46990788 0.8481176 0.22969644 -0.14643614 0.048279632 0.43106675 0.6023143 -0.33670786 0.012627498 -0.24111784 -0.03954134
291 -0.2588608 -0.20689529 0.15598172 0.019717189 0.08113406 0.16205394 0.24327143 -0.0042377035 -0.29001498 0.06853211 0.046074737 0.53403276 0.079938784 0.038291164 -0.032863293 -0.2951348 -0.023243917 -0.032118123 -0.24248545 -0.12788267 0.13472241 -0.16933721 0.099304736 -0.19314088 -0.22347036 -0.2864881 0.36012757 -0.063280754 -0.0944781 -0.22480047 -0.05196617 -0.06678742 -0.33213234 0.20798352 0.28431717 -0.5690193 0.35992104 -0.18362467 -0.4166586 -0.14213239 0.12938476 0.1219863 0.055786785 -0.20649639 -0.17942385 0.021195311 -0.4049729 -0.00895196 0.27762637 0.27657536 0.1563784 0.020919114 0.1702429 -0.12517396 -0.026574219 -0.21277776 -0.100286394 -0.13254294 0.11696056 -0.061735883 0.45324492 0.08187265 0.28278804 0.23598033 -0.07680496 0.22797617 0.20240928 -0.065213434 -0.12132108 0.055228896 0.21053809 0.18662836 -0.004828631 0.06431656 -0.16627765 0.018884966 -0.09379651 0.2638855 -0.10953219 0.18939702
1587 -0.046607412 -0.18074657 0.29182568 0.0730074 -0.11614299 0.05874844 0.13229963 -0.15766548 -0.21349113 -0.03509404 0.19634993 0.69295865 -0.27698612 0.28371948 -0.13959709 -0.1666454 -0.036481585 -0.00043349285 0.0065929703 0.0389703 -0.0154124275 0.056237802 -0.058533423 -0.029666886 -0.057984773 -0.12824832 0.22174625 -0.29308474 0.077899255 0.0075257025 -0.32371154 -0.34507525 -0.38845578 -0.11598388 -0.060574573 -0.36050993 0.080801465 0.02252439 -0.40224758 -0.23978588 0.1618368 -0.06591421 0.10245735 -0.08067381 -0.068371624 -0.05962494 -0.1860416 0.34095642 0.5335389 0.029789776 -0.144378 0.01907915 0.1963479 0.2000326 -0.12543453 0.008792423 -0.3501184 -0.023954447 0.22875024 0.32670465 0.3961916 0.08757639 0.2586378 0.15942079 -0.2318402 0.008655193 -0.14970902 -0.33884317 -0.3970053 0.18049388 0.22990741 0.011379245 0.039393783 -0.0068836245 -0.1990001 0.37615532 0.23425424 0.19753015 0.17618805 -0.114551164
432 -0.6125619 0.8819818 -0.13052475 0.025475807 0.59344107 -0.31078637 0.32471496 -0.36130437 -0.08207214 -0.71874976 1.1312621 -0.3828915 -0.3042945 0.42234313 0.6396385 0.3461201 -0.14378347 -0.5801262 0.39361125 -0.02165646 -0.461421 0.35591954 -0.16652212 -0.5917283 -0.02924935 -0.28488418 0.09662724 -0.37871385 -0.009167707 0.51682234 -0.30830723 -0.20481746 -0.32344043 0.10390053 -0.72522366 -0.57021075 0.8146872 -0.54864895 -0.18378572 -0.37935972 -0.25970474 0.12240094 0.24666886 -0.08375769 0.1437748 0.35189667 -1.2979392 -0.26055965 0.09499527 0.8473361 -0.43465742 0.11579725 0.6855048 -0.22098793 0.68608254 1.4106412 -0.29675192 0.97233814 -0.7434125 0.20992121 -0.02183591 0.23631528 0.37403804 0.7072484 0.3407706 0.8106974 -0.9310847 0.5860146 -0.080543995 0.16220574 -0.31344992 -0.6190034 -1.0379511 0.30510822 0.31975508 -0.4168567 0.10678736 0.091367 -0.32007587 0.5761063
1293 -0.061931245 -0.26019529 0.354182 0.11390285 -0.08942337 0.04180531 0.18869448 0.08266817 0.19361292 -0.12998924 0.33214653 0.18088196 0.02485322 0.40677017 -0.031835392 -0.3204891 -0.06616585 -0.13658847 0.019679358 -0.2083049 -0.114028394 0.5139031 0.010382383 -0.30277443 0.4714517 0.089878574 0.035062455 -0.22611399 -0.7372372 -0.24287908 -0.1398073 0.13894428 -0.0061348723 -0.11035432 0.2510798 0.07275346 0.21755312 -0.24991924 -0.2094885 -0.070491806 -0.17352729 0.18014744 0.04679786 0.084292315 -0.3790408 -0.56007713 0.23606345 0.14198637 -0.19144194 -0.07028503 0.16275091 -0.03695591 0.3741398 0.05241319 0.23023319 -0.20457177 -0.33961308 0.47173995 0.12734339 0.551839 0.21868275 -0.09950376 0.42275915 -0.39645264 -0.20147547 0.10936611 0.011245065 -0.044636004 -0.4575523 0.07759784 0.27120668 -0.089885995 0.062107716 -0.18917875 0.005156212 0.17577825 -0.1200359 -0.24040055 0.27019325 0.12138901
21 0.2095506 0.26063496 0.37754977 0.3233961 0.072807364 0.16359662 0.08985773 0.23345245 0.09964756 0.30758044 -0.057415385 0.51618797 -0.16600633 0.077609316 0.072217815 0.38339674 0.06752108 0.31125295 -0.11220339 -0.17540158 0.13722703 -0.37422186 -0.1395602 -0.36263692 0.27311602 0.14987536 -0.034954343 -0.4803101 -0.32576835 0.27207547 0.24433316 0.36104867 -0.11857664 -0.3169001 0.28858528 0.19192807 0.81210774 -0.051390488 -0.7919776 -0.39859852 0.21812262 0.16457094 -0.05859952 0.44074082 0.030888645 -0.410302 0.009208985 0.014630734 -0.38340586 -0.3131595 -0.5789438 -0.10776063 -0.015918726 -0.032918043 0.04891977 0.085049324 0.17985728 -0.25600365 -0.20454122 0.077027336 -0.034673043 -0.121586464 0.028287427 0.38836446 -0.46970692 0.092205405 0.28956413 0.025523081 -0.36921206 0.1539459 0.30322987 0.1270811 -0.12733237 0.3850708 0.03881043 0.45520887 0.124906935 0.19924024 -0.34116003 0.34724128
293 -0.37461296 0.21615084 0.0076646507 -0.52195305 0.3598086 0.17049114 0.30342045 -0.021915229 0.2730359 0.006637503 0.006159565 -0.007832572 -0.16551921 -0.1544582 -0.05379492 -0.30101618 0.22210942 0.23499805 -0.39776444 -0.08567714 0.21241203 0.08193664 0.21671177 0.09244039 0.05729415 -0.58862513 0.25555038 0.04899779 -0.17230012 -0.09499482 -0.18539736 0.25265104 0.31289893 -0.16167012 0.006533247 -0.90668917 0.1666958 -0.2968877 -0.07419122 -0.15926977 -0.49912494 -0.005663327 -0.28226152 -0.03331063 0.054135762 -0.1382731 -0.16798452 0.014844741 -0.027685836 -0.091170676 -0.0331939 0.107207894 0.4702893 0.18086058 -0.14140202 0.0047874586 0.09578895 0.082130335 0.21185192 -0.314365 0.041691527 -0.061044402 -0.08995777 0.014616937 -0.40730393 0.4883229 0.015190071 0.04643402 0.30442682 0.7763722 0.43823412 -0.17398933 -0.08112886 0.017081074 0.09570894 0.12637235 0.13705917 0.032832153 0.0066664526 -0.04186206
753 -0.33818224 -0.3184383 0.4771179 -0.032764453 0.27334988 0.109722316 0.26556298 0.020748917 0.038798098 0.72916585 0.08364331 -0.011811659 0.035226412 -0.6085182 0.12008453 -0.108060226 0.23331957 -0.12137383 -0.3031085 0.04095423 -0.47648287 0.34899318 -0.0116804745 -0.6025199 1.0535457 0.07246503 -0.069213495 -0.6910539 0.28942615 0.39243203 0.5212587 0.09601716 -0.046236426 0.20992683 -0.17063017 -0.2516349 -0.06630699 -0.28529096 -0.3419077 0.49223033 0.3415048 0.09642509 -0.33649814 0.25189528 -0.13813648 0.29148304 -0.19737968 0.023809219 0.11281252 0.26155064 0.34117413 0.16876042 0.5840616 0.37242058 -0.5903905 -0.1717639 -0.20837271 -0.042416897 0.045038987 -0.2444296 0.107124776 0.37913284 0.53537846 -0.2945222 -0.22787939 0.29335138 -0.2115726 0.0488051 -0.37313014 -0.525329 0.122141644 0.23769791 0.52583 -0.19726357 -0.33389845 0.24977008 0.096652076 0.70954746 -0.5375371 0.25876352
177 0.5591866 -0.43166578 -0.7321486 0.010416499 -0.11014168 0.6850094 -0.05321949 -0.17677034 0.52035916 -0.34196556 0.87843955 0.7639674 -0.41119537 -0.14513896 -0.3063357 -0.26479793 -0.012260233 0.21679293 -0.37928143 -0.10751057 -0.16385855 0.34535378 -0.056317654 -0.55159813 0.3349065 -0.30810106 -0.11248521 -0.20683107 -0.53939986 0.4007854 -0.14308955 0.40984285 -0.3150019 -0.3412577 -0.24707192 -0.24861974 -0.055231344 0.21848246 0.2857983 0.11750969 0.23753625 0.3785444 -0.1588978 0.4451241 -0.25163728 -0.550233 -0.28476495 -0.3882687 -0.13864769 0.04782584 0.72213703 -0.23837118 -0.3562575 0.09997378 -0.3775702 -0.09401365 -0.30567253 0.49131715 -0.086701706 0.4565255 0.051562984 0.12635702 0.34658256 -0.16230796 0.057983924 0.4077485 0.36251584 0.28339425 0.15604629 0.83650243 -0.19482355 -0.482297 -0.14204216 -0.0915342 -0.1961651 0.045922585 -0.30320302 -0.33514786 -0.33285695 0.22237518
662 -0.55411756 -0.25121826 0.17404774 0.20162372 0.25827304 0.20177482 -0.1531896 0.19977815 -0.16412555 -0.1267174 0.107959345 0.32423088 0.09819905 0.2699714 -0.12534317 -0.71864545 -0.5406251 -0.042882707 -0.044528928 0.09691908 -0.57410365 0.052518368 0.046012893 -0.2144826 0.5746161 -0.069603845 -0.09168577 -0.4000462 -0.3880852 -0.2152131 -0.30141652 -0.37438813 -0.043373667 -0.12565412 0.005781955 0.12571007 -0.0009737722 -0.0727556 -0.05924108 -0.120915435 -0.12791854 0.3807955 -0.25460202 0.43133476 -0.03231594 -0.05282339 0.029979402 -0.24015895 -0.26926532 0.12865192 -0.07817686 -0.50412244 0.21777134 0.0096283965 0.29672924 0.2079419 -0.35879838 -0.13724421 0.46591768 0.55924463 0.43297997 0.07216314 -0.077527426 -0.19375363 -0.47365943 0.0401681 -0.11024838 0.109214544 -0.52908283 0.4625136 -0.17080952 0.03585271 -0.10897271 0.10366509 -0.0018554163 0.09732547 0.46169877 -0.17014155 0.25771987 0.07484495
1541 -0.20063718 -0.32645953 -0.18231505 0.094746836 -0.21764418 -0.10994587 -0.1443388 0.18741179 0.4043695 -0.4009085 -0.30144584 0.057284772 -0.24957673 0.33323368 0.20059334 -0.056453433 0.45624566 -0.1741638 -0.24989097 -0.48060152 -0.40310067 0.30287933 -0.023613568 -0.50586706 -0.28217188 0.055934157 -0.113021076 -0.2580701 0.33527496 0.2217716 0.09881046 0.09938022 0.26743308 -0.18246593 0.42132723 -0.43554235 -0.27586898 -0.23066387 -0.14005439 -0.3323449 0.29776007 0.12133447 -0.31334943 -0.2539994 0.36777398 0.014781264 -0.09420702 0.044701293 0.16466013 -0.057373393 0.35083818 0.018351398 0.0655374 -0.51862824 -0.051426962 0.15465009 0.016081857 -0.33959424 -0.22874585 0.39814866 0.2334289 -0.30446675 0.0018537083 0.121383555 -0.1671046 0.00012475728 -0.294676 -0.13170306 -0.42941138 0.4594194 -0.28481224 0.41912505 -0.3051624 0.113270536 0.06906614 0.27430138 -0.15855625 0.25517887 0.07885464 0.37437138
876 0.105433926 -0.6048026 0.21230456 -0.18974595 0.62858945 -0.27191797 0.1787902 0.534562 -0.04350506 -0.101680785 1.2797312 0.23494141 0.45957407 -0.60882723 -0.057614975 0.53157884 0.4532082 -0.42931184 -0.32049 0.16965686 -0.19620301 0.8056895 0.6860489 -0.1420581 -0.61072236 -0.5587132 -0.3915542 -0.40101337 0.28262988 0.019256676 -0.54204917 -0.2551675 -0.29560646 0.022433955 -0.09519798 -0.7678164 1.0484413 0.69131064 -0.2211066 0.64589554 -0.43738866 0.93038595 0.601133 1.1165093 0.059160553 0.41135362 0.19591466 -0.42839712 0.56957716 -0.35423696 0.21208607 -0.030006144 0.74982274 0.448372 0.24277063 0.77954024 -0.32546294 0.32412544 -0.93036795 0.3818788 -0.3164114 -0.7678729 0.55095786 0.79694754 0.023391465 -0.21159145 -0.730571 0.0013099695 -0.075131044 0.29364187 0.15771466 0.81384 -0.3297771 0.34017843 0.5106383 -0.07080434 -0.07905165 0.17211612 0.13637699 0.31955808
1341 -0.2990484 0.04404241 -0.40003908 -0.07163955 0.24788024 -0.32421157 -0.2361756 0.13952538 0.37695658 0.28061864 0.36048144 -0.3570765 -0.59258676 -0.33100885 0.5358648 -0.061719205 0.32584548 -0.10378189 -0.0042705755 0.2133969 0.19640814 0.5177558 0.26428133 -0.30411497 0.36572304 -0.8416766 0.43955308 -0.14037777 -0.34382784 -0.0095649185 -0.16394317 0.27342013 -0.20148718 -0.33954015 0.33256927 -0.5481948 0.18143518 0.33906886 -0.1671021 -0.20309693 -0.5285879 -0.34057096 0.2220277 0.089537814 -0.24759164 -0.19523416 -0.11461801 -0.32435447 0.5499519 0.2741348 -0.22535953 -0.42866287 0.1546831 -0.29915327 0.41852802 0.4322419 0.16482618 -0.37881836 -0.2087862 -0.34562168 -0.22342004 -0.26576978 -0.0959139 0.0014989454 -0.44503886 0.74143827 -0.8314745 0.16670226 0.33781394 0.72853136 0.5053752 0.18199423 0.014234415 -0.6859279 -0.19837958 0.20539732 -0.18663344 -0.063180104 -0.06796645 -0.0031056288
105 -0.45145136 -0.5637784 0.005061739 -0.06015448 -0.035324883 -0.18414053 -0.14029843 0.23670293 0.3492311 -0.2001552 0.26645628 -0.535681 -0.51626974 0.011575828 -0.33716026 -0.035294015 0.27749673 0.036586534 -0.41947594 -0.2943475 0.15785468 0.023681728 0.054746676 -0.587723 -0.12893301 0.2162819 0.011232345 -0.22198139 0.4606864 0.12194923 0.042674195 0.15856816 0.4292177 -0.5869866 0.28191552 0.037255734 0.091200404 -0.079056576 -0.12235845 -0.25894776 0.726686 0.24821791 -0.121292114 0.16152614 0.31235614 -0.1108428 -0.10928951 0.14471832 -0.09890841 -0.10484664 0.19283436 -0.027696887 -0.029559605 0.004060132 0.16608459 0.17670596 0.32040808 -0.4534727 0.10245452 0.41085646 0.5275713 -0.28728068 0.025492359 0.34199625 0.274234 0.5861127 -0.30913144 0.119635545 -0.47782058 0.09260423 0.17948535 -0.09580142 -0.45271698 0.08750924 -0.07748293 0.33018878 -0.04496149 0.03755335 -0.037025757 0.0062631583
499 -0.25146395 -0.2367222 0.056047436 0.29820374 0.31768054 -0.20856448 -0.33188975 -0.03887349 0.27510372 0.025255466 0.4717109 0.18031822 0.2254403 0.10727768 -0.42610455 0.39388674 0.21049288 -0.45943382 -0.3249494 0.12372405 -0.21249525 0.3233782 -0.12845191 -0.15045568 -0.19561575 0.14869784 -0.026063176 -0.068963 -0.34043136 -0.02359727 0.006389903 0.16123894 -0.32954785 -0.26092064 0.30992484 -0.3529334 -0.55347914 0.09435389 -0.25812098 0.51355046 0.28620142 -0.00074803067 0.07926651 -0.17827772 -0.40020582 -0.09720663 -0.28041294 -0.47415826 -0.48034608 0.050249107 0.2644221 0.14721562 -0.2564862 0.20297271 -0.06211662 0.15454699 -0.33264184 0.16167238 0.011825675 0.23359069 -0.05526728 0.26493916 0.47719592 0.15676858 -0.5121967 0.5468122 0.5952388 0.3109088 -0.2953594 0.9504819 -0.027733684 -0.18370417 -0.043467417 -0.12926401 -0.22887234 -0.13937128 -0.22006343 -0.22425228 -0.5408333 0.061411183
274 -0.13813958 0.16499403 0.09644413 0.43850473 0.1105446 0.04923313 -0.3498979 -0.053348843 -0.4977617 0.17293155 -0.13802485 0.19720227 0.13074508 0.42534006 -0.28766558 0.009698889 -0.27086493 0.32854846 -0.26991576 -0.9021115 0.06237388 0.57053757 -0.1450778 -0.010819405 -0.2613156 -0.15058951 -0.55045563 -0.3824572 0.004982331 0.057179425 0.3715986 0.7002522 -0.35375953 0.020159576 -0.06915693 -0.01969343 -0.16957073 -0.017406793 -0.80355376 0.1356348 0.13000657 0.30313927 -0.09176576 0.18737449 -0.2015223 -0.33752766 -0.15042262 -0.44772792 -0.045180865 0.17422418 -0.23364158 -0.14371793 0.78360415 -0.059141066 -0.3308226 0.16325083 -0.09218006 -0.112237446 -0.056306373 -0.082599156 0.043237504 0.29758716 0.313315 0.55592805 0.28128493 0.26367417 -0.72602016 -0.010893937 -0.13035531 -0.006838653 0.15841888 -0.025146022 0.35679042 0.30307934 -0.30264625 0.03769103 0.0056382813 -0.0019441595 0.27353144 -0.5157033
43 -0.04681834 0.1538421 0.2662491 0.26515436 0.22660574 0.0842051 0.04576228 -0.12202578 0.37140578 0.037765633 0.2636296 0.31036636 -0.20684898 -0.1348623 0.09842112 0.21378577 -0.3030505 -0.26598468 0.09517843 -0.25776047 0.06588115 -0.22697774 0.22255011 -0.43805197 0.011953441 -0.1885756 -0.5018338 -0.37366033 0.22264214 -0.014172663 0.19049035 0.15564135 0.09315569 0.14162531 0.4123436 0.39419276 0.73733157 -0.2450368 -0.2534733 -0.23867188 -0.1894316 0.009664891 -0.43576163 0.09575602 0.17412329 -0.15938981 -0.21385172 -0.13236378 -0.179333 -0.23581107 -0.5783781 -0.20981519 -0.0944747 0.044632733 -0.3726032 -0.09610395 -0.2595781 -0.24730457 -0.23673144 0.22345674 -0.37766254 -0.2619188 0.5432335 0.38933295 -0.024766244 0.13795842 0.06069336 -0.10578472 0.39456955 0.5831541 -0.0065950644 -0.24522811 -0.20655099 0.103421405 -0.44804296 0.07551277 0.19785295 0.045621727 -0.36766806 -0.48080245
149 -0.017087536 -0.55533 0.0699397 -0.039383445 0.24496064 -0.10193907 -0.019233549 0.101479724 0.21974277 -0.3071859 0.14497602 -0.04664462 -0.4990551 0.060202256 0.06821862 0.09846491 0.2519712 0.016122436 -0.33201894 -0.46150208 -0.081171945 0.12685244 0.13243802 -0.6868727 -0.27702272 0.20384488 -0.20826882 -0.3728532 0.32274944 0.4823557 -0.063738294 0.22721969 0.63271266 -0.060465436 0.2135532 -0.2567478 -0.050200917 -0.13665017 -0.19744495 -0.30507684 0.3663812 0.18079212 -0.28234506 0.05586473 0.4905573 -0.49217153 -0.14562497 -0.010554273 -0.14921011 -0.4503099 0.24923189 -0.08949138 -0.35268047 -0.21026537 0.10209511 0.45671535 -0.11348584 -0.41254112 -0.0009440839 0.20734286 0.63479555 -0.2745774 0.09741478 0.4089151 -0.11922341 0.024783095 -0.10789339 0.14183341 -0.32985148 0.2672998 0.106174454 0.34714016 -0.0750536 0.05317088 0.09843308 0.23783095 -0.17414486 0.48314026 0.37536913 0.31923503
175 -0.447317 1.0249367 0.56098664 -0.16982134 1.7466352 -0.60031515 0.67562693 -1.1277224 -0.9269483 -2.1297011 1.0312923 0.9219996 -0.23071101 -0.76921934 -0.32449368 0.111241736 0.40603906 0.18444376 -0.5765442 -1.450556 -1.2377582 0.8272424 2.0003138 0.6257877 0.022646684 0.06131245 0.35407913 -1.3630394 -0.317951 -0.256773 0.17123376 -0.3399542 -0.11445204 -0.9036687 1.361578 -0.11327578 -0.31744808 0.8999871 -1.1083654 0.5857916 -0.12169568 -0.9319018 -0.18222067 -0.052456982 0.64105403 -1.1006202 -1.6177437 -1.0235723 0.4685125 -0.91230756 0.12427543 0.988811 0.1730817 0.54264224 0.40684384 0.44483486 0.4456005 0.8475159 -0.42334443 0.1823831 0.6265724 -1.1445926 0.84708357 1.2998991 1.1533877 0.9713294 -0.70140046 -0.17177673 -0.7385303 0.8966923 -0.85507464 -1.1102344 -0.013243776 0.16978477 0.29809 -0.017134596 -0.81128126 1.1426142 -0.053194053 -0.29386315
220 -0.4213575 0.4625851 0.23464242 -0.091447346 0.0020469446 0.12863913 0.091312364 0.05742963 0.17791131 -0.11672658 0.036730893 0.42031005 -0.18007179 -0.2653925 -0.00537763 0.32544422 -0.30500436 -0.35280412 -0.54369956 0.07550993 0.027459543 0.25478125 0.1610026 -0.25687382 -0.05958526 -0.6041046 0.42077002 0.035863932 -0.18265224 0.14266358 -0.21900074 0.35564342 0.11765311 -0.048179742 -0.19148318 -1.11877 -0.114970475 0.22279587 -0.38763773 -0.32105643 -0.25850934 0.14657082 -0.27551976 0.052763283 0.2909133 0.014040537 -0.12526949 -0.07177873 -0.48289296 0.37012452 0.20794421 0.24851517 0.55680424 -0.1396442 -0.39665815 -0.39720732 0.12376596 0.08706324 0.111768365 -0.10336198 0.077616625 0.08388893 0.29840615 -0.19657615 0.2870088 0.20841216 0.5444182 0.055516586 0.1628921 0.5087012 0.18348111 0.13240956 -0.46774027 0.24151792 -0.06729039 0.08076914 0.025862738 -0.016752435 0.052929513 -0.25499594
34 -0.29175088 -0.06724162 0.3268178 0.2920272 -0.16193435 0.474883 0.43911076 -0.17590313 0.045400806 -0.05113739 -0.03352968 0.23246612 -0.046157014 0.25825667 -0.1305305 -0.21112573 0.19722113 0.29468405 -0.25755858 0.013838384 -0.06031952 -0.028437482 0.12365592 -0.4881122 0.37528285 0.21784045 0.22412759 -0.061570924 0.20911624 0.19013008 -0.07310664 0.04228681 -0.2522171 -0.30518708 0.27149862 -0.43251386 0.059620686 -0.10034902 -0.58512044 -0.21839593 0.27102807 0.16813256 0.042870425 -0.071278416 0.17581548 -0.23414403 0.050508875 0.17684531 0.17584743 -0.3185863 -0.2060795 0.030420465 0.11870949 0.20039575 0.06467532 0.13953528 -0.06878678 -0.4437819 0.20073418 0.2737708 -0.31896558 0.05052881 0.004747032 0.13669437 -0.23141612 -0.3236679 -0.4198074 0.18440668 0.045748107 0.20570605 -0.035226338 0.42080462 -0.46131694 0.43894836 0.11809288 0.46687075 0.017096313 0.068275124 -0.2847246 0.39853674
624 -0.11833287 -0.296347 -0.16638732 -0.4464837 0.064495996 0.22974718 -0.011134329 0.076542236 -0.16862135 0.3507457 0.26218185 0.24420682 0.27036265 0.25162774 0.22834143 0.18467014 0.065096445 0.013753231 -0.58711725 0.03277531 -0.03869955 0.21879254 0.10878264 -0.15850918 0.08090134 0.11721462 0.16099845 -0.38700902 0.537707 -0.046840724 -0.4586261 0.40269238 0.3572305 0.34776828 0.38176948 0.11554947 -0.3166688 -0.30466193 -0.5292161 -0.06578454 -0.08254478 0.05669071 0.013227542 -0.2731347 -0.31071848 -0.14626665 -0.18633154 0.03077565 0.20506996 0.16586249 0.04530955 -0.16726586 0.26117438 0.056949984 0.01401402 -0.27439976 -0.047730554 0.46939442 -0.1601099 -0.0016400085 0.23903835 0.10223666 0.14260907 0.24668145 -0.26426196 0.11475465 0.1631073 -0.23398605 -0.024675313 0.4667162 0.32471833 0.2831465 -0.07828696 0.5533543 0.14631574 -0.020417728 -0.26842728 -0.3188015 -0.0068750065 0.1650749
1340 -0.19248967 0.14143954 -0.46744543 -0.11587858 0.10063423 -0.33173516 -0.41355094 0.27764925 0.42775044 0.28266838 0.32657722 -0.34032944 -0.49692544 -0.5161892 0.4430612 0.07135608 0.44828445 -0.013414656 0.0692304 0.15196133 0.31425378 0.68596655 0.26766858 -0.13500626 0.4313753 -0.75238615 0.4585734 -0.08484843 -0.12382074 -0.06255851 -0.21348351 0.31620324 -0.29820758 -0.1472249 0.47196457 -0.48593098 0.14102791 0.53531164 -0.21991763 -0.30416626 -0.6552491 -0.30511606 0.07183743 -0.015081046 -0.24904719 -0.27868953 -0.11706608 -0.30384442 0.58410704 0.19200577 -0.3602031 -0.3762579 0.23228155 -0.071794964 0.21413073 0.30606952 0.26413468 -0.3632695 -0.18705665 -0.42570946 -0.06307156 -0.30726433 -0.12305921 0.09543454 -0.41517738 0.6811566 -0.7656336 0.39608142 0.12216528 0.8163694 0.51814127 -0.023754867 -0.03843977 -0.6757026 -0.32364368 0.09549845 -0.121640064 -0.11504663 -0.0717644 0.1896099
257 -0.2885865 -0.36476612 0.14217447 0.044976495 0.16519463 -0.15378152 0.015785962 0.30339596 0.2130251 -0.61714816 0.10782343 -0.10026773 -0.4023341 -0.15208189 -0.19732916 -0.1581646 0.17748174 -0.008847481 -0.04211352 -0.36457708 -0.1349574 0.40382344 0.49094597 -0.42129177 -0.23949634 0.49474213 -0.15833652 -0.07985704 0.43462148 0.18099615 -0.3316871 0.15863839 0.3406355 -0.48742348 0.24261534 -0.14504738 -0.2793481 -0.19523953 -0.36385646 -0.3763463 0.11827318 0.1684897 -0.23527342 0.18047246 0.409603 -0.009801792 -0.24014811 0.0624265 -0.111331925 0.23773654 0.15544587 -0.073512 -0.22901538 -0.09044926 0.12547395 0.40857953 0.06961362 -0.3465629 0.2650466 0.3173934 0.52829945 -0.26901326 0.13485922 0.38296092 -0.18538553 0.05973594 0.06874438 0.1798227 -0.4664331 0.1335537 0.048609182 0.033024002 -0.09134853 -0.19544333 -0.038949084 0.22680293 -0.11403922 0.38299188 0.30446526 0.234934
333 0.4235321 -0.023743322 -0.19937284 -0.5032173 0.38104573 -0.12360322 0.4023799 -0.054070916 -0.008931583 0.09546692 0.7612746 -0.047666393 -0.09772806 -0.012020081 0.16758257 -0.19399661 -0.09659022 -0.19567741 0.84299713 -0.2667599 -0.43924677 0.030323226 0.0048832437 -0.22065626 -0.11938359 0.30199614 0.11412686 -0.5218407 -0.052586906 0.27792192 -0.26312003 -0.07946648 -0.079797804 -0.4039324 0.10300618 -0.52552825 0.05128681 -0.26965743 -0.19943468 0.18323417 0.6188274 0.301323 -0.3803075 -0.6758728 0.08171847 -0.07221177 -0.6538574 -0.31586844 0.17194033 -0.07449433 -0.6087402 -0.2560422 0.32939008 0.15515046 -0.15214552 -0.6701598 -0.024495052 0.40998372 0.27340996 -0.13503891 -0.33407503 0.44258532 0.09702465 0.4553078 -0.24607019 0.22874515 -0.41749233 0.23350826 -0.14271687 0.10359298 0.0687457 0.20995301 -0.26953596 -0.24410094 0.18340805 0.051381677 0.67014295 0.033753984 0.58567476 0.4191534
2374 0.7254675 0.23232092 0.4335422 -1.0864952 0.9375899 -0.6783696 -0.00017976976 0.2599097 0.044602223 0.46280736 1.4153613 0.07533888 -0.09816166 0.13696882 0.03833769 -0.43824872 -0.5390214 0.1134824 0.8921516 -0.69035995 -1.1540451 0.29956204 -0.2038288 -1.6481433 0.02876748 0.39556733 0.89900786 0.06290241 0.08397495 -0.13594307 -0.33254015 -1.0505903 -1.0013853 -0.9657101 0.74487895 -0.46807566 0.573611 0.61007214 -0.71126616 -0.0015770515 0.5044949 1.0899117 -1.7427921 -0.29318148 0.29344487 0.4862526 -0.61954296 -1.4208158 -0.35255766 0.50327563 0.91033715 0.45813102 0.884306 -0.32255396 -0.45202264 -0.97083664 0.43560058 0.42265752 0.19836259 0.9895632 -0.7821457 0.37012386 -0.22313695 1.4922621 -0.4879157 0.61576676 -1.0696908 0.8980811 0.9139025 -0.0574406 0.47050333 1.4927012 -0.7109728 0.22119534 0.23982918 -0.10862436 0.11994319 -1.0469586 1.5133185 1.0949758
1176 -0.42416623 -0.020626213 0.54660124 -0.17399497 0.113399334 -0.27115908 -0.18886967 0.17430395 -0.10714848 0.76587236 0.39047325 0.13118953 0.21237329 -0.24104017 -0.15180963 -0.40731627 -0.65508205 -0.4057247 0.07378508 -0.31759962 -0.077299446 0.5369124 -0.26488867 -0.18935473 -0.4950266 0.73646927 -0.14132497 -0.07418326 -0.34597737 -0.4742742 -0.035970047 -0.11028659 -0.4128731 -0.2984772 -0.08021344 -0.40344045 -0.06322128 -0.45228767 -0.10282468 0.3755448 0.19087486 -0.31034935 -0.077947244 0.44679722 -0.015130856 -1.1451535 -0.32640705 0.44656718 -0.26652083 0.20023042 0.032253582 0.08939087 0.30028367 0.10991003 0.41520372 0.43886283 -0.111169614 0.4098486 0.0071282466 0.19763732 -0.3080567 -0.5270004 0.3768622 -0.46590415 0.099786304 -0.023392104 0.026536906 -0.16742763 -0.45782486 0.39743495 0.11735446 0.33151346 -0.46493667 -0.53983265 -0.18296185 0.16448064 -0.09461358 -0.39417216 -0.12139713 0.40144274
394 -0.039577454 -0.29630566 0.12352328 0.034541897 -0.07034626 0.5416083 0.26406783 -0.010959828 -0.07357334 -0.064462185 -0.027514976 0.33960986 0.44621924 0.0937019 0.20437175 0.0071302853 0.20781925 -0.33857167 -0.20603627 -0.5820657 -0.053899996 -0.108763985 0.36564398 -0.16259111 -0.034465797 0.49414253 -0.025605349 -0.6544384 0.07442731 -0.1815469 -0.07281485 0.11034636 0.50931156 0.56628364 0.4190863 -0.50037843 -0.2659009 0.08113426 -0.083860785 -0.29105937 0.40100473 0.3441111 0.14908212 0.2031924 -0.013369555 -0.1353442 -0.45344922 -0.050393682 -0.0666822 -0.07711775 0.2717634 -0.11009924 0.25256294 -0.438954 -0.38064957 0.43946272 0.35899302 -0.092511 -0.09585377 0.028058935 0.7397981 -0.4324716 0.0033595087 0.08212179 -0.40834936 0.14676206 -0.12389781 0.011802108 0.18631263 0.21118788 0.27659908 0.44331452 -0.39593452 -0.020790989 0.287748 -0.046056785 -0.020744702 0.0038904394 0.45059416 0.3174263
2741 -0.27171355 -0.40606827 0.010415911 0.04362863 -0.020629346 0.16837111 -0.023471868 -0.031737935 -0.15245983 0.4730877 0.109840654 0.40169805 0.21794401 0.5281128 0.26885918 0.20336717 -0.032568842 -0.098174684 -0.21856777 -0.3435579 0.31728044 0.22652024 0.17976882 0.32706216 -0.1109935 0.14229774 -0.39420825 -0.55601406 0.28994605 0.20085764 -0.23494832 -0.15166287 0.012492308 0.27888694 0.5767916 -0.47014058 -0.13945621 0.1619067 0.008021859 -0.2177092 -0.37392655 0.07093225 -0.1661715 0.00878879 0.06662834 -0.42348135 -0.24173336 0.19120115 -0.24963729 0.37707898 0.14545777 -0.18784092 0.6790898 0.034704845 -0.13211367 0.079705656 0.15585034 -0.010100469 -0.12732944 0.1949488 0.40990725 0.045456372 0.052113738 -0.120381616 -0.4271141 0.065365806 -0.18539824 -0.027041372 0.48185727 0.33078235 -0.23383354 0.5098844 -0.4164706 0.7039966 0.087179236 0.27619776 -0.040292673 0.24373831 0.24419221 0.34967598
750 -0.20586368 0.101233244 0.031432237 -0.014017429 -0.6036675 -0.38187438 -0.18504454 -0.07428238 -0.03305301 0.23331903 0.40835363 0.12504515 0.22697642 -0.2221107 0.36279696 0.16358687 -0.052921608 0.102655366 -0.1667926 -0.43614265 -0.20515844 -0.0057639186 0.44175518 -0.8050293 -0.09091755 -0.1919703 -0.3225242 -0.20830745 0.15499443 -0.038538452 -0.6277086 0.7343531 0.36947912 0.31818983 -0.030839663 0.080960155 -0.031582903 0.08615154 -0.4324326 -0.059729014 0.056247853 -0.31481978 -0.5509158 -0.08376762 -0.36066952 0.2560627 -0.269865 -0.15137483 -0.26642463 0.16614684 -0.38308242 0.110618204 -0.15641083 -0.014261511 -0.3243513 -0.3357855 -0.2837382 0.19756466 -0.15763642 0.38301164 -0.064729 -0.20190266 0.08055239 -0.17068206 0.05693273 -0.10122635 -0.12091323 -0.70907813 -0.145845 0.73150736 0.31560838 -0.28907895 -0.082891524 0.33714196 -0.010333124 0.021700077 0.25187328 -0.041867953 -0.22188686 -0.1590816
55 0.19844253 -0.09391658 -0.09326711 0.3767658 0.17531112 0.017041035 0.35356346 -0.16729754 0.07681605 -0.09582489 0.5578094 0.071113385 -0.004396613 -0.25786972 0.31014618 -0.055606335 -0.40476856 -0.47407502 -0.40079862 -0.26014888 0.04183536 0.10208691 0.03922182 -0.07080982 -0.17516178 0.12070549 -0.073847115 -0.4756981 0.035375655 -0.58299035 0.5781483 0.56396013 0.032523446 -0.10186791 0.026485857 -0.21656783 0.55577236 -0.18417989 -0.09200677 -0.06898815 -0.112680785 0.19960682 -0.38287324 0.34581918 -0.03974542 -0.2996848 0.19072127 -0.029489823 -0.020420702 0.14674662 -0.3505247 -0.3575826 -0.18331508 0.088328905 -0.37075943 0.052581545 -0.36664596 -0.45997185 -0.2057635 0.16349094 -0.057752293 0.08158692 0.36730215 0.5279773 -0.03463549 0.32221207 -0.41354206 -0.037232697 0.13865647 0.3546679 -0.22232963 -0.21108378 0.15018012 0.14362067 -0.7296729 0.12967473 -0.100189395 -0.17657042 -0.32594892 -0.37164405
5 -0.23877008 -0.37612617 0.23866874 0.42530394 -0.20437664 -0.022642402 -0.44533533 0.01020079 -0.022519723 0.53208035 0.47462696 -0.022767868 0.50342655 -0.32210162 -0.33194417 0.306635 -0.33193186 0.27101088 -0.776414 -0.49872547 0.06784745 0.43327236 0.41910422 -0.18610904 -0.05053479 -0.42049327 -0.039398927 -0.7592148 -0.07517447 0.20110765 -0.74163574 0.12327985 0.7434115 0.3076402 0.06535778 0.1998308 -0.18636262 -0.6005403 -0.07838509 -0.19664378 -0.029700393 0.2083243 -0.30871844 -0.3970197 -0.41880482 0.23810299 -0.42257443 0.049531918 0.36684418 0.047914285 -0.0053220945 -0.6367128 -0.18900606 -0.260599 0.13347504 -0.568504 0.10001701 0.19161952 0.27623555 0.2694675 -0.18679143 -0.10977729 -0.12568584 0.044720396 0.05510661 -0.15608366 -0.27545962 -0.64567137 -0.007995583 0.32064244 0.23174661 -0.09692998 -0.36234 0.5303108 -0.23616435 -0.335617 -0.04879865 -0.14828923 -0.3126506 0.44016036
383 -0.17722745 -0.3805433 -0.08767133 0.084711134 0.038632523 -0.1469736 0.4318567 0.38955918 0.08308862 -0.51441824 0.1524874 -0.35160127 -0.54498446 -0.2654301 -0.051957563 0.01864933 0.10292096 0.1334398 -0.19918789 -0.3860152 0.10330883 0.5390787 0.03994323 -0.38028744 -0.39805236 0.49344394 -0.12928876 0.16316447 0.1460992 -0.035175554 0.117481016 0.20898253 0.56178063 -0.20372093 0.25084493 -0.19768956 0.008949189 -0.17344928 -0.20552683 -0.37645885 0.29581398 0.026588082 -0.46375707 -0.037452117 0.4694893 0.0033224712 0.06100881 0.087161295 0.031653 -0.010719123 0.17521253 -0.19027296 0.22658715 -0.16748513 0.10889767 0.06834839 -0.025088193 -0.4714416 0.06820784 0.27791718 0.25694132 -0.0024815856 0.17709853 0.11704457 -0.15613656 0.4505265 -0.26618627 0.46751162 -0.01849107 0.56892425 0.060893487 0.1698613 -0.15158342 0.007767836 -0.34195948 0.36328965 -0.27991438 0.64914995 -0.23019509 -0.07088461
132 0.09460436 -0.2789153 0.18062368 0.004989491 0.062184248 0.19981603 -0.100162365 0.2543224 -0.04422275 -0.024438169 0.31049782 0.15161356 0.49170586 0.021598129 0.120523624 -0.08930157 0.18012655 -0.1116606 -0.18609561 -0.036838926 -0.06775198 0.24573515 -0.05164502 -0.41825178 -0.114046134 -0.3232331 0.2170191 -0.32015526 0.0709035 0.07963728 -0.18844599 -0.017040476 0.28966418 0.41367102 0.347438 0.15839273 -0.015018968 -0.5658736 -0.30708387 -0.24320167 0.08617778 -0.16914475 0.029852048 -0.18438354 -0.32516372 -0.12960802 -0.2985195 0.032570712 -0.081046365 -0.037591517 0.40986612 -0.37640798 0.29169622 0.016473413 0.22901423 -0.16783977 -0.14102852 -0.012618428 -0.025610704 0.2422166 0.23835902 0.12223984 0.16836129 -0.04504268 0.020870168 -0.05866763 0.114230834 -0.2671723 -0.26701885 0.57769454 0.34753013 0.07081537 -0.053599622 0.5498519 -0.30557576 -0.51955867 -0.44551334 -0.19997552 0.018899543 0.4398406
209 -0.47194508 -0.2969184 -0.32119176 0.9227432 -0.004136297 -0.25834754 0.91247815 0.12024853 1.0206201 -0.29397914 0.6611857 -0.34561905 0.27297997 0.09768022 0.07725637 0.9414971 -0.613625 -1.1098558 -0.4148338 -0.5863847 0.21960518 0.5603717 0.42742115 0.1775266 0.14140615 0.122724645 0.58392376 -0.52700776 -0.0022817568 -0.75735265 0.23848414 0.6528486 -0.6487798 -0.21843196 -0.62884295 0.32374462 -0.030135635 -1.0350162 -0.5027163 -0.0049635274 0.27097717 -0.8127377 0.15426336 -0.21730293 -0.067345954 -0.785601 -0.21464561 -0.7763813 0.52734596 0.7618612 -0.32535496 0.30259752 0.091044776 0.03071361 -0.35798845 -1.0176688 -0.038866956 -1.2528373 0.1699026 -0.67932904 0.6972815 -0.6613436 0.08469114 0.045981005 0.2763595 -0.5763338 -0.2417966 0.9590635 -0.3609198 0.50941896 0.62399584 -0.70283353 -0.42859045 0.92348343 -0.2021986 0.091896355 0.44515854 0.15653214 -0.02813385 -0.023240238
1193 -0.12598994 -0.18990213 0.5430372 -0.26638904 0.05078056 -0.3013382 -0.2338666 -0.120367035 -0.049826205 0.4269749 0.30387893 0.48512584 -0.107635856 -0.39745423 -0.3275256 -0.2778573 -0.4312949 0.060282998 0.50592375 -0.019216951 -0.17319146 -0.059015762 0.1847623 0.04283627 -0.102616034 0.3594729 -0.021805232 -0.56529546 0.21253192 -0.45407692 0.3773654 0.053195108 0.0756528 -0.17436546 -0.07892074 -0.041671354 -0.09978395 -0.40692946 -0.47860998 0.5097937 0.032141678 0.1614589 0.0078061596 0.06318286 -0.14700052 -0.31857556 -0.43495622 0.118958496 -0.102686554 0.19778284 0.14708942 0.20950866 0.23582168 0.14062534 0.41792807 0.23729786 -0.14908662 0.033261366 0.13769566 0.31742138 0.011272155 0.016843254 -0.047099728 -0.4415945 0.4265884 0.20739514 -0.20604141 0.5312883 -0.17264889 0.7364812 0.11399068 0.46418944 -0.37796637 -0.39726576 -0.3787364 0.03128164 0.16524212 -0.15398212 -0.2730269 0.41061485
179 0.43042737 -0.36932552 -0.42740664 0.25137323 -0.029653706 0.56379724 0.5209637 -0.19662628 -0.04207229 -0.22354807 0.27248892 0.76399136 -0.09178745 0.025849648 0.039374985 -0.20266232 0.015291832 -0.4686136 -0.54351515 0.1608655 -0.31135333 -0.16521336 -0.46381724 -0.33028027 0.27268788 -0.05573977 0.24310969 -0.35715136 -0.06170004 -0.21313299 0.10516473 0.27410972 -0.038853217 -0.6696438 -0.46524188 -0.8876877 -0.1602046 0.27877232 -0.5437677 -0.07616209 -0.26282564 0.09905893 -0.570241 -0.0044590696 -0.0072305272 -0.50910556 -0.781592 -0.31180072 -0.142363 -0.013408479 0.4278828 -0.6179158 -0.27607653 -0.21000804 -0.35638574 -0.07785691 0.29807866 0.44267356 -0.34867534 0.760894 0.116274424 0.28875276 0.28432754 0.3883985 0.33116883 0.45643914 0.23858301 0.1553684 0.43655738 0.74526525 0.20429453 -0.1500381 0.097024076 -0.21385613 0.1977031 -0.17552182 -0.24753632 -0.5180681 -0.47623536 0.28619665
562 0.038560864 -0.14482069 -0.08276078 -0.56893635 -0.23671448 0.17569873 -0.38616475 -0.0449214 0.13832678 0.59620965 0.7803107 0.14990047 -0.24878755 0.21848795 -0.46649233 -0.0649722 0.13985443 -0.27454683 -0.9593838 0.084975146 -0.13470991 -0.17611946 -0.022894248 -0.61853796 -0.10721675 -0.020837016 -0.076694764 -0.25631276 -0.26084244 0.28337547 0.14862297 0.18545416 0.5882644 -0.29540393 0.43482777 0.030658297 -0.42054725 -0.27632117 -0.7998111 0.40235642 -0.20790592 0.12273785 0.07922541 -0.13532582 0.3344279 -0.21445683 -0.16987574 -0.1586242 0.10237794 0.3117237 -0.5318192 0.15276434 -0.12908792 0.22770247 0.20745735 -0.20422123 -0.33813676 0.19362403 -0.033744667 -0.20042157 0.81640786 -0.34634095 -0.02224216 0.1434597 -0.27854937 0.08061546 -0.029340351 0.18486132 0.31014094 0.19848315 0.06559672 -0.6362988 -0.0979488 0.17986242 0.31933197 0.15551038 0.004275295 -0.10633415 -0.18632555 -0.15738748
1820 -0.3718439 0.1190956 0.59269464 -0.274179 -0.44411334 -0.2772105 0.3981219 -0.56308925 1.021961 -0.15642688 0.44281825 0.4160579 -0.3955245 -0.35826698 -0.0074513946 -0.051184356 0.0454709 -0.2982169 -0.6396542 -0.7670459 0.08345386 0.21781911 0.10911544 0.1012669 0.4393254 -0.15331738 -0.31661496 -0.22804105 -0.073524475 0.49929273 0.9520097 -1.0503668 -0.11495326 0.2690368 0.13578504 0.46139097 0.65055436 -0.20047316 -0.44179863 0.26276568 -0.30439973 0.30263436 -0.36745065 -0.5982595 0.22145608 -0.09334896 -0.865756 -0.15185626 -0.20728642 0.09766349 -0.8081283 -0.4497478 -0.2851677 -0.25756574 -1.0841225 0.21825702 0.1829651 -0.16360843 -0.9644895 0.21752477 -0.7997018 -0.537477 0.9873434 -0.09018198 -0.28701386 0.10429926 -0.02377429 0.2607002 -0.06816115 0.89771783 -0.26871973 0.08049261 0.12460219 0.26771805 -0.33494294 -0.41325077 -0.18801394 -0.48705232 0.3661811 0.1902162
75 -0.3168914 -0.32237795 -0.15845452 0.24353738 -0.05496753 0.17568456 0.21717788 0.20451961 0.24383278 -0.67548585 -0.057399552 0.25718936 -0.12243063 0.10210886 -0.008238337 -0.25281766 0.091871426 0.2039687 -0.10046858 -0.29143083 -0.32817274 0.116616786 0.4299883 -0.9119064 -0.09659971 0.29008615 -0.18861446 -0.12431477 0.5160246 0.15363514 -0.16411814 0.07111177 0.19763121 -0.36570033 0.43245932 -0.37537035 -0.16901502 -0.07340837 -0.18085703 -0.27768722 0.0903937 -0.15428221 -0.19903639 -0.15534429 0.40671504 -0.07433535 0.046330158 0.08099695 0.2528507 0.26751703 -0.004753332 -0.1540678 -0.061371695 0.000875243 -0.004519513 0.3169008 -0.12516917 -0.63194156 0.21407045 0.037956804 0.2476657 0.0346667 0.11513083 0.10342455 -0.12104171 0.061320785 -0.019334393 0.051436894 -0.4657979 0.29070103 -0.03139632 -0.032549247 -0.16257791 -0.061864536 0.035610482 0.253938 -0.38012636 0.32656005 0.18338694 0.5438088
1342 -0.1351835 0.016708666 -0.39240536 -0.09567579 0.29507953 -0.15207794 -0.14376764 0.30561614 0.15862678 0.21477082 0.46039632 -0.383534 -0.5859668 -0.49056438 0.3732166 -0.09023191 0.31358853 0.06399516 -0.030558314 0.081010304 0.3018603 0.6858349 0.28541914 -0.20895563 0.5837386 -0.7533109 0.41543937 0.028924754 -0.02411958 -0.06756796 -0.14564776 0.2539573 -0.16545193 -0.19701122 0.3332692 -0.46636227 0.08107414 0.45783827 -0.22203216 -0.4775607 -0.54490596 -0.3349568 0.22602256 0.015586592 -0.19714923 -0.30394855 -0.07807335 -0.59030676 0.5262967 -0.017002994 -0.29506 -0.33999524 0.48231357 -0.24231885 0.29731616 0.5190847 0.072806835 -0.3273896 -0.13412546 -0.46291205 0.031172968 -0.30864295 -0.13772626 -0.05727705 -0.30230138 0.70589566 -0.41424012 0.25973588 0.45891693 0.9241229 0.701595 0.2024862 -0.056199655 -0.5749549 -0.27958432 0.09433412 -0.112659775 -0.14788246 0.17101146 0.12600957
382 -0.27139506 -0.5214709 -0.07183491 -0.041448213 0.117693886 -0.36568055 -0.047301583 0.5300253 0.12748624 -0.2772574 0.3003413 -0.5593054 -0.31077144 -0.09705477 -0.22300076 -0.0014709749 0.17404963 0.101625495 -0.39438623 -0.33763534 0.3532616 0.44574922 0.19006881 -0.54056126 -0.30665052 0.43262377 -0.045477733 -0.02477242 0.38904262 -0.013666457 0.17083871 0.09523904 0.51745087 -0.5571804 0.13870189 -0.11880624 -0.04975103 -0.13871504 -0.21087667 -0.34159407 0.46988252 0.20780477 -0.12458104 0.0470164 0.29830003 0.1387005 -0.21550554 0.1251653 -0.059458643 0.043005627 0.10471856 -0.27614307 0.031147605 -0.064254574 0.21043715 0.102024645 0.31137553 -0.38782406 0.016876489 0.57112795 0.2817385 -0.16313247 0.046765085 0.3446425 -0.085847564 0.6240235 -0.07824483 0.39729175 -0.61968935 0.17667946 -0.036662396 -0.25602257 -0.08237603 -0.07716633 -0.13265724 0.45714822 0.0045398814 0.31335676 0.11333932 -0.009438483
1453 -0.03359305 0.053990122 -0.15557845 -0.38880545 -0.13224816 -0.018553935 -0.5546053 0.28653103 0.14732085 -0.11693586 -0.06289648 0.10387547 -0.025187759 0.42729968 0.26308265 -0.04529044 0.67754585 -0.10747451 0.043200295 -0.41154137 -0.3989291 -0.035796363 0.16460155 0.10754659 0.017130215 0.12881264 -0.016609909 -0.565701 -0.06389752 -0.14733008 0.30968672 0.17776209 0.20449655 -0.21610087 0.08465035 -0.5470818 -0.14118315 -0.17788526 -0.22167921 -0.55630356 -0.14547043 -0.084092066 -0.44752973 -0.36935726 -0.07601687 0.28032574 -0.10151419 -0.7961652 0.29002136 -0.20388144 0.21888956 0.032000955 0.26549506 -0.44271246 0.02768014 -0.32937193 0.06670086 0.022313006 -0.08297273 0.6266632 0.09840165 -0.8272864 0.09202569 -0.22536653 -0.43223357 -0.16500773 -0.72259164 -0.19846082 -0.43683437 -0.02784642 -0.16192885 -0.28909585 -0.55009705 -0.0034854163 -0.1416617 0.11540701 -0.30378476 0.12577637 -0.7369379 0.36435643
193 -0.775965 -0.660108 0.3519433 0.16852354 0.14709675 -0.24126805 0.2813977 -0.13542074 0.35673615 -0.04850556 0.71486413 -0.42588782 -0.842336 0.22021881 -0.545066 -0.046568036 0.65480083 0.040146995 0.23492765 -0.22235493 -0.32986414 -0.037580058 0.33680522 -0.060080435 0.111770764 -0.0058552264 0.09923498 -0.61829406 0.38946003 -0.3673284 0.20354256 0.009760539 0.031547617 -0.16428147 0.2959525 -0.36656275 0.23059992 -0.15275049 -0.3846867 -0.2465647 0.7165548 0.3500726 -0.4068721 -0.17816703 -0.46265998 0.2048406 -0.27857685 0.14152066 -0.38678136 -0.35151738 0.10157893 -0.2923029 0.31203625 0.35410532 -0.46088937 -0.2785001 -0.29229996 -0.08318563 -0.105707005 0.30641577 0.036611002 -0.89781374 -0.45151573 -0.071245186 -0.0190181 0.4479271 -0.6233612 -0.29564282 0.18822171 -0.6520617 0.6343743 0.38763022 -1.0796206 0.41936633 -0.08127998 -0.30078766 -0.23282179 -0.00608418 -0.93106925 -0.36930144
166 0.40828955 0.038325816 -0.112080865 -0.06863522 -0.1321917 0.050542623 -0.3251043 -0.13838302 0.0052748662 0.23846886 1.0818436 0.3321581 -0.03910878 0.0874733 -0.1973368 -0.13137755 0.05981043 0.028208207 -0.79763806 -0.2914877 -0.31808758 -0.08271742 0.11261541 -0.51057416 -0.1906473 -0.3370368 -0.35499996 0.26473576 -0.31726438 0.18645175 0.04688883 0.44850177 0.04299513 -0.21234308 0.51417315 -0.08618873 -0.39254922 -0.13066506 -0.23156615 -0.18935868 0.14917108 -0.110109545 -0.443765 0.16926076 -0.09217417 -0.07050882 -0.44408885 -0.13956785 -0.12372222 0.13183773 -0.14693506 0.36449656 -0.5233851 0.42002088 0.01630926 -0.30037823 -0.44456506 0.33239278 -0.009651295 0.01736025 0.54337174 -0.27415228 0.4768673 -0.47036907 0.01554423 0.15189722 -0.025873264 -0.19278152 0.29215956 0.24313934 -0.2475696 -0.36771384 -0.34288603 -0.008258485 0.4382334 0.23908713 0.2938597 -0.19452171 -0.16065931 0.05435294
254 -0.040152594 -0.18594484 0.27306348 -0.7862793 0.66314054 0.068503454 0.12852405 -0.17507522 -0.31327477 0.38311964 0.3336664 0.13642476 -0.0002694254 0.3738965 0.3339783 0.24464485 -0.30725083 -0.022742724 -0.44656777 -0.3879752 -0.4273885 0.46281585 -0.02185721 -0.6779933 -0.009550783 -0.06844574 0.75645983 -0.7844987 0.46258765 -0.3311518 -0.24851915 0.031179078 0.07041539 0.29685354 0.2756495 0.47819296 -0.8314859 -0.1924788 -0.150184 -0.07256151 0.1645612 0.2256776 0.400331 -0.32567206 -0.6789353 0.009594986 -0.2013964 -0.056066893 0.108246654 -0.40682957 0.24738188 -0.21213372 0.2875653 -0.17859133 0.5431484 -0.10600972 -0.25730017 -0.23151825 -0.58041817 0.1409951 0.56705064 -0.13988052 0.45908207 -0.45776066 -0.36648327 0.3913624 0.5851573 0.5433275 0.52245677 0.44835514 0.4280879 -0.17215312 0.098778635 0.37746727 0.3934169 -0.093318984 0.044236563 0.054154508 -0.41318387 0.106950216
1234 -0.24178644 -0.43367302 0.122128084 0.052495807 0.15850608 -0.19962296 -0.037154123 0.33489153 0.18504259 -0.46567985 0.15524161 -0.17707385 -0.45208287 -0.04848401 -0.089564785 -0.17357884 0.11713682 -0.040166922 -0.031191632 -0.40355766 -0.14060657 0.3730055 0.39094594 -0.35895336 -0.2634779 0.35572022 -0.10258654 -0.17095602 0.37304083 0.12266835 -0.306593 0.078939855 0.2571915 -0.49749684 0.15618029 -0.15196481 -0.19705284 -0.16793507 -0.22066219 -0.43742052 0.21757258 0.09874512 -0.16667084 0.13173546 0.5285462 0.0901907 -0.16034654 0.115511395 -0.14396758 0.11149061 0.30600873 -0.21179219 -0.10307707 -0.18467148 0.10836779 0.3334659 0.04867315 -0.3895189 0.07857021 0.3450611 0.44993526 -0.20995753 0.03038274 0.41238493 -0.16050832 0.13197307 -0.0015024213 0.20771994 -0.50939745 0.15486096 -0.00180708 0.05559978 -0.008226768 -0.19354707 -0.1109079 0.14393751 0.00025989435 0.3066423 0.23216492 0.2235313
451 -0.66512454 0.104045294 -0.13436283 -0.39492214 0.29846045 0.018384915 0.1676698 -0.032073326 0.67799634 -0.37229857 -0.021479683 -0.05986794 -0.18873462 -0.21387576 -0.334337 -0.5221463 0.09050518 0.7007008 -0.12863058 -0.07745042 0.34321383 -0.00883467 0.33615133 -0.19914094 -0.08199123 -0.28229925 0.31946197 -0.21494932 -0.14318724 -0.124007955 -0.23974945 0.5862268 0.1750882 0.04774645 -0.15904877 -0.5831537 0.1691928 -0.13612045 -0.102233976 -0.22572863 -0.20381567 -0.045384526 -0.96463966 0.021701587 -0.16375783 0.105941266 -0.54898596 -0.04052269 -0.13315019 -0.16811302 -0.24808809 0.5435868 0.10221578 0.35252059 -0.017903214 0.03920009 -0.29644823 0.3202643 -0.20113909 -0.062810436 0.014998835 0.3077392 0.26942176 -0.32777193 -0.8000951 0.19636475 -0.09545474 -0.19843504 0.62506723 0.599331 1.0090636 0.07124236 0.35404328 0.75264055 0.34601298 0.85809207 -0.0630277 -0.16886078 0.020813935 0.042486195
708 -0.15816426 0.000104637256 0.34543914 0.1764155 0.31288755 0.20130695 -0.1125445 0.30939013 -0.14771862 0.38322702 0.35281646 0.3874446 0.4907418 0.4275676 -0.28146407 -0.13893165 -0.6986246 -0.25845146 -0.23586719 -0.21095689 -0.1235848 0.03321037 -0.067341715 0.048849624 0.3353986 -0.5711209 -0.124606326 -0.9675566 -0.055956453 -0.00983591 0.1141193 -0.03361336 0.50177246 0.13927276 -0.04317385 -0.23126274 -0.3049147 -0.20780934 0.023740768 -0.19154944 -0.29349318 0.29855675 -0.5944194 0.28659037 -0.32157785 0.4387045 0.04080317 0.056652073 -0.0920884 -0.05183474 -0.082080394 -0.7813786 0.007803978 0.0025682196 0.14722118 0.07243351 0.0066928184 -0.15725337 0.35142875 0.36152476 0.31369594 -0.02909324 -0.34395334 -0.3647339 -0.1720118 0.3910745 -0.12760928 0.026185641 -0.2817279 0.6204545 -0.22681305 0.3685151 -0.09152097 0.18473215 0.39874294 -0.015928734 0.2233621 -0.043187696 0.085561536 0.64059365
445 0.21883515 -0.18245043 0.07870303 -0.14134823 0.41883883 -0.44930923 0.029055525 -0.14704853 0.11649732 0.13059191 0.421671 0.0052235327 -0.4277027 -0.74091434 -0.18969692 -0.17517886 -0.32599112 0.17811583 0.45038545 0.026228003 -0.23040679 -0.21154974 0.2968758 -0.15738024 0.19765292 0.5303075 0.07331313 -0.5974298 0.4041892 -0.34362945 0.22123834 -0.016094625 -0.08903943 -0.38879633 0.25444895 -0.33701786 -0.15538412 -0.4205969 -0.45896387 0.15713887 0.35742325 0.34946406 -0.17144886 -0.3758662 -0.31720752 -0.23787545 -0.26377046 -0.057438143 -0.17850971 0.08640565 -0.42623746 0.18398084 0.0749698 -0.08490096 -0.021779021 -0.26915666 -0.1890024 -0.053908527 0.28326553 0.004396126 -0.41620886 0.48618636 -0.1597205 -0.0045724 0.37882867 0.25978237 -0.7721065 0.15831795 -0.007881922 0.32076287 0.087052554 0.28326857 -0.63218254 -0.040133014 -0.22182314 -0.14724034 0.4028568 -0.072095275 -0.19877863 0.26493853
370 -0.44347927 -0.17964442 0.041286774 0.03512555 0.33712167 0.122832544 -0.36745816 0.042429097 0.20983341 0.22611889 -0.010689931 0.054438435 -0.106760636 0.09946924 -0.22360945 -0.17590658 -0.19756663 0.049744688 -0.15394847 -0.23976566 -0.27157456 0.27746508 0.38215736 0.252375 -0.19664891 -0.56068623 0.031630732 -0.70075375 -0.030369552 0.076441646 -0.46681902 -0.1879155 0.4270843 -0.42086095 0.012136363 -0.33783635 0.13593839 -0.30890772 -0.2223306 -0.37164855 0.27670085 0.48992488 -0.25281423 -0.4924716 -0.19199808 -0.03407626 -0.675222 -0.04295136 0.069747776 -0.27606717 0.26755092 -0.30583408 -0.1556036 -0.53960824 0.077000275 -0.29642588 -0.37020782 0.09796069 -0.14068234 0.4757486 -0.40873337 -0.94709545 -0.015642665 -0.43613577 -0.3014555 -0.10199264 -0.98518795 -0.47064492 -0.17398506 -0.34587517 0.18901673 0.08351156 -0.44312832 0.3676752 -0.21305402 -0.3220781 -0.37047723 0.5058128 -0.80173194 -0.049891677
100 -0.04845504 -0.1124141 0.1810366 -0.110108346 0.11044984 0.051579174 0.034227997 0.041824523 0.055181745 -0.5128548 -0.029262563 0.5379134 -0.2262296 0.16862336 -0.15941954 -0.07953847 0.24896872 -0.07426595 -0.04503033 -0.2866994 -0.36194426 0.15258344 0.43899193 -0.36794922 -0.35874817 0.12872039 0.023811342 -0.22603293 0.07892971 0.04048323 -0.108632885 0.069102466 0.05517644 -0.23564744 0.1710748 -0.23785873 -0.12540008 -0.17435674 -0.19019404 -0.31044495 0.11059608 0.24991253 -0.14909638 0.042922955 0.26869506 -0.0032036356 0.063302085 0.22030416 0.2817897 0.20623124 0.26562965 -0.17591263 0.17720883 -0.16251697 0.18333785 0.24263045 -0.16998687 -0.25441527 -0.1410912 -0.015918894 0.1635205 -0.13727875 -0.028310817 0.14251351 -0.12670861 0.094805405 0.004941968 -0.114547394 -0.56197023 0.21589507 0.34996986 0.30479905 0.10845504 -0.0077422587 -0.012947018 0.12760232 0.0036521924 0.24946125 0.110418186 0.37606847
1747 -0.63949627 -0.21494548 -0.28451544 0.29956126 0.790645 0.060345337 -0.05544873 -0.36493555 -0.02199981 -0.4160149 0.41116115 -0.2619377 -0.2520737 -0.18631695 -0.056548126 0.29778314 -0.3683524 0.1890402 0.073919274 0.02675175 -0.095323905 -0.15163179 -0.016739761 -0.6381889 0.17785053 0.13445173 -0.18465178 -0.1124444 -0.14905779 -0.022598725 0.2641047 -0.060922865 0.31147584 0.30838063 0.37721157 -0.0651933 0.24883659 -0.3527209 0.07275646 -0.075464845 -0.08302144 0.09303423 0.48430893 0.18887486 -0.07077868 0.03176535 -0.49982956 -0.022943756 -0.30513626 -0.00558026 -0.45755774 -0.15090773 0.26151678 0.065609306 -0.4598964 -0.19742745 -0.17484373 -0.5291001 -0.3326958 0.41098717 0.40905043 0.15928069 -0.073627055 0.07018947 0.20138726 -0.20540689 -0.23506586 -0.15739082 -0.4203228 0.18431257 -0.2552098 0.13151433 0.10281366 -0.14186835 -0.49053273 0.39169437 0.33760688 -0.7221317 -0.23126893 -0.15353683
88 0.48550782 -0.7075769 0.7582253 0.2227484 -0.25907603 -0.86818844 -0.2801093 0.8058768 0.43840805 -1.0342817 1.1909733 0.8742889 0.38666362 -0.021814797 0.3797216 0.7688124 -0.519772 0.95824707 -0.10722484 -0.453306 0.19132975 -0.64910364 0.73838305 -1.141462 0.45332223 -0.16161615 -0.4236531 -0.45418197 0.59506774 0.1627824 0.50461394 0.7218684 0.20552 -0.784572 0.33811837 -0.5172552 0.09420366 -0.63027614 0.18018605 0.051027566 -0.17698249 0.12930062 0.12250002 -0.2612172 -0.6248037 -0.04196207 -0.52125096 0.4847924 -0.12287132 0.28388658 -0.18731984 -0.64655024 -0.27656853 -0.80065006 -0.1407163 0.6539941 -0.575921 0.4127326 0.9826178 -0.6167158 0.085453525 0.22979225 -0.2825538 -0.7445126 -0.07713378 0.10727549 -0.26660997 0.703783 0.02560611 0.14340712 -0.80721873 0.2848986 0.54889023 0.612432 -0.05682163 0.359347 0.47306556 0.4798374 -0.0026144076 0.92397857
13 0.15847275 0.13005085 0.4967191 0.29710633 0.2062206 -0.087133735 -0.08817081 0.3205037 -0.05342887 -0.22543733 0.8639489 0.35027304 0.3877698 0.14541453 0.109099984 0.055135515 -0.13487493 0.301096 -0.2207687 -0.082616046 0.04998399 -0.3659834 -0.30936468 -0.18340223 0.21179113 -0.2829198 -0.3003256 -0.76501477 -0.20156541 0.351322 0.054910515 0.51852316 0.20873089 -0.18037957 0.037955947 -0.31970465 0.46860516 -0.20877905 0.02050094 -0.08758385 -0.09343694 0.2450683 -0.43387917 0.3500189 -0.45049077 -0.10421464 -0.053740535 0.16400139 -0.35055313 0.14634526 -0.20733336 -0.83207583 -0.5301945 -0.30639786 0.19592932 0.31139684 -0.30387405 -0.3695919 0.091074735 -0.29419532 -0.05813126 -0.063378625 -0.22619438 -0.38090247 -0.25628784 0.32825136 -0.08047617 0.12305133 -0.36063206 0.20739265 -0.26135066 0.14367506 0.36605346 0.38003126 -0.060155086 0.47013855 0.36127436 0.14823525 0.027035004 0.5012543
525 -0.1611304 -0.018647252 -0.5610895 -0.41749614 -0.2692448 -0.7040327 0.38937712 0.21667819 -0.46800497 -0.29486132 0.41904524 0.11230284 0.44529104 -0.1361064 -0.18906206 -0.24223316 -0.42371124 0.1831818 -0.23680663 -0.30653384 0.089009665 0.26695338 -0.035318844 -0.80417395 0.02733224 -0.034417514 -0.90652 0.2914921 0.19943318 0.059235938 -0.2087965 -0.32224113 0.36805743 0.104129404 -0.18616 -0.2752828 0.41960803 0.23761475 -0.2758491 -0.4930022 0.7042905 -0.03632598 -0.22884999 -0.24414521 -0.10508419 -0.1361273 -0.090677805 -0.08916079 0.17847136 -0.07055845 0.1266949 -0.28836814 0.65942675 0.28016037 0.10184954 -0.4672647 0.0666329 -0.15639848 -0.3368991 0.10490088 0.21124585 0.41528308 0.00065759546 -0.21392569 -0.26540697 0.4912225 0.11200437 0.2964775 -0.75394124 0.28235614 -0.35404727 -0.5740842 0.0058767498 -0.26929924 0.15658577 0.30640113 -0.023084473 0.21138032 -0.44606206 0.4134147
810 0.06441445 -0.12640035 -0.21606244 -0.28537032 -0.17006525 -0.04849123 -0.06698252 0.017497739 -0.0047932444 0.12856422 0.24795942 0.15698887 0.2759869 0.11202944 0.3878804 0.051223136 0.20459738 -0.11146347 0.17302898 -0.22256415 -0.47783983 -0.2150776 0.5131073 -0.12557046 -0.118061095 0.09040043 -0.33939543 -0.55898124 0.17433853 0.05685666 -0.2626335 0.638764 0.08133201 -0.029936599 -0.42116407 -0.25067908 -0.1261548 0.0015036212 -0.80447507 -0.2913125 -0.47811437 -0.18667653 -0.2731491 -0.16718738 -0.35684925 0.5027655 -0.39595068 -0.41109413 0.24425739 -0.16501509 -0.07340619 0.035162486 0.35368854 0.17644532 -0.16546711 -0.46017233 0.1199664 0.29609254 -0.1851238 0.7024514 -0.1887362 -0.84269285 0.030197151 -0.6269206 -0.25471485 -0.23217599 -0.33851075 -0.16820095 -0.73124087 0.64902294 0.124441385 -0.07501216 -0.4996315 0.18791892 -0.33307374 -0.21831013 -0.2753186 0.6085348 -0.4385966 0.11597235
343 -0.8904181 0.38916123 -0.5018953 -0.5538647 -0.042579107 0.30907896 0.49597675 -0.9798773 0.072921515 -0.049161505 1.1709194 1.3849354 -0.18868364 -0.97501683 -0.5378763 0.102622315 0.33032182 -0.6404951 -0.098343045 0.410397 -0.72591877 0.78726375 0.2250321 -0.64279044 -0.53621733 -0.32310888 -0.2178107 -0.2789519 0.58331484 0.7382447 0.2583202 1.1260152 -0.9459297 -0.3257966 0.82917446 -1.1971986 -0.17298447 0.36872843 0.36387727 -0.3263866 -0.6163201 -0.60029405 0.796508 -0.12965637 -0.66391957 -0.5718829 0.36641204 -0.81454414 -0.19251291 0.48806354 0.28486848 -0.7799257 0.18686984 0.011282545 -0.9888297 0.792701 0.2630571 0.89655715 0.204539 0.3592162 0.32461682 0.4394362 0.49224994 -0.16816784 -0.12261852 -0.36263365 -0.1776016 0.6624286 -1.6955572 -0.040881705 -0.2539342 0.22240338 -0.05372293 1.8206466 0.41506487 -0.45596075 -0.2921192 -0.48500457 -0.926365 -0.3183187
1732 -0.30468094 0.0364817 0.2921672 -0.13959903 0.28822747 -0.022127395 0.1297416 -0.40112644 0.27951005 -0.0679111 0.31847414 0.35530633 0.294446 0.12325907 -0.11404655 0.368677 -0.027596422 -0.23662557 0.35955083 0.13219345 0.3216052 0.40537047 0.39213067 -0.5301442 0.23280019 -0.18792428 -0.4165054 -0.02031438 0.17366019 -0.01412149 0.7849889 -0.22500472 0.088643864 0.09679186 0.45786873 0.09906133 0.46441087 -0.5298586 -0.021773983 -0.39626038 -0.12285279 0.1403062 -0.38897875 0.3585348 -0.11408023 -0.033423133 -0.13562901 -0.035842553 -0.013055979 -0.18375686 -0.36819872 -0.15994552 -0.285638 0.16828814 -0.55138797 -0.08526768 0.120331235 -0.16906463 -0.16760041 0.044868026 -0.15391831 -0.40917858 0.5497143 0.4328317 0.4383852 0.29794255 -0.17633237 0.028219152 0.33112422 0.57036465 -0.2411827 -0.31959578 -0.07884917 0.18586442 -0.4682732 0.30070895 0.3283964 -0.017031692 -0.35463846 -0.301212
1210 -0.034819935 -0.098225005 0.597886 -0.29729018 0.77426654 0.1857692 -0.13637218 0.01158492 0.32203472 0.061916754 -0.11317746 -0.11821649 -0.22296703 0.31792444 0.16195609 -0.60293067 0.103756286 0.07804944 -0.2913568 -0.016951509 -0.09853812 -0.16279477 0.28409678 0.023584746 -0.04035981 -0.046928037 -0.17929691 0.090361185 -0.2768427 0.46064314 0.032847695 0.17173176 -0.017537316 -0.2592408 -0.3222805 -0.7794474 0.40781462 -0.26780573 -0.2572584 -0.34279707 -0.31466293 -0.53737706 -0.064889245 0.28388998 -0.57044846 -0.19146012 -0.39394462 0.4152731 -0.06410185 -0.10360982 0.19331764 -0.19298378 0.2563009 0.21127929 -0.23108387 -0.22325392 0.16955443 0.20033829 -0.20858832 -0.3763238 0.11168303 -0.07060918 -0.19232751 0.20133828 -0.34832627 -0.23759167 -0.06451304 0.24290846 0.032943837 0.47216746 0.064142905 -0.29543272 -0.221511 -0.023696078 0.1108042 0.044921752 0.045221794 0.27304024 0.015178201 -0.07856626
638 -0.07294314 -0.056669254 0.24877624 0.03174631 0.43351924 -0.47285023 0.49626973 -0.03456027 0.43498957 0.14968975 0.4638925 -0.19672741 -0.14045806 0.100149736 0.15117243 -0.17311771 0.13311484 0.3108363 -0.33631533 0.09780931 -0.16200452 0.016840242 -0.0815759 -0.29856765 0.17331667 -0.55895036 0.45861655 0.019089717 0.15027966 -0.24976817 -0.030026043 0.27104965 -0.1424324 -0.0026033125 -0.115635015 -0.09092007 -0.2697619 0.10571709 0.02782935 -0.45237833 -0.14123844 0.20449583 0.56435716 0.11998323 -0.2924729 -0.14321093 -0.27024272 -0.8993902 0.15874496 0.17646961 -0.12031698 -0.44799855 0.34665793 -0.37955576 0.4896879 0.31503657 0.21000358 0.0005748792 -0.17531778 -0.30850002 0.19284834 -0.11855002 0.27115217 -0.18429962 -0.3650304 0.35790116 -0.027007144 -0.18427938 0.3793469 0.32782966 0.53038895 0.23570345 -0.21980596 -0.55870247 -0.37324324 0.57402205 0.14987886 -0.04385725 0.1588353 -0.18356492
621 -0.111675866 0.19538163 0.2161155 -0.14470534 0.23652191 0.024490863 0.36595967 -0.11642076 0.13461977 -0.11689551 0.014934672 0.19117357 -0.04975222 0.08592416 0.08033493 -0.0036240027 0.007054839 -0.05639217 -0.30837598 0.13769151 -0.10373729 -0.1701906 0.06757316 0.02144327 0.046903405 -0.47112012 0.4465771 -0.013040051 0.0051988703 0.023827694 -0.28077686 0.11288294 0.3376157 -0.18696925 -0.3143928 -0.8532219 0.012449714 -0.14275683 -0.40015155 -0.24217017 -0.57514375 0.07885699 -0.16191839 0.1534005 0.49163768 0.09406605 -0.09724731 -0.12619615 -0.49792355 0.26361477 0.077158764 -0.008269289 0.5677298 -0.08787941 -0.5027002 -0.2151037 0.3708609 0.34909528 0.22519246 -0.01225533 0.07315592 0.05160913 0.3288956 0.14048488 0.05369539 0.22731496 0.08173144 0.0772413 0.33852303 0.6318292 0.12164569 0.13193618 -0.2932087 0.03673084 0.0675823 0.11968432 -0.00392855 -0.24173442 0.03362517 -0.0051999968
549 0.24157944 -0.20820706 -0.5417472 -0.13825412 0.22773157 -0.34688374 -0.17487684 0.14367221 0.03372043 0.48440856 0.24303186 0.04354668 -0.30532983 -0.760031 0.17322378 -0.10960175 0.5577973 0.18936159 -0.11893165 0.2169852 0.43234402 0.5138123 0.28848845 -0.05145281 0.6972813 0.20417413 0.08593347 -0.17249912 0.27314684 -0.25662553 0.07270432 0.0059414506 0.14409578 -0.4148839 0.11417896 -0.5028088 0.09423158 0.2930671 -0.36247173 -0.27219656 -0.74645096 -0.21011648 -0.15377569 -0.11589751 -0.64429986 -0.17345881 -0.24364665 -0.5821471 0.225339 -0.035074763 -0.13947509 -0.26069304 0.096959725 -0.41149876 0.35626942 0.28991312 -0.21461251 -0.29545885 -0.28933242 0.017673874 0.27263078 0.16774452 0.3166067 0.17838936 0.06238327 0.4838614 -0.43880484 0.11989284 0.24747449 0.06272263 0.44734925 0.19287789 -0.3820723 -0.57834995 -0.22423932 0.15131162 0.59833634 -0.40021548 0.104269385 0.33705336
214 0.112530306 0.018330323 -0.06830964 0.38367707 0.5653547 0.01397608 0.12854254 -0.09013169 0.13670033 -0.121835575 0.69993335 -0.22088379 0.041989468 -0.4242167 0.25669277 0.28398886 -0.21763287 -0.010718175 0.013588487 -0.19011678 0.043771047 -0.018277872 0.180396 -0.316166 0.09440403 -0.07687709 -0.14056984 -0.36570704 0.22399007 -0.5020963 0.44122645 0.17428237 0.1478119 -0.10020929 0.46142706 0.083423756 0.34553137 -0.2706921 -0.18687156 -0.37348908 -0.12593867 -0.26262963 -0.22650711 0.3956359 0.11090192 0.0481871 -0.23856631 -0.011931609 -0.32675332 -0.15819903 -0.58140427 -0.19578648 0.18951455 -0.21402295 -0.4072656 -0.17970781 -0.7127951 -0.29793206 -0.19746448 0.38316342 0.02460616 0.41780385 0.11564552 0.63498217 -0.069760464 -0.18380277 -0.057417475 -0.16069792 0.04529754 0.014243499 -0.06649173 -0.2259952 -0.12750468 -0.09616085 -0.64738035 0.19670275 -0.0627909 -0.21626422 -0.5211507 -0.29008624
146 0.02412809 -0.14569822 -0.12330667 0.2833426 0.2629506 -0.16872942 0.39591095 -0.052691013 0.09187119 0.09238473 -0.15486246 0.14498231 0.034403674 0.19491644 0.24633062 0.28276625 -0.08042924 0.048434794 -0.5432406 -0.045837104 0.16641285 0.19138832 0.3644755 0.44622165 0.030951887 -0.524732 0.13882579 -0.2365291 0.26376373 0.30652773 0.055502422 -0.42043602 0.3042616 -0.1369546 0.3597338 -0.7924838 0.2007557 0.22441204 -0.12684079 -0.21101077 -0.5304468 -0.024883237 -0.15407573 0.136874 0.36650056 -0.2358034 -0.25972608 -0.16288882 -0.48333552 0.50093174 -0.07407407 0.08459109 0.58638775 0.002176431 -0.2094582 -0.25718185 -0.0317954 0.057194993 -0.27589312 0.032478936 -0.18992193 -0.36294395 0.30940187 -0.32825378 -0.07331773 0.28656334 -0.0074682315 0.38717073 0.27818882 0.6711331 0.21595496 0.02311102 -0.5236846 0.31410205 -0.2826568 0.0022138206 0.3074516 -0.21262869 0.20611091 -0.07791726
28 0.14729698 -0.18250923 -0.16429272 0.037145052 -0.124631085 0.17995518 -0.12291973 0.057588696 0.23574737 -0.06798231 0.16600469 -0.014322658 0.06751786 0.6042097 -0.6375882 0.31319997 -0.07359714 -0.14642376 -0.23347652 -0.39051667 -0.25842324 0.24172159 -0.1717547 -0.5446175 0.121826984 0.09095088 -0.036806054 -0.6517832 -0.043850783 0.44178224 0.12570885 0.47874722 0.029834546 -0.38062143 0.56405234 0.27633518 0.52501434 -0.114017405 -0.3152183 -0.36509082 0.0909078 0.17855804 0.12262761 0.6027858 -0.45201007 -0.27469054 0.19297627 0.19312795 0.07339429 0.16223809 -0.25481877 0.15503442 0.28793547 -0.23424748 0.51417166 -0.119595416 0.24340063 0.4174373 -0.044519674 0.0498092 -0.18821558 0.051167123 0.068397276 0.37251267 0.05598387 -0.14259635 0.015429983 0.08585191 -0.28879467 0.25230962 0.89012706 0.2400221 0.09020872 -0.11554378 0.17922632 0.051907632 0.6057333 -0.03695515 0.2414624 0.029106906
781 -0.08735002 -0.03336611 0.35549095 0.029905705 0.31214643 0.10944959 -0.15052298 0.12776376 0.075842336 0.583369 0.43315506 0.32378373 0.107732914 -0.09424766 -0.20926927 -0.10900329 -0.41825548 -0.19473313 0.029617852 -0.56571424 -0.059778713 0.020976255 0.45860088 -0.26016155 0.28571987 0.045206025 -0.34278446 -0.8150822 0.010967977 0.25963056 0.45454147 0.021389762 0.19570313 0.3367262 -0.12071029 -0.26014757 -0.34884018 -0.34190246 -0.5647042 0.47657368 0.02256982 -0.20663045 -0.049713742 0.259853 -0.023814974 0.6755988 0.038139693 -0.07001693 0.26070666 0.23785062 0.27969712 -0.2692969 0.00014077371 0.005954932 0.15119024 0.25766057 0.5532829 0.08869352 -0.059008658 0.4714715 0.2067402 0.03076172 0.12158306 -0.6488963 0.031336073 -0.029814163 -0.2580108 0.14613824 -0.13285238 0.51346934 0.36827356 0.2893246 -0.006376873 -0.27564892 -0.04332513 -0.2549216 0.20831433 -0.042621553 -0.2527147 0.4620034
1727 -0.30109528 0.033308815 0.18798517 -0.139871 0.32589453 0.0039211926 0.07954447 -0.40768236 0.29779574 -0.07706139 0.41250992 0.34765765 0.32094932 0.18841411 -0.059274986 0.44927377 -0.09012798 -0.27417037 0.39896607 0.1534204 0.30344352 0.44198498 0.4813154 -0.5331417 0.19356447 -0.23451686 -0.43733135 -0.0055749514 0.20579225 -0.017301649 0.80916315 -0.23646791 0.12303358 0.12622999 0.5432292 0.039007388 0.48617804 -0.59315485 0.039104007 -0.43193343 -0.16413145 0.1436766 -0.4351886 0.3251599 -0.14414343 -0.037343856 -0.10266315 -0.06975747 0.07860462 -0.21870925 -0.42257738 -0.17200269 -0.34764197 0.24628232 -0.58388066 -0.097294934 0.1456738 -0.1699332 -0.11810759 0.027557015 -0.18636467 -0.45443368 0.55622554 0.49659348 0.43984008 0.3758943 -0.14926259 -0.027168382 0.2719116 0.6025417 -0.29276335 -0.24844772 -0.058809068 0.20162192 -0.47972465 0.36122343 0.36279112 -0.12060931 -0.33462688 -0.34155467
103 -0.19470182 0.10927381 -0.30230117 -0.29785433 -0.064291604 -0.28868943 -0.18221763 0.06459632 0.5636923 0.29038337 -0.15915856 0.30466393 0.4067459 0.01337188 -0.5644464 0.31710014 -0.59279495 0.06742284 -0.42531082 -0.06353312 0.20140812 0.060674153 0.043010153 -0.49759895 0.069318295 -0.11582294 0.45867506 -0.29599348 0.33642775 0.2029003 -0.08325097 -0.2051945 -0.029084804 -0.17439568 0.2633636 0.07604344 0.014468493 0.24861544 0.13369572 -0.4017333 0.42277223 -0.1837118 0.07806728 0.1625969 -0.5716023 -0.008567892 -0.29493213 0.41074726 -0.18789795 -0.25754413 0.20886782 -0.4955563 0.46591017 0.14349657 0.5096513 0.10096206 0.14104675 -0.062459182 -0.3675883 0.09371397 0.09974147 -0.34944302 0.3455477 -0.107769586 -0.080727935 0.4657172 -0.43376353 0.22486688 -0.13532408 0.13495481 0.18025924 -0.36940742 -0.2646027 -0.88984925 0.29442412 0.07807734 -0.10692868 0.22422373 -0.024982348 -0.32708168
198 0.00013752321 -0.06648963 -0.29397738 0.15161586 0.67495066 0.066885486 -0.40433854 0.33070958 0.39695224 0.2138737 0.40396884 0.15526974 0.55244994 0.9131852 -1.0218906 0.6037208 0.22762842 -0.39828756 -0.04306147 -0.46454492 -0.37296787 0.83783776 0.42920673 -0.4532106 0.26494437 0.41208777 -0.13058841 -0.5395115 0.057370197 0.42984736 0.100846685 -0.36340538 -0.3727591 -0.13151722 -0.54486793 -0.304093 -0.027704418 -0.088764854 -0.5527204 0.8621719 -0.012934627 -0.33145842 0.37672985 0.1325746 0.20856549 -0.07428182 0.18427536 -1.094748 0.11636918 0.13205025 -0.19775194 -0.17555808 -0.09344286 0.36506498 -0.37853295 -0.12003716 -0.066081814 0.03585135 -0.05666056 0.08422655 -0.08610352 -0.0627251 0.7624043 -0.2978684 -0.746735 0.9312478 0.5851285 0.30408117 -0.066542685 0.6119727 -0.32416752 0.31001118 0.13824332 -0.51901424 -0.84230804 -0.1106207 -0.030149002 -0.22984207 -0.96918255 0.13724408
1545 0.2030659 -0.1961065 -0.0012249224 0.17172216 0.24428107 -0.28428045 -0.16918543 0.42414454 -0.03682142 -0.6925766 0.16843385 0.52048314 -0.023809584 0.27830264 0.085286126 0.18706222 0.66861105 -0.21085063 -0.25870582 -0.11575838 -0.3117571 0.020071005 0.11021107 -0.6216852 -0.16990843 -0.17692514 -0.17558338 -0.38176206 0.025439965 0.35242262 0.0052979225 0.04850402 0.094912805 0.27711987 0.1658563 -0.1275851 -0.22834802 -0.63065743 -0.039126955 -0.23654848 0.33340994 0.02466682 -0.57362735 -0.19214562 0.08292165 -0.28141877 -0.050942536 0.25097293 -0.21596514 -0.27433267 0.45661378 -0.22109443 0.18970391 -0.29416493 0.5285599 0.50604963 -0.537277 -0.5718029 -0.22447406 -0.19605973 0.1852872 0.06062388 -0.08655632 0.11506216 -0.3120191 -0.30086395 -0.3175449 0.10859615 -0.51474744 0.58758557 0.10735279 0.29213133 0.01530839 0.31288236 -0.022637125 -0.059886266 -0.06463617 0.0015558897 0.07260959 0.48804036
2661 -0.5228697 1.4591588 1.244363 -1.6660858 0.45744583 -1.1787934 1.4923679 0.64923114 0.75273865 -1.9957045 0.005405986 -0.10141241 -0.15098727 -0.28378052 -1.0867047 1.387953 0.59038305 0.47517744 0.5792337 -0.9800362 0.7164625 1.0155877 1.2661115 -0.8413272 -1.204439 0.57200265 -0.3071534 -0.85581166 -1.9357285 1.2820572 -0.9120512 -0.2970069 -0.4993618 -0.7974604 0.97880876 -0.035168573 -0.07555224 0.64625555 -0.5965872 0.7019181 -0.07832104 -1.8368609 -0.61514103 2.5698295 -1.4460988 0.99434966 -1.3476708 -1.1173764 1.4493119 -0.12786685 -0.3762262 0.048436217 0.94570047 0.05911445 0.35666957 0.4902631 -0.37288427 0.47075748 -1.1515332 2.5348947 1.4837463 0.52021813 -0.21155463 1.0866097 -0.71409154 1.4063745 -1.3379666 -0.11314303 0.54856193 0.19589508 -1.692499 0.5515008 -0.8153845 0.18798348 -1.2500606 -1.407369 1.6685119 -0.06906369 0.0030208656 0.4586309
555 -0.4323371 0.5348485 -0.45436075 -0.027893547 0.6828786 -0.18766949 0.54672784 -0.24259509 0.18701169 -0.08660007 0.62296706 0.31889206 -0.5471537 -0.058661725 1.1204834 0.57534677 -0.4310228 -0.47460625 0.7258804 -0.14828283 -0.28265557 0.48289946 0.29665622 -0.75392914 0.15414512 -0.19564535 0.39742413 -0.20669861 -0.63634235 0.31346858 -0.09775805 0.54575956 0.52799296 -0.6754811 -0.23553282 -0.15080686 0.712203 -1.2499593 -0.44296503 0.19622396 0.04900231 -0.2521943 0.96388113 -0.2784109 0.16917267 -0.23437718 -0.90981126 -0.9037695 0.27653927 0.879898 -0.37915078 -0.34870005 0.63232136 -0.4343128 1.0092769 0.28813228 -0.57158065 0.14342993 -0.62634027 0.47086516 -1.0600626 0.49024352 0.32414144 0.6080542 0.0923353 0.96068615 -1.0282398 0.3541029 0.1505562 0.03985668 -0.36823332 -0.40078187 -0.64916253 0.26567823 0.8803245 0.17655398 -0.474732 0.61172646 -0.17465639 -0.017608501
675 -0.74452484 -0.20527224 -0.31604853 0.36698425 0.57770216 0.19497429 -0.20676532 -0.11836996 -0.041258097 -0.29455316 0.12890686 -0.041488152 -0.41812223 0.15664217 -0.13648264 -0.06610382 -0.62475634 0.083586715 -0.13513654 -0.09058818 -0.6291046 -0.11003299 0.114725664 -0.6214615 0.40119797 0.13981822 -0.202849 -0.043569073 -0.40071437 0.16681866 -0.008505593 -0.11318831 0.19278087 0.15027075 0.054206975 -0.12249408 0.1965737 -0.29400873 0.31981114 0.032453 -0.28832608 0.17607254 0.4815153 0.32548392 0.011733644 -0.06700879 -0.3688772 -0.31882462 -0.2926117 0.15461864 -0.19491011 -0.44796997 0.3201316 0.083649985 -0.063950524 -0.21540605 -0.24438912 -0.40554142 -0.013820131 0.44994035 0.54363155 -0.05812685 -0.09478714 -0.018674718 -0.146287 -0.36418337 -0.050802674 -0.15573731 -0.3568318 0.38114834 -0.26889336 0.26992702 0.06501514 -0.07891613 -0.30930454 0.34445482 0.53011835 -0.8238825 -0.072995596 0.11838202
60 -0.20373926 -0.44373944 0.21214369 -0.54926676 0.86968505 0.17335226 -0.4437457 -0.18166299 0.012207339 0.1709093 -0.027184725 0.5581451 0.30490163 -0.06668408 -0.3416017 0.28488103 -0.17486495 0.0074249217 0.59990424 0.34236968 -0.007729738 0.2924381 0.08099781 -0.45714024 0.006372339 0.057184033 -0.08680972 -0.39065257 0.19486593 -0.36203223 1.0879666 0.02229259 -0.21087621 0.26665106 0.396935 0.1903292 0.57384044 -0.3605576 -0.49614832 -0.2329796 -0.034935933 0.48929366 -0.20490466 0.24593987 -0.009780254 -0.05368843 -0.7994117 -0.3337043 -0.036331125 0.10337754 0.025666313 0.115914434 -0.39145538 -0.24006718 -0.46299687 0.18473522 -0.18488052 -0.07829484 0.18110201 0.69471675 0.2516155 0.19801588 -0.12035023 0.38562718 0.3673389 -0.1287554 -0.47169518 0.32663935 -0.042585686 0.62950367 0.04724526 -0.27157196 -0.26799127 -0.26342952 -0.13082659 0.5063255 0.116484135 -0.10286495 -0.06707252 -0.56778026
3321 0.09895299 -0.17808887 0.26452392 0.2913569 0.32530412 -0.06446729 0.018853094 0.29495674 0.024288492 -0.10002734 0.18770495 0.2734612 0.10246224 -0.39391178 -0.20703258 -0.28149337 0.38586307 0.18529183 0.23702936 0.12674186 0.0719065 0.0123731475 -0.40104142 -0.7460203 0.042263757 -0.118845046 0.24199456 -0.33133864 0.019741558 -0.24328148 0.018632008 0.018135902 0.33443233 -0.014736157 0.13590182 -0.08168055 0.15541488 0.18061258 -0.45380372 -0.05372425 -0.10526848 0.21786252 0.6185152 -0.09336983 -0.1408557 -0.28507355 -0.08387446 0.24895088 0.63988316 0.38413212 -0.54624975 -0.12034293 -0.11065267 0.31554854 -0.6234956 0.43426642 -0.46513575 -0.54763794 0.14613299 0.17298463 0.2563629 0.6548199 0.67127466 0.16506211 -0.15728886 -0.27713087 -0.6709787 -0.13675722 -0.44395334 0.32418016 -0.018886782 -0.2822119 -0.8867005 0.3616171 -0.119552836 -0.02184846 -0.21766454 -0.051740814 0.13827418 -0.49938515
1170 0.52301997 0.18347874 0.41850924 0.17518613 0.51287264 0.23317172 -0.13972124 0.039915647 -0.5142354 0.045486547 0.21994022 0.23800088 -0.046471026 -0.066853896 -0.27934855 -0.2834037 -0.14916581 -0.22895202 -0.51675934 -0.73560053 0.4433173 0.21261157 -0.154895 -0.15678558 0.3065443 -0.11882105 -0.8241266 0.57870877 0.09253164 0.5364068 0.0031830014 1.1383885 -0.3960671 0.27488768 0.17260213 0.010938022 -0.2649886 -0.2953169 -0.65299827 -0.0021801447 0.567414 0.044538867 0.08324179 0.3240878 0.23650582 0.2978129 -0.75742143 -0.1933472 -0.22132073 0.14992864 -0.50638455 0.26083592 0.3207311 0.32588518 -0.018059175 -0.30800092 -0.43303537 0.28272665 -0.13540052 -0.16785951 0.3301202 -0.38217118 0.35172588 -0.2600801 0.4100177 0.66302586 -0.8081109 -0.19966263 -0.58539796 0.19606134 -0.49030644 0.23071508 -0.09980088 0.2185338 0.41865376 0.08304259 -0.24046588 -0.49184883 -0.12529305 -0.5080917
3324 0.090461455 -0.19835764 0.25833094 0.32367262 0.31647077 -0.105774336 0.0063011185 0.25217134 0.0063614985 -0.13146311 0.17086953 0.33164448 0.14240941 -0.41450185 -0.20599526 -0.24697562 0.3948716 0.2051353 0.24942864 0.13887435 0.05514969 0.030030167 -0.40239272 -0.73551404 -0.023509245 -0.14218955 0.24772629 -0.28413755 0.05136455 -0.2233294 0.076650925 0.02865026 0.35908327 -0.008252315 0.14089155 -0.14483976 0.10772533 0.20721835 -0.4679184 -0.04429818 -0.09200194 0.20724338 0.6006109 -0.038846113 -0.14954221 -0.27629924 -0.1118486 0.18841885 0.60048854 0.39090842 -0.5399636 -0.12886786 -0.11098418 0.2850009 -0.63207495 0.46095476 -0.44132215 -0.5708135 0.09507812 0.16066974 0.24758157 0.62868464 0.6804634 0.13435557 -0.110202126 -0.27247214 -0.6300067 -0.10353119 -0.37483233 0.3359706 -0.015049891 -0.29111376 -0.83516675 0.3653406 -0.104155764 -0.013200901 -0.11944509 -0.07426019 0.11999427 -0.47240552
1863 -0.12798525 -0.21850039 0.08257551 -0.021432845 0.47733364 0.023072992 -0.18013455 -0.098992795 -0.07197775 -0.11830172 0.3543325 0.040004432 -0.029661791 -0.47016633 -0.07357976 0.101537816 -0.12304781 0.07366243 0.3358774 0.016943993 -0.33236986 -0.14922516 -0.00054079026 -0.43233865 -0.01249051 0.27956626 -0.0028995108 -0.5536403 0.22564927 -0.332272 0.41819534 0.12507577 0.24453393 -0.004946982 0.17375246 -0.144002 0.29725966 -0.29659444 -0.04759684 -0.21044756 -0.06591848 0.11204452 0.193793 0.19780451 0.040756803 -0.15874384 -0.16147085 -0.024466358 -0.016032923 0.044865265 -0.6098018 -0.092360124 -0.14113064 0.19370143 -0.66284466 0.07161652 -0.45058775 -0.4443982 -0.20088345 0.31701928 -0.038651984 0.5904361 0.22829825 0.44756168 0.12982139 -0.046278406 -0.59630376 0.06966261 -0.24742267 0.3829038 -0.08669873 -0.20357409 -0.36220324 0.11487212 -0.4090705 -0.046040528 0.13919781 -0.12913801 -0.27834785 -0.70813364
2770 0.10468004 -0.32954395 -1.501616 -0.072445184 0.78543293 -1.1814271 0.4292971 -0.44690883 0.21723594 -0.6495345 0.7042336 0.72950864 0.38409927 -0.15395464 -0.78593296 0.787185 0.12563391 -0.18662451 0.46939564 -0.6266557 -0.11374226 0.5045662 -0.26952457 -0.8783201 1.4520153 -0.6529317 -1.1487957 0.70296603 -0.16887046 -0.30580336 0.19092943 -0.4860304 -0.08087988 -0.15045089 -0.32977152 -0.04620539 1.2350638 0.45882824 0.47672406 0.05371723 0.44263455 0.19824193 0.35585365 0.338525 0.3614056 0.020247644 -0.45345917 -0.13270725 0.13344628 -0.2539014 0.83944005 -0.105453074 0.47565675 0.5512029 -0.31672022 0.17896077 -0.099686876 0.30275872 0.25431338 0.77755845 1.5992914 0.27220005 0.15531266 -0.0929492 -0.2707011 0.86238146 -0.36804685 0.7180244 -0.6143903 1.3621076 0.24249803 -0.3157767 -0.43866944 0.30688044 0.72369576 0.5071487 0.12933426 0.4663439 -0.5572733 -0.090395525
1236 -0.039835423 -0.39037484 0.05333365 0.052634556 0.098584205 -0.30711207 0.0464102 0.3655387 0.16773182 -0.44364738 0.21659088 -0.22019364 -0.53121763 -0.032132786 -0.06815558 -0.24705276 0.087561905 0.16762167 -0.03800612 -0.51872206 -0.09498129 0.4987363 0.3624659 -0.456561 -0.23628584 0.4105184 -0.08476507 -0.1044476 0.42375514 0.15068322 -0.033411745 0.20949443 0.45014605 -0.43937647 0.1568282 -0.29851657 -0.29790697 -0.19648774 -0.22149827 -0.45493808 0.23404634 0.054274917 -0.18847235 0.18417084 0.450444 0.14162396 -0.13245454 0.038100317 -0.105122484 0.06690851 0.24014993 -0.28798848 -0.11375681 -0.034578312 0.06583156 0.112238444 -0.0546951 -0.45006466 -0.028375408 0.31902757 0.2958632 -0.1479286 0.09057726 0.40163228 -0.17821924 0.17085579 0.047964882 0.2125195 -0.24902835 0.228224 -0.15612407 0.09678448 -0.076776944 -0.24599773 -0.15243177 0.20499799 -0.10449955 0.48200038 0.19920605 0.2593937
611 0.18694349 0.1074286 -0.23829077 -0.21495308 0.55091035 0.31381127 0.08756031 0.31069994 0.08719472 0.0066755177 0.46614885 0.009206126 -0.050010752 0.6648611 -0.17244315 0.09765494 0.048101783 -0.09649101 0.90724087 -0.2770171 -0.8087332 0.071971975 -0.2886483 -0.5515132 -0.044169 0.14565474 -0.5006155 -0.16621462 -0.019387962 0.24561925 0.068090074 -0.17268808 0.017453276 -0.21423942 -0.034708913 0.044663183 -0.102523446 0.2018092 -0.59690225 0.009250411 0.14694853 0.36032844 -0.33103895 -0.630282 -0.35578024 -0.13909076 -0.3284789 -0.4609256 -0.27175716 0.46966994 -0.4459855 -0.50521874 0.44341585 0.20444971 -0.18163969 -0.56230676 -0.05093998 0.031646445 0.17659445 -0.45542186 -0.39182234 -0.002498367 0.45674965 0.65098494 0.12060218 0.2883876 -0.23106946 -0.013457902 0.16477717 0.21004218 0.4899426 0.12001737 0.1758431 -0.34951627 0.22840114 0.31305185 0.75201297 0.4272729 -0.04439477 -0.009635614
588 0.2937547 0.38652962 -0.21183829 -0.30574414 0.33647627 -0.04944888 0.7883067 0.08964879 0.29397723 -0.09252297 0.79349947 -0.18165618 -0.22350127 0.24585603 0.38104618 0.69584817 -0.32320622 -0.69136804 0.62555987 -0.38148168 -0.21004707 0.07658153 -0.03227765 -0.48218393 0.51413333 0.051142916 0.49542746 -0.42509618 0.27899268 0.16037987 -0.17339678 -0.03094829 -0.36243004 -0.18430223 -0.3317762 -1.0448186 0.27979985 -0.46228912 -0.3331652 0.28138745 -0.1873953 0.24893746 -0.40202498 -0.51986367 0.41903403 0.15620132 -1.1085494 -0.18952538 0.011001517 0.08101235 -0.26522878 -0.4313216 0.3049487 0.036925044 -0.014806716 0.07145876 -0.049811747 0.8618642 -0.03676789 0.33932003 -0.19313866 0.74411666 0.2769365 0.51443946 0.22284053 0.6218107 -0.40815794 0.10955516 -0.09596473 0.0063581853 -0.18357661 0.108225614 -0.5122599 0.083922 1.0476189 0.2928372 0.24721955 -0.3338592 0.40940726 0.43083805
153 -0.4742464 0.18005478 -0.2858548 0.086699635 0.4395308 0.052071694 0.016214311 0.024284098 0.00999043 0.09243122 0.10847753 0.10189645 0.046603717 -0.14941843 0.06574933 0.13142405 0.17654711 -0.34632328 -0.35895482 -0.5860856 -0.25582367 0.050272312 0.3183538 -0.19190997 0.016994659 0.15567745 -0.004042744 -0.30084223 -0.27768484 -0.007114942 -0.3548054 -0.11294498 -0.534593 0.106099874 -0.60423166 -0.08620945 -0.37075698 -0.49418354 -0.48896745 -0.28972048 0.036848284 0.21844642 0.5024034 -0.133771 -0.080521755 -0.08983613 -0.26816115 0.25040874 -0.023763191 -0.38300323 -0.5167075 0.22755682 0.60626 -0.11580776 -0.49910796 -0.2731619 -0.07293823 -0.22664358 -0.06299398 0.043354705 0.2879402 -0.19082692 -0.15275735 0.027468652 0.417891 -0.37842306 -0.48872086 0.44358525 -0.44213188 -0.030495381 -0.14737506 0.0056556873 0.31315738 -0.007185952 -0.2528644 1.0126884 0.09113536 -0.50081086 0.206671 0.1733403
215 -1.1392169 -0.47566316 0.33198553 -0.0045834323 -0.1306268 0.37972766 -0.020841923 -0.5504135 0.40059882 -0.21840999 0.68531495 0.12627238 0.30671388 0.1787832 -0.2165555 -0.07287046 0.281763 -0.6084861 -0.1383272 0.08913359 -0.6270841 0.50825274 -0.26150483 -0.062111113 0.028970229 -0.1801402 -0.029365798 -0.08246781 0.04377366 -0.42025 0.3659041 -0.1341293 -0.35854575 -0.30759692 0.62496173 0.31344658 -0.09465211 0.37270066 -0.5675842 0.10226388 0.23093157 -0.30616128 0.29622194 -0.55929536 -0.52558744 0.30492586 -0.843561 -0.09195564 -0.8096117 0.05813032 0.10876898 -0.15912864 -0.5118244 -0.11137245 -0.4757252 0.38466907 -0.16922142 -0.029262293 -0.40676418 0.67332244 0.04582221 0.22759019 0.79314315 0.40326104 -0.19612299 0.7496403 0.6579609 0.55831957 0.0032588805 1.1826996 0.15449348 -0.12882079 0.38292372 -0.047266264 -0.22950704 -0.68211704 -0.35256422 -0.4239583 -0.35020018 0.56682515
482 -0.29313982 0.27030587 0.24319944 -0.123863325 0.28639215 0.4729276 0.32002333 -0.06087715 0.028502908 -0.42983595 0.072672285 0.56524086 -0.07818747 -0.23258658 0.20561111 0.13045028 -0.110057876 -0.69922304 -0.7020619 0.11926026 0.06653384 -0.39865994 -0.09536206 -0.18555167 0.29523852 -0.50963295 0.6385804 -0.16535176 -0.34766394 -0.045933317 -0.3187756 0.29568583 0.609799 -0.5375107 -0.49815178 -1.3242872 -0.21089412 -0.0958217 -0.72181666 0.086268015 -0.2619123 -0.038414907 -0.19885483 0.079881296 -0.0119132735 -0.28761756 -0.38443914 -0.2725446 -0.7284511 0.16387457 0.10659212 -0.041275285 0.5053697 -0.07020301 -0.31879613 0.038491756 0.63856465 -0.16277777 0.22382121 0.4960652 0.20309207 -0.016556168 0.46154544 0.24071462 0.45834184 0.5733503 0.1851966 -0.037976142 0.8698836 0.8626835 0.47157103 0.10918411 0.1662163 -0.07995454 0.29738033 -0.3012594 0.024991259 -0.17051005 -0.06775798 -0.10989066
210 -0.33390298 -0.27139845 -0.030507153 0.48803818 0.06920405 -0.36580843 0.5679917 0.24419783 0.34785286 -0.029433092 0.66925323 0.0010285458 0.2755512 0.15862831 0.21923834 0.20926031 -0.48315892 -0.6026536 -0.38807878 0.16665284 0.20249514 -0.15062062 0.22281383 0.44499508 -0.03752735 0.0029254667 0.24517275 -0.37494656 -0.11053699 -0.118288994 0.2664096 0.28076354 -0.024462454 -0.14702663 -0.08324542 0.01808762 0.24461341 0.024714045 -0.27283216 0.2750023 0.05764786 -0.21169992 -0.39479744 0.033239987 -0.053075407 -0.5545023 0.035503637 -0.5197493 0.16041979 0.40193596 -0.22371405 -0.11777456 0.07775798 -0.044896666 -0.40793425 -0.547693 -0.06517788 -0.8956925 -0.3594876 0.1088522 0.112052105 0.0126308 0.15793648 0.007388088 -0.5404696 -0.2692002 -0.54583716 0.4285095 -0.10925281 0.51541567 0.06612929 -0.62168 -0.13545741 -0.07309371 -0.13507938 -0.042710457 -0.05964516 0.26042876 0.17794803 -0.08124351
137 -0.37509596 -0.54601187 -0.407328 0.40885904 0.59224355 -0.4787794 0.40631124 -0.28237173 -0.043245226 -0.15706664 -0.08967006 -0.09991661 0.6045215 0.14156078 0.12768058 -0.12870699 -0.25277394 -0.103849895 -0.30831674 -0.3628964 0.5630292 -0.22949511 0.024602024 0.05220309 0.199791 -0.32828635 0.06349233 -0.5682832 0.41215503 0.1817722 0.1562149 -0.6786843 0.019019539 -0.426906 0.045486163 -0.41069156 0.073254436 0.12827146 -0.86745685 0.2297488 -0.2472768 -0.00701884 -0.16548638 0.26091394 0.3467209 -0.7148152 -0.006197619 -0.35281077 -0.14635636 0.30734774 0.11247173 0.4875284 -0.22112094 -0.5029864 -0.2034518 -0.50606036 -0.659307 0.06453885 -0.46362025 -0.17655635 -0.48113498 -0.7704762 0.6063331 -0.39867824 0.11365584 0.40520847 -0.23171751 0.22194694 -0.3489931 0.3896328 0.11915028 -0.052866753 -0.46303877 0.0780021 -0.09707733 -0.28732574 0.52873445 -0.090419345 0.13361381 -0.18873943
580 -0.07374782 0.031393245 -0.5205486 -0.4146762 0.3577772 -0.50401825 0.61884916 -0.84392625 0.054173313 -0.2378813 0.69321114 0.10797442 0.58449614 0.0029043998 0.5772846 -0.37363887 -0.4136167 0.3992591 0.11254901 -0.5709101 -0.14848262 0.6225451 0.27973947 0.31365445 0.61384714 -0.6888079 -0.51641816 0.66366804 -0.39819092 0.52074516 -0.14117683 0.03513742 0.1916036 -0.38842264 0.20396107 -0.34258986 0.34815994 -0.12654556 0.3508753 0.6481172 1.0017396 0.31901726 0.13961084 -0.3038621 0.055487406 -0.59185946 -0.33077034 0.09898937 -0.20963064 -0.68718475 0.15741615 0.26398173 0.7095262 -0.052677583 -0.96046674 -0.11523331 0.5918788 0.075916976 0.6558815 -0.28297585 0.39274994 0.5809087 -0.18126427 0.6373422 -0.31089944 0.5988627 -0.30108798 0.6116674 -0.5749045 0.9993399 0.77231425 -0.7719309 -0.4626067 -0.09439283 0.35160694 0.5574421 0.9899059 0.34087652 -0.5512192 0.90424055
497 0.071053624 0.08495114 0.061977495 0.121255115 0.36835015 0.08095729 0.07031073 0.41286525 0.08067971 -0.3453333 0.042784683 0.27541134 0.33443227 -0.039838538 -0.2576805 -0.35571986 -0.014662609 0.046021823 -0.12695926 0.018263433 0.07341491 -0.11416965 -0.33056983 -0.9707431 -0.22313851 0.050139938 0.20848818 -0.004066589 0.17171301 0.120848246 0.17627256 0.15273856 -0.1115709 -0.0729241 0.45591515 -0.3460216 0.08724508 -0.06507433 0.0029011392 -0.043247584 -0.077716924 -0.33013046 0.36527058 -0.13466042 -0.20249994 -0.11001197 -0.10549297 0.30702564 0.70839185 0.277398 -0.013921323 -0.12439191 0.0567009 0.1960879 -0.47869712 0.109168515 -0.327344 -0.7030291 0.42452875 0.028483618 0.2784024 0.20861636 0.5438325 -0.1363775 0.055463746 0.17649762 -0.120987795 -0.19917442 -0.16194135 0.2416311 0.15362063 -0.30955255 -0.5697299 0.3755305 -0.101557605 -0.20551324 -0.54390836 0.106184304 0.3622878 0.22667128
618 0.14787193 -0.118900225 -0.28411657 -0.3319704 0.09721376 -0.10614559 -0.3791383 -0.059045993 0.09076764 0.084927976 0.59514576 0.40778556 -0.23783873 -0.059101593 -0.06884173 -0.1065226 0.2902762 -0.23000929 -1.0361166 -0.047335144 -0.19384354 -0.041945286 -0.11198945 -0.3977887 0.07428144 0.3780412 -0.2533526 0.29901335 -0.2173205 0.26106054 0.113739416 0.14238173 0.46158662 -0.331561 0.5720552 0.021887904 -0.40027928 -0.08142823 -0.8012728 -0.0064785387 -0.27857217 -0.030287229 -0.366693 -0.28787887 -0.14092796 -0.109969296 -0.21208751 -0.31799647 -0.25179678 0.20048392 -0.4594808 0.050738815 -0.15679662 0.397252 0.29083002 -0.010416795 -0.45052254 0.058100108 0.17686363 -0.29603294 0.93293005 -0.34302148 0.24709976 -0.05635558 -0.0036483775 0.29140326 -0.22850254 -0.20559697 0.44312793 0.11905957 -0.024129998 -0.17675374 -0.18034232 -0.083940476 0.42733887 0.06180549 0.36213017 0.23258273 -0.18173596 0.16112615
435 -0.055651017 -0.49707037 0.016531719 0.2546485 0.20384417 -0.14733028 0.058520745 0.033274733 -0.23595722 0.038660295 0.1817717 -0.35974 -0.315573 -0.25637078 0.0022555413 -0.054810036 -0.36379358 -0.17618483 -0.37491828 -0.28128177 -0.22505282 0.26264817 -0.18607403 -0.21040848 -0.27580777 0.4490418 0.023491906 -0.25210962 0.049193095 -0.25664696 0.5196893 0.531861 0.22451979 -0.13206185 -0.07429415 -0.13280974 0.33422005 -0.1595284 -0.10726927 -0.27096036 0.011017727 0.21629602 -0.12448486 0.329244 0.24952322 0.017348409 -0.07642226 0.19446723 0.100511976 0.1624484 -0.04745874 -0.117177285 -0.0868162 0.11515211 -0.65371245 -0.020290842 -0.43626428 -0.27105647 -0.058117285 -0.009979469 0.0016362485 0.3966993 0.2987524 0.3797491 -0.17960057 0.24786362 -0.56960136 -0.000649161 0.14090566 0.49578834 -0.0676874 0.13984273 0.06649535 0.073721886 -0.5683134 0.0059955865 -0.091584496 0.49808654 -0.49765706 -0.45080993
659 -0.12205573 -0.11735335 0.0081379805 -0.23987779 -0.40495366 0.046200246 -0.05290874 -0.17949954 -0.26810673 0.4837199 0.48173234 0.08197646 0.13333374 -0.2045045 0.39015126 0.28402612 0.0823015 -0.12189664 -0.12905283 0.06803022 -0.19671886 -0.14643814 0.17162548 -0.621417 -0.17719871 0.1634006 -0.012607517 -0.405418 0.5570766 -0.2460288 -0.5875005 0.5088254 0.37476775 0.25402316 -0.17720062 0.1768285 -0.16164151 -0.15096527 -0.3679804 0.028909458 0.010700185 -0.50108016 -0.22382662 -0.029113546 -0.58166146 -0.14958355 -0.35222208 -0.07181988 0.10136032 0.09237906 0.015783643 -0.040646587 0.22317104 0.2566458 -0.05019859 -0.38751253 -0.0940142 0.34169266 0.0055061504 0.29216924 -0.052102067 -0.30718988 0.19736052 -0.13436796 -0.010718603 -0.18281354 -0.09699857 -0.47006732 -0.2752135 0.9255513 0.32028776 -0.07307166 -0.2168265 0.46416855 -0.6947529 -0.2986296 -0.29478607 -0.0013702604 -0.15110134 0.19559266
1749 -0.70418835 -0.20058025 -0.44728985 0.44347063 0.8179872 0.033639457 -0.12575361 -0.21433543 -0.11753651 -0.45966053 0.32624933 -0.2525499 -0.41226774 0.008149663 -0.11006464 0.21888348 -0.40338975 0.35259047 -0.022932107 0.1988172 -0.050849844 -0.16285445 -0.009115425 -0.544151 0.074989274 0.22985612 -0.24562347 -0.0904429 -0.1909025 0.19668661 5.547037e-05 -0.06871019 0.35589507 0.2962696 0.29824525 -0.19660592 0.26131132 -0.42897668 0.08079947 0.022928672 -0.13916153 0.0861355 0.591608 0.12249811 -0.02083429 0.038198832 -0.56104577 -0.123860165 -0.27809227 -0.010811128 -0.17285006 -0.19129214 0.3126085 0.00034147772 -0.4757979 -0.32161418 -0.13093548 -0.4104247 -0.49828407 0.30242154 0.4783604 0.055561893 -0.17627682 -0.0653388 0.15309072 -0.26569465 -0.23090467 -0.15877345 -0.46082455 0.1705278 -0.19128561 0.19521484 0.1808603 -0.1501503 -0.3035295 0.5775182 0.40400004 -0.7619007 -0.19748342 0.007727594
500 0.018197874 -0.45647186 -0.9076653 -0.36315814 0.19875497 -0.41199484 0.2510429 -0.54841375 0.29095268 -0.6766004 0.32600364 0.6904576 0.30262178 -0.0558952 -0.22779103 0.06333385 -0.3581744 -0.0022961623 0.15145938 -0.42581698 -0.14820148 0.41947627 -0.1327187 -0.4013202 1.041356 -0.4600007 -0.8531679 0.5693087 -0.197623 -0.13466743 0.17466237 -0.3084747 0.038934983 0.065108195 -0.26073703 -0.072358295 0.44225043 0.120153084 0.06056748 0.06971043 0.46011698 0.25873792 -0.13726307 0.13977036 0.10713876 -0.3395383 -0.17943557 -0.056838945 -0.1321138 -0.1934259 0.28745526 -0.32977888 0.09664216 0.21147163 -0.20293272 -0.3017687 0.032842346 0.107243754 -0.014550967 0.56264544 0.90859765 0.4645059 -0.057237826 -0.086323485 -0.26306754 0.61123466 -0.14711653 0.39676905 -0.35767433 0.66576236 0.18740204 -0.4218781 -0.13277608 -0.05656027 0.18019122 0.447499 0.13901207 0.1854729 -0.45542315 0.2834542
1035 -0.2096967 -0.6000547 -0.10572329 -0.18437089 0.3361979 -0.08561656 -0.0038432735 0.6254657 -0.24704248 -0.42667475 0.25894123 -0.7094074 -0.35875535 0.1459849 -0.108999625 -0.008210009 0.11229169 -0.18322247 -0.7408126 -0.09219968 0.47450542 0.7288714 -0.33067325 -0.5165205 -0.38496375 0.3331301 0.089172475 0.1776958 0.23384584 0.065135 0.48212042 0.515167 0.47065035 -0.17202613 0.17605957 -0.12773806 0.11302457 -0.16515577 -0.07601484 -0.17227638 0.6627229 0.24777159 -0.52276474 -0.38062534 0.065990694 -0.07129174 0.50786585 -0.07214737 -0.05859234 0.08360836 -0.054344885 -0.16337731 0.22668149 -0.5408758 -0.10038923 0.26188818 0.3016446 -0.040249165 0.23366722 0.7162422 0.44957924 -0.1931144 0.29689953 0.1953037 0.002389959 0.7414158 -0.41360086 0.14767458 -0.9104631 0.437557 -0.13748246 0.5056792 -0.31765923 0.3913372 0.18269062 0.5359449 -0.22566979 0.44735748 -0.30673388 -0.111419804
1372 -0.43326712 -0.4268512 0.3153382 0.13969165 0.05446379 0.35495204 -0.079215616 -0.038414326 0.26677883 -0.045055997 0.50854224 0.13618901 0.24365243 0.11704285 -0.050156873 0.03695323 -0.024775434 -0.11807984 -0.11573801 -0.045061503 -0.37934542 0.4029191 -0.16219854 -0.2394328 -0.15593415 -0.19792323 0.5653409 -0.01629573 -0.025801493 -0.42728877 0.046652228 -0.16602887 -0.19560665 -0.014846427 0.41846496 0.22873315 -0.20861635 -0.020050874 -0.47643104 0.0039850613 0.3637083 -0.22880076 0.3383347 -0.34726948 -0.6709871 0.036352012 -0.31761774 -0.08018531 -0.44683874 -0.008561026 0.32633144 -0.30069372 0.17158309 0.014716837 0.50285196 -0.0055794134 -0.41649315 -0.038226906 -0.23940715 0.43758667 0.25843894 0.03672854 0.7457571 0.17528233 -0.1271172 0.5220375 0.6990789 0.36104763 -0.020370532 0.9099942 0.34843734 -0.14407165 0.13364659 0.18197387 -0.11974027 -0.37556946 -0.45098895 -0.23794623 -0.2625051 0.21784185
158 -0.22316642 -0.37635097 0.15641275 0.0891834 0.0865985 0.22634502 0.29773203 -0.3302209 0.113193 0.37347656 0.27238876 -0.23242958 0.25244334 0.31491262 -0.79139686 0.1752011 -0.21018445 -0.14029337 0.21870668 0.19206305 0.0460515 0.33909708 0.38943666 -0.69269073 0.0882556 -0.0035865495 -0.32071474 0.37707642 -0.0894622 -0.03876975 0.78994524 -0.14840282 0.0013104526 0.45734584 0.44993138 0.06749269 0.11077101 -0.7500882 -0.1608188 -0.3640995 -0.41061005 0.19152804 -0.69364524 0.53654796 -0.1016343 -0.45754433 -0.2749619 -0.120471455 0.2757345 -0.23905788 -0.19872493 -0.38523716 0.009722631 0.014419343 -0.6394681 0.13924332 0.015984097 0.12509994 0.15645511 -0.47406068 -0.3014979 -0.69559425 0.6124008 0.25489536 0.56488705 0.60924715 -0.22044794 -0.050616108 0.47099355 0.6412088 -0.1618232 0.108765125 -0.17946014 0.20510869 -0.3689525 0.28736806 0.3339698 0.25904635 -0.47150674 -0.32242924
3020 -0.26674092 0.010917919 -0.046090513 -0.4579878 0.4973462 0.03896647 -0.08685959 0.5507031 0.2464176 -0.3629964 -0.076119564 -0.121130645 0.19718167 -0.029515594 -0.4018466 -0.099947974 -0.4571107 0.23627625 -0.018426826 -0.11148764 0.14859623 -0.1547281 -0.3055683 -0.87255996 -0.1610073 0.041451752 0.05907269 -0.3149172 -0.064592876 0.15881298 0.51962084 0.04450863 -0.16907698 -0.13702452 0.23813282 -0.18037777 -0.23735261 0.1950071 -0.054797653 -0.077799365 -0.11389643 -1.0619149 0.048269577 0.1610483 0.17665605 0.21854606 -0.36037597 0.3236913 0.30162328 0.18893941 -0.05808937 -0.1427076 0.13020317 0.13778335 -0.41917506 -0.41295746 -0.4992016 -0.5527809 0.6806091 0.18377008 0.13477948 0.035030052 0.67227316 -0.207278 0.03112945 0.23619093 -0.45469266 0.08803906 0.12244617 -0.16277614 0.51410383 -0.19227846 -0.17091641 0.31795827 0.27547303 0.17525999 -0.39898172 0.00087891123 -0.031100854 0.5224457
350 -1.0806283 0.31405896 -0.11152371 -0.52201766 0.27015525 0.25301597 0.56643486 -0.6505728 -0.03134556 -0.21318644 1.1914488 0.8678027 0.09367484 -0.6509811 -0.24110425 -0.09103769 0.33724385 -0.5356943 0.1099975 0.61601454 -0.19442053 0.38542938 0.489838 -0.15659434 -0.79040456 -0.33113045 -0.60409254 -0.004622184 0.5189711 0.48778406 -0.2323483 0.72661096 -0.5391936 -0.13460305 0.56703115 -0.6631439 0.050482284 0.06582843 0.13550222 -0.107989855 -0.14159484 -0.23952812 0.75856715 0.10372591 -0.29439068 -0.79838485 0.16244152 -0.8101856 -0.2203128 -0.1927909 0.08429299 -0.5623835 0.58763605 -0.3631623 -0.6983807 0.42769048 0.35557377 0.37872937 0.34316424 0.33260423 0.18972129 0.033976827 0.6464878 -0.05410161 0.043590732 -0.203297 -0.40567425 0.516938 -1.40384 -0.19203843 -0.17889392 0.45975795 0.14081523 1.464061 0.6993763 -0.30593854 -0.10727125 0.0980667 -0.7788185 -0.10364178
147 0.07988908 -0.38875502 -0.1451787 0.3342706 0.40657333 -0.5151532 0.36499563 -0.12542535 0.04427153 0.012189411 -0.104791924 -0.028813582 0.20160593 -0.036649466 0.3857 0.2973671 -0.13045503 0.15141116 -0.45012277 -0.11695672 0.18728615 0.21303794 0.39318308 0.39431375 -0.024701372 -0.571947 0.0658934 -0.36618677 0.35409757 0.38255468 0.21525882 -0.69361943 0.17819428 -0.2750683 0.25728425 -0.46524298 0.17288902 0.17389815 -0.39160925 0.077360764 -0.41080832 0.0063290717 -0.1383616 0.12192056 0.2457682 -0.22552721 -0.11036657 -0.40702492 -0.34044376 0.45151466 -0.06315844 0.22631274 0.14779381 -0.10552088 -0.27655298 -0.5621665 -0.30471587 0.048131194 -0.41997042 0.26765367 -0.4446385 -0.82325387 0.52558213 -0.46265236 0.074476175 0.27490425 -0.3080572 0.2775408 -0.23375724 0.5094161 0.1316052 0.008423803 -0.38010168 0.221081 -0.32188728 -0.24858664 0.45244548 -0.07507798 -0.06010511 -0.09820238
